1470 21
59101 0.43989268 -0.4009246 -0.4431386 -0.15836994 -1.7258052 0.13889831 -0.4309727 -0.6004595 -1.1158867 1.0023785 -0.8381718 1.1636953 0.5674661 -0.8501436 -0.25183916 -0.70206875 -1.0793271 -0.027057802 0.5525672 -0.5817242 -0.9706038
258507 2.0045545 0.043929942 -1.2885054 -2.2318993 -1.9616324 0.012343276 -0.09480623 -0.066152304 -0.91616905 2.1248515 -0.6070417 2.1204648 2.0811386 1.0748509 0.66882056 -0.1789989 -1.7150555 -0.12744512 0.0456768 -0.37201273 0.1991615
97211 -1.1890982 -1.6350127 -1.7208724 0.1538296 -2.9056375 -0.2673882 -1.0924668 -1.4652041 -0.040077556 -0.27574164 -0.22985056 1.0235585 -0.107983716 -0.7484781 -0.6895218 -1.8051494 -1.1999857 0.9140464 -0.42755237 -0.9861593 -2.1170945
32104 -0.6078978 0.9518149 -1.6778612 -0.25269163 -1.7507393 2.1820397 -1.2322016 -1.0552719 -2.0142438 2.0027273 -2.11672 1.1346705 0.47660193 0.32331946 0.09894631 -0.73438776 0.26388523 -1.6354825 0.40678662 0.2143875 -0.7809631
190015 -0.1405245 -1.1834462 0.41484162 -1.4184703 -2.3525794 -0.09010262 0.7936769 -0.9327515 -2.167832 0.28369576 0.5476634 -0.8035925 1.0295892 -0.556691 -0.33258668 -2.4960778 -1.4998206 -0.042665992 2.1619956 -0.5435644 -1.4111837
511135 -0.01924618 -1.1720326 -0.24042578 -0.39585966 -2.6207323 0.9116413 -1.708713 -1.3284769 -1.0069143 2.3494053 1.405885 0.6756226 0.90677726 -1.0595472 1.645656 -1.6883304 -1.4005215 -0.0119767785 -0.23787771 0.5075791 0.20954192
432453 0.56828576 0.029901586 0.9750116 -0.9708793 -1.1965137 2.3006666 0.513334 -1.4309437 -1.7379622 1.0233815 0.9148462 2.0653026 2.0617294 -1.3737668 -0.81467664 -1.2676033 -1.7331399 -1.7240217 -0.2523108 0.38549745 -0.40987098
468526 -1.9972638 -0.08950943 0.41179696 -0.14740124 -2.8634555 1.2172474 0.35387412 -1.1399688 -0.35678923 0.3977622 0.043857466 1.8743949 0.6218662 -2.280278 0.3011673 -0.07571126 -1.1673548 0.21350983 1.1961817 0.07798477 -1.9340271
420863 1.3848759 -1.4182379 -1.2033072 1.938566 -0.2687198 -0.28700474 0.59854466 -0.08752272 -2.5966516 1.9813669 -0.3054059 1.291365 -0.8803305 -0.8436842 -0.39882553 -1.0380348 -1.1239442 -1.4115223 0.7914289 -1.4995607 -1.7197018
201246 1.1045998 -1.9909334 -2.3841293 0.23314089 -0.8301931 1.4355029 0.060139585 -0.97066 -2.039196 1.3962841 -1.1557795 2.8371038 0.2510651 -0.0917285 -0.09638514 -0.29565576 -1.4918708 0.5981454 -0.733569 0.12725389 0.31097522
246386 -0.12363634 0.6367563 -1.4552591 0.5300029 -2.667345 1.218277 0.35555902 -0.20133893 -1.3667655 1.4894245 -0.593441 0.7583666 0.48815322 -0.21485026 -0.029514087 0.47542933 -2.3218524 -0.9154619 -1.5589088 -2.0429766 -0.36337093
516056 0.6142164 -1.7205683 -0.7989762 1.18027 -1.036532 -0.5713829 -2.0415359 -0.36021465 -1.0717647 0.4309978 -0.20271972 0.6656073 0.13786076 -3.0832682 0.8791829 -0.45710945 -1.0501089 0.04933333 0.54286265 -2.2096488 -1.2386571
272888 1.0183911 0.7977107 -0.5742056 -0.13129304 -0.8124503 1.5808305 0.35502288 -0.8047119 -1.9335316 0.66319036 -1.3428237 1.2591658 -0.3802191 0.1926614 -1.2938328 -2.3649807 -2.752029 -1.3514134 -0.31352583 0.08574878 -0.8801626
462375 -0.71256053 -0.81421375 -1.3722259 -0.28651425 -2.344425 0.30559215 0.54728335 -0.18928896 -2.581954 0.6287737 0.6870293 1.5434586 0.020279769 -1.3284639 0.43017608 -1.6646725 -1.5660784 0.30710772 0.7087329 -1.1763276 1.312695
335326 -0.5915427 -0.3615477 1.3529694 -0.9415658 -1.0136517 -0.32235688 -1.1414737 -0.25584635 -0.009405244 1.2201002 -0.19435109 2.0800502 -0.26849952 -2.9194272 -1.0025791 -0.5450193 -2.1681688 0.27623466 0.91591305 -1.7011377 -0.24410556
169419 -0.29758218 0.91583806 -1.5241381 -0.6936455 -2.647847 -0.11436752 -0.15220343 -2.0865967 -1.5590465 1.6192499 0.27923253 2.2412724 1.1532391 0.1499659 -0.19474894 0.73528314 -0.49842006 1.9188008 0.1909061 -1.5159819 0.029817965
203406 0.9646985 -0.48749045 0.48119938 -0.98934644 -0.57373375 1.5647627 -1.1335524 -1.2457811 -2.979053 -0.11747628 -1.4924136 0.24096744 -0.42545944 -0.50413173 -0.9678212 0.83204037 -1.7263744 -1.8601114 1.1869444 -0.5173885 -1.8857157
109029 0.90478504 -1.156873 -0.9377464 -0.103488185 -1.333272 -1.0640403 -1.8267019 -0.83612514 -1.89278 1.1031398 0.64372903 1.5429462 0.8199998 -0.82351464 -1.5782584 -2.751848 -0.8001032 0.61726767 -1.3072239 0.42489535 -0.7159989
397555 0.7331422 -1.361973 -0.18627122 -3.0185134 -0.7353433 -0.6455542 -0.1809094 -0.8681677 -0.42372456 0.930208 -1.8928208 0.7413069 0.33710432 -2.0761247 0.4127404 -0.44275168 -1.421994 -1.4351639 1.9680895 -1.3816546 -0.6995552
99944 1.3072594 0.14087881 0.49649557 0.3241474 -2.659155 0.74469835 -2.0338564 0.9990887 -2.201899 0.7366784 0.016969742 0.98293775 -0.23662366 -1.5760133 1.2321122 -0.22583781 -1.0108247 1.0806922 -1.260088 -1.9212844 -0.7057231
366262 0.54741055 -0.4341769 -0.39802033 -0.37732103 -1.909096 0.38726956 -0.65301275 -0.7563031 -1.4385052 1.3181579 -0.7889769 1.1720675 0.5203258 -0.8329386 -0.24414736 -0.7062028 -1.1459863 -0.03363495 0.4969459 -0.8549258 -1.0149319
190285 0.6041145 -0.47033074 -0.25721896 -0.4086773 -1.691717 0.37906492 -0.6548234 -0.8724582 -1.3498324 1.2911738 -0.7543258 1.1342646 0.5552258 -0.8916732 -0.3284966 -0.759715 -1.0656294 -0.11253252 0.46360072 -0.668512 -0.9952977
327259 0.48931962 -0.41399387 -0.33676735 -0.18366472 -1.5782603 0.34759834 -0.5996103 -0.66392964 -1.1392517 1.1952987 -0.6895387 1.0209965 0.44360065 -0.6756354 -0.12054584 -0.6942542 -1.037383 -0.20605007 0.39560822 -0.80118984 -0.78779507
206973 0.57980573 -0.38097295 -0.3473077 -0.23873156 -1.5006105 0.2885492 -0.54582995 -0.69870144 -1.0908448 0.9684812 -0.7687854 0.8619462 0.446021 -0.6864988 -0.3918132 -0.49974373 -0.90239644 -0.08097794 0.3966012 -0.71044856 -0.83711344
310726 0.24300522 -0.30602577 0.015090634 -0.2119056 -1.682411 -0.23115098 -0.7463229 -0.4388798 -1.0894158 0.9202843 -0.55019575 0.85438466 0.5140228 -0.43708655 -0.14184636 -0.4647178 -0.69926536 -0.24257228 0.6387219 -0.7066517 -1.0126983
267002 0.6073709 -0.42435992 -0.3396021 -0.33192727 -1.6107192 0.24909823 -0.4879312 -0.7148876 -1.276995 1.0972459 -0.6999215 0.97472507 0.5781207 -0.7596101 -0.32951957 -0.72125435 -0.92215484 -0.060564667 0.45172256 -0.7186808 -0.84310675
458483 0.6129203 -0.42431712 -0.26665387 -0.3124093 -1.6615905 0.28758243 -0.5346212 -0.66738844 -1.2373029 1.1764162 -0.5902387 0.9943874 0.52891856 -0.8323576 -0.3189746 -0.5945356 -0.96268445 -0.099791646 0.48492885 -0.7324757 -0.8041886
508807 0.5482899 -0.43814102 -0.32275173 -0.3903619 -1.5509202 0.3425916 -0.616041 -0.7483756 -1.1678768 1.1447933 -0.65731305 0.9986656 0.48013994 -0.7252707 -0.23285215 -0.66732705 -1.0175796 -0.17006283 0.48336467 -0.6025792 -0.86596656
332068 0.49183288 -0.39492092 -0.3091766 -0.35191697 -1.5142871 0.28542054 -0.4857933 -0.75739807 -1.1733214 1.0601041 -0.70791584 1.0253836 0.46651348 -0.73283255 -0.26839426 -0.60880786 -0.9952115 -0.0753442 0.5025587 -0.72196823 -0.8000146
180388 2.0251164 0.067268066 -0.8518564 -0.33669272 -3.1643028 0.2733959 1.3462094 -0.8947035 -1.271369 0.2674958 -1.9853525 1.4678205 1.9074372 -0.41919637 0.84146774 0.7907717 -0.4868112 -0.9485188 -0.64684516 0.06509063 -1.4178414
53580 0.5038622 -0.35244447 -0.28041902 -0.3118355 -1.6161298 0.3080505 -0.522652 -0.68954164 -1.1285071 1.0600854 -0.62744915 1.0298105 0.5165506 -0.7681569 -0.20111494 -0.59754914 -0.9607772 -0.07596921 0.49578622 -0.6933211 -0.8371751
359460 0.45690787 -0.39740565 -0.408181 -0.32035595 -1.6283232 0.23639931 -0.576533 -0.6972107 -1.1998726 1.1082187 -0.64542264 1.0302236 0.48721257 -0.7861958 -0.31298813 -0.68902576 -0.94857776 -0.034433726 0.46028644 -0.6976781 -0.8258154
343242 -1.1401298 -1.5965542 -0.30742094 0.38092944 -2.4620473 -0.6244554 0.34204304 1.2115825 -1.0820996 2.2594569 -0.99907506 1.813494 1.1681942 -0.058231883 -0.8664659 0.19139372 -0.9459571 1.3716284 0.2081859 -1.9840972 -1.2165183
284648 0.1481577 -0.64425343 0.0664436 -0.63393015 -1.067469 0.38031843 -0.520281 -0.45866984 -0.9139617 1.4078826 -0.6632003 0.5886636 0.42132154 -0.35970366 -0.5162541 -0.36544055 -1.2832922 -0.13456804 0.1245432 -0.2998123 -1.0627887
541214 -0.539915 -1.4010904 -1.4568759 -0.98641276 -1.8841643 -0.45979956 -0.5777849 -0.36782536 -0.82680064 1.7192606 -1.7851088 2.0924942 -0.427382 0.36012205 -0.42075247 -0.8927807 1.134206 -0.617136 1.6812906 -0.16576585 -2.2904367
152300 0.43460035 -0.35191044 -0.14371212 -0.37557435 -1.540816 0.23986271 -0.4910777 -0.6003458 -1.0564227 1.0769647 -0.7078424 0.9046267 0.4963747 -0.75507694 -0.2529398 -0.577594 -0.9938085 -0.098263696 0.41884083 -0.6178438 -0.7833287
145651 -0.5551356 -1.458027 0.0914994 0.30982444 -2.085222 -0.45139325 -1.7801543 -1.9492418 -0.14752075 1.2431751 -2.8152983 -0.39909017 0.90483296 0.53060436 -0.41620797 -0.51720244 -1.3966439 0.72805804 1.9042222 -1.0247817 -0.7890266
45356 0.48769018 -0.31373516 -0.29253754 -0.25637147 -1.520529 0.24627335 -0.5874377 -0.6124749 -1.0930766 1.002459 -0.64838356 0.98534703 0.4727607 -0.77596426 -0.2161565 -0.6499118 -0.8816941 -0.09841794 0.43069625 -0.5682387 -0.7865752
176615 1.5910861 -1.4797715 0.54945254 0.8948554 -0.82786334 1.1004 0.4510621 0.5793548 -0.17162658 2.692073 -0.9667533 1.6522255 0.23231219 -2.3851554 0.10220183 -0.047742106 -1.0843135 1.1970359 1.5202466 -0.9717612 -0.8233375
397181 0.5535507 -0.3904551 -0.10360378 -0.41309464 -1.3203008 0.28750473 -0.37237236 -0.70572084 -1.1951239 1.0044829 -0.677978 0.8365214 0.55685395 -0.64948046 -0.15934081 -0.56964177 -0.82091594 -0.033303037 0.41981664 -0.5146412 -0.81635946
444928 0.40569583 -0.29523048 -0.33197638 -0.32648578 -1.5657307 0.27938953 -0.4311646 -0.55089927 -1.0444155 0.9702184 -0.6910403 0.9194876 0.29687914 -0.722672 -0.17542571 -0.5570514 -0.8797774 -0.029410524 0.4665828 -0.5402958 -0.7202845
106197 -0.81570077 -1.0727943 -0.15846075 -1.9365025 -0.682721 0.71594787 -1.0545449 -0.9550293 -1.6679903 2.5464523 -0.060939085 1.5535417 -0.52315825 -0.03762292 -0.7423496 0.47599092 0.0934273 1.4346359 0.85062623 -2.0601535 -1.691592
244667 0.46017885 0.83275 -1.2264639 -0.39985353 -3.2975082 -0.0010819883 -1.1391301 0.21763055 0.99636877 1.6844567 0.5015959 1.6224803 0.15425119 -1.3089235 0.25650364 -1.3524686 -1.6227072 1.2809932 0.3739728 -1.9292109 -0.17057166
455569 0.618349 -0.45353714 -0.6032162 -0.75582016 -0.44041383 1.0057305 -0.5360386 0.9798397 0.28667647 2.1439006 -0.880191 3.3193092 0.61289465 -1.5594175 -0.2450993 -2.0001905 -0.5174316 -1.1615025 -0.24335328 -1.2508671 -1.039321
101982 1.6093936 -1.4569145 1.3319658 -0.8085243 -2.7711153 -0.95186317 0.47749192 -0.2741978 -1.1423376 1.1374896 -0.79839677 0.89052564 0.45877624 0.458953 -2.0323355 0.022775386 -1.0053569 -1.1567246 1.1972207 -1.8007756 0.04428151
503589 -0.37159064 -1.6986586 -1.2543223 1.39186 -1.0561752 -0.10355388 -0.31990123 -1.8585672 -1.4945036 1.2615113 0.57575655 2.1249456 2.2644355 -2.5390644 0.5403498 -0.9058125 -1.0137533 0.33922705 -0.746793 -0.08223452 -0.6794212
37870 1.3796562 -0.8664687 0.57184625 -0.8738245 -1.0942283 2.4018705 -1.7379644 -0.6928907 -1.2665751 2.0711827 -0.45891315 0.5531698 0.5514001 -2.2728145 0.047872607 -0.9699266 0.10212096 -0.8248664 1.4783658 0.320896 0.8042184
97603 0.011756358 0.055848908 -1.6591444 1.2708212 -1.0191803 1.7151403 -0.90051454 -1.2358385 -1.0648185 0.43197852 -1.1529263 1.7896355 -1.2865729 -0.7342778 -1.1260755 -0.7149327 -0.5731902 0.10947974 1.4984 -0.20294446 -2.984615
49756 -0.429974 -1.2179 -0.20166665 -0.072595105 -1.0501478 0.055798326 -1.344089 -2.109252 -1.245181 1.5414196 -0.063413195 0.7847847 1.4875702 0.6826019 -0.7351247 -0.9142519 -2.2053907 0.7136919 -1.6092361 -2.2353523 -0.7072989
348683 1.3902348 -1.7245805 -1.1845665 -1.9436926 -1.8995057 2.1442208 0.8867951 0.23138419 -2.4336903 1.6675111 -1.1501367 0.79312277 1.0510117 -0.44360507 -0.4418486 0.95571065 -0.021520197 0.65098107 0.34530652 -0.4023978 -0.42613897
540008 -0.55102795 1.2598444 1.5676148 0.055984896 -1.2110544 0.00724218 -2.1375315 -0.7637121 -1.7529619 1.5481288 -0.86361545 1.4897509 -0.69067657 -0.7318229 0.4547099 -1.7194549 -1.4328947 1.1990622 2.1155071 0.1037543 -1.2890335
287442 -0.18784666 -0.39159074 -0.34263694 -0.34819493 -0.5110764 -0.44869795 -1.2255177 -0.78485674 -1.4715978 3.1311452 -0.968 0.06924583 1.6736528 -0.20392992 1.6368774 -1.3066946 -2.0089943 -1.5701576 0.29280603 -1.312734 0.19369486
261814 0.9433843 -1.7415303 0.6587751 -0.35118324 -2.3564832 0.25444278 -2.0349052 -2.269431 -1.025164 1.6695161 0.5970006 2.291969 -1.0970559 0.54210323 -0.2020009 -1.3209848 0.668225 -0.57004786 0.36016658 -0.78918505 -0.57507116
346253 -0.5062179 -0.41926292 -0.8006562 -0.08476054 -1.1518795 0.6396554 -0.68543255 -2.549702 -0.98618335 0.7638624 -0.93892825 0.80706143 0.21281265 -1.561772 0.4690116 -0.08349266 -1.0181038 -1.7225319 3.2468882 0.055170048 -0.66564524
445792 0.5496321 -0.4619082 1.8648313 -0.37790602 -2.0932183 -0.083840504 -2.0397797 -0.1633554 -2.5177739 -0.26158625 0.022913437 2.5125117 1.17673 -1.8682989 1.0642366 0.21628724 -0.47812694 0.24377023 1.2356392 -0.047189172 -0.24651904
32930 1.289779 0.15299472 -0.9407168 -0.31155536 -1.9554133 1.7048445 -0.003763706 -0.7217181 -0.68197936 1.3006122 -0.41028893 -0.3410545 1.1317934 -1.6825637 0.86029637 -3.121783 0.80152345 0.44484156 1.4486101 -1.6225107 -1.1873391
95873 0.57007533 -0.07891123 -0.31594843 -0.030692775 -1.2018325 -0.4542106 -1.0829664 -1.1450125 -1.388872 1.0144533 -0.9101901 0.52883923 0.66314906 -0.71795833 0.112542614 -0.43122125 -0.79241246 0.20027488 0.40641472 -0.8150554 -0.48967308
173349 2.2402205 -0.6793665 -0.7835911 1.1871238 -0.93686885 0.44780654 -0.6761344 -0.40485087 -0.19572672 0.040134322 -0.36904976 1.9290535 -0.60452473 -2.1685536 -0.22620592 -2.1607246 -2.32707 -0.30938 0.12755607 0.06380075 -1.9780113
7679 1.0961325 0.38974652 1.134776 -0.1297245 -3.3913422 -0.47958437 -0.60117686 -1.0642195 0.041299276 2.1121826 -1.7613868 1.1437514 -0.16584101 0.6513734 0.87954265 -1.8111391 -0.8633971 1.1556802 0.45320404 0.0039998568 -0.2469318
33379 0.61209106 0.10391116 -0.82945776 1.1367066 -2.0420244 -0.73331445 -1.2807996 -2.8576093 -0.3412753 2.2414608 0.11818217 1.0123339 -1.6023009 -2.2612412 0.19828613 -0.35339087 -0.3967722 0.2667624 0.55355436 -0.6327161 -0.8576056
221049 0.9481146 -0.4010173 -1.145022 0.79667133 -0.8586855 0.4731664 -0.86593187 -0.2924289 0.1926861 2.301184 -1.4431248 2.074664 1.8641554 0.78918815 -1.2010254 -0.5353047 -0.36743754 0.24149068 1.572976 -2.2389684 -0.5179906
195172 1.2063202 0.70694023 -1.0220168 0.790968 -1.8914407 -0.723167 -1.6660516 0.9830764 -1.2996889 2.29436 0.9286152 2.8411388 0.47479492 -0.7173443 0.9281687 -0.47612658 -0.9393384 -0.2906641 -0.16552716 -0.004858468 -1.6245632
544615 -1.4696848 0.20414893 0.11751157 -2.0008073 -1.5626916 -0.573123 -1.4160907 -0.78020144 -0.70853364 2.9898996 -0.26890206 1.7824624 2.0142717 -1.6030931 -0.15857019 0.6133067 -1.0290265 -0.091940336 -0.48985067 -0.40712732 -0.46771786
472529 -0.5983362 0.8511803 0.77716297 -1.0917599 -1.9079608 -0.16755323 0.10409881 -1.015872 -3.3164122 0.5274756 -0.1926374 1.984839 2.190217 -1.0826057 -0.0022518865 -0.0038735066 0.11928979 -1.391682 -0.79747045 -1.5412543 -0.5321686
269269 -0.6747204 1.353026 -0.632649 -1.4327729 -3.3183067 0.1855129 0.47976562 -2.104004 -0.8413997 2.2051754 -0.22551152 -0.25625402 1.0469176 -0.76600164 1.1336449 -0.44400385 -0.36549267 -0.04916464 -0.60852605 -1.5949478 -1.5636663
528277 -0.29621595 1.7968812 -1.7786887 -1.2786574 -2.120473 -0.37122834 -0.26628062 -0.31327444 -1.2925043 0.5728159 -0.093669936 -0.35596436 0.3326985 -1.801631 -1.3928586 -1.1528087 -1.4104894 -1.5316787 0.6535493 -1.8186435 -1.2445143
229131 0.032207143 -0.49870422 -0.39385542 -1.2902415 -1.450474 -0.11154024 -2.5739293 -0.51898205 -3.0138454 2.5512662 -1.6788529 0.021284662 -0.9641067 -0.21421394 0.527375 0.2238549 -0.31904817 0.068682894 0.8285532 0.44089207 -0.57117206
111574 1.3564203 0.8989687 -1.1882235 0.36582586 -2.1425588 0.6593576 1.1676283 -0.28066602 -0.155411 -0.070693664 -0.945633 1.3828974 1.3428097 -1.1949189 -2.596256 0.2579048 -1.6925945 0.34100342 0.71198994 -1.1779072 -2.0357058
30127 1.3670702 -1.334589 -1.4847271 -1.4689965 -0.7641184 -0.29579166 -2.8559227 0.19408605 -0.52383476 -0.19909072 -1.4756364 1.4117281 0.86202955 -1.4823722 -0.55676013 -0.58468556 -2.3467426 -0.8792562 -0.07847737 -0.07589211 -0.58372056
182974 2.1531754 -1.551803 0.5264434 -0.28779393 -2.1369524 2.4578755 -1.2450612 -1.0493455 -1.5943997 1.5605156 1.339506 0.3685904 0.6741649 0.15360036 0.5884104 0.4533573 -1.1935074 0.1371005 0.14487955 -1.6930554 -0.5289079
128925 1.3547254 -0.5509988 -1.2717849 -1.6531585 -1.6625252 1.3931737 -1.0850577 -2.044775 0.47329068 0.8539924 -0.30436993 0.6188358 1.567607 -0.12407783 1.6011289 -1.2439657 -1.2622325 0.8129164 -0.28579676 -1.9323927 -1.5114219
499830 -0.14018916 -0.8928641 -1.1636859 -1.0272205 -2.4388092 0.07282465 -0.9961066 1.5659802 -1.7801425 1.3347944 -0.05228399 0.7103988 -2.1246176 -0.9080167 -0.06957444 -1.9488987 -0.34112456 0.5790998 1.1795353 -1.4276528 -1.3744998
277214 0.056362323 -1.0076579 0.6697769 0.6708945 -3.3903687 1.0615077 -1.6550189 -0.46849394 -0.59662926 1.6634998 0.8330997 2.5108216 1.3094754 0.2715421 -0.47404617 0.29326904 -0.08493795 1.3834327 0.88532585 0.3420871 -0.8949048
377813 0.71701837 -1.534138 -1.0878084 -0.1860346 -2.4870262 -0.13884267 -0.7614358 -0.30029526 0.6280922 0.63226455 0.5069419 0.1625631 3.0062308 -1.4055866 0.29711714 -0.10855198 -1.308841 -0.9285737 0.6025242 -1.6321377 -2.1486754
449282 0.86551875 2.010635 -1.9451269 -0.67486525 -1.1070962 0.5300415 -1.439255 0.086668015 -1.3507789 1.4636711 -2.367665 1.0583308 -1.0236402 -1.0980661 1.2036022 -0.8818221 -0.8117152 0.34594107 1.5670346 -1.1458944 -1.5691004
485523 0.9713976 -0.8892925 1.276378 -0.55183816 -1.3031192 -1.8973823 -1.0174934 -1.1892033 -0.17649741 1.8052958 -0.42976886 1.1675111 -0.16437177 0.061472543 0.013157343 -2.1878772 -1.7747 -1.8284491 0.873922 -0.2657759 -1.8408486
476581 1.1198057 -1.2366519 1.2264531 -0.77974707 -2.4210098 0.75762576 -1.796695 -2.1121063 -1.2735991 -0.103522114 0.048111234 -0.6217155 0.74806774 -2.018037 -1.6605301 -0.14586169 -0.6298033 -1.0376685 -0.22544234 0.16983272 -1.5846486
530588 0.9548925 -0.62715685 -0.2710138 1.0287176 -3.0354142 -0.19306472 0.30360255 -0.8873182 -0.342902 2.1076682 -0.31016275 0.024807394 1.2760231 -0.10919806 -0.46713415 -1.7990932 -0.051956363 1.4938171 -0.90352845 -2.5039086 -1.8357002
378959 0.08033839 -0.1925869 -0.49824768 -1.7528255 -0.8854116 -0.5500607 -0.78676534 -1.4123101 -0.26710647 1.8655975 1.2718349 1.8018111 1.8719125 0.3508758 -1.7767373 -1.7349641 -2.165287 -0.034895707 1.1563479 -0.078012966 -1.0350518
541384 1.2348204 -0.073003985 0.31887937 1.4317392 -2.518474 1.3735305 0.5834422 -1.3790034 -0.8092422 0.019318562 -2.3777056 2.026419 0.2111241 -1.831871 -0.34956 -0.4282996 -1.0849481 -0.661393 0.034461997 -0.19235623 0.8003422
390489 0.021971839 -0.7567528 -0.021621576 -1.4448882 -1.4026532 0.7187461 -0.92508066 0.009331499 -1.4804869 1.2452332 0.06151128 2.801504 0.3326169 -0.3287907 -1.9530269 -0.54663056 -2.2023304 -1.6440756 1.3001897 -0.25181216 1.3310573
156151 0.42696598 -0.73782027 -0.13205826 -0.7541536 -2.9222012 0.18211116 0.32077968 0.29996338 -2.5110395 0.20152974 0.23605289 1.8380195 1.7482404 0.045386933 -2.6987348 -0.7398416 0.18901688 -0.24434215 0.030861676 0.24140579 -1.3358582
61781 1.1178995 1.2975914 0.63986224 0.5440956 -2.5211513 0.6046804 1.6907824 -1.0533222 -0.7982419 1.7282598 0.59866315 2.105248 0.65821755 -0.2513742 -0.56594425 -1.8431138 -0.296213 -0.90083814 1.1463025 -1.5976658 -0.697975
40490 -0.08720627 -0.75264657 0.66371596 -0.6116776 -1.481449 1.7835047 -1.1353202 -1.2771441 -0.1928645 2.3147793 -2.0102718 0.1800438 -0.02634656 -0.9986694 1.184006 -0.8187698 -2.145118 0.06660569 -1.734781 -0.5151977 -1.3035275
314484 1.8377864 0.2281768 1.3146507 0.8997689 -0.5472708 -0.62979263 -0.73026514 -1.0157763 -0.19641529 2.1073403 -1.7688147 1.9714305 0.74605936 0.0050910017 -0.9515411 -0.3873498 -1.9418975 0.5317449 -0.7621329 -0.6968637 -2.5111375
543605 0.2233964 0.9952336 0.47160777 0.019107645 -0.37864587 0.94945234 -2.5744274 -2.2611268 -2.4004786 1.5599911 0.4621338 1.526418 1.0526555 -1.3055313 0.0020622823 0.30096316 0.33373988 0.80511427 1.4028697 -0.7797262 -1.6686059
543078 -0.2887595 -1.0325263 -1.051489 0.693099 -1.3142555 0.9581505 -1.6774312 0.01045483 0.023776647 1.1299565 -1.2551006 0.6782618 0.7749584 0.2908416 1.1011256 -1.830058 -1.1481075 -1.5583425 1.875529 -0.91608375 -2.6104045
485575 0.763776 -0.06798754 0.2139128 0.2391991 -1.669069 0.778522 -0.054380704 -0.69580835 -1.0581014 2.0482693 -1.862406 0.52464336 0.09248549 -2.388647 -1.5626006 -0.95598125 -0.8623472 -0.864257 -0.9114847 1.9612179 -1.6685021
394234 0.11633556 1.2641075 -0.71824116 -1.3917942 -3.5721672 1.1263353 -1.5356915 -1.4584986 -0.71290904 0.24540141 -0.698664 1.1629643 -0.90170634 -0.6160084 0.39337102 0.8677853 0.33109793 0.31072375 1.3418947 -0.9681357 -1.6084523
220000 -0.82679194 -0.8825472 -1.0041306 1.723409 -1.7525071 2.2468839 -1.527343 -1.0467604 -1.7630316 0.6654762 -0.22043012 0.45235217 0.78388953 -1.7015821 -0.5603265 -0.5893274 -2.0353472 -0.021245893 0.8202803 1.11715 -0.43932354
379947 0.3761417 0.89402485 -0.60082424 1.2245662 -1.1068236 0.09066243 -1.17527 -1.782264 -0.88175833 0.39840436 -0.12768151 3.3406668 0.93522733 0.3101897 0.86637175 -0.36250046 -2.7311747 -0.8649397 0.3116735 -0.50608003 -0.8808523
395196 0.06663473 -1.3627789 -0.8431192 -0.11154599 -3.1665137 -0.7948919 0.053737637 1.540352 -2.34821 -0.29596314 -0.64531034 1.957969 1.3903439 -0.8171148 1.1381663 -0.74340093 -0.6725173 -0.55278826 -0.75506926 -0.82011896 -1.4568088
35130 -0.29163596 -1.1292062 0.3527538 -1.4865029 -2.5642004 1.5363687 -0.15050569 -1.2165911 -1.553309 -0.4517572 0.36815315 0.43470663 -0.73606783 -1.3865917 -0.64512324 -1.2295986 -3.1163404 0.4299463 -0.50797033 -0.16763128 -0.52213275
70073 0.50591236 -0.10594257 -0.28128794 -0.3458987 -1.3850582 0.18908626 -0.7604701 -0.45690653 -1.1177433 1.0208642 -0.65410066 0.74762887 0.36466777 -0.5629533 -0.26520976 -0.57011145 -1.0355211 0.015341656 0.34823075 -0.5366319 -0.75604093
194784 0.25080487 -0.41473547 1.1199949 -0.8523365 -1.3710914 -0.06720936 0.35054266 0.26385692 -2.9723134 2.5203226 0.77314454 -0.1471865 0.73582083 -1.9383821 -0.4287258 -1.5757724 -0.5343884 -0.22582506 -0.606105 -0.2920439 -1.1751045
169752 -0.06407598 -1.2091355 -0.9077721 -0.8719763 -1.8546263 -0.28024498 -2.6780396 -0.20241009 -2.4757533 0.5404886 -1.0053784 -0.06681128 1.496099 -0.514665 -0.09159752 -1.1208035 0.6251333 -0.87353814 -1.003412 -1.0762736 -1.2786876
342237 -0.18252335 -1.8808773 1.4115509 0.59806174 -0.61990416 -0.678431 -0.54043317 -0.8250094 -1.9658586 0.98556066 0.029339561 1.2807642 1.2569301 -0.73051214 -0.95289826 -1.1305115 0.12945417 -0.5584168 0.384603 -2.0129507 -2.6396568
9351 1.9683833 -1.5316259 -0.25569373 -0.673921 -1.4514467 0.24427944 -1.2395387 -2.567121 0.27399454 -0.32505265 -0.11046876 2.0217872 0.56139916 -2.1572385 -0.4994935 -0.09669372 -0.8347661 -0.63481355 0.36249402 -1.5099862 -0.0075457823
248455 -0.16354485 -1.7929062 1.3825483 0.6292764 -0.68938917 -0.74175435 -0.41787568 -0.7705628 -2.005962 0.9246584 -0.017255086 1.3156297 1.2292551 -0.6388782 -0.87960464 -1.1126996 0.11629904 -0.6121121 0.34755185 -2.0058537 -2.5979881
484146 1.9677045 -1.4727838 -0.2619868 -0.6828299 -1.3943492 0.22119439 -1.274787 -2.592669 0.33780023 -0.36039877 -0.081621066 2.0281782 0.60821605 -2.1100597 -0.47881472 -0.1454166 -0.78483486 -0.6053531 0.43724713 -1.5039294 -0.05229818
155892 0.506411 -0.5914786 -0.16184707 -0.09456904 -1.4018182 0.35446337 -0.7396375 -0.55135334 -0.9205835 0.9314122 -0.9871584 0.6979332 0.49458936 -0.5564863 -0.22705142 -0.62869513 -0.89046633 -0.08259746 0.43451545 -0.55084765 -0.9502819
342708 0.159854 -0.3996136 1.1152332 -0.84684217 -1.392346 -0.11745191 0.3559023 0.21008784 -2.9630878 2.6227899 0.7319252 -0.2219829 0.8188768 -1.893713 -0.2952745 -1.5871005 -0.54341847 -0.35379934 -0.62407684 -0.31308502 -1.1978263
324697 -0.12560265 -1.1508557 -0.8939282 -0.8366102 -1.8761885 -0.3638299 -2.633974 -0.13243416 -2.4151495 0.5208434 -1.0359243 -0.057657532 1.4595208 -0.4954274 -0.15448019 -1.1228527 0.66936487 -0.86709046 -1.0105121 -1.1198204 -1.2696506
359321 0.55548614 -0.59947073 -0.22410966 -0.05901383 -1.3491203 0.3747729 -0.68605024 -0.6168846 -0.88073057 0.8250535 -0.9540631 0.7595002 0.42905837 -0.49338472 -0.23044203 -0.5833369 -0.8949982 0.0057380702 0.40159643 -0.5158686 -0.94861317
481562 0.4176288 -0.12610935 -0.26535413 -0.29897618 -1.3224292 0.22575974 -0.71111596 -0.49282834 -1.0835161 0.9372977 -0.67100257 0.7104821 0.38018745 -0.5251121 -0.23599727 -0.54712147 -1.0191395 -0.0076857135 0.33974165 -0.5423359 -0.73759747
112038 1.3399605 -0.6156932 -0.18927398 0.077795684 -1.2431992 -0.96990275 0.31725168 -1.2491484 -1.9960938 -0.18130848 0.13990249 2.494233 -1.0987309 -1.1617194 -1.6511636 -0.048488595 -1.652032 1.3861064 0.34913784 -0.5879307 -1.0576162
360139 1.0200573 0.78183675 -0.5325507 -0.1264469 -0.64369136 1.4704682 0.33599687 -0.8571428 -1.7272513 0.65577304 -1.3246654 1.2176483 -0.3713304 0.14725469 -1.3048162 -2.2105122 -2.6363356 -1.4030823 -0.3175722 0.10598321 -0.78957874
392725 1.4168847 -0.311018 -0.10101198 -0.1434794 -1.0319878 -0.80563545 0.17048487 -1.2425244 -2.125092 -0.35346904 -0.19334714 2.6083407 -0.8975808 -1.2064016 -1.6024294 -0.07509246 -1.8335308 1.3448802 0.36465842 -0.5243475 -0.91303
347980 1.3349155 -0.41977713 -0.16907835 -0.0364383 -1.1222616 -0.8429502 0.23665048 -1.2803591 -2.068781 -0.23590545 -0.05938387 2.5880225 -1.0269948 -1.2085122 -1.6665235 -0.105513066 -1.8262111 1.3866894 0.34472817 -0.54699594 -0.9959501
75420 0.45559448 -1.616415 -0.81954014 1.1214334 -0.98653734 -0.43652245 -1.9576856 -0.2496358 -1.0078664 0.39840427 -0.17012897 0.7129132 0.21007839 -2.934597 0.9152764 -0.5169868 -0.905205 0.072905295 0.5721728 -2.1212268 -1.1640804
21209 -0.67253864 -0.52970433 -1.4868568 -0.33807898 -2.0939152 0.4033444 0.47578552 -0.33462653 -2.5428176 0.6525316 0.5653059 1.3143605 0.021117372 -1.4637964 0.4703597 -1.5682805 -1.5399419 0.22487795 0.38701382 -0.98281044 1.3011107
273161 -0.5550054 -0.4712586 -1.7636083 -0.26593918 -1.9429817 0.5087804 0.33839127 -0.42761466 -2.5578074 0.6183347 0.55706984 1.2643802 -0.050841093 -1.6937767 0.46649048 -1.5569185 -1.6324476 0.0716594 0.08828687 -0.94121194 1.3698096
476355 -0.30828393 -1.077174 0.28109214 -1.4113922 -2.4487162 1.4562119 -0.20102347 -1.1143817 -1.4969714 -0.4630289 0.34828144 0.4250574 -0.70179653 -1.2519311 -0.60237384 -1.1111382 -2.9846032 0.4089967 -0.46234068 -0.15271474 -0.47641113
433516 2.0771747 -0.7297431 -0.633811 -0.7531507 -1.4308366 -0.9326944 0.7073819 1.2726495 -2.0939162 1.8740767 -0.2869803 0.52672255 -0.44614974 -1.6797763 0.5526334 -0.09671838 -2.1573062 -0.42939812 -0.54888886 -1.4287105 -0.5348528
123971 -0.111193724 0.6800219 -1.3122989 0.54280585 -2.5688071 1.116036 0.26359558 -0.15064594 -1.3246031 1.369565 -0.51705706 0.74651545 0.37880778 -0.17179964 0.0033600086 0.38188556 -2.074567 -0.8210288 -1.5308701 -1.9464049 -0.29727966
365942 0.36114863 -0.35112596 -0.24323012 -0.29362613 -1.43 0.30676234 -0.44608748 -0.5356281 -0.96875334 1.0092742 -0.5907003 0.89086133 0.46335834 -0.6525438 -0.18682429 -0.53212327 -0.8371656 -0.095846206 0.43473113 -0.58778274 -0.76569235
416063 1.3925021 0.664817 -1.9677655 -0.9356654 -0.95548195 -1.6950225 -0.22597937 -1.4643435 -0.56756383 0.6186274 -1.6764821 1.5492655 -0.32321933 -0.6072469 -0.87001497 -0.48691374 -1.3259081 0.43855667 2.1782124 -1.7917439 -0.6020171
522099 0.331414 -1.80633 -0.030469341 0.6978615 -2.3024619 -0.5499277 -0.58469653 -1.7874575 -1.1440037 0.095210426 0.03189712 2.0051532 1.1570401 0.5715287 -1.8249836 -1.214757 -1.0049571 0.39002797 1.9440193 -0.31238717 0.5055637
156184 0.43640575 -0.2761956 -0.28221604 -0.23288572 -1.2806159 0.37201884 -0.4602765 -0.65599203 -1.0395889 0.9996854 -0.5527161 0.82483554 0.4576444 -0.7362933 -0.17312469 -0.5572924 -0.8339149 -0.1281341 0.36884218 -0.57916003 -0.7207895
298771 -0.32080132 -1.0791674 0.36075196 -1.361293 -2.4309456 1.4790503 -0.19229472 -1.0785633 -1.5196586 -0.46675456 0.32907718 0.39006117 -0.7137996 -1.2699045 -0.5223954 -1.2019361 -2.9474108 0.42704773 -0.48589456 -0.17768209 -0.5469258
524029 -0.42631173 -1.3109205 0.25662956 -0.1357937 -2.827075 0.05626237 0.2885632 -1.2680548 -2.249388 2.4507117 0.34811252 0.51649827 -1.0912137 -0.4560966 1.2655426 -0.43394464 0.10057967 1.0122141 0.056729704 -1.1941311 -0.7567576
394583 1.3672037 -0.55651164 -1.7780669 -0.36724484 -2.0851822 0.32773402 0.13447995 -1.9533997 0.3068014 1.173167 -1.3677454 0.9312516 -0.6919079 -0.9605237 -1.1351391 -2.714991 -0.51415163 0.5394884 0.8795328 0.35371852 0.23031275
286319 0.328656 -0.903812 -1.9430224 -2.1347525 -2.6000712 -0.6233959 -1.133605 -1.1159302 -0.8787241 0.5225527 -0.10792805 0.38396463 1.9573574 -0.14782497 -1.2890981 1.1265632 -0.76748544 -0.29483184 0.79713565 -0.17048512 -1.051687
500714 0.32776302 -0.9370422 -1.9937754 -2.1577973 -2.6761036 -0.6788893 -1.1195465 -1.0795116 -0.8121056 0.45927116 -0.08973553 0.40144375 1.9571469 -0.099438936 -1.397251 1.1352032 -0.77437794 -0.23784249 0.8262784 -0.23791118 -1.0373114
10964 1.358082 0.65855366 0.48186266 -1.79873 -1.0746619 -0.38248622 -0.80907905 -1.2539787 -1.0508426 1.1039165 -0.37192023 2.5664377 -0.34135222 -0.88637835 0.53947175 -2.798477 -0.783067 -0.42019904 0.052305385 -0.9571237 0.5681498
217031 1.3567828 -0.5246605 -1.7318588 -0.4128334 -2.1691875 0.32611838 0.15316772 -1.8957813 0.27865806 1.2258714 -1.3280799 0.9434478 -0.6239267 -1.0014957 -1.1177069 -2.6351647 -0.5415531 0.5413366 0.86395603 0.2726056 0.28619596
525268 0.29321542 -1.8627684 -0.025915228 0.6540041 -2.3174489 -0.56277376 -0.59639436 -1.7480483 -1.1569258 0.10510797 0.06651945 1.9587295 1.155319 0.61418104 -1.8394207 -1.2214459 -0.9712837 0.32792658 1.9666734 -0.27937448 0.490565
18702 1.4848859 0.6110709 -1.865796 -0.89449644 -0.9234612 -1.7094328 -0.22819175 -1.5134401 -0.5146048 0.6628257 -1.6805917 1.5307533 -0.34058294 -0.56666625 -0.82986635 -0.46062157 -1.2732364 0.44782126 2.1538806 -1.7352695 -0.591817
54767 1.3768755 0.6822723 0.4193892 -1.7954772 -1.1022193 -0.3338366 -0.7906164 -1.258615 -1.0239362 1.0383937 -0.42125556 2.565573 -0.31731454 -0.8663134 0.52070284 -2.789665 -0.7340814 -0.48604384 0.05523593 -0.8862395 0.5583848
314336 0.2535388 1.0659056 -1.3342682 1.0380892 -0.32917237 0.037677083 -1.6877346 -0.3847174 -1.371197 2.554023 0.26214477 0.96037376 -0.7450527 -1.1901032 -0.21722975 -2.6851697 -0.8926944 0.41725567 0.33361095 -1.5347474 -1.4013592
75705 0.25916818 1.0772829 -1.3458319 0.9576543 -0.3725013 -0.01258401 -1.638975 -0.3599552 -1.3897127 2.503403 0.29831678 0.92800784 -0.74729246 -1.1903399 -0.20305082 -2.6581323 -0.899895 0.47512445 0.35941562 -1.5278239 -1.4384364
533733 1.2577735 -0.7271128 1.0958489 -0.73680145 -1.2679244 1.1853265 -0.6978776 0.6558505 -1.1123648 0.38787594 -0.1802465 1.7812603 -0.22406164 -1.054574 -0.3746678 0.73907816 -0.3140988 -0.71644163 1.3610673 -2.9390342 -2.2752652
270643 1.2705553 -0.7518928 1.13339 -0.74342966 -1.2562575 1.198709 -0.63958365 0.68187636 -1.1326436 0.4173429 -0.16830355 1.7539053 -0.2487005 -0.99540997 -0.37925112 0.78713626 -0.33204368 -0.7518212 1.3996943 -2.904146 -2.353362
104000 0.2442312 -0.48611817 -1.666724 -1.0283166 -1.782692 -0.3448174 -0.055846024 -0.5731287 -0.67463344 1.9137088 -2.6862152 -0.24264242 0.5691435 -0.8257605 -0.26342124 -1.0093299 -2.8932054 0.13199012 0.6674558 0.9193315 0.4796568
125687 0.20020753 -0.52079225 -1.7026254 -1.0758376 -1.7799222 -0.36703804 -0.009302701 -0.58266896 -0.6444592 1.9460034 -2.6117637 -0.3058313 0.50516343 -0.8118898 -0.23365557 -1.0535307 -2.9352133 0.09130575 0.6808378 0.8793109 0.55779904
267609 0.84768534 -0.05180132 -1.4870592 0.018773846 -2.2508993 0.11806979 -0.9656495 1.8533072 -0.66775805 1.6871338 -0.00208936 1.2003165 1.0623213 -1.4920223 -1.4819392 -0.6858176 0.73513705 0.4009697 1.2536128 -0.15295415 -2.023495
267620 0.8963953 -0.054248467 -1.480578 0.04791051 -2.3082967 0.13250378 -0.96939 1.8312547 -0.62758154 1.70498 -0.086912744 1.2249143 1.0349548 -1.472769 -1.5040954 -0.6678855 0.65988374 0.39903644 1.2959594 -0.11546099 -2.038995
47093 0.3409542 -0.20221777 -0.054246105 -0.22299358 -1.3487378 0.83647555 -0.39329165 -1.1524568 -0.76018786 1.0777584 -0.6744742 1.0056069 0.41218388 -0.6948306 0.13835071 -0.55760354 -1.5081284 -0.24424192 0.23281191 -0.5366545 -0.26629975
178352 0.34335294 -0.22916648 -0.0068749255 -0.2481362 -1.3366686 0.85512704 -0.3475781 -1.143536 -0.71387124 1.0898017 -0.6477647 1.0304235 0.44374663 -0.6645667 0.13460411 -0.5799663 -1.5043439 -0.21464984 0.23775022 -0.50955194 -0.26746002
370194 0.17115176 -0.12197901 -0.038997643 -0.09960933 -1.4041351 0.30003 -0.36996707 -0.7026808 -1.0506852 1.2077518 -0.8903835 0.60242826 0.58169293 -0.54289347 -0.32971933 -0.71136004 -0.79739875 -0.15859962 0.16348056 -0.43324625 -0.54585254
382382 0.13096344 -0.16087347 -0.038198847 -0.08502196 -1.3530079 0.3390908 -0.3889161 -0.6972338 -1.0552932 1.1604393 -0.889259 0.64179224 0.5916931 -0.5212865 -0.33798745 -0.66471565 -0.7393508 -0.20388997 0.18374099 -0.40509742 -0.58367926
54554 0.48957643 -0.28646836 -0.209872 -0.24288939 -1.4240773 0.31771836 -0.53406674 -0.58465683 -1.0225407 0.989354 -0.58702666 0.8759038 0.44857633 -0.65465945 -0.22773358 -0.48789874 -0.87026894 -0.059087604 0.44225016 -0.5440798 -0.7735067
326097 0.49979433 -0.31256092 -0.20234257 -0.24011314 -1.414971 0.34976038 -0.52523184 -0.6427834 -1.037949 0.9846778 -0.535984 0.86395854 0.40396306 -0.6437063 -0.21431923 -0.51225334 -0.86038584 -0.08986512 0.38613856 -0.5406967 -0.7890194
442404 0.5091155 -0.35250264 -0.26549098 -0.25286356 -1.504451 0.2884579 -0.5315453 -0.6066835 -1.1846082 0.978218 -0.5980585 0.9252524 0.47438088 -0.76413417 -0.22726867 -0.5263125 -0.8581669 -0.041630533 0.4710691 -0.65602326 -0.87092537
362602 0.44983158 -0.36561704 -0.22415122 -0.26091412 -1.5000209 0.28948355 -0.5213341 -0.63953984 -1.1234797 0.9739511 -0.5764198 0.89793956 0.44427985 -0.7027319 -0.2182912 -0.5149939 -0.84070027 -0.04143898 0.45605287 -0.61237144 -0.8140828
249855 0.39959854 -0.38834542 -0.30006394 -0.2786346 -1.52661 0.23023623 -0.5220028 -0.5855835 -1.1307199 1.0519452 -0.5968101 0.97552764 0.45663774 -0.8286621 -0.20327449 -0.5906256 -0.9617614 -0.19302398 0.5698886 -0.6726472 -0.8821711
150630 0.44226277 -0.42448154 -0.27994573 -0.32186884 -1.6000572 0.31093028 -0.52691096 -0.655093 -1.2369523 1.0597507 -0.66132426 1.0136845 0.53665084 -0.7814844 -0.24982914 -0.5840125 -0.9528151 -0.12562804 0.5500119 -0.6601311 -0.95064735
364910 0.59843165 -0.4410972 -0.324501 -0.38575813 -1.7695447 0.33195525 -0.57390356 -0.7244627 -1.3321276 1.1790643 -0.7520237 1.1230135 0.505747 -0.84608656 -0.33532944 -0.6450903 -1.0550603 -0.11095192 0.5523269 -0.68012357 -0.92465496
524150 0.5551804 -0.4403259 -0.26503825 -0.34073755 -1.7419305 0.3312063 -0.5964753 -0.7655078 -1.2892498 1.2196919 -0.7657219 1.0679297 0.5432766 -0.8342652 -0.26660725 -0.6301417 -1.0779195 -0.09100711 0.5436328 -0.7084387 -0.922844
241225 0.6536357 -0.509722 -0.33934268 -0.40632057 -1.9986796 0.33270717 -0.7158137 -0.91207963 -1.4609467 1.3340805 -0.8774834 1.2657238 0.6641111 -0.9401693 -0.2791234 -0.7700773 -1.1566945 -0.1750503 0.58786255 -0.8346907 -1.0591832
59070 0.63984805 -0.508317 -0.30861244 -0.40642205 -2.0831943 0.3421482 -0.73224115 -0.8971298 -1.5346496 1.3950702 -0.8930625 1.3292686 0.68508655 -0.9355953 -0.29701322 -0.744624 -1.1852547 -0.15351516 0.6204911 -0.8843415 -1.1243625
232143 0.6328681 -0.45079702 -0.32411653 -0.3866623 -1.9228395 0.40976202 -0.66145605 -0.8137273 -1.4093992 1.3013843 -0.7447393 1.23354 0.5770997 -0.93041563 -0.27988183 -0.7040734 -1.1383175 -0.10319218 0.55015707 -0.7547098 -1.0355145
155634 0.58274806 -0.46452987 -0.36311355 -0.37253663 -1.8677166 0.37080842 -0.66158265 -0.8070068 -1.3901153 1.2994125 -0.7880348 1.1965041 0.61079687 -0.929227 -0.2681145 -0.7637282 -1.1331599 -0.07789696 0.5307237 -0.71358305 -1.0059767
8317 0.6589631 -0.48924187 -0.346613 -0.37381366 -1.9375318 0.39442873 -0.6744429 -0.8631465 -1.4286112 1.3296099 -0.83083534 1.1908026 0.54752916 -0.93429863 -0.31591424 -0.758472 -1.1948609 -0.09304134 0.5896168 -0.78205246 -1.020088
205665 0.61620975 -0.44782585 -0.32254082 -0.37718087 -1.8881681 0.37271222 -0.65369356 -0.840926 -1.4619639 1.3101588 -0.84824765 1.1875106 0.582063 -0.919817 -0.34087408 -0.73258346 -1.1772331 -0.10103622 0.5728869 -0.79509664 -1.0356967
499233 0.65644556 -0.4882939 -0.42255864 -0.4196491 -2.0941188 0.47791708 -0.67555743 -0.90133846 -1.6512841 1.4593748 -0.8553525 1.3320463 0.652985 -1.0334494 -0.3495664 -0.77922744 -1.2442843 -0.14191547 0.63666797 -0.89851046 -1.1690241
144910 0.62090176 -0.48853493 -0.4014819 -0.4414311 -2.1150012 0.4854273 -0.6891208 -0.89040595 -1.6180933 1.4383833 -0.9047092 1.2883729 0.6680414 -1.0437442 -0.33490857 -0.77308893 -1.2615215 -0.117739245 0.6319517 -0.8903634 -1.1611103
465330 0.59542465 -0.4518897 -0.38606974 -0.38293895 -1.9428155 0.37919623 -0.66701436 -0.7933877 -1.4837518 1.2996587 -0.7585737 1.2010636 0.62198627 -0.9027935 -0.24836674 -0.7837319 -1.1510867 -0.0465833 0.6175225 -0.78838295 -1.0141927
474460 0.53543824 -0.38632742 -0.39026928 -0.40281585 -1.8823084 0.422891 -0.609041 -0.8399499 -1.3946455 1.3257719 -0.7649055 1.1790643 0.5684987 -0.90447575 -0.24809445 -0.7358752 -1.1571614 -0.0724807 0.61464274 -0.796958 -0.97804964
297866 0.7098136 -0.46958902 -0.35306934 -0.36899439 -2.0292594 0.3544841 -0.7497983 -0.84937173 -1.5157119 1.4375883 -0.8871952 1.2579111 0.6262796 -0.9408002 -0.3795249 -0.784292 -1.2170423 -0.11514878 0.6082489 -0.84034103 -1.0497634
393896 0.7046762 -0.4605812 -0.34426868 -0.37247646 -2.049899 0.35179862 -0.7502279 -0.8919826 -1.5433908 1.4338278 -0.91243833 1.2408055 0.6053214 -0.9725056 -0.3554535 -0.7921239 -1.2638069 -0.14918748 0.6490493 -0.85780096 -1.052079
78578 0.70455265 -0.4779371 -0.38610184 -0.4149415 -1.9979147 0.37909096 -0.6773198 -0.8353298 -1.4750993 1.3377787 -0.8496237 1.2112066 0.61417127 -0.9555797 -0.34229302 -0.76286244 -1.274265 -0.07830459 0.64091843 -0.82834077 -1.0751677
255903 0.67725873 -0.48261726 -0.3437575 -0.42753753 -1.9877169 0.40721107 -0.7129575 -0.8632064 -1.4837737 1.3405418 -0.8446979 1.2373587 0.6486629 -0.95780414 -0.35252917 -0.7655501 -1.2838792 -0.076126605 0.651549 -0.8742994 -1.0967091
79302 0.5911688 -0.45489353 -0.30318287 -0.3769795 -1.7612166 0.3398913 -0.6404572 -0.7544992 -1.352289 1.2440858 -0.7601816 1.1108545 0.544391 -0.8452675 -0.27309677 -0.66948295 -1.042227 -0.11729195 0.5290519 -0.7433835 -0.9736814
209642 0.59192896 -0.41696507 -0.31670216 -0.36100018 -1.6803522 0.3176253 -0.6205643 -0.7035772 -1.2115514 1.1437398 -0.7205006 1.0694261 0.47005898 -0.801636 -0.27242154 -0.6577521 -1.033865 -0.10947578 0.5168386 -0.6781302 -0.8832427
346662 0.65491337 -0.4798807 -0.3120538 -0.33324647 -1.9894584 0.35444325 -0.70841163 -0.90412134 -1.486766 1.3359007 -0.8127601 1.1988897 0.5917254 -0.96669865 -0.34619626 -0.7662056 -1.2235748 -0.09359699 0.6274271 -0.8044952 -1.0393063
379304 0.66520494 -0.4697626 -0.32623827 -0.34159693 -1.9526358 0.36917713 -0.65717787 -0.8876953 -1.4316468 1.3521042 -0.8456408 1.1729156 0.5777861 -0.95231575 -0.32356215 -0.7625576 -1.1833384 -0.08238268 0.61450964 -0.8078843 -1.0038244
346156 0.6488885 -0.4334464 -0.40650216 -0.3469277 -1.8680344 0.39999476 -0.65615445 -0.7304547 -1.4328672 1.2924523 -0.7919894 1.1333982 0.59026134 -0.87035936 -0.27965868 -0.6933177 -1.2030246 -0.13017055 0.569021 -0.7459047 -1.0138866
345003 0.61977917 -0.44706413 -0.31360543 -0.33501378 -1.9736307 0.40595976 -0.6556333 -0.7857014 -1.4118884 1.2928503 -0.83800864 1.2208203 0.5689121 -0.88963884 -0.3064373 -0.722852 -1.2196319 -0.070007764 0.5467794 -0.807405 -1.0033736
413163 0.6670097 -0.47075954 -0.33541167 -0.38812754 -1.9242927 0.36289018 -0.72001636 -0.8027562 -1.4229112 1.3484434 -0.7836927 1.1869537 0.6410072 -0.9547685 -0.32737002 -0.72389436 -1.1897255 -0.11458663 0.5793146 -0.7644628 -1.0306091
94500 0.63393044 -0.4370107 -0.34187913 -0.3821105 -1.9259876 0.38669452 -0.71952915 -0.825436 -1.4577906 1.3458307 -0.77504736 1.1895304 0.6309138 -0.9283638 -0.32983062 -0.7188948 -1.1553749 -0.13530256 0.60305697 -0.7736012 -1.0190641
20154 0.6050346 -0.48939663 -0.3073851 -0.4364757 -1.8475285 0.41131338 -0.65696335 -0.83331394 -1.401332 1.3101866 -0.77533585 1.1763301 0.55495805 -0.9230079 -0.2634725 -0.69215614 -1.1116635 -0.11391033 0.54482883 -0.77725327 -1.0257009
299562 0.5744484 -0.46741915 -0.2798619 -0.43066162 -1.8734316 0.4147164 -0.64099205 -0.8020768 -1.4266797 1.2562312 -0.7814539 1.1718644 0.55472314 -0.9329523 -0.2899943 -0.69429904 -1.0828451 -0.08051514 0.5677411 -0.7827148 -0.9702081
384292 0.5963011 -0.41390902 -0.32745963 -0.40144804 -1.9154701 0.43483028 -0.64068025 -0.83737344 -1.4738306 1.3261808 -0.79455894 1.1713924 0.5904735 -0.9175826 -0.3480358 -0.7690197 -1.1523247 -0.10584839 0.55238205 -0.8295847 -1.0704464
441953 0.6349446 -0.41234726 -0.3246227 -0.42767832 -1.9041904 0.4162025 -0.6616013 -0.8591267 -1.4564809 1.3251342 -0.7932957 1.1996304 0.56502223 -0.91733277 -0.33897263 -0.7849122 -1.1992959 -0.12661172 0.54351985 -0.83993536 -1.0692395
141722 0.63646495 -0.42799613 -0.31114092 -0.40370688 -1.9034996 0.39063376 -0.68751776 -0.8205853 -1.3734958 1.3244065 -0.7594469 1.1394212 0.52063537 -0.8777464 -0.30800083 -0.70099235 -1.1905761 -0.089576 0.5796267 -0.75000584 -0.9734324
258921 0.6106956 -0.4555563 -0.3163692 -0.41660246 -1.938613 0.3845544 -0.65697026 -0.8355202 -1.4294437 1.319821 -0.75208133 1.151151 0.534619 -0.89621204 -0.31904665 -0.7267286 -1.1965657 -0.10064256 0.58207583 -0.73780155 -1.0129926
226634 0.58666146 -0.48505637 -0.33089152 -0.3186645 -1.7336586 0.39497402 -0.49081102 -0.70739394 -1.3229315 1.1191539 -0.71243703 1.0694374 0.57791495 -0.85097027 -0.3846639 -0.73063576 -1.0543939 -0.16007619 0.45802855 -0.70807624 -0.9389747
469963 0.54173845 -0.48067394 -0.3180471 -0.2698765 -1.7243233 0.38417426 -0.4824803 -0.724695 -1.2815511 1.1075253 -0.7172563 1.0883322 0.590291 -0.823762 -0.37901953 -0.7232433 -1.0248431 -0.1724146 0.42727926 -0.6777123 -0.9222649
289819 0.6785768 -0.4571319 -0.32210058 -0.24966706 -1.899028 0.2517033 -0.70645773 -0.82173294 -1.4424006 1.3477461 -0.86363864 1.2253025 0.5993185 -0.93685853 -0.27668834 -0.75405365 -1.0667746 -0.023228662 0.6292021 -0.8490821 -1.0218569
329025 0.6502536 -0.42997327 -0.33283347 -0.3070241 -1.8655007 0.2754594 -0.6647265 -0.82974625 -1.3944358 1.3410501 -0.85441226 1.2535074 0.6676457 -0.9624427 -0.265582 -0.7466564 -1.0122801 -0.099447325 0.64841944 -0.8459115 -0.9964643
448930 0.58473957 -0.47020715 -0.28192514 -0.35656598 -1.7941691 0.38387468 -0.62982494 -0.81633574 -1.3602506 1.2673819 -0.7742927 1.1473848 0.62495244 -0.89896697 -0.3000899 -0.68000585 -1.1606224 -0.14105038 0.61545146 -0.7528832 -1.0214489
33546 0.61467284 -0.4544617 -0.28250396 -0.3861402 -1.8294879 0.3744441 -0.6141485 -0.8041854 -1.364486 1.2465879 -0.76666623 1.1415167 0.6028483 -0.867504 -0.32041875 -0.6538719 -1.1155324 -0.117783405 0.61712575 -0.7851006 -0.992093
113354 0.5520849 -0.4257183 -0.26734582 -0.3758611 -1.860603 0.36434206 -0.67114806 -0.77782494 -1.3259691 1.3262985 -0.7715398 1.2266963 0.5735606 -0.9512552 -0.31139892 -0.79798204 -1.1450336 -0.07882591 0.59229314 -0.69136155 -1.023794
291369 0.5753048 -0.4311762 -0.27464843 -0.3825892 -1.8342743 0.3661898 -0.698942 -0.76292855 -1.3055009 1.3229928 -0.7752932 1.1774812 0.57932836 -0.9032201 -0.33821952 -0.7706344 -1.1275523 -0.045426417 0.5793998 -0.71424955 -1.0221685
322999 0.557975 -0.499101 -0.28713813 -0.38669702 -1.8419393 0.43782142 -0.64190143 -0.80086285 -1.3740933 1.3228772 -0.7865194 1.1660336 0.65654707 -0.93814975 -0.3275752 -0.7198041 -1.1402844 -0.14257276 0.6705492 -0.7224735 -0.99288255
227622 0.4717425 -0.43817076 -0.2948858 -0.3772191 -1.6610866 0.3980276 -0.6144423 -0.76100665 -1.2640383 1.1860102 -0.7502429 1.0965987 0.6036055 -0.8710731 -0.26914713 -0.67989886 -1.035009 -0.15889755 0.6302405 -0.6525683 -0.88950545
180100 0.57304657 -0.4123415 -0.29337934 -0.34497836 -1.8278354 0.33937782 -0.635827 -0.78257173 -1.3750594 1.2370818 -0.79190665 1.131796 0.5236661 -0.85948634 -0.34070122 -0.699019 -1.0929943 -0.06552873 0.5612136 -0.7245785 -0.9407562
387840 0.6101534 -0.44174936 -0.30300102 -0.37309274 -1.8688174 0.3497167 -0.6319488 -0.82224923 -1.3969835 1.3013514 -0.7799025 1.1308161 0.56395876 -0.9242485 -0.35246065 -0.72463596 -1.1493809 -0.06259363 0.56581044 -0.77717316 -0.99618596
362333 0.64793724 -0.43893895 -0.33469835 -0.40566856 -1.8247055 0.33314225 -0.65055346 -0.75936466 -1.3533081 1.2608125 -0.8037223 1.1239873 0.58720815 -0.8890375 -0.28251746 -0.70969516 -1.1434333 -0.13295875 0.5186536 -0.79382074 -1.0201017
276266 0.62907344 -0.40145212 -0.32441425 -0.38479272 -1.7946635 0.35459462 -0.67376035 -0.7572167 -1.3746784 1.2214502 -0.79303914 1.0979741 0.53241855 -0.8734392 -0.32315814 -0.71297085 -1.1329471 -0.11960992 0.5102575 -0.794419 -0.9827542
485018 0.4675894 -0.43761858 -0.26279074 -0.2857601 -1.7676189 0.35765636 -0.65511686 -0.7791018 -1.2587357 1.1700431 -0.75850385 1.1120988 0.5673001 -0.8200617 -0.33336726 -0.64073807 -1.063408 -0.07062391 0.4797237 -0.67245334 -0.95248085
282813 0.5092222 -0.42719895 -0.30429953 -0.31517455 -1.8217437 0.39054295 -0.63033074 -0.7744894 -1.3069332 1.2240193 -0.7720816 1.1404947 0.52006173 -0.8276694 -0.31770104 -0.6945375 -1.0696541 -0.058881197 0.471804 -0.7412491 -0.9575159
154531 0.55074793 -0.3698753 -0.31190592 -0.33975658 -1.6844636 0.3446483 -0.5830737 -0.77989846 -1.261079 1.138179 -0.7324437 1.0364572 0.52685136 -0.8455621 -0.31471512 -0.6066093 -1.0394136 -0.11827898 0.510316 -0.697803 -0.9512682
478239 0.5324694 -0.36584607 -0.32651705 -0.37011498 -1.7465189 0.36974865 -0.6119627 -0.7605376 -1.2856297 1.1740284 -0.71927744 1.0377245 0.5597021 -0.8272912 -0.32195267 -0.63884825 -1.0853328 -0.120795816 0.5221675 -0.6872187 -0.9576644
186183 0.5857361 -0.37544686 -0.34305957 -0.3082608 -1.6897683 0.3699179 -0.56955856 -0.74969923 -1.2962847 1.1603425 -0.6994697 1.0853838 0.50849044 -0.8619033 -0.28865978 -0.66064817 -1.0640805 -0.08030969 0.5653986 -0.65931606 -0.8876541
293383 0.60504675 -0.3645371 -0.34402472 -0.33188972 -1.7447983 0.33804923 -0.5829536 -0.75600195 -1.3169738 1.1607988 -0.7174016 1.0581222 0.51820874 -0.8544388 -0.30744818 -0.71014315 -1.0491457 -0.09399114 0.5630296 -0.6732664 -0.9197755
183646 0.5964885 -0.47893918 -0.36872518 -0.2987029 -1.7689853 0.3586121 -0.62085325 -0.7873928 -1.2690722 1.1990281 -0.7635254 1.1256866 0.49904242 -0.8457066 -0.26342475 -0.6780266 -1.0806937 -0.044219863 0.5043699 -0.7330145 -0.92221093
329331 0.5653229 -0.47567096 -0.36420828 -0.33132023 -1.7772729 0.3691595 -0.61928713 -0.80999714 -1.3020793 1.2381198 -0.73106706 1.1424229 0.5075089 -0.8742348 -0.30260232 -0.69761884 -1.1271111 -0.10429005 0.51258785 -0.77199197 -0.9179263
485468 0.5436035 -0.45263115 -0.31339842 -0.3839752 -1.7682186 0.34112027 -0.6225258 -0.7125113 -1.3280996 1.183998 -0.7265541 1.1337279 0.5772215 -0.87738407 -0.30223018 -0.7139537 -1.0541532 -0.11769735 0.5633816 -0.75445634 -0.9809287
366462 0.5543742 -0.45167553 -0.29273263 -0.3701982 -1.760591 0.37562662 -0.614026 -0.70047414 -1.2927704 1.1879749 -0.69821507 1.1090531 0.5517745 -0.83973235 -0.26298076 -0.6860709 -1.0591563 -0.09996654 0.5793182 -0.7213763 -0.96334064
389595 0.5924144 -0.29493636 -0.18840526 -0.20815563 -1.534273 0.24790883 -0.5192751 -0.59948736 -1.225172 1.0549827 -0.58566904 0.9582532 0.43900114 -0.8683113 -0.34083536 -0.56909597 -0.99867445 -0.014226773 0.51375324 -0.606193 -0.801003
224332 0.60849684 -0.29335505 -0.2250401 -0.21696033 -1.5517855 0.22371694 -0.5378918 -0.5898143 -1.2706077 1.1178852 -0.6295897 0.9815701 0.41017243 -0.8513163 -0.29834646 -0.596511 -0.9886596 -0.020646375 0.5245248 -0.60908616 -0.7886288
364842 0.5553815 -0.442391 -0.28512666 -0.34135333 -1.7002211 0.3334997 -0.56737226 -0.6979546 -1.2790328 1.215996 -0.7462025 1.0985293 0.49602178 -0.83607316 -0.3021587 -0.6213736 -1.0390842 -0.07411252 0.53008443 -0.7252616 -0.9596883
74926 0.56834507 -0.46139717 -0.2552462 -0.32165846 -1.7486453 0.3573878 -0.57810485 -0.7252031 -1.3161961 1.2404928 -0.7474765 1.0935259 0.5243905 -0.8576838 -0.30857173 -0.6322864 -1.0645194 -0.08073044 0.5353828 -0.7430727 -0.9804568
391533 0.52265435 -0.28136933 -0.2830886 -0.36785722 -1.5310373 0.20572428 -0.5805476 -0.5831747 -1.2356555 0.9492291 -0.56836224 0.9580678 0.48637366 -0.7158423 -0.23000813 -0.6275885 -0.93336135 -0.14195275 0.4231404 -0.76191133 -0.8287264
110201 0.523627 -0.32394773 -0.28038272 -0.3476931 -1.5213332 0.21466193 -0.5480572 -0.57501197 -1.2473989 0.89820635 -0.5636202 0.9351898 0.46912566 -0.69480944 -0.20940082 -0.65921533 -0.92486775 -0.11173516 0.4370292 -0.75915027 -0.7812706
521010 0.47564164 -0.31573182 -0.30298507 -0.3408422 -1.5183325 0.27361658 -0.5477518 -0.63903815 -1.1590215 1.0393631 -0.6663393 0.968422 0.5027723 -0.6831857 -0.2085291 -0.60802114 -0.93314385 -0.050981928 0.41722178 -0.62063366 -0.8433068
48886 0.5002124 -0.29875147 -0.31346467 -0.3330008 -1.487275 0.31632414 -0.5413124 -0.6037229 -1.163298 1.0117952 -0.66818124 0.9421333 0.49423742 -0.6867479 -0.20803577 -0.57476896 -0.94575804 -0.07588829 0.42746466 -0.66206837 -0.8595095
495178 0.4509478 -0.34812525 -0.32660183 -0.30868328 -1.480362 0.30957666 -0.4432806 -0.6140876 -1.087715 1.0740366 -0.57739073 0.92016274 0.42454597 -0.6960135 -0.23334098 -0.5993562 -0.9119531 -0.089537226 0.4162334 -0.63857067 -0.7973856
246501 0.6660042 -0.45915693 -0.2948419 -0.30290228 -1.7767414 0.41153377 -0.5699949 -0.7863067 -1.3658979 1.2177593 -0.66550636 1.079457 0.5890781 -0.8763651 -0.26840177 -0.6479606 -1.0860662 -0.09073841 0.5889039 -0.7301034 -0.95263726
411852 0.648682 -0.4172309 -0.28657383 -0.26580054 -1.738915 0.38490948 -0.5865221 -0.73982066 -1.3647478 1.1830115 -0.6354198 1.0683521 0.5614271 -0.89001876 -0.2663536 -0.6623774 -1.0943545 -0.056185357 0.5562737 -0.7244696 -0.9493934
346124 0.58749324 -0.4886484 -0.35388178 -0.3535622 -1.95374 0.36997095 -0.7255965 -0.85561156 -1.4265925 1.399166 -0.819412 1.2279099 0.57063186 -0.9076139 -0.3026697 -0.76670265 -1.186929 -0.11091045 0.5749452 -0.7356872 -1.0175593
519232 0.59693176 -0.45738888 -0.35088354 -0.3394664 -1.9286206 0.40878192 -0.7213859 -0.8486085 -1.4812005 1.4093533 -0.8674634 1.1980189 0.5752363 -0.934975 -0.2826149 -0.7822867 -1.2050223 -0.13802476 0.5398213 -0.7441017 -1.0100566
451077 0.5486237 -0.33616343 -0.34621474 -0.2829476 -1.6135936 0.32660416 -0.5506108 -0.72732466 -1.2817549 1.1257601 -0.6906451 1.0270145 0.5097557 -0.8482727 -0.26213253 -0.6088485 -1.0350626 -0.14061117 0.46704817 -0.68672955 -0.84634423
530302 0.51477003 -0.29730594 -0.35471174 -0.2951077 -1.607459 0.3550951 -0.56689245 -0.744281 -1.2455542 1.1109818 -0.6391023 0.99044377 0.49844193 -0.79194266 -0.24180724 -0.592119 -0.9770322 -0.13065727 0.46848673 -0.64738584 -0.8200591
371037 0.4644378 -0.379547 -0.26200825 -0.31145832 -1.5528854 0.3122884 -0.5675318 -0.5969305 -1.1751608 1.085466 -0.64517194 0.94294226 0.43485713 -0.78108853 -0.1794998 -0.6149861 -0.8750331 -0.048615765 0.45705 -0.6406686 -0.83178
413045 0.54303265 -0.3399611 -0.23638737 -0.34577623 -1.5242654 0.29808712 -0.5824262 -0.6699409 -1.1933895 1.0735488 -0.64057976 0.94994015 0.41833633 -0.7965984 -0.20995708 -0.59420794 -0.90230715 -0.06998461 0.45075667 -0.65645546 -0.80221814
518553 0.59293705 -0.47932494 -0.3216484 -0.37982622 -1.7367718 0.3211488 -0.63668495 -0.76244825 -1.1928124 1.1666363 -0.7586103 1.0546067 0.50516605 -0.7656036 -0.25947922 -0.7183358 -1.0571958 -0.096935466 0.52991265 -0.6236087 -0.9371996
518556 0.64373 -0.41036177 -0.31802565 -0.3650642 -1.7252464 0.33351216 -0.59231645 -0.7073189 -1.1911086 1.2146251 -0.63150924 1.0931641 0.42703104 -0.80597836 -0.31714493 -0.710932 -1.0618991 -0.083065875 0.48145184 -0.65437317 -0.85721934
55594 0.5787739 -0.4548914 -0.31619373 -0.39272186 -1.7644529 0.42705828 -0.71830904 -0.79478925 -1.3763909 1.3165994 -0.83184034 1.1392064 0.5724445 -0.82757306 -0.27734467 -0.76681095 -1.075788 -0.15421599 0.59035736 -0.76601374 -0.9693928
523666 0.55108774 -0.4697772 -0.30729213 -0.40765172 -1.7868135 0.42803946 -0.7285038 -0.7816394 -1.3876406 1.3427258 -0.8370642 1.1603428 0.530272 -0.85951215 -0.281321 -0.78778577 -1.0733615 -0.12550065 0.56159294 -0.76392996 -1.0016245
192735 0.559139 -0.37710375 -0.23333693 -0.40949032 -1.5534729 0.3559117 -0.6770807 -0.6878003 -1.1598278 1.1386043 -0.63354266 1.0427569 0.5056261 -0.7308665 -0.17366268 -0.6685455 -0.95629764 -0.12886646 0.46126682 -0.6048587 -0.7919277
381486 0.5785747 -0.35314798 -0.26451835 -0.40925986 -1.549888 0.34458175 -0.6475433 -0.6813255 -1.181893 1.1463212 -0.6374218 1.0325042 0.5252394 -0.7471261 -0.21351884 -0.67275697 -0.9826481 -0.13508801 0.46385694 -0.6493756 -0.80941385
413029 0.49623287 -0.46105787 -0.3114629 -0.3694273 -1.697967 0.32104233 -0.5725408 -0.70969534 -1.246671 1.1841581 -0.69336444 1.0696412 0.56716794 -0.76354223 -0.2710672 -0.6470074 -1.0128243 -0.16409047 0.5591973 -0.6392147 -0.9109401
81033 0.5250298 -0.5101137 -0.2869853 -0.37742564 -1.6818907 0.27730843 -0.55239654 -0.7068479 -1.2624614 1.1645379 -0.663799 1.0715556 0.49593323 -0.7515514 -0.30876422 -0.6257393 -0.9502346 -0.1696252 0.5333892 -0.6279446 -0.8720247
343605 0.53201824 -0.3372788 -0.40107352 -0.21802367 -1.292649 0.31766418 -0.5012133 -0.6767797 -0.9869681 1.0188395 -0.7208805 0.8426616 0.45359385 -0.54905236 -0.22220352 -0.5121798 -0.9903129 -0.083474286 0.46024892 -0.6838003 -0.7712696
534599 0.54512155 -0.37453005 -0.38246462 -0.2323594 -1.3378087 0.31531328 -0.48105264 -0.7070456 -1.009162 1.0730981 -0.7038674 0.8706602 0.4859157 -0.58043665 -0.18491654 -0.57067317 -1.0572485 -0.07463176 0.512683 -0.6475097 -0.8186528
200981 0.5238066 -0.41925576 -0.22400756 -0.31839418 -1.656439 0.37915984 -0.58561224 -0.7548122 -1.2705816 1.2039996 -0.7350187 0.9891844 0.4588094 -0.81376636 -0.2908164 -0.6006847 -0.9692592 -0.035146683 0.46254522 -0.6632527 -0.8790905
111889 0.5641901 -0.38902864 -0.24404362 -0.30768612 -1.6588689 0.39685404 -0.6102847 -0.75897664 -1.2798162 1.1695824 -0.72689646 1.0292903 0.49743283 -0.8233826 -0.24946745 -0.6290101 -0.97963 -0.10726405 0.47028413 -0.6496488 -0.8788094
447463 0.5597827 -0.37894484 -0.3067264 -0.33684087 -1.6137071 0.30800712 -0.5112932 -0.6536428 -1.2175025 1.1166596 -0.6881003 1.010957 0.5459848 -0.8721694 -0.2531301 -0.6551975 -0.971516 -0.068250194 0.5143275 -0.6800999 -0.8421449
325833 0.48962292 -0.39990532 -0.2687431 -0.36288166 -1.576709 0.34900892 -0.47814643 -0.6577846 -1.2474456 1.1490462 -0.66401464 1.006965 0.55186313 -0.847172 -0.22084482 -0.6357458 -0.9882581 -0.0730733 0.48941132 -0.6609746 -0.85535085
101286 0.6198009 -0.38530177 -0.29317373 -0.32673833 -1.7351038 0.3298235 -0.51624674 -0.7706428 -1.1878872 1.1588417 -0.7613662 1.0500617 0.5476323 -0.808891 -0.28892773 -0.7429613 -0.959198 -0.09991319 0.5204152 -0.7070098 -0.9027449
47328 0.51985 -0.3453221 -0.23554556 -0.32761073 -1.6712302 0.3676638 -0.5597858 -0.68560493 -1.1450115 1.1513097 -0.6821985 1.0066174 0.5044818 -0.7680726 -0.29402524 -0.6716387 -0.9591121 -0.09622198 0.53858536 -0.6809892 -0.87860733
78648 0.5376077 -0.33296257 -0.26108077 -0.340568 -1.5740918 0.3113512 -0.56147987 -0.6394979 -1.1818535 1.0304188 -0.5976814 0.95900154 0.5061704 -0.80414903 -0.26179197 -0.59673375 -0.9210911 -0.11890632 0.4826841 -0.6041733 -0.75931454
486976 0.5305947 -0.36861745 -0.22933301 -0.32713458 -1.5778459 0.34651822 -0.56904244 -0.67476875 -1.1818625 1.0556087 -0.6103817 0.9276535 0.5083738 -0.80198324 -0.24558824 -0.5943757 -0.90877247 -0.1073241 0.4896964 -0.5931892 -0.7622284
93541 0.58025426 -0.3530938 -0.2873866 -0.2843579 -1.6658652 0.31851134 -0.5390468 -0.68760765 -1.2536901 1.1116033 -0.6761805 0.98133266 0.535642 -0.80846363 -0.2964614 -0.5754231 -1.0313096 -0.07718468 0.55017203 -0.66970634 -0.879463
29908 0.57676214 -0.3662313 -0.26108977 -0.27143204 -1.6587261 0.31372255 -0.5512405 -0.69032544 -1.2100024 1.0998824 -0.6705173 0.95562506 0.5087359 -0.78748477 -0.31952587 -0.56657916 -1.0305806 -0.063726574 0.5252309 -0.64082 -0.84791344
265843 0.5439218 -0.41473264 -0.30410057 -0.2982518 -1.5870836 0.330233 -0.56759846 -0.66560984 -1.15131 1.1192214 -0.675071 0.9727724 0.53260905 -0.8254754 -0.2912984 -0.60925794 -0.99352896 -0.05134187 0.46550968 -0.675422 -0.85150653
164575 0.5453666 -0.4332034 -0.30982423 -0.30059355 -1.5549788 0.3479017 -0.5591272 -0.6616282 -1.1876405 1.1388592 -0.7076705 1.0007254 0.4997434 -0.83807194 -0.27059704 -0.5832996 -0.98306495 -0.07759864 0.45695287 -0.661526 -0.8695127
395929 0.61234254 -0.38337168 -0.20207688 -0.33836854 -1.7141303 0.37691325 -0.58892876 -0.7435575 -1.3219321 1.2185463 -0.6873071 1.0016257 0.48821875 -0.88624865 -0.28419963 -0.68945056 -1.0668093 -0.13275027 0.5554547 -0.79857534 -0.8741009
129279 0.61032546 -0.39282623 -0.19302282 -0.37449577 -1.6621265 0.36888078 -0.62821865 -0.77240485 -1.3048745 1.1940541 -0.69941217 0.9586812 0.45799044 -0.87866205 -0.26268557 -0.6672715 -1.0219065 -0.10942757 0.554433 -0.7669207 -0.8856924
490181 0.42478013 -0.3239139 -0.2992541 -0.33611995 -1.4448962 0.32210112 -0.43463337 -0.64558995 -1.0491205 1.0990881 -0.69327825 0.88098663 0.41123796 -0.7674176 -0.24778832 -0.48727015 -0.9093253 -0.0875459 0.3778176 -0.61411035 -0.7719863
75942 0.45550132 -0.3641399 -0.2945828 -0.32358584 -1.5277804 0.34740078 -0.46269813 -0.58825654 -1.049044 1.1105639 -0.6435528 0.89613116 0.43172413 -0.7630027 -0.2739334 -0.53369075 -0.92328167 -0.10618163 0.4622251 -0.65256214 -0.7740039
3070 0.5345769 -0.3406515 -0.23501226 -0.29138115 -1.6000742 0.3264666 -0.51312613 -0.6616082 -1.1660696 1.0564182 -0.6767824 1.0098398 0.47196406 -0.79376423 -0.27583247 -0.6461584 -0.94979477 -0.08079504 0.49097112 -0.66737264 -0.8325055
211915 0.5688222 -0.32865253 -0.22537762 -0.301471 -1.5810498 0.2997793 -0.5194784 -0.70287657 -1.1818441 1.0684801 -0.6877266 1.0100281 0.48197985 -0.76453733 -0.2965023 -0.6578484 -0.99114394 -0.104477696 0.4971183 -0.6567357 -0.8617289
524056 0.46380693 -0.2753068 -0.28161904 -0.28806522 -1.3744235 0.27565795 -0.5865362 -0.6280219 -1.1391615 1.087967 -0.632613 0.97511774 0.4028382 -0.7652121 -0.1963804 -0.6132922 -0.9030714 -0.13522014 0.49882975 -0.6469066 -0.8114309
288424 0.48287398 -0.36504036 -0.29992163 -0.341404 -1.5143644 0.31705397 -0.5705226 -0.6530909 -1.1914853 1.1018815 -0.6178031 1.0424819 0.3920119 -0.7831511 -0.2472509 -0.6441475 -0.944284 -0.094499946 0.49521738 -0.7056251 -0.81312895
89884 0.46934012 -0.39326707 -0.26130337 -0.3118089 -1.5474168 0.28024337 -0.49823776 -0.67801434 -1.1385316 1.0928882 -0.64424866 0.9443906 0.46468472 -0.76469874 -0.2808674 -0.5929273 -0.9236558 -0.12600854 0.5054205 -0.5750014 -0.77772444
422130 0.47803724 -0.38019538 -0.2563571 -0.28264156 -1.540212 0.2887482 -0.511421 -0.6977687 -1.1195061 1.074534 -0.6351766 0.94601643 0.4900876 -0.7515088 -0.24658272 -0.5686166 -0.9530205 -0.10507244 0.47380516 -0.59763634 -0.78108364
189849 0.4425037 -0.30111322 -0.31543547 -0.36443096 -1.5624098 0.23707208 -0.5272125 -0.66696626 -1.1606492 1.0515704 -0.66704386 0.993163 0.5027404 -0.7826861 -0.19653718 -0.64235014 -0.95102656 -0.09150679 0.5325991 -0.6392376 -0.90267885
510749 0.47361046 -0.31632566 -0.2816249 -0.35961205 -1.560891 0.2503095 -0.5658076 -0.69174844 -1.1466135 1.0541693 -0.6533534 0.96924245 0.48135734 -0.7861423 -0.2092443 -0.6140509 -0.91820586 -0.10301256 0.533794 -0.619391 -0.8925283
187400 0.5881088 -0.39530045 -0.29710868 -0.31377655 -1.6131059 0.32033545 -0.6153341 -0.66465694 -1.1699007 1.0509803 -0.64692044 0.9941559 0.42911118 -0.7874265 -0.26151413 -0.5759442 -0.91912186 -0.074290276 0.50978565 -0.67072034 -0.872885
248167 0.57406133 -0.5044229 -0.29643244 -0.3395037 -1.6836466 0.3096295 -0.6539011 -0.6569936 -1.1697824 0.9861206 -0.70804036 1.0236801 0.47986576 -0.78179926 -0.2786508 -0.5161356 -0.9523748 -0.05892084 0.53621686 -0.70443785 -0.8408771
17767 0.5201995 -0.3191428 -0.2680279 -0.21919495 -1.4958924 0.31492952 -0.5579802 -0.68966705 -1.1684358 1.0501877 -0.61532813 0.9132402 0.41715562 -0.72022593 -0.2849264 -0.5264858 -0.9339206 -0.07096521 0.45523602 -0.6594657 -0.8740923
277206 0.51857793 -0.32799706 -0.23363566 -0.20641243 -1.541722 0.32978594 -0.5494605 -0.67043376 -1.180124 1.065317 -0.52555376 0.86724746 0.44049144 -0.7174401 -0.21669643 -0.63997763 -0.89132327 -0.051072292 0.37303218 -0.6378186 -0.84919417
204345 0.49328563 -0.37500903 -0.2429341 -0.2788662 -1.4482538 0.191242 -0.4700691 -0.53488755 -1.0795296 0.9982542 -0.5749689 0.88013715 0.43664378 -0.694656 -0.22991303 -0.5081391 -0.9036944 -0.06677594 0.42999023 -0.62445724 -0.6932324
483121 0.46216026 -0.371609 -0.25458258 -0.25005096 -1.4452279 0.24886604 -0.44673762 -0.5308383 -1.0453342 0.9586938 -0.60248935 0.9118367 0.3965716 -0.7221871 -0.24420446 -0.5123139 -0.8442459 -0.05177138 0.45837435 -0.5968114 -0.74195766
505679 0.35629633 -0.14868154 -0.16198987 -0.14817517 -1.5038257 0.37046003 -0.51699716 -0.79203576 -0.994947 1.1081579 -0.61638016 0.8841252 0.4969552 -0.53163123 -0.22029942 -0.46220785 -0.8843088 0.080869034 0.5350562 -0.5064811 -0.6363676
367991 0.35284096 -0.13435028 -0.16730921 -0.16555807 -1.4932564 0.38633943 -0.48098025 -0.79890066 -0.989562 1.1111474 -0.61901695 0.90618956 0.490849 -0.5220754 -0.24380524 -0.4627633 -0.9095425 0.073568 0.5134901 -0.49002296 -0.62618965
311668 0.45794567 -0.38735655 -0.25032687 -0.32398143 -1.5437558 0.22939788 -0.56975645 -0.6981309 -1.1056125 1.0682577 -0.5783471 1.044331 0.38864446 -0.7792441 -0.252296 -0.65769535 -0.93931663 -0.09422393 0.49333903 -0.72988135 -0.82310206
385520 0.42848006 -0.3818678 -0.20899865 -0.2894261 -1.5179933 0.2327262 -0.6051311 -0.7081627 -1.1173072 1.0599185 -0.556621 1.03278 0.39296365 -0.7840305 -0.26485834 -0.651847 -0.894953 -0.06548134 0.4351863 -0.6541018 -0.7833041
482767 0.46601236 -0.3615948 -0.18809801 -0.25421658 -1.4028518 0.3624462 -0.5773974 -0.68462956 -1.08968 1.0088589 -0.56769484 0.9049893 0.4270691 -0.7059652 -0.28871346 -0.60690516 -0.8858367 -0.13045724 0.4072422 -0.61227727 -0.86310935
458733 0.4858514 -0.38096815 -0.21614109 -0.29290557 -1.458418 0.3797503 -0.5885949 -0.72152925 -1.1502167 1.072602 -0.6122282 0.9042907 0.46461275 -0.727356 -0.25856876 -0.6351244 -0.89407134 -0.10923189 0.43482503 -0.589965 -0.8990353
386359 0.5327827 -0.40571004 -0.2674669 -0.37168014 -1.4863336 0.262964 -0.5756774 -0.65211976 -1.0731996 1.1100291 -0.6949564 0.8988418 0.447845 -0.77539533 -0.2674343 -0.60498255 -0.96209764 -0.14736152 0.4187661 -0.6855658 -0.8152963
319911 0.52066004 -0.40683213 -0.29058337 -0.39254484 -1.5262423 0.26591578 -0.5853592 -0.6724338 -1.1464754 1.1571796 -0.69324297 0.9565923 0.4544277 -0.80734277 -0.3101006 -0.6223298 -0.9619286 -0.15254897 0.44741756 -0.70929754 -0.8712046
256662 0.43639907 -0.3989147 -0.22543079 -0.27683273 -1.5147907 0.31823963 -0.5152006 -0.6261239 -1.216149 1.0159864 -0.6789661 0.89917564 0.43405056 -0.8011792 -0.24391058 -0.5640261 -0.9488768 -0.08704144 0.54323834 -0.6443615 -0.8389848
251691 0.46069133 -0.39346462 -0.19939357 -0.32082117 -1.5304353 0.3026304 -0.5352347 -0.61626333 -1.1858582 1.0010208 -0.6168091 0.8789069 0.41131645 -0.7895981 -0.28480086 -0.5543212 -0.8909416 -0.053064577 0.51841116 -0.6431196 -0.77430373
427166 0.5566131 -0.36851045 -0.2542384 -0.30080348 -1.5494894 0.24831401 -0.53291863 -0.6610246 -1.111032 1.0759816 -0.6065716 0.9126332 0.50816125 -0.7562156 -0.27208543 -0.55350906 -0.882717 -0.028384954 0.5292306 -0.663474 -0.8405591
454764 0.55735856 -0.34001198 -0.27993122 -0.31727925 -1.5672576 0.24349485 -0.54280454 -0.6830219 -1.1382489 1.0732765 -0.6190626 0.9115035 0.48904732 -0.7870517 -0.2749239 -0.5638082 -0.8971972 -0.037613135 0.5405429 -0.6460145 -0.8355336
426303 0.5592109 -0.42594048 -0.23012066 -0.29367903 -1.5353373 0.278714 -0.5404779 -0.5827335 -1.1491438 1.0080684 -0.63979703 0.89530104 0.48478317 -0.7167095 -0.25066757 -0.54329467 -0.9418668 -0.10715131 0.4933341 -0.6760172 -0.7536556
349787 0.52792877 -0.39080054 -0.27238452 -0.27006155 -1.4888945 0.2589032 -0.5584914 -0.5975802 -1.1207951 1.0272745 -0.60697764 0.9079245 0.48134422 -0.71652013 -0.2341434 -0.5065525 -0.9369171 -0.07128711 0.49441618 -0.65817183 -0.7599244
536463 0.42466545 -0.47813177 -0.30252644 -0.17264672 -1.5561317 0.16668047 -0.40596595 -0.65467364 -1.2107091 1.1883852 -0.49277198 1.0658053 0.43383017 -0.68138677 -0.12988174 -0.6699336 -0.8314222 -0.15666375 0.51134515 -0.63354766 -0.78409946
16921 0.44970897 -0.48307166 -0.33140638 -0.16976161 -1.6427481 0.18962996 -0.3914098 -0.630611 -1.2572895 1.1896856 -0.49705523 1.0718915 0.4427135 -0.6735086 -0.10788751 -0.6578549 -0.8316076 -0.14025787 0.4732331 -0.61634177 -0.76598424
226772 0.33715904 -0.33522958 -0.30280942 -0.24877985 -1.3883675 0.32504803 -0.54285705 -0.59046566 -1.1597285 0.72456497 -0.57052076 0.8983044 0.2382764 -0.6736081 -0.18125457 -0.5429858 -0.7251364 -0.18113114 0.4426667 -0.68432504 -0.8040621
462101 0.31716487 -0.34128684 -0.29033926 -0.24275038 -1.4245614 0.3611515 -0.5637819 -0.6396826 -1.1509554 0.7532561 -0.58452475 0.9520917 0.24400212 -0.6959125 -0.20166083 -0.5618597 -0.732478 -0.13398279 0.46402422 -0.6904965 -0.7695297
203707 0.43401062 -0.38557312 -0.320524 -0.31564468 -1.5725967 0.26872256 -0.59436184 -0.68718636 -1.2161613 1.060064 -0.6260086 0.95712245 0.4195101 -0.7241351 -0.28438863 -0.6027701 -1.0267402 -0.094863564 0.47513214 -0.63799363 -0.91537213
531969 0.42469224 -0.33950993 -0.31372094 -0.28644946 -1.5376092 0.26547363 -0.60585845 -0.70993817 -1.1702671 1.0937876 -0.6533533 0.9673739 0.45858854 -0.7386105 -0.25045055 -0.57035375 -1.0149665 -0.091220096 0.48157018 -0.64908326 -0.8886704
533714 0.4618412 -0.26461545 -0.17894468 -0.44187817 -1.3881167 0.2517979 -0.4176748 -0.45987988 -1.0096613 0.9794111 -0.6855058 1.0960135 0.48889056 -0.68201625 -0.092012174 -0.6589976 -0.58225334 -0.0044409805 0.6405669 -0.5288658 -0.7998438
55960 0.4057198 -0.19479722 -0.18876235 -0.4024491 -1.4227804 0.26128885 -0.40945673 -0.43547824 -0.9879714 1.0126859 -0.672881 1.0522126 0.49828732 -0.6823609 -0.07897194 -0.6988303 -0.57409966 -0.0010748282 0.6281713 -0.5418672 -0.7255011
188935 0.49309024 -0.31612056 -0.1813248 -0.29518995 -1.46164 0.22001933 -0.5831919 -0.6844712 -1.0720314 1.0714502 -0.7212773 0.85488826 0.4651486 -0.58446765 -0.16249156 -0.5336505 -0.81051123 -0.08842017 0.42587194 -0.6260237 -0.7415775
209145 0.47232023 -0.23474838 -0.17335668 -0.3126312 -1.4131132 0.28158543 -0.5933909 -0.6227211 -0.99789506 1.024535 -0.6990066 0.84768456 0.37961766 -0.5502133 -0.21770377 -0.53617 -0.80043 -0.06736814 0.4421874 -0.5886244 -0.6827105
94083 0.53098243 -0.38052103 -0.28389895 -0.29315183 -1.5050979 0.29053086 -0.41645423 -0.66045374 -0.9986554 1.0853453 -0.6374287 0.9104934 0.42882115 -0.6962968 -0.34658143 -0.6690323 -0.9920757 -0.13830785 0.53006864 -0.6054125 -0.89588624
403965 0.6180701 -0.38070202 -0.2327848 -0.31872076 -1.5499798 0.33679375 -0.48766473 -0.58690244 -1.095226 1.126014 -0.5855145 1.058999 0.44954076 -0.77469164 -0.3395454 -0.6001395 -0.92365783 -0.02261466 0.4411498 -0.5881391 -0.8478221
236233 0.49857783 -0.4065256 -0.24390247 -0.34479207 -1.4703419 0.3037704 -0.5541478 -0.68032026 -1.0937562 1.0740961 -0.72158104 0.91296136 0.47030598 -0.7492375 -0.2936684 -0.55577874 -0.9388735 -0.030979838 0.4415486 -0.5622389 -0.7443828
211311 0.5160386 -0.4164452 -0.30755335 -0.33322018 -1.4724659 0.2879249 -0.5118959 -0.72499245 -1.0957625 1.0562302 -0.72077435 0.9246687 0.49794126 -0.74998415 -0.28510973 -0.56368035 -0.9536657 -0.06203292 0.4117016 -0.56808054 -0.74697
468369 0.49911526 -0.3090306 -0.20809796 -0.31037667 -1.5938196 0.38300326 -0.5146865 -0.6011054 -1.1515807 1.0615472 -0.6134992 0.88011575 0.4631451 -0.6979634 -0.2808826 -0.58478063 -0.95225936 -0.02627936 0.41147706 -0.68134564 -0.8975829
451875 0.55123055 -0.31610966 -0.23266129 -0.26285833 -1.5409145 0.31993297 -0.5529587 -0.59077495 -1.1382058 1.0846623 -0.5586702 0.9230214 0.47459716 -0.6691199 -0.2669238 -0.6341591 -0.9661261 -0.014344661 0.44896388 -0.6443208 -0.781817
116077 0.5151192 -0.345399 -0.20318007 -0.28457624 -1.4916706 0.334553 -0.5504984 -0.6765208 -1.0833033 0.95113283 -0.62964743 0.87706953 0.43128642 -0.7523425 -0.2559919 -0.5240124 -0.87382984 -0.13556442 0.4140589 -0.6485313 -0.7846196
235029 0.5154115 -0.3203335 -0.19407004 -0.30070248 -1.4828954 0.30613968 -0.56547743 -0.7011277 -1.1265148 0.9745191 -0.64130026 0.86960036 0.430161 -0.7729747 -0.2842399 -0.575597 -0.87195843 -0.14382714 0.4356101 -0.676554 -0.8008106
326105 0.64269763 -0.46050385 -0.38453493 -0.26471418 -1.5168781 0.28739348 -0.535066 -0.6638611 -1.0677682 1.0109816 -0.5520024 1.0302486 0.4588038 -0.7184034 -0.20449683 -0.5296922 -0.9137168 -0.06967001 0.35032165 -0.599184 -0.6836562
461712 0.6802492 -0.46122414 -0.43478993 -0.2714307 -1.4808787 0.30428678 -0.46607122 -0.68930376 -1.0278893 1.0528376 -0.55935097 0.9636827 0.48624215 -0.70504755 -0.18039389 -0.52067244 -0.9264491 -0.0946298 0.39688095 -0.65702856 -0.6828029
1861 0.5418843 -0.38991195 -0.23212226 -0.29364887 -1.5450138 0.31048816 -0.5253519 -0.6400821 -1.1130083 1.0147134 -0.6078013 0.9464714 0.45263478 -0.6826632 -0.2452909 -0.58484846 -0.9558522 -0.16618331 0.46705857 -0.6240129 -0.82660747
327815 0.5277732 -0.35548413 -0.23389006 -0.25917035 -1.5417717 0.26922694 -0.50411975 -0.66127706 -1.0849344 1.0235097 -0.5829544 0.9502955 0.46070117 -0.6718348 -0.22937247 -0.59251094 -0.9554094 -0.16750793 0.43782002 -0.60091865 -0.814337
291297 0.5636476 -0.4727081 -0.2614415 -0.31218213 -1.5439749 0.2697493 -0.47631976 -0.6420242 -1.084165 1.050389 -0.5498651 0.8920855 0.42049438 -0.7378634 -0.23905082 -0.64529735 -0.9169686 -0.04831808 0.4424427 -0.6872732 -0.67232037
179849 0.52857953 -0.40241456 -0.26087928 -0.31795704 -1.5812081 0.29619625 -0.576892 -0.68697274 -1.0738962 1.0489806 -0.69973797 0.9203344 0.49493018 -0.71098983 -0.23980695 -0.63300407 -0.99624926 -0.12770674 0.4222373 -0.69191545 -0.70234364
400137 0.4921571 -0.3248086 -0.2580699 -0.32499364 -1.4675387 0.41397068 -0.5014083 -0.50038296 -1.068687 1.0604246 -0.600325 0.93187666 0.39371562 -0.70989656 -0.17172597 -0.6159216 -0.8760016 -0.14054535 0.47614917 -0.5866666 -0.7555373
66491 0.49688056 -0.41906792 -0.31278816 -0.34183478 -1.432588 0.33376047 -0.47194704 -0.6174189 -1.0283036 1.108629 -0.6878083 0.9757747 0.42457816 -0.76002336 -0.19122258 -0.6554348 -0.85745394 -0.1242518 0.46693885 -0.54569846 -0.796086
402399 0.4124259 -0.3197226 -0.20197934 -0.28628248 -1.5067137 0.3582874 -0.52583015 -0.60009956 -1.0948484 1.0490516 -0.59150463 0.9309834 0.4202454 -0.7579595 -0.17032619 -0.6101604 -0.8671123 -0.06393658 0.39554143 -0.56925905 -0.7654068
66643 0.41643924 -0.31064704 -0.19091898 -0.26579314 -1.4971985 0.34588405 -0.546229 -0.5994732 -1.0691847 1.0446993 -0.5795301 0.94066894 0.43696192 -0.76682514 -0.17973042 -0.5947183 -0.8967303 -0.04283677 0.40996966 -0.544717 -0.73145545
141580 0.42600465 -0.4003993 -0.2859232 -0.11835286 -1.3808389 0.31941324 -0.429668 -0.5102615 -1.1881194 0.86250263 -0.5490354 0.844663 0.44089887 -0.7090183 -0.12896343 -0.68935305 -0.77983147 -0.13922639 0.4188569 -0.50044703 -0.8682556
192929 0.4402891 -0.36327672 -0.2891189 -0.09633722 -1.3727709 0.35355207 -0.42017648 -0.5160082 -1.1685015 0.8977948 -0.5308543 0.902292 0.4663138 -0.7251997 -0.13796681 -0.69567364 -0.81533366 -0.15854876 0.44369876 -0.5553849 -0.85530305
485555 0.5136408 -0.35942012 -0.27937236 -0.2508624 -1.4774541 0.21759282 -0.4876613 -0.67913514 -1.0517774 1.0353342 -0.6269445 0.8950207 0.43617165 -0.68833387 -0.221852 -0.53872323 -0.8429775 -0.13207735 0.40588462 -0.559466 -0.71578205
4551 0.5298475 -0.3185193 -0.27489144 -0.24461491 -1.4612534 0.2267688 -0.5283077 -0.654945 -1.0882229 1.0519091 -0.6427742 0.9270926 0.42459032 -0.69553757 -0.2637181 -0.55363655 -0.83533514 -0.13049737 0.43921873 -0.5507445 -0.7370953
133233 0.48127335 -0.42749104 -0.3283461 -0.24483182 -1.6033914 0.35210934 -0.4988396 -0.68193215 -1.1789274 1.003684 -0.6748657 0.770001 0.39064506 -0.8677038 -0.38010514 -0.6730621 -0.8802192 -0.11721465 0.41935134 -0.6737792 -0.7354533
5353 0.52044827 -0.41606337 -0.31304967 -0.21589975 -1.6176715 0.33460766 -0.5073439 -0.6351396 -1.1535302 0.9835641 -0.6930622 0.7640134 0.37316492 -0.8846513 -0.40142417 -0.67732066 -0.88297737 -0.061403982 0.39082977 -0.6954708 -0.74370384
206843 0.4593188 -0.40911824 -0.17020535 -0.25132495 -1.1580383 0.0747477 -0.44278973 -0.45764711 -0.8585617 1.0166949 -0.6131991 0.6709018 0.33242655 -0.99619913 -0.34074816 -0.7846425 -1.0815046 -0.24212141 0.341397 -0.65318096 -0.6426072
270172 0.45633116 -0.3689573 -0.1762153 -0.3000525 -1.1314876 0.040554628 -0.41361144 -0.44708434 -0.81516325 0.9951998 -0.5713159 0.666085 0.30039805 -1.0239103 -0.34091833 -0.7959487 -1.0877706 -0.27284315 0.33173454 -0.65116054 -0.6180411
428194 0.46009648 -0.33395448 -0.24038789 -0.31712815 -1.5227629 0.3121471 -0.5145157 -0.6841126 -1.131965 1.0748248 -0.5919257 0.9254216 0.4950147 -0.7052549 -0.1555996 -0.56299746 -0.8926049 0.050481856 0.35451382 -0.6576536 -0.8304106
211576 0.43848404 -0.3658808 -0.23237212 -0.2996484 -1.5201716 0.31815565 -0.5545231 -0.699652 -1.1337873 1.0322475 -0.5888593 0.9418972 0.48783943 -0.687246 -0.1901019 -0.56793785 -0.92400277 0.026779247 0.3223099 -0.624225 -0.8179534
362330 0.4979648 -0.32453772 -0.23045112 -0.28648776 -1.5043449 0.3380553 -0.46643668 -0.673755 -1.113545 1.0690664 -0.67819965 0.91440266 0.4037556 -0.6798456 -0.2667839 -0.6542392 -0.9681423 -0.067303225 0.3778108 -0.6027729 -0.8015311
176212 0.5095355 -0.3137856 -0.19592682 -0.2787211 -1.4889885 0.34996045 -0.49991658 -0.69609636 -1.1264348 1.04952 -0.6645773 0.9102745 0.4161838 -0.6789014 -0.26186764 -0.60980743 -0.978843 -0.07602123 0.41482887 -0.641372 -0.8090894
398335 0.54005086 -0.3697128 -0.31818327 -0.29399008 -1.511539 0.2634696 -0.5181727 -0.7027996 -1.1610075 0.952333 -0.6328114 0.8587259 0.49040297 -0.6984512 -0.2585153 -0.63840264 -0.9018756 -0.113574125 0.46899286 -0.5966462 -0.7941072
235287 0.540154 -0.34781146 -0.30528903 -0.29491845 -1.4468002 0.27134794 -0.472711 -0.69141996 -1.1216588 0.91376257 -0.608667 0.8110417 0.46467564 -0.696296 -0.25503573 -0.6068831 -0.8711628 -0.06660901 0.41825294 -0.6051279 -0.76049626
503877 0.70793164 -0.5133065 -0.0681145 -0.35763416 -1.3928643 0.03669477 -0.5230165 -0.48232722 -0.8965889 0.96834755 -0.88108575 0.76153904 0.5707084 -0.6538943 -0.20980398 -0.7142489 -0.7798639 -0.1901088 0.5270234 -0.53141147 -0.8087293
518534 0.6622955 -0.49765477 -0.09387562 -0.31484503 -1.4059165 0.030592127 -0.49566385 -0.416185 -0.91556424 0.917165 -0.88638777 0.71352285 0.5806242 -0.6623331 -0.2505268 -0.669333 -0.72887933 -0.20800778 0.5110886 -0.5062414 -0.7864307
139257 0.42814487 -0.40211013 -0.27909443 -0.3039805 -1.4700649 0.20780957 -0.50011736 -0.6223673 -1.2413005 1.0851411 -0.6635531 0.9321232 0.51945305 -0.7621049 -0.41215596 -0.54334414 -0.8909291 -0.056730583 0.5030928 -0.603636 -0.8588035
106964 0.4293504 -0.41262835 -0.29972163 -0.3317526 -1.4906833 0.16517872 -0.53782225 -0.61734337 -1.2416157 1.0724833 -0.6400769 0.9121485 0.4898235 -0.72159433 -0.42665198 -0.54223233 -0.8500746 -0.11100092 0.4973455 -0.5871985 -0.85071313
265792 0.5278456 -0.299205 -0.26366025 -0.32377306 -1.4740784 0.35207888 -0.46603018 -0.6285738 -1.034926 0.99851173 -0.51916707 0.9427601 0.44199336 -0.64069927 -0.25830162 -0.63181585 -0.9698927 -0.02488861 0.4712941 -0.5590349 -0.7204527
219357 0.5662278 -0.36195728 -0.2995757 -0.30625015 -1.4972126 0.381271 -0.5565601 -0.6114547 -1.0500379 1.0015823 -0.5608998 0.9054902 0.5241856 -0.6605891 -0.30518728 -0.68184596 -0.9587894 -0.012388786 0.5106642 -0.5291144 -0.74931365
10330 0.4945423 -0.2762656 -0.3239301 -0.2824823 -1.5429264 0.3172624 -0.50424546 -0.6747654 -1.1159443 1.0385361 -0.6111148 0.86285585 0.40333763 -0.65897334 -0.28839508 -0.5446916 -0.94950366 -0.12411123 0.5213947 -0.6036234 -0.81669486
105714 0.46624243 -0.2861636 -0.32134858 -0.25712246 -1.5612772 0.2675921 -0.48992714 -0.58084637 -1.0659585 1.0366552 -0.64298326 0.88287294 0.44377172 -0.6294611 -0.30330256 -0.54428846 -0.9192044 -0.11389185 0.5125443 -0.61800915 -0.8189063
76334 0.5053189 -0.34355715 -0.23410963 -0.2900474 -1.4618676 0.30682713 -0.45038942 -0.62644243 -1.1013702 1.0163436 -0.61831003 0.8922742 0.34994245 -0.6589773 -0.2616043 -0.5320427 -0.8366526 -0.10425817 0.51708275 -0.53567106 -0.77377623
102171 0.49427944 -0.3572161 -0.24628083 -0.31224024 -1.4447782 0.2939504 -0.4624573 -0.6050801 -1.0769917 1.0017604 -0.61023504 0.90807515 0.34779134 -0.6662592 -0.26926172 -0.5128306 -0.84206164 -0.10208863 0.50362295 -0.5479655 -0.79226315
245884 0.57095796 -0.34631523 -0.2968451 -0.2657039 -1.7086918 0.31047037 -0.6464351 -0.6586925 -1.1068549 1.0642078 -0.5539437 1.1296432 0.47400862 -0.83282757 -0.29782504 -0.69211805 -1.1001064 -0.057857413 0.5394115 -0.6234794 -0.7702601
44442 0.5845606 -0.36848527 -0.301865 -0.24449712 -1.6719648 0.3499128 -0.6096762 -0.6664096 -1.0845168 1.0023241 -0.54599816 1.0786626 0.43641496 -0.78069526 -0.30239385 -0.70005745 -1.1081198 -0.08105808 0.4865917 -0.6467503 -0.7212873
57703 0.5404551 -0.3421816 -0.26114702 -0.35532454 -1.5164337 0.23541376 -0.52402794 -0.62207466 -1.081332 0.9559551 -0.52907646 0.9031033 0.5074259 -0.7087521 -0.16866575 -0.53524584 -0.83767545 -0.0076103783 0.47851193 -0.64525485 -0.78729045
477614 0.5516709 -0.3097745 -0.26943097 -0.36135978 -1.4745923 0.23319587 -0.5143912 -0.6155464 -1.1137825 0.99171984 -0.5580935 0.95023733 0.4710776 -0.73793626 -0.16336967 -0.47292688 -0.8957874 0.003040886 0.43757635 -0.6370947 -0.81027657
185163 0.42884195 -0.23220061 -0.3196174 -0.35323477 -1.4816467 0.16312148 -0.53444415 -0.6519042 -1.0653718 0.99578905 -0.69292086 0.9547807 0.45022795 -0.7344681 -0.260237 -0.62766653 -0.94185585 0.06160171 0.48893318 -0.6407108 -0.8843597
233890 0.43462327 -0.27298006 -0.2967294 -0.3278035 -1.466488 0.14209901 -0.53233975 -0.5904759 -1.0514193 0.942535 -0.63310707 0.89677113 0.37952834 -0.76383567 -0.22519939 -0.6162628 -0.9004398 0.07047444 0.4258871 -0.68382096 -0.8421382
376911 0.47057557 -0.36801115 -0.26617554 -0.21863148 -1.3573654 0.28680578 -0.5112283 -0.5663683 -1.0135944 1.0128165 -0.61628705 0.8727038 0.4051807 -0.6612302 -0.25748047 -0.5098141 -0.7691995 -0.07344133 0.45563394 -0.60004854 -0.7717872
138744 0.492339 -0.38019675 -0.2571028 -0.23251866 -1.3805844 0.27401435 -0.48367956 -0.58148885 -1.0200716 1.0297515 -0.60430634 0.91231817 0.39998478 -0.66887087 -0.25638208 -0.5506224 -0.7803855 -0.108792685 0.44241992 -0.5914796 -0.79451245
339543 0.5652886 -0.35163954 -0.25345784 -0.32664117 -1.5878186 0.38660043 -0.48253006 -0.59650826 -1.0868415 1.0979296 -0.54629564 0.9880088 0.49321592 -0.79512286 -0.21401381 -0.5217687 -0.8708661 -0.13122715 0.50841504 -0.6468308 -0.7783231
126801 0.5563572 -0.38625124 -0.24430159 -0.30047518 -1.6254159 0.39748654 -0.4909781 -0.59862375 -1.0906032 1.0844947 -0.5326314 1.0352094 0.51149595 -0.78310364 -0.2347458 -0.5049427 -0.8794079 -0.12924229 0.5469143 -0.6868308 -0.7945794
311363 0.5137823 -0.5181293 -0.117367506 -0.30917615 -1.3384898 0.32502186 -0.49795377 -0.30561638 -0.8588238 0.93040127 -0.5813761 0.67805886 0.533905 -0.6648809 -0.31049114 -0.52086496 -0.837746 -0.026280235 0.55775297 -0.382141 -0.4318166
102468 0.5386033 -0.5441832 -0.07578175 -0.28211045 -1.3768072 0.33602914 -0.5103375 -0.3077675 -0.8934441 0.9654299 -0.58355004 0.7096951 0.54072994 -0.69430804 -0.26555946 -0.53988606 -0.8656671 -0.0015761943 0.54725724 -0.37301663 -0.41299438
517261 0.4463404 -0.3194271 -0.20957842 -0.288706 -1.3918135 0.27242514 -0.46648982 -0.5983416 -1.0508387 1.0195558 -0.57616425 0.8922663 0.42618665 -0.6706069 -0.19275737 -0.58610046 -0.8971934 -0.117049344 0.4745367 -0.6189963 -0.7575694
465586 0.44400156 -0.30363092 -0.2664684 -0.22960703 -1.4081459 0.22756326 -0.48650473 -0.6002522 -1.0253842 1.0412892 -0.52759075 0.860578 0.39826247 -0.6691055 -0.22893374 -0.5954525 -0.85151005 -0.047356274 0.53403693 -0.5815458 -0.7779249
448898 0.48881346 -0.31373826 -0.22503555 -0.22204895 -1.3788387 0.22286443 -0.4344035 -0.6135871 -1.0320944 1.0650222 -0.6458177 0.7962479 0.4510472 -0.7389834 -0.20071325 -0.53535235 -0.81645197 -0.09463522 0.5141471 -0.63046736 -0.66278464
135936 0.46829456 -0.27324858 -0.19015673 -0.23908347 -1.3469803 0.26147676 -0.4139224 -0.5936503 -1.012351 0.9992716 -0.57590204 0.78573763 0.3992852 -0.7328625 -0.1660605 -0.48673204 -0.782356 -0.08410591 0.47713283 -0.62990195 -0.63108623
221638 0.4183301 -0.34935194 -0.20788237 -0.26505786 -1.3188156 0.35238725 -0.48759204 -0.5605256 -1.0566366 0.94169164 -0.6927747 0.8545322 0.38354987 -0.6389398 -0.15184835 -0.40098977 -0.8380055 -0.008376415 0.4513888 -0.5342984 -0.81237066
526188 0.42216566 -0.3343357 -0.21522762 -0.24908215 -1.3103213 0.3324712 -0.49358457 -0.5455355 -1.0884901 0.95978194 -0.68818396 0.8278473 0.410842 -0.62646085 -0.1890926 -0.41418552 -0.84272087 -0.00019561191 0.4836462 -0.54671913 -0.8135881
420528 0.40663674 -0.3843342 -0.26057097 -0.26392815 -1.4533253 0.3372294 -0.60433865 -0.5977016 -1.0743476 1.0208235 -0.5774863 0.9774634 0.3534191 -0.66242206 -0.20726575 -0.5876813 -0.9369889 -0.15067609 0.43778762 -0.5817561 -0.8155191
372856 0.4015627 -0.37879342 -0.24672483 -0.24165551 -1.4918802 0.34589294 -0.60838616 -0.5792971 -1.0822512 0.9808141 -0.570887 1.0180218 0.38192528 -0.664286 -0.21332267 -0.6294513 -0.94497246 -0.15004383 0.382631 -0.5209675 -0.810795
122874 0.23386447 -0.36403182 -0.4354129 -0.5647833 -1.2266127 -0.178309 -0.7681794 -0.11160063 -0.87210673 1.2924495 -0.44024646 1.0021902 0.56115013 -0.6717039 -0.44704434 -0.69582963 -0.47083032 0.28874508 0.58125114 -0.46858194 -0.71216214
203632 0.19389027 -0.37710676 -0.47545263 -0.57634413 -1.2231556 -0.16296002 -0.7941766 -0.13287641 -0.8144548 1.2480046 -0.44159526 0.94276714 0.57448673 -0.63144326 -0.4355102 -0.67282504 -0.4890503 0.2858175 0.5479342 -0.4491095 -0.72112995
168812 0.4324217 -0.300517 -0.19466509 -0.216479 -1.4774058 0.2649632 -0.47481945 -0.5413651 -0.972586 1.0821074 -0.61281073 0.88226193 0.47451764 -0.7170301 -0.20490171 -0.53334653 -0.9326641 -0.07597314 0.50892806 -0.64785296 -0.77156717
415729 0.44445604 -0.2869465 -0.2558399 -0.1941672 -1.5335512 0.29764095 -0.4858421 -0.5806793 -1.0098139 1.100788 -0.62119573 0.896427 0.4519516 -0.6805237 -0.1527492 -0.57921684 -0.946232 -0.084438466 0.44820628 -0.63202316 -0.7301363
475732 0.30973664 -0.616051 -0.07478732 -0.011948607 -1.5104511 0.3279764 -0.5295491 -0.80222875 -1.034773 0.7766163 -0.3850841 0.7940037 0.48553246 -0.6562555 -0.31450665 -0.47056782 -1.0020463 0.16362567 0.46275568 -0.5271763 -0.81012905
388652 0.34679976 -0.59558797 -0.06705682 -0.040385112 -1.4487127 0.27369705 -0.46960494 -0.858746 -0.9860592 0.7041325 -0.34498453 0.74669147 0.46713987 -0.61816883 -0.3410471 -0.42687288 -0.87982374 0.18374297 0.44371495 -0.42659774 -0.80217564
165253 0.54447967 -0.2691304 -0.2660321 -0.24343018 -1.4475013 0.314523 -0.55609894 -0.6382573 -1.1098778 0.9799787 -0.69892985 0.90218323 0.4257152 -0.7226655 -0.122111484 -0.6178675 -1.0017296 -0.15149976 0.46305415 -0.5222514 -0.80131966
273036 0.516448 -0.28882372 -0.25809592 -0.20639987 -1.4974418 0.3079518 -0.51177263 -0.6133461 -1.1101148 0.9670542 -0.6153921 0.8797955 0.44209346 -0.7179232 -0.1460794 -0.62195575 -0.9714479 -0.08482065 0.49933046 -0.5004456 -0.8346604
515510 0.48563823 -0.2947509 -0.22099562 -0.2798049 -1.4617496 0.3966385 -0.5784897 -0.62337893 -1.1067425 1.0436349 -0.5991444 1.0460697 0.54816 -0.693194 -0.22590366 -0.6193836 -0.85143405 -0.057480242 0.4312126 -0.62396634 -0.8387294
409442 0.45405993 -0.3140573 -0.22152007 -0.2883424 -1.4507031 0.3788188 -0.5527236 -0.6671143 -1.1121988 1.0769864 -0.5791302 1.0202132 0.5974417 -0.6651175 -0.25537738 -0.5606916 -0.80017453 -0.03976428 0.44368738 -0.57123166 -0.8531973
184008 0.44003564 -0.2901102 -0.053434618 -0.304823 -1.4348794 0.39630535 -0.3754239 -0.69443727 -1.0770614 0.9586607 -0.6808851 0.9656021 0.48372665 -0.866176 -0.18408057 -0.50312454 -0.9010732 0.089918986 0.41404584 -0.66268307 -0.8790489
255989 0.48464036 -0.32311672 -0.0731446 -0.3481129 -1.4995817 0.39712113 -0.37084076 -0.6772472 -1.1127024 0.980754 -0.65002507 1.0076256 0.4954946 -0.853892 -0.2142416 -0.5372773 -0.9181633 0.08357967 0.41721183 -0.6549502 -0.8803532
315754 0.4546646 -0.3241181 -0.18077058 -0.32608414 -1.4453053 0.26723856 -0.58223295 -0.53620803 -1.0632775 0.9334566 -0.5421816 0.9369603 0.4177339 -0.6707105 -0.20498258 -0.585043 -0.9280556 -0.07874224 0.50614274 -0.59031016 -0.82685786
535187 0.51995945 -0.34002766 -0.21108438 -0.3032611 -1.3784368 0.32710478 -0.58942723 -0.55215883 -1.0573636 0.9952975 -0.57541656 0.8948855 0.44421142 -0.66664225 -0.2071044 -0.60175246 -0.9406735 -0.06704154 0.51310736 -0.60898787 -0.7650486
254764 0.39605674 -0.36579326 -0.3765884 -0.3498359 -1.4501288 0.35662788 -0.5681749 -0.54067194 -1.0382382 1.0072665 -0.6136523 0.98119295 0.43996325 -0.7219645 -0.2572079 -0.63803864 -0.86870766 -0.025664702 0.5575069 -0.6592057 -0.79491967
214039 0.40313926 -0.394057 -0.4038121 -0.33261773 -1.4866796 0.37811905 -0.5777576 -0.547919 -1.1236663 1.0412289 -0.6418509 0.9527388 0.45825487 -0.77235913 -0.21764617 -0.64599323 -0.8533419 0.0057592033 0.51591337 -0.65441746 -0.7870438
164937 0.5658655 -0.60146266 -0.042227246 -0.26892486 -1.4152651 0.43239626 -0.67837805 -0.7974554 -0.89483976 1.1429732 -0.6677927 1.0185509 0.4679687 -0.5781678 -0.22811161 -0.42726427 -0.8971845 -0.022571962 0.5099921 -0.36051455 -0.7085046
435858 0.5766195 -0.56684047 -0.030610282 -0.3034382 -1.4052036 0.4662525 -0.62893105 -0.80614364 -0.8389022 1.1039106 -0.67139155 0.992736 0.4825823 -0.58179957 -0.19236399 -0.3546933 -0.8607472 -0.05144067 0.5089213 -0.3436659 -0.6893191
536663 0.41022667 -0.29188547 -0.2823763 -0.3572726 -1.5084072 0.33336335 -0.47535607 -0.6688442 -1.1517587 1.0806323 -0.59514505 0.872614 0.41802913 -0.7271354 -0.28969017 -0.5472689 -0.8901779 -0.013853414 0.36346754 -0.5843919 -0.7935405
15969 0.42906412 -0.26009107 -0.21114393 -0.366563 -1.4662656 0.36412397 -0.48835504 -0.6870875 -1.1485102 1.0446434 -0.59142107 0.88548654 0.44814172 -0.81165373 -0.28254282 -0.56562346 -0.91396266 -0.019748665 0.4174143 -0.66106236 -0.7727009
417906 0.6216702 -0.32293457 -0.2818268 -0.2310445 -1.3915561 0.22441907 -0.5937215 -0.24022856 -1.2360188 0.9261337 -0.2897384 0.8060922 0.2710841 -0.8680282 -0.12098447 -0.5022048 -0.7439788 -0.20082186 0.3035081 -0.6781904 -0.71221924
512176 0.5923262 -0.37268034 -0.24697162 -0.18689862 -1.333192 0.25752717 -0.51939696 -0.2218069 -1.2366704 0.8715827 -0.2870928 0.84613657 0.26008844 -0.8063651 -0.12271524 -0.54189754 -0.7134072 -0.24629784 0.29118967 -0.6087323 -0.73439574
68847 0.39577928 -0.41738907 -0.21563408 -0.32782996 -1.3591708 0.29712602 -0.5339392 -0.57222176 -1.0209066 0.9183694 -0.65525854 0.88198936 0.5298817 -0.7754221 -0.23740937 -0.6152937 -0.9835225 -0.04324135 0.4355924 -0.51202285 -0.744732
202209 0.3905864 -0.39954782 -0.2114213 -0.3051665 -1.3761594 0.3414317 -0.50371116 -0.58424956 -1.0752685 0.9421915 -0.6587212 0.8902781 0.521183 -0.75937593 -0.26064777 -0.6333036 -0.99529904 -0.08647429 0.4027092 -0.54877645 -0.7613015
155476 0.4329293 -0.3367454 -0.24138846 -0.21139377 -1.3657044 0.26540294 -0.5647823 -0.6208767 -1.1119546 0.9633373 -0.5102212 0.8392154 0.44434825 -0.5924369 -0.23554589 -0.52596223 -0.79958344 -0.20085508 0.44900486 -0.5364433 -0.6970878
220957 0.42831165 -0.31973246 -0.24932106 -0.22742674 -1.3639028 0.29122296 -0.5310217 -0.6165368 -1.1255466 0.984633 -0.49669567 0.8526274 0.44670925 -0.5771539 -0.244331 -0.5320357 -0.7696908 -0.17767254 0.4165462 -0.51111794 -0.6682625
296268 0.42498842 -0.33330548 -0.24226044 -0.32406598 -1.4978845 0.1874176 -0.39768887 -0.653692 -1.0309474 0.89605093 -0.57831657 0.8649353 0.4646032 -0.64446646 -0.16417862 -0.5332638 -0.84003013 -0.08882068 0.33166024 -0.53465736 -0.7327148
328688 0.43765417 -0.33361697 -0.22704343 -0.32895166 -1.4974407 0.19737966 -0.39153677 -0.6738328 -1.0421017 0.9069548 -0.6206841 0.8925954 0.46564212 -0.65600276 -0.18164101 -0.49415126 -0.8334079 -0.06336232 0.3424076 -0.52636653 -0.76995206
10374 0.62850475 -0.3364316 -0.36971515 -0.20967752 -1.4400451 0.23885034 -0.44340178 -0.54525715 -0.975626 0.9855507 -0.5452035 0.90345794 0.35114953 -0.7911668 -0.3341115 -0.6053068 -0.8303969 -0.048247643 0.42664942 -0.6345957 -0.75795263
362268 0.5788677 -0.34324643 -0.37934086 -0.25811067 -1.3686311 0.17546217 -0.40986654 -0.53499955 -1.031631 0.9145121 -0.5381197 0.87986934 0.4087553 -0.7459087 -0.29600963 -0.6192564 -0.8270876 -0.10430646 0.39950177 -0.6223619 -0.8033425
50072 0.5189146 -0.014399811 -0.1740817 0.060066685 -1.1293977 0.26105714 -0.47443086 -0.95605516 -1.2659792 1.0219004 -0.4462265 1.0190277 0.24699606 -0.5325477 -0.058455836 -0.22996683 -0.7524424 0.028513316 0.4927573 -0.83624804 -0.3677208
57330 0.5504975 -0.0945129 -0.19647078 0.035232864 -1.1228546 0.2736613 -0.4671388 -0.9432386 -1.2275473 1.0555749 -0.39544696 0.988528 0.3066341 -0.6124811 -0.037284642 -0.27751514 -0.80083376 0.029033804 0.45318484 -0.8687699 -0.39315066
162789 0.56696904 -0.31813177 -0.2835985 -0.37772295 -1.4318464 0.2739265 -0.5998756 -0.58112645 -1.0569621 0.95802647 -0.55121404 0.9248277 0.49123907 -0.7969516 -0.3067808 -0.6025738 -0.8946685 -0.13612755 0.5244059 -0.58034396 -0.7730831
343567 0.5330382 -0.32080868 -0.30525634 -0.40353844 -1.3750652 0.25607157 -0.59428895 -0.57372797 -1.049876 0.95542276 -0.50656015 0.8914891 0.5270463 -0.7641057 -0.27872115 -0.5666727 -0.8796977 -0.16810064 0.47483292 -0.6035763 -0.7797013
488242 0.5882664 -0.40565243 -0.24759316 -0.35911033 -1.4682328 0.232322 -0.55111206 -0.50192016 -1.0321738 1.0580956 -0.56357557 0.8006472 0.5446127 -0.6475582 -0.20598184 -0.55552554 -0.840013 -0.05227216 0.41113645 -0.67083335 -0.82649034
61359 0.5723631 -0.42355448 -0.21828306 -0.3653312 -1.4765787 0.21835965 -0.5612783 -0.47971508 -1.0655587 1.031566 -0.573874 0.80551463 0.55910456 -0.64635783 -0.25091913 -0.5685652 -0.8855361 -0.05377992 0.44385472 -0.61858785 -0.8172407
340170 0.42445105 -0.29422194 -0.22747144 -0.25299498 -1.3919477 0.28051096 -0.41841355 -0.62514806 -1.0433649 0.91725206 -0.517293 0.7503331 0.356253 -0.6774086 -0.1694083 -0.4381273 -0.8413149 -0.028229 0.37449676 -0.6348451 -0.6816115
126296 0.4332093 -0.28376478 -0.23317055 -0.26275238 -1.4008458 0.29509604 -0.40076077 -0.6113259 -1.0671947 0.89756286 -0.5551527 0.8042526 0.4037739 -0.70132357 -0.19580656 -0.45090675 -0.83469623 -0.043419674 0.36311975 -0.6381569 -0.7119331
34908 0.6242483 -0.28522313 -0.40607142 -0.34275615 -1.5380328 0.504635 -0.42502713 -0.57106197 -0.83131814 1.0691274 -0.648419 0.9471537 0.4595753 -0.546663 -0.19521627 -0.41089875 -0.5798022 -0.3083859 0.22298478 -0.5998661 -0.66639477
485592 0.6367334 -0.31704983 -0.45021793 -0.3656099 -1.5443531 0.4889848 -0.41267008 -0.5787348 -0.82443804 1.0977148 -0.64497834 0.9218031 0.49955955 -0.53258693 -0.19912584 -0.4545072 -0.57826906 -0.2894842 0.16828845 -0.5814987 -0.60404843
99812 0.42815015 -0.33701366 -0.20574188 -0.23587634 -1.3070883 0.2559889 -0.52150387 -0.6917887 -1.010789 0.96563965 -0.6092346 0.8725674 0.4124163 -0.67268616 -0.26941067 -0.5253263 -0.8621839 -0.11598514 0.3990285 -0.5011145 -0.6378666
356080 0.4247963 -0.33912116 -0.22939232 -0.23101157 -1.3031342 0.2943282 -0.54964566 -0.7218544 -1.069174 0.90974206 -0.62953043 0.84737664 0.4176982 -0.71648496 -0.31477076 -0.5201317 -0.88966143 -0.17233635 0.39827478 -0.4895926 -0.67959327
281770 0.5114256 -0.35506862 -0.17770833 -0.35173225 -1.2762187 0.31721428 -0.4228921 -0.5429139 -0.96308434 0.99675155 -0.47661465 0.85143304 0.39556614 -0.6318203 -0.13098466 -0.5107989 -0.7775637 -0.10840046 0.46033 -0.6319322 -0.62426054
474561 0.53428787 -0.3595397 -0.2076831 -0.3524478 -1.3101814 0.32818866 -0.41645864 -0.5470582 -1.0298386 1.0232974 -0.50428575 0.8794867 0.4014329 -0.6290771 -0.14292741 -0.4833253 -0.818811 -0.12715138 0.46427485 -0.6591634 -0.6382689
495848 0.3842685 -0.41845784 -0.24798587 -0.27146196 -1.4618756 0.2434799 -0.47197986 -0.5012156 -0.98259515 0.94900197 -0.53876776 0.86992323 0.4476142 -0.59516996 -0.2470968 -0.5855352 -0.94362104 -0.054221135 0.52084 -0.52073145 -0.77015907
355451 0.3661678 -0.4240415 -0.2174284 -0.28256214 -1.4719371 0.24065013 -0.47347748 -0.5026405 -0.9818314 1.002255 -0.52634245 0.8724181 0.4331913 -0.60446316 -0.23602371 -0.57410735 -0.9252609 -0.00096553715 0.5016309 -0.49972406 -0.7432782
304812 0.49085662 -0.32473573 -0.3186707 -0.2425042 -1.466123 0.32628205 -0.47156012 -0.67757046 -1.0870873 0.96984833 -0.501732 0.91597337 0.3876268 -0.67803216 -0.1937221 -0.43681163 -0.8002026 -0.006161865 0.4581891 -0.51392543 -0.6367581
65237 0.50527203 -0.31523868 -0.34030965 -0.24533598 -1.4822757 0.29741356 -0.48629197 -0.64953846 -1.0454384 0.95949835 -0.49980548 0.9229652 0.42366046 -0.6610158 -0.17380156 -0.47294012 -0.82445097 0.035461593 0.46274853 -0.5111102 -0.6231098
29606 0.4929352 -0.35896963 -0.14559889 -0.25306043 -1.3705391 0.26985577 -0.5395374 -0.6977451 -1.0261196 0.99090064 -0.5718623 0.8383043 0.37642863 -0.620696 -0.2402311 -0.6658075 -0.9698891 -0.08817481 0.34448445 -0.42392612 -0.8545448
97939 0.4546801 -0.33473057 -0.14965978 -0.2515892 -1.3493458 0.28211096 -0.5508739 -0.68057173 -0.98645747 0.943002 -0.62304896 0.82730955 0.38782454 -0.6458798 -0.280113 -0.66254115 -0.9633765 -0.08888872 0.3850496 -0.44929364 -0.84700257
419759 0.52968353 -0.43527073 -0.20100959 -0.117481366 -1.4854261 0.32538795 -0.5400077 -0.68525666 -0.90306216 0.9625447 -0.5889264 0.9498547 0.42350686 -0.62466604 -0.15684718 -0.49840143 -0.76013047 0.013502779 0.45626944 -0.54244435 -0.7904424
454174 0.5538815 -0.42219022 -0.246655 -0.19106568 -1.4887761 0.38410926 -0.52466726 -0.6964376 -0.95221823 0.94835883 -0.6580541 0.9384957 0.4067898 -0.6322693 -0.21148817 -0.53040373 -0.78183275 -0.04250151 0.3911508 -0.49334174 -0.7339501
509923 0.5489978 -0.35220987 -0.33327663 -0.3627666 -1.3454536 0.34429613 -0.49571744 -0.6386762 -0.99183846 0.82505894 -0.49949926 0.9717249 0.4102775 -0.6643001 -0.25152475 -0.6194443 -0.83206856 -0.15929389 0.49922022 -0.713563 -0.7742539
359049 0.5575347 -0.3732758 -0.3445455 -0.34392983 -1.3639264 0.33766142 -0.48375085 -0.66696376 -1.0076456 0.83006185 -0.5009604 0.99448174 0.3820153 -0.7117763 -0.26120585 -0.6377516 -0.8680517 -0.124985605 0.47734132 -0.74958885 -0.8059999
39325 0.5101646 -0.35695785 -0.29647902 -0.31384718 -1.2997091 0.22591378 -0.5147842 -0.55267274 -1.0354013 0.9880004 -0.5922893 0.82733583 0.49471918 -0.57649636 -0.13151875 -0.5358186 -0.78944033 -0.096911475 0.3937208 -0.475229 -0.6827171
128474 0.50608164 -0.38360456 -0.28838992 -0.33230898 -1.3014798 0.25184807 -0.54814446 -0.5746947 -1.074698 0.9679182 -0.64512086 0.8217695 0.49004155 -0.5828452 -0.14544894 -0.5455306 -0.8375913 -0.14701685 0.43387333 -0.44631955 -0.7053778
30022 0.47025177 -0.27380547 -0.24202216 -0.36083916 -1.4109182 0.2670507 -0.39235884 -0.5472638 -0.9666893 0.927703 -0.55430853 0.9231984 0.4985606 -0.67946106 -0.29730234 -0.58432597 -0.8337977 -0.081699125 0.41960186 -0.52623826 -0.8115557
42900 0.47615477 -0.28082317 -0.2237252 -0.31747395 -1.3963549 0.25787166 -0.4119176 -0.5726168 -0.93902767 0.91603863 -0.57971615 0.88312924 0.5004683 -0.6700848 -0.28692195 -0.5795943 -0.81569636 -0.109960735 0.40923193 -0.50277877 -0.82005876
340165 0.44792584 -0.3804325 -0.22798982 -0.4089966 -1.3810116 0.25685513 -0.52132064 -0.665095 -1.0389954 0.9935707 -0.6085587 0.89129144 0.42611444 -0.79476345 -0.26900297 -0.40337023 -0.9308977 -0.1724697 0.5105061 -0.5567629 -0.6638779
7787 0.45681036 -0.35161534 -0.22342674 -0.4099803 -1.4188348 0.29122615 -0.5084025 -0.65429765 -1.0007282 1.0135815 -0.61610836 0.896225 0.49137676 -0.7821182 -0.24681792 -0.37980613 -0.93242306 -0.18787944 0.54016703 -0.5382712 -0.70721805
38989 0.5206668 -0.39279607 -0.21273614 -0.32834414 -1.4452219 0.26379755 -0.4946656 -0.595569 -1.1207702 0.95713115 -0.589737 0.9252279 0.3268511 -0.74086505 -0.17326407 -0.49073526 -0.9053827 -0.026937937 0.556224 -0.6430205 -0.74393296
544111 0.4951724 -0.37937325 -0.2752081 -0.33850613 -1.5193276 0.2900265 -0.47175142 -0.6035865 -1.0241714 0.9899593 -0.589041 0.8421222 0.32545295 -0.7194946 -0.14316888 -0.52996606 -0.83013123 -0.015218059 0.47669074 -0.52931994 -0.7003429
190083 0.86519396 -0.27087402 -0.14774965 -0.28330383 -1.4479431 0.19159114 -0.49901855 -0.4467736 -0.9606798 0.7416385 -0.34932932 0.480498 0.3232517 -0.9022231 0.02551777 -0.62948287 -1.0464821 -0.11110029 0.347169 -0.6384477 -0.747022
190229 0.8506716 -0.28304738 -0.1664887 -0.23943624 -1.4245868 0.22332184 -0.49804378 -0.42288017 -0.95798695 0.70361966 -0.31674504 0.46275574 0.35539052 -0.8728794 0.041646212 -0.660371 -0.99779475 -0.09878434 0.3134657 -0.6408609 -0.756958
530695 0.4524852 -0.41238767 -0.15405956 -0.29945096 -1.3923341 0.2668109 -0.59291065 -0.6810441 -1.0273534 0.97147965 -0.57550234 0.92807657 0.42850512 -0.6261999 -0.22396551 -0.58892477 -0.8249044 -0.05931512 0.39566824 -0.61748147 -0.6506054
365257 0.47299883 -0.38592565 -0.17251371 -0.32885063 -1.3998396 0.28884274 -0.5930525 -0.67423356 -0.9955125 0.94186795 -0.59223574 0.9276801 0.46061167 -0.6134884 -0.2261509 -0.5338838 -0.80226594 -0.036802676 0.41808835 -0.59617686 -0.6522433
243758 0.44692412 -0.29393154 -0.118703716 -0.26664189 -1.3981397 0.346736 -0.44467798 -0.67929107 -1.0247439 0.84626675 -0.55809164 0.8698618 0.5267221 -0.67011076 -0.24741605 -0.5675757 -0.9003898 -0.08778773 0.38416776 -0.62651706 -0.77710974
37312 0.40706864 -0.26761553 -0.13645005 -0.26216182 -1.3958594 0.30289644 -0.47519568 -0.6553545 -1.021397 0.85187787 -0.55395865 0.88164437 0.50497997 -0.7041185 -0.29679775 -0.57991624 -0.89394385 -0.07476108 0.3832718 -0.59680223 -0.755117
8041 0.40720883 -0.33555782 -0.2706241 -0.23033448 -1.4955959 0.29197857 -0.50538445 -0.6519166 -1.1391497 0.90239906 -0.46570322 0.84464544 0.42649063 -0.65697277 -0.19699427 -0.57115805 -0.8960014 -0.0818564 0.41841257 -0.5106863 -0.74310744
272411 0.41559008 -0.38264725 -0.29220042 -0.2462159 -1.4989239 0.24319173 -0.5685592 -0.6018718 -1.1558287 0.91796416 -0.48160222 0.86935616 0.47198117 -0.677232 -0.16855703 -0.5769197 -0.89967126 -0.116954684 0.3662618 -0.5021127 -0.751761
34122 0.45329013 -0.37535122 -0.21328536 -0.23500736 -1.329671 0.2443219 -0.44991803 -0.5456639 -0.9609793 0.9548003 -0.6359764 0.8211364 0.5135744 -0.6212072 -0.2986591 -0.45693693 -0.77406365 0.03590178 0.44806796 -0.48837593 -0.7791587
525220 0.47171283 -0.37390518 -0.2501277 -0.24397215 -1.3355588 0.22764426 -0.40858313 -0.56712985 -0.9711458 0.9633507 -0.637517 0.8251543 0.49893892 -0.61194295 -0.28053468 -0.48999202 -0.76231426 0.02773397 0.40121126 -0.49172413 -0.7672316
464270 0.465172 -0.32546645 -0.31645912 -0.2703791 -1.3227223 0.23848258 -0.49860305 -0.609259 -1.1039679 0.9078578 -0.64550763 0.8294788 0.4789509 -0.6088331 -0.21313965 -0.4718521 -0.8241683 -0.07993326 0.37798184 -0.58533347 -0.8498453
