1470 21
246386 1.1024143 -0.21439587 -4.0808997 -0.42297634 3.416575 1.4328772 -2.7469616 0.57403225 -1.583116 -2.1789808 -2.8038805 4.7326035 -0.30866817 -0.15030435 1.2470597 1.6807412 -2.156444 1.3088611 5.147591 0.46098027 -1.5071214
190015 0.38932133 0.30590266 -0.7699295 1.9180157 3.3913438 -0.93831664 -2.246245 -0.8483321 -2.9686744 -1.3644027 -1.6108671 0.9209526 -4.0487514 2.1287243 2.4105382 4.2898216 -5.7450705 -1.7217342 4.2889724 -1.5257773 3.2144604
468526 0.38586342 0.7605358 -0.8961265 1.6422051 2.9892144 -0.9020404 -1.9537442 -0.28290588 -2.9955442 -1.2565757 -1.0578898 0.55267745 -3.158864 1.6593157 2.135531 3.3459702 -4.6531343 -0.9487376 3.6543024 -1.4120303 2.3022823
32104 0.52057403 -0.12809397 -0.17266558 1.5877417 1.7937623 0.1487238 -2.0796568 -0.9403549 -2.6385572 -0.6773915 -1.3521317 0.31846017 -1.735418 1.8454102 2.3179693 2.9671035 -3.8180413 -1.2017685 2.493887 -1.4098296 1.9392279
420863 0.078384705 -2.6902888 0.10698873 0.086256795 1.0391546 1.0062057 0.3105478 -3.2861588 -2.002281 -3.4012122 -3.87602 -3.9936163 -2.4567726 1.0569017 -0.66993284 2.3270853 -3.1657517 -1.6291378 0.68043077 -2.909499 4.4139943
258507 0.6193994 0.21296829 -0.36551154 1.3882601 4.48198 -2.3701131 -0.5085881 1.8202081 -2.820541 -1.6310356 1.5895972 2.3791823 2.1950467 -0.25565627 1.4615166 -0.19859564 -5.2826934 2.0510252 3.0952203 -1.3690115 -0.64921105
201246 -0.12492885 0.39743072 -0.43332753 1.4182799 2.766629 -0.42008653 -1.0239729 -0.6556539 -2.4097328 -1.1558745 -0.38595992 0.23330386 -2.393429 1.7003037 2.2125483 3.1535456 -3.490812 -0.6865966 2.3072615 -1.5131923 1.7674298
432453 -0.9741049 0.29140264 0.7388205 2.0797539 1.5541431 -0.15105279 -0.59968895 -1.6533948 -0.7149774 -4.472615 -3.1906142 0.33817512 -3.3817804 0.21937336 0.9527097 2.9366996 -1.8345662 0.8060108 -0.08896645 5.218911 1.8156748
59101 2.5762224 -0.47390476 1.4758924 -0.17791523 4.3521852 -3.61866 1.4865048 -1.016395 -0.63472086 -0.6764869 -0.54392916 1.2341077 -4.19815 -1.8115017 -0.15380724 3.0491889 -5.6366754 0.47522455 0.32078263 -1.358302 3.108997
511135 -0.068108045 1.5438546 2.347703 2.7772167 0.38202545 1.0156038 -3.5117838 0.45895043 0.7442485 0.03272132 -0.9509664 -1.6378806 0.30544236 -0.3394627 0.318665 6.188168 -4.9180317 -1.2992883 0.17253096 -2.9089355 0.3735063
97211 -2.515162 0.6972018 -0.21155109 -1.4157342 2.0986311 -1.9253176 -2.0092216 0.76020527 -2.184571 -3.196775 -2.0950153 1.9533999 -1.6365389 -0.55840814 1.0144931 1.6599165 -6.53678 -2.7139657 0.91527516 1.5046339 -0.16001372
516056 -3.100864 -0.34620574 0.79947364 3.4557972 2.5406837 -1.1761757 0.8714708 -3.8928328 -1.648162 0.4042005 -2.407319 1.0227219 -4.285124 1.3821491 -0.670785 0.6812411 -0.9844326 -0.9151013 5.490377 0.29217035 3.4178774
272888 -0.096067086 0.20811217 -0.89782137 1.4763054 3.019082 -0.6469866 -2.2222054 -0.41009235 -2.4315681 -1.3843257 -1.4661778 0.73150706 -3.0100648 1.7481953 2.1321392 3.427382 -4.6583095 -0.7503611 3.592936 -1.4860946 2.5839024
462375 0.3992101 0.39628157 -0.6690464 1.5341792 3.0351362 -0.8146154 -2.1783726 -0.4089347 -2.957808 -1.4000651 -1.3502839 0.3446095 -3.2594535 1.9808458 1.8914013 3.636808 -4.710743 -1.0905341 3.5974302 -1.6945025 2.6482956
35130 0.012371793 2.758379 -0.39687502 1.5223107 2.7030509 1.1687951 -1.9444689 0.48571554 -2.4757068 -2.3557217 0.93057984 -0.81197625 -2.4573002 -0.86914843 -0.29318732 1.0428305 -2.1192589 0.086998016 4.1011457 -2.7783642 0.74266416
445792 0.2456756 0.7340849 -1.1287602 2.1881578 4.1795325 -0.931167 -2.9882731 -0.57020205 -3.850296 -1.580428 -1.734479 0.9545236 -4.2734895 2.4273777 2.9479716 4.8337607 -6.22991 -1.5725752 5.074577 -2.093537 3.5517488
53580 0.45343858 0.5530221 -1.1782143 2.1530879 4.105181 -1.0220373 -2.887728 -0.33914557 -3.7205186 -1.7430184 -1.7729455 0.7198673 -4.101126 2.5474124 2.7733908 4.5529156 -6.159479 -1.3630508 5.080127 -2.1400843 3.608338
287442 0.3590177 0.43023103 -0.95692587 1.9036024 3.639483 -0.8172444 -2.4971435 -0.34735644 -3.2668614 -1.4073323 -1.5593472 0.56645256 -3.606019 2.2565172 2.4855504 4.027088 -5.4833226 -1.2410027 4.483468 -1.7732296 3.0496461
203406 0.28541172 0.36287138 -1.0227996 1.7342013 3.4249282 -0.89909744 -2.508298 -0.3423815 -3.1741045 -1.4870847 -1.5255483 0.64689505 -3.5368445 2.1595967 2.4280694 3.921028 -5.191468 -1.21564 4.3101244 -1.6866102 2.9520094
156151 0.29597753 0.3648284 -0.9691218 1.9144508 3.4995794 -0.83671117 -2.3633144 -0.39109412 -2.9605858 -1.3874762 -1.5875697 0.7742752 -3.0470262 2.1368506 2.1756918 3.931468 -4.9916735 -1.0744989 4.1048393 -1.6776593 2.837638
476581 0.40711227 0.34722358 -0.7365234 1.3151921 3.1946287 -0.84504265 -2.1331232 -0.3670877 -3.036924 -1.8538878 -1.628778 0.64815193 -3.1485417 2.044285 2.0307765 3.680755 -4.814746 -0.8520003 3.8049684 -1.3626931 2.7087443
540008 0.6589629 -0.17120615 -0.75590414 1.3157847 2.782327 -0.8851187 -1.8039062 -0.4928174 -2.5479794 -1.2774781 -1.0124029 0.43250343 -2.6492393 1.538193 1.9506323 3.2040932 -4.205296 -1.3879706 3.3534305 -1.7066221 2.5136745
145651 0.28085014 0.36190546 -0.9298998 1.4090854 3.0582736 -0.7427712 -2.0612345 -0.27084702 -2.8597698 -1.3361324 -1.244109 0.628286 -2.983158 1.7297946 1.9998502 3.3445392 -4.68094 -1.1173879 3.8515785 -1.5346729 2.4996133
45356 0.33254823 0.05835358 -0.59408295 1.385604 2.6392763 -0.88512224 -1.89535 -0.21552472 -2.7979724 -1.1711124 -1.4695566 0.40773934 -2.5362113 1.5393625 1.9619397 3.300554 -4.1327724 -1.2205096 2.9320185 -1.2566663 2.5373461
379947 0.09780932 0.3558025 -0.7904446 1.3041569 2.635151 -0.49305782 -1.8128936 -0.21143183 -2.3188546 -1.1728059 -1.1626095 0.6032318 -2.844913 1.4166809 1.8799509 3.068308 -3.9751198 -1.0486227 3.3017235 -1.1068383 2.2353463
32930 -0.04924276 -0.24994998 0.5884978 1.1559987 1.576913 0.91759694 -1.1081002 -0.694373 -3.495847 -0.06430451 -0.41656667 0.2766071 -2.1870508 1.2024915 0.48248073 0.8003021 -2.882537 -2.517427 3.8194354 -1.006508 1.4344842
343242 0.6036633 0.32450393 -0.6327677 1.3320525 2.7318108 -0.50670904 -2.3412693 -0.46888608 -2.6176748 -1.1994563 -1.4708325 0.6210529 -2.1612654 1.6889751 1.7096364 3.235267 -4.0596356 -1.2856113 3.2921522 -1.4644145 2.1563983
40490 0.019571973 0.29109195 -0.55047894 1.3586828 2.0040114 -0.14016648 -1.3630116 -0.34699866 -1.7513897 -0.97932833 -1.4225909 0.3285448 -2.9596255 1.6275423 1.458804 3.35459 -3.6201558 -1.3649645 2.6392214 -1.3772149 2.2325606
109029 0.18388724 0.49757156 -0.73458034 1.0629413 2.2634873 -0.5469462 -1.7732224 -0.32687902 -1.8468468 -0.68816304 -1.1490357 0.43810713 -2.7741637 1.4937941 1.4661977 2.5787404 -3.5710778 -0.98963326 2.6485455 -1.4063429 2.1485152
49756 0.24987039 0.27724838 -0.45452353 0.65443516 2.438668 -0.8653291 -1.7271268 -0.2821974 -2.050401 -0.9450333 -0.8045634 0.56605005 -2.4096694 1.8985888 1.5490088 3.1476843 -4.1146483 -1.1299738 2.613451 -1.5036272 1.9327208
485523 -0.012636614 0.36392245 -0.67134947 1.3576609 2.2371106 -0.5214513 -1.7814918 -0.3662554 -2.1892781 -1.0377203 -1.2253025 0.56543547 -2.4250407 1.4538225 1.6845928 2.6778455 -3.7264938 -0.9032432 2.952512 -1.0850602 2.1323953
444928 0.350218 0.08533147 -0.9541753 1.1457617 2.264822 -0.50673515 -1.679048 0.0109704565 -1.8175122 -0.9359479 -0.9597842 0.04846612 -2.1559803 1.6917473 1.6709408 2.6932607 -3.6003964 -0.79317194 2.9976861 -1.2482116 2.267678
267002 0.97838944 -0.871238 0.40554118 0.7469846 2.148421 -0.40399393 -1.9611555 0.4738049 -1.9289316 -2.1390183 -0.43570077 1.818152 -2.6206849 0.40920687 0.7977277 2.2039 -3.5691807 -0.26196304 1.5319575 0.28705713 1.8070722
528277 0.14941046 0.45976734 -0.79746115 1.2153312 2.2850375 -0.7829577 -1.3869328 -0.26499963 -1.9733763 -1.1277404 -0.8333407 0.44107628 -2.1974504 1.229355 1.6615844 2.4588335 -3.4238884 -0.9222128 2.7123704 -1.1563705 1.9012568
377813 0.15403377 0.1799468 -0.6159881 1.0619347 2.268575 -0.37160993 -1.3990997 0.004085409 -2.1217108 -0.78476334 -1.2095376 0.44685423 -2.489873 1.5012826 1.9083681 2.8179784 -3.3004427 -0.8756943 2.913956 -1.298985 2.100529
390489 -0.036801383 0.49801126 -0.30470416 1.2858733 2.2599268 -0.33041963 -1.554073 -0.46205178 -2.0540774 -1.172071 -0.920937 -0.04321843 -2.134862 0.9491509 1.5742507 2.8671455 -2.7885306 -0.62031895 2.5103054 -1.2067865 2.0225575
180388 -0.03554946 0.41723004 -0.5339461 1.44127 2.4041493 -0.64959383 -1.836752 -0.24283883 -1.8057634 -0.5365843 -0.85841686 0.38509387 -2.60859 1.5655406 1.8043847 2.7152169 -2.925675 -0.7739553 2.4179704 -0.9451549 1.8826998
7679 0.16062562 0.33380508 -0.46758142 1.1069881 2.7014112 -0.5459662 -1.7068418 -0.3186453 -2.5706837 -1.2473587 -0.93939877 0.6502927 -2.5113456 1.6617105 1.7694987 2.8164973 -3.6931047 -0.8275542 3.1914067 -0.9214764 2.3412044
37870 3.17396 0.574 -0.8286662 1.7202499 0.9169897 -0.33143535 0.3747727 -0.3958163 0.28331253 0.25867322 -2.006565 -0.3050244 -2.8969896 -0.13804534 -2.305177 -0.55942553 -4.657191 -0.37883362 4.462413 -1.8708893 2.141945
30127 0.58804274 0.11969066 -0.5602334 0.7623215 2.624133 -0.67431617 -1.5274806 -0.08030816 -1.8935686 -0.9501494 -0.87967753 0.70374286 -1.8073554 1.4507266 1.6918927 2.5606804 -3.2320337 -0.23259866 2.1631413 -0.9391156 1.7522941
472529 -0.19756858 0.19982493 0.4556435 1.1142728 1.5245084 -0.80499697 -0.9766342 -0.5447843 -1.8052489 -1.102684 -1.6175914 0.023574807 -1.7571986 1.9913086 1.5051464 2.5988016 -2.8109703 -0.056725215 2.3279047 -1.400991 1.8611202
244667 -0.053110465 0.51141256 -0.6603697 1.4712181 2.6250212 -0.84727377 -1.1826677 -0.13287789 -1.4450876 -0.9972658 -1.0974436 0.30188888 -1.7489486 1.1755902 1.6267706 3.381178 -3.137189 -0.8831643 2.3747132 -1.4414173 1.7804412
220000 0.21857563 -0.016959464 -1.0860863 1.5354943 1.870573 -0.55324423 -1.9131858 0.04500068 -1.7139771 -0.91299224 -1.191623 0.02291365 -1.9335246 1.6368212 1.2934701 2.3471434 -3.6317387 -0.7150392 2.0560331 -0.7657974 1.7291905
508807 -0.12948966 0.8815373 -0.32112098 0.49168995 3.8592122 -1.0969852 -1.6368482 1.7329506 -1.9068457 -0.22518092 -0.0336451 0.039422598 -0.85781497 0.37278464 1.3588402 2.8746693 -3.3795128 -0.6220179 2.8969047 -0.2872962 1.8173444
97603 0.35996434 0.23405297 -0.3701235 1.0465107 1.6378148 -0.47541568 -1.6791648 -0.18650672 -2.0267937 -0.92981565 -1.1212221 0.32369933 -2.1554532 1.2777035 1.3167707 2.578891 -3.166082 -0.87999445 2.5308657 -1.3661028 1.767342
284648 0.34856418 0.47456557 -0.3891965 1.6937252 2.0107327 -0.47728777 -0.92294073 -0.39468354 -1.7730939 -1.44629 -0.92630017 0.36680293 -2.4838362 0.956965 1.3932468 2.0319657 -3.7385657 -0.89214736 2.4861572 -1.7531371 1.7998976
346253 0.24314599 -0.30326492 -1.0813868 0.5778737 2.2264335 -0.5028588 -1.7213207 -0.20925002 -1.9175559 -1.0501297 -0.9367927 0.07881046 -2.0956266 1.7761779 1.2800599 2.6783228 -3.0957363 -0.22125284 2.450882 -0.94848096 1.3260531
359460 -1.692923 2.609968 0.10721124 2.400693 0.73617464 0.92440754 -1.1305832 -1.7640765 -2.194166 -0.4846914 -3.5983207 2.8093653 -2.4035048 0.9329318 2.319773 2.17925 -1.3265154 -1.1794431 3.292104 -2.2851124 0.054218475
190285 0.039817344 0.108840495 -1.0315726 1.0576211 2.1844466 -0.25498667 -1.0500872 -1.0136062 -1.9104024 -0.66604936 -1.1109265 -0.32285747 -2.1837366 1.5371206 1.6331285 2.5343413 -2.2577493 -1.3095474 2.631248 -1.4186385 1.8832451
229131 0.23296538 0.5191786 -0.6951133 1.119404 2.2074056 -0.16182707 -1.3549712 -0.31305093 -1.6666685 -1.4135234 -1.2199227 0.94739056 -2.3222237 1.3742386 1.693403 2.341539 -2.408129 -0.8389804 2.308764 -0.9953044 1.4197643
395196 -0.6848933 0.8782987 0.25898117 -0.6254185 3.3811328 0.43327734 -0.36380258 -0.6869296 0.06117786 -1.3220673 -0.8851232 -0.7172179 -3.3852077 1.0877739 2.7014132 2.4363377 -3.4433074 0.56010664 1.8184612 -2.0246072 0.09851958
541214 -0.46719673 0.46370438 -0.40776494 0.68253 1.7913443 -0.34494376 -1.7015631 0.25442743 -2.14002 -0.38289 -1.1968459 0.14479688 -1.5910187 1.005213 0.9998189 2.3448677 -2.9354439 -0.36993343 2.6259978 -0.71881473 1.7104231
269269 -0.29583815 1.0986675 -2.4400368 2.0889463 0.84193784 -2.1127903 -3.1054666 1.5737138 -2.3016684 -1.8160453 -3.2845085 1.4451718 0.94412607 -0.57636845 1.0527098 3.2865167 0.763499 -0.22672701 3.1497855 -0.884506 2.768159
176615 0.31974754 -1.2827866 1.716478 2.3075957 1.3081688 -1.8595409 -2.8759522 -0.039397135 -1.5986432 1.6666769 0.0475695 -2.7511873 -0.021766374 0.002332064 1.0492312 3.1898565 0.25691128 -3.798602 2.4461772 -0.4290048 2.366707
195172 -2.1523902 0.96375036 -0.6814147 1.8869013 2.1059723 -0.9929054 0.73262185 0.7216737 -0.108934455 -1.4351146 0.81273705 1.3084999 -2.9460216 1.5868607 2.962545 1.2136621 -2.7870142 -0.07156174 2.7017171 1.0525396 3.2727604
277214 0.40517733 0.8492337 -0.92747813 1.6293743 1.28721 -0.11708378 -1.3186897 -0.45992765 -1.8435647 -1.8286505 -1.342239 1.105204 -2.1708198 1.7875437 1.7515653 1.8869498 -2.9716566 -0.67452204 2.0149503 -1.2213686 1.4883422
182974 0.78642005 0.5023282 1.5059779 0.6346588 3.2105842 3.015421 1.303726 -0.14541486 -2.0514004 0.50273305 -0.12457785 -2.2772205 0.40691426 1.432698 2.4811296 2.3226085 -3.5296156 0.7571304 1.0670753 0.4017012 5.5923495
397181 3.3262641 -0.058509696 0.95054287 0.939517 4.0433526 -0.62385374 -3.350995 0.25991002 -1.670753 -1.739088 -1.3655218 1.654264 1.350657 0.16411322 1.618786 2.435407 -3.5321004 -0.57841814 1.0737618 -0.10613517 2.6735225
106197 -2.8759542 1.5560337 -0.33209878 0.8389357 3.1389253 -0.56329 -3.3561506 -1.5880005 -4.441234 0.5282267 1.14046 0.39433765 -4.6774592 -0.8799604 -0.72688067 0.6362271 -2.0861728 -0.6048816 2.661215 0.15238944 -0.89794314
543605 0.1754162 2.7569 -1.1448419 -2.018598 2.4036593 -2.1315646 -0.08720352 1.3730489 -0.32875827 -1.1846195 -0.42055327 2.0081663 -2.052476 1.6850842 2.834796 5.612604 -1.3464763 0.5195453 1.2673892 -0.9633245 2.4841726
61781 0.36447954 -0.1483143 -2.096958 1.0036112 2.0942113 -0.09665689 -0.42124793 0.46051604 -3.0158165 -2.1211274 3.4886642 -1.0253047 -0.4669317 1.3922932 4.543869 2.0600696 -3.3870533 -0.54830796 2.0277781 0.47141367 1.2341664
206973 -2.0252187 -0.7987425 -2.3825083 2.108667 1.3768172 -2.4416065 -2.1424258 0.40743417 -1.8554012 -1.8891004 -1.3059607 2.041651 -1.9998322 2.9789226 2.6976547 1.9155556 -1.1086953 -1.1757123 -0.6201581 -1.0781165 2.3608887
544615 2.9980087 0.24287982 -0.069450624 1.9441288 2.2115357 -2.149414 0.3521655 -1.154941 -3.2525342 -1.9211117 0.16722262 -0.7756161 -3.3702905 1.7304369 1.048456 2.4975953 -2.4804988 -2.12477 0.32890016 -2.4265275 1.0375208
169419 -1.8489708 0.06495651 0.75362927 -0.3700384 2.1544995 0.2084549 0.27118757 -2.1542454 -1.4866827 -1.1955764 -2.758291 -0.43785763 -4.54156 -1.4182845 3.3077333 -0.1612818 -3.1052668 0.38884467 2.8293 -1.6379284 -1.2714633
348683 0.6339129 -0.6090258 0.52112067 1.5893221 0.06014805 0.047222227 -2.1685686 0.305054 -3.134779 -0.7575095 -0.9440211 -0.7847478 -2.019036 2.3827486 0.94993544 2.2369561 -3.4087272 -3.2180429 3.0453997 -0.8133489 1.0973091
33379 -3.8581374 1.433259 -0.50611717 1.4654683 1.4874583 -0.6476256 -2.256129 0.16823329 -1.2082195 -0.57022226 -3.4845445 2.1101518 -1.0321057 1.198715 2.254489 1.9620335 -3.1101542 1.2917955 2.5528204 1.3492918 3.6271374
111574 0.51133317 1.322674 -0.91414845 -2.1035233 2.2751372 3.5961637 -1.4328244 0.1896172 -1.8705758 -1.8196689 -3.3314416 1.1373852 -0.64530253 -0.9081675 1.2685082 4.0107102 -3.1838772 -3.4412186 1.3702532 -0.8959743 -0.8624987
458483 0.22987169 0.17612702 -1.9079425 1.219794 2.3713589 -1.1251061 -2.0323055 2.365837 -2.0082853 0.21350971 -1.5058603 1.1253448 -2.1346374 1.6073178 2.1134655 1.5842527 -1.4817855 -0.08256494 4.1355586 -0.7782643 2.6888776
128925 -0.14250015 0.60539496 0.90000576 -0.38819638 0.33291084 -0.17833039 -1.1827149 -0.81283236 0.3572529 2.7958357 -1.5068113 0.8026048 -2.3581157 -0.3237066 2.11997 0.40020296 -1.8544328 -2.907608 4.9611516 -2.558392 3.6718805
394234 1.5758672 -2.3813477 0.27187994 0.8635844 -0.6909697 0.3811441 -3.1182814 -3.4955482 -0.38004452 2.4164042 -1.8411461 -1.3180636 -1.1045184 1.922744 -0.22608003 1.5757631 -3.737414 -2.3089163 2.7560651 -2.0659993 2.9351456
543078 -1.9354789 0.3331387 0.32611534 4.2944527 -0.13790712 -0.6710957 -1.7808825 0.87059045 -1.2678585 3.3444316 -0.92548305 3.4240763 -0.2766404 3.9471307 0.6880136 2.6887052 -2.5462787 -1.4594276 3.1607177 -0.7963438 0.46507367
455569 0.4721053 -1.8049968 -0.26644933 -1.8404745 3.5502918 0.046345558 -2.3587968 -0.5270009 0.1763363 -2.9646392 0.49254507 -2.1458595 -0.52904755 -0.7397788 0.8680486 3.5499237 -2.646505 -1.7815728 3.85699 -1.2447907 0.96167845
499830 -2.931662 -1.849726 0.49917156 2.059883 1.6212473 -1.1826652 -0.14900362 -1.3801504 -1.4382997 -1.437632 0.34674516 2.3072743 -0.9120629 1.3082645 3.600066 0.69597024 -5.3468113 -0.35582516 -1.0910939 -0.60613894 1.8611419
378959 0.28669512 0.5673303 -0.53326654 0.6797401 2.5063765 1.8472801 -4.6688175 -0.24170256 -2.8281343 -0.3517356 -1.2992188 -2.8228343 1.5001314 0.84955174 1.5520353 1.8355995 -2.8249452 -0.91320634 2.4953065 -0.383406 0.7983997
95873 0.38170666 0.07039529 -1.4045714 1.0147545 1.3334758 -0.85867375 -0.5845159 1.9801936 -2.2392387 -1.5844463 -1.5138234 1.662684 -2.638346 2.5141323 3.0736856 1.9789785 -3.0511692 0.7323893 2.2752194 1.1535075 2.449429
366262 1.1943735 0.35737386 1.096514 -2.0548878 -0.41050565 0.54187703 -1.9902802 -1.2666124 1.7090296 -1.6565747 0.51726997 -1.70663 -3.4310498 0.40679073 1.1468099 1.756563 -2.086547 -1.0266348 4.9419622 -3.321395 3.9856255
449282 -1.15577 1.5050851 0.10502569 3.6532805 1.1771979 0.5832361 0.5227052 0.10794529 -0.8761374 -0.7980374 1.564948 -1.4066187 -2.0064518 2.353047 0.27026892 4.4032927 -0.7589538 -2.2955859 2.0638542 -3.2082317 -1.4795325
99944 1.081166 0.6713998 -0.44362313 1.1008868 -2.588739 1.1917368 -0.20472223 -0.5295059 -1.9899812 1.69053 -1.5575305 1.9975305 -5.5979266 -0.37941456 1.194783 4.0574613 -2.5106118 -2.97527 2.410474 -0.83899164 -0.04471583
397555 -0.84610736 1.0848899 -1.9665997 -0.021630522 2.2417796 0.893036 1.3589447 -0.058614485 -2.557205 0.9919557 -4.5718684 0.54599446 -0.7189897 2.94684 3.0527492 3.8284807 -1.5333841 2.2312994 2.9170365 -0.6996307 0.9107692
101982 1.4198478 1.5384167 0.27716264 1.910882 1.3429636 -2.2158222 -2.4708314 -0.39999682 -0.52898544 -2.6549487 -0.8205107 -2.3675628 0.1866432 1.3892424 4.6506624 1.7631749 -4.3188176 -0.5374202 -0.38771102 -0.31833276 0.7771411
503589 -3.805334 0.030726 -1.6273065 -0.50436205 2.3013508 -0.46499038 -2.5863824 -2.1293657 -1.9591784 1.891683 -2.1280916 2.1176207 -0.1763701 -0.7640508 1.1699275 1.9403676 -3.0734494 -1.8581054 0.10674836 0.58251756 0.5889541
173349 0.85700315 1.7664117 -0.26212034 3.3300266 1.8457555 0.76582164 4.2490077 1.1578273 0.56143165 -1.654202 -1.5466336 0.95497066 -1.6614739 1.7342304 1.3598491 0.12316724 -4.5621033 0.011678472 3.1290395 -1.7343181 2.4101565
530588 -0.32509667 -4.2089477 -1.4650089 1.1370054 0.07968321 -2.499516 -4.0910125 0.12425795 -1.9869642 -2.1635966 -1.4722147 1.8610198 -2.3570905 0.4965741 1.1092377 0.8010679 0.20847802 0.9400612 3.2626672 -1.155596 2.0905452
152300 -1.0213637 -0.5322168 2.7571213 0.062863044 1.9742669 -1.5497322 -0.65680605 3.0948234 -3.789939 -0.7903312 -0.31425923 0.7480169 -0.694741 -0.76443803 0.4959923 4.1367536 -0.15886095 -3.2957225 2.3159938 0.3806426 1.558459
261814 -0.030644141 2.6096113 0.31298512 -0.6997877 1.9569769 -0.5570351 -2.0586195 1.5761774 -3.1476672 2.1936169 1.0396547 -0.05363292 0.3379146 -0.7237283 -1.2146112 0.119444825 -4.6417365 0.16005088 3.4440403 -1.3391236 1.3982183
310726 1.1183349 0.88429475 -1.5184888 1.1921891 1.6816721 -2.0924969 -1.8955743 3.737528 -0.9979851 -4.211582 -1.6134751 0.012593419 -1.8805289 2.1323936 -1.4945838 0.9111679 -3.9751813 1.2725154 0.85038155 0.97772086 0.80067176
221049 0.4471255 0.50809205 0.34407693 0.48747522 3.861359 1.7889305 1.4008298 -1.7004746 -0.9495705 -0.47902027 0.4037197 -1.0768032 -0.095386766 1.6041344 3.6350725 1.153255 -2.9073102 -1.0142221 3.106715 -3.8200781 -1.2601726
314484 1.2365426 1.3781981 -3.5554028 1.3470446 3.7358024 -0.62630653 -1.412067 -0.49629378 -1.4744921 -0.5212766 1.018354 0.63562363 0.21649036 2.8676057 -0.18181534 2.6209795 -3.891104 -1.4421711 -0.07080245 1.3214872 3.0688295
332068 -0.40336618 -1.0565275 -1.5247985 2.898647 1.319976 -3.8005517 1.712116 -0.10403652 0.25463995 -1.2052976 0.06428251 -0.5268029 1.0116895 1.7803823 2.8970625 2.5907464 -2.0216773 0.56852674 3.7945437 -1.6952846 0.30516586
541384 0.053720016 0.2886562 -0.5563265 2.8932717 1.6904807 -1.7760267 -0.91139865 2.5413983 -0.71099746 1.2341446 -1.1239359 -1.3747224 -0.42491874 2.3117757 0.6755238 1.984537 -1.8954356 -1.6030054 2.1327746 -1.191676 0.12684272
327259 -1.0130918 -0.71933156 -1.9706622 0.53010523 0.08659068 -1.4692605 -0.8256806 -0.36705807 -0.4304756 -0.060028322 0.032833204 0.820996 0.63712126 -0.11464893 -0.27044553 0.7108223 -2.0922153 -0.8332039 1.2893177 0.46750844 0.48388678
485575 0.3979894 -1.2753496 0.7577792 0.7283119 1.7524983 -0.65608597 0.6650643 -0.846737 -0.47450888 -0.4779822 -1.0257246 0.80181175 -1.8154336 0.87851685 1.0342233 0.60641867 -1.233392 1.526554 0.16556026 0.19161291 0.51287466
335326 2.2183182 0.12861879 -0.9362354 0.8545698 1.5180167 2.3604417 -0.70133185 2.4781115 -1.8660699 0.9503324 0.4933106 -0.9867937 0.8203848 5.004252 1.7128334 0.6730675 -4.5062623 -0.83567923 1.606244 -2.0653348 1.0784991
9351 -0.19907506 0.4125881 -0.8048333 1.4686214 2.09415 -0.6862058 -1.1400578 0.14708956 -1.6273276 -1.0062811 -0.62867206 0.47313988 -2.1078134 1.5207863 1.1024358 2.328311 -3.28102 -0.88853073 2.187353 -1.056702 2.0323067
248455 0.3014285 0.4758792 -0.84104586 1.5536066 3.0138485 -0.6278249 -2.1127305 -0.24400471 -2.7874086 -1.4620589 -1.2615399 0.44311944 -3.1392584 1.8703872 1.9715755 3.4239748 -4.72587 -1.2440575 3.7619026 -1.6931764 2.6459537
342708 0.25973877 0.39119256 -0.8817769 1.6689494 3.2432673 -0.86013156 -2.2541611 -0.31595883 -2.8603377 -1.4119276 -1.4239234 0.5728319 -3.3062644 1.9651691 2.2518377 3.6754463 -4.973309 -1.144113 3.9493465 -1.5594566 2.7360451
169752 1.0025398 0.68888074 -1.3404367 1.6609586 3.9531116 -0.13005234 -2.4227214 1.6633351 -0.31329876 -1.2766358 1.4580054 1.8285215 -1.6651388 0.76623493 -1.8136379 1.9974118 -4.7128944 -0.27834418 1.9769204 2.3019779 -0.022939553
359321 3.4110966 -0.7383053 -2.2685812 0.045285445 0.6884535 -0.45387623 -0.6379195 -0.87496036 1.2412168 -1.8681898 0.7065574 -1.3666703 -3.13579 0.071892306 2.9941442 0.88939416 -4.0283012 2.2561955 2.288936 -0.23265311 1.3783362
481562 -0.24896085 0.83822733 0.66133404 -0.98556316 0.46785247 -0.10061768 -1.8645123 3.6395435 -0.63292134 -1.4624127 0.8436543 1.6453079 -0.665548 2.2113223 0.54981166 2.5817711 -1.9184269 0.1466074 2.9286706 -3.6203377 2.624121
484146 -0.15290844 0.42483544 -0.77867305 1.4308263 1.9921682 -0.64244574 -1.0876619 0.083784744 -1.5855865 -0.9625015 -0.6417242 0.44392255 -1.9851077 1.448137 1.1020806 2.2516134 -3.1791117 -0.8583195 2.084484 -0.9890763 1.9691353
70073 -0.26215133 0.82400715 0.5897075 -0.8843688 0.5092426 -0.043535527 -1.8473115 3.3861487 -0.6319686 -1.4467276 0.879962 1.5240995 -0.71314526 2.182666 0.5479347 2.5399363 -1.8306863 0.13766514 2.8644502 -3.5461457 2.539748
324697 1.073558 0.716293 -1.3403871 1.5391458 4.0473022 -0.03880455 -2.403404 1.7422975 -0.32001308 -1.4462768 1.5025734 1.8588175 -1.613185 0.64073867 -1.8751479 1.947622 -4.8407044 -0.23942767 1.9267045 2.5270264 -0.082537
194784 0.21869843 0.43243358 -0.8414862 1.6247532 3.1406665 -0.8300541 -2.181958 -0.34082502 -2.7799551 -1.4018792 -1.4113059 0.5220411 -3.2290206 1.8968986 2.1841457 3.6045346 -4.816427 -1.1217443 3.8152306 -1.5210006 2.6693933
155892 3.5557227 -0.73926485 -2.4336505 0.013558756 0.804171 -0.37244225 -0.6366564 -0.84561074 1.302129 -1.8970221 0.7152145 -1.4278762 -3.260852 0.076641016 3.0754368 0.82749254 -4.310775 2.4063587 2.4161093 -0.18220752 1.4387714
342237 0.2884691 0.4618507 -0.8546536 1.5050571 2.8652437 -0.59055036 -2.0407133 -0.2660962 -2.6395888 -1.4079527 -1.2244949 0.43159056 -2.9681995 1.815552 1.8875195 3.2715943 -4.556429 -1.2068843 3.6315358 -1.637922 2.5784037
392725 0.297018 0.73112416 -0.6431071 1.5539964 2.2937868 -0.3103735 -1.2593669 -0.5706594 -2.2205706 -1.188051 -1.37186 0.056225765 -1.8198906 1.0187593 1.6606185 2.5793302 -3.5168548 -0.7533722 1.982645 -1.0143183 2.0267828
75420 -2.3550456 -0.123333015 0.5744115 2.5690558 1.8946043 -0.69658643 0.6069679 -2.829257 -1.2240664 0.11482913 -1.9080557 0.8180476 -3.214535 1.0033032 -0.3813482 0.5777569 -0.86367863 -0.55687726 4.1579823 -0.013878816 2.4976847
360139 0.006883643 0.19068176 -0.6831224 1.1615196 2.3299353 -0.517525 -1.6434418 -0.2729775 -1.9631028 -0.99257475 -1.0633805 0.49933782 -2.283085 1.38115 1.5883455 2.653982 -3.5461853 -0.6711827 2.758564 -1.1531315 1.9744598
347980 0.28871784 0.9588173 -0.6152172 1.5724137 2.2391546 -0.23666118 -1.0525033 -0.75479585 -2.1154535 -1.167351 -1.3589107 0.021802502 -1.441078 0.8399507 1.6141566 2.4919116 -3.5314996 -0.76176697 1.6127547 -0.9276161 1.9111006
112038 0.27463377 0.87441057 -0.57368916 1.4568 2.1202204 -0.14804062 -0.97655267 -0.6997975 -2.0011597 -1.0947758 -1.2412274 -0.021910645 -1.3129021 0.7064323 1.514547 2.3472004 -3.2570817 -0.7929727 1.4451132 -0.83094275 1.7351642
21209 0.30383927 0.24551243 -0.48420987 1.1805613 2.3115306 -0.6450411 -1.6762003 -0.3192022 -2.262384 -1.0520109 -1.0443082 0.23704472 -2.556669 1.4795078 1.3981212 2.8546987 -3.642147 -0.8819108 2.7633266 -1.3157343 2.0135698
273161 0.3237308 0.25301427 -0.5420962 1.2591875 2.464962 -0.68680507 -1.782601 -0.33639422 -2.4381146 -1.0747998 -1.1883969 0.26709494 -2.6757967 1.5916117 1.4933118 3.0901623 -3.8634672 -0.9947813 3.0026605 -1.3513683 2.1636078
359731 1.6690164 0.012619241 -0.70327294 0.6775707 1.0059111 1.8047588 -0.5562992 1.8183606 -1.3670485 0.7225983 0.33292937 -0.74877083 0.62307703 3.6194212 1.2416067 0.46081883 -3.3102381 -0.6693358 1.1229639 -1.51259 0.66935164
132114 1.4905539 0.07216868 -0.6696573 0.7043432 1.0804408 1.6681646 -0.5680593 1.7393332 -1.3492421 0.63413584 0.2722674 -0.65524524 0.49662408 3.4509993 1.2934349 0.5782173 -3.257136 -0.64307207 1.1756473 -1.5108328 0.7774842
116200 -0.7410779 0.72236985 -0.22339939 0.66946757 2.0392663 -0.5292228 0.24168065 -0.1735606 -1.4547796 0.08394587 0.5592068 0.20073372 -1.8247381 0.9939008 2.4102933 2.1815007 0.10017683 -1.9427675 4.8802967 -0.67190796 -1.1227381
27819 0.31152883 0.33612978 -0.84165025 1.5066584 2.8587704 -0.6393641 -1.9620116 -0.2411894 -2.5532098 -1.278957 -1.1850804 0.5254436 -2.7838295 1.6970667 1.8157585 3.1361146 -4.3045917 -0.96325743 3.3949673 -1.2488183 2.3428712
365942 1.9080561 -0.58911973 1.4699166 0.32768106 1.8346536 -0.7752003 -0.8420241 -0.23560873 -1.5101306 1.4298549 0.20283234 0.17102702 -2.5661619 1.9582475 1.0594506 1.6011282 -2.4623842 0.1369207 1.8751957 -0.6305737 1.8448412
529119 -0.18122077 0.30655208 -0.53794587 0.80130416 1.4864315 -0.18473597 -0.97277784 -0.62793595 -1.6873214 -0.8650767 -0.7534667 -0.1003725 -1.5777714 1.0910282 0.9342063 1.5128844 -2.3895452 -0.6960872 1.8803302 -0.6579706 1.3180966
97802 0.3427047 -1.2666534 -0.73130786 1.0975611 2.0966673 -1.4605422 0.04946287 1.8692275 -0.23427752 -0.12769437 -0.35816562 0.18994057 -0.8283652 1.5890055 0.5131705 1.1122332 -3.3279035 -1.6777048 2.3707123 0.5833435 0.92775214
524029 0.3799873 -1.2162567 -0.6435573 1.0639956 2.0808768 -1.3980082 0.029696127 1.8144823 -0.26308155 -0.13142806 -0.41430026 0.19115219 -0.8940848 1.5815347 0.52680737 1.1108441 -3.34494 -1.7483577 2.4381166 0.62982935 1.0164274
217031 -0.1816773 0.3319951 -0.57638586 0.84316945 1.665847 -0.19238414 -1.0903368 -0.6543383 -1.8438324 -0.91938925 -0.8392966 -0.085352235 -1.736948 1.1860491 1.0310425 1.7370979 -2.6263516 -0.7667454 2.0871413 -0.7555388 1.4178667
311304 -0.20103028 0.7148038 -0.47348246 1.1279503 1.8309237 -0.4545425 -1.7047335 0.47200283 -1.2762469 -0.141712 -0.29995477 1.4579966 -1.8699377 1.0054873 2.0365918 1.946661 -2.6630368 -0.6122066 2.7977717 -0.7477789 0.973442
447393 1.1662624 -0.047262914 -0.80938077 1.8058543 1.8335931 -1.696551 -0.9792301 0.08243235 0.1288247 -0.3804053 -0.3497299 -0.7042076 -1.1611814 0.92879045 1.42182 2.1717405 -1.945151 -1.7113808 1.5081856 -0.7858805 2.5542722
495178 1.8337942 -0.5438747 1.3922373 0.3014713 1.7238923 -0.7805139 -0.7680896 -0.23638482 -1.4326798 1.2949055 0.26882914 0.14640264 -2.5268598 1.8864647 1.0266067 1.5444108 -2.3825448 0.11054783 1.8299211 -0.55715764 1.7554923
18702 0.25650966 0.3994172 -0.94518995 1.7042211 3.3521042 -0.7708555 -2.3695042 -0.38075554 -3.0392835 -1.4690422 -1.3794394 0.63148993 -3.4233599 2.0890937 2.3139749 3.837465 -5.11236 -1.1948421 4.1164966 -1.6914731 2.8797233
500714 2.3156939 0.50518453 -0.75195307 2.5428236 1.9395329 -0.09851211 -1.1712397 1.1722876 -1.0373029 -0.19183195 0.9517546 0.096357696 -1.1931762 -0.39334112 1.1767684 -0.11900868 -0.27364963 0.15809685 2.7398746 -0.25617364 2.1353593
416063 0.28536317 0.42417306 -0.95049924 1.701249 3.3501697 -0.7784549 -2.374105 -0.34468523 -3.0268881 -1.4569628 -1.3827304 0.6456048 -3.4031117 2.071526 2.3167953 3.833776 -5.080095 -1.2187034 4.148804 -1.6579673 2.9138494
96932 0.3388407 0.31437215 -0.86461556 1.5023576 2.8944056 -0.668635 -1.9557035 -0.23349693 -2.540271 -1.2620714 -1.1636299 0.5180593 -2.7926037 1.7373856 1.8372037 3.1662369 -4.3118443 -0.96659917 3.392113 -1.2478908 2.366371
192929 0.42289373 0.65217704 -1.4749283 2.763423 5.313057 -1.2677993 -3.739101 -0.5182847 -4.803969 -2.2752063 -2.2609055 0.9671906 -5.402787 3.336872 3.6283221 6.0892506 -8.102651 -1.9396105 6.5938334 -2.6775153 4.5816627
141580 0.4084272 0.6771704 -1.4325911 2.6893845 5.272658 -1.289093 -3.6939569 -0.49471527 -4.756097 -2.211176 -2.2228398 0.95371175 -5.3462453 3.3160334 3.581739 6.0395384 -8.008833 -1.9352493 6.5268574 -2.618081 4.5060263
422237 0.40580398 0.58826965 -1.4045134 2.5175598 4.911257 -1.2174832 -3.4707093 -0.44773304 -4.4473753 -2.0959823 -2.0589535 0.9195774 -4.9833827 3.0498912 3.3659623 5.6501975 -7.5149 -1.8150599 6.1397266 -2.4523902 4.264365
323838 0.4280009 0.61819303 -1.3409548 2.4680524 4.807321 -1.181479 -3.391771 -0.43433943 -4.347333 -2.038522 -2.0015683 0.8987799 -4.879692 2.986067 3.3100832 5.5384917 -7.3456 -1.7582812 5.9565845 -2.3632152 4.1278996
30022 0.3329315 0.52759063 -1.29475 2.310005 4.5055776 -1.1169697 -3.174674 -0.5073908 -4.0103226 -1.7858754 -1.7984571 0.76345825 -4.589252 2.8232572 3.007884 5.064953 -6.8625717 -1.651392 5.4918323 -2.2744734 3.8721282
42900 0.29118657 0.55175835 -1.2469355 2.2479815 4.413205 -1.0684283 -3.1372547 -0.4757622 -3.9467373 -1.7690829 -1.7485474 0.7739781 -4.5232253 2.794852 2.9292407 5.0019155 -6.7282147 -1.6251142 5.3641777 -2.1972644 3.8075743
172852 0.3266654 0.48678914 -1.1877186 2.1610203 4.2679024 -1.0440341 -2.9699993 -0.4675892 -3.776459 -1.7803197 -1.7215831 0.6756329 -4.291353 2.5748284 2.857529 4.7637954 -6.4236703 -1.5310485 5.1717286 -2.0447648 3.6223376
209154 0.32620203 0.48138636 -1.1746286 2.1160421 4.1958804 -1.035751 -2.8832676 -0.46142167 -3.7096107 -1.7604625 -1.687993 0.64715964 -4.195375 2.5508404 2.807437 4.649089 -6.309708 -1.5132834 5.0681953 -2.0301056 3.5486522
75942 0.35832986 0.5480961 -1.2199813 2.2761755 4.3378506 -1.065218 -3.0858536 -0.4056663 -3.9472077 -1.8747244 -1.8132068 0.7841444 -4.3496094 2.6933224 2.9494622 4.900562 -6.6068068 -1.5631877 5.3656306 -2.1438425 3.7481732
490181 0.35294676 0.5031085 -1.2091664 2.2450817 4.241372 -1.0293045 -3.0543177 -0.42397234 -3.8733768 -1.8534662 -1.7945085 0.77507627 -4.301707 2.6776528 2.925564 4.8441453 -6.4747014 -1.584207 5.303556 -2.1126006 3.6907058
284825 0.36162782 0.44432458 -1.0747573 1.911061 3.758247 -0.94644785 -2.6285436 -0.3393878 -3.4293485 -1.526588 -1.6002811 0.68210393 -3.8450172 2.3812973 2.5702171 4.2601075 -5.7160997 -1.4209373 4.676375 -1.8372383 3.2235374
133500 0.33405036 0.4542281 -1.0339 1.8908429 3.686709 -0.9408613 -2.5612884 -0.36590067 -3.3834827 -1.5030682 -1.5902368 0.67292315 -3.7929163 2.3345249 2.5337667 4.202833 -5.6472716 -1.4055296 4.5862265 -1.7989525 3.1973507
72456 0.46595442 0.25635442 -0.970209 1.8389901 3.2639174 -0.93907326 -2.595009 -0.35048586 -3.156064 -1.5492874 -1.4842974 0.63790226 -3.5741043 2.0871687 2.006518 3.648078 -5.5398517 -1.2536052 4.330549 -1.8034662 2.9472978
467883 0.47008523 0.25902352 -0.97171044 1.8294287 3.193073 -0.92687845 -2.5844252 -0.33579403 -3.1325083 -1.5188465 -1.4921724 0.59453845 -3.5657108 2.0825639 1.9373864 3.62988 -5.5411997 -1.2328697 4.2867994 -1.796728 2.9036872
311886 0.29733625 0.44684055 -0.9361765 1.7636038 3.4358108 -0.8434743 -2.4304953 -0.3254772 -3.103644 -1.4639505 -1.4841788 0.5925309 -3.47884 2.1462903 2.341262 3.8836036 -5.277636 -1.2386527 4.276756 -1.6777457 2.9608154
349224 0.25501618 0.45859334 -0.9170505 1.7393305 3.3921468 -0.82077384 -2.4158714 -0.30127183 -3.069518 -1.4234511 -1.4398888 0.5786845 -3.441791 2.0753043 2.3019965 3.846368 -5.1786795 -1.2368753 4.180309 -1.6816534 2.9142382
440418 0.2316842 0.37121928 -0.91301364 1.6304691 3.272828 -0.80746716 -2.2836545 -0.3839418 -2.8695154 -1.3904684 -1.3784807 0.6178809 -3.2807422 2.0362892 2.2570896 3.67083 -4.9103713 -1.1542416 3.9641252 -1.620203 2.7746027
185664 0.22193393 0.34061074 -0.8450775 1.5858253 3.1763446 -0.79155564 -2.2398827 -0.37738606 -2.7801306 -1.3170087 -1.3619952 0.59952146 -3.214831 1.9769183 2.180613 3.5892973 -4.8138146 -1.1167996 3.8402808 -1.5737576 2.7266932
204345 0.30550525 0.3907999 -0.9840639 1.7840438 3.3182635 -0.8016749 -2.3702426 -0.28134832 -3.0552151 -1.4180298 -1.3787333 0.6363649 -3.3896616 2.0799677 2.2625175 3.839195 -5.098022 -1.2606152 4.130997 -1.6884342 2.897545
483121 0.28589097 0.42971668 -0.9521628 1.740622 3.2647314 -0.7905019 -2.3597188 -0.31406862 -3.013569 -1.3854675 -1.3812315 0.63084286 -3.374786 2.052837 2.2302163 3.7551522 -5.0647645 -1.2508211 4.0848403 -1.6749939 2.874702
546691 0.32766512 0.27870157 -0.8198715 1.5121837 3.0559034 -0.5344938 -2.281637 -0.54405844 -2.9766722 -1.408693 -1.478752 0.5492424 -3.229788 1.8904198 2.0225801 3.730353 -4.7398605 -1.1714755 3.6326714 -1.5516996 2.6185205
281594 0.32611775 0.25625136 -0.8384074 1.4926664 3.0819507 -0.5476257 -2.2649777 -0.5290005 -2.957409 -1.3890464 -1.4612225 0.5169872 -3.1751366 1.8680542 2.0337126 3.6435125 -4.686844 -1.15697 3.6199694 -1.6102433 2.6260436
255989 0.24646921 0.40769488 -0.8356102 1.5704566 3.0549774 -0.7042525 -2.1449158 -0.28946918 -2.743226 -1.2847859 -1.3039565 0.5166333 -3.107246 1.8857051 2.0835128 3.4311237 -4.666868 -1.135781 3.7626536 -1.5145336 2.5681934
184008 0.23829411 0.36663064 -0.79647446 1.5050622 2.9318151 -0.69236624 -2.1138692 -0.3095566 -2.6750677 -1.2764964 -1.2468803 0.5034621 -3.0276473 1.8434968 1.9884005 3.333292 -4.517019 -1.0610441 3.613332 -1.4735091 2.4813788
526188 0.18560553 0.3711061 -0.85993856 1.5395243 2.895914 -0.75803095 -1.9998791 -0.3349636 -2.7285242 -1.1820887 -1.2201736 0.6174029 -2.9060073 1.8536087 2.0012014 3.3895435 -4.5100107 -1.0964429 3.5385842 -1.4253836 2.584505
221638 0.18185355 0.39317524 -0.8265638 1.5043721 2.7985773 -0.7412927 -1.9496925 -0.3341339 -2.6793854 -1.1544079 -1.2084893 0.6378044 -2.8358297 1.8289722 1.951164 3.2747715 -4.429338 -1.0952522 3.4413724 -1.3605279 2.548108
203632 0.17474264 0.4423961 -0.773605 1.4779644 2.720137 -0.7222686 -1.9587415 -0.25014612 -2.5884552 -1.2553767 -1.1899813 0.56061727 -2.8406942 1.6962281 1.9020336 3.2327147 -4.273204 -1.1030607 3.49139 -1.4083239 2.4045868
122874 0.17212518 0.43912566 -0.744424 1.4235559 2.695596 -0.6881539 -1.9514186 -0.2607148 -2.5236254 -1.212966 -1.1526158 0.5456134 -2.8195038 1.7046242 1.835823 3.1635017 -4.182361 -1.094408 3.4571078 -1.3714722 2.411225
197287 0.3198467 0.38699487 -0.7214145 1.3450084 2.7966826 -0.7201248 -1.9630221 -0.22066979 -2.541625 -1.149935 -1.1557257 0.38379058 -2.7154183 1.7353233 1.9027663 3.1350358 -4.294014 -0.9106722 3.4050617 -1.3585182 2.3844168
386783 0.28993633 0.3932524 -0.7483186 1.3262789 2.7474344 -0.7195554 -1.9383961 -0.20545354 -2.5196176 -1.1578244 -1.1428647 0.4042577 -2.7330484 1.7220641 1.8916191 3.129602 -4.2403665 -0.92992127 3.353704 -1.3456464 2.3928816
54358 -0.047963057 0.4628513 -0.74978364 1.1758174 2.6327717 -0.34041646 -1.922765 -0.27295074 -2.696618 -1.2438425 -1.1237926 0.69713956 -2.746922 1.7448952 1.8130399 2.8936353 -4.196085 -0.6718963 3.4616344 -1.3570768 2.0819194
38244 -0.008019024 0.42329854 -0.7176844 1.1889026 2.5975056 -0.38263407 -1.9344388 -0.29173967 -2.6829267 -1.188122 -1.1032194 0.6533821 -2.7272606 1.7342783 1.8007456 2.8710053 -4.132423 -0.68321687 3.3556623 -1.3308153 2.0690722
785 0.18061607 0.30447605 -0.8048077 1.4094422 2.7333777 -0.7389356 -1.903948 -0.3047366 -2.5412817 -1.2189882 -1.2315267 0.543844 -2.7623558 1.6699426 1.8221831 3.1763525 -4.153263 -1.0800447 3.4674907 -1.3971738 2.4072106
12776 0.16474491 0.28928196 -0.7709505 1.393004 2.688645 -0.7032341 -1.8444269 -0.29490587 -2.4424286 -1.1630272 -1.2149793 0.53134453 -2.697836 1.6366403 1.7792785 3.0706623 -4.058828 -1.0517552 3.3475747 -1.3235551 2.3296456
260424 0.38015798 0.37090015 -0.6430969 1.2807854 2.7133067 -0.6888134 -1.8535833 -0.23984912 -2.2489252 -1.1896248 -1.081481 0.35742983 -2.7299604 1.6361116 1.7022859 3.1348736 -4.110893 -0.9796907 3.285116 -1.3647537 2.2319214
223950 0.4331036 0.38229755 -0.6505175 1.2572589 2.646824 -0.6963161 -1.8239985 -0.2672115 -2.2054112 -1.1384748 -1.0660001 0.325391 -2.6574056 1.6233964 1.6642907 3.0837495 -4.0613613 -0.9418416 3.2426486 -1.3455523 2.182439
542769 0.13391563 0.49149182 -0.44579545 1.1751779 2.3856363 -0.47637597 -1.4006963 -0.35571876 -2.4227533 -1.0086833 -1.4294628 0.34726265 -2.5623176 1.5209957 1.988882 3.0850646 -3.676732 -0.7849458 2.957975 -1.0981922 2.3186138
381446 0.04015114 0.48850614 -0.4408082 1.1145256 2.298587 -0.39716455 -1.3873988 -0.33808604 -2.3752098 -0.94889456 -1.3480706 0.34257653 -2.484151 1.5131619 1.897093 2.935003 -3.5891266 -0.71540236 2.8856845 -1.0781941 2.2170558
467460 0.18545388 0.3527379 -0.88175344 1.3788618 2.3985894 -0.7594656 -1.7714572 -0.23069249 -2.3837368 -1.0215753 -1.0744671 0.58441246 -2.5282934 1.547143 1.700615 2.711088 -3.7139812 -1.0795197 2.9889784 -1.2829386 2.169734
242485 0.19355945 0.32077852 -0.90120816 1.3219955 2.2886984 -0.744498 -1.6926444 -0.2375675 -2.2789266 -1.0148244 -1.0163457 0.56479895 -2.4647353 1.5140455 1.6097025 2.5922158 -3.5663354 -1.0499042 2.905358 -1.2460089 2.1245809
465330 0.20920572 0.51350915 -0.73616946 1.3873298 2.4159265 -0.69743824 -1.708133 -0.12499503 -2.2428374 -1.0328164 -1.0835054 0.6374451 -2.3864849 1.494731 1.7062696 2.5770662 -3.6673422 -0.79206884 3.0209312 -0.85910606 2.1120899
474460 0.20008634 0.52621293 -0.70726097 1.3428742 2.3190749 -0.7286713 -1.704397 -0.08417322 -2.2022414 -0.98356736 -1.0995122 0.59311974 -2.3493075 1.5084273 1.6982518 2.4945536 -3.6092448 -0.78421265 2.9778578 -0.8169628 2.0628467
1861 0.15517016 0.3274161 -0.6556469 1.2854956 2.4690194 -0.6099133 -1.7732478 -0.30845818 -2.2254665 -1.0056323 -1.0220445 0.36084765 -2.4592662 1.5425714 1.5932264 2.8175216 -3.6414719 -0.871962 2.9946263 -1.1553038 2.1095085
327815 0.14592253 0.3266242 -0.68452 1.2559308 2.4414885 -0.61206704 -1.7180752 -0.27380136 -2.204185 -0.98663217 -0.9780767 0.35237563 -2.4449606 1.4862229 1.5680965 2.7457335 -3.5534475 -0.85575414 2.9791214 -1.136499 2.0306919
273578 0.20265304 0.3194403 -0.74688303 1.1615686 2.3868222 -0.5467304 -1.5759275 -0.3067844 -2.1325543 -0.8537955 -0.9415803 0.48652428 -2.299674 1.5101558 1.6991918 2.646535 -3.6230795 -0.8618963 2.897598 -1.0579774 1.9544479
305905 0.22087389 0.31780472 -0.7213307 1.11906 2.3469176 -0.5175883 -1.54331 -0.32707837 -2.0477893 -0.8138724 -0.9164436 0.44420967 -2.195451 1.4597123 1.64376 2.5556343 -3.5275435 -0.81109756 2.8256447 -1.007191 1.9019642
2534 0.16729239 0.16413802 -0.68219215 1.1262317 2.2893844 -0.6336644 -1.7826939 -0.2580764 -2.1813676 -1.0301415 -1.0739039 0.4349075 -2.4641716 1.3695002 1.5414729 2.7645333 -3.5387824 -0.91173935 2.8130329 -1.309236 2.1222408
456794 0.16925864 0.17332734 -0.71039766 1.1326932 2.3293815 -0.61765695 -1.7933294 -0.22014725 -2.1635678 -0.9979559 -1.0394932 0.43174016 -2.4926946 1.3668156 1.5889289 2.765518 -3.5330641 -0.8972855 2.819753 -1.3188076 2.109824
15249 0.20383121 0.36370823 -0.6480226 1.2639437 2.3365664 -0.5270229 -1.6546619 -0.2801208 -2.116224 -0.9973651 -1.0596875 0.3824883 -2.3547316 1.5410608 1.6208038 2.595555 -3.5145783 -0.8809894 3.0211189 -1.1261003 2.031124
542309 0.21324815 0.38175943 -0.60284406 1.2056241 2.3302531 -0.553236 -1.574003 -0.27588177 -2.081991 -0.96712 -1.0212115 0.4032294 -2.3095958 1.529439 1.6004511 2.5455937 -3.4358072 -0.85920537 2.9425097 -1.0969936 1.9878749
454174 0.294552 0.23549896 -0.8378737 1.020825 2.3381484 -0.495 -1.596871 -0.4782738 -2.1837137 -1.012948 -0.79394203 0.49100262 -2.117687 1.5307435 1.5637838 2.658877 -3.507933 -0.75834614 2.6653426 -1.1428592 1.8434248
419759 0.2900715 0.19463958 -0.8868355 0.9720082 2.289426 -0.4614575 -1.5780609 -0.4849355 -2.1315527 -0.9834356 -0.7627635 0.5184108 -1.9988364 1.4690713 1.5019788 2.5688894 -3.4032238 -0.73515004 2.5483296 -1.105506 1.786981
38989 -0.072467886 0.03583962 -0.5762174 1.1152266 2.396395 -0.49217102 -1.6280738 -0.53615373 -2.0019715 -1.2079409 -1.0094414 0.57456636 -2.3526702 1.2416909 1.2903885 2.4026065 -3.410725 -0.73182416 2.6754394 -1.1322793 1.6013068
544111 -0.06158369 0.05756788 -0.5553854 1.1114972 2.3191829 -0.47262612 -1.6201503 -0.53888386 -1.9401817 -1.224374 -0.9557509 0.56104964 -2.306836 1.1916239 1.2496613 2.304109 -3.2802808 -0.6964342 2.589955 -1.1124325 1.5324423
273649 0.20690721 0.33290675 -0.7002022 1.114701 2.1384504 -0.5686946 -1.5624334 -0.16669056 -1.9734892 -0.90608865 -1.0247474 0.44731 -2.231295 1.3162239 1.5384167 2.5400221 -3.3755598 -0.90410364 2.7461932 -1.0599856 1.8907527
536396 0.2005459 0.3340033 -0.6802338 1.107062 2.079473 -0.55631953 -1.5452678 -0.12971948 -1.9303828 -0.8816586 -0.9811648 0.42172393 -2.1398427 1.2631766 1.4929138 2.455103 -3.2465215 -0.8650691 2.610704 -1.0282935 1.8150786
37312 0.26111686 0.23783898 -0.533399 1.0928648 2.3479466 -0.5428185 -1.5800538 -0.23976567 -2.1024406 -0.9385781 -0.9506621 0.43653128 -2.31462 1.3660314 1.5448811 2.6142135 -3.4904718 -0.73497367 2.8056624 -1.1362698 1.9931123
243758 0.2494841 0.26521468 -0.5379294 1.0936081 2.3568969 -0.51668006 -1.5633957 -0.22626875 -2.0600529 -0.94793385 -0.94047177 0.44656196 -2.3101044 1.3690407 1.5705415 2.6336396 -3.4799776 -0.7750446 2.8279665 -1.1276186 1.9936467
345003 0.23377775 0.2907954 -0.6562038 1.1768808 2.1853528 -0.60653335 -1.636366 -0.18422651 -2.0284593 -1.0143317 -0.9797513 0.37208822 -2.2645361 1.3570678 1.6478708 2.648177 -3.393605 -0.8728802 2.7779717 -1.1710252 1.9789492
346156 0.21096496 0.32707188 -0.6696347 1.1973754 2.1979487 -0.6284975 -1.6080284 -0.18600234 -2.0073395 -1.0314714 -0.93104815 0.3421093 -2.2633855 1.3543389 1.6189663 2.6188495 -3.3692968 -0.8324933 2.7448912 -1.1310655 1.9635543
3070 0.24137041 0.1827075 -0.65392506 1.2109432 2.3337684 -0.42455712 -1.6035504 -0.33064634 -2.04675 -0.9050139 -0.9990524 0.3727925 -2.2626944 1.3712353 1.5237044 2.5130644 -3.394415 -0.76487774 2.8658366 -1.1588715 1.9081006
211915 0.22783019 0.20544901 -0.6099822 1.2205473 2.3119736 -0.41916668 -1.5833741 -0.32538998 -2.0321763 -0.9412977 -0.9598579 0.35096893 -2.2581284 1.3873377 1.4873614 2.492186 -3.3571086 -0.743521 2.8322449 -1.1277992 1.9352688
47061 0.41459468 0.26993024 -0.56513745 1.083496 2.124337 -0.46957588 -1.523837 -0.11650986 -1.9265176 -0.9496062 -0.8328525 0.4305449 -2.2198532 1.4032968 1.4931664 2.4353354 -3.2672963 -0.7842356 2.7657247 -1.1970128 2.010416
292447 0.36715543 0.24404071 -0.57142305 1.0596431 2.0863957 -0.4905825 -1.5138288 -0.14281458 -1.8637583 -0.96349984 -0.81701314 0.40974942 -2.174042 1.3445275 1.4685162 2.3835917 -3.240873 -0.7601466 2.721798 -1.1484023 1.9370548
3168 0.124578476 0.27656922 -0.5362703 1.2343273 2.1997077 -0.565837 -1.6313808 -0.26416454 -2.0653088 -0.8823211 -1.0046837 0.33823025 -2.270287 1.4518294 1.5542955 2.5675333 -3.3330648 -0.8533517 2.826479 -1.0588728 1.8846914
68209 0.10618019 0.28079405 -0.5135496 1.2206937 2.1109142 -0.51693845 -1.5816497 -0.26069504 -2.0438068 -0.87810487 -0.97601146 0.31994855 -2.2409527 1.4121486 1.4824647 2.5407073 -3.2533 -0.8501993 2.7287376 -1.0547556 1.813275
3206 0.24950385 0.3313656 -0.56517535 1.1686453 2.1591337 -0.71301484 -1.4746723 -0.1490805 -2.0168717 -0.886789 -0.88446975 0.37355834 -2.2658217 1.3886657 1.4456117 2.4214828 -3.3447995 -0.73352915 2.731967 -1.2049216 1.864492
224597 0.22088127 0.3383041 -0.56067145 1.1805297 2.1656992 -0.709655 -1.4835942 -0.16504405 -2.0153108 -0.8946416 -0.8600166 0.38956568 -2.235757 1.4123814 1.4809066 2.4144912 -3.3600276 -0.7333875 2.7078593 -1.215063 1.894809
387284 0.33203134 0.2572882 -0.4929944 0.935008 2.1889563 -0.34333757 -1.3438475 -0.117934555 -1.8784119 -0.80827254 -0.9301326 0.27553007 -2.1838877 1.3454092 1.4796383 2.4454384 -3.1288812 -0.8490889 2.6909895 -1.1285949 1.8754838
514820 0.32965395 0.29055017 -0.5023431 0.8943016 2.1926384 -0.36031705 -1.3144377 -0.1280693 -1.8550512 -0.83217597 -0.93284273 0.27556694 -2.1729934 1.3116374 1.4771354 2.4250853 -3.074771 -0.82686675 2.6867177 -1.1272864 1.8584172
535438 0.26204538 0.2931072 -0.54290694 1.0862912 2.1541693 -0.38983566 -1.3591958 -0.32505924 -1.9503692 -0.80671257 -0.83377624 0.53532666 -2.0987725 1.1895697 1.3870567 2.5240119 -3.1882458 -0.8274985 2.5744421 -1.0619949 1.8115728
504581 0.25416204 0.25329575 -0.53734285 1.0860729 2.1331506 -0.3991202 -1.3345749 -0.31177926 -1.9352547 -0.7871336 -0.80264544 0.51196 -2.0897958 1.1714135 1.3873248 2.4601514 -3.1446004 -0.8205655 2.5134728 -1.0171423 1.7518369
385520 0.1474026 0.25887373 -0.7102717 1.192829 2.2472968 -0.57472026 -1.4980049 -0.23031306 -2.062158 -0.7815892 -0.9658151 0.32955465 -2.1580164 1.4233614 1.477152 2.3488364 -3.3828402 -0.7669285 2.6690092 -0.9091227 1.8312447
311668 0.1763522 0.28654477 -0.6544768 1.150777 2.1707735 -0.5268673 -1.3980165 -0.18149298 -1.9856672 -0.7595922 -0.9416357 0.33623046 -2.0993013 1.3642371 1.4151837 2.238319 -3.2478 -0.72752213 2.555545 -0.87345517 1.7784697
179849 0.1722786 0.1983382 -0.58726054 1.160557 2.0534542 -0.51879054 -1.5579433 -0.13381775 -1.8274083 -0.8911512 -0.89819765 0.47218373 -2.135898 1.1466653 1.3388934 2.37202 -3.2196858 -0.8647393 2.7336645 -1.0632423 1.7541531
291297 0.16029458 0.1793763 -0.5936386 1.1416175 2.0432181 -0.4918019 -1.5440195 -0.1501736 -1.7945503 -0.8856303 -0.8575112 0.48164386 -2.0894985 1.1587827 1.3475382 2.351921 -3.1718545 -0.86746466 2.7212875 -1.0349147 1.7886229
285623 0.19624327 0.2569275 -0.6355102 1.1031376 2.000712 -0.44441915 -1.4078385 -0.15174238 -1.8476014 -0.78293943 -0.7962102 0.33074343 -2.0255105 1.3247381 1.3459572 2.3966265 -3.0898206 -0.6415545 2.5112927 -0.94781405 1.8254685
529868 0.20659202 0.23412116 -0.64559627 1.0722647 2.0286078 -0.44796023 -1.4027296 -0.17418294 -1.8606006 -0.755952 -0.8345396 0.3140964 -2.0192575 1.3418086 1.315904 2.3849232 -3.0629404 -0.6736362 2.5480096 -0.945384 1.8269807
468369 0.13246039 0.2767644 -0.24290901 0.71645856 1.733016 -0.52658105 -1.6292061 -0.36349207 -1.8103915 -0.4857417 -0.8886115 0.33650616 -1.6457498 1.392375 1.5022373 2.385495 -2.7865548 -0.82451236 2.5889122 -0.854428 1.5103643
451875 0.06706525 0.29484937 -0.2786799 0.67079264 1.6640542 -0.46255156 -1.5687772 -0.31438467 -1.7375305 -0.4797484 -0.84679484 0.32177907 -1.6300625 1.3095083 1.4810487 2.2744508 -2.6748674 -0.85485816 2.5140927 -0.81983995 1.4101377
272247 0.15939388 0.20330556 -0.60819167 1.102379 2.0329196 -0.54972976 -1.4435136 -0.16573176 -1.9205798 -0.8999757 -0.83721554 0.39831817 -2.073196 1.3054432 1.4009981 2.4212093 -3.1410713 -0.7821427 2.6050208 -0.97265506 1.7603023
481315 0.18141894 0.20489444 -0.594545 1.045547 1.973063 -0.53161466 -1.3957382 -0.1307925 -1.9075034 -0.9130748 -0.84833914 0.38343215 -2.0294905 1.2890953 1.3786072 2.3421113 -3.035272 -0.73063993 2.5580878 -0.94740593 1.7543017
83286 0.1053441 0.36322898 -0.54017824 1.1494919 2.1508186 -0.3141355 -1.3736671 -0.07755276 -2.0680203 -0.866635 -0.94767064 0.44805548 -2.1228173 1.3107755 1.4037004 2.6102316 -3.3025281 -0.8445664 2.6299672 -1.0330893 1.8348978
394497 0.08646271 0.3733633 -0.4919393 1.1052034 2.0257082 -0.27602533 -1.2609754 -0.07780792 -1.9346504 -0.81396395 -0.90165883 0.43487787 -1.975199 1.2434931 1.3014157 2.4218564 -3.0758505 -0.8344521 2.4809632 -0.9242612 1.6870201
126296 0.2896563 0.14075258 -0.6410447 1.1751099 2.04054 -0.55266815 -1.445023 -0.22987318 -1.7284199 -0.8659566 -0.93741584 0.28792405 -2.050979 1.3389384 1.3013804 2.3358083 -3.074802 -0.72725654 2.63227 -1.0461156 1.7521243
340170 0.28172836 0.15357737 -0.6571379 1.18052 2.0174308 -0.57202643 -1.4209436 -0.21627833 -1.7267337 -0.87790585 -0.904226 0.27554554 -2.0438476 1.3163778 1.2911518 2.3173232 -3.0659926 -0.74784714 2.63449 -1.0368266 1.7476114
14546 0.22773254 0.19651036 -0.53600997 0.9883853 2.1736267 -0.54663545 -1.4251337 -0.4087149 -1.7893436 -1.0581148 -0.95533884 0.4410089 -2.0649662 1.278829 1.4890529 2.238517 -3.125393 -0.72256047 2.4663966 -1.1367561 1.7747068
422456 0.22232509 0.21694666 -0.5563719 0.9627391 2.1168115 -0.5296461 -1.375271 -0.3943506 -1.7438705 -1.010895 -0.9244282 0.3879006 -2.0526373 1.2544152 1.4268271 2.1697865 -3.0501406 -0.7128474 2.4311128 -1.0816731 1.7059042
518534 0.16498391 0.22449139 -0.5590503 0.9857294 1.9989283 -0.4719003 -1.3880999 -0.09258922 -1.8125885 -0.8106857 -0.70765805 0.41289756 -2.0465093 1.3005524 1.3436158 2.422193 -3.021581 -0.6744526 2.5656788 -0.9771618 1.666021
503877 0.17579995 0.19235249 -0.5760328 1.0214758 2.0044315 -0.49275413 -1.4301343 -0.13658433 -1.8308883 -0.8529607 -0.73676753 0.41183144 -2.030223 1.3134637 1.3891416 2.4372292 -3.0264237 -0.66003126 2.568598 -0.9509774 1.7062652
94083 0.11734343 0.28443727 -0.74335593 0.938602 2.1965053 -0.4807162 -1.5098605 -0.13563216 -1.7860528 -0.9706606 -0.8945086 0.43507347 -2.123265 1.4094846 1.2957604 2.578524 -3.2140288 -0.5804787 2.3758478 -1.0969741 1.7306305
403965 0.10592712 0.24601217 -0.7192292 0.9057081 2.128702 -0.4513828 -1.4838651 -0.10640464 -1.7135175 -0.941935 -0.91654325 0.4387855 -2.0585546 1.3928286 1.2624365 2.5204344 -3.144536 -0.5821652 2.297818 -1.0548767 1.6800157
3801 0.2672612 0.25908142 -0.5911418 0.979634 2.194774 -0.7054797 -1.5766655 -0.18221158 -1.8203444 -0.9715064 -0.9300012 0.36504355 -2.0975935 1.2920154 1.5470477 2.4248714 -3.1480536 -0.7233395 2.6990225 -0.9439092 1.902661
454848 0.23633735 0.28507978 -0.5552756 0.9555998 2.113916 -0.67507017 -1.5148846 -0.21441549 -1.7900078 -0.94442415 -0.8944719 0.33855048 -2.0132408 1.2788135 1.4921373 2.32238 -3.090383 -0.69361436 2.6506143 -0.91995305 1.8479385
540696 0.12155409 0.28245994 -0.50434715 1.121586 1.8101285 -0.43466222 -1.3574412 -0.26996705 -1.8675234 -0.71530396 -0.97414196 0.44042796 -2.024701 1.248895 1.3133795 2.256838 -2.9244988 -0.8288526 2.4720745 -1.128893 1.7501446
103282 0.13366307 0.2721136 -0.53928596 1.1057739 1.8535507 -0.4668616 -1.3876892 -0.24554782 -1.8775337 -0.71864116 -0.9591155 0.45041636 -2.06331 1.2667212 1.3589131 2.223325 -2.9570186 -0.83656 2.5258458 -1.1327025 1.7355409
126823 0.32518047 0.2597278 -0.6746437 0.9263061 1.7481112 -0.5258804 -1.4110171 -0.25501686 -1.5229092 -0.74004614 -0.7660077 0.21516627 -1.8944268 0.994414 1.1194657 2.1971743 -2.9458354 -0.62681043 2.377501 -1.0215648 1.597384
248212 0.32058337 0.24660233 -0.6790756 0.91904736 1.7527622 -0.49797186 -1.4076355 -0.2536177 -1.5408461 -0.7722013 -0.81046057 0.22165656 -1.9266431 1.0000372 1.1253388 2.1818113 -2.9528015 -0.65490997 2.3929403 -1.0348042 1.5792997
255903 0.098383896 0.14394599 -0.40253007 1.0542738 1.8828149 -0.5379771 -1.3574022 -0.001163896 -1.7521973 -0.80678463 -0.78584754 0.28177384 -2.0316558 1.1625031 1.3403907 2.1537774 -2.9169414 -0.7099779 2.3014677 -1.0502557 1.6113075
78578 0.12123197 0.16419585 -0.43811023 1.1035508 1.9590957 -0.5943931 -1.3976196 0.00012478066 -1.8159577 -0.8346586 -0.8427949 0.2582458 -2.1070542 1.2096932 1.3888285 2.2690597 -3.015478 -0.7537919 2.4284754 -1.083501 1.6783093
527315 0.17879078 0.41578734 -0.5898145 1.0034087 1.9964294 -0.4702335 -1.41906 -0.1529234 -1.983466 -0.97932565 -0.9730682 0.5637581 -2.0001485 1.3305069 1.3522457 2.19636 -2.9683442 -0.9320069 2.3825028 -0.9752715 1.7111195
338436 0.18852937 0.43237168 -0.60597444 0.97070235 1.9529967 -0.46948296 -1.4394702 -0.15633567 -1.9878955 -0.95543784 -0.9521774 0.5429332 -1.9509499 1.3024412 1.306498 2.180143 -2.9571955 -0.9280204 2.3293154 -0.949678 1.6683084
60895 0.17405045 0.22978587 -0.602556 1.0321376 1.8747542 -0.55141413 -1.5315351 -0.253412 -1.8552547 -0.8349589 -0.87728727 0.25781193 -1.8410654 1.2870822 1.4963279 2.4927828 -3.1889212 -0.8095329 2.5315511 -1.0964905 1.6655232
318279 0.20133516 0.20313534 -0.58833957 1.0287267 1.8353615 -0.5088068 -1.4799734 -0.21775794 -1.8545413 -0.8338647 -0.84545964 0.2694744 -1.8023114 1.2324681 1.4564269 2.4431727 -3.1153848 -0.78994215 2.4508574 -1.1069125 1.6190096
59070 0.20822503 0.30905086 -0.56844383 0.89727575 2.118749 -0.44630128 -1.308965 -0.207059 -1.8252968 -0.8799493 -0.9351444 0.3629275 -2.1184063 1.2369996 1.3561417 2.2837837 -3.043683 -0.5798906 2.619254 -0.96455467 1.68168
241225 0.23957236 0.31879303 -0.6283067 0.9089593 2.193464 -0.430074 -1.3374876 -0.24641995 -1.8994596 -0.91223365 -0.9579993 0.34729975 -2.2600098 1.2729701 1.4105842 2.391782 -3.180694 -0.63273054 2.7305307 -0.97622794 1.759209
4222 0.19814558 0.2831685 -0.50915825 1.1014556 2.034568 -0.58624375 -1.5348125 -0.31215718 -1.835655 -1.0159441 -0.80901635 0.42187268 -2.247577 1.3999712 1.4609121 2.2734482 -3.16389 -0.8422058 2.4660542 -1.0456177 1.7715571
345661 0.16516288 0.27375516 -0.48606053 1.0676478 1.9922031 -0.5664462 -1.4589591 -0.30169746 -1.787782 -0.98629487 -0.77199465 0.39785945 -2.1769874 1.3536233 1.4161534 2.1951523 -3.0351598 -0.7922844 2.3952487 -1.0435715 1.7055194
545969 0.11829908 0.22354841 -0.54564863 0.96027803 1.9027668 -0.44183767 -1.3134944 0.0041473247 -1.718191 -0.7431422 -0.96991473 0.30978382 -1.8657113 1.0690401 1.2917566 2.2486153 -3.041188 -0.7735308 2.628145 -0.9531596 1.726497
274748 0.10693617 0.18639338 -0.51979584 0.9435967 1.798261 -0.4023851 -1.2592717 0.02869727 -1.6479756 -0.7268502 -0.92556155 0.2983996 -1.7649095 1.032612 1.2490402 2.159801 -2.9159265 -0.7540439 2.5104218 -0.889334 1.6532432
221752 0.23057562 0.19548784 -0.5573478 1.0501223 1.9626402 -0.43767667 -1.4052385 -0.23257774 -1.9531698 -0.7430909 -0.7628009 0.43217772 -1.9854071 1.3871886 1.3072307 2.1284328 -2.9107444 -0.5616486 2.2854242 -0.99056655 1.671442
151470 0.21625566 0.1700725 -0.5127313 1.0478274 1.9656334 -0.4596793 -1.3364189 -0.21589541 -1.8968395 -0.7157659 -0.7797637 0.41308805 -1.9250371 1.3335179 1.3022568 2.080586 -2.868809 -0.5694297 2.228058 -0.9342386 1.6542467
479267 0.18703817 0.0841073 -0.41219506 0.94466573 1.8680364 -0.2914736 -1.4085139 -0.41119215 -1.7041725 -0.8424516 -0.78554845 0.35334733 -1.8468783 1.1609274 1.2359183 2.0501196 -2.6463149 -0.72023606 2.145556 -0.8762697 1.7366153
300930 0.20779397 0.064370714 -0.4006323 0.9641072 1.8814855 -0.2888117 -1.3625135 -0.42717797 -1.6652942 -0.8688368 -0.7932809 0.35110068 -1.8052156 1.1348498 1.2155063 2.038703 -2.629597 -0.69915396 2.084338 -0.8625789 1.7100445
4478 0.21361117 0.23546049 -0.5083665 1.0578959 2.0913901 -0.54810226 -1.5309187 -0.25614423 -1.8947794 -1.0055823 -0.848102 0.46127486 -1.9901577 1.0516393 1.4970325 2.401703 -3.0752995 -0.7852177 2.4827344 -0.90372473 1.6250399
69838 0.21725197 0.25108784 -0.50561094 1.0217736 1.9950789 -0.5440759 -1.4647832 -0.21879038 -1.8545989 -0.9812445 -0.817191 0.44125095 -1.9029226 1.0081353 1.4693025 2.31222 -2.940231 -0.72465724 2.4043367 -0.8757081 1.5475969
391187 0.1594708 0.12758969 -0.594273 0.7296108 1.8126599 -0.3593466 -1.1490073 -0.18923634 -1.7765012 -0.74376047 -0.6467375 0.27531794 -1.6112504 1.1193502 1.0489253 1.8065449 -2.695579 -0.39502138 2.388909 -1.0883442 1.4939693
312158 0.20697977 0.1354215 -0.6137039 0.7307554 1.8967578 -0.35390234 -1.1899177 -0.22710694 -1.8262118 -0.7899147 -0.67830634 0.28256917 -1.6477039 1.1814107 1.0795705 1.8931983 -2.8012497 -0.41917935 2.430967 -1.1128379 1.5546826
4551 0.2088712 0.15997982 -0.6301263 1.0427498 2.1330903 -0.37773758 -1.468234 -0.0784275 -1.7781028 -0.9808751 -0.74769354 0.16489366 -1.9782151 1.2680565 1.3954186 2.2568514 -3.1484025 -0.8654859 2.643316 -0.9948549 1.7657044
485555 0.22076704 0.16588959 -0.57907844 0.98338217 2.0908482 -0.37586153 -1.4502587 -0.05998762 -1.711351 -0.9461708 -0.73334557 0.15848255 -1.9219604 1.2289032 1.3418735 2.2265866 -3.0606432 -0.8430132 2.5952725 -0.98910034 1.6776143
541879 0.06307392 0.36322078 -0.63146204 1.0392295 1.8873048 -0.39026338 -1.4202646 -0.21553513 -1.8394738 -0.7708458 -0.8807218 0.49759477 -1.9646851 1.3629278 1.3705733 2.2593791 -2.780876 -0.82472855 2.4107976 -0.7620836 1.742496
208331 0.035632055 0.36643955 -0.6202713 0.9937749 1.8114048 -0.39610034 -1.3662453 -0.20592989 -1.7521629 -0.7681974 -0.8611394 0.46956193 -1.883193 1.3243246 1.3322666 2.1789708 -2.6507359 -0.80841607 2.3262703 -0.7526079 1.6980801
136848 0.17027229 0.20013992 -0.44974658 1.1644622 1.7224553 -0.29821396 -1.3479123 -0.07098515 -1.6754935 -0.713082 -0.7941732 0.28222436 -2.0216327 1.0563023 1.3258342 2.0106199 -2.6761847 -0.59709173 2.4819765 -0.76947343 1.4913657
417737 0.17033708 0.18269716 -0.46909517 1.1679358 1.7126611 -0.31817368 -1.3713616 -0.088970736 -1.6869643 -0.7354223 -0.7998801 0.26071146 -2.0217662 1.021504 1.3174572 2.0224855 -2.678084 -0.5986177 2.4662962 -0.76241183 1.4737556
271744 0.14362344 0.6880419 -0.48123726 0.9369567 1.8940345 -0.8673237 -0.71547115 -0.55237263 -1.0987706 -1.1129674 -0.9235669 0.23072797 -1.8776649 0.8966751 1.5366483 2.4034953 -2.4242883 -0.3351808 1.9266669 -1.2164893 1.6222168
512190 0.10445539 0.714113 -0.4346377 0.9944891 1.9438355 -0.8697475 -0.6884921 -0.5714367 -1.0864738 -1.1021551 -0.9756721 0.25068548 -1.9187053 0.922186 1.5813864 2.4231014 -2.4568179 -0.29549158 1.9147773 -1.259086 1.6389307
276940 0.1386162 0.089430116 -0.5373318 0.83938575 1.9361072 -0.515281 -1.3520529 0.038637545 -1.8111901 -0.8458696 -0.72930855 0.30350262 -1.8106385 1.1663046 1.2631559 2.075086 -2.861517 -0.78228635 2.496638 -0.8672257 1.5971357
374337 0.17159194 0.06807559 -0.5556291 0.8200794 1.8843879 -0.51142824 -1.3527355 0.03657435 -1.742585 -0.8011342 -0.6926905 0.2943574 -1.8072242 1.1574187 1.1834211 2.05716 -2.7689383 -0.76555324 2.4351566 -0.80737 1.5926751
534230 0.22393838 0.31560704 -0.40148413 0.95211756 2.0382643 -0.3138838 -1.5339782 -0.1859088 -1.8669206 -0.76671904 -0.7310559 0.25572288 -1.9295542 1.4317154 1.3522002 2.2057123 -3.1814158 -0.77002925 2.5554626 -1.0728406 1.6794838
476988 0.21724656 0.2918755 -0.39537245 0.92950606 1.9325054 -0.31418416 -1.4432402 -0.18511178 -1.8239399 -0.76441723 -0.721848 0.25740588 -1.8546258 1.352075 1.2646964 2.1077063 -3.0508008 -0.742746 2.4589028 -0.99549836 1.5666893
208206 0.059118696 0.04537573 -0.39614752 0.7898108 1.820322 -0.69832057 -1.2322439 -0.25828797 -1.5857221 -0.83015513 -0.95350504 0.38866305 -1.8198605 0.91521364 1.2709949 2.2846222 -2.7418392 -0.6068531 2.2644997 -1.0618521 1.6961291
56686 0.06968038 0.023996467 -0.4016579 0.7989304 1.8543334 -0.6820951 -1.2529644 -0.23380786 -1.6071668 -0.8482363 -0.96617365 0.33975792 -1.8265127 0.92342055 1.2522224 2.279274 -2.779077 -0.6382054 2.3104956 -1.1002512 1.6940497
338274 0.23432694 0.4477557 -0.55775964 0.99374557 1.8665173 -0.26785442 -1.2997795 -0.18711664 -1.6317939 -0.8265994 -0.69012105 0.3465738 -1.7151583 1.2027904 1.3522518 2.0366619 -3.0023108 -0.6751775 2.2641945 -0.86248237 1.5492775
123552 0.19920814 0.4471278 -0.54264647 0.992077 1.8386946 -0.2833871 -1.3161694 -0.1827393 -1.6036018 -0.8549785 -0.7209058 0.33839956 -1.7084335 1.171871 1.3374565 2.0292995 -2.980488 -0.67856497 2.236876 -0.894565 1.5271465
328688 0.3266057 0.5468343 -0.6961096 0.7863133 1.8909934 -0.11859362 -1.3448212 0.21565104 -1.6340588 -0.84324944 -0.6972904 0.44307333 -1.5024318 1.1207755 1.3309604 2.3064868 -3.1254294 -0.62771535 1.8836906 -1.2076076 1.3275856
296268 0.2888801 0.5619192 -0.6931138 0.78780705 1.9226043 -0.09606452 -1.3914822 0.215199 -1.6374431 -0.8767018 -0.6848858 0.45296213 -1.5557035 1.0944549 1.3820461 2.3983207 -3.216913 -0.6646756 1.9312868 -1.2567359 1.3259666
439902 0.3190364 -0.019877598 -0.45368686 1.0859815 2.1868606 -0.40052837 -1.2386225 -0.19529392 -2.129161 -0.9904288 -0.5145273 0.12382314 -1.6525924 0.9925176 1.1535292 2.141702 -2.9080482 -0.24721104 2.1221242 -0.5010806 1.3794944
114245 0.3212101 0.018898526 -0.43003157 1.0675125 2.1005034 -0.41468522 -1.1895413 -0.16377556 -2.0567644 -0.9953016 -0.506917 0.15912461 -1.621125 0.9515826 1.0776143 2.0620146 -2.8208716 -0.22546978 1.9726297 -0.47486934 1.2615008
217025 0.11314751 0.25682312 -0.74844164 0.9684562 1.7064664 -0.26480877 -1.2907704 -0.2052706 -1.5921669 -0.7166164 -0.56329995 0.13001636 -1.9431012 1.1703246 1.0265633 2.1639538 -2.8098285 -0.8238722 2.4420693 -0.7363895 1.5099729
243012 0.12162982 0.2736005 -0.74045193 0.9351146 1.6911265 -0.2932471 -1.2436577 -0.23249036 -1.5464981 -0.7294727 -0.5450872 0.10988504 -1.8966714 1.1465315 1.0006616 2.0979636 -2.783062 -0.79902905 2.3997393 -0.71932334 1.4421496
531586 0.2818022 0.35682887 -0.48297295 0.83923936 1.8088976 -0.3688789 -1.2740079 -0.3037662 -1.4738755 -0.75061584 -0.72777605 0.3119732 -1.7428001 1.0567329 1.3342127 2.0487392 -2.7562304 -0.8115047 2.240742 -1.0461174 1.6136096
356621 0.27873138 0.3553702 -0.50268126 0.8128468 1.7528329 -0.33518255 -1.2573326 -0.29186028 -1.443266 -0.7700755 -0.7285917 0.30309597 -1.7502793 1.0082886 1.2990901 2.0419014 -2.6912057 -0.79835075 2.1820555 -1.0323558 1.6209153
101770 -0.10648063 0.18032199 -0.3940677 0.99182343 1.7264216 -0.52651525 -1.4202664 -0.09372261 -1.6515951 -0.90468556 -0.77753186 0.5128246 -1.9646479 1.2739775 1.473646 2.2238855 -2.8251455 -0.63842785 2.343089 -0.9671353 1.390595
169762 -0.10983811 0.16252705 -0.36206317 1.004481 1.6947136 -0.5211425 -1.3852396 -0.1283061 -1.6303692 -0.85961443 -0.7508606 0.53482276 -1.962731 1.2726663 1.4229646 2.2036097 -2.7438483 -0.60424453 2.250877 -0.95088184 1.3520533
5353 0.14572506 0.33223078 -0.35699424 1.1222138 2.1139603 -0.51059806 -1.2191209 -0.22768858 -2.0753453 -0.94440836 -0.7565796 0.16077411 -1.7806907 1.239284 1.3017083 2.2701147 -2.9924824 -0.6237618 2.1125224 -0.7411003 1.8629966
133233 0.13979505 0.3106184 -0.33724442 1.0806663 2.043874 -0.5343 -1.1655787 -0.2486373 -2.028734 -0.9173814 -0.74252903 0.13920203 -1.70986 1.1662811 1.2902421 2.185214 -2.8768928 -0.6217724 2.0205178 -0.70732635 1.8406646
357755 0.51390815 0.049986005 -0.48279068 1.1624205 1.8160696 -0.019738277 -1.3448358 -0.18339756 -1.6184042 -1.1002752 -1.1802597 0.50603676 -2.070243 0.9304076 1.427599 2.040216 -3.0616777 -0.7645247 2.280035 -1.1142427 1.470995
261327 0.49595284 0.073919326 -0.4667239 1.048345 1.7029572 -0.016588459 -1.3079586 -0.13387686 -1.4423085 -1.0269822 -1.0380069 0.44558617 -1.9337858 0.8986409 1.3597256 1.9030766 -2.8606956 -0.6937644 2.1176898 -1.0341604 1.3525382
465703 0.2210304 0.21810266 -0.72031945 0.84261084 1.9138446 -0.54815215 -1.3156837 -0.22561702 -1.6269315 -0.7022357 -0.8917103 0.36499053 -1.8356153 1.0904399 1.0965201 2.0803936 -2.740564 -0.6130897 2.2295775 -0.96922266 1.5197389
470143 0.2360193 0.23216233 -0.72635126 0.8603326 1.8741032 -0.551871 -1.3231237 -0.21989276 -1.6395295 -0.7167803 -0.8999143 0.36308125 -1.8512442 1.0972766 1.092724 2.040783 -2.750267 -0.59790087 2.2055004 -0.9658629 1.5566119
425258 0.16067433 0.25364414 -0.40642545 0.85492474 1.646195 -0.3842654 -1.124201 -0.24063723 -1.5731707 -0.86861306 -0.75160295 0.25759527 -1.9402502 1.0380859 1.4216726 1.9502069 -2.6806803 -0.7728332 2.3540015 -0.98889685 1.5450667
352332 0.14355172 0.20020379 -0.40978324 0.86955327 1.6351215 -0.39942023 -1.1014496 -0.19934332 -1.5250009 -0.8585859 -0.70704466 0.2553002 -1.8872278 1.0238079 1.3895409 1.9097381 -2.6042109 -0.75018364 2.304935 -0.98449904 1.5330149
17767 0.0011434115 0.6532605 -0.6078616 0.9322776 1.7560983 -0.14717986 -0.7803681 0.14018568 -1.191199 -0.99090296 -0.40466785 0.34502402 -2.095589 0.55492467 1.2103767 1.6979057 -2.5145836 -0.6510183 1.8184495 -0.7115942 1.7027322
277206 -0.038244005 0.6664899 -0.5809002 0.9078019 1.6701881 -0.08287457 -0.71294236 0.1783273 -1.101504 -0.9952499 -0.32582447 0.34162825 -1.9838331 0.467462 1.1061714 1.6141326 -2.3428295 -0.65444875 1.669828 -0.6205574 1.6093897
140499 0.19555388 0.065113656 -0.6956963 0.975378 2.0611815 -0.6578998 -1.4529357 -0.15062784 -1.7002852 -0.71882075 -0.7534003 0.48555237 -1.9856607 1.2040032 1.4049879 2.3498218 -3.083689 -0.8056718 2.5105333 -1.0311006 1.6155045
324808 0.1816935 0.06724679 -0.6868949 0.9444183 2.0275633 -0.649477 -1.3483202 -0.105276674 -1.6545862 -0.71597046 -0.6948329 0.46939877 -1.961105 1.1390126 1.3603439 2.2412477 -2.9781027 -0.7762652 2.3869305 -0.94389886 1.5792316
152536 0.30105084 0.25156766 -0.5820869 1.0892042 1.9900925 -0.5913927 -1.5643446 -0.24124351 -2.012079 -0.65769917 -0.6219481 0.25220445 -1.9446487 1.5123818 0.99541 2.0177014 -2.9831498 -0.75094235 2.3152795 -0.765372 1.5399497
448126 0.27218068 0.23234718 -0.54677033 1.0370154 1.9261712 -0.55825907 -1.5246197 -0.25064912 -1.9092675 -0.63712114 -0.6104974 0.2518561 -1.8271103 1.4693468 0.9340379 1.9074878 -2.8118894 -0.75518626 2.1859126 -0.76451033 1.4840447
200070 -0.13473335 0.09590575 -0.366997 1.0437485 1.6964468 -0.44309664 -1.4642649 -0.35431293 -1.9000089 -0.7231672 -0.27092484 -0.1452071 -1.5834557 1.0218464 1.6265447 2.0842607 -3.109845 -1.088809 2.6345477 -0.4220757 1.5938249
284074 -0.17141432 0.075589515 -0.35478646 1.1087002 1.697861 -0.48955828 -1.5083462 -0.38168782 -1.9968181 -0.7389282 -0.28581044 -0.16827354 -1.6046845 1.00337 1.6759892 2.1852973 -3.1942565 -1.1244091 2.693875 -0.40338778 1.592206
414279 0.32048067 0.25745004 -0.48407376 0.93683714 1.8944983 -0.40234157 -1.1883749 -0.22630349 -1.5616964 -0.94648767 -0.55807096 0.51899374 -2.012088 1.1689295 1.0769322 2.164887 -2.9955351 -0.803257 2.349 -0.7715899 1.620351
86545 0.30865592 0.29114056 -0.4512367 0.9176598 1.8751143 -0.37578696 -1.1754097 -0.20074303 -1.5590197 -0.922949 -0.54192626 0.4810591 -1.9856186 1.150171 1.0258608 2.1280656 -2.948996 -0.7698926 2.338416 -0.76902974 1.5489627
68367 -0.1635422 0.41208363 -0.759393 0.813191 1.8493358 -0.458047 -1.4272474 -0.17035861 -1.5976241 -0.46924037 -1.1224469 0.23486672 -1.8258585 1.0635351 1.3954442 2.2284365 -2.7683032 -0.43147483 2.2961357 -1.3312759 1.9196626
125299 -0.16364531 0.44088793 -0.7717458 0.814356 1.9056146 -0.45613897 -1.4338874 -0.16949151 -1.6513462 -0.47390717 -1.1723635 0.23780486 -1.8553824 1.0787668 1.404553 2.27021 -2.8000512 -0.4071208 2.293429 -1.3127992 1.937886
78064 0.21372797 0.3836139 -0.51073354 1.0614711 1.7886463 -0.6183357 -1.2122586 -0.16286437 -1.6907692 -0.65935194 -0.79535645 0.32459646 -1.991662 1.3434908 1.3221548 2.1595328 -2.568612 -0.6746258 2.0936031 -0.7683812 1.3620062
353416 0.18726857 0.41686893 -0.53926504 1.0651463 1.7942913 -0.6315904 -1.2393259 -0.15276584 -1.6704593 -0.6279414 -0.8181486 0.2850552 -1.9975762 1.3273523 1.354938 2.122074 -2.536431 -0.6686749 2.0974724 -0.7488142 1.3432596
377196 0.11016092 0.25761834 -0.18242057 0.7642181 1.6751655 -0.4744585 -1.0796347 -0.10241698 -1.5171582 -0.74410367 -0.86035806 0.2588301 -1.9094113 1.1238091 1.3654464 2.16704 -2.4474266 -0.82057244 2.1772516 -0.91115886 1.5059555
238480 0.121895485 0.25037864 -0.17126039 0.7399599 1.608507 -0.44443688 -1.0910898 -0.064349964 -1.4812701 -0.70048946 -0.86248803 0.22547163 -1.878112 1.0827324 1.3496187 2.1396286 -2.379467 -0.80422395 2.1552114 -0.9075211 1.5239145
78878 0.13010071 0.3772119 -0.76207227 0.92774516 1.7339631 -0.57494277 -1.5182725 -0.058482096 -1.690695 -0.88623995 -0.81000805 0.56192243 -1.7661926 0.98086184 1.3201174 2.0831115 -2.981586 -0.41050148 2.4703743 -1.0759722 1.6231318
386780 0.13253371 0.38234395 -0.7605438 0.8969351 1.7268568 -0.578485 -1.5045893 -0.062718436 -1.6691768 -0.90398055 -0.7724515 0.5642169 -1.7488984 0.947123 1.3054515 2.057759 -2.8897746 -0.38689598 2.4460435 -1.0502058 1.5963283
108891 0.003983619 0.0153681515 -0.17479022 0.9934387 1.6168252 -0.3217934 -1.2728981 -0.44177955 -1.5969402 -0.6597402 -0.83011883 0.22118759 -1.8101459 0.97470474 1.1110966 2.0395682 -2.3349633 -0.7515851 2.2799568 -1.027977 1.3277205
45728 0.02134716 0.022427779 -0.13759011 0.9460016 1.6480699 -0.30463752 -1.225117 -0.42665562 -1.5928744 -0.63654524 -0.8204809 0.17040193 -1.8133 0.9353429 1.1129427 2.0370412 -2.3121097 -0.7083098 2.2465477 -0.97027194 1.347185
6201 0.025592552 -0.14605044 -0.5179352 1.266282 2.1157615 -0.60990906 -1.2330779 -0.2214035 -1.4239832 -0.96561545 -0.82938856 0.67366886 -1.8639402 1.4377087 1.4270616 2.1735394 -2.706989 -0.4618802 2.3560314 -0.9165878 1.645337
375348 0.0029598973 -0.16218123 -0.53337 1.2676198 2.1450694 -0.617157 -1.2225357 -0.25437397 -1.404669 -0.98079324 -0.8581447 0.6976657 -1.8594713 1.4517303 1.4130335 2.1692655 -2.6765993 -0.43706432 2.3824403 -0.92081547 1.636621
523244 0.37667322 0.058785968 -0.47912854 0.8174764 1.594281 -0.34406805 -1.2210624 -0.17663527 -1.8469163 -0.5417949 -0.93236065 0.23394865 -2.1093574 1.0450943 1.0663984 2.3272502 -2.6752896 -0.70987564 2.4577422 -0.7260483 1.91381
542759 0.36263052 0.049116503 -0.45771176 0.8232843 1.5848739 -0.30756274 -1.198088 -0.21002351 -1.8159481 -0.5732237 -0.9121339 0.25798553 -2.0860648 0.99939907 1.0543886 2.3259351 -2.6431596 -0.72813874 2.4492137 -0.7221095 1.8870457
142362 0.3613481 0.51849633 -0.5417234 1.3611135 1.5811455 -0.22011118 -1.0088726 -0.48674893 -1.3380415 -0.98203844 -1.452955 1.0095298 -1.8382666 1.2335773 0.98869705 1.8940927 -2.6284657 -0.41306537 1.7978374 -1.6617314 1.2781261
518063 0.38690326 0.50429577 -0.56280005 1.3789135 1.4861844 -0.18918127 -0.988193 -0.55990005 -1.3263185 -1.0199146 -1.4504803 0.9559822 -1.856811 1.3112847 0.95102376 1.7980558 -2.5226035 -0.3582926 1.7022526 -1.6470633 1.2636709
370985 0.09395991 0.732987 -0.5993396 0.8656388 1.8587099 -0.67902154 -1.4922057 0.0015715135 -1.6865404 -0.53380495 -0.83746123 1.0037738 -2.152916 1.0738089 1.4279702 2.078667 -2.7918663 -0.6507446 2.3405955 -0.8674333 1.3037033
6598 0.08896008 0.7012741 -0.5936969 0.8240389 1.7940251 -0.6601874 -1.4620901 0.032932565 -1.6597879 -0.49295086 -0.7639526 0.95928 -2.0577838 1.0104249 1.4171591 1.9854536 -2.6587312 -0.6154091 2.2627087 -0.85992515 1.2571039
230102 0.29059583 0.249511 -0.6053261 1.0711161 1.8184437 -0.23311199 -1.230383 -0.17438507 -1.4381227 -0.564495 -0.8596583 0.41720188 -1.8676381 1.2255627 1.1083546 2.0818603 -2.3949506 -0.41806215 2.049935 -1.0579693 1.7307199
98497 0.28941974 0.1820832 -0.56928825 1.0468717 1.7271292 -0.19934283 -1.1506232 -0.21208476 -1.3612037 -0.5509239 -0.8206435 0.37088495 -1.7941484 1.1965033 1.0320274 1.9846438 -2.3351328 -0.39964107 1.9549247 -0.9996118 1.6999785
272732 0.06538295 0.27621835 -0.5220248 1.0054151 1.9459503 -0.5172299 -1.0005877 -0.21667324 -1.6374468 -0.83156693 -0.85329765 0.2713491 -1.8817897 0.97277105 1.2116656 1.8643309 -2.4606328 -0.49962425 2.101466 -0.871408 1.4550412
174466 0.029596025 0.29006836 -0.50198895 0.9304253 1.8765148 -0.46959755 -0.94380164 -0.21931551 -1.5915385 -0.77814215 -0.83793974 0.22367133 -1.7965256 0.8896302 1.1780185 1.7720546 -2.343721 -0.4867943 2.045833 -0.81922907 1.37038
451102 0.07555155 0.09645103 -0.44115552 0.65713805 1.5367739 -0.51329744 -1.016876 -0.06840497 -1.5936408 -0.6707409 -0.8267014 0.015805794 -1.6779313 1.0296259 0.74304307 1.3911368 -2.7688298 -0.3026424 1.9119986 -0.8086568 1.912981
21024 0.07447728 0.08536288 -0.43194962 0.66902834 1.5564121 -0.47632942 -0.97172236 -0.11292839 -1.6465958 -0.6330669 -0.8131727 0.008093149 -1.6958371 1.052997 0.71873814 1.3393646 -2.7442403 -0.30273703 1.9180981 -0.8117235 1.9251587
122239 0.10074659 0.25641835 -0.32976633 0.9660423 1.5833311 -0.19759911 -1.3846674 -0.41147366 -1.5050962 -0.7297506 -0.92287153 0.22589062 -2.2408168 1.2960157 1.1679473 2.340909 -2.3640275 -0.86152035 2.0896378 -1.0228131 1.6577872
128192 0.06193247 0.21740639 -0.36305267 0.98454136 1.583163 -0.19695115 -1.3497169 -0.41256827 -1.5213801 -0.75302005 -0.92413515 0.19637696 -2.227986 1.278108 1.1125805 2.3488932 -2.3121102 -0.8196722 2.0519023 -1.0245396 1.6389866
409159 0.14526387 0.27768967 -0.59904003 1.0201163 1.8551775 -0.41033804 -1.2931799 -0.36384276 -1.6451042 -0.87950534 -0.67367053 0.2824083 -1.9310267 1.2228761 1.2542927 2.1023676 -2.6393538 -0.66414523 2.173662 -0.8968128 1.6372064
531972 0.13918698 0.27572548 -0.5766951 1.0236785 1.8372384 -0.39892226 -1.2750856 -0.34260777 -1.6068463 -0.90934855 -0.6790085 0.26245883 -1.9042706 1.205414 1.2772386 2.1183345 -2.6300623 -0.69174296 2.1493895 -0.911602 1.6609048
496825 0.12259347 0.28985074 -0.47228363 0.9335657 1.7539297 -0.3942348 -1.5497494 -0.22612162 -1.5429196 -0.6043649 -0.90156806 0.43833262 -1.9214541 1.0907893 1.2002507 2.1784537 -2.4909286 -0.8437132 2.1475642 -0.56222457 1.5604287
248561 0.10862159 0.2638935 -0.51477754 0.94080776 1.7070377 -0.37989104 -1.512462 -0.23379846 -1.5249791 -0.6067869 -0.8953787 0.43666336 -1.86607 1.1102686 1.1607605 2.1119468 -2.42717 -0.8237118 2.0818758 -0.553128 1.511934
252239 0.4777396 0.19615592 -0.49608412 1.1661288 1.3543582 -0.48898017 -1.1444452 -0.31607926 -1.3096263 -0.5464986 -0.676683 -0.033592284 -1.8484051 1.3238242 1.3652713 1.902827 -2.4855554 -0.6844598 2.3022213 -0.96786433 1.5878441
134645 0.46658567 0.20489484 -0.49727726 1.0636938 1.2532437 -0.48803604 -1.05971 -0.2725604 -1.2234293 -0.5250069 -0.5921557 -0.03300007 -1.7433826 1.2466067 1.2843382 1.745795 -2.3396635 -0.63649434 2.1590955 -0.9478119 1.4868377
387840 0.5058944 0.092960715 -0.7690182 1.0601515 1.3625535 -0.37943605 -0.82919645 -0.7094115 -1.9721771 -0.98469263 -0.35816258 -0.22590214 -1.216327 1.600285 1.7819222 1.6642196 -2.1061156 -0.7713317 1.5853887 -0.4977439 1.7368639
180100 0.5548113 0.021388877 -0.7397375 1.0145758 1.3013177 -0.3087641 -0.76288885 -0.7214086 -1.9068258 -0.9022241 -0.29154983 -0.28857717 -1.115892 1.5017878 1.7280275 1.5841857 -1.9814188 -0.676567 1.5189956 -0.42152113 1.6543415
52486 0.5028207 -0.8234181 -0.8847444 0.55522406 1.0157455 -0.3052234 -2.0266256 0.08268584 -1.022022 0.13042878 -1.0756907 0.8577571 -1.6095089 0.6940303 0.0084677 1.0024635 -2.9003189 -0.27690795 3.5931408 -0.59496385 1.2092842
50486 0.51748675 -0.8254541 -0.83003837 0.54894257 0.9983782 -0.2785077 -1.9454077 0.0444901 -0.99737144 0.15132767 -1.0137117 0.8241662 -1.524843 0.73996377 -0.0055726552 0.9905992 -2.7978878 -0.24748549 3.4479852 -0.614847 1.1104298
451859 0.19140916 0.40709776 -0.60368097 0.9285441 1.7963717 -0.20839593 -1.1297871 -0.11161268 -1.6161987 -0.83671707 -0.83329177 0.06244449 -1.7316946 1.0158831 1.0523407 1.5883963 -2.3624148 -0.4579113 2.0780516 -0.97737354 1.6038364
410736 0.18112135 0.41234043 -0.63982606 1.0128871 1.8872367 -0.23762064 -1.1443046 -0.11841876 -1.6850563 -0.870675 -0.822796 0.07051538 -1.8077123 1.1080015 1.1065575 1.6171135 -2.4838748 -0.49941218 2.1916904 -1.0157483 1.6725868
333279 0.17825106 0.21844102 -0.11102533 0.8980802 1.8201772 -0.346836 -1.3009181 -0.24985269 -1.689535 -0.8325906 -0.77480376 0.39363798 -1.2961831 1.2919002 1.2437955 1.9574518 -2.8956978 -0.88879335 2.057445 -1.0203501 1.5556465
246032 0.17343518 0.17882448 -0.094947495 0.9303701 1.8216883 -0.33909568 -1.2808328 -0.23381332 -1.7069299 -0.8412591 -0.76096886 0.38994983 -1.2762841 1.3105322 1.2606055 1.9525342 -2.8939195 -0.89099336 2.073262 -1.0120351 1.581736
427166 0.03622531 0.29316202 -0.85840994 0.769002 1.7576151 -0.698489 -1.0601202 0.031868827 -1.5281829 -0.52425444 -0.78052014 0.4150271 -1.9263095 1.0852047 1.2061559 2.1582062 -3.0960844 -0.47810927 2.375788 -0.79500896 1.3918862
454764 -0.007550137 0.28277603 -0.87702966 0.76236945 1.798078 -0.68242866 -1.1192317 0.023491343 -1.5805942 -0.5647601 -0.82409316 0.41949362 -2.0212085 1.0786245 1.2638419 2.2137113 -3.1912253 -0.4799918 2.4746263 -0.8790076 1.4328947
7787 0.42245695 0.1761427 -0.61568195 0.83703154 1.507519 -0.19913481 -1.265022 -0.21535635 -1.6419979 -0.8517696 -1.0148425 0.431245 -1.692246 0.8548356 1.3835065 2.429487 -2.7055001 -0.48762906 2.3306656 -1.2530209 1.5662179
340165 0.44027415 0.21320927 -0.5805963 0.81259775 1.5139526 -0.1992556 -1.2983618 -0.2363911 -1.6277405 -0.83246744 -1.0197233 0.44404995 -1.7206858 0.87095624 1.3992053 2.411985 -2.727805 -0.4648522 2.3120637 -1.2276127 1.6050942
7798 0.08460318 0.20005633 -0.3971053 0.9651002 1.6638808 -0.55263805 -1.4171125 0.076960765 -1.2763609 -0.7728772 -0.6571317 0.24540193 -1.7638258 1.2569968 1.1379521 2.1438398 -2.6668139 -0.7483705 2.1705003 -0.9629483 1.4702071
516294 0.09091376 0.20911035 -0.40374434 0.9951892 1.6828353 -0.57692873 -1.4126991 0.07153672 -1.3112253 -0.81055796 -0.6728404 0.21126401 -1.7403653 1.2209262 1.1856176 2.1701205 -2.6510024 -0.711025 2.1633918 -0.94978225 1.4955966
7817 0.072537936 0.6485947 -0.8136947 1.2370342 2.1712818 -0.5203434 -1.0995065 -0.08300551 -1.7252235 -0.6539518 -0.8589682 0.26685393 -1.9223449 0.99501336 1.002294 1.7703851 -2.8262663 -0.5748133 2.0737865 -0.7584033 1.632722
35319 0.06685527 0.6310806 -0.7945422 1.1755201 2.077029 -0.46555284 -1.0449413 -0.07966573 -1.6799732 -0.6218595 -0.8621449 0.23935087 -1.8150926 0.965323 0.9331448 1.696627 -2.669346 -0.5366433 1.9831674 -0.7200435 1.5391939
403318 0.07465052 0.4298078 -0.49469978 0.9510518 1.3833197 -0.4641895 -1.4650937 -0.3261922 -1.5379524 -1.0314968 -0.785307 0.26585442 -1.7549111 1.1381466 1.2132851 2.1794229 -2.7015593 -0.7352253 2.10185 -1.1755054 1.5278968
364546 0.09317569 0.43357572 -0.4402575 0.8688781 1.324104 -0.42633098 -1.3991519 -0.33709443 -1.5220647 -0.9811872 -0.7960317 0.26797518 -1.7111723 1.0756822 1.1793431 2.0837135 -2.5983741 -0.6916861 1.976506 -1.1419705 1.4224969
464270 0.89861536 -0.37109175 -0.6891881 0.9168457 1.9791367 -0.37622598 -0.67250514 0.35390764 -1.7149016 -0.3941081 0.87705934 -0.69892406 -2.0811038 2.0623662 1.9305725 0.97928077 -2.4566634 -0.25166178 2.0547001 -0.25541967 1.7836045
181391 0.91011846 -0.42200527 -0.63434035 0.78958267 1.8831428 -0.33103615 -0.5603652 0.33403522 -1.6300842 -0.33648705 0.8794438 -0.7713408 -1.9329792 1.9557729 1.8053601 0.8125644 -2.2789752 -0.20934142 1.8715091 -0.20616142 1.6459928
401888 -0.032340914 0.14669745 -0.59340876 0.9915234 1.6976377 -0.22115184 -1.3494532 0.030316247 -1.4596872 -0.64072526 -1.0555434 0.8565525 -1.9998416 0.86041087 1.2013676 2.0160072 -2.6305888 -0.62407774 2.3669863 -0.73050207 1.6084572
410223 -0.033550397 0.18801792 -0.5824198 0.9949586 1.7194874 -0.20662256 -1.3363241 0.0098802075 -1.4556781 -0.6360409 -1.0653771 0.8637296 -1.9916422 0.8468777 1.2039896 2.030108 -2.6628346 -0.6550423 2.3648174 -0.7305949 1.6134298
8041 0.44194686 0.05624789 -0.6188014 1.0040965 1.5655358 -0.4506487 -1.0849538 -0.5578115 -1.6993209 -0.84406114 -0.705261 0.21309377 -1.9258081 1.1793613 1.0428745 2.1754534 -2.917214 -0.95579535 2.131179 -1.2888147 1.3147205
272411 0.45914122 0.0048774504 -0.6073016 0.9832888 1.5485368 -0.44551298 -1.0619447 -0.5309733 -1.6730168 -0.818411 -0.69652826 0.16549762 -1.8829744 1.1886181 0.988689 2.1338363 -2.8796232 -0.9401933 2.1266344 -1.2655574 1.2839801
135936 -0.51208067 0.30781507 -0.7818231 0.58394563 1.2861184 -0.44359362 -0.7211603 -0.18150775 -1.686294 -0.78004867 -0.74096113 -0.10560778 -1.5734679 1.1931123 1.2091945 1.9861373 -2.2812107 -0.332062 1.9973624 -0.9156984 1.1284208
448898 -0.5154859 0.29600427 -0.7931975 0.53781843 1.21788 -0.41160288 -0.70749134 -0.18021758 -1.6572306 -0.7614159 -0.7238245 -0.13476932 -1.5122927 1.1834486 1.1321533 1.9366964 -2.2102296 -0.31150442 1.9096098 -0.8982075 1.0859482
411852 0.03496498 0.03286878 -0.25540718 0.87354493 1.7080933 -0.25960955 -1.214468 -0.034386065 -1.4423637 -0.674054 -0.5809829 0.20504798 -1.4087338 0.9832506 1.3818802 1.8220932 -2.2527556 -0.47629243 2.0481856 -0.6790206 1.6758868
246501 0.07858503 0.03038081 -0.2325765 0.8732382 1.662813 -0.23668024 -1.1649017 0.005941183 -1.3748064 -0.68125576 -0.58815247 0.18900037 -1.348063 0.90778226 1.3266178 1.7964276 -2.2024584 -0.43623126 1.9901173 -0.62579006 1.6230981
447161 -0.12747537 0.32873157 -0.4432247 0.80249363 1.7765491 -0.650464 -1.0390286 -0.06434407 -1.6985689 -0.64570224 -0.5365653 0.13521889 -1.505667 0.9669861 1.187073 2.0251756 -2.3619459 -0.500865 1.9125608 -0.7628043 1.2809856
330590 -0.119688824 0.29146302 -0.46226 0.77314365 1.7971917 -0.6941915 -1.0749549 -0.05245558 -1.7018516 -0.6103501 -0.5607991 0.12880853 -1.4992926 0.94044304 1.2251122 2.0309002 -2.377026 -0.5283436 1.9085652 -0.7312391 1.2918416
8317 0.41279304 0.22521563 -0.70101446 0.7535409 1.7103411 -0.3904613 -1.0442256 -0.1286568 -1.3801295 -0.9187107 -0.6351624 0.50472105 -1.9638697 0.80997866 1.0826374 1.8405883 -2.6794984 -0.70850086 2.1468966 -0.8400013 1.52112
205665 0.41128847 0.259485 -0.7105079 0.7795639 1.7317843 -0.42275494 -1.033875 -0.09725906 -1.3788357 -0.9150141 -0.615825 0.49629655 -1.9514529 0.8000146 1.0448684 1.8276666 -2.6771593 -0.67894 2.103768 -0.88482326 1.4562024
499233 0.13735978 0.19535449 -0.05387652 0.91146654 1.4943373 -0.3279479 -1.1642607 0.018892068 -1.3256009 -0.32651877 -0.772359 -0.0357564 -1.6995088 1.0706283 1.1373483 1.8442428 -2.49322 -0.6254931 1.9617325 -0.66959566 1.4067551
144910 0.1806157 0.19426338 -0.07972353 0.8586644 1.506967 -0.31130302 -1.1744238 0.019338615 -1.3474941 -0.3315055 -0.7248319 -0.020862218 -1.7110672 1.0835279 1.1288991 1.8007495 -2.4422011 -0.6366743 1.9598876 -0.66111964 1.3487195
86595 -0.0068288515 -0.053698223 -0.18436852 0.8716154 2.0009222 -0.21612424 -1.191511 0.19483654 -1.5468584 -0.36826307 -0.6773346 0.03001308 -1.4325848 1.0548644 0.88158005 2.0102544 -2.8990836 -0.6064562 2.0209455 -0.6692272 1.5881418
37206 0.004391902 -0.057012886 -0.19129226 0.81956625 1.905428 -0.16437463 -1.1218616 0.15022412 -1.4601038 -0.37149897 -0.62285674 0.034337718 -1.3941622 0.9689063 0.8527508 1.9285338 -2.752729 -0.6260391 1.9453518 -0.64572096 1.4884781
363086 0.29793978 0.16903836 -0.28444335 0.96578836 1.816845 -0.30659348 -0.8972234 -0.13910145 -1.8032303 -0.90162283 -0.48106068 0.19005795 -1.3253461 1.0821307 0.6995321 1.9241129 -2.4298058 -0.8884494 2.2472174 -0.9229384 1.3550317
131122 0.26612148 0.14828464 -0.31568587 0.9370627 1.7648847 -0.28334314 -0.91100293 -0.15091667 -1.7776321 -0.856524 -0.40490037 0.16652672 -1.277459 1.0167549 0.6622643 1.836057 -2.3966691 -0.8708068 2.2124243 -0.88170534 1.2888728
222213 0.3339884 0.19267653 -0.2628545 1.1728927 1.5099376 -0.41376743 -1.1428319 -0.4928239 -1.4308562 -0.76307386 -0.74368536 0.70014143 -1.5387084 1.3135142 1.156783 1.8106728 -2.3144724 -0.6086441 1.8549553 -0.9004887 1.5917923
273416 0.35968465 0.20084377 -0.2939794 1.1439173 1.4541777 -0.406166 -1.1229006 -0.48536548 -1.4448013 -0.7582866 -0.73441195 0.66961616 -1.4944869 1.2901472 1.1858088 1.7780253 -2.2467813 -0.6460511 1.8200848 -0.8243053 1.5429775
8720 0.08025928 0.5493637 -0.7011728 0.71425015 1.840554 -0.38572472 -1.4525956 -0.20578046 -1.1816119 -0.6720376 -0.51556396 0.12494069 -1.9449458 0.9673213 1.2782245 2.1004016 -3.2725441 -0.31670135 2.1025472 -0.8716309 1.237637
49211 0.057484537 0.50489426 -0.7381722 0.7510499 1.8748312 -0.37518647 -1.4742718 -0.22227801 -1.2274357 -0.71673775 -0.5129617 0.096348785 -1.9544845 1.0045965 1.285191 2.1511607 -3.3102968 -0.35786048 2.1231885 -0.8812157 1.2597528
451492 0.34188503 0.16699646 -0.3001629 0.6131852 1.6109828 -0.27984056 -1.4207773 -0.122663155 -1.8749273 -0.6959102 -0.78312933 0.47350892 -1.7587464 1.0368489 1.2334886 2.2923756 -2.7422152 -0.26870486 2.3834207 -1.1622864 1.782607
494490 0.31137386 0.16042921 -0.3066518 0.6165035 1.575106 -0.28581902 -1.3861542 -0.13182572 -1.8490328 -0.6878437 -0.74078566 0.44504055 -1.7023885 1.0366223 1.2108251 2.2194033 -2.6473804 -0.2837188 2.344063 -1.1386689 1.7314545
448930 -0.32507953 0.18484166 -0.7961151 0.34328455 1.9097613 -0.08431772 -1.2961004 0.09781172 -1.4978194 -0.88649046 -1.2524831 0.08547894 -1.517046 0.9221624 1.4147929 2.273613 -2.52275 -0.28901058 1.8605171 -0.9131161 1.4885051
33546 -0.32950032 0.16867274 -0.79337806 0.39393717 1.9541979 -0.10623262 -1.2986312 0.07195573 -1.4885405 -0.88399416 -1.2275529 0.063028105 -1.5312324 0.9625269 1.4055525 2.2946727 -2.5629966 -0.34386247 1.8871837 -0.9244603 1.5283079
18831 0.09211569 0.5914631 -0.3237454 0.77669615 0.7880093 -0.49723935 -1.2602524 -0.0389298 -1.0297087 -0.99941134 -0.85838866 0.93209225 -1.8308607 0.92317414 0.60756177 1.755661 -2.5976732 -0.77711886 1.7851628 -1.163543 1.429211
353063 0.09561356 0.59551615 -0.32890463 0.7809241 0.74094445 -0.50578964 -1.1880754 -0.025729327 -1.0062562 -0.9967961 -0.85335326 0.91476244 -1.7519735 0.8754757 0.53216994 1.6999025 -2.5076568 -0.73587924 1.6994835 -1.1260625 1.3932946
9059 0.41075638 -0.010707991 -0.6828454 0.7834283 2.0260897 -0.83059645 -1.3472443 0.04512732 -1.1101046 -0.74936104 -0.6113843 -0.14141041 -1.9841466 0.98460364 1.6510619 2.4110518 -2.7814074 -0.4489454 2.1898725 -0.5370379 1.3903031
470022 0.3738817 0.010573342 -0.6547537 0.73703593 1.8927965 -0.77723444 -1.2423809 0.024904037 -1.095294 -0.67750496 -0.5613113 -0.09658973 -1.8534948 0.93597275 1.5567031 2.2313402 -2.634111 -0.4336574 2.0335255 -0.496318 1.2601129
358679 0.2415906 0.38987973 -0.38141492 0.55910057 1.5115713 -0.7081477 -0.88250226 -0.119134285 -1.5543822 -0.82395166 -1.0455788 0.5840245 -1.7650359 1.2327054 1.2432834 1.8484858 -2.5382903 -0.28505236 2.5144176 -1.2542119 1.4696202
180394 0.18330677 0.36574495 -0.36668482 0.5222265 1.4354175 -0.6565172 -0.8275877 -0.14182444 -1.4779192 -0.76372844 -0.9977156 0.5450925 -1.6984111 1.127899 1.202945 1.7034919 -2.3603325 -0.25959066 2.3821194 -1.1889143 1.3686078
263438 0.25619268 0.07552784 -0.18154214 0.78601086 1.7820023 -0.5916398 -1.0976021 -0.29728106 -1.7467223 -0.49824467 -0.8060134 0.56288946 -1.6615306 0.605835 1.080461 1.7159741 -2.071632 -0.379792 2.358634 -0.87784076 1.2066575
430903 0.26531252 0.09142548 -0.18084626 0.77400696 1.7058232 -0.5791506 -1.0981361 -0.24209307 -1.6991756 -0.4709093 -0.79577035 0.5748321 -1.6314548 0.59261835 1.0217092 1.6848335 -2.0516496 -0.36534435 2.2987523 -0.8573513 1.1821539
413163 -0.1280809 0.3148998 -0.5126617 0.5364439 1.7576511 0.110501364 -1.193438 -0.08584315 -1.3792781 -0.73848087 -0.6703491 0.4414103 -1.8311319 0.8758907 1.3161485 2.2750242 -2.5077488 -0.4374132 2.2231503 -0.7454927 1.7657926
94500 -0.09340357 0.32090917 -0.510173 0.5623167 1.7616988 0.12139965 -1.1573668 -0.10210481 -1.3813263 -0.7507693 -0.673829 0.44893774 -1.8346852 0.8800821 1.2519943 2.2230732 -2.4879148 -0.45147148 2.1722045 -0.7025743 1.7112215
367731 -0.14081773 0.6407034 -0.5103968 0.91649127 2.0474408 -0.61197096 -1.0394174 -0.21854351 -1.9491274 -0.8146141 -0.57029545 0.71863 -1.7026185 1.087049 0.9878296 2.2808266 -2.4963114 -0.98546475 2.18847 -0.860934 1.8130622
469494 -0.16726008 0.6262337 -0.526447 0.9786311 2.0352206 -0.59633553 -1.0527765 -0.19769236 -1.9015043 -0.8151742 -0.5651932 0.6903261 -1.6412544 1.0683869 0.9595652 2.251209 -2.4850397 -0.97371525 2.089586 -0.86790186 1.7795876
531969 0.31147072 0.477456 -0.32992947 0.7008423 1.4920102 -0.33582416 -1.0054903 -0.14718673 -1.0874166 -0.8378593 -1.2517155 0.17311278 -1.8000561 1.0263548 1.5883489 1.3069526 -2.2746515 -0.4088656 1.6497092 -0.8836736 1.4925717
203707 0.31023577 0.4465606 -0.33638263 0.700891 1.4970438 -0.358395 -0.9928481 -0.11332518 -1.0910832 -0.8392323 -1.2003933 0.22542992 -1.8001149 0.9936937 1.5466199 1.3378216 -2.3183136 -0.411923 1.6982768 -0.87987256 1.4486445
209642 0.5137348 0.18149416 -0.62346905 1.3811845 1.6277387 -0.53134626 -1.2927824 -0.5109693 -1.8172992 -0.77567494 -0.9412146 0.18957864 -1.7512064 0.9826174 1.2784233 1.5561007 -2.321953 -0.4025097 2.1636915 -0.66693956 1.5999279
79302 0.52872354 0.14107421 -0.6443858 1.3733418 1.5881436 -0.46417826 -1.2819043 -0.47188532 -1.8125263 -0.76838887 -0.9077917 0.21125735 -1.7453284 0.97357047 1.2309306 1.5208806 -2.2804525 -0.3948068 2.0751479 -0.63533425 1.5622976
109922 0.08128437 -0.10478776 -0.5117058 0.870102 1.5359567 -0.26701173 -0.99460787 -0.4189497 -1.492983 -0.79563844 -0.82043725 0.4384744 -1.4933511 0.91397023 1.5675066 2.2252486 -2.4084165 -0.619512 2.1012063 -0.70768934 1.3022798
261559 0.11889354 -0.08418506 -0.5197896 0.93087363 1.5723685 -0.2976732 -1.0392834 -0.36190373 -1.5445338 -0.8099371 -0.82586277 0.39789832 -1.5924968 0.92619723 1.6141971 2.2552338 -2.4635718 -0.5832688 2.1507068 -0.72366804 1.3851345
32644 0.1084362 0.31400385 -0.17371067 0.97639364 1.8598042 -0.27243298 -1.1909344 -0.4734726 -1.7999904 -0.5227539 -0.8028481 0.37060633 -1.5419155 0.9409516 0.7371192 1.680285 -2.5235505 -0.37401086 2.1714463 -0.87127674 0.83455765
373925 0.11212332 0.28443244 -0.15636826 0.9490698 1.8829155 -0.26099026 -1.2183911 -0.48723644 -1.7693108 -0.55125165 -0.77433485 0.33647165 -1.5566269 0.95580417 0.7393133 1.6628194 -2.5162196 -0.37207693 2.208497 -0.9469289 0.83168626
9377 -0.27271456 0.31218255 -0.6047213 0.8261502 1.5956085 -0.5091571 -1.2324481 -0.39227575 -1.5161183 -0.79313445 -0.9863166 0.55893606 -2.1734629 0.81509364 1.5670806 2.481046 -2.1513188 -0.93707305 1.9262868 -0.71280086 1.2261125
516301 -0.26940566 0.30026838 -0.5806855 0.7919307 1.5461898 -0.5203782 -1.1635445 -0.3562665 -1.4228442 -0.7355163 -0.9535257 0.5522812 -2.1159663 0.7905765 1.523987 2.4338152 -2.067723 -0.9483653 1.8106875 -0.68541294 1.1623988
382382 0.32510597 0.09605636 -0.64228064 1.0006046 1.2735732 -0.02169038 -0.83880293 -0.7244721 -1.5248904 -0.7459042 -0.9213867 0.6413498 -1.6285324 0.90409493 0.6886475 1.2846407 -2.0743613 -0.5439963 2.063323 -0.8862397 1.3057432
370194 0.32991904 0.06530901 -0.62794167 1.0228434 1.2380325 -0.0282409 -0.84404236 -0.7070161 -1.4873133 -0.69185615 -0.8830149 0.6079447 -1.6289965 0.89995396 0.6856664 1.281471 -2.0311365 -0.4716572 2.0247052 -0.84099275 1.2662234
18557 0.07540179 0.17387815 -0.6811067 0.62005794 1.5357199 -0.34882435 -1.2045066 0.12659033 -1.291219 -1.0271089 -0.55213547 0.35532427 -1.608003 1.1158222 1.393137 1.9769272 -2.4927752 -0.42114767 1.8705188 -0.6578626 1.5075055
342778 0.056580134 0.18944302 -0.686992 0.54117525 1.5649976 -0.32981044 -1.2000784 0.123617284 -1.2728915 -0.9797118 -0.59411216 0.32740963 -1.5530002 1.1447762 1.3604594 1.9286543 -2.4732747 -0.40595385 1.8328329 -0.6295389 1.508478
254538 0.24620792 0.16771515 -0.23851778 0.75739634 1.9656701 -0.5677175 -0.63526195 -0.6378551 -1.6179796 -0.57563055 -0.4869864 0.062795 -1.6541579 0.92442054 1.2018516 1.3650059 -2.5877528 -0.6284352 2.0384262 -0.6727391 1.7103461
228942 0.20968367 0.18521896 -0.22180156 0.75341964 2.0087337 -0.5934619 -0.6182092 -0.6760341 -1.6476985 -0.572516 -0.50253797 0.07792119 -1.7040501 0.9494012 1.238255 1.4105142 -2.6064854 -0.62620145 2.0895245 -0.71244407 1.7424124
85151 0.108737364 0.28029636 -0.9413168 0.9076971 1.7185076 -0.102819405 -1.1800693 -0.2609866 -1.1538528 -0.9140018 -1.2040366 0.6019029 -1.6455624 0.75644207 0.9077264 2.1628041 -2.6797893 -0.3642152 1.726684 -1.0617726 1.6351272
395372 0.08155412 0.26369435 -0.9429501 0.8684643 1.6907127 -0.11627475 -1.1262974 -0.2682348 -1.105927 -0.8979508 -1.1942735 0.5527222 -1.6720316 0.72843814 0.86235076 2.1225429 -2.6489449 -0.35510668 1.6935067 -1.0921341 1.6361549
30541 0.37000358 0.3223879 -0.35477838 1.555987 0.9419306 -0.37948114 -0.9127584 0.30957398 -1.1732603 -0.5003596 -0.63741016 0.012194334 -1.3326216 0.9398714 1.5825589 1.7156914 -2.467265 -0.6029396 2.2160454 -0.124988675 1.435634
513206 0.37766954 0.31902102 -0.38916552 1.6204284 0.95679027 -0.38306707 -0.95746106 0.31849593 -1.2488602 -0.5114399 -0.6876329 0.019931404 -1.388283 0.959054 1.5933352 1.7087817 -2.4410279 -0.5917206 2.2444649 -0.15530464 1.4413465
10330 0.18478417 0.43909946 -0.4979347 1.0715376 1.2788202 -0.24887246 -1.4853624 -0.018748382 -1.6160463 -0.56668395 -0.8674607 0.20191291 -1.816562 0.8204288 1.4167265 1.5856231 -2.3167336 -1.1732292 2.7945857 -0.542277 2.2736628
105714 0.24144067 0.41911623 -0.43610916 1.027757 1.2301407 -0.23989557 -1.4736816 -0.021735677 -1.58031 -0.58823234 -0.8486782 0.18448113 -1.7850182 0.78695744 1.4132656 1.5799369 -2.2471788 -1.1894984 2.779391 -0.50678724 2.227812
10374 0.19263566 0.37733394 -0.24990073 0.93474656 1.8298498 -0.19925484 -1.4136399 -0.56616193 -2.102996 -0.5198309 -1.1160921 0.45966002 -2.0335557 0.99870634 1.359166 2.0005932 -2.537722 -0.92021185 2.3254473 -0.98808557 1.9064301
362268 0.19820356 0.35816815 -0.25476736 0.8540694 1.7374033 -0.17510639 -1.3493448 -0.5252304 -1.9947253 -0.49982873 -1.0456557 0.438251 -1.968085 0.943334 1.2492464 1.9258341 -2.3812704 -0.8863626 2.2153907 -0.956675 1.7952864
158625 0.42963886 0.26918456 -0.37993675 0.59598947 1.5203547 -0.34940222 -0.922612 -0.2274963 -1.4344234 -0.76221126 -0.40842575 0.15213156 -1.6473707 0.8645793 1.1951777 2.065618 -1.8384688 -0.51062644 2.1467686 -0.63744694 1.465873
455548 0.44440195 0.30209956 -0.36181948 0.58453536 1.5574474 -0.3764375 -0.98909014 -0.22248425 -1.5272636 -0.772885 -0.41872138 0.12057858 -1.6767614 0.9057058 1.2225897 2.0884542 -1.9120805 -0.54463357 2.1744497 -0.7032285 1.5192497
57703 0.17322035 0.22450764 -0.23974052 0.76477695 1.695687 -0.2608383 -1.5334938 0.1291884 -1.3567715 -0.2574327 -0.6664389 0.53560966 -1.9287558 1.3621064 1.0839883 2.2319553 -2.4069197 -0.568672 2.0557497 -0.6905317 1.4389907
477614 0.18835688 0.2630429 -0.24330325 0.7825759 1.6985602 -0.27217108 -1.505148 0.14281955 -1.3494309 -0.2649112 -0.6639077 0.53625864 -1.9159585 1.3206371 1.0617912 2.2175696 -2.4379117 -0.5399461 2.0655742 -0.6591501 1.3970795
346124 -0.20571272 0.25887635 -0.32285696 0.12252759 1.5532068 -0.6100132 -1.2919154 0.15664709 -1.2688984 -0.7204442 -0.81084955 0.07413667 -1.6360313 0.9850645 0.9929824 2.2915719 -2.0371366 -0.408611 2.1417744 -0.45438397 1.6914103
519232 -0.23727027 0.21512683 -0.2946479 0.0065240827 1.4114548 -0.5949041 -1.184824 0.13283879 -1.1423775 -0.6221812 -0.7763095 0.02684112 -1.4636447 0.934753 0.9254187 2.1096325 -1.8212204 -0.38249078 1.951706 -0.38873672 1.5350103
525220 0.39719206 0.18936366 -0.85530007 0.9953578 1.3708783 -0.3505506 -1.0967518 -0.48951986 -1.541804 -0.28587154 -0.58182526 0.73523164 -1.1915513 0.873549 1.4273465 1.6127658 -2.731603 -1.06476 2.1160955 -0.38469943 1.4872566
34122 0.34248567 0.18436664 -0.82457405 0.9566043 1.3177652 -0.31310526 -1.0919827 -0.51328945 -1.5018004 -0.27565688 -0.5750369 0.7292842 -1.1475307 0.86281466 1.4058901 1.5621158 -2.6339576 -1.0880262 2.0745406 -0.393901 1.4866543
47328 0.13866895 0.28831547 -0.25105324 1.4945014 1.8864871 -0.32531786 -1.1821429 -0.17352383 -1.8798313 -0.91116285 -0.9540758 0.8758756 -2.3756232 1.33705 1.5523959 1.7448094 -2.814698 -0.5967098 2.3285933 -1.0576707 1.3104904
101286 0.112380065 0.28969878 -0.2593739 1.452217 1.8456641 -0.36338988 -1.190859 -0.14936496 -1.8266835 -0.8634017 -0.89656526 0.9066393 -2.2647977 1.282434 1.4883491 1.6962103 -2.715956 -0.5966276 2.2473688 -1.0149478 1.2602991
537197 0.43176088 -0.10078962 -1.0609962 0.5397606 1.6979969 -0.8823669 -1.3540213 -0.10814515 -0.9316254 -0.6173579 -1.0016521 0.4467353 -1.3007491 1.0424869 1.191422 2.5371997 -2.3925898 -0.1845629 1.9023553 -1.0798521 1.6960638
356397 0.41053143 -0.10234075 -1.0452913 0.53077865 1.678062 -0.93178886 -1.3193455 -0.039781235 -0.8502478 -0.6022108 -0.99053025 0.45231628 -1.2705994 1.0449367 1.2116126 2.4969733 -2.3842266 -0.17160618 1.8929161 -1.0780466 1.6802673
100377 0.23758933 -0.021784673 -0.6602918 1.0061009 1.5213231 -0.20167755 -1.2390311 -0.69983786 -2.03595 -0.53345823 -0.41561592 -0.112454556 -1.3361647 0.5999626 1.1170222 1.8396684 -2.4070477 -1.1598705 2.296172 -0.7150174 1.0337285
325784 0.23189606 0.0028986428 -0.67952484 0.9705023 1.5406902 -0.23020492 -1.2249312 -0.7205999 -2.0055015 -0.52721286 -0.42458066 -0.08026682 -1.3132986 0.58773065 1.0947007 1.7994006 -2.4101102 -1.1468588 2.2788866 -0.6871296 1.0233406
15636 -0.34517762 1.5752342 1.190055 0.5492215 0.72262335 0.47647744 -0.8261687 -0.95443505 -1.8509384 -0.008572199 -0.4639462 -1.2909857 -1.4105759 1.5768739 -0.015128172 1.4120597 -3.2709348 -1.1731031 1.9109188 -1.5059308 1.3864138
372694 -0.33326554 1.581048 1.1744512 0.48658195 0.80863965 0.4208401 -0.84811664 -0.9299457 -1.8186736 -0.031561833 -0.45486858 -1.2643992 -1.442016 1.5886179 0.012645946 1.4454386 -3.31533 -1.1651694 1.9473983 -1.4732995 1.4492847
11926 0.4788675 0.06733447 -1.2786105 0.9189504 1.709734 -0.81558263 -0.85526264 -0.020759024 -1.6129789 -0.3473784 -0.44810554 0.0043985075 -1.7922133 1.9206342 1.0137876 1.8125372 -2.910628 -0.15551549 2.0003355 -0.88186 1.6986498
499593 0.45301548 0.06456071 -1.156031 0.9007723 1.643293 -0.7528293 -0.8203763 -0.054606475 -1.5687407 -0.33487895 -0.4786652 0.03706631 -1.7077081 1.8319011 1.0091901 1.7714375 -2.7820272 -0.18223293 1.9321209 -0.85914105 1.6260765
119582 0.29551435 -0.037341226 -1.0263608 1.1194007 1.5277635 -0.20321935 -1.6079832 -0.1111714 -1.4001831 -0.5544223 -0.42416453 -0.01744689 -1.3343165 1.1405075 1.0512211 1.6265914 -2.818833 -0.56595576 2.3688166 -1.0099461 1.7940722
412782 0.3251318 -0.050853927 -0.99926054 1.0527213 1.5314558 -0.23702273 -1.5578544 -0.13341749 -1.408904 -0.5700926 -0.3978334 0.0111936405 -1.3412035 1.1196214 1.0012207 1.6462935 -2.8189936 -0.50981396 2.2885747 -0.97599584 1.7522938
81952 0.22185002 0.6779588 0.3220074 0.7301455 1.9926836 -1.335398 -1.4557712 0.81882405 -1.018023 -0.974463 -0.61649996 1.2794901 -1.0138767 -0.08661776 1.2413146 2.3224204 -3.273122 -0.68444556 1.8494941 -0.03494702 1.1778711
247509 0.22317898 0.7181944 0.30687913 0.70419466 1.9949703 -1.3435055 -1.4672761 0.8296077 -1.046182 -1.007926 -0.6421979 1.3001542 -1.0368854 -0.09155453 1.245339 2.3830507 -3.2414541 -0.69267833 1.8200622 -0.021607006 1.1768056
421620 -0.20135145 0.6119904 -0.3642963 0.5459616 1.684271 -0.73323435 -1.4421113 0.13628475 -1.2184876 -1.2282593 -0.93615943 1.0227617 -2.083312 1.4055332 1.1304682 2.1174362 -2.1769936 -0.1654104 2.3413396 -0.73178947 0.7909034
436774 -0.2093515 0.6136818 -0.37846273 0.6108264 1.7093793 -0.793095 -1.4753289 0.1466828 -1.2685637 -1.2788142 -0.95716953 1.0967308 -2.1386907 1.4047339 1.152287 2.194342 -2.2545109 -0.14264879 2.4254055 -0.73338866 0.81425333
470983 0.47489563 0.25377816 -0.57005095 0.6129016 1.8330001 -0.5183978 -1.2290835 -0.12807226 -1.4726189 -0.6099906 -0.57615644 0.12888269 -1.8824352 0.9825356 1.2006084 1.8864416 -1.8679187 -0.26700565 2.1398265 -1.0099008 1.344012
216516 0.4520792 0.27175394 -0.58599627 0.63317925 1.8565023 -0.5191476 -1.2563522 -0.15205508 -1.4600511 -0.6371062 -0.576008 0.14725055 -1.8940555 0.9937731 1.1937156 1.8990201 -1.8530415 -0.23858342 2.1294498 -1.0591656 1.3289876
217794 0.33383897 0.37916693 -0.6919515 1.2680213 1.0653539 -0.5816269 -0.8054476 -0.5315034 -1.2832427 -0.3482547 -0.46192056 0.23064606 -1.833446 1.1649399 1.4119505 1.3448993 -3.0085168 -1.0883527 2.273998 -0.65821195 1.7595177
487633 0.3627701 0.3909616 -0.61853546 1.1817045 0.9643076 -0.517132 -0.7661887 -0.504721 -1.2150184 -0.3666922 -0.47284526 0.2405262 -1.7346957 1.146971 1.341176 1.2993097 -2.8963122 -1.0446059 2.1902313 -0.6654436 1.706496
335356 -0.20549653 0.15543474 -0.53976244 0.6834604 1.153575 -0.4240312 -1.2290461 -0.07423981 -1.3676741 -0.73367023 -0.57952684 0.65974873 -2.2762718 1.5073566 0.95183605 2.090225 -2.254627 -0.8992625 1.8028625 -0.8248137 1.8387226
