1470 27
246386 -2.107851 0.24844046 0.71108574 -2.255716 -3.9490552 -0.22929467 0.16799264 -0.3574106 2.1224546 -3.0859325 0.09011641 0.9561053 0.793059 2.4614844 2.2908275 1.5699893 1.6005919 -1.2043923 3.500049 -0.79925144 -1.2979345 0.4390851 3.2588384 -4.9557343 -2.4079595 0.47475865 0.25741443
190015 -2.7068572 3.03228 -0.2187035 3.9324281 -3.4455228 -2.0760486 -1.0709587 2.8493567 1.1958337 -3.139922 0.35462818 -0.30425063 0.146827 2.6454942 1.5668805 0.65642285 2.2538893 -2.7612202 -0.97704136 -0.51391727 1.3552856 -0.9125676 4.668743 -3.056041 -2.2224338 3.2836978 -1.7740003
468526 -2.2773197 2.5273128 0.1586671 3.4715576 -2.582608 -1.7506019 -1.3339758 2.2606862 0.7700007 -2.484544 0.22358432 -0.56230843 0.045006197 2.3381965 1.1105709 0.7563212 1.8069276 -1.9696616 -0.6270791 -0.25580722 0.9706225 -0.6932457 3.8346164 -2.740275 -1.9617729 2.6643863 -1.1265513
32104 -2.1643653 2.4600105 -0.94343567 3.01703 -2.448733 -0.9018995 -0.97772396 1.3131694 1.0953336 -2.4120395 0.513722 -0.75235486 0.008449907 1.3847849 0.2071378 0.41635588 1.8680854 -1.8128543 -0.073123604 -0.68075526 0.7280735 -0.7053781 1.9382713 -1.8513697 -1.4081303 2.1386447 -1.4017426
420863 0.6677434 3.04849 -2.6143723 2.8959484 -3.5487504 -2.589527 -2.01964 3.0959706 0.42562565 -4.6738687 1.5650593 -3.875324 -0.9273177 0.64430577 -1.7127894 0.045241017 0.56062305 -0.28502607 -0.20233697 0.017122844 0.27445674 -1.2474428 -0.09712527 1.987082 -2.1984544 1.8583739 -2.1676104
258507 -0.884202 1.0445086 -0.45451945 4.5472736 -2.4203982 -3.3387501 -0.23609571 0.3967139 0.54004663 0.099797994 -2.103553 -2.4273927 -1.1174169 2.225315 1.3179878 2.1353536 -0.55281854 -3.3047037 1.4313058 -0.94715685 1.58845 1.7424794 0.07030593 -2.3463225 -0.3262719 1.1661955 1.1624843
201246 -0.093452185 -0.3021485 -1.8369801 0.982164 -2.6262872 1.8073634 -0.95779115 1.6147572 1.4740824 -0.42886573 3.0751963 -1.5293808 1.6530324 2.7053475 1.9409885 -1.1127025 1.1391045 -0.26869732 -0.3356412 -0.26613674 -1.8412733 -2.178411 1.6774849 -1.0750258 -0.58302444 3.1734579 -2.7201617
432453 0.7853303 2.093565 2.4877667 1.7820162 -2.137546 0.9853922 -0.9456381 0.14666021 2.5042915 -3.2828064 2.924142 1.3147708 1.9201494 -1.0472277 -1.7975321 1.8710947 2.2170508 -2.7914882 -0.39627382 -1.7726998 1.5400473 -0.89629066 0.42290628 1.1470417 -0.099286534 4.9410844 0.060066763
59101 -3.4682508 2.337257 3.7399502 2.9691641 -5.0191965 0.93088526 -1.2014221 3.0513086 1.5537237 -0.97800624 1.5687526 -0.20945954 0.35733348 0.89104235 -0.112649985 2.0054626 -0.44001937 -2.875683 -2.5532315 0.60111916 1.3711362 2.2517495 3.1010852 -0.06378069 1.5992419 -0.07042344 -1.1283495
511135 -1.0323945 1.8026991 0.6632216 0.7010392 -0.93077403 -1.945426 3.5002832 2.219668 0.28780067 -0.8986069 0.57499063 2.4047253 -2.358959 1.5656364 0.8765116 -1.2133797 1.5857826 -1.8725089 -4.2901397 -0.4720038 -0.3953764 -4.0167174 3.8699014 -0.9670293 0.71773237 2.6336412 0.6113487
97211 -0.43151665 0.110297866 -0.9543744 1.4353487 -2.8661885 -3.0942376 0.40276083 3.44773 1.4710765 -0.2820268 0.21842505 2.1288497 0.29243907 -1.4901322 1.5014077 -1.0646479 -1.8572727 -3.3666298 -0.27152428 1.7655995 -0.7195394 -1.9177588 3.9759245 -2.379407 -2.1192014 2.8726292 -2.7020583
272888 -2.3096616 2.7886214 0.06282273 3.245909 -2.909319 -1.9137164 -1.2968489 2.2648976 1.116225 -2.8506756 0.11417981 -0.13216023 0.16739881 2.0416834 1.2889508 0.5402262 1.9921815 -2.2285688 -0.6994565 -0.38581473 1.269381 -0.81938833 4.133731 -2.8029263 -1.88768 2.526612 -1.4439387
516056 -1.4373131 -0.32231534 0.72306657 2.3163402 -3.081017 -0.8154464 -1.8831663 1.0377403 1.7410941 -1.1646624 0.3521238 3.5434194 -2.2020786 -0.08045523 0.62517196 -1.310287 1.7632525 -3.5848963 -4.4540305 3.4705672 1.633057 -1.1317863 2.6099727 -3.9604046 -0.5322312 1.071769 0.09394101
462375 -2.3702219 2.7035306 -0.10265019 2.759731 -2.8200774 -1.6265069 -1.2305324 2.3983817 1.1689557 -2.4246876 0.31834796 -0.30116466 0.13917555 2.0235574 1.1143931 0.54708344 1.8916503 -2.1603367 -0.7903458 -0.37612402 1.0703584 -0.8974805 3.77649 -2.5774274 -1.6674732 2.724961 -1.38258
445792 -3.104601 3.6669283 0.037780054 4.4180264 -3.6904037 -2.4261315 -1.4784195 3.1618156 1.5146637 -3.6747239 0.107104294 -0.41982847 0.17384379 2.7890244 1.643403 0.7005189 2.607026 -2.8389733 -1.0115035 -0.4462807 1.4532955 -1.0839056 5.5934157 -3.8260758 -2.5135736 3.8560734 -1.895085
53580 -3.0468073 3.6044364 0.014259087 4.4260206 -3.732236 -2.4943862 -1.543471 3.0441463 1.3781039 -3.6371703 0.21927902 -0.43268347 0.2171585 2.8582215 1.5736814 0.73647237 2.4822679 -2.8521214 -1.0371457 -0.4629658 1.4735433 -1.0454615 5.5621657 -3.7819502 -2.4602473 3.898176 -1.8844612
287442 -2.717294 3.1822693 0.07936954 3.9401762 -3.187548 -2.1591392 -1.337167 2.714707 1.2917451 -3.2144265 0.18045534 -0.4137157 0.16671434 2.33978 1.4175366 0.6472956 2.2090442 -2.4003124 -0.9479381 -0.40851903 1.2749114 -0.8999864 4.798716 -3.2621455 -2.2653775 3.3797348 -1.5921246
203406 -2.6221194 3.1271176 -0.025205765 3.735259 -3.2364264 -2.1078286 -1.3624833 2.663637 1.2691666 -3.1473153 0.13390067 -0.39845985 0.17225447 2.4230037 1.3926867 0.549817 2.2309632 -2.35266 -0.9622599 -0.3849033 1.3092993 -0.90961325 4.7424507 -3.1863952 -2.1506324 3.2621171 -1.5680189
156151 -2.4744503 2.822743 0.00836179 3.3909812 -3.048678 -2.1425397 -1.2311857 2.4390948 1.0918102 -2.9804974 0.2518478 -0.28543952 0.12090594 2.3645046 1.3012055 0.52524316 1.9700999 -2.224457 -0.8458736 -0.30820078 1.2717054 -0.9095088 4.444525 -2.9565775 -1.8382753 3.2194333 -1.6054374
476581 -2.4448464 2.7599764 0.030245688 3.2247002 -2.7519214 -2.1347122 -1.2558876 2.3966124 1.3955559 -2.754962 0.2557012 -0.53524494 0.41744637 2.0520065 1.365122 0.35097173 1.8410165 -2.1192422 -0.7884027 -0.5846601 1.1169236 -1.0280118 4.192176 -2.970482 -2.0091093 2.8468418 -1.4463254
540008 -2.1788907 2.762438 -0.20891868 3.377713 -2.5778477 -1.9340454 -1.1851829 2.005529 0.97979426 -2.5033417 -0.09830149 -0.61213624 0.0786598 2.066736 1.1396588 0.61048263 1.5003963 -1.9821073 -0.77232337 -0.032509364 0.7727294 -0.70331895 4.067539 -2.649035 -1.6137317 2.615354 -1.4128574
145651 -2.2287257 2.4733324 -0.059295803 3.0904074 -2.7710047 -1.865475 -1.1324061 2.3156517 1.0211865 -2.531087 0.18567637 -0.25953192 0.111419454 2.0671904 1.2093307 0.48162708 1.8269516 -2.0652614 -0.8142783 -0.26728177 1.0880176 -0.8984251 3.9756382 -2.777443 -1.711671 2.7189248 -1.34598
45356 -1.9602287 2.4401062 -0.03237916 2.9724972 -2.3559003 -1.3582466 -0.91325766 2.215911 0.8819808 -2.4360275 0.2514445 -0.34985116 0.26648936 2.014166 0.7566276 0.5545822 1.7791766 -1.7608653 -0.69051546 -0.18509546 1.1578844 -0.72482294 3.5639477 -2.3704128 -1.7728889 2.9724112 -1.1661088
379947 -2.0207903 2.4251387 -0.042208202 2.8296893 -2.4284663 -1.5119427 -0.91772825 2.044114 1.0592836 -2.3842819 0.16784169 -0.17654122 0.11737947 1.7072992 0.9786994 0.619019 1.6240602 -1.696408 -0.6780082 -0.3605137 0.91964275 -0.6019461 3.507906 -2.4365256 -1.5779091 2.5669422 -1.2552502
32930 -1.6029934 2.5126028 0.39809084 3.0318558 -2.0272925 -0.99120784 -1.0240577 1.7638736 0.8421831 -2.241807 -0.35509977 -0.23969795 -0.09598067 0.9972362 0.54961246 0.77313256 1.9219303 -1.7953357 -0.51870984 -0.4263885 0.4056681 -0.4653895 3.4198096 -2.1564312 -1.8348712 2.1890242 -1.0265224
343242 -2.0466123 2.199381 -0.12026066 3.223871 -2.306746 -1.8233278 -0.90044457 1.9031794 1.043415 -2.4426033 0.009801074 -0.5936586 0.2086967 2.0734656 1.0295823 0.33328727 1.7629775 -2.026164 -0.53497076 -0.37929457 0.71516484 -0.8878625 3.582447 -2.2525003 -1.4412142 2.6208024 -1.3021319
40490 -1.7416561 1.8403858 -0.07799989 1.9249681 -2.0640152 -0.7760696 -1.1211545 1.830735 0.836217 -2.449074 0.60136986 0.06022433 0.4357706 1.4805442 0.6374654 0.15719332 1.8990641 -1.2416047 -0.8591979 -0.04449073 0.29723838 -0.92744434 3.1133966 -1.8530563 -1.4967659 1.8957933 -1.4661087
109029 -2.067755 2.1988475 -0.03965441 2.5651472 -2.522773 -1.2313184 -0.8449427 1.9565814 0.86092156 -2.4117324 0.2109892 -0.19098738 -0.030402165 1.6211418 1.1341101 0.32936305 1.4490817 -1.6127437 -0.7623209 0.012976028 1.0263159 -0.8836737 3.4987228 -2.367315 -1.81174 2.6334283 -1.1294994
49756 -1.6226406 1.8756888 -0.18387717 2.1366103 -1.9930254 -1.4634688 -1.2593354 1.5538133 0.54289365 -1.5954185 -0.07258265 -0.55057234 -0.2709081 1.3417666 1.0763289 0.28071502 1.3222259 -1.4035095 -0.24858353 -0.14786388 0.023020925 -0.30261257 2.88888 -1.9266878 -1.093613 1.6653093 -0.92329186
485523 -1.7408454 2.1992443 0.11858848 2.6525247 -2.2305448 -1.4101214 -0.8141172 1.974462 0.88101983 -2.1235988 0.3376425 -0.27001777 0.08771328 1.5775245 0.90048003 0.5169847 1.4078046 -1.7083696 -0.5578103 -0.1292978 0.9684403 -0.6355663 3.3364604 -2.1083171 -1.5259973 2.4461732 -1.0682784
444928 -1.6352717 1.8845669 -0.25863472 2.0017292 -2.2289765 -1.7726012 -1.7220594 1.7027639 0.7710133 -1.949304 0.32519454 -0.36400375 -0.10838144 1.0645608 0.5343982 0.12988031 0.9677463 -1.2614126 -0.80581063 -0.6948116 0.21481696 -1.1800096 3.2468562 -1.6066169 -0.698491 1.8997005 -1.2976207
267002 -1.445922 1.0229625 0.33956748 1.6511365 -2.524287 -0.36077917 -1.6959479 1.8336681 0.52145684 -2.0735233 0.8009012 0.501193 -0.59299403 1.9306527 0.29378214 1.0433644 1.5611275 -1.7211341 -0.51309794 -0.1821997 0.4775576 -1.5329835 2.119357 -2.1512864 -0.84441084 1.2021571 -0.6424264
528277 -1.7193781 1.9039692 -0.14400801 2.4384296 -2.0317833 -1.4822674 -0.7973582 1.5368606 0.9484302 -2.064355 0.04919995 -0.39426392 0.098075025 1.5042675 0.91202736 0.29597577 1.6310064 -1.6523272 -0.64614725 -0.30542395 0.72582674 -0.5482324 2.8757026 -1.9787939 -1.399747 2.1759837 -1.2391534
377813 -1.7665733 2.036425 0.08123256 2.4228263 -2.150202 -1.2293822 -0.96606666 1.6047902 0.78482246 -2.0805318 0.0088613015 -0.31633192 0.085622914 1.6597817 0.8767173 0.41853562 1.3502086 -1.4161295 -0.5360391 -0.20602143 0.9322872 -0.6003876 2.9559035 -1.9946227 -1.3830616 2.1968324 -0.9438716
390489 -1.7126462 1.6934702 0.37262908 2.1210072 -1.9792349 -1.1357305 -0.57845765 1.7779884 0.86971027 -2.1785147 0.044792898 -0.44611087 0.29810217 2.0636625 0.6894719 0.69112056 1.2762725 -1.4793316 -0.95021784 0.1265674 0.6349932 -0.7558982 3.027346 -1.554185 -1.3457683 1.6503487 -0.85373646
180388 -1.3657954 1.6684109 0.06422765 2.6146188 -1.629513 -1.4341033 -0.8548226 1.2935156 0.615026 -2.253266 0.05234184 -0.036142096 0.032325372 1.4085834 0.7452032 0.3114548 1.1724098 -1.479097 -0.73994756 -0.055640236 0.8922322 -0.85242486 3.0102077 -2.0703673 -1.2924716 2.0237722 -0.92308295
7679 -2.0118692 2.1862488 0.23513137 2.56221 -2.3572307 -1.5007597 -0.8981597 1.6087326 0.8789242 -2.2155094 0.027540075 -0.030010639 0.069798425 1.5796137 1.1972954 0.27500123 1.508127 -1.4804205 -0.69399416 -0.4044845 0.7493723 -0.6389044 3.349216 -2.125318 -1.5240403 2.4484036 -1.4526535
37870 -0.8627228 -0.07376622 0.0069664186 3.7382472 -1.2450899 -1.6261927 -1.5392953 -1.0784262 -1.1530766 -2.4946895 1.8607574 -0.329912 0.5141059 1.6162761 3.3436337 -0.92398345 -1.6690079 -2.3474374 0.5217516 0.506827 1.0458089 0.9695589 3.2023833 -0.6138192 1.692336 4.2748094 -0.27979776
30127 -1.8162541 1.4500328 -0.2253118 1.322624 -1.7049959 -1.7377919 -0.08549276 1.2978361 0.60469455 -1.731606 -0.24766473 -0.35841382 0.6388661 1.6655363 1.7126824 -1.0241483 1.28509 -1.1317716 -1.6225392 -0.3946888 0.26241356 0.024786705 3.2701256 -1.8786492 -0.39482313 1.5891688 -1.6946198
472529 -2.0162761 1.8894705 -0.0784812 1.9005394 -2.1346004 -0.6494203 -0.7895124 1.5064616 1.1095917 -2.0792737 0.37779605 -0.6185781 0.51590806 1.1252215 0.57358754 0.29794282 2.0054457 -2.240925 -0.13536964 -0.37874547 0.2819319 -0.69181496 2.5618804 -1.7487239 -1.2558186 2.0227442 -0.7727341
244667 -2.0573761 0.37595665 -1.7861781 -0.57043695 -1.8570858 -2.0653164 -0.17151031 2.127758 1.4277736 -1.7867132 1.8924289 -1.4053515 1.2993501 1.7582433 0.5667236 -1.9160643 -0.038470935 -1.882631 -0.45643187 0.5184165 2.496107 -1.7464162 2.285434 0.4952677 0.12906183 2.2448895 -0.7527694
220000 -1.3052181 2.1176355 0.06882895 2.1654162 -1.9728063 -1.5883828 -0.834 1.5865301 0.83197355 -1.8521142 -0.11380396 -0.32670408 0.025109317 1.6406759 0.7829947 0.66942316 1.2190082 -1.2192436 -0.54289675 -0.09509635 0.80748194 -0.945344 3.0674667 -2.1412075 -1.3695099 1.9541749 -1.1269803
508807 -0.9623836 1.7483194 -0.26039785 2.3230717 -1.4032049 -1.9185477 -1.0612988 1.722268 1.2524744 -2.090049 0.49862924 0.3661894 -0.9533475 1.7418555 0.8818254 -0.316369 0.88733125 -1.3536961 0.4488549 0.40899548 0.99921286 -0.4992534 2.355808 -2.4531574 -2.1764576 1.8325633 -1.1414363
97603 -1.7338396 1.9318572 0.13247757 2.0194075 -2.2946844 -1.1353619 -0.8871865 1.313174 0.6163596 -1.8528954 0.39941245 -0.25141993 0.5240457 1.5778098 0.55284864 0.3065075 1.3102678 -1.6797647 -0.50441706 -0.32985732 0.58873135 -1.0395217 2.95627 -1.9470183 -0.7962707 1.9527407 -1.1024626
284648 -1.272506 2.1120937 -0.25826055 2.724883 -1.5480888 -1.744134 -0.8351003 1.6590289 0.6478874 -1.8356125 0.19615287 -0.16118054 0.34438023 1.7084048 1.4388049 0.24599583 1.6156704 -1.3197048 -0.7283097 -0.10803604 1.2316155 -0.48953563 2.8880682 -2.1804388 -1.3981535 2.1972847 -0.87837565
346253 -1.2610518 2.1328158 -0.12896842 2.4343638 -1.5539412 -1.5837876 -0.9589398 1.5271261 0.5056358 -1.6550713 0.101129755 -0.39493316 0.23521815 1.2343348 1.0240947 -0.0016684539 1.2194933 -1.8415703 -0.27003056 0.032729384 1.0442331 -0.3895585 2.636716 -1.9705839 -1.5158037 1.8234369 -1.0098212
359460 -3.4777956 2.4971557 0.86376095 1.905162 -2.1015394 1.4342691 -0.76622266 1.9904156 3.5831525 -2.3352923 0.7614233 0.7956866 0.45680094 0.7687748 -0.4782123 2.4548898 1.1074909 -2.028975 0.69713265 -1.5012 -0.40129855 0.7127621 2.5360496 -1.789384 -1.3651202 0.47731122 -1.0225688
190285 -1.6805319 1.3653471 -0.22466317 2.8073473 -1.927307 -1.2432472 -0.72302717 1.0464039 0.6514323 -2.159985 0.17861731 -0.7878466 0.29933885 1.8225604 0.56370574 0.24943733 1.4493039 -0.7187469 -1.0039653 0.16609822 0.9166109 -0.5859689 2.9355116 -1.7430112 -0.80465496 2.2225847 -0.71913856
229131 -2.1440673 1.7345031 0.44288594 1.8182636 -1.8268626 -1.3278348 -0.40092987 1.7139573 0.5482888 -1.5915822 -0.099227056 0.17885105 0.13503332 1.2519388 1.3719256 -0.025488244 1.7690418 -1.3656414 -0.64405125 -0.105703816 0.3591949 -0.5887704 3.1750448 -1.7602338 -1.1110259 2.321327 -0.9188156
395196 -2.666727 2.5865643 -1.1797564 3.7030077 -0.032985494 -1.9528396 0.7364221 -0.15890458 0.4852756 -1.7784787 -1.1472363 -0.6280473 -0.28638795 -0.11871911 0.4281444 1.457653 1.0467932 -0.3750119 0.10218714 1.046081 -1.2405242 -0.08844184 2.8081834 -1.7308929 -3.4146786 1.9432226 -0.95383185
541214 -1.3548044 1.3480164 0.56698734 1.6174489 -2.0710213 -0.64219636 -0.77149504 2.0778735 0.1403678 -1.489092 0.31674895 0.81949246 0.46030104 1.2411363 1.3741409 0.32390687 1.3180323 -1.726348 -0.7360359 -0.0038750814 1.1944803 -0.5260915 3.0140843 -2.4031665 -0.55105853 0.9130261 -1.3087316
269269 -1.1274209 2.3689952 0.20928606 1.7695334 -2.0665696 -1.3488253 -0.93305695 1.9437089 1.1851169 -1.2581421 0.57101023 0.20035307 0.3977582 1.3378689 0.07812968 0.6775094 1.5312047 -1.4700313 -1.2191672 -0.9057088 0.83204406 -0.8943153 3.072193 -1.7221413 -1.5389247 1.4776202 -1.6980623
176615 -2.2127042 0.070642106 0.6324496 3.1446722 0.14617904 -1.0280315 0.5043611 2.014535 1.1713581 1.339247 1.5914708 1.0245727 -2.4833076 1.4264699 2.1689143 0.15982778 -1.0664492 -3.12837 -0.60099703 0.37788612 1.515024 -1.7701459 2.892791 -3.5973864 0.71184397 0.07198375 2.0947623
195172 -0.7125134 1.4351628 0.95032865 0.45006308 -1.948503 -0.37749198 -0.44870472 0.09888872 -0.60447025 -0.30660468 -0.09262453 1.6698205 -1.1648782 0.94376934 1.0803431 0.38751814 2.494436 -2.5082476 -1.1194739 -0.7278232 1.8127195 0.0884903 2.1991408 -3.8914604 -1.3337629 3.6257415 -0.060459457
277214 -1.568787 1.9258102 -0.3086928 1.8999674 -1.7760828 -1.4208769 -1.1596218 1.6036167 1.2981354 -1.4921483 0.08763256 -0.7539258 -0.5420509 1.7255282 0.9858987 0.45652908 1.5297856 -0.73691076 -0.51392436 -0.39049765 0.8537851 -1.0004003 2.87128 -1.5332643 -0.83004916 1.9261045 -0.69824785
182974 -2.9731941 1.64671 -1.4765905 1.8003037 0.7704641 0.5771407 -0.2689079 3.2221637 -2.1523602 -0.6216378 0.5530536 1.1393468 2.3693068 2.4200454 0.5162839 -1.1639504 0.53305435 0.66203654 0.744611 0.79777896 -1.0605035 0.26152238 2.3502536 -1.6593478 -2.6534736 4.7936172 0.7080578
397181 1.4493135 3.771532 0.6706776 1.6179935 -2.6837652 -2.5388083 -0.65307224 0.29747814 0.4841681 -2.0653772 0.77748644 -1.8632345 -0.08437292 1.9076775 -0.24510229 0.06349407 2.0779457 -2.0182507 -0.062395446 -2.4793262 1.1360681 1.4458112 3.0604477 -0.4279066 0.6967958 1.9224014 -1.2783568
106197 -4.1208525 0.8079095 -1.3698725 0.6407183 -1.0535891 -1.8048811 2.2478554 2.1988988 -0.49934548 -2.5785186 2.250374 1.7948898 0.44111985 0.039293237 0.10074937 -1.4859118 0.20938231 -3.405008 0.9615494 -0.0753413 0.7362621 0.29692554 1.7214074 -1.0306727 -0.91854274 3.5993662 -3.8130283
543605 -2.014385 2.6379158 0.40809155 2.1920574 -1.5559789 -1.198376 -0.44586244 1.3534658 0.508552 -1.2647946 -0.4713822 0.28210974 0.15619598 1.1838366 0.94876784 0.30103204 1.8333789 -1.6185621 -0.66986513 -0.16723974 0.54442203 -0.29828984 3.006103 -2.2009234 -1.6001244 1.8358258 -1.3571826
61781 -3.9698486 2.043941 -1.0419693 0.5572143 -0.18036793 -2.78086 -1.8301231 2.4346418 1.836726 -0.033524215 0.07115115 -1.3481901 -0.60552746 2.0976927 0.45003298 -1.8281406 0.37639782 -0.18497421 -0.3575295 -2.1274233 0.08313597 1.1479607 2.5067866 -3.2742436 0.23390256 1.4792686 -1.2244347
206973 -1.1965187 1.7018561 -0.42600447 2.8762138 -1.8897841 -1.830324 -0.7199131 1.0359483 0.72239804 -1.7237284 -0.284182 -0.32235283 -0.32890242 1.8220145 1.525875 -0.15353635 1.0366112 -1.2666935 -1.4571272 -0.28438842 1.6597008 0.26533037 3.3036213 -2.332766 -1.561509 2.1399581 -1.3738331
544615 -3.1006541 2.4452114 0.3996265 1.6099361 -0.60579926 -1.0379217 0.09338893 2.1538947 0.32071957 1.3080355 -1.6537613 1.2945054 0.6258806 3.1686866 2.1328967 0.4999468 2.026294 -1.3209859 -0.021099683 0.33952338 2.0863376 0.42377645 2.6129751 -4.1527762 -0.6681401 0.025535254 -1.2043362
169419 -2.7503963 1.2119346 -0.41006893 1.0449 -1.5277574 -0.4059963 -1.0575196 2.3555546 1.5555654 -2.143379 0.84047353 -0.41831204 0.17067148 1.396797 0.7794424 -0.21943556 1.4002073 -1.0638659 -1.249383 0.24007551 0.5787737 -0.14070141 2.5646546 -1.8632782 -0.97082555 1.6928501 -0.99800146
348683 -1.9073195 1.7207825 -0.22584192 3.084989 -0.5899247 -1.6267354 -0.57884234 1.3293322 1.0587109 -3.1451643 -0.27517983 -0.842599 -0.7871666 1.2853621 1.0995655 -0.05396586 1.7918066 -0.63213855 -0.15552367 0.25854033 0.61910063 -0.612632 1.3091351 -2.1296248 -2.243493 1.8622017 -0.5957647
33379 -3.7697155 0.46410474 0.04436982 2.337289 -4.1596446 -1.0482736 -2.154399 0.6976655 -1.3624117 -3.8946092 -0.65135676 0.7950004 -1.9565187 -0.07127957 2.0193324 -2.3342395 -1.001176 -2.2574902 0.28821355 -0.7587287 0.9672304 -0.69530624 1.8235259 -1.8974421 -0.015488126 1.9406605 -0.23845224
111574 -3.2902184 2.9313185 0.48193377 -0.34946817 -1.6805521 -0.77869385 -0.154565 2.2465355 4.475873 -3.0137665 -0.06577066 1.9438634 -0.13615173 -1.5960726 -0.85056275 -0.3617355 0.17219776 1.0247706 -0.27460662 -0.43055356 -0.7651345 1.2020446 3.2614996 -1.174792 -1.4206153 1.9246613 -1.7004713
458483 -1.0607306 1.3513384 0.5833059 3.3092256 -1.5286208 -0.5898489 -0.36183748 2.3022132 0.64461815 -1.8927686 1.2776343 -0.06161798 0.766355 2.350442 0.564136 0.15516748 1.5739067 0.008232323 -1.6772789 0.55809987 1.7324106 -0.84414005 2.7762218 -0.8069708 -1.3931241 3.098657 -0.18019865
128925 -4.0119824 0.18728328 2.715949 3.4166706 -0.09617264 -0.35564992 -0.7586529 2.5350327 -0.7898375 -2.1904585 -1.0615693 -1.9676275 -0.36206156 0.7238454 -0.73382354 2.315189 2.5091624 0.01679535 -2.6337063 0.3315766 1.7892765 0.18716069 1.0422084 -2.56386 0.27664366 -0.08881341 -0.4982119
394234 -0.48116803 2.2371883 -1.5459806 2.7147598 -1.5828801 -1.6689819 -2.1613035 -1.0257192 -1.5209233 -1.3865732 -1.1394863 -0.57692146 -0.1250693 -0.13566189 2.1267536 0.5839551 -0.012824499 -0.5430355 1.1678677 -1.0642312 -1.2450451 -2.892426 3.398084 -1.350279 -3.0407124 -0.76022196 -4.0172863
543078 1.0804206 0.3702663 1.5740894 0.7092088 -2.485561 -0.908006 -1.5974363 -0.841425 1.6310835 -2.923916 -0.76665556 1.4647886 1.8916198 3.180191 2.0227754 3.660624 0.052754465 -2.8679206 -0.5229339 -0.63951254 1.8296872 -0.47414422 1.7331169 -1.9559758 2.1149232 1.5462849 -2.7832556
455569 -2.5468962 1.7094394 -0.84237134 0.37591845 -1.7077332 -0.015757255 -1.3259002 0.21534647 3.362104 -1.8418933 -2.0281553 0.80654013 0.49181733 -0.09054717 1.5318391 -2.5897272 2.9805129 -2.9465823 -0.24056342 -1.7662257 0.2229184 -0.52744734 2.817618 -1.8994765 -1.5000461 0.8769653 1.060458
499830 -2.6772525 -0.014875524 1.3467642 1.9167831 1.2530824 -3.2561 -2.4050736 0.6709524 0.6602246 -1.2326233 -2.3536088 3.1559815 1.4509871 0.7312385 -0.32564458 -0.65620625 1.9412508 -0.8805506 -0.5044989 0.98471797 -0.71998125 0.83624196 2.097261 -2.8128998 -2.5355659 1.6280674 -1.1814708
378959 0.24235937 1.1643914 0.60464483 0.67030865 1.1803021 1.1430017 -1.3580416 1.1144388 1.476528 -1.4695241 1.29694 -0.4598609 -0.90498537 0.66388124 0.005483311 0.6259149 -0.36473823 -0.8834794 0.59465647 0.08450222 2.6308424 -1.7294735 5.2146754 -3.997571 0.8449427 2.8718834 -1.8299803
95873 -2.1484203 0.83036095 0.24161428 3.9085457 -3.243738 -1.254388 -0.5370402 1.4730307 -0.8590013 -2.8376293 -0.5249583 -1.8051925 -0.060334347 2.929517 1.271342 0.09201861 0.8524831 -1.3305464 -2.2830012 0.27884445 1.7032411 -0.89467263 1.783971 0.9192399 -1.9180212 1.5111504 -1.220922
366262 -0.8606797 0.98057526 1.2912716 -0.03823685 -1.0583394 -2.5197794 -0.5581995 3.7451606 0.44846487 -2.3300996 -0.21252221 -2.4600892 0.9814584 1.9980073 -0.07391752 -2.0353599 -1.35874 -1.1991785 -3.5245824 -1.253123 0.078742266 -3.4675891 3.999513 0.5486882 0.7099151 1.0578347 -2.4725566
449282 -3.8930378 2.9289753 -3.0587387 1.5467432 -2.3723636 -0.03661656 0.4349349 1.7236642 0.46520314 -2.848257 0.2223312 2.202228 -1.7622527 1.1151874 2.6731288 -1.9500035 -0.1526449 -0.29432645 0.27114892 0.40956026 -0.41594145 0.49511242 0.51183885 -0.4728328 -2.5622568 0.58026105 0.9957619
99944 -3.8855898 0.69651747 -0.0066574295 2.1843827 -2.9458191 -1.0705969 -1.6201802 2.906442 0.020945558 -3.413903 1.8276157 1.842512 -0.7594918 1.9199735 1.3234512 0.5983452 -0.008459714 -0.2959206 -3.034982 -0.59229213 0.61024225 -3.4531224 -1.2488971 -0.8089987 0.6087805 1.3106098 -1.4242904
397555 -1.9941989 2.0860257 1.8683125 2.682666 -1.2650865 0.65050095 -1.2515897 0.9269183 0.62197036 -3.4493132 0.27115262 -0.066235684 -3.686154 1.2158494 1.5282109 -1.9023808 1.8106092 -0.6339983 0.14581452 1.2565043 0.9243037 -2.6616333 1.76627 0.42617163 -1.6575683 3.9243884 0.8875067
101982 -1.7037418 1.7209355 -0.44751117 0.79139435 -1.9974672 0.45048773 1.097879 2.7664833 2.4658785 0.92905223 1.1574894 0.0015912408 2.5645378 -0.70149493 -0.5175008 2.1795425 2.261297 -1.1853486 -1.9356664 -1.5552742 2.6603663 -1.855179 1.797415 -3.498652 -0.4213135 1.7534115 -2.0066762
503589 -0.5349622 -0.24590759 1.4401256 3.3605385 -0.87509274 0.9732859 1.5549185 1.3509259 0.38636962 -3.1889758 -3.1909401 -1.0692775 0.17733933 -0.3172931 1.9115696 0.64764917 1.9641173 -1.2254057 -0.32019648 -2.0263426 1.3818882 0.58179015 2.5248091 0.3645643 -2.059605 0.040383834 1.7349871
173349 0.2553614 1.264494 0.21941993 1.8531849 -2.1190736 -3.7742765 -1.0295334 -0.37660012 -0.48589948 -1.9716686 0.5040954 -0.36835963 -0.28313485 0.24705318 -0.6634701 0.25281325 -0.74073595 -5.4810038 -1.3239441 2.6849153 1.266037 -0.85019076 1.8016734 -1.8108274 -0.6407738 2.4274597 0.8878177
530588 -1.871067 0.47037974 -1.6176794 -0.691724 -1.9536836 1.7759655 -0.67315483 1.587738 1.7882502 -3.694272 -0.9858143 0.98168886 -1.695318 1.4444494 2.3206732 -1.3171731 0.87313837 -1.2839934 1.4714949 1.0917255 -0.31766 -1.1703646 3.1744792 0.14736159 -0.10715588 3.894616 0.34123513
152300 -1.524939 -0.68733484 0.356588 1.5930846 -0.3687222 -0.5341502 0.5539759 0.7795592 0.61716056 -3.8236427 0.44809452 0.542794 0.52587897 -0.773806 2.6649575 -1.5453862 1.8894072 0.16148388 -2.714116 0.1399052 4.301263 -0.7287619 0.9212181 -2.1761808 -1.8757364 2.3149838 0.5629567
261814 -2.2194982 4.2209888 1.717698 0.7093946 -0.16859762 -0.22711647 1.3075341 3.7573051 2.3909414 -3.1758523 1.0471269 -0.12309349 2.0903692 0.15066354 1.4322765 0.9607866 -0.3527593 -0.53812283 0.9200556 -0.74909854 1.4105994 -0.889212 1.7993803 0.25485572 -1.0150821 -0.908863 -0.3795197
310726 -1.9950986 -0.8447438 -1.5339526 2.1037247 -3.5877855 -0.7085498 1.4555528 3.588207 1.6656616 -1.191944 -0.3001219 -1.7176279 -0.913455 1.5891027 0.23160642 -0.42701495 -0.74839175 -0.62024 -0.5346517 -1.5532207 -2.2301657 1.6242424 2.9767408 -2.123837 -1.7414407 -1.2070268 -2.5113416
221049 0.26986793 2.313944 -2.6353655 0.47855118 -1.7857019 -0.2836637 1.8689556 0.55762714 -0.46626607 -3.5319903 1.4490108 0.14385496 0.09751332 1.8367847 0.83987147 0.7047372 -0.05240604 -2.0922918 1.3483423 -2.180652 2.504753 -0.39929327 0.44903755 -2.387849 -3.409408 1.7711469 -0.6931415
314484 0.3399281 2.0139198 -0.36267304 3.2669892 0.9209741 -1.6561229 -2.746071 -0.31011608 1.9315261 -1.7697523 0.83903813 -0.84064686 -0.21185736 0.39524674 1.6015937 -2.5290477 0.9194184 -4.0963655 0.46986613 1.0005982 0.7992092 -0.9089487 2.7555053 -2.4508896 -1.5331519 0.9324339 0.19836953
332068 -1.3796567 0.8799889 -0.2921782 3.018294 -0.053073592 -0.41510338 -1.1265296 3.2940283 -1.5607557 -0.7033632 1.1270795 -2.5995905 2.429798 2.1367164 1.0915037 1.185804 0.43408927 -0.6457402 -0.3942092 -3.7962966 1.446714 -0.063760445 1.1004955 -1.1308221 -0.064718924 0.49056205 -3.1859996
541384 -0.5293957 1.0246766 1.0849376 1.1161832 -2.9883518 -1.8145374 -0.04713075 -0.30181533 1.0544183 -0.33310917 0.6557838 0.700468 -0.25015712 2.3486555 0.8614969 1.0584775 0.194641 0.03139515 -0.12068863 2.5845978 0.805472 -0.7929166 2.9929862 -1.0936964 -1.4095173 -0.29964855 -1.9139303
327259 -0.7719155 -0.71711934 -0.47878763 0.7682659 -1.3996301 -0.46322393 0.80875885 0.7225971 1.5651608 -1.4999725 -1.2378412 1.3333613 -0.42788872 0.11476008 0.5309465 -0.34403884 0.38720652 -0.6505414 -0.13697425 0.23127781 -0.74294424 -0.6007686 0.5240906 -0.9205018 -1.8548138 0.38177893 0.2128299
485575 -0.1596154 -0.061215173 -0.3913871 0.28157687 -1.5716703 0.74047476 0.55838466 1.1991692 -0.22485559 -1.3681355 -0.8899617 -0.59676474 -1.0606441 -0.1452017 1.203998 -0.4177974 0.30356088 -0.26266205 0.7442876 -1.0446576 0.2454527 0.52684003 2.2514224 -0.5286332 0.93527454 1.5329922 -1.707941
335326 1.3709825 2.4188013 2.156628 3.2476509 -1.2088878 -1.1020187 -0.07401472 1.5830866 1.8929775 -2.1568217 0.11257598 -3.4233205 0.21239732 0.5048015 -1.9302549 3.8213303 2.5484557 0.97172964 1.3069373 -1.0765979 0.09861238 -1.0700299 1.7966411 -0.7249827 -1.195017 2.1526368 -0.8154548
35130 -0.67606014 3.8071911 0.27000475 0.17196837 -2.788758 -1.4812206 -1.2630986 1.6241407 1.7795787 -0.069191195 2.4232943 -0.18980059 -0.8177425 0.3850777 1.8544253 1.6161181 1.4650092 -2.7373507 1.5596863 -0.8881975 -0.3872839 1.2674762 1.2011284 -3.9469178 -0.3906246 1.3781364 -1.1586928
342708 -2.3736439 2.7130775 -0.002542988 3.4342594 -2.8933988 -1.8306382 -1.2180619 2.4104514 1.216504 -2.8542345 0.076806955 -0.3572395 0.22472107 2.1282954 1.2570785 0.60354096 1.9848658 -2.1834457 -0.86543673 -0.33624414 1.1151216 -0.799977 4.2384605 -2.8403647 -1.952697 2.9359047 -1.4835571
484146 -1.4242705 1.9409592 0.25886396 2.0745177 -1.8262179 -1.0648601 -0.69899905 1.7329813 0.9280513 -2.0190787 0.109114476 -0.2835831 -0.21259488 1.7869573 0.85285115 0.22618392 1.3864375 -1.4728642 -0.5698638 -0.45636314 0.9028899 -0.51337194 2.7079618 -1.8788666 -0.9819259 1.8664498 -0.85123783
169752 -1.3464383 1.0445768 1.2784677 1.883532 -0.24951577 -2.1488395 2.7831862 1.1248068 -0.3786856 -0.24732636 -0.677597 0.35811678 1.7287916 0.55611646 3.3815682 -0.50577486 0.9498054 -3.3005643 -1.6795609 -1.4002316 1.9574708 -0.25413647 4.739386 -0.29088902 -1.125397 -0.063068524 -1.0611559
342237 -2.15642 2.4738955 -0.00027147424 3.1174457 -2.4892256 -1.6989995 -1.1025964 2.0731015 1.0766542 -2.6140337 0.08518735 -0.29629126 0.1365207 1.9356172 1.1510015 0.5063695 1.7738686 -1.8986704 -0.70079017 -0.28858307 0.9771226 -0.64233583 3.7746863 -2.6303313 -1.7028831 2.5574071 -1.3280467
155892 0.3608756 5.060782 0.04848377 0.31396824 -1.2584721 -2.462226 -0.7222537 2.9163558 1.3516867 0.8170752 -0.4505335 -2.171497 -0.26395443 -0.5480379 1.539102 -0.6839618 1.2916377 -1.1999367 2.2279415 0.08892957 0.16398056 -1.8798302 2.1797504 0.10632891 -1.2895494 1.269332 -0.9405611
70073 -1.1747451 -0.78226274 -0.62974036 2.3198638 -3.8767605 1.0714804 -0.4062895 0.30699846 0.0074743177 -1.1035318 -0.29684487 -0.4956078 0.277668 3.4931426 0.12424745 0.015967892 0.7593509 -2.2315848 -1.1225789 -0.8767888 1.227281 0.47954097 2.797149 -2.9051008 -0.64807206 -1.3486948 -1.5117289
481562 -1.0723524 -0.84785146 -0.7465424 2.1330884 -3.7729256 1.1281899 -0.26200944 0.18897584 -0.04487205 -0.8843881 -0.37269846 -0.45160475 0.28769717 3.3530836 0.10484026 -0.05526457 0.7188891 -2.1857305 -1.0151719 -0.977785 1.1393613 0.51075107 2.7121062 -2.8502247 -0.6529125 -1.4948268 -1.4752533
248455 -2.0962145 2.438674 0.022536486 3.0671544 -2.454598 -1.6314462 -1.0809953 2.0701106 1.028137 -2.5857947 0.10825368 -0.30024314 0.14024816 1.8642684 1.1332539 0.49714667 1.7245823 -1.8577569 -0.7016483 -0.27707765 0.9904611 -0.6358057 3.681218 -2.5436332 -1.6580719 2.5084388 -1.3041884
324697 -1.2626703 0.9143714 1.4714301 1.9109503 -0.21104929 -2.1617033 2.773723 1.1005325 -0.42092574 -0.29411024 -0.8603155 0.37707937 1.6662161 0.48942873 3.5642471 -0.5468918 1.1039814 -3.318974 -1.7030191 -1.3930199 2.060475 -0.31024754 4.903384 -0.26030383 -1.2514431 -0.07678516 -0.9700211
9351 -1.4129918 1.8613977 0.26557347 2.0466785 -1.7812878 -1.0643091 -0.637471 1.6669452 0.8675559 -1.9409676 0.083396584 -0.27511254 -0.16983989 1.6877935 0.8281684 0.21650687 1.3387079 -1.4425362 -0.57501376 -0.40110728 0.84924483 -0.46912557 2.6969318 -1.8445793 -1.0040358 1.8724701 -0.8343233
359321 0.40656382 5.2802205 0.065101355 0.45882747 -1.3082094 -2.5946324 -0.7960618 3.200595 1.4418216 0.6901842 -0.45331985 -2.191504 -0.21436603 -0.47697663 1.520448 -0.73569256 1.3449878 -1.1866559 2.3327162 0.091941334 0.29533488 -2.0723572 2.3799937 0.15523188 -1.4662682 1.4352595 -1.1049236
194784 -2.3711617 2.6931643 0.025905883 3.388595 -2.8685353 -1.8212847 -1.1849631 2.355839 1.1872894 -2.7980266 0.09387506 -0.34334671 0.19218042 2.114717 1.2193102 0.57264334 1.9894841 -2.1673753 -0.8577807 -0.3216516 1.1132005 -0.7738001 4.187161 -2.817677 -1.9051659 2.9121518 -1.4363816
75420 -1.067173 -0.14666519 0.46833304 1.7514211 -2.373561 -0.6836448 -1.2585704 0.8191474 1.1324133 -0.8523847 0.24880856 2.5168009 -1.6389912 -0.0691542 0.57140636 -1.0991218 1.2934698 -2.7203503 -3.2244954 2.5089686 1.3228859 -0.78504115 2.0663834 -2.973808 -0.48650584 0.79694074 0.07012467
112038 -0.07194832 1.7638224 -0.8776796 1.086233 -0.09323664 -0.4822168 -1.5162871 3.3833773 0.207597 -2.4055958 1.8845015 0.13267295 0.27737638 1.0755994 -0.11125558 1.231153 0.4697356 -0.77085364 1.268026 0.41586426 -0.2990065 -1.0857006 2.0083349 0.120335214 -1.0682137 2.8755589 -1.4243199
360139 -1.6548167 1.9884331 0.051713128 2.315715 -2.0575633 -1.3372344 -0.9014184 1.6669759 0.75800234 -2.0042317 0.081301235 -0.11418872 0.108470745 1.4769201 0.9231106 0.39846817 1.4283341 -1.562586 -0.51096374 -0.27181074 0.8914827 -0.5924524 2.923482 -2.0322077 -1.3691665 1.8436152 -1.0321571
347980 -0.11667235 1.8609046 -0.68190354 1.1399041 -0.109294444 -0.6205876 -1.6054153 3.321963 0.17863895 -2.4046268 1.7784039 0.13989751 0.22197393 0.96475476 -0.131309 1.3266501 0.50461763 -0.85312027 1.3901912 0.43652835 -0.17267634 -1.171899 1.9246926 -0.023707524 -1.0596764 2.8097637 -1.3962644
392725 0.22235186 1.7185371 -0.5179712 0.91465634 0.2970248 -0.48491964 -1.7818115 3.2063324 -0.081026316 -2.2458074 1.740648 0.24646957 0.14246514 0.70150816 -0.37540358 1.5035194 0.35223025 -0.82963866 1.7655697 0.5184455 -0.19214511 -1.2149663 1.5117074 0.16912 -0.95479405 2.5007365 -1.2320013
273161 -1.8813554 2.188057 -0.030762272 2.3681536 -2.3158286 -1.3602879 -0.9584173 1.9576846 0.9174831 -2.085983 0.17258126 -0.28235108 0.10872411 1.6754841 0.9563621 0.440064 1.5231118 -1.7412765 -0.62423354 -0.26532656 0.9250561 -0.7256732 3.1676514 -2.1197495 -1.3955902 2.2272153 -1.1472305
21209 -1.9422693 2.279252 -0.058273852 2.3648412 -2.4344208 -1.3989183 -1.0533879 2.021926 0.9714956 -2.1128206 0.2581741 -0.3024755 0.103290565 1.7154227 1.0132828 0.4610112 1.6267583 -1.868723 -0.68703824 -0.32551527 0.9698072 -0.774369 3.2405512 -2.1931598 -1.3957976 2.3400471 -1.1981792
476355 -0.7675432 2.7361612 0.21550554 0.62998176 -2.1456335 -1.1878268 -0.9273638 1.3787682 1.2530805 -0.4716284 1.5157382 -0.19444641 -0.49028024 0.54228836 1.3676331 1.0545751 1.1936582 -2.0095382 0.80339557 -0.61926955 -0.0491122 0.6382612 1.4069171 -2.843519 -0.53661424 1.3015056 -0.9416013
495178 0.20648795 1.6702873 0.5805646 1.5233016 -2.4158819 -1.5186268 -1.357071 1.952717 -0.5093291 -1.7121052 -0.6961113 0.33375263 -0.16119418 0.13476603 -0.42987198 0.11787021 0.8361354 -0.6761894 -0.98708814 -0.13622579 -0.49448997 -2.2158651 2.2292094 -1.5449635 -0.8845789 1.2108916 -0.8383609
217031 -1.1785226 1.5678085 0.08883888 2.0142694 -1.5473037 -1.0617701 -0.72598094 1.3649968 0.6737097 -1.5117886 0.014748846 -0.23594247 0.20902424 1.1998097 0.64697164 0.32808986 0.9758706 -1.0983917 -0.38885418 -0.269344 0.52573633 -0.40483832 2.5236943 -1.7170774 -1.1359165 1.6828202 -0.9347297
156184 -1.9171025 3.2523046 1.5249512 1.5290239 -2.6846588 -0.52862775 0.35926515 -0.10081709 0.71110296 0.5306022 -0.30635127 1.3332349 0.50468206 1.625986 0.2334362 0.9802024 2.1712878 -0.5211651 -2.1476808 0.86755764 -0.77171135 0.6426151 0.9823006 -0.75406027 -0.049648322 1.5957593 -0.17003298
524029 0.45806932 1.1673862 -0.098644815 1.9336538 -0.7156481 -1.2458817 -1.0392526 -1.0512632 1.1538327 -0.98454607 -0.8489358 -0.112246476 -0.90701574 1.4502124 2.0137858 0.76314825 1.8657517 -2.264574 0.6378223 -0.2727 0.5192797 -1.2957182 2.2570498 -1.5368026 -0.49134463 1.2416524 -0.20972982
298771 -0.5855375 2.6333337 0.188058 0.34693968 -1.9859111 -1.1077685 -0.9310674 1.2518928 1.2474684 -0.2068585 1.5758955 -0.13782574 -0.5169353 0.4272031 1.2993884 1.089924 1.0755361 -1.9062625 0.93456584 -0.6049125 -0.13287324 0.6992848 1.0938984 -2.7714086 -0.41946447 1.1323298 -0.7849782
529119 -1.192885 1.6224492 0.13365327 2.0446496 -1.5607347 -1.0918258 -0.76125723 1.3734597 0.7169645 -1.5310814 9.673593e-05 -0.25688243 0.20335265 1.1894972 0.66129625 0.3372575 1.0135204 -1.0943031 -0.41043487 -0.23269837 0.5036364 -0.3685194 2.5533943 -1.7633057 -1.1647571 1.7524586 -0.94613075
359731 0.892648 1.7861203 1.5407829 2.3299546 -0.9384379 -0.8445673 -0.096027985 1.2407646 1.3945683 -1.5977212 0.18621987 -2.3806121 0.18240361 0.371573 -1.2989964 2.6856368 1.8577819 0.5763541 0.9449905 -0.7633114 0.06365097 -0.80578005 1.414216 -0.6729435 -0.8544737 1.6095054 -0.6088233
311304 -1.9930605 1.2505548 0.88925123 1.6329829 -1.6490854 -0.8813329 -0.4485503 0.6655409 0.7578156 -1.3373256 0.17377949 0.93009734 0.32226986 1.1155809 0.91950953 0.7267064 1.3795761 -1.5823028 -0.8956484 -0.23481134 0.54289204 0.011976172 2.9059088 -2.4403834 -0.660281 1.7504147 -0.5583331
10964 -1.9369669 1.2008673 0.87724996 1.5916845 -1.5806499 -0.84484696 -0.4030398 0.63071495 0.7431409 -1.2499157 0.13731593 0.9024095 0.29686704 1.0869793 0.90483725 0.7132961 1.3283049 -1.5082654 -0.8610205 -0.19903079 0.5712728 0.025374973 2.8100686 -2.391866 -0.6514834 1.6825463 -0.5519352
433516 -1.9756725 2.4564502 0.11568979 2.8880358 -2.367326 -1.6549354 -0.9317496 2.0950816 1.0224766 -2.4371781 0.078362145 -0.3172879 0.14282253 1.8247641 1.0084052 0.4518489 1.7577108 -1.8514291 -0.731714 -0.2808392 1.0346808 -0.59180266 3.7446885 -2.4405155 -1.5355846 2.556171 -1.2526335
525268 -1.271176 1.5141636 0.582252 0.40349895 -1.2415843 -2.3793404 -1.2428001 1.0558789 0.5289187 -1.2598355 0.48578703 -0.71287173 0.7255637 0.49757063 1.9787265 -0.422425 0.7235508 -1.18403 -0.4161248 -0.79217255 1.4336576 0.22546348 2.710318 -2.2518733 -0.2799132 0.25298598 -0.7034287
500714 0.5438747 1.2077343 0.26527858 2.7112575 -0.30460533 -2.2247837 -1.7253076 0.906786 -0.1679318 0.89886457 0.28948304 -0.00389088 0.41402513 0.31567466 1.1429929 -0.04212473 1.6694193 -0.7755373 -0.97057813 0.8041807 0.44002137 1.585875 1.5241352 -1.1618248 -0.3896997 2.0493317 0.46129298
96932 -2.0611174 2.5649624 0.17101108 3.0051699 -2.472586 -1.731382 -0.98550874 2.2091699 1.0505328 -2.5561497 0.09327441 -0.29998878 0.16525906 1.8914957 1.0489836 0.48721883 1.8263445 -1.9616476 -0.75713867 -0.28213608 1.0602746 -0.6091759 3.924736 -2.527534 -1.5737996 2.663841 -1.2870933
18702 -2.5066602 2.944249 0.00091633433 3.5797656 -3.0192451 -1.959311 -1.2854347 2.4916518 1.1938577 -3.0209596 0.14232439 -0.36723465 0.19176626 2.2599318 1.3211386 0.5864485 2.1061137 -2.254909 -0.8225329 -0.33687544 1.1994616 -0.83300626 4.42322 -3.0508363 -1.9876868 3.082128 -1.547425
416063 -2.589823 3.0350616 0.0043584495 3.7066755 -3.1275113 -2.0440297 -1.3240343 2.5984864 1.2451593 -3.1588664 0.15124904 -0.3797027 0.20311293 2.3473938 1.4030677 0.61996883 2.21312 -2.3540974 -0.8690253 -0.3773985 1.2406958 -0.88582134 4.604949 -3.17239 -2.0547502 3.2097666 -1.6278399
286319 0.598018 1.1767868 0.27415088 2.741625 -0.29484636 -2.2467728 -1.7334532 0.8734428 -0.24237083 0.95383173 0.28580713 0.011721927 0.40504295 0.3096419 1.1380233 -0.029205682 1.6815838 -0.7790526 -0.9659881 0.8372422 0.3954449 1.6412265 1.4967512 -1.1632158 -0.36237895 2.0511858 0.47702706
365942 0.19918108 1.7078874 0.54080003 1.4982285 -2.4776719 -1.5043979 -1.3657774 1.9121454 -0.49548608 -1.7724997 -0.68931496 0.3491078 -0.1638493 0.19492753 -0.39092034 0.10690959 0.86547273 -0.7149394 -0.9914363 -0.1303626 -0.42562696 -2.174902 2.2492816 -1.5327952 -0.9139994 1.2218357 -0.81601155
192929 -4.0342884 4.693378 0.0024117744 5.7864194 -4.875454 -3.22347 -1.9823363 4.0487747 2.0102963 -4.7584066 0.26187372 -0.633636 0.2564979 3.6676552 2.1748595 0.8639124 3.404982 -3.6797473 -1.3380173 -0.59906167 1.915939 -1.3821579 7.162137 -4.8871665 -3.2393153 5.0121007 -2.4894223
141580 -3.955396 4.6312885 -0.013344512 5.721423 -4.79215 -3.1527681 -1.9480826 4.0032325 1.9484947 -4.6938224 0.28758147 -0.6238372 0.27901986 3.6087625 2.1246483 0.8694771 3.3405719 -3.629417 -1.3056114 -0.5907628 1.8620973 -1.3757248 7.060532 -4.80486 -3.1933541 4.9568973 -2.4841688
422237 -3.6953902 4.336009 0.036505733 5.3303714 -4.449058 -2.9521418 -1.8770202 3.7230644 1.7679044 -4.46561 0.20937976 -0.5620519 0.24584967 3.3348913 1.9996555 0.8610192 3.1268938 -3.3897703 -1.2595271 -0.55605954 1.7600722 -1.2328273 6.5709934 -4.486333 -2.9709756 4.581515 -2.2876937
323838 -3.6242802 4.2476974 0.028856236 5.18034 -4.359534 -2.8954408 -1.826209 3.6208024 1.7279048 -4.365767 0.19378933 -0.5693067 0.25949278 3.2683017 1.9631175 0.8393864 3.0632858 -3.3300734 -1.2210351 -0.5496539 1.7318856 -1.2252798 6.4204793 -4.40829 -2.8908458 4.483387 -2.2348106
30022 -3.3376107 3.9630535 0.038796235 4.8372197 -3.986444 -2.6915095 -1.6919547 3.3041754 1.6038184 -4.004323 0.16622864 -0.5231642 0.35224453 3.0092893 1.840887 0.781599 2.8651464 -3.0615783 -1.1587428 -0.4685578 1.6325763 -1.16074 6.0675654 -4.125861 -2.799678 4.1408105 -2.1516364
42900 -3.2635424 3.8864965 0.011137683 4.7779694 -3.941753 -2.6356285 -1.6661822 3.2426288 1.5580502 -3.942201 0.1870886 -0.5213469 0.32770663 2.951986 1.8303013 0.7664283 2.8412983 -2.9915895 -1.1520102 -0.47151682 1.6020509 -1.1665457 5.95129 -4.045868 -2.7652245 4.0593657 -2.126251
172852 -3.1804695 3.6820724 0.04382244 4.5449758 -3.8016462 -2.5459373 -1.557386 3.1882274 1.489024 -3.8056474 0.13513575 -0.44731835 0.18489167 2.895751 1.6986582 0.74307984 2.629859 -2.814699 -1.0326427 -0.42576757 1.5330429 -1.0219463 5.68174 -3.864553 -2.5093231 3.8997934 -1.8920454
209154 -3.1115663 3.6047802 0.05692531 4.444461 -3.7332463 -2.5021837 -1.5206705 3.1037872 1.4509507 -3.7061977 0.13066752 -0.45942855 0.2045428 2.8475642 1.6576313 0.7174504 2.5720465 -2.7450209 -0.99449456 -0.43939298 1.4843894 -1.0123465 5.557076 -3.765988 -2.4757054 3.815093 -1.8508489
75942 -3.306314 3.8643324 0.005978235 4.6706676 -3.9291582 -2.6206586 -1.622812 3.251002 1.5726708 -3.9291153 0.2116361 -0.5173589 0.21605782 2.960637 1.7348043 0.76029384 2.769726 -2.9738421 -1.108184 -0.4728911 1.5949128 -1.1171433 5.822842 -3.9801385 -2.62078 4.0988846 -2.014944
490181 -3.215893 3.7753453 0.016807072 4.583029 -3.8700535 -2.5655205 -1.6202633 3.2013068 1.5354143 -3.8441544 0.20259377 -0.5023401 0.2308687 2.9114318 1.7272942 0.7534604 2.7292705 -2.9005342 -1.083319 -0.46320134 1.5296749 -1.1159061 5.7086544 -3.9119852 -2.595054 4.0232625 -1.9857274
284825 -2.8176596 3.3168218 0.029062333 4.0797005 -3.441375 -2.2224503 -1.3996795 2.8230643 1.3644742 -3.35818 0.17078306 -0.43353236 0.22005506 2.6253302 1.4879754 0.63650686 2.3723955 -2.5956516 -0.97356844 -0.44174007 1.3810521 -1.0021831 5.0539327 -3.4510918 -2.2893443 3.539927 -1.7990288
133500 -2.7994914 3.238941 0.030471204 4.019538 -3.3901932 -2.2134795 -1.3961123 2.77606 1.3412651 -3.3123224 0.16252694 -0.4290755 0.21313518 2.585031 1.4618071 0.65057087 2.3173344 -2.5647383 -0.9489831 -0.42171794 1.3287156 -0.97634184 4.950426 -3.3645668 -2.2496424 3.463089 -1.7695811
72456 -2.5137362 3.066199 -0.009870889 3.6627047 -3.123142 -2.1297965 -1.3089589 2.6837955 1.4168432 -3.1254873 0.1143558 -0.5018398 0.49136123 2.4346664 1.2776568 0.8021368 2.1438885 -2.3129318 -0.82884806 -0.39290693 1.3993281 -0.77777064 4.661507 -3.2348344 -2.0059192 3.1835787 -1.656288
467883 -2.5082526 3.0716348 -0.031287875 3.6737502 -3.1514318 -2.1454227 -1.3262619 2.7006962 1.4438907 -3.1606278 0.12357601 -0.49530867 0.488721 2.4743605 1.3081611 0.8491456 2.157215 -2.334333 -0.8365699 -0.41770574 1.4262449 -0.76062965 4.7035494 -3.2717373 -2.0221212 3.1869676 -1.643394
311886 -2.6340995 3.0072181 0.028995063 3.7334046 -3.1127696 -2.06373 -1.3206502 2.6015117 1.2450058 -3.1396813 0.14086834 -0.40272015 0.19337164 2.3211334 1.3851846 0.58600885 2.2170546 -2.3454041 -0.86959666 -0.3738304 1.2337737 -0.87660766 4.6235394 -3.1304877 -2.0833673 3.2396483 -1.5694013
349224 -2.5873044 2.9459205 0.04191217 3.6834054 -3.0636387 -2.0195024 -1.2934604 2.5504963 1.2370112 -3.076482 0.14747064 -0.4056268 0.17633113 2.281749 1.3686913 0.5624741 2.1767707 -2.2929268 -0.8655922 -0.3689047 1.2099327 -0.8758014 4.5231833 -3.0839825 -2.0221505 3.1638205 -1.5381663
440418 -2.4626405 2.8943932 0.021812942 3.548086 -2.9448915 -1.9643662 -1.1752585 2.4562902 1.1432723 -2.939151 0.11742508 -0.3516386 0.20671326 2.2122638 1.3259178 0.58170867 2.059747 -2.284442 -0.8473044 -0.40841046 1.1511781 -0.880396 4.412566 -2.9612305 -1.9824619 3.02929 -1.5142164
185664 -2.3932261 2.795058 0.03099053 3.4333432 -2.892978 -1.9272105 -1.1470075 2.3861818 1.1138046 -2.8621798 0.13350229 -0.34243596 0.20195 2.1709368 1.2980689 0.53260314 2.022254 -2.2035387 -0.8268153 -0.3829033 1.1329732 -0.85416275 4.313947 -2.8839555 -1.9445392 2.9543846 -1.4779816
204345 -2.5142174 2.9355185 -0.014882764 3.6169074 -3.0642266 -1.990688 -1.2688353 2.5116615 1.2135884 -3.0376937 0.113569535 -0.37514982 0.21452788 2.3320131 1.3530729 0.57750136 2.1753705 -2.2774575 -0.84066975 -0.3760051 1.256573 -0.79453856 4.508701 -3.0712006 -2.0210652 3.107347 -1.5609663
483121 -2.4949734 2.925548 -0.009613756 3.5894325 -3.0075397 -1.9941102 -1.2391448 2.5072746 1.2098907 -3.0118337 0.12679574 -0.38377213 0.19377002 2.2921674 1.3482176 0.5767082 2.1421201 -2.24389 -0.8484421 -0.3435517 1.254032 -0.78988725 4.466187 -3.02952 -2.0197172 3.0706515 -1.5346004
546691 -2.321995 2.8143017 -0.1080424 3.4356942 -2.7396758 -1.9415544 -1.3095754 2.264924 1.1765407 -2.7592618 0.0077533377 -0.40695977 0.076511644 2.1740012 1.2488163 0.59610623 2.0187325 -2.1738067 -0.6051332 -0.33326098 1.1684568 -0.68727154 4.219743 -3.002452 -1.8709576 2.9356353 -1.3245813
281594 -2.3145127 2.7935424 -0.07792773 3.3985794 -2.7467122 -1.9121345 -1.2981366 2.2642703 1.1807404 -2.7491796 0.019564478 -0.39034986 0.09859956 2.1396897 1.2424102 0.5683794 2.0056188 -2.1640644 -0.6123714 -0.3345316 1.1650653 -0.6854173 4.1793942 -2.9767356 -1.8808008 2.9031935 -1.3321679
255989 -2.2564058 2.7082608 -0.012650974 3.2609491 -2.7230968 -1.7944404 -1.1456721 2.256428 1.1092136 -2.7263308 0.107562385 -0.33680597 0.14894211 2.0516016 1.2556294 0.55469227 1.9235557 -2.1135514 -0.7479898 -0.33840346 1.1506394 -0.74811816 4.060109 -2.8072474 -1.8491013 2.832873 -1.4315704
184008 -2.2002802 2.623228 0.004655674 3.1728356 -2.6826196 -1.7670388 -1.0867237 2.2297943 1.0846002 -2.6628847 0.1207459 -0.33069503 0.16213517 2.020325 1.2095888 0.5456982 1.8857481 -2.0499558 -0.73651206 -0.33545652 1.1233741 -0.725494 3.9581702 -2.7310588 -1.8101875 2.7914705 -1.3775301
526188 -2.5152485 2.664485 0.006553645 3.071415 -2.5007284 -1.6302843 -1.4130313 2.1472707 1.3099377 -2.5276554 0.1301452 -0.35493255 0.055160735 2.00793 1.052935 0.49729902 2.003002 -1.8837583 -0.46733007 -0.5105044 0.9537877 -0.6535355 3.6736386 -2.632027 -1.4755518 2.360217 -1.4289749
221638 -2.489709 2.6090198 0.011356901 2.9805987 -2.4269965 -1.6063398 -1.4084134 2.1088464 1.3043693 -2.4426606 0.11235779 -0.34795243 0.033615414 1.9477272 1.0255197 0.4824051 1.9806305 -1.8577617 -0.4512098 -0.51741076 0.92266905 -0.6130474 3.5648787 -2.5594192 -1.4228926 2.287199 -1.3909621
203632 -2.0951784 2.4875143 0.01852768 3.032025 -2.5297706 -1.6596434 -1.0514278 2.0929751 1.0592946 -2.5801775 0.1455461 -0.32246676 0.22295867 1.9539982 1.1704805 0.529229 1.8466828 -1.9647125 -0.68866456 -0.28965795 1.0541937 -0.6835476 3.789791 -2.5925164 -1.6937563 2.594872 -1.3568013
122874 -2.0589523 2.456458 0.02393245 2.9924402 -2.51715 -1.6275412 -1.0161593 2.0772657 1.0292628 -2.539476 0.15018128 -0.29674876 0.21734235 1.919337 1.1440729 0.5047967 1.8303806 -1.9172405 -0.69174665 -0.2831509 1.0283929 -0.67801356 3.711177 -2.5869894 -1.6952642 2.5557263 -1.3401296
197287 -2.0441117 2.4321334 0.058086704 3.0426528 -2.5024695 -1.677315 -1.0704628 2.1586123 1.0201939 -2.5517044 0.15148388 -0.2802111 0.13452889 1.9278527 1.1058269 0.4748695 1.8283108 -1.8764845 -0.7467355 -0.319641 1.1053084 -0.7179942 3.6940138 -2.5229106 -1.6841123 2.6056314 -1.3461634
386783 -2.0275126 2.4540596 0.051901657 3.0222354 -2.499519 -1.6773179 -1.1035192 2.131911 0.99744254 -2.55144 0.16641574 -0.26478255 0.11648208 1.9094489 1.1172723 0.45528665 1.8234748 -1.8822498 -0.72847974 -0.306135 1.0870112 -0.71598125 3.687208 -2.5228484 -1.6756593 2.6236274 -1.3260444
54358 -1.9358121 2.267583 -0.061086338 3.1520283 -2.4852965 -1.229262 -0.83143437 1.9323592 0.94381875 -2.5314178 -0.018087463 -0.10392126 0.080272794 2.0488186 0.73659617 0.6168242 1.7782525 -1.8066514 -0.70329565 -0.14729244 0.6834333 -0.73799044 3.429896 -2.2417655 -1.7832216 2.7854972 -1.2732863
38244 -1.8773743 2.2186189 -0.080590144 3.134373 -2.4225488 -1.1743468 -0.80217344 1.8755068 0.91570365 -2.4653966 -0.039393995 -0.09653231 0.05512191 1.999492 0.6945254 0.6230226 1.7368529 -1.7643783 -0.69179094 -0.14611268 0.6614512 -0.75304425 3.3425572 -2.191641 -1.7386665 2.7402527 -1.2306554
785 -2.1590889 2.4351761 0.042994082 2.994477 -2.508467 -1.6851524 -1.0773224 2.1048582 1.0024025 -2.501942 0.13361885 -0.34897253 0.14957106 1.9264283 1.1022862 0.4720999 1.7217071 -1.8890531 -0.6903435 -0.32301334 0.9827402 -0.7349633 3.6997457 -2.560027 -1.6561118 2.5394723 -1.2854191
12776 -2.1176507 2.356712 0.03685416 2.9284992 -2.4450176 -1.6337557 -1.027003 2.0811625 0.96505594 -2.4533293 0.10772757 -0.33728394 0.1359324 1.850979 1.0874795 0.48769662 1.6920408 -1.8614377 -0.6837646 -0.30896235 0.97423583 -0.72645307 3.6414962 -2.5099502 -1.6192646 2.481744 -1.2294626
260424 -2.0153086 2.5384338 -0.04458981 2.6617053 -2.4289753 -1.6685095 -1.0105305 2.0918202 1.108081 -2.42374 0.11537514 -0.42986393 0.2437063 1.8790541 1.0214249 0.5011564 1.7011473 -1.570933 -0.65423733 -0.20092152 0.8888322 -0.6020756 3.6072674 -2.4289308 -1.5565345 2.4095466 -1.1316938
223950 -2.0098214 2.5005314 -0.07508813 2.648434 -2.4166577 -1.6467673 -1.0122513 2.0715888 1.097156 -2.3889186 0.12050638 -0.430218 0.26048887 1.8669289 1.031834 0.49938887 1.6786053 -1.5335393 -0.6499387 -0.19182925 0.8719325 -0.59651494 3.5654798 -2.3915915 -1.5500083 2.389641 -1.1205481
542769 -1.8392847 2.1745384 -0.23039152 2.540848 -2.3255587 -1.0163611 -0.82711905 1.8845903 0.8155517 -2.1593235 0.31944516 -0.20876715 0.0032492399 1.9272723 0.97574174 0.35899425 1.5994197 -1.7224377 -0.8155178 -0.20200095 0.884915 -0.6018351 3.3781278 -2.154708 -1.797717 2.3447933 -0.9615807
381446 -1.8369523 2.1252782 -0.230484 2.5064077 -2.3380153 -0.978482 -0.77764386 1.8198237 0.7836732 -2.1563964 0.34161595 -0.19970344 0.011279392 1.9351801 0.95771754 0.40132177 1.5638674 -1.714965 -0.8144787 -0.18634255 0.8987603 -0.5709315 3.3787582 -2.1481025 -1.7784975 2.3123446 -0.94118285
467460 -1.8693446 2.2037387 -0.06946432 2.6809952 -2.1081583 -1.6292392 -1.0312665 1.8484815 0.9298341 -2.1822786 0.090016425 -0.3024224 0.066551596 1.778078 1.0922682 0.25719517 1.5952663 -1.6771486 -0.69296837 -0.314875 1.0427366 -0.5858313 3.4045172 -2.3217278 -1.4214958 2.3250191 -1.1911976
242485 -1.8296112 2.1131375 -0.054112736 2.5958369 -2.0472915 -1.582867 -1.0048516 1.7966771 0.93648356 -2.093268 0.10561608 -0.3229105 0.037605546 1.7178625 1.0809786 0.23415792 1.5410421 -1.6216667 -0.68205845 -0.3023449 0.9893435 -0.58971024 3.3309262 -2.2449467 -1.3949139 2.2558913 -1.1504506
465330 -1.8804681 2.1524858 0.08006135 2.588202 -2.3312073 -1.4872959 -0.94286317 1.7074952 0.8222833 -2.0764592 0.13616152 -0.25730088 0.17822345 1.5791122 1.0431545 0.3682196 1.5332652 -1.6643798 -0.52940875 -0.35141438 0.82530653 -0.76646674 3.2536385 -2.198303 -1.4881746 2.166925 -1.0949028
474460 -1.8727852 2.1399417 0.07699953 2.5589755 -2.3055313 -1.4674492 -0.9214598 1.7316583 0.84868914 -2.0344057 0.1386211 -0.2621317 0.16097677 1.5545963 1.0676006 0.37527502 1.5054499 -1.6288652 -0.52166975 -0.33777082 0.7978171 -0.76762867 3.2276158 -2.1990428 -1.4627756 2.1583233 -1.0802959
1861 -1.8093765 2.2058823 0.062281564 2.6529272 -2.1433198 -1.4627842 -0.8800891 1.8514874 0.8910423 -2.1359267 0.11550899 -0.28276893 0.13184087 1.6695343 0.9853703 0.4564844 1.4987365 -1.6829904 -0.62531096 -0.30421132 0.89627206 -0.6343079 3.2289479 -2.1739688 -1.4515257 2.254477 -1.0494276
327815 -1.7995888 2.1667087 0.061793335 2.6072955 -2.1354825 -1.442006 -0.8494239 1.8245183 0.8627246 -2.0850909 0.13338745 -0.30243203 0.10965476 1.6423333 0.96475655 0.46800953 1.4767522 -1.6488649 -0.62791944 -0.29847386 0.8857834 -0.6002993 3.1706874 -2.1680245 -1.4359832 2.2372582 -1.0443392
273578 -1.8744489 1.9103569 0.1354301 2.448909 -2.0032032 -1.4026134 -0.9618077 1.6302196 0.8586265 -2.1026793 -0.02935969 -0.38825974 0.1756863 1.5647781 0.7616722 0.4142028 1.524123 -1.5525461 -0.50789666 -0.24973677 0.7886804 -0.55827457 3.1221097 -2.1503742 -1.3730514 2.2245507 -1.1213832
305905 -1.8605576 1.9281296 0.12269189 2.4325902 -2.0194635 -1.4121093 -0.9732834 1.629638 0.8543937 -2.0799584 -0.007347997 -0.38917464 0.1921343 1.5523438 0.7723046 0.4069852 1.5222582 -1.5357178 -0.5275339 -0.2480414 0.7973082 -0.533081 3.1016612 -2.1325777 -1.3668746 2.2002966 -1.1189873
2534 -1.8440944 2.0813243 -0.06789066 2.5677795 -2.1999092 -1.362364 -0.94575745 1.7335942 0.90599793 -2.2398486 0.13810281 -0.3048628 0.11827932 1.561193 0.87359864 0.38938156 1.559486 -1.5050863 -0.6061308 -0.2680764 0.9529148 -0.6273032 3.1657767 -2.1282063 -1.4334819 2.2036383 -1.025345
456794 -1.8307339 2.0922565 -0.05151639 2.522443 -2.1784003 -1.3565547 -0.91688734 1.7052506 0.9150295 -2.2080507 0.13950115 -0.2850284 0.088605456 1.5632999 0.8824739 0.39399096 1.5404664 -1.4937954 -0.6001778 -0.23767501 0.93613225 -0.60430497 3.1361516 -2.1276524 -1.3849263 2.173865 -1.0087757
15249 -1.7051015 2.0298867 0.10163738 2.5054822 -2.036683 -1.4469469 -0.83312356 1.8434776 0.82577205 -2.1303267 0.053868294 -0.18888275 0.12524314 1.5763879 0.934281 0.38387117 1.4613106 -1.6389126 -0.53788805 -0.20205128 0.84479856 -0.55512196 3.1666377 -2.1833472 -1.4646122 2.1997178 -1.048647
542309 -1.7183509 2.0505657 0.09274714 2.4994855 -2.0303192 -1.4615362 -0.8292604 1.842698 0.84706044 -2.1483104 0.06969934 -0.1887742 0.116697356 1.5734373 0.91784835 0.37666413 1.4616677 -1.6251693 -0.54348236 -0.20980616 0.8097018 -0.57951146 3.1849933 -2.1522212 -1.4513925 2.199755 -1.0421282
454174 -1.7015265 1.9884925 -0.13469037 2.5477557 -2.0121307 -1.2816267 -0.9289085 1.6305604 0.8863184 -2.1033983 0.10270303 -0.35689697 0.21361856 1.7009003 0.9697396 0.41359368 1.3833562 -1.4965817 -0.566907 -0.28740913 0.8417154 -0.57673204 3.0226872 -2.0504308 -1.2777355 2.1937513 -1.0348481
419759 -1.6211528 1.9048113 -0.12391288 2.4392278 -1.961629 -1.2509049 -0.87766564 1.5372612 0.84081286 -2.000438 0.095980264 -0.33559293 0.17663518 1.6463184 0.935286 0.42586756 1.3503742 -1.4691137 -0.5531248 -0.2697661 0.7739558 -0.5471329 2.891861 -1.9926043 -1.2322676 2.114483 -0.99322087
38989 -1.7961805 1.896734 -0.039241973 2.2637691 -2.1510737 -1.50448 -0.8341549 1.5065591 0.8543196 -2.2748516 0.11487273 -0.18296285 0.13110253 1.5074502 0.9846669 0.23012733 1.4228408 -1.8111876 -0.40182078 -0.31234244 0.6576223 -0.3592701 3.1705735 -1.8759274 -1.134816 1.7461877 -0.9467417
544111 -1.7668861 1.8672073 -0.014885041 2.2220168 -2.0952177 -1.4641459 -0.7918018 1.5211934 0.8092532 -2.2006507 0.13215482 -0.19333419 0.12543374 1.476408 0.9686375 0.25185764 1.4005759 -1.7194332 -0.4300641 -0.3121565 0.64648795 -0.37016279 3.083586 -1.8678879 -1.1413914 1.7511898 -0.9121279
273649 -1.6869005 1.9655488 0.039900817 2.4213035 -1.9560448 -1.3445505 -0.8875615 1.7138509 0.83810335 -1.9476628 0.10292178 -0.25744554 0.10942454 1.4893287 0.93087745 0.43541506 1.4623576 -1.5451814 -0.53046453 -0.2428206 0.8378745 -0.6341035 2.968916 -2.0561981 -1.3138819 2.114804 -1.0535746
536396 -1.6471987 1.9416865 0.04025666 2.383666 -1.9280628 -1.3243773 -0.8574546 1.6509969 0.8357559 -1.9113754 0.08322492 -0.23408008 0.08905446 1.4829779 0.90187013 0.4069498 1.4409857 -1.4992508 -0.534021 -0.22944407 0.82842255 -0.6298169 2.8914924 -1.9923438 -1.315093 2.0641437 -1.0310998
37312 -1.7151302 1.9838412 -0.10801833 2.5372095 -2.146011 -1.3989317 -0.85603505 1.7641218 0.83448505 -2.101774 0.14265656 -0.17884041 0.12875059 1.5765135 0.9447159 0.5173288 1.3650222 -1.6991411 -0.5446218 -0.24114138 0.84257585 -0.6360425 3.032467 -2.1182654 -1.3270586 2.1453764 -1.0084709
243758 -1.6737338 1.9711475 -0.104821816 2.5088105 -2.0969262 -1.3577559 -0.84087884 1.7143583 0.80400616 -2.088221 0.1413449 -0.16985635 0.14366284 1.5504937 0.91415673 0.5090252 1.3318594 -1.6618128 -0.5328192 -0.22772643 0.84867716 -0.60932976 3.0119312 -2.1094282 -1.325211 2.1456003 -1.005273
345003 -1.8418735 1.937664 0.09268135 2.4095118 -2.0029783 -1.4323616 -0.8446055 1.7192568 0.7969569 -2.0391886 0.041560467 -0.29367936 0.07491139 1.6599965 0.8374276 0.31519973 1.4130151 -1.5209987 -0.6124912 -0.2732134 0.87822634 -0.6658732 3.192107 -2.098406 -1.4252784 2.15528 -1.1111904
346156 -1.8039819 1.8929392 0.10854096 2.3423908 -1.957358 -1.4101108 -0.82761943 1.6629884 0.7985367 -1.9981953 0.057051286 -0.29669866 0.09173924 1.6132094 0.82660484 0.30127314 1.3845699 -1.4868566 -0.5770557 -0.29166886 0.8472644 -0.64629674 3.1297362 -2.0544055 -1.3796518 2.1050808 -1.0739524
3070 -1.6484452 2.0767038 0.0070714564 2.48599 -2.1002595 -1.2599273 -0.93639964 1.668392 0.73658115 -2.0865145 0.15856102 -0.2916365 0.1776448 1.5384661 0.94068485 0.38267824 1.4177213 -1.522051 -0.5416829 -0.28582686 0.81061953 -0.5309551 2.9284513 -2.009668 -1.3583243 2.146342 -0.9979353
211915 -1.6074512 2.0549948 0.028037261 2.4638026 -2.0588975 -1.2611576 -0.92951536 1.6486175 0.7256301 -2.0605397 0.14949316 -0.30270842 0.20238306 1.5126164 0.90680206 0.4018827 1.40349 -1.5116109 -0.53066194 -0.2586688 0.81225437 -0.53306603 2.8974798 -1.9899352 -1.3134251 2.1307523 -0.96397686
47061 -1.5401669 2.009128 -0.07436491 2.3159022 -1.9470422 -1.4878489 -1.0422783 1.7434042 0.84361947 -1.8408524 0.28465778 -0.23072791 0.07028214 1.5843363 0.7366215 0.3250973 1.2885785 -1.5776215 -0.562918 -0.14960495 0.6325045 -0.52534133 2.918846 -2.1528955 -1.0862226 2.19683 -1.0425577
292447 -1.4593349 1.9599127 -0.10637996 2.2132103 -1.8822013 -1.4389993 -1.0179682 1.6827449 0.8048169 -1.7259811 0.32706612 -0.21791364 0.073943466 1.5452886 0.71979916 0.30656368 1.226688 -1.5129181 -0.5705013 -0.1403491 0.58902234 -0.530283 2.8092768 -2.0553024 -1.0293162 2.1138437 -1.001036
3168 -1.7597964 1.8680251 0.01829725 2.3598108 -2.0878134 -1.307748 -0.8478571 1.5899862 0.75191486 -2.1052573 0.03769255 -0.21663955 0.19966717 1.5018529 0.94068944 0.34727937 1.3965669 -1.5822031 -0.6324179 -0.3228672 0.76640695 -0.6047075 2.9292848 -2.0280342 -1.3009267 2.0684335 -1.0956372
68209 -1.7523106 1.8670702 0.023973448 2.344724 -2.0802407 -1.3183539 -0.86028934 1.6085463 0.7551059 -2.0960555 0.053423252 -0.2302013 0.17564803 1.5390731 0.9578586 0.34046534 1.394181 -1.5743212 -0.62678885 -0.32432064 0.7659115 -0.62735754 2.9230428 -2.011981 -1.2885467 2.0589924 -1.0795105
3206 -1.6680536 1.9359913 -0.07419654 2.3840573 -1.9955091 -1.368966 -0.83649844 1.7306069 0.805395 -1.8793335 0.17092039 -0.23152675 0.11023093 1.4636496 0.9193704 0.38560915 1.3985376 -1.5264628 -0.5607582 -0.2147164 0.6970767 -0.46875417 2.9907463 -1.993205 -1.3801155 1.9812716 -0.997661
224597 -1.6435806 1.9274005 -0.061079975 2.334218 -1.9650586 -1.3375738 -0.83446497 1.7007097 0.77928036 -1.8646587 0.16088034 -0.21432881 0.09610776 1.4730599 0.90349376 0.35986385 1.4157269 -1.5222322 -0.5208328 -0.19103351 0.69433796 -0.467511 2.9842684 -1.9849316 -1.3697886 1.9746317 -0.9931085
387284 -1.371787 2.1648636 -0.028917287 2.6501663 -1.7990563 -1.1098833 -0.78624314 1.805912 0.8882801 -2.0221493 0.19990498 -0.3451338 0.021405848 1.4503796 0.5126421 0.57322127 1.5092379 -1.2567219 -0.54060245 -0.24251145 0.73788834 -0.53418523 2.5881023 -1.9859439 -1.4874027 1.9277546 -0.8920968
514820 -1.3015679 2.1203294 -0.047203496 2.6100338 -1.7487783 -1.0791662 -0.7868727 1.7764406 0.89491016 -1.9760171 0.19469903 -0.374518 0.0017121228 1.404496 0.47464556 0.5802008 1.4663535 -1.2015257 -0.53061324 -0.23243234 0.72456974 -0.54455394 2.5316234 -1.9325978 -1.4502127 1.8753389 -0.85852134
535438 -1.5459456 1.9068235 0.0977143 2.2570214 -1.9821874 -1.2578537 -0.83073354 1.6372677 0.8133879 -1.9047842 0.14490671 -0.26370877 0.027761128 1.4290041 0.8498968 0.41169494 1.3049767 -1.4847277 -0.6578669 -0.24256745 0.73172295 -0.61970264 2.8951306 -1.9253178 -1.3559104 2.068677 -1.0382674
504581 -1.5038027 1.8127242 0.08992187 2.1795478 -1.9394 -1.2165048 -0.78960943 1.597169 0.76367784 -1.8445936 0.14303859 -0.2333704 0.027905414 1.3702163 0.8194316 0.42066196 1.2750115 -1.4456882 -0.6400332 -0.23549709 0.68868446 -0.61377823 2.8120422 -1.8671137 -1.3134127 1.9859995 -0.9882254
385520 -1.6094481 1.8798356 -0.041250348 2.3930883 -1.91388 -1.2487657 -0.8128567 1.4872699 0.68208694 -1.9454169 0.19330923 -0.065762304 0.19391738 1.3890468 0.81707287 0.44820336 1.506354 -1.4930915 -0.6430091 -0.23388822 0.8025854 -0.55459523 2.877545 -1.970227 -1.2256427 2.1140387 -0.9719304
311668 -1.5638819 1.8494081 -0.04191828 2.356208 -1.9130558 -1.215949 -0.7897786 1.4842528 0.6866115 -1.9222289 0.17270516 -0.09001348 0.19895536 1.4143682 0.7931285 0.44647196 1.4688321 -1.4768788 -0.6369445 -0.25192332 0.8117503 -0.56401575 2.8748248 -1.9787642 -1.2471198 2.0872426 -0.96228015
179849 -1.5718073 1.8451121 0.020427419 2.2214692 -1.9437894 -1.2820162 -0.7204839 1.5394375 0.8079021 -1.8603235 -0.025578756 -0.18987183 0.07236414 1.4553645 0.7818615 0.21737042 1.2932044 -1.3199205 -0.3910934 -0.28650904 0.7343961 -0.5467231 2.7344937 -1.7904099 -1.1171504 1.8371334 -0.99369013
291297 -1.6337833 1.9060184 0.010980385 2.2833304 -1.9967145 -1.3012599 -0.7181136 1.5521154 0.83043665 -1.9069954 -0.02659569 -0.2219748 0.10427141 1.4924021 0.8189962 0.237806 1.2984358 -1.3497216 -0.42986113 -0.27878106 0.7723433 -0.57768786 2.822182 -1.8408444 -1.1365447 1.8843464 -1.0171489
285623 -1.6164736 1.7007354 0.0805677 2.2971864 -1.9074554 -1.2293596 -0.73206043 1.4093652 0.78209174 -1.8018062 0.027986446 -0.30797023 0.1563937 1.3939736 0.8162799 0.39518937 1.3442025 -1.4079889 -0.6352041 -0.21852651 0.72680134 -0.5141947 2.7367024 -1.9325128 -1.23926 1.8796237 -1.0052162
529868 -1.6133214 1.7424276 0.08431129 2.3297555 -1.9136924 -1.2516085 -0.72781074 1.4533643 0.77582073 -1.8570027 0.025220279 -0.30622596 0.17166077 1.4124573 0.836598 0.3833887 1.3812246 -1.4585266 -0.6424336 -0.22984093 0.7140425 -0.53173953 2.7555504 -1.9390305 -1.2664167 1.9119108 -1.0288028
468369 -1.3982358 1.8425757 -0.0018490582 2.139193 -1.793961 -1.2800887 -0.72173434 1.546427 0.8617939 -1.7075697 0.036895722 -0.39066094 0.14393343 1.4551367 0.61970776 0.44699508 1.4843291 -1.2996703 -0.50997186 -0.4047373 0.80622464 -0.5588936 2.5885375 -2.0257204 -1.1082613 1.7748324 -0.82957906
451875 -1.3605636 1.7761151 0.011690654 2.052769 -1.7097759 -1.2436132 -0.7157509 1.4618273 0.8308988 -1.6148671 -0.0041807313 -0.38729438 0.1166361 1.3981899 0.5595266 0.40779465 1.4144626 -1.2349167 -0.47896734 -0.41097793 0.79519707 -0.55710214 2.485257 -1.9396238 -1.0684619 1.6863382 -0.830424
272247 -1.5753028 1.7961725 0.10720099 2.2206497 -1.8704677 -1.2389435 -0.73408455 1.4598118 0.708895 -1.8708051 0.1262355 -0.18618189 0.030800492 1.46888 0.91732883 0.35592034 1.3649253 -1.4026871 -0.58779263 -0.14444372 0.7533262 -0.55102193 2.7398195 -1.8734171 -1.2418926 1.9381135 -0.98875237
481315 -1.5250955 1.7622682 0.09867304 2.1662922 -1.8037673 -1.1936625 -0.6970831 1.4172621 0.6709204 -1.8275408 0.13540654 -0.15670773 0.042115707 1.4062252 0.8951712 0.34961626 1.3248464 -1.3273067 -0.55292386 -0.12967141 0.7127872 -0.5301304 2.6575913 -1.7998452 -1.2147889 1.8783296 -0.95016736
83286 -1.5731484 1.900916 -0.14050058 2.2123678 -1.7437322 -1.1973648 -0.8137693 1.642404 0.8006111 -1.6947117 0.11344869 -0.21942687 0.0886761 1.340091 0.8745174 0.2963273 1.2260797 -1.3850545 -0.5095552 -0.26728243 0.70322466 -0.60321623 2.787729 -1.9166977 -1.2977723 1.8353798 -0.9496228
394497 -1.5360498 1.8450462 -0.13607313 2.1512296 -1.7278817 -1.1957206 -0.82464504 1.6205605 0.794188 -1.6680627 0.13750853 -0.22786826 0.062700495 1.3537252 0.845278 0.28172323 1.2249968 -1.38468 -0.48559776 -0.26706892 0.72123545 -0.6000371 2.7514806 -1.8737396 -1.2966301 1.8013183 -0.92187303
126296 -1.5888616 1.8098117 0.0198887 2.4039643 -1.924349 -1.228008 -0.83516896 1.5964261 0.7157776 -1.975711 0.13250104 -0.30576876 0.15389875 1.40224 0.8074804 0.3859643 1.4017161 -1.4694927 -0.6309629 -0.24908656 0.8373709 -0.6448674 2.7933874 -1.8759131 -1.2319924 1.9450625 -0.9939786
340170 -1.5576643 1.7430718 0.05029075 2.295726 -1.8254168 -1.1954966 -0.7954102 1.5362027 0.6864167 -1.913816 0.11069234 -0.28362754 0.15166606 1.3433336 0.785422 0.35060984 1.3649962 -1.4032373 -0.6224647 -0.23384812 0.81308967 -0.62645966 2.6677308 -1.8085227 -1.1770471 1.8814293 -0.9490607
14546 -1.6074436 1.8608146 0.0034466528 2.2880223 -1.9005216 -1.2271025 -0.86251575 1.4871457 0.7653155 -1.9659349 0.105861545 -0.39241666 0.1847256 1.4892163 0.833508 0.4190994 1.3457087 -1.4102052 -0.5170151 -0.2196784 0.75064564 -0.5167285 2.7806926 -1.7904418 -1.2382761 1.9830301 -1.0255026
422456 -1.5510254 1.8214023 0.0075709396 2.1935787 -1.82584 -1.1884304 -0.8337239 1.4554605 0.73966223 -1.90777 0.1284653 -0.41415855 0.16446 1.4290007 0.78936565 0.39777237 1.3361835 -1.352336 -0.5039991 -0.23895141 0.71753424 -0.5349782 2.7195816 -1.7276027 -1.1885644 1.915747 -1.0275332
518534 -1.4786965 1.7739066 0.08412314 2.1328094 -1.8872604 -1.2158624 -0.6339963 1.5785675 0.7592255 -1.8419291 0.06272254 -0.288516 0.13979806 1.3989385 0.8319977 0.3550714 1.2233253 -1.3937101 -0.50010717 -0.1658526 0.75171226 -0.47153905 2.6714766 -1.8379894 -1.2406417 1.7341936 -0.9239031
503877 -1.4818299 1.7599899 0.10334711 2.119083 -1.860439 -1.2252357 -0.6206616 1.5466027 0.7446332 -1.8240236 0.03824244 -0.29994917 0.15134476 1.4048405 0.80812764 0.34335387 1.2291206 -1.3643128 -0.49755576 -0.17124858 0.7212087 -0.46117452 2.6497605 -1.8222697 -1.2439026 1.7035224 -0.89655006
94083 -1.4990524 1.9846034 -0.033888485 2.2866628 -1.9080884 -1.360654 -0.9087911 1.6664649 0.7639973 -1.8951235 0.10982142 -0.24803422 0.06751473 1.538016 0.8580785 0.4197998 1.2985181 -1.4197102 -0.57288384 -0.2193311 0.759885 -0.5563019 2.852721 -1.9836881 -1.2116181 2.098783 -1.0980561
403965 -1.4835397 1.9493176 -0.024284348 2.2409158 -1.8932948 -1.3324145 -0.9030412 1.6578658 0.77424467 -1.8875163 0.09269638 -0.22864833 0.072132 1.518388 0.8164051 0.41262627 1.2894297 -1.4047393 -0.54863733 -0.24982078 0.7676909 -0.5387625 2.8250396 -1.9821348 -1.1937543 2.0713313 -1.0847428
3801 -1.6861877 1.8690236 0.030288894 2.2318206 -1.8825201 -1.2406392 -0.73083895 1.4501947 0.8198264 -1.9563192 0.17103143 -0.26511624 0.22382024 1.3956102 0.87687135 0.35594317 1.2926222 -1.4665344 -0.4943212 -0.16967924 0.80917495 -0.5024836 2.842022 -1.777258 -1.2327617 1.9032927 -0.9767343
454848 -1.7066141 1.9045442 -0.005978478 2.2787414 -1.896855 -1.2911202 -0.74378 1.491269 0.8419501 -1.9904689 0.16858429 -0.26457772 0.23761635 1.4303979 0.8809984 0.35201222 1.2893605 -1.4595106 -0.5268031 -0.14691538 0.8110867 -0.5104058 2.8577137 -1.8100408 -1.2455775 1.9001527 -1.0006645
540696 -1.5197626 1.7912127 -0.0746015 2.2147 -1.8684667 -1.206605 -0.81156063 1.5015538 0.785411 -1.8378257 0.09463935 -0.2547014 0.09677246 1.3828624 0.75386834 0.41659006 1.2590315 -1.3406909 -0.5260523 -0.29292026 0.8216253 -0.5983932 2.6396558 -1.9688656 -1.1850853 1.8158147 -0.8913742
103282 -1.5351616 1.756058 -0.06297755 2.197154 -1.8493581 -1.165763 -0.81172043 1.479954 0.770501 -1.8055277 0.06867739 -0.22823477 0.10837934 1.3667668 0.7455679 0.4151319 1.2108759 -1.3393564 -0.5261737 -0.31117705 0.81657296 -0.5996379 2.6045578 -1.9483443 -1.1738 1.7891434 -0.88718474
126823 -1.3764275 1.6693869 -0.08639166 1.9957379 -1.7310754 -1.1613023 -0.72371846 1.4597818 0.64626676 -1.6345369 0.0889854 -0.15988673 0.10836914 1.2400298 0.7203596 0.29744473 1.1732917 -1.3292787 -0.5244568 -0.06804685 0.6823429 -0.4762894 2.5818532 -1.8063722 -1.1335301 1.7230262 -0.8493771
248212 -1.4141378 1.6546261 -0.061517246 1.9726467 -1.7347698 -1.1323563 -0.6991853 1.435508 0.6457294 -1.6675401 0.07412647 -0.14430739 0.13064496 1.242579 0.71515846 0.2841068 1.1539229 -1.314062 -0.52976 -0.07698449 0.6761194 -0.4581952 2.594846 -1.8218247 -1.1090047 1.7248912 -0.8616405
255903 -1.4451224 1.7181174 0.08076673 2.169486 -1.7826219 -1.1964489 -0.804613 1.6664648 0.5982882 -1.7583523 0.120646946 -0.25069088 0.14688262 1.3088632 0.6962452 0.38218126 1.2588434 -1.3346045 -0.5899226 -0.20324127 0.68743193 -0.63019395 2.57557 -1.7617148 -1.2761955 2.0374157 -0.91882867
78578 -1.4421054 1.6977521 0.073784806 2.167595 -1.7973392 -1.1928179 -0.8101727 1.6592631 0.6011935 -1.7817597 0.121023595 -0.22184454 0.14515318 1.3419051 0.684754 0.38805827 1.2725798 -1.3351947 -0.5884809 -0.18036047 0.70525974 -0.63002855 2.5978684 -1.7386166 -1.2535416 2.0243614 -0.9282246
527315 -1.4696016 1.8231044 0.012602268 2.1321318 -1.8756222 -1.2051848 -0.71438134 1.4847854 0.7811565 -1.7943074 0.08913372 -0.35274315 -0.009070492 1.3379664 0.8903147 0.311125 1.3879654 -1.4236681 -0.3903208 -0.2586608 0.80982524 -0.52704895 2.6197066 -1.895263 -1.2147676 1.8622674 -0.84493273
338436 -1.4142293 1.7294363 0.036181156 2.0723073 -1.8155681 -1.1898285 -0.6814217 1.4218489 0.75006026 -1.720352 0.07374426 -0.33451024 -0.010160732 1.2773899 0.84876096 0.3091733 1.3324322 -1.3494756 -0.37130252 -0.28125322 0.7738623 -0.49599844 2.5300229 -1.8167962 -1.1614362 1.7696648 -0.8043855
60895 -1.4743053 1.7635072 -0.07828297 2.1937528 -1.8255155 -1.2659476 -0.823731 1.3836915 0.6461008 -1.8410002 0.18889196 -0.30274796 0.14029652 1.3967843 0.8520547 0.3175728 1.1902211 -1.3959049 -0.43667236 -0.22748353 0.6773558 -0.5709666 2.6576874 -1.7493387 -1.1909413 1.8584205 -0.97384423
318279 -1.5048033 1.764578 -0.063933544 2.238081 -1.8497742 -1.2734659 -0.83966804 1.4008442 0.6733971 -1.8380929 0.19914216 -0.2912607 0.13478126 1.4026057 0.8618713 0.31492975 1.1962637 -1.4353216 -0.4680737 -0.20985632 0.69666 -0.60209256 2.6780858 -1.7728215 -1.190897 1.853592 -0.9714785
59070 -1.6043322 1.7234474 0.059992906 2.2952034 -1.8032475 -1.2034265 -0.7599342 1.5991089 0.761294 -1.9118624 -0.023172475 -0.14352974 0.03398049 1.4942441 0.8261325 0.45847875 1.3701558 -1.3304206 -0.50746346 -0.28003532 0.77004737 -0.51803726 2.7642586 -1.8967772 -1.3349146 1.8691194 -0.9853485
241225 -1.6235228 1.7603747 0.07189678 2.3480666 -1.865955 -1.2521596 -0.8056573 1.610615 0.75558394 -1.9346427 -0.022097107 -0.12189919 0.03468812 1.5220907 0.8430819 0.44476926 1.3765616 -1.348243 -0.5098309 -0.27511922 0.78137136 -0.49486297 2.8082647 -1.9312252 -1.3420403 1.8924685 -1.0289335
4222 -1.5182774 1.8362877 0.029262915 2.2281067 -1.7673007 -1.2105705 -0.77616215 1.4916382 0.6840509 -1.8447957 0.14895247 -0.19954793 0.07578707 1.3400545 0.80024844 0.36690792 1.3344499 -1.450552 -0.5689797 -0.25453776 0.7309901 -0.48697162 2.7847285 -1.9662615 -1.2295225 1.9348723 -0.9722278
345661 -1.5433491 1.863595 -0.005832495 2.2056584 -1.7772967 -1.1997334 -0.77520776 1.4924377 0.68883103 -1.8474078 0.1211037 -0.22909254 0.078584105 1.3503684 0.7775898 0.37397078 1.3439724 -1.4695019 -0.59244794 -0.23689845 0.7508593 -0.5038531 2.8030832 -1.9669528 -1.2695445 1.943034 -0.9429533
545969 -1.364245 1.7921116 0.0787043 2.1483612 -1.7830768 -1.0744678 -0.6815781 1.4694752 0.75054485 -1.8580304 0.027707972 -0.2717506 0.14601083 1.1805103 0.7415879 0.34682688 1.1560649 -1.4050944 -0.4409896 -0.14517687 0.7147912 -0.49110174 2.5272563 -1.8441858 -1.05319 1.8095866 -0.8169325
274748 -1.3215961 1.7549175 0.062867984 2.0941048 -1.7575964 -1.047066 -0.6832047 1.4268358 0.7388067 -1.8028078 0.033683684 -0.26629353 0.15329143 1.1449807 0.711275 0.32173803 1.13376 -1.3650037 -0.44605216 -0.12567575 0.7086033 -0.5059387 2.450822 -1.786537 -1.0228833 1.7397294 -0.8085717
221752 -1.5261271 1.6375569 -0.09283714 2.093585 -1.7274128 -1.179721 -0.6475773 1.4260244 0.75830275 -1.6993271 0.053673796 -0.13305895 0.10427216 1.3787501 0.77432775 0.3260762 1.3017274 -1.298713 -0.4960537 -0.29368073 0.6563432 -0.48220205 2.6027825 -1.7949367 -1.1718621 1.8594538 -0.96023077
151470 -1.4945221 1.5977658 -0.091474764 2.0373144 -1.6888702 -1.163889 -0.6586612 1.3968123 0.72884685 -1.6841118 0.035471447 -0.13137306 0.1053625 1.3876599 0.74370337 0.28486708 1.2718565 -1.2914155 -0.47081432 -0.29876924 0.61901087 -0.4759604 2.5482686 -1.7733761 -1.1705596 1.8163784 -0.95306396
479267 -1.217028 1.5778495 0.18179996 1.8364347 -1.4928691 -1.105149 -0.822477 1.2418687 0.46573156 -1.4864469 0.19332281 -0.52981526 0.036874622 1.0987071 0.6658429 0.28189307 1.0215648 -1.1367193 -0.37092084 -0.13142405 0.6049249 -0.48841876 2.407269 -1.3602629 -0.96622425 1.4101065 -0.7978587
300930 -1.2256718 1.5809994 0.19568421 1.8580618 -1.5165706 -1.1579955 -0.83683395 1.267548 0.47317466 -1.5245348 0.15581357 -0.51361406 0.0446791 1.1211187 0.68604976 0.33020955 1.0317354 -1.1560543 -0.35749638 -0.16697992 0.5902594 -0.48297375 2.444654 -1.4008312 -1.0004208 1.4452966 -0.8106433
4478 -1.4762833 1.9359666 -0.04191122 2.0643642 -1.9416414 -1.2407511 -0.74580467 1.5649025 0.80218625 -1.6619105 0.045713816 -0.18170139 0.093526505 1.428155 0.8644452 0.3468795 1.2141222 -1.452179 -0.5575701 -0.28636542 0.8570331 -0.5262067 2.8681104 -1.7228966 -1.308789 1.9031218 -0.8436582
69838 -1.4562174 1.8932335 -0.045955546 2.0255818 -1.8883517 -1.209547 -0.7127191 1.508875 0.76217324 -1.6281586 0.06927747 -0.17027627 0.06261933 1.3911264 0.8116964 0.3092303 1.1900939 -1.4043802 -0.52074206 -0.2772409 0.8256946 -0.51044774 2.8015444 -1.6938065 -1.2922218 1.8436042 -0.8505397
391187 -1.4839146 1.6386156 0.031807255 1.9595374 -1.7181513 -1.1531404 -0.7619925 1.5346158 0.7714036 -1.6714482 0.10148779 -0.064462826 0.10553051 1.340512 0.7512188 0.3199147 1.3240955 -1.3203396 -0.53277075 -0.20610034 0.7404298 -0.44305727 2.4828537 -1.823807 -1.0998964 1.6549631 -0.9525116
312158 -1.4564067 1.6252484 0.05601536 1.9217582 -1.6689272 -1.1508636 -0.73060215 1.498885 0.75387526 -1.6199261 0.083592735 -0.05937625 0.08853979 1.3049586 0.71722305 0.33394074 1.300277 -1.2841341 -0.5194389 -0.22649066 0.7205212 -0.42496115 2.4502947 -1.7665541 -1.0930862 1.6321484 -0.9406368
4551 -1.4309897 1.6371306 0.01881031 2.2135644 -1.8237786 -1.1075779 -0.6406151 1.5422523 0.7745429 -1.8236712 0.030443573 -0.39187318 0.06875716 1.258211 0.77074176 0.2936721 1.1582781 -1.2986383 -0.530204 -0.23031121 0.6610021 -0.58867115 2.5785866 -1.8180228 -1.1462251 1.7677084 -0.8127104
485555 -1.4259368 1.6479648 0.034385495 2.2002413 -1.8018113 -1.0996767 -0.64462274 1.5209839 0.77678835 -1.8534204 0.05157368 -0.40361333 0.06589536 1.2394809 0.79312915 0.31892902 1.1709551 -1.2877513 -0.543111 -0.24314554 0.64243484 -0.5627754 2.55661 -1.8451949 -1.1390079 1.7566886 -0.80206835
541879 -1.2920173 1.696175 0.011298191 2.0927916 -1.5207732 -1.3056102 -0.8350768 1.5928321 0.7382469 -1.4407574 0.038778983 -0.19967675 0.22843197 1.5091367 0.7755566 0.2076255 1.3700757 -1.3551341 -0.389917 -0.3557216 0.5813495 -0.4320192 2.4774911 -1.820934 -0.90400225 1.747652 -0.96299845
208331 -1.2757806 1.67827 -0.0045067887 2.0671177 -1.499919 -1.2804697 -0.82659703 1.5750304 0.75682986 -1.4244906 0.022155002 -0.1983252 0.22425444 1.492514 0.7492252 0.18278371 1.3562503 -1.301565 -0.3951055 -0.34273827 0.5866035 -0.42970362 2.4643283 -1.7835425 -0.8900459 1.756569 -0.9329125
136848 -1.4422132 1.694774 0.10467336 1.9315989 -1.5996267 -1.1229097 -0.5570925 1.4377941 0.7194583 -1.6161536 0.17770413 -0.15922478 0.15018803 1.3375529 0.670304 0.32711852 1.1850957 -1.2356619 -0.40989888 -0.16041017 0.6935619 -0.534582 2.4170809 -1.7060317 -1.0352609 1.662467 -0.7946613
417737 -1.5026731 1.7774224 0.12193268 2.049329 -1.670278 -1.1585318 -0.5902593 1.5166183 0.76082104 -1.717725 0.19309427 -0.15832417 0.1734096 1.3996229 0.73340064 0.37333277 1.2500914 -1.2895602 -0.42298588 -0.15517001 0.7213011 -0.5458032 2.5208764 -1.783116 -1.0812931 1.7284992 -0.84265006
271744 -1.2997009 1.3883911 -0.0743683 1.4441948 -1.9616619 -0.8716241 -0.8555609 1.6299618 0.7853665 -1.4396085 0.33023414 0.044602823 0.548284 1.2519594 0.97058755 0.15531783 1.3778069 -1.3139737 -0.42497885 -0.16925424 0.805309 -0.35921878 2.371504 -1.3447475 -0.8327393 1.8219869 -0.617984
512190 -1.2784464 1.3066399 -0.10967546 1.3696548 -1.9266899 -0.8246611 -0.8484896 1.5954816 0.7846818 -1.3632476 0.33518672 0.049329538 0.554637 1.2341328 0.95025665 0.16104726 1.3414395 -1.2611582 -0.40591547 -0.19039437 0.8168059 -0.34570065 2.279267 -1.2840518 -0.7591516 1.7438694 -0.59603816
276940 -1.2956262 1.6497998 -0.014357674 2.1447003 -1.6846248 -1.318878 -0.69964015 1.320505 0.636152 -1.8046544 -0.033065487 -0.25418037 -0.07521546 1.242387 0.8275254 0.40075526 1.2649107 -1.3353865 -0.59816617 -0.22707778 0.7054356 -0.5767688 2.469058 -1.6931612 -1.1376482 1.7613993 -0.92898977
374337 -1.2623597 1.6142989 0.0116909 2.0637825 -1.6480409 -1.2861218 -0.6519039 1.2873148 0.59468156 -1.7223419 -0.01615927 -0.23730944 -0.06958047 1.2244098 0.799277 0.39162818 1.2426853 -1.2653356 -0.5740932 -0.20993736 0.6878883 -0.568724 2.3995147 -1.6381432 -1.1287531 1.7275817 -0.9087362
534230 -1.3819363 1.6138885 -0.045473352 2.0922728 -1.7131369 -1.0886306 -0.8805015 1.479649 0.799782 -1.796599 0.07362878 -0.24943717 0.10406154 1.3693185 0.74950296 0.37420654 1.2049539 -1.3660276 -0.5174528 -0.17478229 0.771023 -0.55758625 2.6798182 -1.7916614 -1.2551215 1.7476279 -0.8667047
476988 -1.3300495 1.5955356 -0.04311974 2.0553513 -1.6583351 -1.0621734 -0.83434016 1.4385078 0.76846826 -1.765492 0.073509105 -0.24408993 0.0939476 1.3433827 0.7074553 0.36054492 1.1632471 -1.3047907 -0.5178311 -0.17108497 0.7453936 -0.5471234 2.5814555 -1.7023227 -1.234903 1.6694813 -0.85351324
208206 -1.3836143 1.7565558 -0.05307904 2.037591 -1.7237959 -1.1323504 -0.74103284 1.3724015 0.6691324 -1.7281892 -0.039047018 -0.20304838 0.17313099 1.3920832 0.6679824 0.29111454 1.0644346 -1.3747721 -0.5317241 -0.29142943 0.7084221 -0.44386634 2.5384672 -1.852457 -0.9710752 1.7739401 -0.81093174
56686 -1.3451332 1.7028185 -0.06619729 2.0013561 -1.6583378 -1.0965436 -0.7535514 1.3228272 0.6384911 -1.6754466 -0.042302463 -0.20216222 0.16770568 1.3450716 0.66465217 0.27229303 1.0413585 -1.335144 -0.5068733 -0.29644412 0.6829412 -0.46650502 2.511075 -1.8239198 -0.9450278 1.7177999 -0.78659356
338274 -1.4455614 1.4717687 0.07395649 1.8273807 -1.6769061 -1.0458738 -0.6571244 1.2263045 0.6984247 -1.6721619 0.07092044 -0.22427967 0.09181051 1.2837915 0.753638 0.4255825 1.1254236 -1.1559703 -0.44969928 -0.16381913 0.55250937 -0.46146235 2.386409 -1.8084835 -1.184729 1.7471352 -0.983161
123552 -1.4625582 1.505488 0.07725074 1.8605313 -1.712428 -1.0632979 -0.65334356 1.2599791 0.7212405 -1.70289 0.06551979 -0.19970693 0.11089157 1.3151673 0.79307806 0.4247411 1.129781 -1.1600085 -0.4417986 -0.20165096 0.56056476 -0.44694248 2.4170668 -1.8302653 -1.1737257 1.7693663 -0.99656814
328688 -1.3993623 1.718991 -0.0040694354 2.2834275 -1.6016959 -0.8515359 -0.45016402 1.2726345 0.637749 -1.7263734 -0.029738156 -0.4462781 0.38853028 1.5553819 0.4605937 0.54348224 1.164579 -1.0853555 -0.6220235 -0.1689059 0.484809 -0.19911468 2.3251348 -1.3494189 -1.2064964 1.9849844 -0.99885666
296268 -1.4768488 1.7432352 -0.036939032 2.2628481 -1.6073896 -0.8639587 -0.47059932 1.2815105 0.64246714 -1.7289879 -0.020615082 -0.4675029 0.36536476 1.5525486 0.51176244 0.5565832 1.1399577 -1.0955173 -0.5582045 -0.21015023 0.48101616 -0.24557835 2.3062878 -1.4222995 -1.2029682 2.0043013 -1.0010077
439902 -1.0254164 1.5847548 -0.091199905 1.8375967 -1.7081791 -0.9648354 -0.5315158 1.4212061 0.8862607 -1.6069697 0.2767542 -0.131535 0.21100308 1.3854998 0.758659 -0.11421152 1.1577446 -1.437702 -0.09342765 -0.39179203 0.7310025 -0.43835813 2.5331783 -1.5831971 -1.1929389 1.9325471 -0.69861335
114245 -0.9944214 1.5752157 -0.12684782 1.7965286 -1.6947736 -0.97514117 -0.5495242 1.3952585 0.8621253 -1.5639149 0.30784506 -0.10057932 0.2216489 1.3747066 0.7927404 -0.10869039 1.1404418 -1.4282786 -0.07032143 -0.35354707 0.66806996 -0.46701565 2.5029833 -1.534455 -1.1749786 1.9232682 -0.6864744
217025 -1.2556666 1.7042922 0.001175973 1.8112072 -1.7046989 -1.137046 -0.7387512 1.3977085 0.766635 -1.7233298 -0.033745974 -0.105361864 -0.0014749954 1.2625355 0.770256 0.30008587 1.159889 -1.2142028 -0.56949675 -0.3833361 0.65976137 -0.5682081 2.4446726 -1.5974002 -1.0674511 1.6966468 -0.89544415
243012 -1.2633559 1.7433432 0.029877363 1.8319244 -1.7305412 -1.1229045 -0.74225014 1.4319463 0.77763665 -1.7277681 -0.026676185 -0.10945873 0.036556397 1.3055665 0.8121076 0.31864187 1.1626874 -1.2566065 -0.5921364 -0.38963985 0.66593874 -0.5873677 2.4565885 -1.6379983 -1.0775499 1.7219582 -0.9072396
531586 -1.4699317 1.602063 0.027555902 2.069028 -1.5874228 -1.1819524 -0.66578037 1.2463925 0.6420293 -1.6845026 0.15479511 -0.20629187 0.101473704 1.1391116 0.61273724 0.35125276 1.2297927 -1.3031027 -0.41548955 -0.09212577 0.694914 -0.40793106 2.4939442 -1.7835027 -1.1091439 1.7307535 -0.94212323
356621 -1.433886 1.5495456 0.05236713 2.0186064 -1.5227251 -1.1385338 -0.64951706 1.2176316 0.6328886 -1.6207463 0.13541992 -0.19545482 0.12761869 1.0972351 0.6012275 0.35977265 1.2100991 -1.2384616 -0.38690937 -0.052845065 0.69365937 -0.3662043 2.393011 -1.7107618 -1.0803348 1.6782675 -0.9161604
101770 -1.3211997 1.5355012 -0.13473976 1.9448642 -1.6671094 -1.127913 -0.6716219 1.3841012 0.57867867 -1.4792368 -0.04918197 -0.2188193 0.17485724 1.2907919 0.8768803 0.3235971 1.1189625 -1.2616843 -0.46378937 -0.13289627 0.54644567 -0.4158291 2.5051763 -1.57587 -1.1853962 1.7434499 -0.7568366
169762 -1.2917773 1.4634814 -0.1251325 1.8607082 -1.579335 -1.0971185 -0.64073646 1.3227663 0.57270145 -1.421839 -0.048903145 -0.23766212 0.16640556 1.2677711 0.8397608 0.29226846 1.079102 -1.2143998 -0.42434555 -0.11023855 0.5222218 -0.38217893 2.4302824 -1.5081 -1.1372795 1.6939007 -0.7394671
5353 -1.4554079 1.7937719 -0.041958712 2.175293 -1.9256189 -1.052618 -0.673802 1.4516269 0.6941464 -1.8016334 0.18350989 -0.39003038 0.15509908 1.367898 0.78082407 0.34121287 1.2588489 -1.338935 -0.66875684 -0.1006749 0.7145043 -0.4585222 2.6772742 -1.7360362 -1.2333868 1.8324816 -0.8658613
133233 -1.4092417 1.7460709 -0.03997032 2.113817 -1.8972079 -1.0153515 -0.6896668 1.4193542 0.68644553 -1.7450022 0.16079491 -0.37022308 0.1634154 1.3651123 0.77411574 0.32366413 1.2660412 -1.3110079 -0.64836764 -0.09936835 0.6675802 -0.460268 2.602606 -1.6880852 -1.1839834 1.7862022 -0.86292624
357755 -1.1081125 1.5759732 -0.12909535 1.7027199 -1.6883806 -1.3764572 -0.43813282 1.1964462 0.6082838 -1.2577935 0.076254584 -0.22160551 0.100936875 0.74605703 0.8430989 0.072605416 0.8325707 -0.81767994 -0.3641675 -0.07392822 0.45664957 -0.7043329 2.5025811 -1.9371259 -1.0752599 1.6467746 -0.9876002
261327 -1.1502776 1.6004509 -0.11065703 1.775218 -1.7045727 -1.3810223 -0.44482425 1.2368829 0.63908815 -1.2831129 0.076444566 -0.18168789 0.095689386 0.78373516 0.874272 0.112992674 0.87530875 -0.8231455 -0.39538544 -0.06796801 0.4444326 -0.72120535 2.545456 -1.955079 -1.1133014 1.6702213 -1.0304811
465703 -1.3160344 1.4950501 0.13886976 1.8458424 -1.5669227 -1.126191 -0.73731977 1.2963248 0.60306007 -1.6592983 0.011303403 -0.1403482 0.073871166 1.3143301 0.67067504 0.329592 1.251967 -1.2767287 -0.509324 -0.227219 0.71669054 -0.5752951 2.5638294 -1.5941288 -1.0601709 1.6421034 -0.99115866
470143 -1.2433208 1.3762944 0.12985416 1.7286345 -1.4234544 -1.060746 -0.65825546 1.2096198 0.5813738 -1.5698626 0.038844667 -0.16063948 0.09121874 1.2090468 0.6150174 0.3126703 1.1726096 -1.1853127 -0.45452178 -0.21688119 0.6409184 -0.53923136 2.3858113 -1.4957341 -0.9754582 1.5242655 -0.9181152
425258 -1.3910091 1.6412762 -0.123568624 1.9199318 -1.7105103 -1.0712756 -0.70077455 1.3104088 0.771611 -1.7522507 0.056009833 -0.11559783 0.17898801 1.4388063 0.87343365 0.29074135 1.2629354 -1.3239436 -0.46544197 -0.23689067 0.6271422 -0.43188688 2.4618895 -1.708353 -1.042213 1.6568744 -0.8746596
352332 -1.3431636 1.6113601 -0.12893675 1.842908 -1.6296911 -1.0197985 -0.69694823 1.2537695 0.7206526 -1.6644737 0.0719747 -0.09366408 0.14032607 1.3819499 0.8454871 0.2659238 1.2022904 -1.283479 -0.4703398 -0.23049664 0.5979166 -0.44829848 2.343671 -1.6662967 -0.9993144 1.5836498 -0.8259806
17767 -1.3811005 1.2065524 -0.109077476 1.7860138 -1.2902483 -0.9774133 -0.6712952 1.2595291 0.6580772 -1.2839795 0.21129598 0.07617385 0.103711285 1.0349709 0.6488742 0.22980316 1.3014553 -1.1289493 -0.64462155 -0.32230887 0.27596468 -0.78844565 2.1922948 -1.5926943 -0.9302815 1.6141987 -0.8651755
277206 -1.3263477 1.1222484 -0.10395521 1.6853714 -1.2182307 -0.92812896 -0.6338273 1.1655906 0.615461 -1.1753597 0.23899958 0.09513253 0.14319617 1.0078291 0.6128433 0.19695778 1.274073 -1.0623242 -0.67247707 -0.31271112 0.24306582 -0.7815183 2.075201 -1.4935819 -0.891659 1.5523788 -0.8068848
140499 -1.5338233 1.7964653 0.14980678 2.1806636 -1.6586838 -1.1608574 -0.7299842 1.5595082 0.6251323 -1.6353368 0.008537737 -0.06438418 0.07421139 1.2495257 0.7834521 0.2821187 1.1598716 -1.1707674 -0.62071544 -0.15058956 0.8723296 -0.56872547 2.6807942 -1.7918025 -1.3234237 1.869868 -0.7385056
324808 -1.4152327 1.6588148 0.11261385 2.0222688 -1.5507188 -1.1088334 -0.70272535 1.4827137 0.5235622 -1.5331874 0.015815688 -0.0756447 0.057521235 1.1729019 0.7516404 0.27074134 1.0773206 -1.0943394 -0.5823341 -0.13256846 0.824035 -0.5013419 2.5187495 -1.6500201 -1.2396592 1.75692 -0.6558634
152536 -1.5029011 1.6132793 -0.080522984 1.8816847 -1.6483552 -1.1834196 -0.4993349 1.2983563 0.7040999 -1.7102853 -0.06719394 -0.43029904 0.10553347 1.4375827 0.76217407 0.16100802 1.0475335 -0.9836015 -0.38007218 -0.22782396 0.82419276 -0.4493329 2.4517767 -1.7846508 -1.0082953 1.6796414 -0.80865675
448126 -1.4578605 1.5211214 -0.049253017 1.8094838 -1.5747752 -1.1610653 -0.47673863 1.2739744 0.69935995 -1.6239276 -0.07086845 -0.4090087 0.12477039 1.3991989 0.7574075 0.15228397 1.0014161 -0.92385453 -0.36107954 -0.17849839 0.7886531 -0.4471859 2.3919208 -1.694933 -0.98960185 1.5851759 -0.7626645
200070 -1.2193211 1.5115424 -0.04229723 2.2929866 -1.4909517 -1.2795196 -0.6059903 1.2200612 0.59151524 -1.765533 -0.23995748 -0.6561957 -0.06598585 1.6928297 1.0647224 0.4368044 0.9524088 -0.9108756 -0.5138641 0.07119722 0.7763321 -0.60241884 2.534484 -1.6858742 -1.2014393 1.4520049 -1.1966296
284074 -1.2546964 1.5501612 -0.03529376 2.3140218 -1.5172328 -1.3118062 -0.6074331 1.2378819 0.62372476 -1.8008275 -0.24946123 -0.6683913 -0.027608147 1.7150931 1.0704178 0.4103369 0.9609441 -0.92916083 -0.5141562 0.09465185 0.7614265 -0.6507047 2.5596974 -1.7267355 -1.201869 1.47816 -1.200355
414279 -1.4305072 1.624176 0.01345768 2.0937135 -1.5916963 -1.0539031 -0.6949032 1.5664294 0.7221178 -1.6669339 0.28507563 -0.06429777 0.109139994 1.3446643 0.7805389 0.4024075 1.0582955 -1.358233 -0.61536807 -0.23024982 0.5757327 -0.3692128 2.429917 -1.7491275 -1.0345446 1.8084735 -0.82712126
86545 -1.413178 1.5648799 0.027127739 2.0903728 -1.547688 -1.0364648 -0.6755645 1.5270021 0.71239316 -1.6220192 0.29124185 -0.084579326 0.1340516 1.3364903 0.7347181 0.42713267 1.0330878 -1.3413719 -0.59931827 -0.20188777 0.5878637 -0.35297698 2.366301 -1.7151638 -1.0005813 1.7819597 -0.8037622
68367 -1.435046 1.6416787 -0.09321855 2.0656965 -1.7297943 -1.2797655 -0.7052101 1.4726131 0.74434495 -1.7657361 0.039813284 -0.29530543 0.32317224 1.237338 0.7505178 0.10463506 1.2311945 -1.506862 -0.38748607 -0.22782955 0.7351834 -0.51584584 2.6877973 -1.6940137 -1.1221203 1.8078152 -1.0429589
125299 -1.368422 1.5542688 -0.10214936 1.9164511 -1.6035293 -1.2197068 -0.6239184 1.4152296 0.6678215 -1.67027 0.038735934 -0.29268804 0.29526737 1.1867317 0.69525576 0.103054665 1.1739658 -1.407189 -0.35682324 -0.18629196 0.70187545 -0.45811114 2.5406349 -1.5810755 -1.0763645 1.6998988 -0.9923786
78064 -1.2555878 1.5458659 0.072157666 1.8179069 -1.3584881 -1.0185778 -0.5611229 1.2362425 0.46226388 -1.5561138 0.04134746 -0.00034648756 0.13213703 1.3644829 0.7334471 0.4290026 1.1779237 -1.0674175 -0.35739133 -0.19842528 0.7504655 -0.4539978 2.505896 -1.7140148 -1.0866194 1.8204764 -1.0182508
353416 -1.291727 1.5612307 0.058585126 1.8076962 -1.3768045 -1.0108303 -0.5569978 1.2867668 0.46684656 -1.5605438 0.06236448 -0.011249894 0.12339201 1.3855557 0.7676739 0.4205968 1.184215 -1.0982714 -0.38045415 -0.21432656 0.7660498 -0.46103632 2.548983 -1.6958334 -1.0929224 1.8381385 -1.0380608
377196 -1.2959341 1.5766594 0.027587898 2.0260627 -1.6760547 -1.1954834 -0.5807619 1.2955046 0.5688188 -1.5269558 0.18682076 -0.24771456 -0.115647234 1.2624265 0.63474417 0.106295265 1.0768713 -1.1866459 -0.6303797 -0.10427489 0.630198 -0.5725496 2.3036072 -1.7462226 -1.0111084 1.5217845 -0.8258663
238480 -1.2965734 1.5523816 0.027722798 2.0211165 -1.6757427 -1.1662822 -0.57985014 1.3002592 0.5739969 -1.5198356 0.21578263 -0.2726932 -0.112247735 1.2823668 0.6284297 0.10405322 1.0835736 -1.1623482 -0.6245719 -0.110042125 0.64954084 -0.5712347 2.329768 -1.7515799 -0.9989882 1.5594637 -0.8474635
78878 -1.32002 1.8850144 -0.012006802 2.0870132 -1.7829661 -1.1422024 -0.60379106 1.3069232 0.65169704 -1.6751844 0.108760394 -0.23798658 0.27957192 1.2118604 0.9534734 0.29515445 1.2041194 -1.1262192 -0.44736516 -0.37278977 0.6873071 -0.4240944 2.6459837 -1.660119 -1.1700286 1.895228 -0.8549955
386780 -1.248358 1.7932464 -0.037127998 1.9935637 -1.716126 -1.1084511 -0.57298005 1.265504 0.60963684 -1.5933832 0.104401395 -0.26619628 0.28101477 1.1301703 0.88657296 0.28286916 1.1495663 -1.0844427 -0.4541722 -0.3660647 0.6720664 -0.407475 2.512797 -1.5930558 -1.1216801 1.793735 -0.8237027
108891 -1.2757934 1.2920246 0.122829184 1.7610945 -1.7380018 -0.7537189 -0.6328373 1.6151768 0.9159136 -1.6659529 -0.12703224 -0.11158711 -0.0385971 1.2426869 0.43558034 0.24012831 1.2804507 -1.3869294 -0.6185804 -0.32809016 0.4992672 -0.38929024 2.2546 -1.4939216 -1.3487157 1.7130593 -0.69986063
45728 -1.2566859 1.2172 0.1360688 1.6915557 -1.7458949 -0.7439854 -0.60960835 1.5740688 0.9166916 -1.6300763 -0.12478554 -0.066884525 -0.05912176 1.2375374 0.38986313 0.1774664 1.2712138 -1.3603665 -0.6019487 -0.3154618 0.48845407 -0.34505263 2.188259 -1.4727714 -1.3390074 1.637444 -0.6375015
6201 -1.3586992 1.819526 0.104503885 1.9342427 -1.9121891 -1.2668376 -0.9027423 1.4567893 0.42032605 -1.6401138 0.024040619 -0.07530727 0.13869677 1.119506 0.6759542 0.36920634 1.0192845 -1.235255 -0.36247438 -0.024822732 0.8598961 -0.44703487 2.6671314 -1.5978694 -0.94349533 1.7201151 -0.5907773
375348 -1.3724498 1.8158728 0.069977686 1.9407479 -1.9385321 -1.2740664 -0.9100678 1.441859 0.42238593 -1.6750078 0.007126237 -0.0561033 0.16226728 1.1328583 0.67906463 0.34563255 1.0561728 -1.229731 -0.3959801 -0.0013403769 0.87129194 -0.4758455 2.656924 -1.5979255 -0.9647869 1.7595533 -0.59779423
523244 -1.3993837 1.4584105 -0.04372518 2.0083706 -1.6787251 -1.0521278 -0.63745713 1.2991488 0.8921466 -1.7371557 0.04435463 -0.14574292 0.13709897 1.3200989 0.9830317 0.36485395 1.0856463 -1.2506992 -0.4858304 -0.22237991 0.6125462 -0.3305072 2.4252884 -1.8232217 -1.1478043 1.7580495 -0.9036381
542759 -1.4180595 1.4401798 -0.018331202 1.9691375 -1.6539158 -1.0732297 -0.5964018 1.3005438 0.88715184 -1.707748 0.0280024 -0.14099863 0.15167281 1.3073515 0.983132 0.35509253 1.0733975 -1.2111276 -0.4794516 -0.20168558 0.6300823 -0.30188864 2.3981736 -1.7833314 -1.1399804 1.7331176 -0.8737747
142362 -1.5781124 1.3627889 0.3086421 1.8557167 -1.646619 -0.69770414 -0.52505463 1.4315337 0.51179737 -1.3794775 -0.1756787 -0.46106535 0.59292763 1.173437 0.59753627 0.3857261 1.4071031 -1.2280475 -0.42068216 -0.3593387 0.3813646 -0.3277518 2.3385992 -1.5006155 -0.79729736 1.8961297 -0.5716263
518063 -1.5995722 1.3309321 0.3353184 1.8308579 -1.6362338 -0.65483737 -0.5048207 1.4042631 0.45695367 -1.3436397 -0.1809909 -0.4596085 0.6595582 1.149136 0.5861712 0.3921734 1.4401251 -1.2381287 -0.4406963 -0.3928129 0.35722956 -0.30275607 2.3283448 -1.4508013 -0.73151237 1.926583 -0.51944816
370985 -1.6015657 1.6226896 0.17221081 1.9542001 -1.5930053 -1.0159198 -0.6223063 1.2506169 0.799325 -1.52892 0.21490052 0.18528105 0.25390226 1.1957246 0.7902147 0.3508058 1.1605628 -1.5404454 -0.6511726 -0.18833531 0.6848004 -0.24390765 2.8281782 -2.1189046 -0.92002356 1.776297 -0.7545433
6598 -1.5844309 1.5912875 0.13397788 1.9065448 -1.5253026 -0.974867 -0.62108964 1.2378193 0.7862729 -1.5064695 0.21240588 0.1986944 0.2629815 1.1591487 0.7519877 0.35966182 1.1577482 -1.5096045 -0.6345068 -0.19632058 0.65203387 -0.22677332 2.7683442 -2.0827293 -0.87545097 1.753504 -0.7473681
230102 -1.3886809 1.5940152 0.17538957 1.7067912 -1.5606171 -1.0917832 -0.59829235 1.558861 0.5684135 -1.7277989 0.1671861 -0.09658305 0.26641482 1.1296821 0.66389257 0.3087757 1.1786752 -1.0018281 -0.57252485 -0.3968741 0.6998797 -0.4438754 2.4609458 -1.672438 -1.1347222 1.7611344 -0.7488777
98497 -1.3430638 1.4837215 0.15877692 1.6134216 -1.4923221 -1.0249075 -0.5472304 1.4760091 0.5542604 -1.6366485 0.18368421 -0.06861004 0.27037495 1.0944501 0.62229794 0.26903307 1.1054351 -0.92847425 -0.54900193 -0.39164323 0.6761371 -0.46145397 2.3368075 -1.5695646 -1.0663579 1.6888652 -0.70542
272732 -1.389418 1.6511996 -0.12646154 2.099615 -1.6706264 -0.9857945 -0.86649305 1.5446398 0.65074515 -1.4486073 -0.15509632 -0.30870488 0.06325881 1.2459092 0.7498247 0.3567197 0.97333586 -1.3499457 -0.4240955 -0.09089099 0.5720073 -0.63329107 2.4754853 -1.479436 -1.094251 1.4915285 -0.86760414
174466 -1.4096717 1.6562033 -0.104586035 2.0883982 -1.64421 -0.9707541 -0.8425599 1.539715 0.62987596 -1.4429897 -0.15607573 -0.29759127 0.09270799 1.226512 0.77157885 0.33437252 0.9620869 -1.3357947 -0.43885955 -0.09868073 0.58524674 -0.61251867 2.466639 -1.4374847 -1.1049238 1.472917 -0.83003604
451102 -1.2023951 1.381778 -0.036318716 1.5539804 -1.5232604 -0.78937584 -0.27936485 0.8274272 0.5926378 -1.4132841 0.07611093 -0.50573534 -0.21841425 1.364227 1.0965061 0.5179339 1.3673841 -1.2642459 -0.41735768 0.0493288 0.68118435 -0.7360773 2.0852244 -1.6197965 -0.58272403 1.3766359 -0.62904096
21024 -1.1976599 1.3927703 -0.05416032 1.5750812 -1.5258172 -0.78224975 -0.25915697 0.82285714 0.60446024 -1.421139 0.08056941 -0.4882605 -0.23264018 1.3620149 1.0858305 0.50166184 1.3688451 -1.2633356 -0.40037987 0.038491864 0.7006812 -0.7063032 2.0659401 -1.6116505 -0.6447822 1.3789568 -0.6174261
122239 -1.3862355 1.594316 0.115600124 2.0061626 -1.6561896 -1.135064 -0.61438996 1.378351 0.5903512 -1.5260922 0.24686214 0.12357494 0.093481876 1.1589985 0.6227848 0.11598859 1.0475111 -1.0736538 -0.38531393 -0.22294073 0.5829444 -0.4048917 2.665387 -1.6742483 -1.0641432 1.9672599 -0.9596929
128192 -1.3817593 1.5829506 0.12371297 1.9784877 -1.6594852 -1.1267394 -0.59715134 1.3494445 0.6116708 -1.5247476 0.21322404 0.12310857 0.095925555 1.1656374 0.6139255 0.13104296 1.0325619 -1.0500083 -0.360574 -0.22327392 0.61130786 -0.4356809 2.6364336 -1.6631411 -1.0918714 1.959284 -0.961472
409159 -1.1036291 1.787385 -0.21865787 1.7685124 -1.7513347 -1.1042132 -0.6266927 1.3231584 0.4980551 -2.2659597 0.28202543 -0.62646085 0.07712188 1.1498969 0.71172637 0.16585095 1.393463 -1.4457109 -0.28047118 -0.12788829 0.2998268 -0.6219413 2.5872505 -1.6180258 -0.8555855 1.6519098 -0.95394695
531972 -1.0284396 1.7142093 -0.22973345 1.7202755 -1.6834052 -1.0579981 -0.6066629 1.2647576 0.47334886 -2.217062 0.29667675 -0.6706353 0.051774632 1.1070405 0.6939965 0.16713724 1.3547031 -1.390664 -0.25695136 -0.17204371 0.24275199 -0.6333074 2.5017996 -1.5222855 -0.816817 1.5679806 -0.95194143
496825 -1.3004608 1.5108267 0.0082799755 1.9271487 -1.6278573 -1.1317658 -0.5536149 1.4478266 0.65285033 -1.7232965 -0.011507173 -0.3235419 -0.0757953 1.2098111 0.69976884 0.26649016 1.2535601 -1.1861566 -0.51370597 -0.20829478 0.5736247 -0.4958407 2.4734643 -1.6651974 -0.8828622 1.5165635 -0.96260846
248561 -1.2805986 1.4790769 0.0075645726 1.8640598 -1.5883538 -1.1086472 -0.54093957 1.398908 0.6394136 -1.6987376 0.005988579 -0.3207443 -0.071547404 1.1898556 0.6834363 0.2542063 1.2280557 -1.1392034 -0.48874763 -0.19949768 0.5475423 -0.50027806 2.4319315 -1.5983627 -0.85215706 1.4796727 -0.9537404
252239 -1.1504272 1.5317129 -0.10837669 1.5605966 -1.580984 -1.0364975 -0.7220255 1.2686418 0.68956155 -1.418041 0.149276 -0.058983043 0.088585444 1.2624958 0.6815932 0.11538813 1.2597501 -1.1325113 -0.40646672 -0.30013305 0.5301233 -0.49895066 2.1665566 -1.502557 -1.141546 1.6058633 -0.9105168
134645 -1.1048627 1.4332885 -0.118032664 1.4825565 -1.5119051 -1.0179093 -0.6627655 1.2343047 0.6492305 -1.3670498 0.1416622 -0.09069356 0.10730217 1.2094975 0.65657884 0.09887864 1.1955703 -1.0591418 -0.36875677 -0.27889308 0.48316452 -0.4536153 2.0569947 -1.4199032 -1.0760372 1.5064025 -0.8584196
387840 -1.2101173 1.0319256 0.4035432 2.1844032 -1.5826474 -1.661489 -0.6109752 1.2048851 0.24569343 -1.3122678 0.07071322 -0.20855662 -0.13150305 1.2299153 1.0534116 0.7019019 0.5427183 -0.97204524 -0.3522983 -0.15588161 0.4918672 -0.37297344 2.3697374 -2.0305495 -0.8126002 1.642616 -0.82398814
180100 -1.1808954 0.9452717 0.41719833 2.1386344 -1.5261681 -1.6679366 -0.6203519 1.158668 0.20910317 -1.2790271 0.03220371 -0.20830452 -0.16951324 1.2269722 1.0673773 0.7031889 0.49567577 -0.92895085 -0.3333176 -0.12318904 0.5037078 -0.35044378 2.3440418 -2.0179036 -0.7921653 1.5906985 -0.83086795
52486 -1.3272828 1.696613 -0.10389155 1.9401153 -1.5489422 -0.9442992 -0.559859 1.3827007 0.7569137 -1.5941449 0.20980448 -0.078404754 0.3461159 1.2875459 0.68968004 0.13685156 1.1621153 -1.3548679 -0.59256953 -0.29759738 0.63775223 -0.61010134 2.30279 -1.7281808 -1.2247905 1.8210887 -0.81692713
50486 -1.322706 1.6656044 -0.10839589 1.8819929 -1.5316641 -0.90309596 -0.54399693 1.3500295 0.77540404 -1.5643046 0.19372775 -0.08442403 0.33145395 1.2862866 0.68551266 0.12995684 1.0969502 -1.3177655 -0.59589505 -0.29753628 0.60235614 -0.5823267 2.249735 -1.6610117 -1.1717144 1.7680523 -0.8253195
451859 -1.2574042 1.135838 0.32218552 1.3868303 -1.8662237 -1.0364668 -0.88825536 1.203718 0.3315393 -1.97492 -0.06138917 0.19433115 0.5193026 1.4541692 0.49232313 0.36687478 0.77083796 -1.0860696 -0.50056005 -0.06627776 0.7295893 -0.24317694 2.6214852 -1.5268998 -0.57495177 1.4755046 -0.6487823
410736 -1.3120753 1.2175751 0.31131732 1.478247 -1.9435217 -1.1122766 -0.8886242 1.2861215 0.36044168 -1.9829875 -0.020403448 0.19669206 0.5272857 1.5081761 0.53243035 0.36667418 0.8605091 -1.1278911 -0.52495253 -0.096627615 0.7496764 -0.30469176 2.7128003 -1.6077799 -0.64980555 1.5641844 -0.71225286
333279 -1.3177581 1.730308 0.00049333833 1.7485977 -1.5065334 -0.96727794 -0.7101467 1.2550635 0.96439844 -1.6657348 0.079985365 -0.27484506 0.13859345 1.4644538 0.7981398 0.40289202 1.1288253 -1.3957705 -0.6570568 -0.33735767 0.5815196 -0.5456136 2.1660259 -1.6561491 -0.9412735 1.7096757 -0.63114357
246032 -1.3038168 1.7214819 0.01069885 1.7276553 -1.5187625 -0.9847563 -0.7172102 1.2311729 0.95413125 -1.6479162 0.07970064 -0.3121281 0.12493326 1.4603161 0.83647084 0.3772422 1.1466092 -1.3964355 -0.6500096 -0.35834476 0.5876707 -0.5672254 2.1762161 -1.6481072 -0.9622786 1.6876613 -0.6510449
427166 -1.6381451 1.7438865 -0.117715925 1.97667 -1.8000662 -1.103525 -0.7003232 1.2298374 0.4312429 -1.5938073 0.11031952 -0.2738422 -0.1688315 1.1544878 0.8342892 0.27009377 1.2234699 -1.2392159 -0.21218476 -0.13641503 0.5761208 -0.2719968 2.4925592 -1.6231408 -0.93538344 1.7834232 -0.7769881
454764 -1.6854393 1.7856629 -0.10019842 1.9994694 -1.819385 -1.1493119 -0.6928465 1.260355 0.4356329 -1.65858 0.13351007 -0.2805644 -0.16836941 1.1954483 0.837394 0.25798863 1.2379969 -1.2992243 -0.22669902 -0.12849739 0.60400593 -0.275945 2.5233629 -1.6619406 -0.95216185 1.7868263 -0.8052543
7787 -1.6920369 1.649166 0.097106345 2.1029284 -1.8875173 -1.1335335 -0.6448391 1.5404177 0.6696001 -1.7722195 0.2461543 -0.11492453 0.10958875 1.1942602 0.7066168 0.4020344 1.3968678 -1.4141644 -0.57073694 -0.17277442 0.5759137 -0.45940298 2.742995 -1.7057068 -1.0840645 1.6333193 -0.84777695
340165 -1.6414536 1.5665228 0.11285919 2.0198634 -1.8481953 -1.1286129 -0.64859563 1.5047038 0.6818562 -1.7001294 0.24510162 -0.10800024 0.11173132 1.1671487 0.7143881 0.3872561 1.3537736 -1.3303959 -0.527568 -0.20145543 0.5772152 -0.45135716 2.650332 -1.6545736 -1.0440724 1.5758028 -0.828536
7798 -0.98317516 1.5276427 0.010891912 1.892593 -1.6376357 -1.2459632 -0.8340289 1.1746458 0.704218 -1.5884808 0.12292639 -0.025754116 0.3598774 1.1461784 0.69348747 0.08090346 1.0223651 -1.444546 -0.15249917 -0.17603083 0.7300317 -0.25540957 2.3642313 -1.7902855 -1.243799 1.8034099 -0.5623229
516294 -0.9549165 1.4882833 0.0029726499 1.898185 -1.61508 -1.2360545 -0.84337515 1.1649103 0.687199 -1.5300095 0.110984966 -0.036748692 0.3628582 1.1112683 0.68974847 0.08907651 0.9886083 -1.4343143 -0.1343821 -0.19012128 0.73549217 -0.2428186 2.3358595 -1.7713559 -1.2296832 1.7788596 -0.5510473
