8775 20
19743 -5.282721 -1.2287211 10.360855 7.1679835 10.309188 -1.8174751 8.768551 1.4729813 -2.8370671 7.9990125 -0.9759469 -7.411397 2.9616952 -1.2829244 -6.669418 1.4937903 -2.8453157 2.1734145 -6.812833 0.7220582
21729 -4.831325 -1.4785737 10.326381 7.65732 10.140561 -2.510152 9.125635 1.9658363 -2.750757 8.00123 -1.298089 -7.5915995 2.7761679 -1.2201238 -7.4113936 0.8572836 -3.1786454 1.9975042 -6.686889 0.43542844
14497 -2.985738 -5.293865 3.508186 -2.4099119 1.2882698 -9.729281 6.5735755 1.3468106 5.7881436 6.4269238 -3.8822627 -5.9025702 8.45401 -5.195387 -2.0288088 1.9138577 -4.9636064 4.0442557 -6.54803 2.220438
1387 -4.787886 -2.9454687 8.334995 0.6916368 4.8998237 -1.7931333 8.143446 -0.84995544 -0.26036105 9.222719 -6.1770415 -5.4818387 11.547141 -0.65178066 -1.5774906 2.647268 -1.984028 2.5140514 -3.6132493 4.413396
21120 4.517978 -3.9978385 -6.187799 2.3179607 4.9564824 14.334483 3.8231122 1.4010516 -7.2226396 -6.860674 -0.31019264 -8.734538 -2.461586 0.6232132 -11.949685 -4.0606427 -5.8711405 2.0959911 2.3315709 -7.2558765
14650 5.6686597 3.3924086 -9.143605 10.577491 0.35957387 7.736529 4.301858 3.0164719 -0.6514758 -6.768284 -1.9156351 -10.360294 -0.21548791 3.4678352 -10.099964 -8.73849 -7.4552374 1.8405458 3.4237714 -2.143904
8883 -4.7164564 -0.5715396 4.393626 3.5249004 6.0722585 -5.6566873 8.047668 -4.857091 6.087646 7.6807966 -4.8906507 -1.8147123 8.059722 1.7603515 3.8088272 1.8091216 1.375474 4.4238763 -8.658377 5.800742
8139 -0.40370572 -1.6219374 6.8330216 1.0442911 0.5533445 -5.021096 5.3789606 -1.4776387 2.909945 8.652305 -4.4275208 -5.054651 8.109152 0.42291924 -2.568765 4.353998 -2.643753 4.0898438 -5.3327346 5.0038476
20415 -4.1938996 7.0290165 -6.7188964 8.068811 3.569386 3.757296 10.404615 10.127565 3.0317929 -6.8782306 -4.1019 -6.887962 0.47255066 1.4582294 -10.878977 -5.4986024 -4.6315517 2.8694553 0.34070078 -3.9898462
13294 2.0742674 -4.976419 -2.3405998 0.42851904 3.3437197 12.547762 0.1302596 -1.4976257 -10.645931 -5.4119067 -0.7303885 -6.7197433 -3.002332 -1.7901428 -10.7451725 -5.6514497 0.1721532 0.89740855 2.9770327 -6.402048
11332 -11.590438 -0.25481927 13.062715 3.402383 7.0658045 -1.6785946 6.4590573 -8.951355 -3.1641574 2.8163404 -1.7859745 -5.6379666 1.0800793 -3.5137272 0.371069 5.8294272 -1.4289345 1.9205873 -6.487411 0.9029747
9220 -3.5440927 -1.884337 4.8492 0.77804506 0.95947224 -9.069769 5.5291657 -1.3423334 1.8909122 6.9374585 -6.0261087 -4.0775456 6.176364 -2.9769707 -1.7721977 3.312534 -3.3526862 1.9822863 -3.2305014 3.281469
18906 -10.649551 -0.5263363 4.136896 7.914678 3.8943193 -3.7602143 5.2917566 -3.7205055 -1.5724227 1.3972534 0.21475235 -1.9109995 6.5806403 4.038855 3.9066458 3.0031035 -3.5608265 7.226019 -5.1018577 8.8600645
18966 -3.4719193 1.8058923 4.8008285 -0.22779983 2.1739638 -3.024731 7.5766187 0.14384617 7.8425336 6.3725157 -6.4710464 -1.3225772 6.914512 0.10374901 -2.3951857 5.159147 3.7137868 4.463957 -7.414148 2.236883
16809 5.8767986 -4.077161 -4.2582965 3.525935 0.88933784 -1.6062391 9.591786 -4.2583504 2.1672893 -4.178026 -10.153353 1.2913842 -2.3512638 8.552048 -8.183081 3.959263 4.453895 -0.15300114 0.95325226 1.0110998
16977 -3.047772 -2.5509257 6.519126 -1.2372934 2.7462368 2.9564216 7.542794 0.28195074 1.8588282 3.442146 -6.1010222 -5.608717 6.705357 -0.4495322 -6.9520082 5.5196123 -4.585757 3.1211712 -4.8889146 -2.6600223
5212 -6.0722513 0.20309861 3.9263544 9.212457 9.2132225 0.29603896 1.8325125 -2.0555263 -3.7242303 4.02443 3.4252846 -4.20241 7.14595 -3.2732213 1.0544969 2.7555983 0.28222024 3.7577264 -10.09147 5.8319817
8482 2.5081158 -1.7794462 -0.10391448 -2.1146324 4.357785 6.8153086 11.942095 -3.5401406 -1.4486383 3.133339 -8.602185 -9.094598 4.5031576 0.07964152 -12.707577 4.056827 -1.9595525 4.3976827 -1.5590801 -8.741739
18155 4.2006097 -0.5134469 -9.85321 4.6204095 0.5951246 5.4402857 5.685507 7.1978908 -0.016540062 -4.320245 -1.6979218 -9.601827 0.30414155 -2.3336174 -10.213168 -8.742242 1.8232474 -2.0380676 3.1522934 -3.3878753
12464 -4.148952 -1.475174 3.97658 0.10215029 -0.84423953 -7.228757 3.9807405 -0.5462597 4.332619 9.348015 -4.185884 -4.2278996 6.2193503 -1.9342117 -3.972252 2.2656176 -2.1581867 0.9750136 -4.5374126 4.595888
17384 -3.9389153 2.6671085 3.9732652 0.1875511 -0.28911573 -5.347513 4.192181 -0.3362087 1.39803 8.943876 -2.9338255 -4.9886684 8.860614 0.590044 -4.029005 2.2545428 -1.6452944 0.9898996 -6.0614333 3.9915292
961 -3.4568975 -1.4704511 4.263614 -1.9273498 1.2029759 -6.655173 5.319092 -0.29099834 2.582508 5.0076632 -4.8570127 -3.675543 4.9577856 -1.80797 -1.5397108 4.531467 -3.9534936 4.272554 -2.9291158 1.4745965
9176 1.6173716 -1.0834794 -1.6036112 1.2562338 5.524092 10.691897 -1.5359654 -2.6897871 -9.766854 -2.57115 -1.2521482 -6.438391 -3.5496507 1.7664275 -4.393182 1.0547535 0.88038933 -0.3842815 1.7003782 -4.3045583
18216 -4.464664 -0.06643217 10.414156 -1.6235616 3.9378614 -4.1061926 4.9767013 -8.528013 -1.3171942 4.6843905 -3.0993104 -6.1452584 5.03089 -1.3711425 0.44830963 3.9393 1.3474137 4.0722136 -10.2373 -0.24735647
17726 -4.7717013 -0.044106442 4.18325 2.1667638 2.8913126 -4.381291 2.9233859 -3.7729645 5.775534 6.841641 -3.194549 -0.19320926 6.639276 0.86680794 -0.77617216 1.6323222 -6.231324 5.770086 -6.6448846 2.1705837
6441 -6.1241236 -2.502856 3.960369 2.3287537 6.615351 -1.2270204 9.129832 -0.581075 1.2266797 5.018115 -0.9531987 -4.0016994 8.500963 -1.7182443 -1.5008763 1.7508247 -2.2870672 6.2201366 -4.36879 4.671919
20276 -2.325797 -2.4783807 4.196748 -2.7052915 3.015164 -3.553033 3.7294378 1.2865027 2.1165483 5.600138 -3.117588 -4.0887613 5.4421515 -3.0539272 -2.9229615 2.265801 -4.4250216 6.2529144 -4.905772 2.7435467
17983 -5.003535 -5.2748375 9.728061 2.9427078 4.7202497 1.8127297 2.1267464 -4.955226 -5.113515 2.1477008 -4.7043123 -2.0013402 -3.1669443 -4.4484725 -10.5116625 0.15953355 2.735512 1.7710487 -13.317344 3.8790796
7467 -2.5565288 -1.8370057 5.3419614 -0.9785533 3.4037752 2.815337 6.743586 0.82894653 0.7249084 2.1287117 -5.8053017 -6.7972894 5.41016 -1.2719367 -4.8965726 5.267274 -4.122001 2.5550063 -5.9693274 -1.3798448
7362 -1.7044003e-05 -6.6063347 -4.126709 -5.6455665 7.379762 9.536631 6.7468724 -2.9439106 -10.456981 -6.973041 -2.378391 -10.046795 -2.8348022 -5.900739 -1.060489 2.9637873 3.7135777 -2.066455 7.9086285 -5.7868714
5183 -9.821723 -2.8615997 6.4819684 7.390813 4.499691 -3.9312809 5.4638777 -3.4050431 -1.3888915 -0.7352062 2.572858 -0.756161 1.1122838 3.9003265 2.2572372 3.5183222 -1.1331952 5.9581804 -4.3098397 7.1375422
3735 -10.112667 -4.1059985 3.5719378 2.0746944 6.600202 -0.6886591 6.1553698 -0.24659142 0.8808738 6.957174 0.27700296 -4.700643 4.6290255 4.970206 -2.5254333 -0.57856536 -1.8302132 1.7881376 -9.283392 3.931624
17402 -2.1618943 -1.2168512 6.5142765 -2.1634994 1.7585257 -1.192473 8.423542 -2.3500698 1.3920689 6.6170235 -3.1804528 -3.5263197 6.886127 -0.88171345 -5.8985376 4.2767987 1.7517377 1.938869 -2.476128 0.9937135
6045 -4.780089 0.50384116 5.801527 -2.2042174 3.4627616 -4.681427 3.7112842 -1.4164087 0.004971177 4.120485 -2.9232025 -4.6662455 4.6467094 -2.470794 -0.68302065 5.2122135 -2.8563106 5.7100058 -5.727873 -0.62016135
3070 8.037601 0.6862184 1.013466 -0.80598813 1.5422583 3.6186414 2.0760853 8.825218 1.9255866 -8.583769 6.5749774 -1.7759882 -1.6431645 3.996343 -3.8522408 -0.43915516 2.6124628 2.156148 1.3188391 -4.638291
17386 2.3460324 0.26862043 -3.2800784 1.3241832 4.0327473 9.039899 -0.84961885 -3.0624251 -7.93547 -3.4796393 -1.543796 -7.4815903 -4.5189886 2.2284167 -4.650064 -0.25825405 -1.1939043 3.3133326 2.2136467 -3.1193354
909 -0.74936086 -4.868351 15.065039 -3.9884007 -0.18742627 -12.671455 3.1514585 -4.8607197 -1.1529645 8.001205 3.0088346 3.0558736 -1.2959615 2.9165034 -2.8080447 -4.0156975 5.796939 -0.015028333 -5.122931 8.768162
904 -1.922164 0.70474625 -1.8298644 -1.506492 9.03266 6.027917 5.8550816 -0.670547 -3.2606041 0.5918925 -6.0287685 -3.9635208 -2.033653 -6.7692037 -9.798376 7.0215397 2.088104 2.3888805 -3.0207858 -4.2652817
7663 4.1425195 -2.533176 -1.8690025 -1.6137478 0.086277895 7.792053 5.6401296 10.300492 -7.767145 -6.2080483 -0.013849595 -12.542921 0.92695737 1.533553 -7.9720697 -2.4652383 4.9203315 -0.27910113 3.577791 -4.1795893
212 -3.2272108 3.734362 -10.548674 -3.4553065 -3.0451953 2.7246697 -2.225386 -1.8374474 -2.257324 -0.763991 -0.20635095 -7.0930514 -2.0713885 -1.9181358 -1.539871 5.4545975 -1.926184 -8.837581 5.691737 6.986363
4499 -9.600665 0.7632876 5.1427383 6.486946 2.710011 -6.0177965 4.9865165 -0.9793432 0.4081638 4.795907 3.6922483 -8.098903 4.498262 -3.3184984 -1.1016474 0.9729016 -3.5558054 1.8771578 -5.281671 2.6141427
19792 -3.4784305 0.38090113 3.0967987 -3.1600933 1.4106469 -3.817465 1.7872608 1.1106489 2.7197533 6.040688 -3.472397 -3.8848696 7.2201076 -1.2847776 -0.23482941 2.8465838 -4.2828875 5.3069687 -3.315258 0.8295672
13098 3.0717893 0.17424501 -8.894528 4.491822 3.1454003 11.376809 0.17291707 -1.7045596 -3.6472647 -15.694 5.209467 -2.2498832 -3.4183943 5.1626725 -1.9665687 -7.992217 -7.620124 -3.0611334 4.1226907 -7.6057625
2664 -2.6672852 4.452623 -11.768925 -3.644859 -1.1455652 3.7599983 -0.6101503 -0.90647703 -4.9673347 -4.0728283 1.2570226 -4.839807 -3.3016386 -1.2252537 -3.7328663 7.356485 -2.5717347 -5.5373087 5.8498683 3.3711286
2597 -4.4270864 -6.9661574 6.7181783 -3.9233944 -0.06449402 6.0661526 -7.6651354 -2.2742667 0.11514944 0.59730554 -0.102189474 -2.5229387 -0.15932019 -7.6401286 -3.3534522 -5.2942624 0.044831656 -2.9575462 -5.756497 0.40372434
8505 -2.4255424 -2.6014159 -3.4629745 1.1536015 -4.6575 0.6278071 -2.888628 -3.9372227 -2.144826 -0.29999083 -3.4012418 -9.944036 -7.4185367 -1.6834042 1.1187204 9.26021 -2.07568 -4.8802323 7.3648562 7.515331
14031 -5.772011 -1.2523026 8.378135 8.48175 8.549391 -0.24859296 5.7114162 -1.7191963 0.3606781 2.048783 1.0371586 -6.9256473 4.656886 -4.523964 2.5598946 1.4297005 -4.5051556 0.5074292 -4.2569265 2.9854097
3973 0.3959493 -4.3367867 -0.561623 6.95958 2.881176 6.5292187 6.8073273 -2.2180305 -2.1282978 0.56743103 -6.7031674 -5.0624566 -3.753567 1.5730082 -7.8999143 1.6980255 5.249802 -2.0447054 4.6857867 1.1258683
17370 -2.8178353 -1.867254 10.901201 3.5938635 7.4893312 0.38274124 5.3856006 -0.13421026 -4.7567415 2.8494217 -1.0835085 -4.2684402 5.917908 -0.18568242 -3.6062663 1.3704737 -0.146664 -2.9519439 -3.3647006 -3.922665
16093 0.53594136 0.40870076 4.753464 0.19575906 1.8303965 -1.5966685 3.4783497 -1.1064576 1.6425889 7.5817833 -5.648126 -4.753074 6.1673265 1.206421 -3.645347 2.4918637 -0.9427233 4.854371 -5.362496 1.1619349
11611 1.1380218 3.404426 -5.773879 -0.97888285 1.7291815 9.12096 0.17598622 -6.4368525 -3.4739347 -3.8229616 -0.5322068 1.5692114 4.1711984 0.3422147 -3.8815486 7.424051 3.114285 -5.163562 0.9770985 -4.420685
12677 -2.4150834 0.20511708 10.671251 0.5498568 2.9669132 -5.1010346 1.6203407 -8.721475 -5.097908 -1.0655806 9.675643 8.317149 0.7147033 2.6355643 -5.659723 0.23504572 -2.3286612 2.616658 -5.721939 8.259566
4296 5.783301 -8.793469 9.556913 -10.857148 7.045146 -3.7488947 -5.2155247 -0.29710808 1.2776544 2.7392783 3.4000206 1.1736722 -8.710286 4.2366734 6.0786657 5.193422 0.2858478 6.5363016 -4.2420774 0.9754401
11719 1.8899593 0.16397618 2.4714575 0.48366097 5.1978116 5.251092 5.788206 3.5031853 -1.1936373 -5.2428317 5.068383 -2.258954 -2.2114089 2.9324598 -9.442421 -2.2987206 -1.9333719 3.1949186 -3.7521596 -4.716653
16427 6.465804 2.0471468 -0.7457112 -0.73258984 0.6550797 4.252684 3.3304694 4.975149 1.478697 -8.909963 5.999131 -2.1010861 -0.76569945 4.0099554 -3.9474883 -1.0843017 2.9560115 0.9639094 0.47742745 -3.7467632
8351 3.8334544 4.4751854 -2.4314413 -2.3848953 1.0964577 4.167417 2.9563594 6.058173 -0.58355725 -9.029223 6.231452 -3.1204307 -2.9221427 3.4132142 -3.8850567 -1.2520854 1.3039718 0.9461612 1.5660218 -2.2590926
6806 -3.6339135 -0.57305926 4.879508 -1.3344356 1.1721016 -5.3665366 3.1819997 -0.9189657 2.6536374 4.8028755 -2.8733156 -0.8751734 4.0956974 -1.6582808 -2.4723542 3.7839124 -4.090557 5.3705263 -2.1279984 1.368512
20632 -7.3892565 -3.23273 4.211335 7.1376786 2.8590636 -4.616585 3.5649736 -4.4986143 -0.32410103 0.71580017 0.3712108 -0.07640333 2.5679512 5.905149 3.0810897 0.8471787 -2.8304741 8.646768 -2.7989192 5.71179
14790 -0.6063186 -4.0058985 7.099984 -3.655706 1.7086965 1.4054368 -5.5796566 -0.6535948 0.6651151 -0.66849583 6.27511 -1.4113513 -2.8997293 -10.468934 -1.5497582 -5.057102 8.335671 -1.8606839 -0.17975211 -4.7791014
19448 -1.4889524 -4.8925977 0.21221092 1.6964829 0.84464616 11.213064 0.10739872 -3.67974 -6.531148 0.9110176 -8.662476 -3.623074 -4.602692 1.4328666 -9.224145 1.4949753 5.255222 -0.73313075 3.7922678 -0.9071411
710 2.7542922 -0.04352746 -3.584118 0.29837358 4.7133293 8.151885 -2.7369184 -2.899212 -9.574926 -3.4833703 -0.60275817 -5.1936383 -4.379562 2.868022 -1.8961384 1.1540679 1.2772272 -0.8511537 3.111612 -3.606063
22100 6.084018 0.90106136 -1.2841533 -1.0209242 1.1895188 3.7547061 2.6161468 4.569631 0.19933769 -8.985745 5.260606 -1.4715917 -0.39448723 3.6014388 -3.778078 -1.1777967 2.5885532 0.6367335 -0.5099519 -3.3394537
8153 2.5971935 -2.2223039 -7.0484695 5.8773904 -0.23257619 5.68758 1.325694 -2.4510605 -0.99678445 -11.664091 -0.52199686 -6.344537 -4.3209643 -4.9424095 -4.4803267 -6.4445257 -5.6253324 0.10686298 4.1720285 -3.9008658
20343 -3.5439072 -0.38650972 2.9083378 1.0249238 -0.07433616 -5.2564487 3.1508768 0.262465 2.2944684 6.6505995 -3.1653638 -4.2298493 5.746972 -0.279395 -1.7613409 3.0301852 -3.3917778 2.5424397 -3.530161 4.0001054
19000 3.7049654 -1.5184567 -2.172348 -0.5864192 1.1552916 13.855349 -0.16484214 -2.853308 -5.39062 -5.5482545 -0.15991516 -3.8451886 -1.2787282 -2.492716 -9.5846615 -2.5709786 -0.010485116 0.78506154 4.760212 -6.2588773
19870 -4.5063825 -3.909241 3.1782992 1.3273541 4.4486012 1.7825512 7.5327296 -1.4563131 0.4439482 4.836177 -1.6873807 -5.7306814 7.444038 -1.9174856 -4.393113 3.611244 -0.34358555 3.0847638 -5.231192 2.5300345
19992 0.8170033 -0.17334323 5.311856 -5.254522 2.340139 0.83084863 7.4298553 0.15345533 2.799213 2.124289 -3.2679403 -5.0039725 4.11602 -1.5850184 -5.063794 2.845469 -3.4995477 3.8832393 -3.592585 -0.5894251
5513 -4.487908 1.2671592 0.7086185 1.2779229 -0.36835548 -6.088223 3.0103157 -5.9507904 1.0068111 5.223794 -5.249726 -3.4777312 8.361181 -6.085931 -1.49411 1.0189344 -2.442288 2.9196637 -2.1922224 2.1553996
5622 -2.932618 0.53767174 2.692569 -2.3575892 0.47003374 -5.352817 2.0971396 0.50681275 2.0548315 7.1100707 -4.186471 -4.073562 5.4468603 -1.1301374 -1.387059 2.570978 -4.443283 2.5340977 -2.4308643 3.1931353
19135 -12.147984 -0.0070635844 4.536567 2.5541375 0.5782035 -1.8077122 5.8440804 1.2947652 5.3985186 2.658276 2.2566915 -5.178658 1.4046729 2.7936707 -2.5696287 -4.2894363 -2.3025064 2.9711041 -7.4265747 6.1006103
3533 1.5857654 0.13569713 -4.278187 -4.574836 5.4685626 8.650366 -0.3492306 -8.975491 -4.7901917 2.3619304 2.05722 -0.11308884 2.7374527 0.96568805 -5.1490817 1.0826603 7.503859 -9.302994 1.1215602 -1.4004574
11585 5.3299556 1.228979 -0.5758215 -0.3151973 0.17795852 2.532978 6.9199777 4.3380575 2.2638965 -5.7478056 2.6593337 -3.8581147 2.0444598 3.2988427 -6.354213 -1.9166276 1.4173776 3.0128632 -0.94701576 -3.134996
17392 -6.3009663 -3.2172546 15.847991 -1.1422421 -1.320637 -4.773559 -4.602353 3.0475688 1.0225568 -0.6363554 10.517298 -1.4873928 -4.9569626 -3.6725492 3.1766288 2.3219485 -0.22592695 1.1517648 -2.5164108 4.3430386
11710 3.457086 6.3760176 -7.2389717 3.129094 -0.14591059 -1.3664228 2.03137 7.812656 2.5743616 -5.3765607 0.8494118 -3.7604067 1.2525057 1.278811 -1.6419971 -8.651321 -0.18107551 -1.1060658 4.101995 -2.770161
4907 12.97256 -0.60826635 -2.8965442 -6.242609 6.311928 3.7948809 -0.16634242 1.1906863 -7.166144 0.242279 -5.828469 -0.88266224 3.7523575 1.1446216 3.5587192 -1.0152742 6.28059 -1.3492559 2.645375 7.609962
8216 -5.4990783 3.7059917 5.335708 0.97141993 2.267007 -9.526933 3.8190296 2.396288 10.604256 7.499931 -1.3864677 -1.2111181 4.553685 -0.464388 5.455751 7.5119143 1.5427433 -1.1116349 -5.5597363 4.1792607
16618 -1.9947112 0.8786455 -1.6368848 0.6325506 9.672794 11.977105 -1.337699 -0.06862541 -9.5773945 3.1084225 1.7997199 -9.0029545 -4.3012953 -1.3954837 -3.387897 -0.4292752 0.7122782 -4.8207 -3.1347115 2.4489315
1827 -6.5733705 -2.060913 5.251342 6.5085483 4.288327 -4.6711392 6.842868 -2.9453773 -2.3314512 -1.2026658 2.4338393 -0.63785475 4.1014333 3.4012256 1.6494536 4.6324134 -3.8371902 5.7608023 -0.96336615 5.083769
9359 -6.7886424 -2.476596 1.4875575 -0.18429926 1.7407234 -0.56964004 -0.9788583 -4.2006035 -7.708795 2.3605254 -6.2292767 -3.2156827 -2.6400974 -10.092358 0.8414588 5.9216313 4.163922 -5.102459 4.7571692 9.209737
4003 3.2385635 -0.47967097 -1.987557 0.52537566 0.5267519 2.2538953 0.76935226 2.1403975 -7.009841 -2.6278534 -4.9092665 -0.004208856 7.5836997 4.3380632 2.1413095 2.9117062 -0.5958617 4.3436265 -4.357794 13.036758
22403 2.0260618 5.939624 -4.478887 0.4488608 1.9338288 -0.32693604 -1.2015425 -3.7460456 -1.4746723 -6.621268 -0.24978057 5.0000806 6.7669945 2.3943727 1.161894 6.953317 0.30324262 -5.013255 -0.45548013 -3.5448244
21231 -1.6361024 3.8045688 2.8383594 -0.49612117 -0.054953188 -4.858993 2.1260777 0.1368909 1.9413947 7.9992476 -2.1744576 -3.9808037 6.0423775 -0.49713492 -2.6838536 2.927176 -0.25935626 1.6155393 -4.0722027 2.3761544
17148 -1.3426322 -0.69803905 7.5326586 4.293348 2.6951225 -2.5001404 7.89016 -2.7540712 2.845958 2.3285716 2.0452363 -5.897442 8.602794 6.550723 2.617986 -2.007575 1.8828292 3.2292206 -9.520669 4.365751
8348 5.0758443 7.076003 -7.8526144 3.789553 -0.11486283 0.46564072 5.170831 6.785275 2.8697622 -7.3376255 2.2068052 -5.556086 4.2623158 3.9442976 -0.83760595 -6.3775043 -1.2949336 1.0537326 3.295905 -2.4202924
15114 -6.2811847 -2.8929036 5.5755324 6.013245 3.4285963 -5.1399217 4.811927 -3.2869399 -1.6887895 -0.17053302 0.00585802 -1.6453886 3.9728804 2.6662707 3.4957552 3.5597832 -2.6184382 5.748488 -1.9216894 4.217852
1193 1.3644984 6.635538 -4.2277136 -0.284052 1.4658359 0.15991727 -2.0712025 -2.5469444 -1.4413575 -6.0008903 -2.2639074 4.6423345 6.471546 2.9459188 0.86486673 6.550042 -0.5364512 -4.9617405 -0.18069781 -5.2039847
6926 1.5510042 1.550189 -4.36637 2.3615956 0.92235786 8.148134 -1.162382 -2.6263957 -5.770614 -5.1260934 -1.3490306 -7.196679 -5.576616 -0.9499612 -4.8705106 -0.027819427 -0.1221399 1.5717039 2.3292124 -3.1503413
15763 2.4906864 0.28655922 -3.4559152 1.1962816 4.0493093 6.6209993 -1.0183415 -2.6270244 -8.71707 -3.5968263 -1.3252536 -5.3969345 -2.7635617 2.6054413 -2.5674603 1.0816085 -1.0415441 -0.708584 3.6264827 -3.9622784
20559 -7.499108 3.604559 1.0469809 4.4312663 4.726038 -3.1998303 5.531577 -2.179546 2.6224253 3.542696 5.220349 1.2886152 7.21476 5.874395 -0.7149945 3.3305435 -3.8920047 2.661486 -9.310317 5.683586
9677 -3.6117623 -1.1736026 12.396087 -0.87509316 -3.5393314 -6.245803 -1.2106525 2.707546 2.541727 5.3677554 -0.36028558 -0.36860856 1.5240227 -1.8214988 -2.7505572 1.8581258 -0.63615566 5.746592 -5.169625 4.9267097
1372 -7.9610224 -1.809877 5.7489576 9.13844 8.131541 -0.13091972 5.6637444 -2.6979527 -4.1840215 -0.26560187 0.57626444 -2.671993 3.7718008 0.51258606 1.8330545 3.2069495 0.4332177 -1.3676299 -4.6855273 2.1517565
481 -5.971217 -5.720624 -3.3467524 -4.1736465 4.1658306 1.9706526 -6.594733 -0.9752108 -9.273805 0.14705198 -4.165031 2.3140562 0.67231137 -12.066528 -1.614561 -0.6917607 3.1743598 -2.3836846 6.3038025 -0.27493227
61 -2.9850469 -9.047056 4.659541 -6.0691957 -1.1478493 0.34597114 -9.472511 -2.5690768 4.2846613 0.09613469 1.1147785 -2.4406612 0.8168824 -8.595635 -0.13035458 -1.8044676 1.211131 -0.8915273 -5.975585 -6.5961056
11538 -1.2150633 -1.1888537 4.8239646 -0.48293185 1.686379 -3.679988 2.1956737 -0.5827252 3.8775146 4.372656 -3.4034846 -1.2072554 5.2152953 -2.6351254 -1.6446484 2.6542435 -4.540378 6.1148415 -2.7122836 0.12281331
2311 -1.113065 1.0819025 5.798981 1.6046709 0.6212224 -5.9927845 1.070459 -2.587649 6.6264114 5.590956 -1.3947717 2.1790757 5.2999444 -2.1133108 -0.98794687 1.5230634 -3.7980826 4.90354 -2.9414904 0.52248186
21325 3.5457156 -3.3575113 -4.165183 -2.066388 6.774949 8.419776 -3.4639065 -3.876691 -5.6556554 0.1724331 -5.305389 -0.7929445 -5.0407205 -2.3366508 -6.62023 -3.2644722 -0.68677557 3.6093037 3.445508 -5.3718433
3300 1.9067166 5.209961 -4.9393992 0.3309662 2.3818274 -0.2741604 -1.4885916 -3.6439798 -1.790155 -6.0952296 0.16291559 5.3794947 6.546838 2.591074 1.193419 6.556015 0.97887146 -4.7984414 -0.78409 -3.833549
22438 3.6897323 -0.64670473 -2.2942922 0.8296119 5.2361245 6.3813834 -1.7870526 -0.4803605 -8.209632 -7.5659485 1.2018539 -3.134751 -4.0349975 2.4846756 -3.3869417 -0.97322017 -1.3289342 1.9328685 -0.39532116 -8.259533
7961 -1.5573298 -2.0304282 8.567756 -0.34561852 3.4936378 3.6427221 6.613812 -0.9814222 -0.20795287 3.188465 -3.4107394 -6.3657126 7.1513042 -0.6759553 -5.678408 3.1899443 -0.9655546 -0.7522713 -3.9881287 -4.5148225
2942 -1.3145072 -0.4848163 3.9039886 -0.8037541 1.9225167 -4.6198425 3.3719015 1.7467617 3.2177167 3.7426264 -3.5670352 -2.8224947 5.9985094 -0.91633886 -0.15868273 0.83215296 -1.2442561 5.64543 -5.342938 1.276449
8993 1.5045979 0.6269574 -4.673882 -2.2465048 2.3503277 7.277417 5.7113333 5.880498 -6.5774226 -5.5844426 -1.9280016 -12.3540325 -1.2866523 0.06278395 -6.9162536 -1.7433076 2.148754 1.543026 0.17900959 -4.092417
7015 2.959866 -2.5063922 -0.7143898 -0.19246475 0.8361141 8.618419 -2.6920333 -3.0913608 -8.105642 -2.6719136 -0.89315003 -5.815577 -4.6242466 1.7884897 -4.206974 -2.1340346 -1.7605796 1.1198245 6.147679 -1.7696645
3838 3.700546 3.2664883 3.0812879 2.162723 -0.084433325 2.647613 -2.027899 0.9900281 -1.7622528 -5.7876887 -5.3955092 -2.2998497 2.2437906 0.9458889 2.4224453 5.438307 -3.8203175 3.3472843 -6.9211917 9.316452
12936 -0.43822128 -2.324191 5.981755 -2.045499 0.75233316 -5.190924 3.030207 2.1360276 4.1500206 5.9094424 -1.7844915 -4.1630783 3.3334002 -1.6901777 -1.2765751 -0.5185577 -0.2653206 3.3816152 -4.5416975 2.8959959
21496 -3.533562 -0.3347425 4.106153 -0.9740198 1.9314908 -5.42454 2.6313713 0.7732406 0.5773237 4.375289 -3.1508982 -4.1254306 5.1366773 0.71392673 2.705309 3.9220495 -2.3175244 4.113763 -3.2794933 1.3529751
6213 4.8731027 -4.689518 5.598497 -5.1532903 0.5768171 -6.6277876 -1.8178347 -7.578038 4.18329 1.4626479 4.2389245 0.83863837 -4.112107 -1.7192132 4.4456406 -0.62913305 4.4664035 -1.5598474 -5.8979955 7.8066688
9164 4.880161 1.5420974 -1.5533111 0.5012885 0.823119 4.990486 1.5579132 6.271996 0.41529515 -9.540983 4.7232876 -1.8862984 -1.9696609 3.0784006 -2.8783903 -3.4931958 2.6726518 0.19706081 0.01576995 -2.9400222
18856 0.9387549 1.5370355 -1.7679378 2.3008485 5.0329022 8.9431 -0.301705 -2.4159331 -8.351268 -0.07127879 -1.3600966 -6.0149903 -2.9590824 2.0589492 -4.3677616 -0.12325249 -1.6499318 0.42734274 5.537187 -1.3807005
15362 1.4488434 5.2761693 -4.714743 0.22428335 2.1336918 0.20031601 -1.1225313 -3.0367432 -1.4274516 -6.0329313 -0.13064982 5.1114864 7.189742 2.4891882 1.4919385 6.2392983 0.52408314 -4.5695186 0.2662899 -3.8193214
21088 -0.39092785 -0.32754695 9.498541 1.0867114 5.193768 6.744237 3.8672237 -1.0198454 -1.534857 2.5980306 -1.6615494 -8.313622 6.158807 -3.957478 -5.3329463 3.2511714 -3.0660686 1.0909864 -4.065723 -5.439134
17502 -0.6855818 -4.086624 4.2893667 0.28095785 1.2844666 5.5872836 3.06502 -2.4178243 -4.825029 2.6008966 -5.596059 1.9229013 -1.4029944 2.1157522 -9.6014 4.1687 7.7473445 -0.29510713 3.81604 0.9019267
13525 -1.409172 1.8064666 -4.73975 -6.363495 6.463801 8.803878 2.904288 -9.146413 1.4026607 1.3902941 -0.9521283 3.1249712 6.351005 2.1876538 -3.1340828 1.9982599 2.1054187 -5.508508 1.842073 -2.0562534
1783 1.3889289 1.191099 1.0532382 -4.1439843 2.8597276 3.3923223 -8.173422 0.20937933 -0.43539274 -3.7466846 4.1993647 2.8891242 -3.8971455 -6.7080984 1.0262157 -6.123112 11.078961 -3.930121 6.0036154 -6.85053
17598 3.1474423 -0.10351008 -2.714606 1.2769833 2.8336453 6.56313 -2.96921 -2.8598773 -8.491608 -1.6079878 -1.3243413 -5.2283807 -2.6403034 2.7736647 -2.5850112 2.3214083 -0.86583143 0.37162936 3.1536715 -2.4146168
15963 -3.2195864 3.2768793 0.88844883 -2.0979028 2.2199278 -4.513957 3.0213678 1.5363413 2.3778944 6.874541 -2.5682776 -2.485568 6.701652 -1.9033234 -1.5710248 3.503912 -1.4186853 1.2433546 -3.53916 2.1040342
12783 3.596064 4.248129 -2.254639 -1.4631802 2.274163 4.7069054 2.093319 5.9976 0.31797007 -9.221413 3.8968062 -2.495384 -2.6476638 2.1029212 -2.923194 -1.1440715 1.5691416 0.63550985 -0.7996178 -3.275066
8519 -2.6724117 -3.0292268 8.289048 3.0790808 6.399094 1.5731057 4.3729486 0.11902998 -4.6982536 2.665358 -0.059741415 -4.817123 4.7765627 0.34591043 -3.353265 1.7765697 -0.83103067 -3.9552696 -1.7051449 -3.2798588
21922 -2.7374933 3.8672824 -1.2692441 -4.812153 -4.039883 -1.2659383 -2.0464945 -3.5250225 2.1998913 -1.4587647 -4.905149 -3.7143478 -5.564834 1.276145 3.6182268 7.685093 1.5133054 -6.01621 5.6392612 2.3295155
365 -1.7473333 5.9653234 -4.6695886 -2.8990057 -3.96442 1.5672836 0.042795576 -4.2738924 -1.3008738 -2.7361948 -2.6059024 -3.2891212 2.22064 2.1704457 4.241317 10.202423 3.1741812 -9.814235 6.100792 1.9176339
9138 1.0368983 -2.2224572 -5.549016 -0.6299686 -2.524008 3.9934871 -3.6127825 -3.3961082 -4.5897017 -0.78447425 -2.6583087 -6.59756 -3.0477204 -4.2591767 -0.7684066 9.072354 0.9646376 -5.7072787 4.023191 7.0089517
11775 -1.7555878 -1.5206543 4.5912776 -2.2038782 3.1068525 -1.0987144 4.8808517 0.7014158 1.0466903 5.5594263 -2.7360783 -3.3368099 5.8497796 0.5490841 -3.9901438 2.2496312 -3.6742423 2.9673038 -0.7271756 -3.2004163
6189 -5.324293 -3.7212775 9.208894 0.08024693 5.0982947 3.0151286 3.3618832 1.4343817 -1.6652973 6.6560063 1.3270924 -6.553643 2.1329224 -2.39967 -6.0671573 0.091579095 0.24122196 -4.4631686 1.5851822 -4.8704
16721 6.5682974 0.7229024 1.6468351 -3.9928071 3.6197865 9.502905 0.3323033 -0.44861174 -4.0078144 -0.8262421 -0.12807585 -7.623771 4.363328 -9.0342045 -7.689156 3.3672662 -2.4470904 -0.43082324 1.913388 -5.813578
4518 -5.9038935 5.88506 1.7929255 -0.21847485 -0.9646101 -6.629353 4.044202 1.1034722 7.677111 6.6474457 -0.7293779 -1.1060134 6.0026217 1.2782048 -0.33428207 3.6346579 -1.3558123 1.2258196 -3.6929839 3.5554636
11149 5.69742 2.7245944 -5.664142 2.531473 0.717383 0.44709507 4.0265293 6.858699 3.2479675 -5.3468876 -1.7012045 -6.755001 3.869155 0.21821764 -2.090518 -6.575601 -3.1966183 -0.41416794 1.8218822 -2.954107
16466 -3.5643532 -3.3798864 8.706451 -0.88392437 6.097602 -0.81517756 5.353564 0.49974132 -3.2801983 3.1291187 -2.098112 -5.1143456 5.0158195 -0.51297605 -2.0300782 -0.6652538 0.16062954 -1.5183223 -3.866746 -4.16025
8585 3.0039673 5.887894 0.003786614 4.7581115 -6.5358605 -3.1750646 0.32222944 -3.9248009 5.8240314 -7.615763 6.244716 -3.082207 6.5558624 -4.1234064 2.053181 7.805437 4.916878 1.5282503 10.021234 -1.5551634
2114 -3.220715 -1.798258 13.422847 -1.4379038 1.5276769 -7.6648765 -2.974249 -1.8898728 3.0118659 -0.5855334 0.3878432 9.106401 -3.914153 6.823034 3.2398765 -5.4163136 -6.265417 2.2035315 0.8281174 1.7455018
17247 -0.030063909 3.1596642 -0.8600993 -3.097453 3.3858938 3.9629254 0.49463814 1.6235323 -2.3711417 -2.0115554 -2.5166066 0.01757177 -1.3590817 -6.148941 -8.713381 5.054707 2.9346042 -2.2296917 1.0581869 -4.62272
19063 -3.4074714 -0.9057619 4.4812484 -2.8816352 1.5112795 -4.666601 2.2820642 0.37313557 1.7918296 3.538913 -3.0227883 -3.1065295 3.0264587 -3.1877882 -0.25283468 3.5825806 -1.9328121 5.032348 -2.9477916 0.758032
14659 0.1638726 0.18689838 2.496729 -3.9611688 1.6078075 -5.500935 6.7932544 1.1965107 1.1319734 1.5648258 -2.853647 -3.5258934 3.980107 -0.70769477 -2.6076977 3.158866 -3.8477142 4.257865 -2.0208354 1.4810143
12353 -2.4798942 -1.8728256 6.578237 0.83463717 0.8858082 -3.1484177 1.2623777 -5.305172 4.0931296 6.463278 -0.86223763 -1.505615 2.6660988 1.2385384 -2.0046227 2.1269474 -2.747658 6.7163167 -4.117125 -0.09942589
15470 -2.1303635 2.1702628 -3.790263 -1.7907306 4.7360873 0.73930246 0.0113127595 -8.200152 -2.8451166 -2.6510494 -0.66520154 6.4353123 7.381007 -0.13144197 1.7388113 0.9982802 2.867904 -5.5482626 -1.8162128 -1.8907864
4786 -9.348824 0.27181673 3.6062238 4.2596154 4.635816 3.2311587 4.1155977 0.5101549 1.9564867 5.924386 3.1499484 -9.066423 1.9379485 1.6650932 -3.764498 -0.93051267 -1.9894783 1.5273278 -6.804767 3.1477683
13441 -4.1004286 5.4930387 8.177743 6.550466 0.5541416 -0.22083798 1.1898379 -1.9037961 -0.023307448 5.400998 6.200002 -2.5989048 8.658193 -1.0570649 -4.6523123 0.87164545 -3.0880492 -0.67332953 -4.9290977 3.4563413
19231 -6.0190797 0.93668675 2.843401 7.460891 6.3405204 -1.1098226 4.425676 -2.2131364 -1.792087 -1.2731531 -0.9382037 -2.7043054 3.004995 -0.21663272 4.0860043 0.45708397 0.3981765 3.3483152 -3.551682 5.3211665
11644 -0.40179616 0.1897311 2.5896676 -0.23502117 0.8824381 -4.101385 2.8196115 -1.4572961 0.761588 4.2829995 -6.181011 -1.7833871 7.0387387 -5.3373046 -2.288429 1.307003 -4.676385 2.0795002 -1.9604473 4.558574
12280 -3.4701138 -4.4816475 6.5123606 2.2143512 5.0765176 2.4634473 4.090107 -3.2239907 -3.8993857 3.6199882 -0.9313159 -2.382659 6.495298 -0.27426815 -4.7848063 1.0985584 -1.3944266 -2.4470682 -3.2776046 -1.7830615
9514 0.2905593 -6.024601 3.6939497 -5.190084 1.9377489 -0.8205054 -1.3707329 -4.5559144 1.6510913 1.2249209 3.9306905 2.722228 1.0126435 4.1542277 4.3738046 2.264156 5.5980563 3.5589473 -0.017867463 -0.4296665
14981 -5.188165 0.9297034 8.263471 -0.45293573 -0.36988944 -7.5579853 -4.0571404 -1.0072874 7.382875 8.913615 -0.19854616 5.382188 0.9844011 5.657332 4.7301354 5.272154 -1.5067375 -4.506023 -6.7778788 8.412733
4738 4.3380117 1.2261602 0.52550477 1.9181985 1.7172277 4.902025 -1.4840434 2.7444782 1.4100643 -2.787684 -5.7679296 0.8943294 1.7774454 1.263662 0.896883 5.4907336 -3.4817944 2.9649966 -1.4909818 9.606358
17254 -0.10933782 -9.843159 4.9249377 -3.1000998 -0.04915727 -1.28752 1.8284659 -4.8661075 6.7550416 -0.82899016 5.704743 8.44794 6.1430225 -3.530058 0.15879926 0.18991041 7.4561024 -4.8488474 1.119679 1.7836229
16368 -0.77862144 3.6360996 -0.8622918 -4.9854736 -4.25405 -1.2182268 -2.8018916 -4.7297435 0.516641 -1.3356333 -3.7525024 -2.5930233 -2.0073218 0.63909805 5.9667277 8.850584 2.9753897 -7.6239643 7.3163943 3.0901713
21489 -1.054526 -4.4612665 14.74873 0.3492955 -2.9860966 -6.4237466 -2.7301915 -1.5800418 5.129245 5.9836407 8.626027 0.87368464 0.20625404 6.378608 0.7768926 -3.4237137 3.6789737 7.5857015 -7.1737204 6.20625
11244 -0.6278184 1.5890642 4.324875 -4.0206823 0.14492205 -5.887068 5.0660763 1.0397226 1.354643 1.5642405 -2.4565728 -4.206207 3.3604782 0.49403533 -2.118935 1.7944267 -4.760567 4.629187 -2.805123 0.78996015
3160 5.1787963 1.3569043 -1.268073 -1.3113601 -0.5098415 2.2783008 5.0933757 5.5055456 1.4029729 -6.5465026 3.3541682 -4.1357603 1.8611748 2.9397995 -4.212847 -1.6320977 3.0386252 1.678211 -0.17791751 -2.1778293
5187 0.831776 1.0897378 -3.99011 -2.9592388 6.813726 9.037704 -0.40801057 -7.5120597 -6.050948 2.3132339 2.872506 -1.8594034 1.635 0.7287295 -3.9202726 1.707829 5.33538 -7.522992 -0.081595264 -1.3956064
21803 6.8462505 10.033227 -5.1636076 -1.8682727 3.758433 -3.5545337 -0.37151513 -0.58653027 4.3294077 -2.5834067 -4.725801 2.5443513 4.324238 -2.626452 -0.107041396 -0.27758378 2.9531448 -11.906395 1.1554836 -3.3258057
18645 -2.3132732 -1.2994568 1.3844475 -3.636572 1.92136 -4.82298 4.9713473 1.5273191 2.6669226 4.2249217 -2.0767956 -2.4113014 5.5826483 -2.31496 -2.025524 3.335676 -4.6748486 3.129818 -1.3414687 2.1796029
20700 -1.5597572 -0.6432019 3.7030613 -0.78324264 1.0575873 -4.4413657 2.7138033 0.70242333 2.3507636 3.7257812 -3.3715682 -2.5444536 4.702746 -1.1834939 0.21378987 3.1281915 -4.7855234 4.806401 -1.0216801 2.1477258
5307 -2.9932168 -1.5751935 8.334981 2.575403 6.3592563 0.9806552 3.7847872 -0.6473116 -3.4461162 1.6310651 0.08879323 -4.4962797 3.914004 -0.7057624 -3.3897364 1.2001008 -1.6449934 -2.9101954 -2.7972908 -5.9567122
21713 -1.619162 4.283419 -2.3508697 -1.6582576 4.730996 2.5208967 1.1642202 0.6377083 -2.295292 -2.4802449 -2.9999373 3.0640235 0.6768263 -2.9730408 -5.9693203 7.879635 5.076478 -3.3359632 -0.39525193 -5.5133505
18777 -0.3192194 -0.2814841 3.5017219 -3.326998 0.5534824 -4.9063706 4.2160616 1.6547886 3.0178084 2.3067517 -2.468278 -1.1562028 4.272981 -1.1322592 -3.3092706 4.182139 -4.519654 3.2636828 -3.0479543 0.8114927
17860 1.2746023 5.2672257 -4.615303 0.28648442 2.5383513 0.31706402 -0.5080103 -2.9161763 -1.0635312 -4.7533755 0.31539792 5.5564847 6.6625814 2.657823 0.6894411 5.5310736 1.9620274 -3.4678133 0.4159498 -3.7484925
19275 -2.2622268 -2.1789153 8.661261 1.9795558 5.0647736 0.3063997 3.9784577 1.0816293 -4.0972743 2.3918169 -2.9667058 -3.5789592 6.021557 0.14432213 -2.9345763 0.3477075 -1.2680935 -3.650788 -1.8377929 -2.69754
7157 2.7151392 -3.208807 -0.096441776 1.639261 3.659869 7.2038946 4.5275803 -3.290618 -6.0847855 0.3484978 -8.995433 -3.4528594 -1.7649115 2.313751 -4.9847193 4.2510047 5.984011 -0.32659447 6.5650706 -0.473232
2245 0.9464404 1.4869367 5.3993278 -4.777205 1.7632902 -3.9658558 7.3206253 -2.517391 0.5909878 2.6805322 -3.392227 -2.7242637 3.1612284 0.055953965 -3.0914378 2.2389767 -1.668742 2.6977289 -2.3519762 2.239893
5064 -5.217864 -0.5582974 5.28833 6.9545302 5.914535 -2.222183 4.5255685 -2.6941414 -1.0273583 -2.0849814 -2.0933251 -1.3616781 2.8956642 -0.2613106 4.4495196 1.6751304 -0.94145423 3.9211884 -2.8762267 3.288505
4399 -3.4333189 -0.17719987 4.072856 -1.2560421 1.731434 -3.23248 1.6784366 2.4955602 1.0147774 4.2385607 -3.2936645 -2.4378595 3.4204354 -1.1398304 -2.7982047 3.1504369 -4.257584 5.7344007 -2.7322574 0.65160906
7093 6.7936482 -1.6079501 -5.5781236 5.1423535 2.612225 -7.702791 -1.2460848 1.6642559 0.090114556 0.070281304 4.420154 -1.1456673 -1.4589481 1.7558186 0.0011488053 4.6066604 2.9743614 -3.948414 2.289953 -2.146449
13582 0.9711218 -0.34805262 -3.2528267 -7.798276 5.8253217 3.2870743 -3.6288257 0.8028289 -2.1337569 0.04949244 6.110877 -0.7223457 -3.5608673 -4.922743 3.5523236 -4.0907884 10.382593 -8.722952 3.9241571 -0.4279539
11550 -1.9866873 1.9687108 11.836032 -0.44224682 -3.1672184 -3.5323968 0.17698969 -2.8026743 -0.6388978 0.58589566 8.277149 0.51284987 -0.6184098 1.0386015 -3.1938806 0.9140992 -3.2569265 0.99290943 -0.72915924 10.023853
11277 1.0494207 -1.845041 9.633683 -1.3200635 2.5254982 2.998087 6.340214 0.48323607 1.2484143 3.7477515 -3.4975786 -8.817435 5.0274715 1.5889736 -4.144284 -0.3390868 1.7395962 3.100045 -4.0790944 -4.962882
2078 -3.710619 7.634756 2.318197 2.3830042 3.1289034 -2.1280925 0.23968141 0.7548557 -2.9243872 6.3571234 2.699616 -3.6644754 5.2392697 0.49569204 -2.9045238 3.0701709 -1.3115387 2.7670243 -7.309836 7.0171547
1921 -1.2132722 3.6005132 2.678965 0.9896182 0.4542742 -4.15769 2.023784 -3.63815 -0.44910035 7.8044686 -3.729109 -4.516326 6.33151 0.6056249 -3.746388 1.3905948 0.54918516 0.98237854 -5.3531127 1.3887302
7983 7.8831644 3.8694885 -1.8641564 1.1477507 -0.34925833 2.2477274 -1.4362168 -1.5137511 1.005728 -7.3761606 -7.378021 4.001181 -1.4579437 3.828995 3.7337985 1.8391763 -0.8562947 9.008589 1.7571334 8.380641
12965 4.2878094 1.3133696 2.2022088 2.6828282 -1.0333089 0.5592915 -2.1969209 1.4680556 -1.7732359 -5.3419433 -5.4069076 -0.0217584 -0.58370453 0.50877357 -1.0811006 4.7096715 -3.1841679 3.20107 -4.8703146 8.394457
18577 3.697549 -0.66700274 -1.7952175 -1.7921748 3.002828 4.754786 -0.7085646 -1.5062369 -8.711043 -1.8504049 -2.0422726 -7.1204424 -4.1791124 1.0960418 -4.2853665 0.9067189 -0.75245494 1.5688268 4.146589 -3.748549
2434 1.2940004 -3.3043716 0.9265267 5.7658052 2.4768295 3.6658247 6.0023084 -3.0986433 -1.6133512 0.26388088 -4.9592557 -0.6349164 -3.1311321 6.957383 -7.508481 -0.43104002 6.7478642 -0.6858721 5.9785438 -4.5476246
20922 -2.0438833 0.41268563 0.6102197 -1.2482992 1.7594944 -4.653909 1.5023975 0.52606326 0.57680756 6.7355814 -3.6802218 -3.281975 6.242779 -1.29458 -0.8088391 1.6585877 -0.98762625 3.2340302 -3.2057135 1.6976798
21663 -6.5463448 -1.7577499 7.6398473 -2.5485375 6.5664406 2.8284416 2.822009 -0.4319358 0.43914798 7.066379 3.9180908 -6.8780355 -2.0237186 -5.445912 -4.5986986 -1.0917494 3.1186986 -3.9488378 4.024994 -4.9325504
13478 2.7310627 -2.0196633 -2.3224733 -2.8320842 -0.112661906 3.4916093 -0.01549583 -0.57561857 -0.2279896 -11.299242 -3.295958 -2.3343096 1.5319355 -1.6338388 3.7816048 1.972536 0.21427143 2.6060731 2.947993 -6.3245444
20342 3.5339935 -0.27253675 -1.7755085 -1.1411359 2.4220884 6.3624563 -2.2093978 -1.7193832 -7.66788 -2.0190856 -2.120197 -4.5718284 -5.4014926 3.0031495 -3.716672 1.7677405 1.7230827 -0.4516716 4.4548874 -3.960831
19562 -1.5814829 -3.5040073 4.4192953 -1.3130015 -0.79638755 1.3928326 3.8444862 -3.0413043 0.3809859 5.6485043 -5.5975714 -6.007293 5.166132 -1.1932737 -7.555595 3.7350078 -0.03641313 -0.70353174 -5.255374 0.38795152
13494 1.0573643 4.603728 -2.613438 -1.5123045 1.292302 -1.5090512 -0.26630372 1.0956396 0.29479977 -2.0342114 -3.8634586 -1.6447141 -6.7690945 -4.237152 -5.0861344 9.576688 1.9178671 -0.37355807 -1.6355854 -1.9876316
5503 4.3985224 -1.3498358 -1.7601027 -2.4706414 1.0104005 4.2778745 2.96962 7.2232556 -4.981513 -5.1221347 3.3165126 -6.0243106 -0.6850064 1.6065973 -5.7778864 -0.6593855 4.6803036 -1.2441612 0.80294496 -3.1738434
15649 5.8818345 0.9126119 3.7927945 -4.560292 3.1547248 4.974947 6.7403083 1.138041 0.14185777 2.0224514 -11.93668 -1.9237772 9.756148 0.028013833 -3.1706645 1.9156446 -0.4210934 3.868113 -5.031585 6.573982
12116 4.4577856 1.7994283 -0.7961848 -1.3101928 1.0037663 1.5354824 2.8589213 4.9939785 1.0238564 -7.0673566 4.851089 -0.7372058 0.09215456 3.4498348 -3.029808 -0.0069432855 2.0796797 0.42143607 0.1323435 -2.7565234
7108 -0.78366846 2.5618768 -0.95603865 -2.069096 3.0983016 2.783315 0.90631133 1.0180793 -0.717452 -2.6005425 -2.187553 -0.42257738 -1.7753894 -5.1302576 -7.829894 6.05189 2.7591465 -2.047396 -0.559424 -4.662525
21569 0.44889665 -0.1666554 4.587435 2.4745812 0.23548125 -4.0419335 2.297079 -6.5310364 5.1559596 6.822012 -2.8494542 -1.4024642 4.3394294 2.4246192 -3.8329828 -0.5022249 -1.6697392 4.625889 -6.2056565 -0.03758416
15076 -3.0652843 2.8918717 0.9791961 -0.78180814 3.2656827 -5.5053406 0.6639787 2.725417 0.56662136 7.2497926 -1.5479739 -1.8100891 5.886949 -0.114756376 -1.5229696 2.7392073 -2.6604269 1.4270366 -5.5862246 1.2240038
3062 2.990303 0.57818455 -4.0951524 0.47721118 -3.4927316 -2.9689386 -2.966673 4.4428406 -4.630884 -7.173407 -0.07628735 -0.68529886 6.8739395 4.1797957 3.5356286 0.365161 -4.13912 1.2188661 -0.44138694 8.025897
9367 -5.5108705 -1.1296334 4.713885 1.7452939 7.399011 1.298921 4.1186295 -3.6088097 -3.4380164 7.6408653 4.7650704 -8.583968 3.4897008 -1.7875319 -1.4370015 1.8909833 -1.8551227 -7.282008 2.7980227 -3.2814536
21987 -3.3086662 0.9871531 -2.2624538 -0.5079842 0.9284355 3.7920375 -3.8898814 -12.632433 -2.357452 1.3136103 -0.7732722 8.745818 1.9466895 -2.683601 -1.8207045 -0.8496294 7.8342037 -7.8572817 2.2321718 4.2981467
21375 4.323366 2.497889 -0.7483338 -3.4067774 -0.7191199 3.7329035 12.625458 4.9581227 4.235057 -4.723003 -6.0632644 -9.336962 7.557286 0.2558448 -6.5259438 -0.9387611 -2.0520782 4.2105083 -3.0308037 -3.0409248
12666 -8.57802 2.4365313 5.8121605 4.929788 4.627372 -3.2046292 1.9838985 0.24150056 -0.40162075 0.093679935 -2.356521 1.8581684 5.32001 1.6456122 -0.55960035 -5.7546687 -1.0159271 5.8373766 -7.0076904 1.7162675
12573 3.1368208 -9.145041 15.942293 -1.0386139 -3.3604553 -2.2765572 -6.8252 -5.0533075 -3.9475534 -3.0885108 0.09263639 2.8897681 -1.3429872 -1.235486 -1.1242068 -2.8075008 -3.810495 -1.7200773 -3.285493 5.2189965
8790 -2.0457942 0.9353342 2.4105055 1.4233341 0.6367467 -3.8793812 4.956164 -4.745383 3.4587023 3.6902103 -4.9690986 -2.7787516 4.124156 0.0776994 -1.5963247 1.3274328 -2.1967645 3.7418718 -3.9409893 2.515903
17591 -0.06339859 -3.2038794 -1.3645747 0.6111261 6.3750963 -3.3213832 -5.125492 0.33445644 2.3854797 -2.0392325 -0.56744033 6.8449645 -4.7112947 1.2879915 5.59684 1.4962368 1.2642546 0.0137535725 -1.4404771 -1.4971211
14257 -3.2300935 1.6006283 -9.266047 -1.6823633 -4.209303 0.13708535 -3.4143245 -2.4033911 -1.8334203 -1.3385397 -0.25730234 -4.0649076 -1.0643674 -0.44251898 -1.3681368 4.72308 -4.0172677 -5.334404 5.6268997 6.1344438
8120 2.6357217 -2.2262313 -4.6223006 -1.773437 1.0905038 5.0933256 -2.4019048 -0.84105057 -9.755963 -2.1397955 -2.0285327 -8.64843 -5.996006 0.30830553 -2.8721042 5.4182825 -0.79393286 -1.7272415 2.670863 -0.30878198
927 -6.767477 2.0547857 0.99670845 3.1949341 3.2430193 -1.6467438 2.4308872 2.770052 0.7556213 3.4063823 -0.79651874 -5.9070573 6.4514923 -2.8958132 -0.014802557 0.7232489 -3.2431865 4.330999 -6.8544827 4.720509
2610 5.6557827 8.9720955 -4.8785963 -1.1374488 3.1804008 -4.4699807 1.0846593 -0.81134826 3.9069197 -3.826766 -3.445855 2.1253717 3.7419271 -2.7246287 0.22738321 1.7048945 1.872642 -9.850683 0.7326349 -2.696171
8168 -1.4016515 -2.9623654 -5.5077667 -1.9903452 -6.6121116 -2.1947181 -5.771284 -3.742595 -0.35592353 -0.08834676 -8.068627 5.8859096 3.5783453 -4.4480987 -0.16028014 -5.78009 6.029821 -3.4323435 1.3779657 11.720336
20046 3.4925437 -3.1776998 -3.4996963 -7.651379 1.8336335 4.771136 -0.9756929 0.46650386 -6.344782 -1.0550448 -5.206066 -4.5772934 -0.6867133 -2.239504 3.7101264 4.487462 2.0617702 -6.595007 1.1834612 11.188561
1586 0.20996805 0.13719663 -0.43128043 -0.29824734 1.0421971 -5.662392 1.5009886 -0.2523682 0.06888788 5.285521 -4.766348 -2.5602007 5.789624 -2.6939194 -1.8216461 3.5123658 -3.5472844 1.9347408 -0.90951973 1.1281083
14213 -1.8172964 0.8005218 5.4603753 4.0129027 7.0118904 0.3629682 4.6288805 -3.065771 2.2424152 1.6416088 2.4259336 -3.0366588 5.2888036 -2.148891 2.782788 -3.3594706 -3.7620738 1.6558065 -2.8545532 6.4938173
16122 -1.3583839 -0.0840622 4.4431787 -0.8749559 1.7947758 -0.0051918016 3.7510805 -0.9835403 1.9163415 4.854743 -3.024084 -3.1637394 5.7223825 -0.94119906 -3.393201 3.920998 0.17759624 1.5317236 -3.8607497 -0.008952189
11352 -2.3891199 1.1243352 2.658349 -2.4153206 1.4336785 -5.633904 4.7308087 1.2829233 2.9521425 4.1780243 -2.740535 -1.673355 2.5337586 -0.20547545 -1.1678509 4.717175 -1.1360962 2.543317 -0.66869515 0.37711152
16978 -2.1856203 1.000194 4.7614083 0.6522632 0.12299777 -1.6059413 3.508566 -7.5251393 -0.06999263 4.3325515 -3.0033753 -5.5417657 3.9816763 2.0441542 -2.6400888 0.969834 -1.7781395 2.055723 -5.0223355 -0.15135145
14451 2.477184 -1.2631296 -1.2990597 0.40300894 3.216118 6.025164 -1.327631 -2.712415 -8.730803 -4.534282 -3.575037 -1.3936856 -4.552413 1.6478157 -2.5369303 0.32090953 0.3085811 -0.13904755 6.2530646 -3.453202
1244 -6.65088 -5.166218 1.1712219 -1.5886784 0.7428719 -2.1036751 -2.5158932 -9.0401945 -3.5606382 2.652968 -5.468301 3.8513117 1.6318457 -4.395217 0.54510677 -1.17381 5.786038 -9.092631 -0.06605895 3.9016497
17455 3.2398973 -0.38452423 -2.82004 1.2198756 4.3247805 4.775626 -2.6755233 -2.8755841 -9.271626 -2.0738015 -0.0863377 -3.9635139 -3.0677798 2.2068233 -2.5954738 -0.1535357 0.37100953 -0.3648063 2.6294503 -3.1916113
20770 2.349658 -1.0449787 7.751641 -1.8769336 0.96396446 -5.6327734 1.2422887 -5.4416485 4.4747386 9.505446 -0.39914972 -2.9120753 -0.64017856 2.2827697 -2.7940485 0.9689706 3.2429776 1.7031895 -9.3432865 3.8605216
11846 -1.9711341 -2.2306345 3.1069026 1.8959106 -0.6534431 -5.137399 -3.9522457 -3.1827264 0.49099565 6.465201 1.4049855 2.3611376 3.2127893 7.7786727 3.343162 2.4031649 -0.14634286 -3.7649088 -6.017284 8.171683
18338 4.567375 3.3158574 -1.1347675 -0.20375514 1.6624862 3.033317 2.6423044 5.263806 1.0259593 -7.486303 4.8543816 -1.2773303 -2.2907686 2.9626875 -3.4535253 -1.7228255 -0.19702968 0.4736165 -0.11123378 -1.9985712
11193 0.6369325 -2.9353976 -2.7133462 -0.40684992 3.4058118 7.1752195 -1.4993726 -3.4772642 -7.187126 -7.87288 -3.113389 -4.799229 -4.567676 -1.1085309 2.1761682 0.6171373 -0.19215052 2.7091072 5.0158105 -6.003174
16866 -3.3555734 0.041601975 4.755278 0.8897601 3.27451 -6.0535975 1.3335018 3.2892382 1.8913053 3.4728308 -3.2568188 -1.6294941 3.5297666 -0.9712096 -0.09168975 -1.1336321 -2.5438576 6.7667446 -5.50072 0.46731162
13966 4.1859565 8.276653 -3.43349 0.2930669 1.8357092 -2.6075017 2.4196968 -1.9748615 1.1699972 -4.6720686 -5.143868 3.3237128 6.468 -0.6102764 0.36916134 3.7702727 0.22498283 -7.3943014 -1.3481547 -3.5424325
14746 -0.089764446 -1.4820634 2.084936 -4.2225065 -0.36445755 5.3104944 5.468315 0.15050597 2.4018633 0.9712945 -5.6789565 -6.410262 5.661328 1.7546544 -6.4914184 1.9149967 -3.3513224 2.7424371 -4.844631 -3.36927
11424 6.726006 2.8696282 -2.7602606 -0.9696823 5.4395604 0.8512082 1.1882743 0.48083314 -8.210089 -2.5631697 -3.3279138 2.002623 3.1044867 0.28586608 -2.68157 -2.43428 2.4944236 3.6134052 -1.205882 7.401133
7325 -1.0098748 -0.6752584 2.952439 -2.275734 1.6936561 -5.500651 3.7163744 1.2142353 1.6781048 3.8319108 -0.99117124 -1.5244591 2.9327514 -1.1866394 -2.240464 3.7805748 -3.4322062 3.1816452 -2.0871186 2.4346912
7558 -0.32655174 -0.89094 3.6785798 -4.8173084 0.44809285 5.279879 8.084617 -1.5290439 1.1570866 -0.59433806 -4.6251583 -5.008003 5.6663027 0.018123623 -6.7329235 2.482345 -0.9475253 2.5949829 -2.9369864 -1.2096562
12987 3.4324322 -0.05739377 -3.6376393 0.4694212 -2.355153 -2.342346 -2.7772913 3.4531507 -5.3828945 -5.955071 0.06117181 0.0382704 6.329014 3.6018753 2.5577343 -0.06466984 -3.3107696 1.7148718 -0.6177964 8.293598
5777 2.2867675 3.9257314 -3.707935 -0.33718884 2.377795 -0.1557756 -0.558271 -3.2135696 -1.829891 -4.5333924 0.4855936 4.183783 5.7469416 1.2484492 0.75342155 4.6228843 0.7132394 -4.676866 -0.021791236 -2.6446044
18729 0.6553307 -3.5179334 -6.814468 1.279604 0.9764113 2.6953688 -4.6418176 0.027076926 -0.7748782 -12.208187 -0.8936376 -5.0348473 -10.353508 -7.3016405 0.97325325 -5.857752 -5.726674 3.4879677 6.5939364 -1.4973004
2710 0.6456439 3.0278885 -3.9141922 -2.9031425 4.0719748 2.7958899 0.9285545 -1.9200444 -1.3072296 -4.688014 -2.4822896 4.449002 5.7269135 2.7825687 1.1799514 2.4408169 1.9512817 -4.1560087 0.0034936431 -4.78267
2051 4.8309827 4.75196 -3.1245198 -1.4230788 3.5476282 7.610978 -4.3958077 11.25683 -0.17249306 -6.901754 -3.2008784 -2.6415622 -5.3670855 2.8642035 -1.4496791 -5.249351 -2.7446866 -2.0094237 2.1648393 -3.9367301
8327 0.91731566 -3.3977928 -2.0567026 -5.6171823 1.5777383 0.9775226 1.4815426 5.7419395 -2.0934694 -4.2367997 -4.9834805 0.90219986 -4.972856 0.941832 -7.8125806 1.3721354 -0.5152217 -10.311898 1.4756951 0.49302852
15553 -0.8856176 3.9594371 -1.079162 -4.0550585 -4.3208494 -1.355783 -1.6762553 -2.9958563 1.512854 -1.9597296 -4.0661783 -3.5441997 -3.622913 1.6420504 4.548717 7.0544295 2.906699 -6.1093087 6.3687115 2.5854154
6357 1.1074822 -2.189263 -7.2695622 6.558863 0.68466884 5.691208 1.2619915 -4.623232 2.3271053 -3.8526962 -2.1065106 -8.809451 -5.3813286 -4.5941405 -5.833357 -0.3800184 2.39209 -1.8500158 2.7577863 -9.477281
2874 -0.036199912 0.25936884 4.898363 -3.500625 1.462872 -3.8506444 2.9694731 1.4903492 4.9108043 5.2254457 -2.0869818 -3.9442377 5.3289084 -2.5624268 2.2544801 0.019248707 -0.87704414 3.5141313 -2.3963757 4.0245934
9504 -1.5225687 -0.6524786 2.1478956 -3.0680342 1.9700097 -2.571401 6.9586864 0.39638528 2.7820857 3.30661 -2.8280818 -2.0224187 1.8670157 -1.9054811 -4.6561594 5.394412 0.107950106 3.584225 0.40196943 -0.31342945
12437 4.3551335 0.49147674 2.0320868 -6.0001144 5.8966413 8.212516 -0.6629345 -1.9975315 -4.115688 -2.089663 2.8725197 -2.7380562 5.898141 -8.488968 -3.987612 5.32744 -2.3181338 -0.3568099 1.0166717 -5.943434
7765 -1.7187358 -2.630479 7.866542 2.379273 4.69099 1.0353736 4.3434587 0.23439707 -2.5733097 2.6678634 -1.8238846 -3.0312521 4.630521 1.0932361 -3.2224162 0.9601744 -0.010889306 -4.739639 -1.1910446 -3.226066
11209 5.336783 2.356185 0.08602833 -0.8247492 -3.4938767 -2.0101478 -2.2011535 3.1401715 -5.479214 -7.081487 -3.5161383 0.52217394 3.8851619 1.1565186 1.8650142 1.9934081 -2.7004297 0.6691341 -2.0302594 10.932946
478 2.2020822 -3.1347692 -2.0721202 -1.8270224 -0.7065737 3.5806594 1.9451237 -2.6042259 0.026508711 -9.68508 -3.2584522 -4.3476176 1.3004558 -2.9082153 2.626197 1.7459362 0.7836233 1.8335469 3.8245177 -4.0174417
3252 1.2844511 5.73916 1.514411 -4.692398 4.672656 4.803293 0.93450445 0.4619165 -5.6103597 -2.7866096 -5.780815 -0.01960978 6.8456507 4.1356277 1.7912676 2.3306305 -2.361014 2.8113256 -6.044296 10.423711
13735 0.26738882 -1.9019401 -5.1339235 5.745575 -1.5016648 8.275894 -5.7395763 -0.054803967 0.11668703 -7.695857 0.2567402 -1.8517146 -3.2863579 -4.8749657 -7.02535 -6.5164666 -1.6685632 0.1934895 -0.59443796 -4.761807
18561 6.057998 8.388803 -4.8605337 -1.4805918 3.109447 -4.3706474 0.81528413 -0.7006709 4.4323974 -3.5397875 -3.191387 1.5763732 3.284028 -2.8878677 0.3646351 0.5622978 2.0479999 -9.935848 1.0852618 -2.2223828
21750 1.570306 -1.767995 8.572775 -2.008093 -3.3534477 -4.075607 -8.075148 -3.7418642 -2.5687957 5.1741543 7.5493274 6.227047 0.77654624 3.621111 -0.09434797 0.024657307 -0.30212212 2.5868185 -1.7299362 10.798004
127 -3.98781 -1.439602 7.71119 0.47782457 0.649775 -2.673796 2.553764 -3.1212013 5.219175 5.371114 1.4824889 1.2188034 5.550174 3.4503536 -1.7191776 -4.4737577 1.1925223 3.5165162 -7.3649926 2.2465746
16470 -1.7717087 -1.0520196 3.0778017 3.8342266 -1.5768107 -5.483384 -1.2052923 -7.2531333 4.5643287 5.2952557 -2.6014073 0.9261975 6.654766 -4.6406507 -1.449876 1.2594414 -6.0706463 4.4863153 -2.9629266 3.7572474
14260 4.4282737 -1.2965633 -5.3563895 2.18091 5.431663 -2.8778322 -4.270582 2.099376 -5.8285365 5.5807443 1.5987352 -2.779489 -1.7458583 -0.5678016 1.8797821 5.303827 5.237356 -3.7357345 5.02813 4.3950763
6940 8.597517 6.4035783 -0.23561217 -3.347588 3.29447 -0.36973903 -0.031358104 2.8078961 -7.055511 -2.1232088 -2.1396945 1.2086302 4.9623766 0.38850364 -1.7612594 -0.71004355 2.6691253 1.5254775 -2.7679467 9.552943
19658 0.25572145 -4.3010335 4.9876757 -5.42869 -0.8497442 0.83703715 -1.8596549 -4.41658 -0.21507837 -0.21851563 3.5594046 -0.15959272 -0.9374298 4.339825 2.5805075 2.5437844 5.3083725 4.4069786 1.930012 1.1423613
1517 -0.08047916 -4.245897 -2.6765556 -2.1582189 5.743858 -3.1154444 -4.205491 -0.42081165 1.8470371 -0.5811926 0.7302338 4.6520686 -3.9928699 1.9817333 5.572148 1.2391611 1.0918714 1.2596165 -0.9102947 -0.27403662
3469 2.984683 -0.23092823 -1.6281656 0.2247299 2.227227 6.434427 -2.873682 -2.0905497 -6.112637 -3.426444 -1.6539981 -4.286023 -3.7604356 -1.724925 -3.7923515 -2.4617448 -1.0586684 1.6785957 2.7733138 -2.501445
1047 -4.861368 -6.2756457 6.3366604 3.2192905 5.845868 4.003454 2.172671 1.9108175 -0.1730593 4.5260944 -1.5196979 -3.1914065 2.601496 0.5749606 -5.816015 4.0731053 -3.4056408 -1.67267 -3.664988 -5.7707477
840 -3.413765 -4.849631 7.270462 3.1029382 4.5423603 3.9520798 3.9649985 -0.6914624 -0.7989437 2.9380367 -2.5050182 -7.5350785 1.4808295 0.9112129 -2.3001583 5.0823526 -2.3038824 -1.826899 -0.90947324 -4.4738884
5122 3.9913142 2.0133328 -3.5137167 -0.26827243 1.1809964 9.064305 0.14169545 0.7942488 -3.115223 -10.33557 5.574392 -2.5180004 -4.7223206 2.215164 -4.0073457 -2.143834 -0.77264434 1.4667095 1.8569403 -2.1264653
15594 4.1162696 0.9845113 -1.1296698 -7.705313 -3.5877366 0.82337195 -6.195988 -5.152511 -1.0061138 -0.015132982 -2.8439298 -3.201125 -1.5243994 -3.708872 4.185456 9.474992 4.9774847 -6.1255813 2.0834532 4.145235
12334 3.322857 -4.5849924 -3.8336875 -4.641675 0.03183112 -5.071352 -1.7138263 -3.7653112 4.5779834 -1.1903359 7.9513083 1.7292483 5.5492225 -2.9837375 2.1322122 -0.6788359 -1.1874404 3.6277688 5.905792 -5.878099
14988 -3.0310314 1.9814913 0.8685988 -3.168059 3.154374 1.8347924 3.6446471 0.9718162 1.4557002 0.75437146 -5.017691 -1.5810481 -0.20095302 -4.300159 -6.6916914 8.231854 2.0524735 -0.28761056 -3.7475092 -1.425907
9829 3.740569 -2.4697344 2.3429656 -3.3243434 6.2145414 5.8669333 0.1050277 2.8913224 -5.5864573 0.8013551 -6.5366116 -1.7331816 2.5856166 0.9087234 0.3314396 0.17708564 0.33092323 -3.2404633 -1.539707 6.651097
11756 -6.4360733 -0.13112375 1.763224 -0.11105227 1.1893686 -4.88663 3.7824204 -1.2792616 1.5336128 5.52191 -3.7924592 -2.48892 3.883827 -1.1281517 -0.84530437 0.3995191 -0.41358945 1.4294674 -2.1276174 2.9391892
19990 1.3576099 -2.3786397 -2.9086502 -6.3566413 -1.6710941 0.9346439 0.70840305 6.308834 0.52485836 -6.1836205 -4.927914 2.2401319 -3.9815195 1.3302678 -7.285452 1.3236974 -0.35681295 -9.720112 4.1067805 -0.88494617
10264 -2.7762034 -4.5568385 2.5269952 -1.0887889 -0.013772484 -0.26073948 -5.3125386 -2.6555402 -5.771428 4.0224004 -2.9052072 9.163608 -1.3279063 2.0676048 -3.8343494 -3.0088768 5.848286 -7.052857 1.490793 7.6190953
13264 -3.3925302 -1.2265162 6.672824 2.011372 4.365155 2.9677048 2.860414 -0.87896335 -2.7892225 2.3674877 -0.19486444 -3.381675 5.167925 0.18052542 -4.1506863 2.0637643 -1.457095 -1.610061 -3.7817652 -3.15219
12851 2.8109841 0.047519356 -2.7976182 0.2715523 2.5994325 5.003409 -2.175249 -2.2344658 -7.227123 -2.327643 -1.09 -3.6443174 -3.410638 1.8101205 -2.6691067 1.2355562 -0.19740884 -0.77228683 3.9335072 -2.8762755
12288 -5.5457945 -0.9493871 2.2969778 3.604157 2.925574 -2.8011792 -1.0739444 -2.0601647 1.5106336 5.804252 0.41815582 2.7029865 2.5678103 7.8105536 2.1111238 3.9760644 -1.6205183 -3.5599072 -4.9980693 6.844496
9109 0.013991378 -5.139554 3.4029179 -3.997159 -0.7628828 -0.16390936 -3.8281834 -5.754859 0.6010624 1.9980828 2.5466516 1.7113583 -2.2978623 2.3413217 3.9106364 1.5645314 7.031292 3.4067698 0.7884019 3.8505068
11797 -5.5780654 1.7743453 5.3863606 4.662993 4.782696 -4.2107816 1.3582885 -0.2597608 0.8583326 0.26454344 -2.4367106 3.0916574 4.3094664 -0.11702242 -1.9386536 -7.6849604 -0.08856438 5.849202 -7.496252 1.5571945
3956 6.783079 -1.0091661 -5.184699 4.584473 1.8207836 -5.4974623 -2.195276 1.2093631 -0.5146392 -0.058182705 1.7305613 -1.8237392 -1.3025402 0.28812677 1.0173441 5.809651 2.8014202 -2.5384438 2.6426067 -0.6947594
5632 0.6395507 0.17200735 -1.0477813 2.1409788 3.1952994 5.6165023 -1.9684484 -2.816733 -4.741023 -3.7330809 -0.53961223 -3.7279282 -4.323957 0.90084386 -1.8436171 -0.7624145 -0.81038946 1.390938 1.0992166 -3.1192324
11850 0.02645888 -3.7845044 -2.0856538 -1.4094198 4.7197866 -3.0639799 -5.062534 0.43562296 1.4063112 -1.0556046 0.82697463 4.0136013 -5.0959187 0.9708634 4.7378917 1.520204 0.44708616 0.8098949 -0.4582727 0.6077467
6342 4.0120606 -7.806959 -1.9734455 -1.57451 -2.5218434 5.232879 -3.4573839 0.55746526 -5.7873683 -0.7108675 -0.01946952 -10.346851 -2.394802 -2.6752684 -0.4653131 5.80592 -0.018020421 -1.1249335 4.1340685 3.8740644
18701 2.455458 -1.9917006 -2.1551733 -3.269552 -0.41591707 2.5485373 0.87273675 -1.2436367 -0.21810164 -9.341 -1.7953695 -2.50599 1.1076703 -2.6779203 3.196248 2.728395 2.3106523 2.3222203 2.8334434 -4.1505036
13576 -0.926608 0.34849563 4.992392 4.642114 7.362508 1.1791073 2.659578 -3.736503 0.62307787 1.6873801 2.4958215 -1.4776667 4.2958236 -3.2859938 2.108452 -2.0713663 -3.4963932 0.79624933 -1.4787899 5.052956
16193 3.3849003 -0.009589195 -3.603282 0.43763676 -2.6335232 -2.9947312 -2.5508137 3.4738808 -4.6273766 -6.0465837 0.65579087 0.22804834 6.7738185 3.443651 2.7881043 0.52968 -3.329328 1.070905 -0.4459075 7.2221894
20597 2.0536728 1.0006537 -7.28416 4.7785807 0.13821545 1.092239 2.345458 1.6850774 1.4444581 -6.738397 0.35227305 -2.5791283 1.2224152 -1.0245471 -3.1060565 -4.50679 -3.7579203 0.5289725 3.4121792 -2.8866732
1330 -3.7790518 1.4631526 5.005833 4.9485054 7.371295 1.5106207 -0.60145324 -5.7130995 -1.2686553 0.11049319 2.6961122 -1.3426088 2.9613945 -3.089544 5.5822706 -4.334881 -1.8809321 1.4407233 -1.8835948 5.2191386
22132 5.8649917 -3.160324 -1.4702933 -6.5646796 1.1838378 -4.8791146 -0.7078365 -4.281195 1.4884208 -0.15366645 5.949197 3.5868483 4.978255 0.676577 4.2267027 -2.0721593 -2.0237215 1.0100746 4.5517526 0.52416795
13866 3.882164 1.1781815 -1.8454384 0.037980616 1.2254382 2.6618366 1.6884559 4.950683 1.3571165 -6.2542048 4.770963 -0.45989406 -1.541432 2.1132944 -3.211396 -2.6014931 2.118522 0.28491732 0.48187172 -1.7142129
20334 3.106299 -4.861064 -2.9199579 4.1116962 0.858457 4.4932523 -3.992156 2.2681222 -0.12689885 -2.4962015 1.7859633 -0.4818154 -3.3214622 -0.19516361 -8.407341 -0.18499582 -3.9086077 1.2520498 1.7014725 -6.0540233
5808 -3.0099626 -5.0244656 -2.0970187 2.3588638 9.155403 2.5268989 6.675355 -3.5059297 -6.955408 1.8532584 0.8987579 -2.7167797 3.7480025 -0.80783296 -7.258987 -2.899941 5.265302 1.7757219 -5.4804907 -1.6251305
18170 -1.2761563 -5.0635695 -2.1048188 -0.38223478 -0.3375162 4.4660296 1.5626736 -0.15108195 -5.5090756 -0.8088501 -3.952642 -7.056017 -5.966467 -2.5099304 -3.1580493 5.646247 2.6470919 -1.818955 5.6532025 4.1881266
12344 -4.3420043 -1.9165486 -0.78114986 1.6536831 3.1620808 -5.187202 1.6288736 -0.5040172 -1.7182539 -1.0681123 5.629168 -0.92580193 -2.4382277 0.2943589 -2.2301033 -1.0437744 4.3158636 -7.561387 0.7154167 -4.333943
293 1.286672 -3.3327932 -2.656 -3.586938 5.212672 6.117998 -5.732423 4.0950646 -1.6491706 2.866532 -4.4697123 -1.579801 -3.1291718 2.5384653 -2.45773 1.7019846 9.713838 -6.0942492 0.2503926 -6.004537
8188 -2.9205787 -0.48910818 -0.6084625 -2.0034206 0.98509747 -3.5911002 -5.751374 5.080847 -6.6161947 -2.1039612 -3.3530111 5.989786 -0.7884682 -6.9060335 -1.4790372 -0.7398577 3.1023493 -2.0806885 6.665021 5.1440773
8316 -3.479222 0.6637483 3.9444118 -1.0502106 1.864223 -3.284923 1.4082172 1.8901029 0.64183813 3.3867059 -2.6070943 -3.6970448 3.1706104 -0.9076225 -0.9299213 2.61925 -3.873564 5.427558 -3.097737 0.4352719
9273 1.3623871 4.269481 -3.7533786 0.554372 1.6087761 -0.56973404 -0.96812636 -4.1431956 -1.2678349 -5.3159523 -0.09466634 4.2860327 5.9996247 1.6555631 1.0693638 4.0259533 0.43559742 -4.5653405 -1.068356 -3.056311
16399 0.18732846 -1.4179549 -1.1322602 2.1371267 -2.0792596 -2.2641425 0.7073677 1.0872263 -3.2913392 -4.0254908 1.0950638 -1.4611204 6.6570306 4.12604 2.3880188 0.25444207 -1.8248981 1.4046272 -3.0695467 7.070018
11364 -1.7883271 0.16374707 3.390437 -2.4373252 -0.18475476 -5.286194 5.590269 0.2235788 2.5097597 0.75086385 -2.1844764 -1.9103787 3.264351 0.22738093 0.1863385 3.2316399 -3.6545484 4.778939 -0.7886266 2.7706292
9910 -1.0445676 0.61740744 6.252978 1.6601712 6.174251 0.15030882 3.2593265 -3.4790337 1.5041455 1.8476422 1.0930456 -2.9391341 2.801804 -3.0944414 3.516331 -3.337063 -3.28125 1.2257526 -1.8889862 7.18725
19669 2.4815972 1.812835 -1.988776 4.791289 -7.493894 2.7040474 -7.6556497 2.307086 -0.17674825 -2.6079097 0.6564048 -0.0022258426 0.41984493 9.108683 -2.424188 6.008728 2.0349936 6.518432 7.362842 -1.8093011
4357 -1.2347094 -3.5412328 -0.7126164 4.5309687 0.71314234 -0.43009824 -3.7059848 1.3100007 6.2648396 3.0376894 3.1821895 -1.9761364 -6.770262 -0.02292147 -8.658208 2.0264983 -4.280541 2.385645 -2.0859184 -4.3248687
15183 -5.384898 2.1032825 -1.5511348 -3.3752983 3.365749 -1.5436308 -1.6622232 -2.2316825 -1.8918842 1.183632 -6.148758 -1.7341244 -9.657844 -3.6302917 -1.2199166 10.039546 -0.010673639 -4.4623795 -0.7656543 -0.09845434
20983 1.2995793 -5.4868956 -5.9055924 0.10075294 4.710002 5.499014 3.0582287 -2.4175832 -5.8293824 -2.7782412 0.7737607 -3.2853231 3.5326707 0.025548138 -4.2624702 -6.9301586 6.7845607 0.66100425 1.4522544 -3.6338255
3103 -0.53012186 -3.3332021 -3.801682 0.7205067 5.270179 -3.1486993 -5.413358 0.9571795 2.1582658 -2.1533952 1.0818567 5.142792 -4.8123775 1.0709338 4.515745 0.34813294 0.016683584 0.34325618 -0.20360377 0.5385985
20566 2.4452271 -1.4693583 -1.4615084 2.6194422 1.3332889 6.5075555 -4.7610383 -2.6495876 -5.0175056 -4.383496 -0.3402462 -2.8674557 -4.0991373 0.82792085 -2.327703 -0.8705996 1.3004614 3.1307049 -1.2248157 -2.791046
1041 -4.8216424 -1.3559977 6.966009 1.9614221 2.8133454 4.8652377 3.0161943 -0.34214163 -2.308411 0.064936906 -1.6247997 -8.334481 2.6515508 -0.43316647 -2.015591 2.4901822 -2.274168 -2.9759574 -4.3983355 -3.0071983
3451 -1.5929841 -3.5965905 -1.7133213 -3.3916597 2.768178 5.7714567 2.049861 -1.9722605 -5.610214 -10.323161 -4.4333196 -0.24909098 -0.95698845 -2.289814 0.75602955 2.8042417 3.1822143 1.199202 4.9759245 -7.7217045
14502 4.3468366 1.6806862 0.17867157 -1.2304263 -2.152449 -2.1616101 -1.3809558 1.7233758 -5.475185 -6.6031976 -4.4154744 0.33604845 3.6159062 1.5619884 3.4139674 2.2488766 -2.845763 -0.45283452 -1.2678062 9.77532
17121 5.5780816 3.3913972 1.0463628 1.6991142 -0.32908905 0.92623925 -2.6892884 -0.010010328 0.43662396 -5.993373 -6.2977576 1.8998113 -2.3759737 2.0871737 2.536584 2.6886408 -1.7430475 5.707433 -0.68262786 6.817234
8745 5.0395675 -3.6301618 -0.73974884 -4.1394343 3.6177247 5.6328917 -0.43748042 1.2899934 -3.6880527 -0.51772314 -5.955228 -1.4943583 1.6484195 2.0750194 2.639389 1.4144498 3.399276 -4.633748 2.68093 5.3656564
16400 0.6818319 -5.777942 1.9105252 -3.6761653 -5.3030787 -0.5849988 -9.146363 -2.9660964 1.2258006 2.5490546 0.35648018 -0.0073594763 4.6209383 -6.449407 -2.937315 0.15883082 4.7562575 -1.0056546 -0.64809674 -5.534701
4818 5.4612055 2.0640812 -2.2346098 1.3322711 0.22812954 1.878887 2.352118 3.6535625 2.3295438 -7.346282 5.9034605 0.09840703 -0.52120006 1.8545729 -2.9675014 -1.8352259 0.52390486 0.663785 0.55149555 -1.9284782
2284 -1.1319469 1.9541152 4.6364546 -2.9597428 -0.55719936 -6.802785 5.837059 -1.2020644 1.1400557 1.9014882 1.4938006 -1.1248952 1.2120017 -0.1213011 -2.42374 1.7762203 -3.4576879 3.8206282 -2.8088222 7.0624776
6763 -1.7873564 0.20348541 1.7173318 -1.5901884 2.7197192 -8.724732 -7.954449 -0.13645802 -0.62926185 0.08250317 3.8890626 0.8120583 -5.3285017 -2.5515418 1.9009949 -7.1826735 -5.9698625 -5.3359337 -5.743079 1.3655062
729 4.0612593 -0.28100777 -2.5104048 -3.0620956 6.5953326 2.4588013 0.974666 -8.689779 -2.3720624 -0.021505175 -1.9896607 2.930842 6.3864937 -1.4021468 1.0006641 -1.9053739 4.5083437 -9.109699 -2.6523926 -0.847406
21907 4.2855396 1.7184323 -1.3782418 -0.5612425 1.0531358 2.8116925 1.1850294 5.2474575 1.2684046 -6.930355 4.169718 -0.47198215 -1.5966433 2.625403 -2.2759993 -1.0066271 2.2936282 0.542613 0.27842182 -2.0060887
11118 -1.3895451 -0.0007085544 0.53739923 0.5016163 6.7316403 0.6363506 1.769581 1.870266 -1.3432674 -1.8024127 -2.785134 -0.24303983 -2.3517768 -5.5901403 -3.6791103 5.71879 2.4019415 -1.0963957 -4.1334815 -2.1290877
13385 2.9976537 2.8196971 -2.2255027 3.642385 -8.073591 2.5335855 -8.196016 2.0182054 0.24452789 -2.2604036 1.2997668 1.059656 -0.3126045 9.898985 -2.7845004 5.2820554 1.5018283 6.9088964 7.923384 -1.7448562
13434 -1.791912 3.7573645 -0.33058822 0.2664365 -0.20840454 -4.819018 -0.62044716 -2.1713305 0.80232275 7.121181 -2.3554614 -2.2243512 7.476652 -2.2461212 -2.1943464 1.821159 -2.7397616 0.75222236 -4.21492 2.928394
16816 5.1538386 -6.005181 2.3513062 4.0184817 1.816245 -0.66233146 -2.5727208 1.8952221 3.111569 -0.56318796 4.0840526 1.0411648 -6.0691485 2.9784682 -7.26928 0.47016516 -2.6589198 1.6801519 -2.107218 -5.2207303
19415 2.3651872 -0.74407846 -3.4402378 -0.1130626 2.617231 4.724726 -1.6083456 -3.1176376 -7.5285006 -1.5794554 -0.18646955 -2.5000212 -2.4254172 2.2020729 -3.0645747 -0.13619417 0.6847917 0.19429998 3.5861692 -2.8170316
9817 4.3526025 -8.206506 1.0026217 3.2349968 0.34482214 3.3554344 -2.3486447 4.1215954 -6.9107294 -1.8363198 -0.7862279 -7.503614 1.8364863 -2.9127216 -0.7811788 -1.4291102 0.0127962865 -0.076543294 2.428162 1.0089259
6562 -3.5610979 3.0488648 2.5152235 2.6581914 2.4645975 -4.344711 -2.4582152 0.16376363 -0.31515524 5.639193 0.21454231 2.548401 3.7705808 5.792117 1.4192038 4.1808233 -0.8055036 -2.8480408 -7.4413986 6.644113
8335 3.1933548 3.1268864 -3.620806 -0.2669867 1.4826213 6.317735 1.32409 -0.14922298 -2.2422943 -8.115429 4.2146215 0.5853468 0.3320271 3.9118705 -2.463684 2.0665336 0.24627614 -1.647053 -0.3447356 -3.314329
5580 1.7994076 -2.8948977 -1.5812529 -3.2836387 -0.0029969213 2.5865862 1.4360456 -1.9156919 0.19288643 -7.9093976 -3.0519037 -3.1715727 1.2706088 -2.987401 2.868981 2.0451832 1.5397878 2.1578577 3.2188013 -3.1458757
13252 -0.84903854 1.0178522 4.204116 1.1469829 1.5086702 -2.95999 3.416912 -6.152904 -0.7202831 7.3348894 -5.0280457 -3.8926249 5.2027917 1.2824838 -3.3003223 0.49275374 1.3131149 -0.3746691 -3.8433642 1.5079963
7975 3.2546897 -1.2403412 -4.414374 8.268811 1.999136 -2.7048988 -3.55763 2.1703103 -2.505898 -3.6041498 3.4420729 4.4219513 3.8135247 -0.47705978 0.4879364 -1.8716266 6.9955935 6.909856 11.239458 0.21732938
13253 -0.6930821 4.198082 -4.0682883 -2.0837002 -1.0933999 -9.513794 -6.194868 2.7639813 -1.3970325 4.3545275 -0.9869578 -6.3852086 1.3584956 -4.994308 -0.8876122 -11.584351 2.429523 -5.508902 4.3221602 -0.6179363
2897 -1.012014 -3.6196647 3.4655242 -4.1003776 -0.15710618 0.7440562 -2.195812 -3.0146902 0.90660846 1.050414 3.8705823 -0.579153 0.24523713 3.986696 3.2176073 2.1881654 4.9094696 4.1344295 2.0862916 1.3824058
9287 -9.130978 1.4901154 6.2037516 -1.9920163 4.5382276 -2.6553361 -4.99832 -2.6125834 -1.0774742 2.080544 7.4217267 8.138958 -1.9197202 0.82265407 0.13966425 -2.6127367 0.9151631 5.678566 -6.923834 7.403163
13932 1.9847882 -0.83343416 -2.6061504 -2.6979067 0.8924547 4.522844 1.5254087 7.417233 -7.545283 -3.3124015 -2.3223155 -9.603692 -2.270096 -0.16822281 -5.955233 -2.571299 3.996468 -1.5210203 3.5428073 -3.3445444
3935 -11.917001 2.4573379 6.8163424 5.462027 8.687914 -6.9317317 1.047019 -0.5367761 4.750328 7.780367 3.8059704 3.8016129 -5.556402 -0.53088224 -1.1690335 -1.1432973 0.88505626 0.41777658 -2.9430068 4.1142626
1466 3.9679608 -4.8092327 -5.036251 -0.6360348 4.5451546 6.72797 2.22073 -4.0407515 -5.6775336 -1.4574721 -0.79431385 -2.4829314 6.029025 1.342193 -4.3852124 -5.598922 6.0803075 -1.1230019 -0.8311053 -5.2922754
2159 4.1790857 0.4189849 -1.7375894 -2.4324913 -0.47353172 1.7682469 2.7991586 5.5879617 -0.30999142 -7.3174167 3.510103 -0.5383309 -0.26628777 3.0988753 -3.7473845 0.3261447 1.3941922 -2.0893073 -0.050585683 -1.8372277
21438 4.473948 0.7364386 -1.7649736 -5.150028 4.0091867 4.9313517 1.264779 0.13873097 -3.308795 -1.6238374 -2.5438156 2.8028786 4.0003686 0.3290168 -1.6800891 -0.9752009 -0.2089023 4.189713 -2.9816988 10.770865
16602 -0.789934 -2.2877717 7.1876926 2.6461275 3.1807358 2.880139 2.8912208 0.06887099 -1.459217 2.9974325 -3.2360175 -4.2003293 3.7207398 1.052608 -4.8485565 1.3444948 1.8054792 -2.8861506 -2.8838627 -4.098282
4760 -0.004480508 -3.9037552 3.9046216 -4.9554176 -0.7541722 1.4008459 -2.2927988 -2.98391 0.24652699 0.12034606 3.4522328 -0.73882496 -0.15683226 3.7177777 3.5321155 2.0968938 5.313456 3.665829 2.837995 0.95013756
22056 3.0918112 1.2716539 0.5838957 4.0710044 0.5521081 0.29228532 -2.166224 -1.030061 1.8951461 0.27338693 -9.567376 0.9265948 10.396365 -1.1961616 2.3952947 2.7051327 2.7455602 0.6177398 3.4830859 -4.0409813
16198 -3.7004502 -0.85690373 2.438754 0.7759164 0.68719625 -4.66746 1.7295314 1.1152596 1.9010206 5.288577 -3.732016 -3.8331897 2.8736408 -0.9143923 -0.68588185 -0.052532364 -1.9003849 3.2223725 -2.0685964 2.4090486
11536 1.2525946 -10.315083 4.3151646 -2.4386299 1.1153669 0.102852084 -0.685006 -6.939414 3.4901092 -3.0770693 -0.83524144 6.4632835 -6.8481874 4.695582 -3.3620217 2.5599017 -0.26141277 4.7663903 -5.479011 -0.7562562
9156 -6.4309845 2.1924386 -1.3309162 -1.1581699 -5.4182134 -2.0313554 -3.059757 -1.766128 3.2409503 0.54357153 -5.5689435 -6.3763714 -5.332459 1.1194003 1.1532918 4.243199 1.3689368 -4.3299866 0.21714976 1.1878414
8400 3.4431696 -1.2967577 -1.9653825 1.7090646 1.5595363 6.4110217 -4.6700616 -3.0051527 -5.6848826 -2.8202603 0.3534509 -4.598616 -2.9936728 0.3194717 -1.2618496 -0.61868703 -0.6040091 2.9895499 1.4404268 -2.0836356
6895 -2.1673357 1.9321473 -0.9683376 -3.5402412 -4.4407697 0.27691028 -1.2258973 -3.215848 1.6080182 -2.2264333 -4.054142 -4.929956 -4.895643 0.43967682 3.6751556 5.775725 2.0258315 -4.656913 7.3672824 2.781479
1617 -3.3912046 1.1576799 7.5665846 1.6955727 6.4080853 0.4032842 2.7078197 1.7785859 -2.915421 3.7248812 0.8458972 -3.3165684 3.0632865 0.9453961 -2.9484258 -0.7033897 -2.9552414 -4.4331584 -0.58499813 -3.15771
1483 -1.2343974 6.710367 -0.23247136 -3.5657473 -1.6732893 -0.3091784 -7.6947193 -1.1355766 2.3892858 -0.6166022 -7.3460426 5.551392 2.8069851 4.2929544 0.29028496 0.088222206 0.3349455 -4.7679605 1.3650808 -6.7669396
16716 -2.5378325 1.9208323 -6.736652 5.058936 -0.7639503 0.24433732 2.0415893 3.3066223 2.3266034 -8.345005 -0.34119236 -1.3798065 -0.16176327 -2.4092953 -2.2076979 -6.064465 -3.4881105 0.49930194 4.430185 -2.396135
21214 5.931461 -0.9936884 10.071196 1.5181429 0.6744352 -9.260906 -1.4276204 1.1035409 5.9965763 -3.628141 -0.6883152 11.401199 2.2915018 -1.3048458 2.686113 -4.084388 6.026877 -0.93167186 -0.97044593 -0.737361
17707 -3.6227808 1.3414139 -1.1745687 -1.0402011 1.5112262 -5.6165895 -8.197785 -1.5820426 0.10775587 1.9524097 -2.540603 3.4568062 0.21182302 -1.2024853 5.2534866 5.2004657 1.6840017 6.0144467 9.421661 -5.695708
19388 -2.1380713 1.0501907 4.2992787 4.907656 5.4929395 0.31206238 1.5873256 -2.5574949 2.4060085 0.24783699 3.1320908 -2.303214 3.2232213 -2.4102988 3.76389 -3.0598876 -3.5876522 0.789348 -0.97806895 5.6511025
14271 -1.0366331 -1.8937817 3.0737298 1.7221063 -2.6531022 2.928991 8.736817 -1.2978598 1.9391586 0.77837056 -8.191618 -1.8266338 5.8135233 3.2312448 -6.926949 4.502494 2.7970955 2.5975559 0.8367046 0.658223
16085 -4.4824786 3.9583757 2.6142967 -0.6082039 1.1052803 -6.5845494 3.9002585 2.3621874 10.328858 4.973821 -2.059921 0.1909487 5.725559 0.05851168 4.6314883 6.6076255 2.525903 -1.2539437 -3.7853584 3.4131513
2644 0.64514756 -3.2257028 -1.444934 -3.2881958 -0.5255735 2.095736 3.0881453 -2.7889135 2.4419842 -9.020222 -2.0738642 -2.282956 1.5369723 -2.6918738 3.2873495 1.5149972 2.416643 0.7339033 -0.41473293 -1.7354347
2242 3.2290542 -0.09029822 -2.1779437 -1.3907436 4.9188147 4.834388 -1.7847269 -1.9301257 -7.7765036 -2.232025 -1.3862087 -3.7600513 -3.00946 -0.12682085 -1.139773 2.2331655 -2.8355985 0.16243753 3.8058693 -3.4614646
3047 0.98144907 -4.1488576 8.043074 -10.537074 -4.944794 -8.622696 -5.7587 -1.0362955 0.61737657 -0.9900864 7.616922 3.6172035 1.992958 5.4634247 5.2516565 -3.95211 0.4462254 -1.244306 -0.81805575 -1.2896042
17956 -2.724804 0.42782816 3.630263 0.062150847 2.8283234 -4.293625 1.5329659 2.272765 1.5317242 4.133649 -2.9412262 -3.4446037 2.9494314 -1.2802863 0.08709393 2.5845802 -2.8391962 4.6604257 -3.1260672 -0.1576467
9562 4.08708 1.7359096 -1.5169855 -1.0216564 0.18781401 1.9033524 2.480718 3.8919435 1.0166514 -6.5162005 4.456382 -1.5126113 0.60331196 3.0971873 -2.2399383 -0.27341846 2.3552063 0.7077572 -0.2952707 -2.8540986
4809 5.615153 -4.01426 3.7960517 -3.1383328 0.34440175 -5.8289165 2.3489227 -5.205764 0.34806055 -3.1191213 0.8607634 -3.3248754 -2.7918224 -0.7590286 1.7724155 -0.605951 -0.9599107 0.95976675 -4.5695467 5.826689
4283 -2.7433765 -4.310591 2.3430958 6.293219 -0.21789181 -4.746095 -2.7244656 0.24646668 -2.4312656 0.18271688 -5.86835 -1.860564 -0.2955492 -3.4531937 -1.7820622 -0.42266285 0.02378849 -3.3419788 -1.582392 1.4687886
19447 -3.3002222 0.0016493143 11.894024 0.041371267 -4.010745 -1.199661 -1.6645374 -2.3111994 -0.60153526 2.0441015 7.9725676 0.9360716 1.3254098 0.4191177 -4.4212947 1.4096402 -2.810383 0.0928372 -1.2163641 8.566457
2514 1.3466555 -2.728869 4.3651752 -3.918323 -6.0370555 -11.120323 -6.939815 -1.0373938 1.5438203 0.033157215 4.457207 6.1535416 3.7430925 5.9040575 6.682032 -4.511349 2.9959755 -2.1052682 -3.3508751 2.226749
12071 -2.12088 -6.2753663 5.074808 3.4301438 3.6359928 -3.6096294 -3.5128741 -7.454358 -5.9209104 10.389102 0.4207113 5.7813253 1.3834537 3.286642 -2.7668638 -0.9023226 -0.065431535 -0.53712404 0.31207564 7.1109896
15867 7.119731 -0.1321663 -4.779603 2.2278605 1.7398005 -4.1667895 -4.857055 3.1292195 -2.1955922 2.9701817 3.6690578 -1.8720742 -0.93370837 2.0874243 1.7427915 2.4533165 1.9242742 -4.6175656 4.798034 0.8274899
2802 0.4830915 -0.8909021 -1.7533123 -6.42513 0.097535014 2.8243392 -0.4131157 3.8883193 -0.41586226 -4.331278 -5.204375 1.986966 -5.7521234 -1.7035878 -7.7452908 1.1573447 0.75218683 -7.7245736 3.422825 -2.907586
14439 2.197746 -0.69119835 -0.6851476 0.85371345 2.3233576 5.8240743 -2.512741 -2.06424 -6.148085 -1.06115 -0.40407097 -5.7050724 -2.1418622 0.5093785 -1.3671908 1.3419648 -1.2698236 1.0312425 4.164796 -3.0582693
16328 6.252758 -5.190344 3.2196343 -0.48340884 1.494257 -5.6939015 -0.720257 -9.027565 2.9735715 -2.1240735 2.971837 3.3392594 -1.448685 1.3993272 3.6085286 -3.1023676 1.7866259 -0.356081 -0.28502956 -1.6413791
3223 7.250094 1.3090692 0.85914314 1.5620164 2.4254289 1.3209037 -1.025045 5.117058 0.38681665 -1.631698 -3.1636472 -0.51292807 -1.1524601 3.0261953 1.4111322 5.278218 -2.1361742 3.0317056 -1.4060214 7.988157
15788 4.902589 -6.2054815 -0.9713981 0.18258882 0.10391994 5.579177 -3.9846559 1.2469152 -5.5587716 -2.382336 -0.52758306 -4.8656716 2.17287 -1.2142113 0.8559794 0.2696998 -0.6051895 1.7945954 2.9460502 4.347596
19386 3.9206655 2.8189244 -5.404597 1.8791716 -1.4591945 -0.232401 4.5118327 6.0557346 2.2772424 -4.7914743 -0.6361249 -6.382792 2.707622 1.0196279 -3.9629683 -4.266852 -2.3362272 -0.19470541 1.0640972 -2.3276627
4434 3.298118 -1.4467218 -3.1072543 1.0392947 2.5572278 5.800824 -3.1849132 -3.468841 -3.5144448 -2.8210926 -0.11337361 -2.8126838 -2.281446 2.4921234 -0.6192782 -2.4152822 1.358687 0.6805848 0.33951467 -5.4825463
4772 -0.30043522 -1.8973612 4.2641444 -2.8250718 1.6843979 2.201649 3.3605185 1.9742275 1.2735522 2.666411 -3.061095 -4.0050488 5.609764 -0.93979305 -4.7617397 3.1426823 -5.2852697 1.3356988 -2.6555164 -2.1620653
17328 2.4931338 2.9236746 -7.34746 4.7734 -0.27290428 -1.5951273 2.8638177 3.151648 3.1393666 -5.3996544 0.76834154 -2.6006603 2.2548058 -0.4153668 -2.5563455 -5.355765 -2.2254562 0.21562847 3.114383 -1.9602028
3081 -0.21301496 -3.3747263 3.3154259 -3.4717207 1.0858535 0.8854606 -2.5045135 -2.2934778 0.90226346 1.1752396 3.2546873 -0.24401283 -0.9012345 3.5061567 3.3895195 2.592345 3.7771242 3.7460403 1.315276 1.3724371
12674 6.023208 1.3250418 -1.7760185 -2.5543864 -0.7214264 2.3821952 -0.60834813 -1.5854015 -3.508772 -4.144083 -9.948718 0.59543496 1.5862063 3.8678648 3.3314977 -2.6298215 2.2783818 6.2558184 1.0465276 9.237045
21740 -0.5702177 -0.24162298 1.5011854 -1.2134202 -0.8594411 -5.360402 0.18392253 -0.99044025 4.0795517 4.025791 -2.0329251 -0.041168556 4.821413 -1.8219197 -3.8906732 0.5765976 -3.987928 4.9166884 -5.920562 -0.31113634
15263 2.6559749 0.2897364 -4.0781713 0.42234617 -2.8788302 -2.7591686 -3.00596 3.6086926 -4.4520006 -6.080199 0.062432952 -0.43953955 6.456253 4.292746 3.9713998 0.30739653 -3.271814 0.6906393 0.5957009 6.575076
1458 4.947587 -0.33234814 -2.161123 0.4749459 1.5515194 3.7657118 -3.0069423 -0.54836655 -6.901965 1.5508833 -0.70665085 -3.9784164 -4.2896743 1.882977 -5.8890758 1.8114923 1.1194763 -0.9136575 5.91684 -4.516387
12833 -0.39567792 -3.6771457 3.1173978 -4.6618395 -0.35015213 1.14928 -2.6917877 -3.1992068 0.2484685 0.23708709 3.4814043 -0.71623 -0.3369568 3.849754 3.4708848 2.7687342 5.2858014 3.5218565 2.6943054 0.8050248
8540 -7.787185 -2.1649249 8.40735 0.6775809 3.259929 3.0641184 -1.3561842 1.061709 -0.7732011 6.86293 5.179888 -6.0789847 0.08062426 -3.7638524 -4.194391 -1.4573966 0.08836908 -2.5692081 2.0094037 -2.9338393
18580 -1.5103467 -2.8664436 1.538096 2.3522232 3.7608054 6.353901 3.9133093 -1.3072125 -1.3407537 2.6494355 -4.425884 -1.9345005 -2.6387904 1.0792001 -5.2621465 1.0130067 5.383015 -1.6393034 4.147187 -0.5677266
11557 -7.3783107 0.41874534 9.4699335 -1.3664143 4.6968875 -2.306748 0.6201512 -7.4716563 -2.4561343 1.5846604 -0.4404078 -3.9412186 0.4191556 -2.9608262 1.4739445 4.773448 -0.48960206 -0.76469207 -6.1101527 -4.0708885
709 1.2509342 -6.6290054 -4.9112773 -3.27428 7.0996957 2.7128835 2.9323168 0.8633591 -8.850281 -5.5466037 -2.0033858 -6.548703 -2.478265 -4.0906363 0.49356642 4.178966 1.086319 -0.44045117 5.9295807 -4.62814
18454 -1.551609 0.4118048 3.8166666 1.6109183 5.704906 0.73723155 2.8814373 -2.2002242 0.572242 -1.1367661 2.4214082 -1.9069035 2.7275202 -2.2257185 4.51043 -3.6755352 -4.3008294 2.5430417 -2.2507463 9.476896
10318 -3.3998747 -0.5825414 4.495907 -1.463742 0.17544983 -3.4063628 4.3470087 -3.4812257 4.37065 3.0105278 -1.9367794 -2.1299996 2.4078946 0.16167243 -1.4882975 2.059684 -2.0996466 1.7989366 -4.6280355 1.0207232
4967 5.7177305 2.4957485 -0.03992022 -0.3422172 2.0826876 3.343008 -2.337431 2.486807 0.30646273 -3.1299157 -6.0224543 -0.6621004 -0.79276395 2.799441 4.676443 4.362419 -1.5496757 1.7042855 -0.5957894 6.1456857
5280 -1.24303 1.0900041 5.092463 5.220684 5.630208 0.070523195 2.3118157 -1.9200732 1.193627 1.6943167 3.1841514 -2.5861182 3.7414193 -1.6382053 1.9277413 -3.7589533 -3.275027 -0.49949571 -0.56901884 5.233856
3491 -8.13365 5.122574 2.819051 3.814911 3.2022326 -1.6534986 3.369708 -0.030797016 2.470136 2.4914937 -0.7737761 -4.367615 3.8947551 -1.7418246 2.1478655 3.9455345 2.1063538 -0.20358561 -4.6631107 2.4739017
10828 7.8732486 1.0750836 -3.4766252 -1.5666388 -1.1809678 -1.3147213 0.30350927 -0.85611457 -4.9592333 -3.27809 -6.7262106 0.7156568 1.3689913 4.2191815 1.0208262 -0.75702876 5.1042066 2.9167373 3.702145 4.9141016
18850 -0.041525096 -7.9936423 2.598531 -2.847018 -1.9487904 8.231008 1.5713784 1.0815609 -6.6829314 -3.4654768 0.5388227 -5.713829 -1.194174 -1.156869 -7.7248945 -6.099845 -1.5083585 -0.27097768 9.936159 -0.9484164
730 8.1494875 3.4559162 -1.2052312 -1.6685203 -0.2473653 3.4799013 -3.965327 1.0411279 -1.3330067 -1.4629916 -8.40851 -0.6195232 1.2753872 1.2283262 2.7579763 3.228893 0.09954863 0.7103998 -1.94012 8.580266
21133 -0.4779542 1.138313 1.1876291 -5.7850475 1.0955313 -3.3441048 -3.4829364 3.0801651 -0.11980145 0.5479816 2.0487797 3.3501844 3.0379376 1.3055379 5.263369 3.9643774 -0.1954816 -3.0148733 15.425873 -1.2089788
16520 -5.272463 -0.9537901 6.1874666 3.985784 6.4709377 -0.0566521 4.129981 1.8925731 -3.2984836 2.9574177 2.1703956 -2.352396 6.1956186 1.691514 -1.8516227 2.5202723 -0.09239105 -2.8561873 -2.4131775 -2.9302921
20937 4.621111 2.9708288 4.4347377 -2.2158003 3.2271576 4.7801943 5.5836997 1.5898488 -0.33854666 0.5358231 -8.530208 -1.7887201 8.896885 1.3487031 -1.3595535 2.4066775 -0.058348328 3.3699715 -5.147536 6.2675548
7041 -0.18698156 -0.5971199 0.4158291 -3.3928008 1.685438 0.58920544 -6.3305764 0.83957475 -1.0612166 -1.6282401 1.8814179 2.5800488 -1.4164323 -6.354255 2.092647 -3.9595811 6.853687 -2.4890604 4.577357 -1.3037993
15475 4.771352 1.5815161 -0.9975423 0.055746183 1.0667723 4.3419914 0.16506395 2.053738 -2.637998 -5.750154 5.64462 -2.1860745 -2.405901 2.7598372 -2.3502662 -0.17358617 1.7197294 0.7548528 1.5495889 -1.4542611
14082 -0.9049161 -0.22668944 4.984741 3.3238947 -1.0797372 -0.033243075 3.318968 -2.962735 0.6286734 5.2439723 -5.3841023 -4.243479 3.4392672 1.4765133 -6.4428177 0.9430897 1.0925896 0.20826744 -2.738031 -0.5518401
14561 0.24830896 -1.9072298 3.6603243 1.80219 1.4869553 -2.5754588 1.986669 -5.190274 5.822073 3.3526442 -1.708689 -0.23838729 4.464663 -0.9968459 -1.7398069 0.7425511 -4.7399845 4.839013 -4.184275 -1.0764118
7442 3.7395525 -2.240391 -0.65695345 -3.843577 3.4419448 5.6344795 -1.0470883 1.311948 -4.3849115 -0.4386597 -5.6808553 -0.62483805 1.526432 2.2451496 3.0710158 0.5293959 3.7951632 -3.3049645 3.201153 6.0424957
682 -1.2879024 -0.33134255 9.215858 0.15407531 -3.4197748 -2.516961 -4.5341277 0.8657315 -0.7669354 -1.9819278 4.1756067 1.1845509 -3.2464817 0.22947735 0.6109422 1.4580132 -1.8376476 -1.2778721 2.4855125 3.1253753
977 -3.4139073 2.293846 3.0763638 -0.059664685 1.6565249 -4.138493 1.8296303 1.1369869 1.5277383 4.855179 -1.8418769 -2.7695994 4.6225786 -0.91640866 0.4801871 2.5044608 -1.7072997 3.086966 -1.3809704 1.3499812
14192 -4.9118276 1.4297333 6.443221 2.5069146 6.2359805 1.4510453 2.1349695 0.5021395 -4.191798 5.140862 1.8598142 -5.212231 1.6434532 -0.6916399 -3.870883 -0.4003383 -1.3783674 -3.9711902 0.19656567 -1.8048599
12521 -10.738302 -3.8935921 4.3900375 3.792207 -5.8332605 0.47185725 0.16188248 -0.062503375 4.058302 1.8707273 -6.4730115 -8.432162 -0.41380668 1.7277914 -2.6751137 2.8587742 -1.4457737 -0.2359959 -4.9096804 -1.9313443
4615 0.552221 -2.4808493 1.5247495 -1.1133318 2.337051 7.6147494 4.363901 0.4888512 -0.6799717 2.789754 -3.6094334 -3.5292692 -1.561057 3.5950716 -5.924184 2.8864346 6.7272477 -3.2841926 4.5459323 -1.5700345
18642 3.7072155 -1.2285705 -5.4108706 -3.7463255 1.6477455 -5.335042 -0.65249443 -3.345574 3.0103512 -1.026877 7.1981173 2.4206455 5.088786 -0.51561457 1.9824011 -0.018605333 -2.3337357 2.8273063 6.015725 -3.4685817
4383 1.6279627 1.7925137 -8.378665 0.36596358 -1.1937016 1.8036749 -6.8368797 0.2666793 5.622399 2.5773027 -2.1020684 -6.9066973 5.056693 -1.6605495 4.0404925 3.2422678 -0.35114044 8.155925 6.475232 -2.1509202
14660 -1.0789754 -1.2380481 -2.55987 -3.1780884 5.1201563 9.933282 2.351002 -6.659029 -0.3993953 -0.2751723 -2.123465 1.1585978 2.7627704 0.74689317 -5.397254 -1.457019 -1.8646963 -3.5263152 1.9191393 -5.8250327
22248 -1.677638 -1.5201498 4.048093 -0.7405165 -0.33123276 -3.4401553 0.2668966 -3.5032015 5.960167 4.1018577 -1.6280951 1.2297142 4.2087836 -1.0694227 -1.7981877 2.8573716 -5.313441 5.9559436 -2.5554543 -0.05420847
4672 0.41601446 -1.2801634 4.7371917 -2.3792362 1.8016969 -3.1191869 2.7187827 1.1662533 3.9057124 5.127516 -2.9681716 -3.4420686 5.3634195 -1.6775599 0.84363157 -0.47124124 -1.5351961 3.7228432 -3.13356 2.9079926
8740 -3.6131368 -2.3448443 0.21128418 1.4951901 5.6299753 -0.54698324 6.5863137 -1.1910087 1.0126665 6.102805 -1.513968 -2.7849214 6.3643026 -1.8733722 -2.101735 0.55295426 0.7392015 1.6765658 -0.68455607 3.8426845
16560 -6.8136883 0.1459007 3.9898083 3.6116807 3.164388 -3.3758273 6.245063 -1.3824435 -2.264166 -0.04896739 -3.9064698 -3.4744828 -0.35476965 0.20998839 1.0036266 0.04555188 -0.5609026 1.7147985 -2.83351 8.901008
3608 3.966465 -6.7430344 -0.708451 0.7221731 -0.18714075 5.6702795 -5.131204 0.21855661 -5.370451 -2.3513165 1.7908078 -5.529821 0.54103196 -1.0869131 0.19424793 0.7666297 -0.5969338 1.8300772 4.1939855 0.9549935
20493 -2.6056767 -2.9185772 2.1027067 7.1046023 1.917113 -4.6822653 -0.66674536 2.4651 -1.8075134 1.8824662 -4.5013485 -2.7507975 0.7984638 -2.899942 -1.3193113 0.20829765 -1.3555086 -2.3689568 -0.26252723 0.8113929
9784 -7.1774597 2.0506477 0.7867905 5.955992 4.8159738 -0.047417708 0.9878549 1.694827 0.7538399 4.0670347 2.1039643 -4.790027 4.0003815 0.19789167 0.9825701 3.0818667 -1.5047706 -1.6136167 -6.3343997 3.786297
9493 -2.9229922 -0.5125667 3.5974452 -2.9131892 1.1367117 -2.3965628 0.31839153 2.050116 1.2349544 4.432421 -1.3520507 -2.662071 3.9486127 0.34846893 0.921421 3.6680293 -1.5899825 6.185091 -1.5765055 0.44536075
21838 -4.486842 -2.3363674 -0.87809145 3.410421 5.553448 -0.25027576 6.4553356 -1.864439 1.7510269 4.388126 -0.2903135 -2.7144506 7.1133814 -3.4718285 -1.4113004 2.0044622 0.037841342 4.753052 -1.7580193 4.0859466
9710 5.1902537 3.1673384 4.738688 4.456106 4.407077 -0.3530476 -7.7376013 -1.9018638 4.306279 -3.0675054 2.1624765 3.7092798 -4.567315 -0.70178974 5.953307 1.6595167 0.4388822 -1.1432775 -0.87535256 -2.5305138
2461 -3.844956 -2.4524624 2.9678502 5.2232537 1.8996587 -2.4126372 2.2665448 -4.51625 -0.2932216 -2.1900342 0.6054134 0.21346094 3.7348874 0.5541748 4.446768 2.5636427 0.799385 2.773639 -1.701293 2.5620003
6174 -4.344296 3.0455267 0.25438663 -4.352516 -3.4279637 -5.611389 -2.1422627 -0.3296801 4.337786 -1.47872 11.427073 -2.052653 0.87535256 -4.5655704 -1.6112005 -9.063622 -0.53386074 6.797589 0.038777843 4.7857113
8821 0.075370505 -3.726845 -4.5671377 0.9835662 3.4149256 -0.6148304 -0.24255952 -1.0141239 -3.4131744 -2.1667917 4.5686216 -1.2888422 -6.48334 -1.1822932 -7.596276 -2.575257 0.8406113 -4.554514 0.58704615 -4.26823
18355 3.4781818 5.0703707 -1.3538644 -1.057626 1.6621512 4.4597697 0.81864476 4.3248568 1.3387709 -9.335637 7.3577046 0.5477219 -2.8797953 2.05579 0.42573622 -1.251016 1.047668 1.5557339 3.7116146 -0.62111145
21338 -0.14711244 -5.735966 -0.86123866 -3.2981048 1.1250962 0.9975646 1.8479477 0.22300403 -4.4355693 -9.888359 -3.0567963 -4.5214767 -1.1274837 -2.9962707 3.9458764 0.75998324 0.19363101 -1.9223547 6.4325843 -6.2865496
5977 3.4430888 -5.0396724 1.4750371 1.6580669 1.392751 6.4450955 -3.3583918 -0.3939203 -4.8295174 -0.6161706 2.6163828 -6.459913 2.451951 -2.5698364 -1.2221175 2.4646947 -1.68628 2.3962302 1.517778 -0.59572726
7091 3.7222543 0.49895424 -2.698907 -1.1826888 0.9769698 5.7442517 1.3561518 0.9642338 -0.5913032 -8.198108 6.7743797 -0.8254819 -2.03251 2.3521569 -4.100202 -1.5148755 -1.9423858 1.2056513 1.4574453 -0.8610769
11062 -5.8344107 1.0799901 8.407953 2.2087145 3.944024 -0.19958425 3.3611817 1.6240014 -3.337791 2.0366561 2.6408947 -2.3762853 7.3487678 -0.17963754 -3.3036058 -3.9543986 0.8804985 -2.895479 -1.8778397 -3.9813213
15403 -9.2613 2.8078673 2.750111 4.190158 1.4447284 -3.3724568 3.7147496 -2.4718368 9.103789 0.29746327 2.8357875 -0.07805547 0.12940589 7.7778916 0.9970544 -5.0618777 0.26192772 4.8076015 -6.2188053 1.3489287
6232 -1.0251024 0.8844646 1.9470342 -2.7416205 -1.3113397 -4.727792 1.3522173 1.4196416 1.7411638 3.9256926 -5.5330305 -1.301313 6.5709515 -1.238541 -0.9034275 3.696942 -2.9914482 3.1559432 0.041071214 -0.54084986
22230 -0.04757059 1.0510514 -0.38267916 -2.1046112 3.1082067 2.7529042 0.27948552 1.7940392 -0.454399 -0.836496 -3.886479 2.132687 -3.2853217 -2.025213 -6.4595203 5.6805487 5.656751 -2.1349368 0.76959 -3.8590474
19748 -7.525089 -2.6193671 4.8494515 -4.4146786 -2.0250425 -6.4378266 -1.7713021 3.3312428 -1.0077771 -3.691021 -1.6264282 7.3199706 5.0181727 -8.278351 1.6514777 -3.2460847 4.844309 -5.9951406 3.0217488 5.050205
19053 4.8722286 6.952898 -4.1474085 -1.1819091 2.6785073 -3.919336 1.005916 -0.80248547 3.7247646 -3.0311353 -2.4187782 1.2813832 2.7919943 -2.5508623 0.5149153 0.5289072 1.4903804 -8.326694 0.66938466 -1.7132397
173 2.021098 -1.3741904 -3.7214797 -3.0753715 3.4994767 4.841127 -2.7515278 -0.8933138 -6.7529583 -0.8066005 -2.1928666 -3.2742302 -3.5801477 0.7363288 -2.515803 2.2422411 -2.3983502 0.8334755 3.0937548 -2.5707712
10510 5.5873766 5.9605627 -4.707496 -2.3182094 3.625733 -4.9679866 0.5710124 -0.9921213 4.902603 -1.613222 -1.4488212 3.0087113 1.6496061 -2.15411 0.63017875 0.5419641 2.5468316 -7.735932 0.2653367 -3.2800307
16330 2.5210068 -4.066996 -5.207925 1.826394 4.650574 6.1044683 2.4665785 0.28694868 -4.960159 -2.747473 2.3859017 -3.966293 1.6124837 1.8155569 -4.7051773 -5.960667 5.970125 1.5230647 -1.3543535 -2.904671
13796 6.227889 -1.3867025 -3.6710176 -3.4473827 2.275623 1.2595837 -9.72471 -6.7732344 1.3688699 0.8480777 2.4608543 -1.4065605 2.3195481 4.4364777 3.5212824 0.0750365 -4.588242 -1.0609711 0.5870756 -9.384302
12704 0.91966814 -0.8477948 -0.22141123 0.937514 2.1095757 6.786733 -4.7633543 -3.3627112 -4.644179 -1.4772902 -0.24164164 -4.2331743 -3.7404513 1.6268096 -0.77799517 -0.40962145 0.4170998 1.0919201 2.3100145 -3.9383721
4560 -0.653246 0.9280326 1.8834635 -2.9977582 -0.088364184 -3.518061 5.032034 -0.27478558 2.3338902 2.7694635 -2.1466753 -2.2294164 3.6037917 -0.40290013 -2.2995589 3.881504 -1.2863585 3.317129 0.49559236 0.21637227
13267 2.1988487 1.3898953 -7.090232 3.7420375 0.13234194 0.49422026 1.6845998 1.4000071 2.1075845 -5.959194 0.49083427 -2.4317062 0.40844828 -0.55325896 -1.1521007 -4.2646103 -1.9554497 -0.4131056 3.3888168 -3.7285762
3731 3.7820354 3.5144465 1.3587946 -3.8627198 3.1470706 7.95205 0.4803865 -0.73918134 -1.7470412 -1.4141079 0.16899137 -4.4665766 3.4699488 -6.4762506 -6.5192757 1.7935771 -2.5259967 2.1664166 1.8594466 -4.8226743
12993 -0.58642644 -1.1048989 5.212058 3.249779 4.6891317 0.12813659 1.7589341 -2.8168247 2.4141977 1.8739978 3.0334253 -2.8572357 3.242442 -0.98934096 4.2494082 -3.7329159 -2.1428452 1.7464417 -0.71201354 5.6072598
7800 -5.218688 -3.4195445 -1.1394165 -6.390243 5.1218996 -7.671227 -2.3713884 -2.878594 0.04071021 4.390198 -1.8498782 2.0231388 -5.990661 -1.6039714 2.929562 1.5079883 -2.4481335 -1.3586471 -4.4967055 3.38247
4677 7.000316 4.9853277 -2.9131873 -3.1624398 3.4154713 3.658953 -4.5771227 9.771794 1.727271 -7.450334 -1.8236139 -1.5623362 -3.6914613 2.9882607 -0.016531691 -4.007217 -4.8521333 -1.5221372 1.4819158 -4.7269406
7833 -1.8947495 0.56296104 2.309484 3.9989705 2.0803943 -4.7396603 -2.698599 -2.3436313 0.15968484 3.5722744 1.032048 2.3965077 0.7960417 6.211644 3.3837602 3.999934 -0.25456092 -5.1971173 -5.271925 6.9413943
4527 -0.43049467 -3.040409 -4.801192 0.7858033 4.3892345 -1.835655 -5.0397058 0.098122105 1.2775548 -2.3782878 2.2714565 4.623623 -3.5952652 1.7140262 4.1522884 0.067807555 -0.34406042 0.9407088 1.2239522 0.90472585
11248 -1.2850716 -4.6010127 -0.67603165 -0.091974065 2.6163259 -2.1129735 -6.397577 0.30118215 0.22771935 -1.3263385 4.1796303 3.786725 -4.293825 2.503947 5.5619335 -1.9508793 -0.7438638 0.7714511 0.18910143 1.6344796
12001 -2.1236534 1.215981 -8.06382 -1.1690302 -4.4867935 -0.51653713 -3.4489863 -2.1540387 -0.95273143 -1.1001157 0.29027665 -2.7727447 -0.7300181 -0.18122561 -1.0390993 5.245711 -4.471548 -4.071942 5.2765703 5.4287686
11473 -0.6758606 -2.725511 -4.301178 0.74924064 4.3532763 -2.0074 -5.0150843 0.6100162 1.154757 -2.1857243 2.1520994 4.413304 -3.5939438 1.7598083 4.3792853 0.26595563 -0.60142255 0.75540245 1.0889844 0.5581657
20387 5.45834 -3.917978 -1.0930691 -4.175306 3.7326708 4.7025857 -1.9852611 1.6730915 -4.480624 -0.104810216 -4.0898275 -2.7837796 3.1175172 0.8642799 4.312075 1.340595 1.7515047 -3.3886306 2.3218992 5.4487805
19489 -2.7336912 1.5340917 -8.994293 -2.0356104 -3.9844003 -1.1145968 -3.159097 -2.503104 -1.120213 -1.1611178 -0.4766072 -2.2738128 -1.095208 -0.3185172 -1.7669693 4.779126 -4.734385 -4.7161484 4.639533 5.949963
12450 3.2748854 -0.51986104 -3.3990138 -1.8039083 4.863231 5.3227034 -1.7904838 -3.547049 -8.090236 -1.4058422 -1.9637731 -2.4994926 -2.1484227 1.9462057 -0.1383916 1.4660435 0.06747047 -1.7674152 2.429086 -0.56790817
9813 0.008194664 -2.5397913 -3.9990456 0.45814952 4.4914484 -2.263391 -4.6951847 -0.12524869 0.9279016 -2.3980155 3.3934739 5.063458 -3.672251 1.5073942 3.815839 0.2916358 -0.5948475 0.68707037 0.6528364 1.3290064
304 3.7083774 -0.05824701 -8.248822 -0.1943726 -5.678019 -1.2761836 -1.5204144 0.1806146 2.7789774 -3.3729117 -8.653175 0.92909473 2.8148985 -1.7543916 -1.3701522 -4.9918623 5.289142 -0.13408402 1.6716425 4.2153244
5589 -1.1620127 -2.6307774 -4.572668 -0.017224418 4.300263 -2.4065604 -4.977193 0.2236844 1.1700529 -1.8874341 2.2888608 4.2641497 -3.9943054 1.4534796 3.984411 0.034052663 -1.1561548 0.42388362 0.9499551 1.1455238
8381 -5.18415 -4.5245643 6.6254444 1.7987217 4.139479 -3.9576023 5.507333 0.10050355 -3.101666 0.3272402 4.7076416 -4.741032 0.78700185 -1.0807273 -1.0725265 -2.006339 3.8250406 -8.62577 -3.688802 -2.8545194
13327 3.3345056 -7.3703194 -0.116592325 0.6622312 -0.6917183 5.938127 -3.4177613 0.17093864 -5.154582 -1.8034564 2.106985 -5.8170967 0.7241023 -1.3141826 -1.9229859 -1.0364691 -1.2231154 1.294701 5.0282264 1.1487902
20337 4.61109 -1.5275443 -1.3428575 -0.94147915 1.8346697 4.470837 1.0474356 3.500516 -0.51823837 -6.3256063 3.6231122 -1.4163718 -0.79448783 3.0796938 -2.0769565 -3.0026622 4.2251873 0.49300382 -1.5414126 -2.347177
14335 1.3072264 3.1195855 -2.820948 -0.18767619 1.3352834 -0.3592126 -0.23502387 -2.4018426 -0.3159028 -4.1296434 -0.22729139 3.6174974 4.8571005 2.904495 0.87657917 3.5818822 0.1492502 -2.9185402 0.21976241 -2.668818
14128 0.11729848 -4.4636335 5.159852 -3.285996 0.6471548 0.1630316 -2.64163 -3.3812554 0.2154407 0.611633 3.2383308 0.07504859 -2.6906347 3.908679 3.6669135 0.09578895 3.025686 4.132055 3.2839174 0.12138277
12075 -5.985829 3.1282697 -5.0997157 -2.7947874 -4.2606077 -1.5202957 -1.9177175 -3.8988469 0.84496266 0.4026069 -3.6747854 -3.2948098 -3.186303 -0.32674634 0.98820513 3.1238852 -1.7727807 -5.6320024 5.499651 3.1388934
369 4.790143 -0.9069707 -1.669556 -1.5396208 1.278293 2.3674214 1.9384749 4.1242657 0.05904978 -8.560117 4.568261 -0.8688038 -1.445429 1.0141503 -1.4285191 0.8256738 1.2309746 0.7199348 0.8758188 -2.9648447
3319 -4.899167 -2.490402 -4.4762464 -0.84039634 -2.3208194 -0.88975245 -1.2764702 -2.0985813 -3.9459279 -0.431344 -2.6086664 -3.191976 -2.7813478 -3.4805832 -1.3346403 3.3802845 -0.060878024 -3.6795192 4.5055394 7.1871977
16741 -9.303524 3.083519 2.2949452 5.351764 1.5980041 -1.1098901 1.393114 -1.9061235 1.5218662 1.9603753 -0.21610442 -5.157602 3.4579554 -1.243576 0.5429002 2.4100313 -0.046687387 -0.067210265 -5.4420176 0.5868429
14546 -1.0663027 -1.9853196 5.31042 -0.82898605 5.019221 3.6182196 2.595589 -1.081474 -1.5245667 2.6339715 1.0838568 -2.4422002 4.6853275 -1.4006655 -4.225544 4.1442585 -1.5716335 -1.0925485 -4.070857 -4.4736505
14778 -3.844063 -2.247045 2.6799335 7.147352 3.3520465 -1.455957 3.2964349 -2.813082 -1.3650205 -1.3551506 -0.50793654 -0.9938019 2.154634 2.447389 3.290861 2.8864963 2.3023207 3.8517497 -1.5279479 4.5440245
11166 0.70121324 -2.393897 -1.1301126 -2.8106744 0.094284214 2.0880115 0.6647785 -1.6375706 -0.37396723 -7.675909 -1.7731177 -2.29749 0.1483011 -2.5841386 3.166178 2.2668605 2.2822938 1.8188885 3.2720819 -3.1216419
13690 -3.8454642 1.1747128 2.2217488 2.1958265 2.189699 -4.208655 -1.2654028 0.34370956 4.219834 6.6986365 -1.5219883 1.0850736 2.813278 4.791166 2.5773351 4.590101 -0.40186724 -3.7376537 -5.901662 5.721416
10364 -3.3466775 -3.5047565 9.168425 6.544778 -0.1790203 -4.2333736 2.3060148 -3.304584 5.1218596 3.3958445 5.2442365 6.439006 5.1955543 -2.8907886 -5.7230372 -4.9294677 1.9246992 2.172095 -4.305657 7.183347
8957 -0.15118507 -4.8924956 4.1022644 -0.29521048 -5.422759 -6.99976 -4.1486335 -2.6933064 3.1460948 -6.349583 7.29482 7.1562667 6.757599 5.1647134 7.378145 -5.1666965 2.898026 -0.3459323 -0.5352813 -0.13637963
16290 4.803927 -2.667926 -0.6796337 -5.046074 3.3405483 3.6533353 -1.6616336 -0.7485836 -4.6773663 -0.83155704 -5.024848 0.3103134 5.491876 1.821459 4.9722624 0.6258352 1.6539878 -5.440009 0.20865251 3.4471292
1573 2.16428 -0.63794684 -1.7698257 0.07173766 2.8348331 5.041271 -0.17897879 -2.6238103 -5.955369 -0.70039994 -2.099878 -4.28183 -2.9380884 2.2740202 -3.050424 2.041603 1.3095663 -0.3456615 3.3277144 -2.7073686
6466 4.0325694 2.4568827 -2.3925757 1.1087085 1.4430188 8.367328 -0.3495506 -0.2443011 -1.0546613 -9.5700655 7.778201 -0.73840517 -4.189376 3.0711691 -3.1066535 -2.064256 -1.8813821 0.32094073 2.2230597 -1.0628946
5373 -2.1769714 -0.017016266 2.3525069 -2.4395738 0.7959127 -4.7064843 3.5606074 1.0147952 3.02124 4.039426 -2.1205974 -1.2171853 4.656821 -0.9197851 -0.69605523 4.909521 -2.5222208 3.0889418 -0.90770775 1.3706428
7860 3.9600506 2.4516494 -1.3176397 -1.3388301 1.2661935 2.5625205 1.5529563 2.453399 -1.3372288 -6.0688944 4.6615443 -1.7812392 -1.1247606 1.0498198 -2.4542077 -0.086156465 1.2717619 1.9363264 0.14074145 -2.0607288
3269 -2.5497136 -7.537939 2.3440633 2.5471838 0.7054321 -1.9546673 -6.2268186 -5.854437 -2.33747 5.278973 -0.107168734 6.965316 -4.054714 -3.9515088 -3.0507421 -1.1952689 6.517463 -0.77366173 0.09175043 8.425481
18601 -5.314855 1.9578673 -1.758585 -2.949594 -3.8856695 -3.6096368 -2.3199596 -2.4135883 1.0118314 -0.58566636 -5.9755383 -4.412344 -7.0823197 -0.31582472 3.3018382 4.6635604 1.6820391 -4.242589 6.0788417 3.4155324
19200 0.45332316 -3.8657384 2.8846784 -0.79406947 0.7255734 2.211906 4.1807494 -0.80971575 -0.53647244 3.2347724 -2.9693139 -4.0478716 6.2918196 -0.5786947 -7.352238 1.4564139 0.07857147 0.72794515 -5.375122 -0.6505913
19602 -0.4553365 -5.750682 -8.406716 -0.38989815 -2.3456655 -2.0370688 -3.9928858 -3.5676713 0.85322493 -7.5602727 -2.418252 2.8868318 2.6452546 1.01343 0.07719166 2.1000788 -1.8305876 -0.11879818 -2.6929219 -2.1639974
18840 -0.3524265 -1.4816861 -10.250858 -4.374042 0.21601567 1.9663968 -9.0569315 3.5645578 5.757288 -0.8742384 4.4762306 -2.2885199 1.3411986 -0.55119747 -0.009692035 6.550117 -2.0505996 0.6636121 -4.2442765 -0.031163335
8629 3.0807025 1.6383932 -4.37652 0.08162418 1.7458076 3.813138 -3.9314055 -1.9576253 -4.960292 -2.1669292 -0.28472584 -2.5940788 -4.1417727 -0.3601206 -4.3065333 0.45600235 0.04961353 1.4991686 0.8257298 -4.584148
21631 4.1781178 1.684345 -0.6200771 2.1513026 1.5979781 4.264441 -2.5411363 2.0137196 2.359272 -2.7119353 -2.8739202 2.2867925 -0.8094705 1.1183801 -0.33748266 5.3617153 -3.2080076 2.7843945 -0.60304594 7.712098
2278 4.041161 1.0132251 -0.97114015 -1.1054256 0.8218816 1.9345518 1.5771223 3.9529343 1.2524716 -6.3494782 3.702306 -0.894332 0.3792127 2.8065484 -1.5386163 -0.67345357 2.3626182 0.8164796 -0.6761031 -2.6931577
15090 -0.34400347 0.3490199 5.032197 1.3134363 -0.21949048 -2.4885888 2.1996047 -6.0978913 0.85941035 4.680132 -3.410701 -3.7691147 2.6686604 0.46620762 -3.1023574 0.56565195 -0.047628377 1.1943082 -3.8355565 0.20563756
2635 3.643782 -1.2927567 -5.5189214 -3.1217144 1.0395857 -5.4678936 -0.41326517 -3.0436342 3.1823635 -1.2644284 6.862822 1.9237214 5.199415 -0.87624794 1.7987477 -0.21902639 -2.153354 2.895638 6.542577 -3.9516783
18266 -4.1808944 -1.8863249 2.55142 6.1210246 3.0431428 -3.1318793 3.8398018 -3.471042 -1.1152558 -1.4515848 -0.5604642 -0.5138603 1.4922156 0.9561085 2.360018 2.2161753 -0.8121276 2.804186 0.12683146 3.1940167
5650 -0.061668973 -0.18352403 2.0302422 -4.318843 -0.33581892 -2.2663069 3.1229057 -0.01681194 1.7286963 1.7934918 -3.3975093 -2.729698 4.4102583 -1.5895258 -2.9965706 2.2198727 -3.6779695 3.909991 -1.953801 -0.017790748
15208 4.213973 4.8045635 -3.6114697 -1.1361401 2.9284225 -2.3625286 1.7108792 -2.024018 2.8954 -2.7241054 -3.2099469 2.2457006 3.1734798 -3.6633222 0.39464372 0.37942722 2.9404342 -8.3861885 0.9854335 -1.2595859
2719 6.1098475 1.9883335 -3.1392121 -3.401216 1.6370155 5.9142313 -3.1489942 8.251125 -0.110856965 -6.8543673 -2.086476 -3.563988 -3.2698112 2.564463 -0.9862709 -3.9666557 -2.7805648 -0.9488496 1.6630797 -4.669515
8160 3.367394 2.4348845 3.2187097 -1.7110507 4.6093893 6.9776187 2.4479935 -1.0914018 -2.8124697 -0.0757568 -0.9202477 -6.0610623 2.7505257 -6.124142 -5.9948444 1.0232005 -1.773277 1.9070221 1.2164477 -4.8605213
4063 1.6400595 3.6057205 -3.1295166 -0.014330763 1.5665683 -0.86321497 -0.36217004 -3.2730381 -0.89690614 -4.93111 0.03960376 4.0693426 5.7027774 2.254299 1.3370634 4.4606953 0.026220756 -3.8798158 -0.6297405 -2.3039267
11079 -3.0727384 -4.34956 1.7069596 6.3740816 2.865956 -5.5031757 -0.9789472 1.7308464 -1.1963489 1.3088113 -4.9663115 -1.3451415 -1.0503647 -3.0385275 -0.5303326 0.21063524 -0.8154296 -2.6981125 -1.7057536 0.34287214
19654 -0.8293241 2.2083554 -0.6914959 -2.059893 2.603094 0.7554298 0.16528663 1.2337289 -0.27795735 -1.6743658 -1.747369 0.8841368 -1.7643999 -4.042743 -5.049562 4.936554 4.010883 -1.7293049 -0.6245087 -2.683195
10666 -2.620925 1.3664094 1.1263995 -2.7703185 -0.53528214 -6.113777 3.036656 1.337956 1.7313535 4.2295866 -3.296676 -1.9303564 5.17989 -0.8749972 -1.4005102 3.352768 -1.8950248 1.0015562 -1.1014243 0.105046965
3805 -2.102904 -0.30967703 0.79310286 -0.890629 1.8677828 -3.9070828 2.683795 -0.099327795 2.5942338 5.338862 -3.1780722 -0.7412154 5.6213894 -0.16294359 -0.11283954 2.6530535 -1.6890461 3.083429 -1.0609221 1.689568
7618 5.9476924 -3.3112564 -5.152366 -2.662837 -3.3974044 3.4001005 -5.149593 0.5869154 2.6516345 -4.2104945 -0.44369823 -3.4067569 -4.7737107 6.6263194 -0.7026685 -6.5293007 -7.769803 -2.4455206 4.780817 0.18034528
12031 9.605185 -6.157355 1.306717 2.2687135 2.800263 -4.6530633 -2.2974346 -2.1412804 4.169511 -1.4987475 -2.3672152 3.3704963 -2.8970675 -5.202306 3.6986382 -0.8812764 4.238791 -7.2343283 8.158205 4.4784737
5469 -4.8517456 -1.1293666 2.0720336 6.2639246 3.1727397 -1.9479082 3.0419228 -2.7883034 0.13865948 -3.0281208 0.0705764 -0.9786566 1.4105997 1.1427342 4.528021 1.687065 -0.60128003 2.4548686 -1.5869496 3.872484
21811 0.91047573 -5.7646475 -3.6877935 0.8883909 5.3346796 5.4534016 1.9871316 -2.6450703 -7.044695 -1.494743 1.1461453 -2.7215984 2.0801373 1.9356811 -4.561464 -5.3844266 5.2579637 1.4980654 1.1951904 -2.8633783
