8775 30
19743 -2.652058 -0.0040302337 -1.17394 -4.1071177 10.59413 -1.9354725 -6.6997976 -0.2278988 -1.0461307 -4.831769 -4.021154 3.0602653 4.6172433 7.2895627 0.28020895 -8.234906 -1.6813118 2.1759007 -5.183253 7.5312505 2.0726473 0.06413449 -1.0825217 -6.1639786 10.425407 -10.688661 -2.0673916 -3.0849533 -0.6954858 -5.084549
21729 -2.4012508 -0.79955375 -1.729086 -4.509406 10.878983 -2.1505923 -7.1097884 -0.35229114 -1.0896155 -5.6177607 -3.7529004 2.0919318 4.182714 6.8941197 -0.37461215 -7.543551 -1.665891 2.3177252 -5.408402 7.1837416 2.7836533 0.6868849 -0.96439415 -6.2250605 10.97481 -10.307437 -1.2772479 -2.792414 -0.8992926 -5.956261
14497 0.8983493 6.4812703 -1.5694454 -0.94166666 6.844104 -0.86122626 -4.715098 1.764111 -0.4757383 -4.7522306 -7.904732 -0.358315 -1.1674908 5.996146 -2.7912357 -6.121057 3.2019763 -1.13818 0.59405047 0.7557917 8.661094 -5.935692 -4.4477887 -2.7200005 -1.1587323 -8.4890785 -1.4719744 1.8077756 2.94769 -8.597972
21120 -3.468623 -4.3848433 2.2834072 3.064614 -3.919039 3.9829824 7.708559 -0.84904 -0.10095401 0.69889414 -6.580536 -8.27561 2.585236 1.8453095 0.3749332 3.1138878 2.6199327 -2.1547515 0.97139287 10.549755 -14.410828 -5.4013147 6.312743 -10.539681 5.062133 -8.174254 6.389293 -0.7820047 0.46634927 -4.4628916
1387 1.5692332 7.602629 -6.2793136 -3.9599686 11.234564 -0.14197022 -4.4789643 1.1053754 -0.8328683 -7.796016 -8.950715 3.0899432 1.1256686 4.7335024 -3.3430398 -3.624434 3.3053937 -0.09911584 -0.98948526 0.85310763 2.8035495 0.91390806 -4.7849584 -2.8500319 2.5140436 -6.150905 -2.1665556 -2.3122015 -0.4951715 -7.600065
14650 3.2611308 -4.35604 4.0505276 4.5379906 -2.9428654 1.0045788 10.30992 -1.7140516 -1.0192946 -2.7143774 -3.1981146 0.08793157 3.7693446 -3.9961052 0.65038925 5.0404797 1.0791532 -3.783363 1.2699707 10.388522 -3.8999896 -4.872057 8.6233425 -10.138268 -1.8610789 -3.8738604 7.489439 -1.0482993 6.78051 -6.2428765
13294 0.5345096 -4.0105433 -0.21122359 0.9447985 -9.697313 3.375835 6.4926243 0.09159024 5.559479 -2.4243896 -7.5814004 -4.3823895 4.564702 4.867179 1.4044955 3.6840227 3.7860792 2.0277965 1.3019339 8.238509 -9.913141 -3.464823 2.0680473 -5.726233 6.5551667 -3.2654545 6.089428 1.209738 -0.90285146 -2.3558717
8139 0.8824716 5.0144873 -3.4010472 -3.454871 8.354292 -1.4566646 -5.367547 0.7352623 -0.79684013 -6.2378163 -7.0278335 -1.4544826 -1.127741 4.9310894 -0.18196872 -6.7555823 2.4863405 -2.3460124 -3.5298426 0.9143258 6.152915 0.32593828 -6.3098125 -3.954944 0.18784869 -4.107018 -0.4263229 -1.9832077 3.0250597 -1.8070806
20415 3.783462 -6.6892734 6.3907266 0.22863404 3.536517 0.2246705 4.9344134 -5.5249496 -2.187128 2.0165339 -2.7069876 -4.5334754 3.152736 -6.500133 1.2293594 3.7347784 -2.8724108 0.024504198 -4.5811667 8.314592 2.3669045 -6.098272 6.0207977 -11.205795 2.5934176 -2.3777544 3.2094035 -2.2634947 3.2061377 -5.695371
8883 -5.067579 4.757973 -8.190379 -3.748431 10.255973 -5.440427 -7.219326 2.3510087 -0.8671731 -7.8533354 -3.0107434 2.3130267 0.16453762 7.001771 3.2851982 0.9552131 -0.79192346 5.00997 -3.6171436 0.90206695 7.2981324 -1.9997895 -1.8972971 -2.6945887 2.485448 -4.621219 -2.4429343 -1.7129381 6.4047694 -3.3215997
11332 -6.806016 5.4529943 -5.516025 -4.7238092 12.576764 -4.1677246 -5.792808 -0.84901905 5.4380283 0.13799566 -4.7525296 1.5868146 2.4634767 7.2872553 4.021509 -4.8849263 4.974234 1.5525829 -2.442704 -1.416149 -0.62835073 -0.81811976 0.9061268 1.6136793 7.5744195 -2.1239593 -5.9502063 1.1177837 -1.4216077 -6.6919985
18906 2.1266413 0.39736417 -4.188284 -3.4182537 12.0706835 1.2079673 -4.166499 -2.063727 3.212196 -4.72653 -3.956881 3.6216376 -0.53254354 7.8865337 2.9367962 -0.5524329 -1.1869185 7.609473 -3.990035 -4.6543913 -0.7842716 -0.5261072 1.4577456 -5.346285 4.5172253 -4.156475 -1.7290577 3.8557384 6.475858 -3.2799742
16809 3.0681314 6.2592545 -7.1483393 -2.061266 2.4394324 2.430233 -0.8296789 1.4426774 7.228965 0.40358812 2.7640831 -6.7828 -2.9625895 -3.28561 -4.753691 2.285499 -0.609249 -6.602028 2.991104 11.501771 -4.6519384 -1.9720075 -1.104393 -4.601426 0.19491315 0.98890346 -1.1749231 4.809513 -2.5803869 0.23546892
9220 -1.4999163 3.1518068 -3.163176 0.017548604 7.3128314 -0.8490118 -5.1274123 1.3920245 0.3528773 -6.5561604 -5.578307 1.6599638 -1.7171268 6.231002 -0.9813806 -2.9552014 3.880008 -2.570003 2.1227686 -0.47044277 6.4711676 -1.0310365 -3.6853747 -2.0361712 -0.5886101 -6.70179 -3.379592 -3.382187 1.0901365 -1.694444
18966 -3.8347816 8.750912 -2.9607594 -2.9547877 6.4554777 -5.7995734 -2.7894204 2.6657808 -1.8480663 -5.0447135 -3.226391 2.6091423 -1.0907714 3.350728 -1.0361 -1.3933103 -2.1017752 -1.9961636 -5.538583 1.1585792 5.830441 -1.1224359 -4.0815673 -6.0847263 -0.078707 -1.0782479 -4.415328 -3.1226974 4.6784005 -5.2526436
5212 -2.8488183 6.3831635 -3.3744252 -7.679965 12.36964 1.9833431 -5.4462686 -4.7344666 0.0022818567 -5.3123407 0.060195222 5.144001 2.8959033 3.1489887 0.88631064 -3.0595267 -5.4651814 5.918494 -4.1273723 0.30070207 1.0310575 1.8945744 1.8974714 -2.4071238 7.5863175 -2.126859 -2.666754 2.1060114 -1.2684861 -3.8292546
16977 -2.3790712 6.801662 -3.2865906 0.09954679 5.4731765 -0.99392945 -2.8498394 2.1260102 -2.344379 -0.5628427 -9.12829 -2.477792 0.1465138 -0.19715586 1.0571901 -4.047802 -0.5000355 -1.7006603 -0.14121702 4.832742 -1.4018223 -3.4870782 -4.302611 -3.7645876 3.1072583 -9.0793495 -2.890935 -3.0159779 1.1800407 -7.3376794
12464 2.1393282 6.0376773 -4.864296 -0.9016265 4.570879 -2.9141884 -6.491534 1.7256403 -2.0821128 -4.1384606 -4.6171145 1.7380798 -2.4025576 5.189705 -0.11763602 -5.6400776 1.4465714 -4.216807 -1.7257161 -0.25083572 8.197156 -2.9853306 -2.4688902 -2.1676264 2.0371451 -7.236415 -0.8550592 -1.5817249 2.6901972 -1.737905
8482 -2.3074448 8.131098 -5.513188 1.224501 1.2595855 -2.0268605 -0.26309663 -0.4350053 0.27515855 -4.406826 -8.658295 -6.6178913 -0.38139325 -0.04283036 -0.7472257 -2.3514428 0.36844474 -2.9106963 0.45363113 8.918198 -7.948054 -9.281904 -7.2689066 -5.895752 4.9380403 -8.543159 1.79565 -2.246161 3.2759771 -6.0166407
18155 4.447112 -9.16631 1.4634217 -1.3637426 -1.4450628 0.8729437 3.7210233 -1.3609765 3.5603914 -1.5065657 -5.2838187 -3.6590245 8.855491 -3.3397639 -2.252004 4.1757007 -5.4304867 -4.5398617 1.4366975 8.640489 -7.214753 -4.369651 6.8487463 -4.2118926 -0.35941035 -3.49974 7.641344 1.1690797 3.985898 -0.1563295
961 -1.9130036 2.8222184 -1.9605461 -0.82282406 6.976916 -0.93399084 -2.9499154 0.47259042 0.24254492 -3.785569 -5.518891 -0.8934676 -1.9032747 3.235433 -2.1587644 -3.890634 2.1636527 -3.0505161 -0.23278195 -0.63765246 3.9704244 -3.2971601 -3.4953606 -3.1451488 -0.7412852 -5.6571918 -3.069411 -2.3606272 2.8228962 -4.8502984
20276 -1.5794739 4.4729314 -0.86738265 -2.5131414 5.986065 1.2464187 -2.6510184 0.64740354 -2.7666123 -4.4124117 -5.33401 0.7404836 -1.3586154 3.7066538 -1.4232764 -3.23159 0.46936902 -2.8250697 -1.0511839 -0.37781447 4.92619 -1.9987442 -3.910661 -2.9640927 1.0315249 -6.523933 -3.6344295 0.49070883 4.383129 -6.58398
17726 -2.8846197 6.6696954 -1.6876217 -1.7221706 9.795565 -2.4975512 -4.455205 3.9626763 -3.0560899 -3.2311904 -1.7918532 -0.90643823 -4.013397 7.150319 0.7014903 -2.7500067 -0.6725755 0.4457979 -1.6439047 -1.8535085 4.0337925 -0.21533482 -2.6658645 -4.6745486 0.5274775 -4.663623 -0.14376478 -2.4461632 2.8993454 -3.6902745
9176 1.8757775 0.08304548 -2.109785 1.4730077 -3.3006232 2.8014894 3.9458947 1.2936975 3.462418 -0.2926821 -3.3303263 -1.844816 1.9665078 1.9188288 4.330527 -0.42540097 5.825055 4.4012175 -1.856665 4.7167344 -7.2772856 -4.0531626 3.4442697 -4.5149193 7.8550606 -2.0950885 5.391934 0.90208787 -3.0354779 -3.2106056
17384 1.2602651 5.597339 -4.661232 -1.4604102 9.38756 -2.0966663 -4.070853 -0.3840236 -2.0940363 -4.377293 -2.7625637 3.759007 -0.54297364 0.9062859 0.7145728 -7.6213303 1.035531 -2.8403838 -2.7377079 0.8821423 6.8703246 -3.4295766 -4.425054 -1.2935187 -0.81835824 -4.53915 -0.45273083 -0.35076103 3.6510448 -0.38653544
7467 -3.334155 4.7342167 -4.2314215 -1.9251838 5.779135 -0.04610894 -3.017629 0.15846361 -1.335109 0.48509803 -10.604301 -1.1069851 0.271923 -0.4964904 0.4536974 -2.890562 0.45320597 -1.5726931 -0.6010455 4.3752294 -0.016228016 -2.7070823 -1.654648 -3.926316 1.3465343 -8.839592 -2.1432106 -0.2990068 -0.35634345 -4.788752
18216 -5.2251034 5.7191477 -4.44716 -3.8943899 9.815446 -4.340591 -4.8404784 0.24591756 0.96392775 -1.5638559 -7.4442058 3.1478605 -5.217469 6.828409 0.80428773 -5.2486806 2.7020364 -1.5382994 -6.1209364 2.1048086 3.2993321 -0.44180977 -2.928376 1.7487926 2.3346448 0.2616979 -2.4241576 3.1618578 -2.1717343 -2.5091083
17983 -6.8777547 5.6352944 -2.712123 -4.126991 0.3443431 0.81372297 0.6788198 5.3764453 2.0567765 0.11196352 -4.026887 6.182965 -0.062455352 7.773944 6.1094427 -0.3101185 5.151485 3.2434897 -6.4920745 -2.1862807 4.150529 -4.457087 -3.0219483 -0.6195276 10.582675 -12.269654 -3.22994 4.383977 -5.5876007 0.0077263666
7362 -1.1580708 1.8620749 -6.540093 0.10245055 -6.6613913 1.341807 2.7734642 -2.7684903 7.555236 0.2554287 -5.1620603 -6.6727753 7.843946 -6.5291944 4.680869 1.7832966 3.6478422 1.8799908 3.7545626 1.6384281 -6.5599346 -4.086962 5.340194 -1.8259044 5.5480022 -8.410145 5.053556 1.0383153 -7.3393674 -1.457804
3070 3.224233 -5.5973306 3.598291 3.8302333 -4.2358623 0.031911705 -0.882841 -8.807558 -2.3993607 -0.36572987 0.31339353 -6.3141294 -2.7109108 -2.275308 -0.041210137 1.7150815 -2.449672 -0.26961762 2.1556745 2.959644 -5.874885 -5.6063313 1.0453191 -0.37799886 -0.7314164 0.06866582 -2.1609304 5.622489 0.56722397 -3.6457102
17402 -3.4439282 4.393264 -5.219889 -3.2179165 4.3214626 -4.7483783 -1.0735234 0.24575594 -0.32160497 -5.548622 -3.747717 -0.15886076 -2.2230313 1.0617527 -2.5781648 -2.5146854 0.95539236 -2.715635 -6.2908125 1.9789845 2.2198772 -0.03143408 -6.7333255 -2.2480137 0.8538122 -5.855957 -2.8150034 -2.535245 1.9596329 -5.675824
6441 -0.987318 5.1940894 -3.4316816 -5.924782 8.221664 0.7115909 -5.0749316 -2.4947026 -1.2113187 -3.0378976 -4.290138 1.683051 0.6929972 4.71838 1.2836498 1.599762 -1.0298411 1.9541165 -1.8076147 0.70866585 4.6139727 1.0047622 -3.2469985 -4.99563 1.1646031 -6.9519906 -0.23287968 -0.23556262 1.878092 -6.917069
904 -8.624821 4.3034897 -1.0139099 -2.3551412 -2.9856842 0.61964244 1.8032913 -0.1795943 6.268347 -5.6077437 -3.2653506 -3.7721388 4.56516 -1.477963 1.033803 -2.963099 1.6535522 0.25990835 -6.0362096 0.64438486 -1.7080995 -6.848976 -0.74520624 -6.017341 6.0760837 -7.6713963 -2.6354485 -0.75031143 -2.0597413 -4.942629
6045 -4.770802 2.7605777 -1.0256491 -2.4938698 9.071409 -0.701431 -1.6858858 -1.2443177 -0.12148453 -2.0703862 -5.6968956 0.8790642 -3.3502064 3.4678738 -1.954755 -4.235477 -0.22518449 -3.2124696 0.21449791 0.9750922 3.7977087 -2.4096997 -1.1025954 -1.3488973 1.6641299 -4.2953997 -1.3340092 -0.46738422 2.5816023 -5.7790895
13098 0.4778172 -5.1073227 7.88443 8.028555 -3.3017535 7.796345 14.078365 -1.3119799 1.5551187 1.7856873 -5.2313585 -3.255129 -0.21581152 0.2004278 -3.0705647 4.129921 -0.8874839 -1.6100316 0.4831874 4.933303 -8.660934 -8.078441 2.9853384 -4.8928304 -7.342575 -0.15105046 5.001103 -1.3252538 -2.3047616 -5.6662455
3735 0.7025024 4.1271005 -4.730302 -2.5713158 12.045722 -2.5036826 1.5267309 0.5858445 -2.7983391 -2.9819992 -1.8789133 4.226867 -1.2383021 7.2055564 0.31398755 -0.9792105 1.7871438 6.255871 -3.1223078 3.9774568 3.109388 -0.06309312 1.9467336 -7.2204614 6.395361 -7.337002 0.29795673 0.3582193 3.9931939 -1.1998953
5183 3.350215 -0.21357983 -2.9305227 -4.2966866 9.270348 -0.84309715 -5.3192835 -0.9770536 3.941689 -2.5933099 -2.2450309 4.192717 0.31012365 4.3827767 2.6183221 2.6750124 -1.43162 3.9229715 -3.4131021 -5.1034193 1.3009937 -2.1069932 0.73750174 -0.2805013 5.592408 -3.589101 -2.8193412 6.199476 2.085332 -3.2024412
7663 6.475201 -8.349344 -4.263824 2.1551154 -3.4953582 1.6003292 1.4035128 -6.2670403 2.0364907 2.3841822 -8.1509075 -5.413965 5.135514 -3.1503103 -2.3355205 0.896565 0.1378952 -3.333677 2.851539 5.168604 -7.440205 -8.409138 4.284543 -3.050331 5.6277566 -2.8993077 1.688202 4.35847 -0.35049006 -3.6321094
19792 -3.025414 4.093899 -1.9571437 -1.8540828 6.7026343 0.8233536 -2.753383 0.3613741 -4.0554905 -3.3423839 -4.4069333 -0.7469115 -1.925203 2.380176 -1.9638267 -2.8062882 -2.260702 -2.5523615 0.21858163 -1.9616244 3.6668282 -3.3188303 -2.9221892 -2.858099 -1.627929 -5.742139 -0.2424285 -1.0782627 2.1382036 -4.3128133
212 6.211487 3.672656 -2.5614507 -1.3481684 -5.9963765 -0.40501094 -0.5020771 0.5360798 1.8174355 0.69148576 2.963734 3.4986174 -2.5538664 -5.995417 -2.0290697 3.2471893 4.451257 -3.3487625 4.5625253 -4.631371 -1.6772346 -2.8666203 8.43185 7.5563164 -0.08754147 -1.0323762 -2.5421073 1.2560676 -0.25529385 -4.398701
909 -3.8071928 -2.6201327 -0.21352781 1.8247832 5.73475 -9.266118 3.3523605 -2.9197717 -2.506519 -0.13734566 -0.37361515 3.1184888 -3.5417469 7.610248 8.769905 -5.2945237 5.3690414 4.0687213 -3.5331848 -2.5322313 9.590119 5.4266615 -7.1001353 -3.165396 4.61623 -2.1876252 -8.781538 2.1844099 4.4542236 5.646639
17386 1.006032 -0.10769966 -0.44537038 3.5757165 -3.6798043 1.6588032 5.040226 -0.24796408 3.765942 -0.91063964 -0.6533901 -2.2202866 1.0890187 2.6874044 5.807485 0.1817433 5.106526 3.3043427 -0.83579654 4.52732 -9.047153 -3.0369816 4.122048 -5.3881855 3.6391594 -0.9353354 5.5389366 -0.8026335 -0.2043108 -2.1109378
2664 5.803502 5.375048 1.0007384 0.44074893 -7.2483945 -1.2786297 1.5164433 -0.6012446 2.723373 2.0523386 2.666773 1.0530369 0.9527992 -3.9488504 -1.5572255 3.6577015 3.1782947 -4.3543153 2.770783 -2.9938755 -3.5876453 -5.114098 7.4707456 3.1675327 0.36504802 -2.8845172 -1.438568 2.8655593 -2.3769412 -7.542652
8505 4.808024 5.489101 -1.3563311 0.24445929 -6.4810104 2.663029 0.98130465 0.3766084 3.0423095 7.3467216 2.228948 5.689267 -2.262254 -5.1178465 5.602762 4.944965 7.693968 -1.8612285 6.062082 -0.72156817 -3.4993768 -5.1132574 6.5052867 2.7677982 2.221946 1.1435993 -7.7255416 -0.14162154 0.795381 -1.5334681
16093 0.094740115 4.74298 -0.95246494 -3.294234 7.9637213 -0.625777 -2.519392 1.9774667 -0.32836625 -3.775041 -6.058181 -2.0738254 -1.7551817 1.9871982 -1.4555068 -4.5227556 -1.9034405 -2.627756 -4.0647187 2.915836 4.1118007 -1.4774535 -5.509389 -1.4266367 -1.2655714 -3.2808726 -2.0413008 -4.1060634 4.161455 -0.6008039
11719 -1.0272759 -2.405921 4.832433 3.1429086 -0.18612301 -0.45361578 1.0506902 -9.160172 -0.6968275 -2.3300166 -1.4482439 -5.160745 1.1875713 3.604516 -1.3070151 1.8033429 0.18837327 0.24948987 1.1184372 7.8916473 -4.2976623 -6.563288 0.08919877 -6.2225075 4.0730505 -3.3523374 -2.6931574 -1.0798072 -2.8686197 -3.4116025
6806 -2.2189174 4.179586 -0.90020674 -0.5607293 7.80183 -0.9882769 -1.6717046 0.8635498 -0.86293423 -2.8574986 -3.1801918 -1.8875424 -2.4553173 3.4826083 -0.73306715 -2.2945447 1.9335383 -2.8782442 0.38108787 -3.1064444 3.7971761 -1.1008449 -3.5920432 -2.318024 -0.7544636 -4.2480183 -3.0241663 -2.2305305 1.7595725 -4.893194
11611 -3.7101927 -3.038273 -2.0918286 -1.415461 -5.8163176 -0.3132698 3.3310063 1.6780763 -1.239212 -3.765889 3.2182405 -1.230166 -3.0809178 -2.2899654 -5.769096 3.8363974 4.386415 -0.5817195 -1.1155244 -3.419804 -7.5344806 -8.584623 3.598239 -5.2106247 2.7332056 -0.83480316 0.6209487 -0.12777007 -1.468297 -0.9250848
16427 2.6096258 -4.1737084 3.5474284 4.0091057 -3.5756745 0.723908 1.0091643 -8.144416 -2.7053225 -1.8586781 0.12943517 -5.2438173 -0.8708127 -2.2419212 -0.5463704 2.8383236 -1.886921 -1.1296555 0.59146756 3.4546535 -4.957422 -5.8108506 1.1473716 -1.8911535 -1.4030232 -0.5035072 -1.1718363 2.9903114 -0.21002789 -3.9469883
8351 3.299879 -4.6439953 4.7745996 4.118738 -4.0534716 0.27184686 0.85290766 -8.666253 -0.6186641 0.6594019 1.7102429 -4.1306396 -1.0514586 -0.38303074 0.09017115 2.184659 -2.238823 -2.4808342 1.0565606 1.2755705 -4.070279 -5.183411 2.166544 -1.1822295 -0.99321455 0.59789896 -1.1447875 3.0467706 1.3082472 -6.248145
12677 0.7691523 -1.3830291 -2.3221097 -3.1921558 2.9445858 -7.9508395 -0.5354047 -7.1452775 -2.2163413 0.2401462 4.2296643 -0.6454385 -3.3058834 4.415521 5.537419 -5.105467 1.0573701 0.34616718 -4.8271985 -10.785823 2.2438328 6.166437 -1.8407054 -3.5996127 8.102206 -3.0020394 -0.95618594 3.2406814 -2.0562449 8.701345
14031 -0.46306434 1.3675593 -0.7788405 -5.8818264 7.4350686 -2.1004827 -9.333006 -3.8465426 -0.91868514 -4.1048946 -4.0872135 2.7660656 6.1391153 6.1723804 3.6522417 -1.4706045 -1.5971208 4.8068504 0.4265616 1.9396925 0.32171407 1.2021141 1.4807258 -1.6272199 8.15715 -2.6372917 -1.2672855 -0.6607217 -0.85032964 -5.920138
17370 0.1917918 -1.3441458 -2.7987845 -2.5970116 7.853356 -3.0271692 -2.6208117 1.1231188 -1.4729501 -1.5976429 -5.8193483 1.9052695 3.7104132 1.1677516 -0.4432151 -5.537539 1.3532398 2.9686925 -2.595497 5.6620765 -2.7686396 1.5181816 -1.5030125 -0.7001955 5.190006 -4.4255033 -2.3940318 -2.493184 -5.2832623 -3.1971934
4499 1.701403 3.7037709 -1.099847 -1.8345139 12.559881 -1.6184398 -5.094021 -5.402712 1.548902 -3.8861516 -2.2852845 4.365219 1.6207762 8.404927 2.3855512 -4.8399053 -3.9966216 -0.08114432 -1.7949892 1.897142 3.8312397 0.25548223 -0.8547233 -1.4784142 3.8538442 -3.81044 2.530231 -1.9283725 -0.39362794 -1.1770797
4296 -1.7758373 -0.3364144 10.067845 7.5089035 -2.696833 -9.485875 4.4884515 4.118787 -5.278473 2.3228095 5.995911 0.7047962 -4.925114 2.7078192 3.9762743 -3.7771227 10.535065 -7.446307 -1.7847192 -0.58646464 -1.1957363 1.7871125 -2.7229776 5.635055 -4.1862903 -2.1456661 -7.714786 -1.8449296 -3.7303803 3.6260502
19992 -1.5057509 6.073705 -2.9323082 1.4993106 5.696981 -3.2333412 -0.50878114 -0.75774604 -1.5107166 -1.2736391 -6.281413 -4.7262297 0.8218704 1.0838052 0.9490377 -2.8611593 -0.17620113 -1.4147582 0.19473593 1.2457865 1.2089006 -2.3699677 -4.39816 -3.170101 -0.01264037 -8.453224 -3.939303 -2.5499065 0.25696242 -1.5248952
3973 4.0479116 2.2286406 -4.505301 -3.7564507 -0.14233714 2.667299 -0.1291628 -0.848598 9.935718 1.046207 0.0011768213 -2.207785 -1.9829979 -6.9137354 -0.13040662 5.5198956 2.364083 -2.244134 0.8003911 8.781198 -5.24714 -1.645065 0.36403614 -3.201975 4.81013 -1.5650351 2.1459813 0.19316016 -0.59746724 -3.131234
17392 -2.0060625 0.13261972 4.8402176 3.6459744 -0.9411197 -8.952048 1.0860212 -4.2206755 -2.128157 -4.616557 1.8498448 3.0379112 -4.98842 3.9812367 7.232058 -3.4417317 1.2128391 -1.2751316 -4.6049914 -3.5640476 9.474855 1.302813 1.3679351 3.8447683 10.674235 -2.3680828 0.9547014 -1.2753019 -2.1154134 -4.980153
20343 -0.58346933 2.6454055 -1.3682108 -1.4449841 6.0582013 -1.4061933 -5.009695 0.070861265 -2.198954 -4.4709973 -4.346874 2.6090746 -2.0193386 2.691634 -1.4419365 -5.0504684 0.009568654 -2.7483652 -1.0647702 0.05470865 3.9111838 -3.1473093 -2.479267 -2.5715065 -0.8968529 -5.1099772 -1.8363057 0.055636864 3.8807912 -1.355738
22403 -2.80584 -4.869589 -1.3181137 -2.5092747 -3.4986231 -0.6678547 0.97939074 0.719213 -3.5220554 -3.8429942 5.392546 -0.53328127 -2.8961668 -1.9505974 -3.1171155 2.2538989 2.228067 -1.3989836 -0.012855077 -7.588333 -2.7606263 -1.650068 3.2326245 -4.3309784 -5.302792 4.756033 0.12238457 -0.8758687 -1.0105858 2.6334112
2597 -0.20642398 -0.8362775 -1.6123272 -1.8979185 -2.7229402 -2.259189 6.8260922 2.3216226 0.632951 -1.2765607 -8.614711 3.0609746 -3.3789203 2.8925056 2.05196 -2.2929397 0.26207227 -4.972303 -5.0407104 3.789139 2.941118 2.5185688 -1.5723691 5.455244 6.977831 -1.8355964 3.2341862 5.4761333 -1.4460826 1.49597
21231 -0.50988865 5.312087 -3.3735964 -2.8899162 6.5637193 -0.058989733 -4.9691734 0.26266366 -2.3900015 -2.4791086 -0.8818205 2.1199949 -2.4129364 -0.2525921 0.011571523 -6.237717 0.18388303 -3.456231 -2.8133585 1.0195822 4.8126073 -1.512789 -4.7707105 -0.4227063 -1.8378314 -3.5541694 -0.49087426 -3.599262 1.7835238 -1.179891
20632 2.4806135 0.42774105 -0.42677903 -1.165177 10.279456 0.41683635 -4.5792255 0.39542028 2.270772 -2.6086133 -0.5323762 1.7671912 -1.5389236 7.0697207 1.8123266 1.263093 -2.8153791 5.208292 -3.4526503 -5.244449 -1.6247139 -1.4434446 -1.1044225 -1.0951927 1.2841966 -3.522262 -4.9261937 3.078812 2.3263113 -1.6158361
19870 0.8389312 8.098698 -4.5923142 -5.207334 5.822642 0.23469594 -5.237807 -0.05293162 1.3413386 0.6568021 -5.3974514 0.31645265 2.9178836 3.4025753 2.22043 0.21250598 -0.48432022 0.4106209 0.40871015 4.0113087 2.5713139 0.5220505 -4.5236263 -1.5570807 1.4732182 -9.1034355 -1.59294 0.28513533 -0.46887407 -5.502779
1827 3.6962423 -1.9546317 -1.9461846 -4.0643053 9.463013 -3.0153394 -7.0417786 -4.1030025 4.0087485 -2.430744 -0.34123915 0.422926 -0.97324246 4.265319 0.27381712 -0.40531528 -3.2714405 2.5747752 -1.941325 -4.9092813 -1.8625882 1.2483104 -0.766022 0.32630587 3.4988797 -6.031864 -1.6062971 5.6141458 0.8347676 -1.482837
4907 0.020285826 -1.4622989 -1.4590849 0.15220211 -4.065552 1.3891193 -1.8828489 2.9412694 4.258878 -11.410064 -1.3336962 -6.5768194 -5.520441 -6.081935 -3.4405117 2.9730318 1.7807133 1.7884691 -3.4100218 6.1515512 -4.1263595 3.183458 5.7593393 1.626086 -0.7394086 -1.8606011 -2.9075282 6.371538 -0.38330132 3.0738626
8216 -0.5751785 5.2501016 -3.893145 1.665807 6.2875767 -4.402934 -8.2380495 -3.678416 -5.4547353 -2.7355864 0.3850531 5.3835206 -0.26863962 6.748578 0.041909788 -3.2341783 -3.4274788 -0.8553355 -0.123157665 -0.7500251 6.46913 -3.7945335 -2.8413239 -4.332516 -2.2756107 1.1362213 -4.171825 -5.7712603 0.7766714 -6.0314636
19000 -0.43850675 -0.5260888 1.0132961 -1.8352429 -6.3751755 2.480645 6.9476914 0.24536557 2.8054302 0.7529043 -5.88679 -6.725923 2.2665818 2.4626918 0.83354056 4.9123173 3.922983 0.29663056 0.30001268 3.1353753 -8.458345 -4.2194905 -0.037310008 -8.471948 5.288162 -1.8615793 5.029516 -0.55621445 -1.0148736 -1.2450345
1193 -1.4457138 -4.8069572 -0.5861258 -3.4339132 -3.3397205 -0.16524631 1.3034508 0.95063853 -4.128932 -3.3063443 6.1155977 -0.38818723 -2.4241302 -3.0488482 -1.5324157 3.615836 3.1044378 -1.9643872 -0.9618763 -8.571066 -3.367527 -1.3021373 2.3160164 -4.601354 -4.6195173 4.643633 0.6895338 -0.17918807 0.18137747 2.4264526
19448 1.0325129 0.6318728 -3.3861275 -4.7390056 -3.9354358 4.5698524 1.5825503 2.4171562 5.539757 -1.7120862 -2.1710534 -5.0414085 -2.3602636 -5.3812995 3.4332669 4.1917205 5.8128357 -1.2840941 1.7059424 6.506247 -7.437727 -0.745243 -2.3254838 -3.1556454 10.256994 -1.4482285 6.035157 -1.487496 -1.2921572 -2.2078168
14790 -3.9923158 -4.0896153 -0.2257487 -0.6987828 -7.761896 -1.5075552 2.7084577 -1.5982811 -0.8803962 -1.9964461 -2.0039809 4.4454246 -1.8945615 3.2463522 4.1721315 1.4439431 0.11415523 -1.6952187 -4.2548013 2.2115405 4.8167524 -1.8332919 0.8868321 1.9330003 2.4291599 -5.7186704 6.918207 2.8678324 -4.316244 0.18028009
20559 3.0103087 4.9048595 -4.61061 -5.020633 10.344724 2.6092834 -4.061611 -0.2083426 -1.7079566 -1.6429199 1.498058 3.398847 0.80931187 2.049142 1.6602539 -1.3888928 -0.63478523 4.090482 -4.1441655 -6.1740007 2.6492937 -7.0184317 1.5766122 -4.728278 5.0232353 -4.794583 -1.519341 1.4565927 4.8848715 -0.09494549
8153 0.14768821 -3.2218375 3.2863975 2.5414062 -2.4657035 3.411546 10.928207 -0.8107187 3.18704 -0.39534703 -2.2734172 -0.9522339 4.579847 -1.9523818 2.3118193 5.455226 0.08236664 -2.2888112 -0.1234306 6.543145 -3.8994486 0.96393204 3.9773476 -4.9107447 -4.3887095 -5.2781186 7.039904 -3.4064157 -0.571937 -3.1764922
1783 -0.92592525 -4.9710913 -0.8919694 -2.0435035 -8.613783 -1.1349158 0.005573284 0.45137078 -1.0245256 -4.4647646 3.1327865 1.7781445 -1.0840323 -1.0902641 1.2883425 1.9323034 -0.84695864 -2.7861664 0.7494337 1.6396462 2.839872 -2.829759 2.6569648 2.7915282 -2.446309 -1.8772871 9.448553 2.6794136 -5.2007146 3.737458
710 1.717256 -0.83347553 -1.3593407 1.874691 -5.3345366 1.1648214 4.4385543 2.2807393 3.5460753 -0.5332831 1.0305613 -2.318624 0.78626233 1.1051519 2.804432 -1.9623429 4.969247 4.45832 -0.57990754 3.270672 -8.466121 -2.3970935 3.546668 -1.9719256 3.1455824 0.4370348 4.4836755 0.29719582 -1.6388328 -2.2774038
5622 -1.4381999 2.9753587 -2.4314358 -0.27619457 5.796782 0.90683484 -2.8668275 0.05305005 -2.842954 -5.912419 -3.180702 0.15792303 -3.1745315 3.4739683 -0.79119676 -3.6322303 1.1363537 -2.376117 -0.13090126 -0.8446161 4.044833 -0.41074073 -1.8898842 -1.4936305 -0.8001346 -5.0246086 -0.14084089 -1.3234566 1.9030558 -2.3808656
9164 3.313768 -4.688819 3.5181828 3.7828968 -2.657184 1.2925578 1.8816414 -8.348011 -0.71639544 1.057841 -0.31074774 -4.990786 -1.0747788 -2.5424874 0.84968215 2.8179507 -2.7173455 -0.6705609 1.3810592 3.9199915 -3.7221134 -4.8498416 1.5002826 -1.0222307 -1.1672271 -0.72574383 -0.007858187 3.5193157 0.08132366 -2.523785
17148 -2.0232387 2.4298594 -0.94534016 -5.2449555 11.8832655 -4.0923357 1.4276625 1.5248109 -3.4177744 -3.6423302 -2.2975202 5.049007 1.5739099 3.6591601 3.8102207 3.308131 1.2934003 7.4390087 -7.027463 -0.27626544 4.8547215 -4.960818 -4.4633694 0.73390305 2.1027167 -2.7104936 -0.3815065 -2.159324 1.42432 -1.3793458
9359 -0.43195683 1.5225923 -6.92097 -1.6624719 1.2868237 2.4415178 -3.5011847 3.2364256 9.921916 -2.900299 2.3155344 2.2489772 0.4888976 -3.37822 4.1279993 2.036817 9.396359 0.11024513 5.8893824 -0.19741847 3.2186618 -2.1825492 5.039419 6.023039 4.224876 -4.973311 -3.145478 1.7051728 0.99614364 1.0564872
5513 -3.630369 7.26331 -1.7930919 -2.5900173 5.8113904 -0.740094 -3.717673 1.2234602 1.413071 -7.0852036 -4.689163 1.0588462 -2.976424 3.7697916 -1.3433454 -1.4142715 -2.1996062 -2.2093194 -0.7568628 -1.0664343 5.2858977 -3.6486087 -0.41989994 4.5070353 -3.6852126 -4.186725 -0.6465081 -1.7587012 2.4907818 -0.71034515
15963 -1.4385461 3.792041 -3.7779953 -2.899102 5.7686386 -0.043987364 -4.44106 -1.217392 -3.4655833 -3.5241177 -1.3755238 0.70313346 -0.99623495 1.1420041 -2.9759562 -5.721413 -3.385852 -1.3345213 -0.86059 -0.49378216 3.5155458 -4.071473 -2.0005288 -0.49958834 -2.9164429 -4.7689342 -0.6618889 -1.8435069 3.4042826 -2.3807483
19135 -0.6937768 1.8447255 -0.165424 -0.578616 11.418598 -3.7140422 2.8229494 -2.2959616 -0.3270068 -1.0669855 -3.903508 5.284822 -1.9055642 5.8389196 3.4074 1.505748 -2.110161 2.12164 -3.2694905 -0.56822294 5.1139145 -3.8957355 1.245748 -8.649812 5.9888043 -2.3258593 3.6507146 -3.2647464 1.7915576 -0.011121533
481 -2.9349828 -4.0288587 -2.481568 -1.9117744 -5.040404 2.6716938 -0.64292043 4.103329 6.396451 -3.4265168 1.0947311 1.287298 1.5746119 1.0997596 5.6829696 1.3809597 4.4332457 1.0449971 10.58858 -1.4288634 0.67109334 0.46822396 0.19643065 8.82007 2.1996293 -5.619831 5.493613 -2.1486306 -3.8710182 6.112732
7961 -1.6906588 4.0239573 -3.907507 -2.3491166 5.551447 -4.315565 -0.44077525 -0.5552305 -3.1054728 -0.5990233 -8.926618 -1.2091732 3.4535184 0.62395346 0.56846184 -5.4319263 0.36420476 0.10189923 -1.5429174 5.698437 -2.6834533 -1.8444114 -4.642441 -0.5955043 3.4291003 -6.145941 -2.5379765 -2.2103896 -1.7834551 -1.9633069
16618 1.5814313 5.135301 1.0372579 -4.0895624 -6.947257 3.6280468 2.0327408 2.0367477 3.0170057 -0.74209505 -2.6901987 3.2765045 1.0734819 -1.400371 1.1607263 -1.8256998 3.5717268 7.2134986 -8.703234 6.8293047 -5.287694 -0.3183613 6.8666606 0.9431794 7.5636497 -1.8026587 2.3091166 2.602268 -5.9515452 -5.269198
15114 1.5391555 -1.9843014 -2.4814117 -3.5677373 7.9282784 -1.1203606 -6.5726714 -2.2310565 2.3980477 -3.0068157 -1.4831375 2.2384114 0.14761956 3.9087873 1.4315592 0.8760167 -1.5391046 4.1360226 -1.823713 -3.7219331 -1.9594477 -1.8894227 -0.19123265 -0.03788562 2.8587384 -1.9148784 -2.8364139 4.426446 1.0353768 -3.2580779
8348 6.7617297 -3.4407752 3.831045 2.453743 0.11435077 0.2056979 2.5253446 -5.4104986 -2.8764734 -1.657537 -1.688415 -3.1763415 2.312535 -4.9314895 -2.8044748 4.291263 -5.9238796 -2.2660444 3.0436325 1.7217591 -0.28034627 -5.858009 3.5680397 -5.4074316 -7.0245757 -0.1943284 5.059006 1.1349192 4.7227373 -2.528199
3533 -4.1882596 -2.4865294 -7.8450575 -4.7205644 -6.1518636 -1.7462192 6.3313546 5.117102 -0.56249136 -5.0633616 0.49863172 -0.20138489 -0.55469126 -1.4836346 -5.789671 -3.3206992 0.9860441 1.114696 -1.1331822 0.07826872 -6.9189534 -6.2530904 -0.42649326 0.50454575 3.694108 -1.0400428 3.614598 -1.4351873 -2.0661533 3.6835988
4003 2.9494562 -0.90969557 -4.86479 -0.598466 2.7489495 4.8213096 -2.3866007 -0.8204806 5.3948193 -8.842822 -5.0354023 1.0478203 -4.074163 -2.7448766 1.1435921 -2.145798 2.4880168 7.610806 -4.8428698 1.6763374 -0.45519346 5.9442844 -0.7693325 -4.4488544 -4.8188944 0.80934244 0.638406 6.0626483 1.7243383 2.323288
17598 1.5692912 0.04567152 0.8641803 0.91485155 -5.245164 2.2159083 4.9483314 2.9170449 3.9526875 0.50993496 0.81151974 -3.049386 1.078759 0.15346733 2.904572 -1.0985281 4.8596244 3.1720853 -0.79343444 3.6581109 -8.247212 -1.4044597 3.012819 -1.4200242 2.8939214 -0.0017019779 3.4002461 1.360916 -1.6143287 -2.839606
3838 2.2253115 -1.2059234 -2.725685 1.7204288 2.6349926 0.38587204 -2.5038314 -0.6940372 2.9530907 -4.3150477 -2.0270627 5.6802306 -0.074624225 -1.8227782 2.5596673 -4.760487 2.3067834 3.5107706 -8.080656 1.5618677 -0.38345447 4.9236274 2.827578 -1.0395199 -7.8463297 -0.4397961 -1.9867159 6.1419144 -1.5101725 -2.6637545
22100 2.2813954 -4.0072865 2.5317383 3.1450696 -3.515383 0.4883682 0.62541527 -7.573311 -2.8558269 -1.992505 0.6763004 -4.7049174 -1.0836464 -2.7456288 -0.58378506 2.1290226 -1.4182601 -0.17377737 0.54046404 2.1614766 -4.2181683 -5.04139 0.9078792 -0.9378775 -1.9490584 -0.33847314 -0.9954807 2.965406 -0.7912104 -3.2622828
11710 6.149662 -3.1484034 4.211415 0.8334777 1.0613413 0.26278326 2.5074992 -2.3481631 -1.64559 0.2368264 -0.50409794 -2.76388 0.6227147 -3.8867145 -3.7836618 4.531678 -6.63803 -1.78624 4.8754964 3.2842567 -0.32838053 -4.01564 4.460469 -4.4295154 -6.215193 0.3243892 4.23484 -1.2385757 6.627861 -1.4366305
15763 -0.27862695 -1.2748138 0.31354517 1.8685173 -4.7125435 1.2194746 5.4764743 2.1215484 3.5124936 -0.009130621 0.5706436 -2.9168174 2.331973 -0.39636746 2.643494 -0.049415722 4.8782716 5.156196 0.34954125 3.6500251 -8.367291 -2.1225097 4.7469473 -0.7954277 1.8769455 -0.62779963 3.9988434 1.8294611 -2.8087966 -4.3033547
2311 -1.1071978 3.5283446 1.9752784 -2.573549 8.074888 -4.597046 -4.0324 2.4224849 -1.01193 -1.3607484 -1.2875913 -1.3926353 -2.054668 2.0052676 -1.0288671 -2.1577344 -1.1953532 -3.450236 0.55575806 -3.4817972 4.003569 -1.7981544 -5.6590214 -1.273894 0.34370872 -2.881598 -1.306257 -3.7832003 0.8814222 -3.1937363
7015 2.005015 -1.3150334 -1.2926191 1.9951943 -6.7278447 2.4736023 4.6713576 1.5649574 2.541277 1.2507622 -1.5285225 -3.1774352 1.6231791 1.1166177 3.750558 -0.7676426 5.483471 2.6324844 2.5913057 3.2409945 -7.6332197 0.33104378 2.5235379 -4.715271 3.2434134 -0.31201065 2.7431748 -0.091498435 0.12255744 -0.4071769
15362 -2.539518 -4.824286 -0.06822093 -1.6851149 -2.999706 0.20429792 -0.21224608 0.10915177 -3.2514787 -2.976473 5.3187046 -0.5148081 -2.6975431 -1.5173532 -2.3279958 1.8166697 2.0921836 -2.008261 0.3535351 -7.320956 -3.5308938 -2.0187433 3.0800514 -4.407657 -5.3694816 5.0126896 0.4761722 -0.7821255 -0.88673294 2.3075976
17502 0.27639905 1.2254351 -4.9422803 -5.081602 -0.84439725 0.41632268 -0.49892363 0.15502532 5.7732663 -1.643528 -0.92134696 -6.071411 -1.7587963 -7.7728157 3.9288526 -0.626723 3.330037 -2.0813558 0.7753106 4.7954607 -3.5756695 1.2385403 -5.8971357 -0.96823865 8.625576 -2.1437154 3.6125135 -0.03243726 -0.072328836 -0.20597492
6926 1.7124958 -0.15315054 0.70693684 3.2446382 -4.9328113 1.4095206 5.8397636 0.97855467 6.407166 0.4425784 -1.7772461 -1.1546367 1.0312576 1.439545 3.9598286 2.8126059 4.223669 0.6143615 0.42769697 4.472227 -6.683502 -5.4271564 3.3552709 -1.7436672 1.159745 -0.705115 5.2180405 -0.8381272 1.6378512 -2.6243315
11775 -1.4869195 1.9820715 -1.4590503 -1.1735749 5.441938 -0.3015955 -1.7399772 0.5755319 -2.83807 -0.6551883 -6.04074 -2.1500127 0.8619063 1.1220824 -1.9210465 -5.2004104 -0.13368985 -0.5511807 -0.2835366 3.0249333 1.0007092 -3.3181324 -4.1171155 -1.131875 -0.30322835 -6.6969323 -2.1995652 -3.8885276 0.4594699 -5.5600452
21496 -1.1797565 -0.9574473 -2.8588378 -2.9162247 6.933774 -0.1738854 -5.5273356 -1.2719147 -2.2984936 -0.95510113 -5.014449 1.7570482 -2.98749 1.5816395 -0.7828177 -1.017397 0.62873316 -1.6152568 -0.9320392 0.56251186 3.9641533 -2.0602753 -2.3974636 -0.96054953 -2.0262182 -5.1554303 -1.5200197 0.7291014 2.911772 -4.54524
8993 3.033196 -3.359462 -0.69222254 1.4004191 -1.7165546 1.2417797 2.2930205 -5.3684483 5.4424424 0.12871249 -9.145315 -3.2920215 2.775623 -1.242298 -0.9288695 1.7655759 -0.03571211 -0.026167836 1.0016271 5.377605 -4.1824336 -10.276279 5.158221 -1.89667 5.4066944 -4.34587 2.4717083 1.7142981 0.020917716 -4.139078
9677 -1.2072148 2.7235723 0.3895716 -0.531868 5.8549905 0.10737306 -2.9410143 -1.2847353 -4.6277747 -1.8854011 -3.6671686 0.43799588 -9.82248 3.2561674 1.950737 -3.6411724 1.3834935 -1.8085778 -0.45139012 -2.771791 9.056242 -0.67570907 -3.9118633 -1.8900613 7.5884905 -3.006503 -0.8918491 -2.9089637 -0.048220627 -1.4754461
61 -0.026103675 -3.5278137 -2.2357152 -1.6140718 -1.8507347 3.0275195 4.2100477 -1.9955842 -2.1151638 -0.14114064 -4.7158656 5.0569367 -3.7080545 -2.693922 3.858405 1.6538186 -3.5793183 -6.728575 -4.539216 1.8425208 3.4289281 -0.94704634 -1.4840716 6.5507593 3.4817028 1.737401 3.1232 6.578249 -2.98449 -0.95759284
2942 -4.1812234 0.31569225 -1.7818305 -3.2543106 6.34342 -0.26042613 -2.8927965 1.526461 -2.7191925 -2.8235075 -5.097581 0.45600453 -1.1210494 1.8935492 -1.3566487 -1.4693246 -0.79656535 -1.4652802 -2.302498 -0.66014886 5.915544 -2.183379 -3.139457 -5.023477 -2.6180167 -3.3865943 -0.50150263 -0.98515815 1.3924587 -2.7059271
6213 -2.5231583 1.1582922 0.45193088 2.7206118 -0.6150702 -3.6497977 3.6679864 0.10664304 -2.2509747 -0.8382688 -1.90402 2.5448668 -0.7121835 4.754285 6.7932596 -2.4791093 -1.7021354 0.89362484 -6.592361 -1.160276 4.433163 8.065246 -2.0708401 8.961756 -1.631098 -0.9679631 -10.017755 -4.4391108 -1.066392 3.1205852
22438 -2.9231086 -3.141427 2.3832688 3.6721447 -4.5442924 -0.32014826 3.529157 -0.08267676 3.797404 1.1549649 -0.25465477 -4.292222 0.9392178 2.0917766 2.3661437 1.1258801 3.7086828 5.348839 0.32188943 4.4218955 -7.944587 -6.945011 4.84882 -3.4250097 2.8753974 0.6111705 2.9594712 -0.30895525 -4.1973977 -2.7544804
1372 0.437864 -0.22365227 -4.5660367 -2.6453094 8.727008 -0.08204065 -5.5639095 -2.144673 0.97924435 -1.9402229 -2.49858 2.5375896 6.490214 6.283466 3.9517295 -1.4423425 -3.6637168 7.165445 -2.1081376 2.2484925 -3.1384377 0.92934066 0.74075985 0.14309545 4.261163 -2.944813 -3.8765693 0.9810105 1.3041486 -2.3831
18856 2.9046712 1.0424225 0.50140154 0.6933263 -3.708226 2.6258426 4.255531 2.1368394 1.818828 -0.7076388 0.65569603 -1.7223632 2.4321034 -0.59736043 3.346245 0.095836125 4.7292433 1.7043245 0.3459357 3.7908392 -8.230728 -1.0867659 3.2118747 -4.6550045 5.0657334 -1.4967116 5.5407515 -1.2696654 -0.70788 -3.9070385
3300 -2.2705414 -4.4379454 -0.55677 -2.3831875 -3.3655424 -0.22879176 1.3303872 0.5995737 -3.7070334 -3.40837 6.0813556 -0.06544698 -2.8534105 -1.2145758 -3.2332141 2.2924693 2.859514 -1.2561028 0.4758957 -7.054307 -2.33006 -2.2775717 3.0340135 -3.4543877 -4.445307 4.222792 -0.2955708 -0.4902093 -1.2063874 2.8740442
15470 -4.948184 -3.2691379 -5.854884 -2.3347876 0.8751723 -0.13003415 2.0517619 3.126936 -2.516315 -6.113978 1.8457452 0.616495 -1.080385 0.26533642 -2.651077 1.3433865 2.880364 1.5563745 3.91343 -6.4857826 -1.8764119 -1.6914417 2.6167681 -2.887694 -1.357263 2.8012567 1.715885 -2.6856227 -0.6885802 4.4524474
6189 0.46939144 -1.871245 -3.707644 -3.9027977 1.3732641 -2.1962366 -1.7221247 -1.7780901 -3.5014076 -0.9870475 -5.899849 2.7908642 3.424419 1.4298704 0.9776664 -6.5543375 3.4126508 -1.0183452 -3.0678287 6.0342245 -2.1735232 -0.42362598 -0.32283053 3.4030514 6.5608196 -7.891751 1.4279969 -4.2244167 -2.9605706 -5.5445175
12936 1.6458505 2.949236 1.3948475 -2.2130187 6.5918484 1.4295194 -0.010916642 -2.5977335 -4.2666383 -0.46279964 -3.2047818 0.2568169 -0.5150604 2.6427886 0.2828344 -0.79481757 2.2131913 -5.3430667 -4.108704 0.038426593 7.9118137 -2.605496 -4.2123284 -1.7046518 0.042518985 -5.691145 -5.4695373 -0.91202927 2.1518075 -0.75063837
14981 1.4579558 7.8569613 -0.6695032 0.15084115 -0.77328074 -4.893409 -5.1389356 -2.057796 -9.425503 -2.0258775 3.211624 2.1057491 -2.1694062 4.7632275 2.0785935 -4.6938953 -1.4415071 3.568217 -3.5558503 -2.227284 7.1932263 -1.1068566 0.02361666 -3.6632175 1.6844311 0.80556375 -8.300241 -0.8496492 3.7843916 1.2854664
21088 0.28169525 4.3989077 -0.17601638 -1.8842762 5.0394735 -3.4324539 -5.260139 0.74271923 -2.1893349 -0.34809864 -10.786052 -0.82045704 3.106411 5.0086293 2.9678545 -3.5252235 -0.04494965 0.66503686 -1.2237201 1.9844992 -7.562675 -2.605894 -1.1491424 0.8741948 5.706083 -4.4306793 -2.092517 -2.7889369 -1.9913573 -2.9141316
7093 -0.6379036 -3.6561792 -1.1982629 -0.28504464 -4.7823296 -3.540971 -5.628814 0.9608795 4.46469 -0.56215733 5.434887 -0.33213216 2.2773511 -2.511453 0.05959561 -2.3187418 -6.269771 3.0138917 0.9722528 3.26195 0.52241874 -2.0067399 0.13839114 -0.8697264 -6.0277376 -4.7448206 -1.060255 -0.30400628 -0.5862507 0.01491938
11149 3.1547022 -6.980534 3.5097098 0.1779913 -1.1588635 -0.15124667 1.8915887 -0.72167784 -0.2337047 1.0439248 -2.3217869 -1.2907319 2.6203258 -3.6613111 -2.7090132 3.0087311 -6.0588284 -3.50274 1.2381762 3.7090302 -2.6366446 -3.2760315 5.435176 -4.610026 -5.760531 -1.8650326 4.9283442 1.783391 3.5670285 -2.0949037
11538 -2.3032322 3.9917765 2.4104626 -1.903276 6.0251236 -1.7884701 -2.7164304 2.0358226 -2.0622344 -1.8615865 -3.4981272 -2.3292012 -1.8829304 3.2627714 -1.0598624 -2.360952 0.31815386 -2.1819708 1.0881863 -1.8348984 2.8922412 -2.0564933 -2.355882 -1.6961708 -0.642507 -5.1635613 -1.4693847 -1.4743719 1.5786394 -3.6227124
16721 1.3916396 2.180864 0.106223926 -1.7357107 -5.5259795 1.0890152 0.6555486 -0.27125984 -0.41622525 -1.7031372 -7.3056498 -5.806142 4.4610224 2.8122623 2.3700027 -1.0701177 1.406895 0.08365697 -1.6769964 -2.4029024 -9.454387 -5.901591 0.75869036 -1.9130973 2.8310323 -6.332968 1.1404324 -6.3828135 0.5233121 -1.5610207
8519 1.2711604 -1.2678759 -2.0757232 -2.2104492 5.553678 -2.2682278 -1.2416502 1.2900019 -1.7567132 -0.2559707 -6.1875033 1.6822053 4.290816 1.6875213 -0.3118012 -4.3905745 0.34701315 2.810599 -0.76109904 5.16169 -4.2220144 0.34342742 -2.5961154 -0.32637817 5.3903794 -5.152397 -1.3786774 -3.226075 -4.0332747 -4.1957426
21922 0.5205571 2.1113734 0.033800386 -2.270939 -4.1926885 -0.78293926 1.6828641 -0.7915804 2.5569067 5.1512666 8.192858 2.94915 -1.1458436 -5.1865067 1.0152781 3.6475215 5.004049 -1.3822976 4.7838955 -3.7687337 0.498915 -5.9988127 4.3548756 1.5208359 -1.5042293 5.9881225 -3.669633 0.3892862 -0.29966536 -1.466964
3160 3.7791774 -2.6682122 1.6180549 4.310117 -2.198015 -1.212068 1.0784892 -6.8126473 -3.1464894 -2.2546537 -2.6652093 -4.2236495 0.23782 -3.4962173 -0.732515 1.6149814 -2.6522007 -1.1781933 -0.5922073 4.234409 -2.0208206 -4.864007 1.7385441 -2.0273302 -0.27736083 -0.7350267 -0.08952909 4.0787144 0.14809543 -5.1033883
19562 -1.8734746 7.923101 -6.2805514 -2.2890084 3.833477 -1.7608466 -1.6542832 2.1459377 -0.7187272 -0.99935853 -5.709561 -1.1857927 0.4955101 0.6275506 0.20373821 -4.4124846 0.8694258 -2.091057 2.2318308 4.833414 2.4543142 -1.3727704 -6.0815716 0.2778341 0.8451578 -5.7028894 -3.6478815 0.103021264 1.0781294 0.7555308
13478 -1.2414665 -0.6833996 -3.43227 3.6151388 -2.057108 -0.5498006 3.9066975 -3.836585 1.871979 0.0195922 -0.6577238 -3.092894 1.2917078 -2.2584028 3.213885 4.596191 -1.6555687 3.0221415 2.9528291 -3.0248659 -3.0952606 0.06269722 4.620339 -0.1196896 -4.015238 -1.6963482 1.9299216 -1.0110967 -4.37949 -4.382798
9138 2.835839 4.210606 -2.9076335 1.7322538 -5.477566 3.3205612 0.5013475 3.052003 3.3144774 -0.6004286 1.7920449 0.7456192 -3.0031393 -5.8002276 4.7856946 4.1685715 6.331995 -2.0280282 4.954378 -1.2406995 -2.4841783 -2.7821274 6.243115 5.863574 3.104426 -1.9107326 -3.7084754 4.6820827 2.902433 -2.5351672
11585 3.4289525 -0.024091959 1.3255017 4.8597436 -0.026244955 -2.645258 1.4828182 -7.496775 -5.3167977 -3.2554653 -1.9062736 -3.8138223 0.3022044 -2.1687593 -0.28498197 1.5317451 -3.5246139 -2.4267 -0.8056622 5.454497 -2.999448 -4.9136124 0.32990858 -3.4510608 -0.9064454 -1.944012 0.51032674 2.2005892 0.89829063 -3.8654497
365 1.9905667 0.6518587 -4.5003653 -1.422511 -5.1272388 -0.5072899 2.2083528 -1.7871809 0.5599469 1.3923483 6.3172398 4.1200404 -1.068999 -5.6158457 -4.681667 2.3289027 4.5113883 0.92841417 6.625891 -7.607521 -2.329405 -6.443664 4.818192 2.8777285 -2.2702851 2.240758 -2.0746458 1.8432913 -0.9179782 -2.7389364
7157 2.9001524 0.5539399 -4.8323865 -0.6629959 -0.61216396 1.2842705 0.09448198 1.5440637 6.9278975 -1.3643703 -0.38988775 -3.792288 -2.5497797 -8.304737 0.9777875 2.6557353 4.9172115 -3.449613 0.56351 5.7354894 -9.803261 -2.1145675 -1.2074624 -1.3229172 6.9507833 -3.0592573 2.2913945 1.6368126 -1.5549959 -2.8488555
16466 0.3567457 -0.44070938 -1.9899185 -2.2475567 8.285667 -3.6235025 0.037421074 0.22780694 -2.1254358 0.093117654 -5.9819283 1.034697 4.6018176 -0.072648235 -0.29884645 -4.3116446 1.1887469 4.22116 -2.3193495 5.4064293 1.5738508 -2.1979318 -2.466824 0.75977397 2.709309 -4.5130634 -0.17123072 -1.9597982 -3.353887 -6.7731695
4518 -0.14727244 6.550942 -4.5500565 -0.17345382 7.841869 -2.7628005 -3.6989148 0.3333267 -4.183222 -1.594346 2.1749587 3.434906 -1.1242849 2.9840767 0.76720995 -3.1916096 -1.0672415 -3.5574021 -0.25921538 -1.5871857 5.0058737 -1.4535241 -1.5869261 -4.393651 -2.6908858 -1.505184 0.8371648 -4.464026 3.2463894 -2.438538
4786 1.3365424 6.3866506 -1.0430884 -1.2459193 8.794676 -1.9511353 1.6155496 -4.430615 0.8839756 -1.3898793 -4.28981 5.506634 1.8511631 5.0031385 3.7262402 -1.927363 -1.4825826 2.626116 -3.6783586 2.077155 -0.50660855 -2.2326427 2.7931929 -4.4203863 5.3856087 -4.9956484 0.19737625 -4.9034486 0.5405656 0.20553634
11644 -3.101285 2.5479438 -0.94326055 -1.379745 3.4967556 -1.3215292 -3.1660671 1.0824028 1.8848248 -7.1557856 -4.2962236 -0.38297024 -2.3180954 -0.77226734 -2.261682 -3.0654798 -1.0930912 -2.1843872 -1.4495642 -1.7686176 4.15183 -1.7807677 -1.8018984 0.37713763 -0.9668763 -5.8998313 -2.2890627 -1.6287413 2.3461614 -2.4870808
17860 -1.903943 -3.3128703 -0.34413636 -3.0458014 -2.9510603 -0.6152251 0.7525659 0.41282463 -2.2172394 -3.1757743 4.9876766 -0.9780618 -1.7019793 -2.132529 -3.581407 2.014244 1.8927658 -0.6414811 -0.8869528 -5.1361465 -2.1776764 -2.7326565 2.809142 -4.567809 -4.589067 4.1640215 -0.11097975 -0.53585553 -0.3856381 2.534026
13525 -2.5851371 0.54045624 -10.495512 -4.3392534 -3.1713884 0.39919046 3.8727202 6.372456 -0.35002652 -4.271368 -0.72710586 -2.216496 -1.7807922 -1.9047613 -5.262504 1.3005382 -2.9205134 2.3893425 -0.27958843 -4.846269 -4.54505 -5.749 -1.831307 -3.0991042 1.3471938 -0.56736654 3.0546985 -0.9116917 -0.3739768 0.14833426
19063 -4.23804 1.3653464 -0.5174416 -1.8338223 4.7825904 1.0412647 -1.3739123 -0.88079673 -1.456261 -2.2683172 -3.2269151 0.8507421 -4.233011 2.5125756 -2.1029022 -1.9764807 0.35388544 -3.9787488 -1.6987813 -0.7388301 4.4245133 -2.3505442 -1.574921 -1.373373 0.75225747 -3.284708 -3.019909 -0.08079046 1.6157349 -6.157505
21489 -1.3019748 4.870773 5.8022585 -1.3168132 6.8529334 -1.2195466 3.2760596 -3.665338 -9.929024 -3.7819507 2.6284072 0.68964326 -7.6216803 6.3415084 5.9583254 -3.2864878 1.9920009 3.519063 -6.2950406 -5.481436 5.2778897 0.61859465 -6.66382 3.6853917 8.511255 -0.29063943 -5.9851584 -3.9728718 -0.56051654 1.9734436
21325 -3.067345 -1.6263232 0.16725804 0.6902833 -6.748614 0.8584211 1.154228 0.7344656 4.7939043 -0.5512123 -2.8821084 -3.3950584 -0.037683316 4.295541 5.3999853 0.7248843 3.1416442 3.4963048 7.0753117 4.3713365 -6.2834215 -4.7308555 -3.7340646 -2.235928 1.8369058 0.018870523 7.0929174 -4.0132456 0.34015298 -1.7063242
20046 2.255527 2.2772644 -5.722063 -1.2093349 -8.757072 0.11207986 -2.2998595 1.9811643 5.583223 -5.45249 -1.7550071 0.5900434 -1.816843 -7.4674597 0.7174716 3.2561057 6.699553 4.015001 2.3129444 0.7383612 -1.2234548 1.2282608 6.01745 5.230938 0.9292024 -2.2195415 -5.1927457 5.644746 1.1562387 2.683683
2434 1.8806396 2.5052798 -4.905621 -7.639001 0.71793616 4.3852077 -2.2198977 -3.2179134 4.7761593 -0.24216089 2.8690333 -4.288634 0.32465988 -3.2307425 -1.4835153 2.4150681 0.67689604 -1.7117475 1.024785 7.072478 -8.880077 0.17193235 -3.2971284 -4.2164135 5.5022254 -0.95239145 -0.005534537 0.6424592 -1.1777302 1.6330667
12783 1.4454664 -3.9171073 2.919854 4.310622 -2.4819367 0.12650985 2.521997 -8.855503 -0.3892499 0.35378483 -0.66414815 -4.535905 -0.23113427 -2.2431614 -0.041229 2.8467615 -3.7786965 0.55820847 1.5097264 0.49996978 -2.9212475 -4.892033 2.6226356 -1.311014 -1.6678922 -0.12441834 0.30494615 1.639308 -1.6683741 -4.1438513
13441 1.8128494 5.3116565 -1.1624877 -4.642121 9.730201 -1.6117098 -5.0572877 -3.3975706 -3.5991619 -5.908765 -1.1926003 2.7548935 4.3140473 -2.0283425 6.2658496 -9.144705 -0.4464319 1.2807474 -3.6893926 -1.1691232 3.4259405 3.1852827 -0.9533601 -0.049283296 7.035569 -1.9885763 0.92745 -2.962293 0.87143415 1.7058969
21803 -4.184473 -1.2459878 -1.7287917 -3.784429 -0.71483076 2.9178202 -2.0008552 1.540614 2.0510437 -2.1520188 2.2837663 -1.4049653 0.25278842 -3.6870549 3.2374866 0.98082733 -2.2233272 -4.5159965 3.6220841 -8.024086 -5.5813637 -3.8333645 -0.71271324 -1.0482328 -5.1360145 7.9571614 -0.15474169 -2.524626 2.5069003 4.74742
19275 1.8901491 -1.201412 -1.9620231 -1.7994503 7.002218 -2.0544052 -1.0654755 1.8111062 -1.2066351 -1.2623914 -5.748368 2.7573304 3.309008 -0.13821253 -0.84550977 -4.533512 0.39686593 1.3386449 -2.2001555 5.6987844 -1.3888258 1.7555723 -3.1692028 -0.081259765 4.3912334 -3.436336 -2.3698826 -3.812487 -4.853773 -3.873755
2114 -3.3015456 1.4150416 1.1880078 -1.3195555 1.1108415 -2.915126 -4.9598618 -2.2762065 -5.4949884 1.567193 0.5170292 -0.35149252 -7.561225 2.361182 1.3633028 -3.2810233 -2.3950903 3.576618 2.2807088 -1.8447937 2.9500062 4.278546 1.8915249 3.8285956 6.3666744 7.821351 -8.364614 -2.4940646 -6.148948 2.0884316
12353 -1.2165829 4.6694994 2.6926522 -0.9567987 10.1871195 -3.2542152 -3.51911 2.9687135 -1.4025673 -1.9346414 -0.9901446 -0.27190122 -3.6877065 3.4588015 1.0334022 -1.5891573 2.5365708 -2.6998868 -1.3572017 -1.5177118 0.834233 -1.9935989 -4.1624403 0.13385439 1.3548222 -3.1546047 -3.8197627 -1.6717126 0.976406 -2.6794045
14659 -1.2144192 2.064043 -2.2943997 0.44650763 3.787902 -0.91979927 -0.009011861 -2.4932075 0.39013386 -3.5186896 -5.220773 -4.3054166 -2.1407053 2.232387 -3.0971322 -4.1601095 -0.87481725 -2.0311756 0.050787725 0.30265394 4.435843 0.58443755 -3.1844091 -2.3353508 -1.6045296 -5.903904 -1.5606006 -1.8633283 0.22265324 -3.9065936
21987 -3.6935828 -3.2236142 -7.2910123 -6.419993 -0.86347735 -1.8021783 5.5709996 2.7118623 0.42752162 -5.805483 0.63219506 0.52186847 -4.840984 -0.35302174 -4.829114 -1.085421 1.3778762 -0.2923946 4.9026394 -4.330233 -0.78199255 -0.4265807 1.0971267 0.36573952 9.383171 1.7152665 4.6533327 -1.7924355 0.11097576 9.742227
5064 -0.65868163 -1.361575 -3.3398578 -4.681092 7.707272 -1.4427129 -9.490441 -2.5918953 2.8940477 -1.752502 -2.307369 1.8658818 0.40759993 3.3980784 3.1843135 0.046784867 -1.5779155 4.667483 -2.292701 -2.8196576 -0.16289295 -0.5558179 0.57199115 -0.7952662 1.7686034 -1.093637 -1.3978866 3.003617 0.1214494 -2.1615071
8327 5.572012 0.092062585 4.47521 -3.8747663 -8.169006 4.488691 1.957316 0.7541342 -0.20861383 -1.9195168 -1.3117224 -4.02144 0.8483164 -8.75088 -1.1744605 2.4284294 2.4156208 -1.0223548 1.3800058 5.2578683 2.7704282 0.8749661 0.05608918 -0.4360527 1.7894726 -5.1656666 -2.7074153 -2.4083273 -3.6536582 -1.9307257
18577 2.4002361 -1.2941413 -0.68468785 2.9240847 -5.4350576 0.97824484 4.992203 1.7770413 4.480277 2.1384094 -1.4564773 -3.939107 2.8469574 -0.7285382 3.071953 -2.6445029 3.7085545 2.4861894 2.1502821 4.171409 -6.2502933 -4.0159016 2.9866748 -3.3437374 3.0051234 -1.4478829 3.710975 0.22663909 1.5524595 -3.447241
14988 -6.733017 4.115594 -1.4238708 -4.1892896 -1.4044869 -2.1791449 -1.8733522 2.5827754 1.5405217 -1.8342342 -1.8538839 -3.5083098 1.2589607 -2.9072602 0.30758002 -1.1738343 1.2110972 -3.7297451 -3.3229449 2.1303494 1.9236907 -5.271763 0.22208074 -2.7813644 4.5346894 -2.801517 -5.7058134 -1.4482065 0.44905838 -2.4470005
2245 -2.2392042 1.696474 -3.1765215 0.6954389 4.281552 -4.5385704 0.6518622 -2.527844 -0.05247963 -1.4481603 -6.222267 -3.2158964 -3.6648498 0.9389321 -1.4453735 -4.06395 2.5223346 -0.3946315 -1.5524164 -1.4489275 1.533282 -0.047478385 -3.8220162 -2.9208782 -1.6147537 -5.3720036 -2.9892955 -0.8696896 0.53498495 -2.3768332
12666 -3.0556738 1.2991654 -3.538414 -7.8631763 9.823618 2.1418264 -5.351863 3.5427916 0.08440531 2.7744973 1.2899374 3.6849732 0.28734228 2.9807034 2.7140808 -2.0483215 -2.1040118 5.7727823 -2.820465 -5.813953 4.4701467 0.88285094 1.511751 -4.5104527 -0.40788418 -2.8242626 0.48614788 -0.4882098 -0.552815 1.2984736
7108 -3.890575 0.83682454 1.4700557 -4.610047 -5.031584 -0.033747222 0.5398558 1.7055012 1.6240816 -1.7333481 0.7828157 -3.1489 2.1968756 -2.375103 0.3034596 0.701502 1.2722335 -1.2813815 -3.9488912 1.1636679 -2.0396376 -5.594532 2.1117415 -0.9954908 4.9794545 -1.6981603 -3.5577605 -1.6291286 -1.3999385 -1.1332241
15076 -0.8174253 2.6876378 -2.1606405 -2.7163708 5.644446 3.2920115 -3.6847253 -0.91747713 -4.035052 -2.4710667 -0.09419347 0.42124003 -2.0705001 1.3429426 -2.679884 -5.6392784 -2.581802 0.13876987 -1.9613557 0.9849035 4.2988677 -5.057439 -2.5892625 -2.0601244 -0.43753284 -4.051623 -1.1541423 -2.1037235 2.7771635 -2.6608326
8585 6.715467 -4.0487785 -2.963789 2.5016665 1.5675068 0.996904 -2.1836114 -3.5765066 -1.4062192 -3.6581697 5.4148526 -1.7615461 4.6045203 -3.0308352 5.455253 4.3074083 0.29419106 -9.104491 -0.43025172 -1.5172175 2.260151 -0.093133464 1.1754802 -3.8338354 -3.7859633 7.9840503 -1.8197176 6.6657095 -0.2778155 -2.9015822
16368 1.9841839 0.023439903 -3.5943766 -1.2418914 -3.3623857 0.23837745 -0.3295229 -1.9081305 2.3132775 3.6265001 7.163207 2.993835 -1.3172827 -5.771277 1.2823759 3.0113955 4.81677 0.7010291 7.261966 -3.2816348 0.2586835 -6.131344 4.084786 3.7481954 -2.0028508 4.6605325 -1.666505 1.3267084 0.21560812 -1.1152772
1921 -1.8753709 6.171667 -4.171731 -3.558308 6.370357 -0.78814274 -5.3584356 2.4242792 -0.9786759 -5.0041385 -1.0385404 2.5936074 -3.277086 0.54203284 1.1251689 -5.5627446 0.62471193 -1.3800113 -4.303958 2.7065282 3.4395468 -1.7373801 -3.5690553 0.60556436 -1.5768937 -2.0380864 -0.5293989 -1.6970512 2.0675452 3.3290532
18777 -3.035141 2.6281734 -0.6433565 -0.4816541 3.326922 -1.4454681 -0.64826775 -0.9919096 -3.5042217 -1.7506565 -4.7538037 -3.6318371 -2.937747 1.9846789 -2.3945756 -4.2602944 -1.6230053 -2.483775 0.8030448 -0.23152237 3.289392 -1.0971628 -2.2667925 -3.6686027 -0.1125036 -5.4262314 -1.6964544 0.12125484 1.6201674 -2.3693993
12280 -0.21407999 3.552133 -3.0445285 -4.7426505 5.659551 -2.756231 -2.053312 0.9935032 -2.3088584 -0.9923364 -5.389911 2.7606812 3.5693722 0.87071586 0.48918065 -4.303373 -0.2711383 3.085398 2.0845253 4.7022448 -3.5106752 1.1053317 -4.311694 0.46512526 5.372018 -5.753843 -2.2018776 -0.51530135 -1.6347237 -0.91707575
11277 1.0714446 2.837782 -2.1039767 -2.8319168 3.4487062 -3.697101 -1.1143848 0.90183496 -2.13776 1.8666703 -9.469462 -4.021534 4.165481 2.7257414 0.8530292 -3.5952706 -1.3667808 0.051379345 -2.348297 7.1428 1.7126852 -3.3400695 -5.1834517 -1.0454854 4.4024 -3.6173341 -2.611455 -3.3510103 1.9202791 -4.523213
14257 7.126095 3.482961 -0.31977144 -0.36475554 -4.6679277 0.41939116 0.23721744 1.0738534 -0.2172398 1.632406 2.6156335 2.799343 -2.3943992 -4.1111016 -0.86747724 2.956328 1.9867043 -4.0064964 3.633682 -5.0154104 -1.7036667 -1.2630209 5.706999 6.0174627 -0.9208698 0.13178161 -2.5351226 1.7136226 -0.83609504 -4.405524
14260 0.91232777 -1.07426 -5.1497927 -2.4262857 -3.6673796 -5.9286814 -5.7786984 3.7730563 2.3422117 -0.5109865 4.345029 -2.258068 0.9022522 -3.1691546 2.2190573 -1.8868024 1.0864412 2.6508684 1.6476265 1.4294631 -0.2888638 -4.142276 2.8897617 1.6594939 -2.636382 -5.150533 3.6240628 1.6970528 4.0113573 -1.7747346
21713 -5.0175443 -2.419518 0.4885878 -6.0739985 -4.015682 -0.48835903 0.45221856 2.3246484 0.06674643 -2.696848 3.2404838 -3.1281073 3.3978343 -4.162724 -2.062673 1.1851958 2.1495924 -1.9412197 -3.4335475 -2.5060716 -1.2320416 -5.0871444 2.363995 -2.730786 3.0587292 -0.3752475 -3.242374 -2.3947089 -1.4671991 0.6442606
9514 -2.1492677 -0.37628737 5.5679355 1.0968446 0.7768958 -1.2076402 4.5902514 1.3193179 -3.319665 -4.274212 0.5427773 2.6464274 -3.7693484 0.1828715 0.89011866 0.10819296 4.3330235 -1.1686411 0.012792604 -3.2323058 -1.7049105 0.60000706 -2.8945537 3.445613 -0.87354493 3.602827 -3.4611425 -0.46964476 -2.760839 0.89007133
5187 -4.1003695 -0.27483132 -8.568776 -3.3869498 -5.6290345 -1.1069459 5.2905545 5.0539484 -0.45210764 -3.6518977 0.83929074 1.4803618 -1.4587578 -1.3354713 -4.7928495 -4.3041368 3.0397444 2.9593172 -3.2254066 1.3073473 -6.587581 -4.8497744 2.319847 0.21078305 4.252064 -0.29699418 4.8068633 -1.2322633 -3.7215984 -0.35456398
5307 -1.0428207 -0.56520075 -2.6449182 -1.9236485 7.4695826 -1.6166527 -0.6032247 0.85414106 -1.8106222 -0.008936131 -5.703666 1.5936084 4.695579 2.4942987 0.2669243 -2.8931432 -0.6929107 1.5136124 -1.6026484 6.19792 -2.8929572 -1.2220614 -0.8249301 1.6973859 4.341895 -3.828142 -0.99664885 -3.0704181 -5.099216 -3.3436437
19231 -1.5321213 -0.33493024 -3.8660529 -5.1167836 7.091989 0.2692902 -7.576569 -3.8631322 2.3463008 -2.4918723 -1.2755808 2.9899218 1.0208648 1.6728137 3.065891 1.7394726 -1.7794367 6.6139975 -2.7743583 -1.8928351 -0.12213803 -0.8774683 1.9754666 -2.1731129 1.8381772 -0.61509794 -1.1366763 1.1122613 -0.23410355 -2.108035
7325 -1.438481 1.9467559 -1.0906463 -1.4242468 4.9474425 -1.2147352 -2.3620389 -2.5566378 -2.2993917 -1.7688214 -2.793953 -2.2202845 -1.9350549 1.4125929 -1.2901493 -2.3534224 0.114577405 -0.9849414 1.033241 -1.2692055 4.605108 -2.2467227 -3.137916 -2.8301644 -1.2956393 -6.284364 -1.0403298 -1.1610326 0.9963817 -2.6016386
1586 -2.18805 2.0201778 -1.6071886 -0.5783119 4.744712 -0.15066393 -3.7028897 0.6410892 -0.5655628 -4.8397355 -2.982575 0.67324895 -1.3816687 1.0307565 -0.92693764 -2.826355 -0.41571444 -3.2922184 1.0532095 -1.2081475 4.043045 -2.2281036 -2.8036647 0.5272857 -2.763617 -5.3263683 -0.67156386 -2.4756756 0.9826601 -1.8835505
20566 0.3130313 -1.1574072 0.3940484 1.3793246 -4.531328 1.0332034 4.725137 -0.7696976 4.128577 2.869043 -1.63879 -1.07794 -1.4541165 4.5871797 4.5372367 1.133283 5.152137 2.155595 -0.3095838 3.2123644 -5.4261184 -2.2339282 -0.37917158 -2.1941679 1.7283155 -0.11227371 3.2945032 -0.23091845 -1.6904656 0.113146335
21663 -1.5742706 -0.9648341 -4.9949927 -6.603333 -3.6004596 -3.4421868 -1.1830249 -3.9091141 -0.86536413 -2.628939 -3.23728 2.686159 3.8020103 0.30995357 1.1412001 -4.1466537 6.3478127 -0.48874694 -4.1707993 5.168692 0.49628115 -0.33628044 1.758216 3.6537654 5.0951014 -4.383928 5.368666 -5.7011952 -5.361083 -4.828832
17247 -2.9227114 0.67755085 1.4829744 -3.762249 -4.7421293 -0.017448146 -0.02314711 2.8160062 1.5198087 -1.9276378 -1.393976 -4.867713 3.517817 -1.1115263 1.5443921 0.90277284 0.66660863 -1.7117201 -3.0417588 -1.1386399 -3.4061456 -5.9036956 2.1822288 -0.13851485 4.694394 -2.5406647 -3.4303255 -4.352213 -0.023767509 0.3574541
20342 1.9539374 -0.8656422 -0.54093784 0.48475152 -6.0348296 2.496686 4.2098823 1.6589255 4.3440356 0.108526 -0.08754519 -4.8781466 0.9362171 -1.1751503 2.6032538 -1.2834696 5.1961255 1.4423343 1.0683246 3.6162863 -6.4915953 -1.9729458 0.53511953 -1.0717336 3.5651636 0.5969285 4.0742464 0.37835887 -0.783465 -3.3067756
478 -0.14259535 0.3122924 -3.9751668 3.2901964 -0.72564536 0.14813444 4.1414795 -2.1403537 1.555109 -1.647852 -1.4084033 -1.963353 1.7265079 -2.550084 2.9395463 3.9635978 -0.56942654 1.9616185 2.2218654 -0.64121944 -2.3000042 0.94102514 3.1223772 -0.7513348 -2.7943048 -2.3943887 3.0170712 -1.1063298 -4.32662 -3.376418
16866 -5.332486 0.1853805 1.2434754 -5.0324893 6.478508 1.7398058 -2.9915266 0.32616568 -3.0332944 0.05028309 -3.8486738 0.760346 -2.2561212 3.1142695 -1.0734912 -2.6039407 -1.457049 0.21590365 -0.9828338 -1.4539818 5.146805 -0.814065 -2.6096578 -5.362765 -0.7051451 -3.7898145 -1.2785172 -1.0091702 0.99975383 -3.2655518
16122 -1.5026376 4.843757 -3.6576676 -2.643204 4.76103 -2.3963172 -3.4557803 0.14724387 -3.141822 -1.1787269 -4.477693 -0.7126944 0.6628152 0.75378835 -0.6951194 -2.3901045 -0.17974217 -2.1488442 0.06421203 2.0392396 0.84500754 -1.9196069 -3.5967865 -1.9011775 -0.27799425 -3.9881494 -2.3175356 -0.8216794 -0.20418337 -0.6366009
3451 -3.9869401 -0.85141927 -5.7241297 -0.09425453 -2.8774822 0.7555648 4.069811 -2.8147411 5.9801316 0.57936037 -1.4969175 -5.6891465 3.0773575 -2.126876 3.2004104 4.9812846 0.16211471 2.8354537 1.3780993 -1.543365 -5.099079 1.4744724 3.080011 -0.9197153 1.7558978 -0.7350076 1.9731605 -0.57178825 -6.548694 -1.6010387
2078 0.3535564 7.000059 -3.2282674 -4.6322484 8.99015 3.6598172 -4.0324197 -2.223206 -0.676215 -1.4175129 2.0732706 3.33961 -1.9227107 -2.3087888 2.1949835 -6.8771806 -2.569992 0.11702767 -4.3539324 0.40352693 2.7543998 1.5049856 2.8434558 -1.59932 0.7915277 -5.0772605 0.07644935 -1.7752564 3.3263164 0.30092627
16978 -1.3625262 5.787715 -3.1598537 -1.7760681 7.9847784 -4.1899652 -2.4402492 1.0199354 0.37931156 -2.430437 -4.7059836 1.4235963 -4.396066 1.6933138 0.28301722 -2.6609006 3.8493154 -0.22160712 -2.8601768 2.1185665 0.3419755 -2.6000195 -1.8789777 1.1109024 -0.5702433 -2.3311415 -1.2788031 -1.4263715 0.74538296 0.69315106
20700 -1.7025819 1.2326899 -0.63309467 -1.1991535 5.577965 -0.35437423 -3.010016 0.47860864 -3.5189564 -3.3392904 -3.10641 -0.53516895 -1.3547835 1.8527668 -1.3328543 -1.3471816 -1.7455529 -3.694628 0.24849181 -2.2415395 2.9070613 -1.7387652 -2.565344 -0.9362957 0.3513641 -5.404264 -1.744356 0.77199554 1.6648397 -4.4450912
2610 -3.9719553 -2.587872 -1.7417722 -2.7700922 -1.3144381 2.3049226 -1.7416825 0.97680277 0.8572646 -2.9131963 3.4592633 -0.6569992 -1.2160792 -2.1146023 1.0900735 0.70846826 -1.5494112 -4.1617856 2.825074 -7.518479 -4.5235586 -3.930893 0.107382186 -1.6084952 -5.63042 8.349138 -0.18742962 -2.307661 1.6134249 4.65085
6342 1.8965557 -0.40635738 -3.54784 -0.22051819 -9.707075 2.0492623 -0.09806055 3.8185587 1.0912561 4.321427 -2.5283613 1.3352157 2.5672293 -3.8503978 3.8290613 2.4980419 7.531566 -0.7745311 4.1732674 1.2907252 -6.9994636 -3.3573127 5.8072066 -0.5071105 -0.09627716 -0.2563853 -4.019156 4.1294165 0.6609484 3.0693595
18645 -0.9208023 2.1974149 -1.8090641 -1.0965698 3.0327778 -0.5134482 -2.097247 -1.4191896 -1.8467652 -3.5592558 -2.3465059 -2.0189905 -1.5984236 3.7682137 -2.8933015 -2.3992982 -0.056592587 -2.1533146 0.50601 -1.0376627 3.9470816 -1.5856454 -1.8448937 -1.7625389 -1.4464047 -7.3111224 -0.44941226 0.29194176 1.2591949 -3.3940668
9367 -3.4971704 -0.6402328 -4.619933 -6.294867 1.7167 -2.7091281 -1.9007027 1.3211417 -0.10577659 0.8858313 -1.6180488 5.753455 1.2246451 -1.4129484 -1.9315279 -4.3023186 0.88748276 0.3575991 -2.644872 0.34822512 -3.4397893 -1.4031721 4.481482 4.083403 3.985931 -7.2608013 0.731356 -6.3897786 -2.6268687 -6.517302
7558 -0.8898412 7.579126 -4.4147387 0.14031962 0.9628805 -4.1475697 1.7070801 -1.3000342 -0.9518655 -0.692055 -8.544867 -2.3669639 -1.8888834 -1.2103348 0.33968547 -0.6650024 -1.0064447 1.666681 0.84808284 2.4631302 -2.684504 -3.1705027 -5.7511964 -1.5046116 0.81895196 -6.2619967 0.26427934 0.6285948 -0.40032804 -4.909056
11846 2.7352757 3.8129823 -2.9093888 -1.5840563 2.94111 -3.3080978 -3.451172 0.54686874 -5.204968 -3.242293 3.6979468 3.8679225 -0.1019955 1.4032145 2.682757 -1.9064753 0.27141586 8.290713 -1.6134459 -1.1730676 2.5945485 -1.1857789 -0.68089443 -0.50733227 2.7869823 -0.7457916 -6.9573236 0.9632131 3.8377683 4.5367813
21569 0.14277655 4.6747437 -0.3649961 -0.9385358 8.94639 -3.7888904 -4.5226626 4.6479483 -2.1094766 -2.2584932 -1.5268105 -0.86875594 -4.20627 3.267803 2.4255846 -2.8367093 1.0270396 -2.0456653 -5.3690395 0.59493643 2.7600555 -1.8379377 -5.379896 -1.8582361 -0.103968024 -0.64247686 -1.6988106 -1.1931645 1.439599 0.6928695
13966 -4.1171465 -2.5261972 -1.4383775 -1.9830455 -0.3842261 1.3882959 -3.1441655 -0.24184872 -0.6589194 -4.888013 3.0809414 -1.4738301 -1.9228257 -3.812436 0.76681465 2.403075 2.2579608 -3.084279 0.018680396 -7.93444 -4.585281 -2.9683964 0.86334664 -4.6365776 -5.3916206 7.110886 -0.057624117 -1.6345819 2.6396027 2.8861175
19658 -1.8521097 0.5745663 5.1520405 -0.17288187 0.35631457 -1.0157793 3.0786655 -1.1431259 -3.635719 -3.841494 0.42457196 4.3187695 -5.0956507 0.18622571 1.3293903 -0.5461454 3.4802327 -0.04146349 0.93248963 -1.3898714 -1.7668911 0.9329086 -3.3268147 1.6076481 -0.427447 1.5389451 -2.818728 -1.9496325 -1.8130609 0.07345319
1047 -2.9022357 0.60667765 -2.583317 -3.3715606 6.6032453 -1.2649275 -2.4828227 1.5820408 -4.0046215 -1.1030847 -7.3263803 -0.19502561 5.408168 2.3423264 2.324818 -1.5458113 1.0369773 -0.1484238 0.58937496 7.6199145 -5.884574 1.7688069 0.25742167 3.2505789 2.2710264 -8.789896 -1.8137237 -2.4992256 -1.1796945 -0.4911549
20922 -1.3090671 3.4732234 -2.2578924 -2.4355428 5.2540984 1.3741754 -3.7017205 1.1473885 -2.9354866 -5.1772623 -1.9216964 1.7269365 -1.8578066 2.6195896 -1.5878905 -2.6669433 0.014114021 -2.7551408 -0.65877146 0.04975222 4.6550922 -1.3365476 -2.780093 -0.6875066 -1.934626 -3.4609125 -0.029479947 0.35639438 1.8812845 -1.6492414
1244 -2.142303 -1.920246 -4.9984784 -3.9248748 0.18770869 -0.98764116 5.3381295 7.397503 2.5797393 -4.3593326 2.8091273 2.0326104 0.055618398 1.4653684 0.050328128 2.2909274 8.605325 -0.31710547 4.2739606 -3.4458497 2.7732706 0.38865831 0.53036726 2.9480672 5.646514 -0.2899908 -2.265388 -3.0164416 1.4980203 8.160068
21907 2.5006225 -5.103535 3.5846174 3.2961965 -2.2897944 0.3250336 0.80585665 -6.364556 -1.93465 0.7146408 1.9494692 -5.0944104 -1.2673365 -2.2111993 0.6858198 2.2759056 -2.3128128 -1.4898355 1.4042345 2.5741 -2.9226332 -3.4875498 0.7895418 -0.6819841 -2.1485772 0.7024181 -0.52350956 2.330469 1.5809808 -2.2979057
4399 -3.445898 1.9724202 1.4239815 -0.8459339 4.679404 0.8835374 -1.8616767 0.11432501 -2.1740637 -1.6844823 -3.0693212 0.057735223 -4.4662356 2.4340446 -1.0672702 -2.2267592 -0.058281757 -2.193767 0.7340708 1.1634737 2.7569633 -2.3003979 -2.4104404 -3.2347648 -0.6978668 -4.6748075 -1.7057842 -1.2176229 2.678188 -5.2267685
5503 4.1197114 -5.719385 -0.80224705 3.3248591 -5.2302513 1.8941336 0.16934651 -5.9632154 0.39600945 0.80335766 -2.155318 -6.0241847 4.224672 -1.2696601 0.82438546 -0.4913883 -0.6267689 -1.4710213 2.0583289 4.5609226 -5.380909 -5.591249 3.7277324 1.4928182 3.5538397 -2.9923363 -1.0679636 3.4701722 0.21299788 -3.6102867
2159 3.5068612 -3.3161783 3.69578 2.3560255 -4.3614254 1.8320808 0.31457204 -5.618021 -2.938083 -1.2882881 -0.44883603 -5.176234 -0.5356179 -3.7844706 -1.0073687 2.046388 -0.6511876 -0.09069945 1.0691726 2.7735033 -2.5091755 -3.7500453 1.9608688 0.18639906 0.11712816 -1.5407329 -1.7790104 1.7784854 -1.1240124 -3.1795475
11550 4.88686 2.0120132 1.5021117 1.5582876 2.58045 -3.418743 -0.5220568 -6.2514915 -0.8805316 -3.0167422 0.98663354 0.32244533 -3.989166 -0.25394493 7.6921916 -1.794701 0.6440486 -1.6686425 -3.1814399 -7.1018353 6.5994387 4.1889677 1.1015617 -3.1444988 4.6456895 -2.1586838 1.3703506 -1.3076794 1.7482561 1.4677496
11244 -2.358123 1.561224 -1.2084808 1.197688 3.8686478 -1.2487633 -0.8323216 -2.0630605 -0.5486809 -0.5438298 -6.2471766 -2.9233336 -5.8034916 3.1624296 -0.96978146 -4.4142365 -0.5913891 -1.9945581 -0.04942176 1.6529813 3.9308345 0.5145706 -2.926618 -3.1446636 -2.1584733 -4.0406804 -0.24566947 -0.9537308 1.1567203 -4.0813456
3469 1.0356896 -0.48822892 0.06778005 3.4597 -3.855496 0.42604887 4.102609 0.6205955 3.4926805 0.4337367 -3.657131 -3.429788 2.4456587 4.276208 5.9742956 -0.79924786 2.4849696 2.5172944 1.8122646 3.752701 -4.4483557 -2.0585277 3.52812 -1.287959 4.401326 -1.0594428 3.1770127 -2.8372815 1.7648157 -0.44469455
12334 0.5938872 -3.7137604 -0.5992557 -0.96470094 0.44852006 5.5187263 6.7674327 -1.4126711 -1.6640596 -2.81252 2.0902646 -0.8193224 -0.35715097 -0.09863079 3.4472609 0.73035836 -1.0572786 0.8226649 1.0131545 0.6922448 0.48587203 -1.1775029 -0.7982247 7.3765087 -3.5563948 5.963764 -3.280508 2.1702042 6.0148697 1.803755
8168 6.067154 -3.254924 -5.8071136 -3.5908158 0.78075963 0.3139983 1.3338408 5.72322 5.5342 -3.911639 0.11599929 3.1149964 -0.9789483 -1.1002882 -1.8687714 -0.05793866 1.3428751 -3.5679502 2.6354203 -0.122298695 1.5808821 10.936902 2.4778786 6.1707554 0.9175713 3.602916 -1.3667897 -4.33311 1.9059705 9.399379
5632 -0.7457135 -1.6989405 -0.17181763 1.5683835 -1.9870462 0.89381355 4.2247424 -1.1759547 5.3597274 0.9101437 -1.8996663 -1.301816 1.0986885 4.412912 3.7276402 -0.173613 4.4955745 2.0974696 0.5384015 3.8872414 -5.327778 -1.462959 2.1678517 -2.386914 1.5146813 2.0565906 2.836266 -0.7225795 0.4192333 -2.154259
12965 1.4230189 -0.87398076 -1.4528587 1.8540524 -1.0951624 2.2797892 0.1467614 0.28702715 2.369418 -1.9469835 0.62100846 7.2567735 -0.98378265 -2.434429 2.6732907 -3.4831247 2.7531757 2.665335 -6.0948067 -0.47959706 2.2306178 0.6986704 0.9709144 -2.471766 -5.501881 -3.438557 -1.1024547 5.685513 -2.4870589 -0.77858025
13582 0.6550635 -1.9892312 -4.6872587 -4.246401 -9.650596 -1.5010773 -1.1489964 -0.086478084 2.073429 -6.007197 -1.1721622 -1.765513 -1.1894192 -0.8352637 -3.4146454 1.0187271 2.5171752 -0.16499361 -0.4576042 0.9972372 1.7611713 -0.5754675 5.786814 4.354431 -1.295954 -1.8773941 7.580197 2.30959 -3.4329474 2.5768468
14746 -2.1092448 7.2332 -3.1373355 -0.9173172 3.4626243 -3.0451 2.0024407 -0.7826314 -0.7514344 1.1865854 -9.618902 -2.8317614 -2.4559329 -1.0455425 -2.1138804 -1.4396881 -0.5307473 -1.2766875 2.3592622 4.570667 -2.8738613 -2.8529968 -0.9179993 -5.0195456 1.3041497 -5.362284 -1.9275624 -0.30803397 3.2668674 -4.2739053
8120 1.8592532 1.2956891 -0.725691 3.3554156 -6.7869835 2.073558 2.7872608 4.28773 5.3845553 1.5667366 0.6791637 -2.21695 5.0768957 -1.6752199 4.1042275 0.392446 6.3123565 2.1279774 4.1812673 2.1772 -7.9625773 -3.38618 7.3123665 0.3112549 3.3946605 -1.3051776 -1.1000693 3.8833292 0.25868922 -2.5409431
13494 -4.932103 2.902921 2.735536 -2.1039848 -1.8914925 -0.59839046 0.40579227 1.3643035 4.405717 -0.0714308 4.0007577 -3.3556921 3.170225 -4.3903813 3.2759037 0.5215435 -0.89961135 -2.4642959 -3.2918904 0.33967754 0.5103716 -5.212421 2.1897418 -1.3653713 0.509097 -1.8164798 -3.8942947 0.81144744 1.4194914 0.09500579
3252 0.72737676 3.8716452 -2.0092938 -0.9745002 0.7726494 1.260921 -2.0333672 4.4824667 0.77050674 -7.958056 -2.5347176 2.940889 -6.191704 -4.9692316 3.5560505 -2.5391655 3.858136 8.155573 -4.776614 2.7558496 2.1881554 6.9900017 2.3660114 -0.035235368 -3.8232033 -2.2298484 -0.59528846 4.357287 2.1653411 -2.5369308
18729 -3.3122988 0.44467998 5.313033 0.6233766 -1.8631889 0.9045514 10.816102 0.4417924 4.1020393 -1.9786563 1.0594097 -2.5485387 2.385007 -4.3464975 -1.4136242 -0.09135192 1.5406696 -5.4167595 3.5757413 1.1644795 -5.130476 1.94008 1.9971566 -3.5431406 -6.6269245 -5.4695086 4.9021187 -6.323021 -3.4262567 -1.6814852
16470 -1.6216418 6.765632 1.2495536 -1.5990945 6.8276334 -0.77825046 -4.9304094 4.7630663 0.25254408 -6.3921638 -1.883016 -2.2164755 -2.0522447 2.961665 2.7499871 -1.9881501 -1.4784571 -2.5819736 -0.055345535 -5.4050226 4.1325355 -1.086739 -1.2585398 3.0774393 1.7011601 -5.2630887 -1.0402273 0.15740669 2.9641325 -1.5956124
1517 -0.83188814 0.24873021 3.03542 0.8979057 -1.9892757 -2.0548007 3.3278306 3.1536665 0.4522961 1.3231304 2.392945 -0.49856487 -2.3430316 3.5617893 -1.5680289 -0.054508276 2.7636793 -4.3749814 -1.3075589 -3.5498483 0.9617924 2.5298715 1.8788981 -0.69602615 -2.546773 2.4187708 -4.296681 0.49799812 -3.9471962 1.8501401
3062 3.1844692 -2.758811 -0.07366822 -0.5804431 -0.5816747 2.7118843 2.5613506 -0.057614494 2.039833 -5.133996 -1.1293948 1.325318 -1.2330344 -1.7795146 1.1442311 -2.679804 -1.078013 4.5366545 -3.5352008 -2.4693577 -0.20874956 4.4248805 -0.827533 -1.4924033 -9.228811 1.5481523 2.8040059 2.2704291 -0.5279884 5.0670476
11193 -2.003856 -0.2247657 -3.1307976 2.42062 -3.812612 0.47710308 6.379221 -2.0668526 6.232383 2.193912 -2.0374908 -3.7924638 2.9825974 1.3021616 5.4955883 0.17997895 4.414649 2.5790915 1.6679091 -0.010624819 -7.849158 1.2589321 2.2316577 -2.3720613 -0.64780533 -0.09130382 5.7545776 -1.6500918 -4.412851 -2.4210453
12987 3.0430825 -2.6602595 -1.1157497 -1.1304991 -0.13483746 3.0377986 1.9499872 0.8070695 2.75264 -5.151645 -2.044574 1.3658702 -1.9686434 -2.0144422 0.44503632 -2.43165 -0.053179998 4.790568 -2.7245939 -1.2627829 -0.59825796 4.035935 -0.97837543 -1.3665093 -8.297202 1.6273097 2.3781848 2.3747642 0.07694777 5.24977
12573 1.2670499 -3.2642484 -1.8642533 2.8111796 -4.631306 -6.9139977 -2.5922494 -1.6429963 -0.020738382 -1.8928974 -3.4810922 2.5080483 -8.479703 1.4817806 6.9665103 -2.2064724 -1.794349 -2.5941002 -3.1460807 -1.301759 3.0613475 7.5369515 -5.268947 3.8290603 10.509693 -0.33021802 -4.629029 -2.3883522 -3.9101975 2.3267744
8188 1.8322965 -2.8810303 -0.19555135 -0.9157934 0.23269361 5.3472257 -2.3308473 4.2729473 7.325736 -2.4444628 4.119849 1.481684 -0.34840736 -3.5685117 3.764212 -0.60887736 1.3865267 2.9896057 9.650651 1.9667962 2.9054112 1.8589978 0.62687546 8.160786 -0.08889689 -2.1928713 1.3436167 2.3795652 -2.864381 5.490086
6357 -0.9621866 1.4431541 -1.7970273 -1.1941712 -5.9660068 -0.32974505 5.36204 1.804149 7.6879754 3.8798468 -1.7545867 1.1234828 1.6697161 -2.7519073 1.8151456 5.320877 -1.4596925 -3.1502752 -0.17212828 9.684289 -2.9028802 -5.7375503 1.2081896 -4.848014 -2.2179434 -2.3739536 10.003998 -3.547567 -0.121306404 -4.3059645
6940 0.29051447 1.7294933 5.0135303 -0.50345033 2.1379511 2.3818843 1.0225677 1.6333382 3.798039 -6.801173 2.0460129 -1.5023131 -5.897821 -5.771672 2.3045971 -0.92895633 0.13791637 5.7321234 -6.2044477 6.5675035 1.8606068 3.5149884 3.6377895 0.9349812 -5.662317 -3.0757225 -1.1526402 5.025568 1.5392514 2.37771
14213 -1.9433527 2.2563634 3.745275 -6.6233473 5.383701 -2.3029733 -4.963042 -2.9413264 -0.12305974 -4.4057674 -2.389438 2.6137195 5.121347 1.8752291 3.8115103 1.477885 -1.3614827 4.875465 -0.1848442 -2.1795146 3.9236953 1.7580268 0.2119362 0.38775808 0.3124905 0.17183623 -2.0428562 0.2237847 -0.17453729 -3.183697
927 -0.8687437 5.096278 -4.12319 -4.3488207 7.345971 1.9740529 -3.8290834 -2.5932097 -1.1468669 -0.66632754 -3.5574853 4.6052766 1.102368 3.8784854 0.80709404 -1.2736552 -1.8677098 -0.35302117 -0.81249094 1.3504443 5.071169 -1.4127252 1.4686402 -4.4071236 1.5921888 -3.4730744 0.35673457 2.2178671 1.811613 -2.3276246
17591 -0.6193344 0.5527325 2.4205556 0.3147363 -3.0332177 -1.993697 1.9298427 4.31571 0.80276287 0.8989078 2.9293706 -1.9363877 -1.7787093 3.8113465 -2.1124487 0.44303635 1.7555381 -4.0008864 -0.7375887 -3.8659961 0.688872 2.8967009 1.2331786 -1.1624813 -1.6727505 3.6506355 -3.9831054 -0.9285953 -5.0796046 1.8227034
2874 -0.35076162 3.9523592 -1.9768355 -2.4664562 4.0895886 -1.4897472 -2.6159203 -1.8584499 -5.3422117 -3.4264655 -4.100413 -0.84959733 0.19128609 4.348328 -1.0476496 -1.4750769 0.04719059 -2.8169136 -0.7591276 -0.9754521 5.5650697 0.914175 -2.919763 -3.2057734 -2.0997808 -0.99265915 -1.4985614 -0.771495 1.8695511 -2.0131698
7983 1.7905598 -3.4153492 0.6355311 4.4118667 -1.7563423 3.2359877 -1.9114845 0.839132 1.433814 -3.133616 2.2442033 5.7128153 -4.7609196 -4.6574726 -2.312895 -4.1222234 1.0982984 0.72616017 -2.260433 4.3210654 0.90773004 2.309688 7.341786 -2.4684148 -7.1931224 3.4094288 -3.3200772 5.640617 -0.77047485 -2.611251
21375 3.1161058 3.1742527 -2.578423 5.563931 2.4294937 -5.406119 1.2041243 -4.1014824 -3.0345614 -4.090966 -11.211853 -5.5543027 -0.11817741 -6.3598676 -2.0344863 1.4539356 -4.130508 -1.0568637 -1.3280839 6.014153 -1.5882933 -4.920041 0.2765029 -5.2829065 -2.0395238 -5.1941934 1.4523921 2.610396 3.1653383 -8.17635
15553 1.2635638 0.9544083 -1.7616316 -1.0603151 -3.103994 0.017602235 1.1280032 -1.8220404 1.2961514 3.9304113 8.107902 3.1727903 -1.8638687 -4.908611 1.0942307 2.9015167 4.823391 0.96906316 6.7103343 -3.606574 0.04801203 -6.021792 3.816948 2.6189663 -2.4319656 5.118026 -2.253417 1.4396291 -0.28911275 -1.5358474
11424 -0.14204599 -0.36123803 1.7412413 0.36151978 3.4147103 2.2806165 1.3460844 4.0913167 6.794109 -7.136784 -0.23023163 -2.1692626 -5.6077437 -4.8297453 0.32324642 -1.0118717 1.8929508 4.6736813 -2.675506 4.46938 0.97817135 3.3420172 1.4704249 0.83866847 -3.9005165 -1.2374134 -4.212537 3.986055 1.9092232 3.4118726
20983 0.22830692 -2.7830882 -0.22569877 -3.4631932 -3.1357834 1.4188774 3.2263587 -1.6280146 0.09026542 -2.3757088 -1.2423365 -0.0086899055 6.385477 -0.6294032 -0.35794488 -1.2708371 0.44897613 -1.2301724 3.4233713 3.5184913 -7.1074533 -6.1447363 0.7718114 -3.0089533 3.155748 -2.3896668 8.930784 4.9445763 -2.6783824 3.324347
7765 1.9801823 -1.0696813 -2.6238074 -1.9169573 5.2532015 -2.066833 -0.6303076 2.4643555 -1.1223004 -0.846032 -5.5789948 1.8173993 3.2470527 0.89434135 -0.43609008 -2.73959 -0.1507962 1.5396123 -1.0650548 5.383497 -2.4045463 2.6898596 -3.1209908 0.055009604 4.006477 -4.5088506 -1.9700296 -3.6897323 -4.068007 -2.7725315
16193 2.2181513 -2.5555785 -0.6331367 -0.3043766 0.4405783 1.733683 2.8548167 -0.35495597 2.0240738 -4.566787 -0.92321193 0.5549625 -2.3117385 -2.2120245 0.45278022 -2.2405295 -0.32329574 4.310466 -3.3153348 -2.0244942 -0.51588655 4.2888026 -1.1658478 -2.0710819 -8.961407 1.5135095 2.3192153 3.5716925 -1.178854 5.008711
12116 2.579114 -2.8780878 1.5154446 3.1850786 -1.7682838 0.2280868 0.011963645 -6.776534 -2.8711734 -1.4493895 0.5988381 -4.079988 -0.89198154 -1.6031822 -0.12038498 1.8492922 -1.2752187 -0.5978122 0.85055697 1.6794964 -2.9557674 -4.3865485 1.5514766 -0.7460096 -1.2840732 -0.6735511 -0.4816602 2.2409027 -0.68256193 -2.4685922
21740 0.48640326 4.97709 1.5443636 0.87221944 5.195341 -1.8873222 -4.1750064 5.8224216 -3.639658 -1.4197439 -2.3309314 -1.9825824 -1.733253 2.9454353 0.9205674 -5.7172813 -0.050618146 -2.790295 -0.43923965 -1.6778479 5.6199565 -1.218163 -2.1108084 -1.5269556 -1.410782 -4.1475844 -2.739468 1.4203329 2.8541844 0.17491415
5122 -0.07945645 -4.690411 2.3157365 4.779416 -4.7212706 4.139296 5.8249755 -5.6033273 0.7325299 0.028617634 -0.9084963 -3.5895047 -0.7320896 1.719366 -1.0056566 3.7931561 0.6089333 -3.266538 1.6860963 2.0990436 -6.8667574 -6.1443624 -0.18498278 -2.3879924 -0.9493996 0.74403715 0.42133856 0.36863863 -0.6781267 -5.7276835
11756 -0.4795459 3.1539865 -2.3308847 -1.9833375 6.6148124 -1.2117819 -1.6469098 0.3078934 1.3376124 -3.531407 -3.414037 4.2612653 -3.4771607 3.4627151 -0.5207506 -0.07984455 1.8829782 -0.42839268 1.0042408 -0.5249029 4.636703 -1.0826226 -1.91685 -0.5252888 -1.0698439 -3.5569177 -0.44410163 -2.8086927 2.2781916 -0.37895402
13932 5.427172 -6.3955293 -1.5942494 0.0072928546 -3.3220317 1.9381287 2.1206133 -2.1568077 4.9115577 3.4658968 -4.8129196 -4.754076 5.140908 -2.2975795 0.30949116 -0.92726743 -0.3401122 -1.8260086 2.9296532 3.504668 -4.7280087 -5.3652477 4.649872 0.88887584 4.6669908 -1.1788659 1.6117076 1.6151019 1.1179574 -2.2523048
15594 -2.2418716 1.4335208 -5.809553 -1.6853824 -6.568998 2.6955981 -0.82384145 0.46443406 0.6445719 -1.1195607 3.8796263 0.92446876 -4.487894 -7.1224856 2.3837738 3.6661487 4.9655805 3.4329722 4.108409 -3.7043574 1.5570359 -4.8560796 4.317584 2.7982957 0.056261938 1.7984799 -2.7814603 6.3154955 1.9141378 -1.0959991
17254 -1.4820498 -4.7829766 1.474414 -0.010046013 3.5972881 -7.2736273 3.6792734 2.558271 2.2377331 -6.6807847 -2.0192585 -2.4970217 -1.2415481 -3.2461188 1.5105658 0.17560892 -0.35739318 1.8660922 1.1660013 -2.9555674 1.8442569 -2.9822118 -6.63251 4.468433 1.0690188 3.8322723 1.2141078 -1.5649657 0.12470969 6.708094
8790 -3.8402839 3.0216527 -1.9203084 -2.41872 7.2409415 -2.3609126 -2.5038838 1.7721004 -0.17791942 -4.016298 -3.3982832 -0.28212866 -2.8844516 1.6437633 -0.31023842 -1.0838236 0.79877526 -2.250526 -2.9152217 -0.14780623 3.4861317 -1.9149176 -1.8412821 -2.6791584 -1.1164395 -1.3764733 -1.0630203 1.8829286 2.7231576 -0.42531478
2242 0.53036916 0.7401752 0.7430007 1.6163524 -5.546041 3.000995 3.5460544 3.0806994 1.8966218 0.08140867 0.49581805 -4.0386 2.281516 -1.0848823 3.7124302 -0.7542148 2.3886528 4.7613463 1.7853129 0.41332915 -7.1211147 -1.7440631 4.1306057 -1.1479808 0.93449956 -2.2811673 3.9772644 1.0715818 -1.1828388 -2.6107888
18561 -3.7720752 -1.8225904 -1.5006841 -2.3484802 -0.8078371 2.4248807 -2.2393172 1.0013671 1.5045844 -2.3756163 2.847943 -0.6803438 -0.87035936 -1.8895143 2.41292 0.0021503796 -2.0519915 -4.2368474 2.8872557 -6.758948 -4.269784 -3.7121036 -0.36174184 -0.678768 -4.7832556 7.8949337 -0.5234321 -2.3170705 1.702773 4.1793623
13866 2.3842125 -4.2777233 3.137088 2.6623693 -1.9139701 0.6782958 1.5833876 -6.125637 -2.1369872 -0.71541077 1.0344554 -4.4894576 -0.1638454 -2.012826 -0.35652572 2.3622522 -2.0622838 -1.6094238 1.6034702 3.0878468 -3.6520715 -3.678887 1.2911191 -0.6839744 -1.6320055 0.23111005 0.66355044 1.5015439 0.95288676 -2.0356643
12437 -1.4224727 2.5728009 -2.6286187 -2.2229576 -3.5218186 0.5078574 1.7176217 2.1863263 -2.1785812 -0.9924623 -7.1939735 -5.818945 4.1270413 2.5698764 1.473548 -0.27294096 1.2607222 0.61346 -3.670126 -5.1144414 -7.6881742 -4.9833875 1.9746438 -2.2098608 1.623741 -4.0378675 -1.0068079 -5.7169065 -2.8198304 1.7475817
2284 -0.30091348 2.1590853 -4.3763165 1.1373457 4.657256 -1.718539 -0.81840056 -3.373654 -0.025553832 -1.0474592 -2.1011975 -2.1318338 -3.3558588 2.93125 1.4084764 -2.9954875 -0.08292777 -2.7645247 -3.1289945 -5.820589 4.4653487 1.6297151 -0.84489965 -3.6490357 -0.0388777 -7.493194 -2.4685204 -3.003065 2.542807 -0.37104443
9817 3.2662601 -5.1909914 -3.051928 0.059019756 -5.8260417 2.1847563 -2.785208 1.6954767 -0.21150945 -0.3539458 -6.171041 -0.10864615 1.5319278 0.7831213 0.0074914517 0.6723271 5.111795 -2.0079272 0.41465992 2.7704353 -4.474278 -1.2698109 1.7771978 -4.0480494 1.6984433 -1.525736 -2.375134 1.7678744 -2.5435276 3.602725
12674 3.3127499 -2.5470629 0.083574526 3.1960263 -2.7647128 6.2333145 -1.5925997 3.7282922 2.8914232 -9.337642 -2.3024106 4.113622 -5.5381365 -3.2569046 -2.467599 -3.4012473 0.88536894 1.539608 -2.1246636 4.5935836 1.0074573 4.2606306 6.889463 -3.5647438 -3.526567 2.5588417 -1.8536301 3.8001614 3.3328626 -1.7863222
13735 -2.5706446 -2.432411 0.6580831 0.5633565 -2.8258088 0.31504288 12.04342 0.5561951 4.243738 1.6766546 -4.973022 -0.37497717 -2.2801929 -0.92062956 3.8008056 6.252821 0.9758633 -4.631273 0.40060174 8.85026 -2.6777077 -1.3189199 -0.02501776 0.51105016 1.4387065 -1.6287109 7.5791826 -1.658623 1.2347176 0.84579426
4738 2.6723387 -0.80101734 -3.1276188 3.2373898 0.33242407 -1.3776882 -2.0007877 -0.4416248 0.776474 -1.6081073 0.3102256 5.2201943 -3.0797744 -5.832773 1.6074239 -1.9365562 1.1594944 0.4605398 -4.0933514 1.4429866 -1.2226955 3.606585 2.1633658 -2.0581293 -6.4218726 -2.136168 -2.6883223 4.8930187 -1.0569729 -2.9577034
15649 1.6727331 4.8643994 -2.5810344 2.636005 2.9389267 -3.8065329 -1.3838537 3.3286917 2.007152 -9.105733 -8.468428 1.4983118 -5.301636 -5.4269795 -4.0170226 -1.1999465 0.65195626 0.38238105 -5.580889 5.891876 -0.14675258 2.5664663 -1.1004013 -4.425037 -3.337783 -5.8432093 -3.4954584 2.6910534 2.3123777 -4.5972266
2051 -0.4873311 -8.428658 6.667153 -0.2660206 -3.6664414 0.36880755 5.226161 -2.5375636 1.6783139 7.7748766 2.567082 -3.9535315 -3.8258455 -4.644449 -0.11024012 3.5242825 -5.9344254 2.6904285 4.263344 2.9706728 -4.3407197 -1.9812899 5.9230714 -3.3220792 -0.6709308 1.2213846 1.693348 3.0631402 2.9413037 -0.66542214
18338 1.2819428 -4.7820106 2.894434 2.931543 -1.6454382 0.7081249 1.276723 -6.3880568 -2.509195 -0.025663905 2.15204 -3.0074596 -1.0683829 -1.2538594 -0.79914767 3.1241672 -2.086118 -1.3496068 1.2192754 2.9227414 -3.5964866 -3.1147983 1.1787814 -2.7581131 -1.5609349 -0.29511657 -0.07038142 2.1272795 0.6375532 -3.5677195
19447 1.9112898 -0.08597072 1.2535081 0.65198725 0.99186236 -2.0841093 0.7180978 -3.3541093 -0.98935205 -3.9515576 2.360612 0.7634117 -5.3215084 -1.1330523 7.2439866 -2.9518037 2.2062392 0.74857473 -4.69418 -7.5459566 5.4310393 1.3380852 0.023893861 -2.9414709 9.021473 0.35250914 -0.30358216 -0.98107404 1.4071754 1.788847
8400 -0.062221915 -1.7199736 -0.6184107 2.47135 -5.351324 0.61451983 3.463946 -0.23607725 3.2177541 1.7801831 -1.1185387 -0.77898896 0.54817384 3.9696922 4.5949664 1.2112358 5.316981 0.18174522 -0.2768402 1.8212322 -7.254699 -1.4816757 2.1716812 -3.926906 -0.5602554 1.8043625 3.1754088 -0.45338959 -0.5012023 -0.6893466
18701 -0.35072154 0.32912132 -3.771042 3.4456673 -0.86234343 -0.41998965 2.6296048 -2.8227744 0.7635937 -1.0494996 -0.45734385 -2.2821398 1.0273114 -1.6408788 2.4803069 3.71858 -0.8748248 2.1767855 1.8506562 -1.7699733 -1.6923629 -0.56307936 2.8585804 -0.34851214 -3.4346914 -1.8021009 2.2027106 -0.87784463 -4.354196 -3.5129976
3956 0.02129736 -3.2658844 -1.7383376 -0.15741923 -3.3957894 -3.495277 -4.63623 1.5891794 3.0874696 -0.4822717 5.9419284 -0.89943224 1.6254014 -3.4610662 1.3456602 -1.761128 -2.9728572 1.4056259 1.9976649 1.4463558 0.4633234 -2.369325 0.94457805 -0.6690501 -4.3736486 -4.095676 -0.7095751 0.95622456 1.4806833 0.37068534
11209 3.6070156 -1.5096489 0.15533042 1.3747262 -1.2724284 3.809373 1.6644263 -0.05986757 3.1107645 -6.6930985 -0.069353685 3.3180637 -0.6403288 -4.522774 2.2309577 -3.8256981 1.894967 5.83667 -5.1856875 0.006870006 2.4268742 2.7577567 0.08385757 -1.1630863 -9.000542 -1.3973436 1.0543542 3.271042 1.1985 2.3709831
5777 -2.479945 -3.704859 -1.0204699 -2.1717722 -2.2688413 -0.6057822 0.2129963 0.78513366 -3.487613 -4.114326 3.6348808 -0.7042469 -1.6168242 -1.4541302 -2.472204 0.34414437 2.486798 -0.91994214 -0.118295945 -5.086746 -2.3416855 -1.8846288 2.2814157 -3.5543303 -3.4095538 3.425835 -0.026606208 -0.28013134 -0.54564965 2.7253838
17328 3.8948393 -5.282398 3.1440246 2.224262 0.18158326 1.3663933 1.3117608 -1.4046617 -2.859606 -1.4544834 -0.7633294 -2.3564115 2.4426227 -3.5661056 -1.638245 3.8463078 -2.761215 -3.1036158 0.4225546 3.3031209 -0.75709635 -2.9392962 3.7249362 -4.043964 -6.3948402 -0.5894037 3.9187183 -1.0985967 1.5665358 -2.5510445
18850 3.7437737 -1.2258264 -3.3700352 0.88531697 -4.2748203 4.2904363 4.7827296 -1.1883903 0.46960023 3.6015518 -3.287286 -4.502019 4.4014034 0.73049486 -0.3711945 2.458511 3.8499675 2.7935927 8.5647335 4.8647537 -5.1557875 -0.045460366 1.5419048 -6.702903 5.6062136 -2.0957067 -1.5970378 -1.1428136 -3.3486862 -0.16510797
21133 0.53109 -6.0459375 1.2201328 -0.838539 0.6118284 6.1761036 -1.908802 5.275192 0.51717573 3.5495858 -1.2247627 5.2394385 -3.8696017 -0.2473121 4.8974733 -0.40772057 -0.015668182 -2.243491 6.158373 -4.558682 -3.1950204 2.0215654 -1.3064252 -1.6269604 -8.491115 4.0341005 2.3222022 1.230841 -0.6113302 -2.012466
18170 2.1795661 1.7303036 -3.3952599 -0.32268095 -3.6497533 2.046919 -0.50290406 1.2773033 6.788955 0.5162474 0.2794952 -0.51737726 2.8653705 -6.418947 4.085867 3.3582473 6.751394 -3.3677008 3.4859743 2.570668 -4.833193 -2.9114006 3.5765374 2.8231835 3.7646003 -2.4083323 -3.7747326 2.201925 1.0478555 0.47584212
13576 -0.8820254 2.8208137 3.8044884 -6.710599 3.493139 -1.2122867 -4.6067715 -3.154677 0.5695629 -5.1184454 -1.3092296 2.3359888 3.5732582 1.1594634 2.7184153 -0.06881724 -0.6331492 5.030008 0.48865178 -1.2572087 2.3847697 0.61462915 -1.0141734 0.5593797 2.3818178 0.07896679 -0.8978318 -0.3693498 -0.7737014 -1.9853135
10264 0.72019964 0.20778143 -3.1596785 -6.3135643 -2.7553782 -2.1828914 0.60248184 5.1981115 1.7137047 -1.0732001 2.6937265 2.4313767 -3.8981826 -1.7891055 1.8647447 -2.1837842 -0.30317307 4.729853 6.506823 3.2968068 2.6639385 6.597571 0.04133559 6.2663274 8.104026 -1.4049253 0.10309099 -0.19805533 3.2063625 10.448712
11352 -2.515543 1.8427044 -2.568703 0.43166694 3.4672697 -1.8319759 -1.6727391 -1.6433669 -1.9061282 -2.0428343 -1.908863 0.03977264 -1.9148959 1.5794164 -1.4410912 -2.5193825 0.7988925 -3.0374575 1.073797 -0.747359 1.886322 -1.5288341 -3.6204062 -2.0191426 -2.8057592 -4.071715 -1.7717545 -2.631464 1.1729028 -4.842367
16399 3.145829 -2.237803 -2.0413697 -2.1610277 3.46491 1.3852445 1.2869276 -1.2999473 2.589741 -4.475676 -1.8904846 2.0824099 0.5513173 1.5467715 1.5709689 -1.3360893 -0.5194175 5.795481 -3.7512631 -3.6588032 -0.8505063 1.5913743 -1.39303 -2.1797087 -4.512829 1.5509278 2.1794422 2.373445 1.5331697 3.2099628
21750 2.5889513 -0.44368994 0.9529185 2.252406 0.19554906 -4.8038673 1.5509412 -2.103434 -5.1927986 -3.1298945 4.569545 3.8550801 -5.4968185 -2.4536629 6.746018 -4.7122726 -1.36726 3.502329 -2.0188162 -6.342782 0.6476324 6.4018307 -1.0708164 1.2799312 5.602205 0.48215312 -2.9814057 0.2938538 1.7185084 7.284754
20597 0.79554623 -5.557527 2.8976862 1.6593353 -0.30240414 3.1575062 4.4479537 1.2415847 -0.8128387 1.0397165 -1.0975333 -2.2174535 2.0617661 -2.3554766 -0.9819333 3.129827 -1.5751789 -3.0991406 -0.3395337 3.9958978 -1.344381 -3.098475 3.5051243 -4.60006 -5.9465504 -1.3162748 4.3352547 -1.6954566 0.37667242 -2.0231628
22132 0.9888089 -1.1991469 -1.1981322 -0.46544597 -0.28927684 2.2933125 6.0521526 -2.3732665 -2.887937 -1.4293314 3.6688097 -2.4727736 -0.36367163 2.171136 3.505515 0.17913911 0.7934508 1.5733287 -1.035239 -1.3609947 1.9906143 0.6705528 1.1434221 6.043664 -1.7323127 4.796195 -3.6707735 1.3798473 4.309624 3.3165734
840 -0.5510921 3.605032 -4.17133 -0.26961705 4.650496 -0.75326115 -1.5268391 -0.6750392 0.6372405 1.9203109 -4.9132805 0.3427986 3.8355765 0.16881359 3.3797903 -2.938011 2.1029034 -1.1996797 0.7605226 6.525938 -3.3487964 1.2213653 -3.2908955 1.1314677 2.206539 -6.011449 -2.3137498 -2.3118138 -4.940234 -2.9164717
11118 -4.127127 0.66766256 1.4612952 -3.9327288 0.40080652 -1.1420431 -1.3180869 2.2988038 2.1313899 0.104959205 -0.42172077 -1.132228 3.5716543 -0.6208417 0.37507647 -2.1860046 2.074076 -1.5954266 -5.7299447 1.4611479 1.2380614 -5.0007286 2.5651786 -2.257521 5.542806 -4.3947096 -5.0650277 -1.9172454 -4.258551 1.5327866
13264 -1.3173636 2.2556424 -2.089767 -3.04195 5.890602 -1.0684671 -0.12130608 0.17602968 -2.885401 0.068042465 -5.6228895 1.5604361 3.6252778 1.3206108 0.90227175 -3.423574 1.1705114 1.4586362 -0.057062265 4.2820635 -4.5230594 0.08433916 -1.4895405 -0.48282608 3.6484098 -4.3501167 -0.99585104 -1.7882603 -3.0786967 -1.7323985
9829 2.5723963 1.3693126 -2.1147866 -1.7904629 -5.0390043 0.79129225 -1.7691045 3.2027133 1.8765082 -6.450508 -4.3429866 1.3015293 -2.284637 -3.1136134 -1.0948101 0.63210195 2.8440397 4.540478 -2.6768465 3.517333 -1.9854618 2.488648 4.096959 -0.008834613 0.385597 -2.8071089 -1.8257251 2.9605474 -0.22036664 -0.3953329
11557 -6.2246366 1.1069399 -2.722111 -2.3029423 7.190211 -5.3121853 -1.9589133 1.9329556 1.4511764 -1.395249 -4.392392 4.513358 1.2846332 5.7852764 1.3724016 -6.4695616 4.1132274 0.10907595 -0.69549865 2.1918435 -1.4421172 1.761025 0.987404 4.482501 1.4671474 0.20286311 -2.7132728 3.6793036 -2.6379194 -2.1943855
13253 1.2587945 -1.3799441 3.1668837 -1.5110736 1.2257833 3.347187 -0.29907456 3.0357773 -1.1100962 -0.67300856 -0.15634583 -2.136103 -1.5168909 5.6345096 -4.4684367 4.0804486 -7.9657993 -0.3968979 9.134142 0.52779794 1.316426 -3.69674 4.9574666 4.3515754 -4.0444436 0.51118517 -1.2717067 -6.459267 2.5332017 0.11201395
127 1.1565561 3.9809353 -1.2379813 -3.6350873 8.51425 -5.070323 -3.2026763 1.755116 -1.9932631 2.4210722 -1.9235308 -0.19469519 -3.8311892 5.4496455 1.0961219 -0.426687 0.6815917 1.2265114 -4.0380526 -1.8975356 5.5546665 -2.6891637 -3.6625648 -1.3230577 2.5133796 -0.9372633 -0.934131 -3.0279639 -0.722741 1.4014127
5580 -0.15639299 1.1198848 -4.986409 2.7709725 -0.49214253 -1.141364 2.6706269 -1.7507377 1.6431028 -1.6464592 -1.2852383 -1.98262 1.467906 -2.16384 2.7383776 2.4589255 -1.0921243 1.2573489 2.1907902 -1.7072608 -1.46599 0.48055327 2.3618927 -0.099018134 -1.750183 -1.8379734 2.2102947 -1.0458208 -4.0029693 -3.1581278
17455 1.5423276 -0.5515668 0.44294098 2.1742785 -3.794631 1.856629 4.4636536 2.0260968 1.9735477 -1.4424695 1.9550037 -1.355269 1.7782546 0.57575184 2.819573 -1.901529 3.3484719 2.3840942 0.2921189 2.1679988 -6.8459234 -2.1421952 2.7927706 -0.7756488 2.5511222 -0.19976902 3.8754182 2.6826804 -0.9875125 -1.8699843
8335 -0.3665395 -5.7552037 0.5244339 3.1340582 -4.0056443 2.406302 2.3333673 -4.1842856 -2.1492474 -2.2442844 2.9100978 -4.265642 -1.8031603 -0.45913896 -3.7092397 2.4827385 2.175652 -1.240719 0.16333255 -1.0720081 -6.726006 -7.0067387 1.3282806 -3.2379622 -1.9934562 2.0323343 0.37739012 0.6349446 -0.9711734 -2.137273
3491 -0.10239928 5.1782217 -4.2282376 -1.5545975 8.236793 -2.6290455 -5.4959307 -3.861499 0.99085826 -0.5018768 -1.4011493 5.8847795 0.3287734 5.2583447 1.6284821 -2.15896 -2.0535722 0.4791244 -1.2889954 2.0404289 1.1152248 -1.4326178 2.5435548 -3.9866073 0.0011869328 0.56843865 -0.2896471 -1.9615653 0.56928843 -2.1878755
11850 -0.22550057 -0.24813206 3.2065775 1.1480722 -3.0131984 -2.2564056 2.577595 3.1072328 0.6350311 2.6363692 3.1343198 -0.28309813 -2.097089 2.6035943 -1.2112195 -0.49904415 2.2890017 -5.113993 -0.8985544 -2.742321 1.2020483 2.50054 1.9471846 -0.76290935 -3.1124508 1.2312788 -3.5339222 0.16130163 -4.013961 2.0912645
14451 1.0544597 1.2926855 0.94657934 0.8083268 -3.2674584 2.7774017 5.1344056 0.8142804 4.3480606 1.4853497 0.30420014 -4.778338 0.5959929 -0.824815 3.2081268 0.26115173 3.03541 4.862153 2.8154135 3.7309306 -6.611268 -0.20938417 1.9392891 -0.12881015 0.8038085 -0.80204076 4.995044 -0.32904014 -2.4605176 -2.0855925
6763 0.65567315 -2.0124388 3.5772054 1.031332 0.74708647 -5.220683 3.6434765 -1.7195917 -1.0013167 3.9195561 2.1178606 -0.3012131 0.4664818 14.401448 0.9483314 -0.42064413 -3.19477 0.22549064 4.74338 -1.3317969 2.202469 4.3053665 3.1253881 2.8395143 -1.5982386 -2.2804573 2.3367617 -1.7819005 -1.7426854 1.7207822
9562 2.649885 -2.0997207 1.6737751 2.732022 -2.481187 0.28067937 -0.36251038 -6.339463 -2.6407437 -1.6753874 0.46370253 -3.1395657 -0.7470421 -1.9964097 -0.15081221 1.9121102 -2.013703 -0.67872715 0.11549671 1.6737869 -2.118726 -5.220572 0.8364607 -0.5046945 -0.6704123 0.43967098 -0.45556888 2.3184092 -1.160037 -2.7320457
15183 -5.3008127 4.1124454 -0.21193051 -3.039245 -2.7070274 -1.907895 1.2290988 3.2523952 7.4136777 4.9208474 5.513906 0.080529496 1.0931184 1.2453474 1.4641707 1.3944856 5.360813 -2.1015925 1.7278912 -1.1055722 1.5276814 -4.4612246 6.808613 1.0350274 4.966768 2.3768 -6.358917 -0.4807966 0.47743744 -1.0397742
12851 1.4744145 -0.61144865 -0.19414718 1.1937433 -4.526873 1.7669569 4.001847 2.5512097 2.567705 -0.3454667 1.1243048 -2.512154 1.4972562 -0.36856884 2.2462676 -1.091839 3.8860588 2.5629451 1.5495337 1.6542486 -6.314607 -0.8349497 2.9058294 -1.3269929 2.025219 -0.75571394 3.1145036 1.064278 -1.0943083 -2.50079
4772 -0.8935259 3.4646282 -1.5390136 -0.25391504 3.7210977 -0.894955 -0.90937763 0.3127894 -3.6029224 -1.1619061 -7.3144693 -2.4160194 -0.21481276 0.111777596 -0.8098604 -1.9234244 -2.9760916 -1.3581091 1.1744112 2.786403 -2.1366584 -1.3570224 -3.2790027 -1.1165154 0.018456966 -7.4830294 -1.3581989 -0.45760918 0.9649714 -3.0815558
17121 2.639183 -3.2548404 -0.4337866 2.9415405 -1.1504228 2.410685 -2.506326 -0.17588048 1.6370578 -2.2106674 2.1761172 5.1824617 -2.2487254 -2.3894646 -0.22617029 -2.8407214 2.090368 0.9141369 -2.9299316 3.107103 1.7626679 2.6826117 4.9052215 -1.8175049 -6.576002 1.5762209 -2.3154798 5.9728684 -1.8488202 -2.1236315
369 -0.5906212 -1.9739373 1.7393274 3.7809484 -3.9420717 1.5510445 1.3321859 -6.045737 -1.3570054 -0.5605299 1.265236 -4.872222 0.33582842 -1.7264637 0.50889146 1.9691167 -0.95520973 -0.39220846 1.7307044 1.031637 -4.3425612 -3.9785464 1.3064408 -0.4422918 -2.6868417 -2.6129856 -0.758345 2.790254 -1.5377096 -3.77184
14082 -0.6004404 4.5287724 -4.2023363 -3.3108172 4.9872346 -0.7288939 -3.3891609 1.660945 0.3933256 -0.8053682 -4.0460525 0.4009853 -0.82445985 -0.5441027 1.1222861 -1.6330417 0.67536443 -3.04897 -2.761086 5.4608364 1.9422066 -2.038649 -5.6588054 -1.0693119 2.0314012 -3.0780594 -0.805719 -2.2565513 -2.637304 2.896004
293 1.3620067 -3.0214396 -2.701563 -7.856789 -4.1894903 1.2782979 1.0115591 -1.2702899 5.7061625 0.22476627 -1.0329902 -6.7277145 -1.1678022 0.6855665 0.06192865 -2.6130598 1.7158264 0.39501545 -2.6101334 3.8211975 -5.282041 -0.05674707 3.7694154 5.2637863 1.6387968 -4.383832 3.5307953 -0.1937781 1.2808496 4.671887
2897 -1.3301291 -0.7891454 4.7326922 0.30751407 -1.0777763 0.45476642 3.3105907 -0.43207833 -3.1174593 -4.066016 1.9101946 3.6939201 -4.2886047 -1.3319681 1.2710711 -0.86878407 3.1602528 -0.19643533 1.5150728 -1.402474 -2.2343736 0.110396616 -2.0621653 3.5147803 -0.99283713 1.9293705 -1.5305929 -1.5553231 -2.0757895 0.23884073
8540 0.18731168 -0.2777185 -1.4351062 -3.7868276 -0.13791257 -1.8813368 0.63650286 -3.8125103 -0.5529055 -1.6711011 -1.6054727 5.015418 -0.5177355 0.81482154 1.8787854 -6.618811 3.4056664 -1.1231029 -5.0839257 3.6583831 1.2679896 0.039703358 1.2682852 3.5636828 6.81387 -5.4966836 3.5148287 -4.5061355 -2.072256 -5.7256565
12288 5.90466 4.994559 -4.1224403 -1.3873755 3.9159718 -1.3888288 -1.7607703 -0.7185828 -3.5383728 -1.629583 2.5589347 2.261626 1.0597699 3.4042504 0.37578216 0.35294923 -0.3471007 6.3052716 -2.6436446 -1.987166 0.087158784 -2.2480404 1.1224737 -4.173355 2.5999112 -1.5942587 -6.5096803 0.3697746 2.8247883 2.3410614
1466 -0.60923755 -0.3018105 -0.057580214 -5.5450034 -2.034629 0.63578933 3.3076024 -0.8527919 0.6613455 -3.9669483 -3.2981722 -1.2512487 4.9368534 0.74827033 -2.5000565 -1.5952445 1.2986642 -0.25764653 2.826822 1.961236 -9.01712 -6.553301 -1.590452 -3.273538 3.521877 -0.6912936 5.6941123 3.7017503 0.38380787 2.7797184
11797 -3.5106826 0.67329484 -1.6631413 -7.7499976 6.357143 0.15483156 -3.491037 3.0066473 1.4265845 3.8311257 -0.31018928 3.872127 0.3970387 3.4143386 0.87529 -2.1028996 -0.6833136 2.6868658 -1.3340567 -5.062832 5.6072717 1.3552712 1.3712348 -4.718125 1.4515053 -3.4817264 0.43444404 -1.1945735 -3.8471296 0.9131046
15867 2.4215653 -2.295703 -0.8486271 9.489437e-05 -3.231837 -3.663466 -5.8230147 2.3099804 0.6755747 -0.576869 4.7460575 -0.54500854 0.3064454 -2.690033 -0.38310957 -1.799559 -3.6403306 0.3912642 3.9946296 1.5169125 0.38154754 -2.1151836 2.260158 2.4286244 -4.6790066 -3.4598296 1.28718 0.78840166 2.3639529 -0.59918475
22056 3.13802 -1.0022645 1.5200957 -2.1769338 2.329346 -2.182338 -0.32304677 5.6039705 -0.73803526 -4.885322 -0.35050339 4.4387603 -3.706731 -1.353624 -4.4861875 2.951927 -1.6739488 -3.3776348 0.39236498 -0.6846393 -1.5486183 -0.30388018 -3.1846478 -2.7550979 1.3202637 -0.8530618 -1.0130123 -0.6857885 -1.895726 -2.4966426
13385 4.3596525 -6.93985 -1.9961867 -1.704336 -2.1003616 7.065155 2.1886978 -3.2546613 0.8407811 -1.3832955 1.8449042 -4.421804 -7.112964 2.2401476 -0.8341066 1.9897606 -0.107670374 0.6887047 -1.9674939 -5.989032 -2.295637 2.673538 -2.6090446 0.65909016 -1.3552425 1.7137631 4.1262403 -3.9829907 -7.0920515 -0.78261894
12521 2.271842 2.038923 -3.4703298 -2.4136808 2.8356087 2.8674288 -2.3216057 -0.0330405 -1.253167 0.840595 -4.4456472 4.930224 0.24118483 -0.3337737 4.4093795 4.3295183 1.5109552 -4.2575183 1.5420736 -0.58390194 6.480419 -8.773392 -2.1653547 -3.7197123 11.68766 1.5643349 2.8935165 -2.4945846 -1.9417956 -3.874993
14561 -0.14424402 4.742953 1.8021129 -0.2798735 7.2651253 -3.1129203 -3.2935975 4.8387103 -1.2779822 -1.6249945 -2.8785338 -4.2646255 -1.8891143 3.114883 1.7362993 -1.0584565 -0.41175002 -1.945817 -0.26526126 -0.9352436 0.85728806 -2.1273053 -2.9542904 -0.6090216 0.44361869 -2.1596327 -1.1467689 0.11682797 1.9005909 -1.8808678
7091 1.7132338 -3.1924722 3.3105583 4.8417683 -3.1421483 3.4502523 4.128041 -5.600925 -1.3789996 -0.922585 0.73922646 -2.6682136 -0.8935848 1.058646 -1.4705956 3.572884 -0.6722542 -3.163902 1.9057723 2.1658194 -4.636613 -4.720486 -0.22446889 -1.7976913 -2.253511 1.190711 -0.4011776 -0.6821662 -2.2241218 -3.5331182
11364 0.20570552 2.0542562 -2.3450952 0.01488981 5.894902 -2.634043 -2.4172509 -2.218869 -0.8686637 -3.1592095 -3.3825433 -1.7566377 -1.8634912 1.8008544 -1.574551 -1.8090072 -0.71503973 -3.7479806 -1.1870053 -4.6240845 2.6991692 -0.5223992 -3.0091262 -2.185025 -1.761466 -5.504225 -1.7142291 1.5852667 1.666723 -2.337256
18642 1.2260475 -2.5179455 -1.5625488 -1.4316722 0.12355152 4.601662 6.2372785 -1.4502013 -1.0272756 -1.9198375 3.2470183 -1.8054559 0.32981735 0.80075556 2.9435818 0.91543394 0.031160459 1.0733935 0.5508355 -0.22218013 0.5925236 -0.530596 1.0777491 5.7712493 -4.244757 4.6310835 -3.182568 1.0661783 5.419254 1.8003076
13267 1.8226634 -4.2823086 2.319045 0.88062054 -0.41402644 2.2945986 2.5507586 -0.40175232 0.4336171 1.1989145 -0.83362377 -2.395638 1.7415714 -2.7849324 -0.768175 3.8813763 -3.5015786 -2.071476 0.1187309 3.812966 -1.6175977 -2.7796426 1.643453 -3.4439206 -6.480698 -0.98349124 4.7763767 -1.0891048 0.55422163 -1.8644779
9504 -2.5350327 1.8452799 -2.6801312 -1.020397 1.153837 -2.1923652 -1.365208 -1.9151356 0.14562829 -3.058306 -1.9840667 -3.0288177 0.38324872 0.21342523 -1.5907779 -2.7215343 0.44345984 -2.348643 -3.5582762 -1.4684834 2.2266717 -1.3445622 -3.0734048 -2.9565616 -0.34473127 -6.4770145 -3.2464454 -1.6351388 1.3228072 -6.238534
21438 1.5441388 3.854768 0.7193467 1.227153 -0.09373826 -0.8517638 1.3739406 3.672186 3.9397929 -3.8619552 -3.6437774 1.335262 -8.0056 -5.1370897 -0.813795 -3.789491 3.3723748 6.6236835 -3.0401654 3.7589386 -0.61812925 4.018146 2.0064983 0.14453912 -2.236802 -0.062388636 -2.9574177 3.8789651 -1.3899473 0.3469579
5280 -1.0231913 0.87564456 3.813503 -5.7115955 4.856681 -0.7466683 -4.5564065 -4.0231094 -0.18355304 -4.4017053 -1.9894898 2.2211726 3.2587204 0.15710177 2.4987829 -0.5323267 -0.65266865 3.7914438 1.6199317 -1.3502682 2.8742 1.4918703 0.2665381 -1.3560135 1.3531739 -0.65262705 -0.7928423 -1.0939038 -0.07902006 -1.6898246
11248 1.0958436 -0.8855588 3.3151135 0.9818826 -1.6190326 -0.63227624 2.4034092 1.106613 -1.9753473 2.1839337 4.6309967 -0.53450656 -3.9880576 5.830368 -1.4326739 -2.1701925 1.2120754 -2.428685 -2.3250296 -3.8371081 0.07110375 2.410378 1.5400246 0.10545274 -1.4469975 2.3613212 -1.9680659 1.6424311 -2.866939 1.1666299
2514 3.6691072 -2.004564 0.29212096 3.2505696 0.9229313 -5.2658095 2.1993704 1.0518985 -8.3489065 -0.57278854 4.3380475 3.331073 0.62834203 1.6628934 5.697994 1.150881 0.5006965 3.6942647 1.2718217 -3.5997324 4.5097423 3.6080515 -0.75156844 3.6511216 1.9495572 6.1056776 -4.8807464 7.3262444 -1.4095469 6.041738
19415 1.6145366 -0.6234422 0.2650754 0.5865547 -4.2853684 2.0531645 3.5766962 2.138899 2.295991 0.193848 1.2925493 -2.2350395 2.2620032 0.10989355 2.5507965 -1.0754778 3.453143 2.6048102 1.3568449 2.07325 -6.877544 -2.3070683 1.3357011 -1.2012371 2.2192426 -0.37874246 3.8822706 2.044278 -1.0883623 -1.9939598
4818 1.610877 -2.8568206 3.044547 3.1663353 -3.1271749 0.79691607 0.4383458 -5.52115 -2.5337439 -1.2801477 1.2003195 -4.0166874 -1.3940237 -1.7778759 0.019848447 1.5121268 -1.4601862 -0.50699437 0.7434926 1.5036157 -3.6308043 -3.872152 0.38664994 0.018447196 -1.7714764 0.48217043 -1.1476041 2.8534052 -0.525836 -2.9849834
1330 -2.6634939 -0.5871408 1.8298692 -7.3846483 4.3630276 -0.028465245 -4.6790843 -4.864175 0.06714893 -3.7691236 -2.28844 3.0878828 3.893796 0.043460116 1.9383812 -0.845557 -1.3091139 5.9505467 2.0465784 -2.3259048 1.933515 1.2918397 2.3190525 -0.0755364 3.3797305 1.8622082 -2.1564074 -0.9642414 -0.5542731 -0.31458363
1041 1.01562 2.3981836 -1.9581803 -2.9481027 4.683843 -2.0182543 -0.7816129 -1.1524297 -1.5060267 1.7486548 -7.9332438 0.88492453 4.12934 1.8047972 1.2497476 -2.8825834 0.3003082 0.99373037 0.8565718 4.203253 -4.1451993 -2.5766373 0.17574231 -1.1123255 6.717088 -2.0800445 0.49407604 -2.9511456 -1.7234157 -3.355364
16602 0.43977448 1.0710964 -2.7965717 -4.4526 3.6448486 -0.60721076 -0.52601564 1.9386787 -0.3830042 0.9755164 -5.9043803 -0.3862422 2.1299312 0.4646091 -0.7431616 -3.5468547 -0.04774488 -0.5648184 -2.4356215 5.923995 -5.285863 -0.10742666 -2.701021 -0.4521449 4.7198515 -6.145077 -0.27234083 -2.7859483 -2.832184 0.40604043
