8775 10
21729 3.6765993 7.535359 -6.5304117 -13.231489 0.56645566 1.5164925 0.45175135 -1.5900385 -0.84534967 -7.880773
19743 3.8193789 7.4465237 -6.2558255 -14.048737 1.4807256 1.7232594 1.3125598 -1.9590206 -0.88168377 -7.9203525
14497 -1.2090851 10.526389 -4.450475 -9.179546 3.1372142 -0.37885302 -7.2015333 0.24879198 2.5951774 -9.744132
1387 4.668711 10.285133 -2.2513692 -10.971355 0.8540039 0.7862203 -4.323991 -1.542134 3.7853966 -7.7613516
21120 3.7369971 8.919456 6.9115953 -1.2817069 4.69664 5.1522965 12.349881 -6.157334 -0.6074055 9.229099
13294 0.6051065 9.704689 8.087678 0.53610086 0.98414433 3.8015363 10.73823 -5.6632304 -1.0863278 10.4564085
8139 2.7232056 7.6701083 -3.7419991 -7.8340354 1.1023912 2.3001447 -6.542231 -0.63710606 3.15419 -9.015904
14650 13.219679 6.786315 9.082148 -0.1789174 7.5416985 8.166435 6.655231 -3.9844851 3.6202772 13.411143
8883 6.593713 2.151267 -7.6684475 -8.803817 -0.29229358 1.4615325 -9.55398 2.0162606 3.8024411 -10.03691
20415 10.222636 3.9507427 4.4094 -11.589829 10.461254 6.3160505 4.851264 -6.6642566 8.388131 5.246174
11332 7.8495207 7.1728854 -9.479581 -8.00598 2.9620461 0.3431744 1.9330461 3.0692642 -0.56922066 -10.104057
9220 -0.4270965 7.5275135 -3.630725 -8.450738 2.0462897 -0.47631925 -6.343609 0.82748574 0.62479514 -7.945564
18966 4.2326207 7.821421 -5.8396163 -5.9376345 -1.3129164 3.8508043 -8.608767 -1.1388111 2.4888024 -6.275617
16809 -0.42867577 7.8355794 -9.387926 -4.339236 -4.6413355 8.239337 -7.4116254 -4.9915824 1.0962454 19.659988
18906 9.143776 2.8399215 -9.821258 -8.392136 3.2996323 -1.4477483 -2.2800043 2.7954986 6.8392286 -4.6803718
5212 6.9846964 -1.1930628 -6.21136 -13.292397 -0.083767995 0.9352783 -2.9839063 0.25908303 3.625154 -5.8630996
16977 3.0271506 12.903307 -2.3874633 -7.1492147 4.169859 4.2409034 1.2685559 -4.1855817 1.5862721 -3.8087425
12464 -0.39466253 6.137654 -5.5733957 -7.0130377 0.17428076 2.317256 -8.423898 -0.39333892 2.806894 -9.661853
8482 3.3514893 16.620325 0.30321658 -5.930498 3.1671162 5.8780804 1.8597846 -7.509164 0.91963315 2.7926702
20276 -0.35034516 7.8411508 -4.1044717 -7.8762774 3.7521532 0.012742005 -5.042473 0.11272671 2.5597079 -7.075373
18155 11.220485 9.08603 10.245842 -6.460368 4.8882656 0.9435422 3.7400856 -2.542314 3.0699117 10.378744
9176 1.4922736 9.58499 3.8702993 1.5883728 -1.4786087 2.8572168 8.89737 -3.107699 -1.3854939 7.3098354
961 -0.13145924 8.520852 -3.0097752 -6.7459702 3.3985696 0.3032641 -4.3340282 0.07313328 1.9258026 -6.462117
17384 -1.2506721 4.1675606 -6.086643 -8.72366 0.724621 3.6802106 -7.7751136 -1.8701365 1.8619294 -7.9305625
17726 2.15258 3.4456792 -5.8258295 -6.669404 4.7249913 0.66734844 -5.755295 1.6293247 3.2044728 -8.864516
17983 1.0103722 3.1503046 -9.1032505 -2.514976 -0.27382323 3.0724747 2.1641319 -0.07423305 -2.7219946 -7.898081
7467 4.198112 11.720776 -2.30064 -6.484589 2.475121 3.5065763 -0.3705335 -3.2844975 1.7714705 -3.1538312
18216 6.4549546 6.9240317 -5.2985168 -4.7641873 3.1307163 2.9798715 -1.7586377 2.4488206 -0.621797 -12.23298
6441 4.3294444 6.090235 -4.071386 -11.470372 2.0266492 -1.6942482 -4.0680146 -0.19299234 6.1934714 -6.1827145
5183 8.613091 1.8120925 -10.30131 -7.8472934 1.7358029 -2.9961755 -1.5425582 4.5205045 7.648482 -5.6239734
17402 2.4976473 10.476849 -3.0707643 -6.0651083 -1.8858212 2.6369326 -2.608498 -3.0087674 3.8767605 -5.9168787
3735 5.692743 3.3281474 -9.2122135 -9.482309 1.3771002 3.7497582 -3.4607627 -1.1701798 2.0076206 -5.330585
7362 -1.0838765 17.798605 1.9420043 -0.7167793 1.3525021 -2.3099716 8.231788 -2.2591174 -1.1164447 9.018155
3070 3.66625 0.26440024 7.163127 -0.50913745 6.180498 -4.559215 11.968388 1.9835786 8.859159 5.2010617
6045 1.1856234 7.5291142 -4.4448256 -6.8351626 4.282896 0.97318745 -2.6397288 0.27957532 0.17870288 -6.384431
904 2.4262521 14.416905 -8.064394 -3.7849555 -3.5085292 4.98308 3.6480918 -4.71128 1.9800475 -1.0664631
19792 -0.9102631 6.9696636 -3.7828035 -6.8786044 4.6234264 0.54499274 -5.061057 -0.40904367 1.9924735 -4.8697915
7663 7.251415 15.051352 9.380681 -6.363915 3.7956283 -2.8141174 7.7011266 -2.7109702 5.345441 8.830718
13098 5.3326774 -2.1582499 9.212341 5.8479285 4.09754 6.596015 15.238742 -3.4461727 1.6711355 13.15158
17386 1.6273459 9.122896 4.0640745 2.982052 -0.92715144 4.870305 9.245887 -3.3972864 -2.240625 10.15091
2597 0.4051567 3.2432353 7.0129642 0.94882005 -1.2598711 2.7739758 4.548537 0.34564948 0.37906536 -10.476521
909 -4.803549 -8.259362 -8.5696 -3.2985542 -3.593118 4.267394 -8.211682 2.9146483 -0.6760002 -18.088985
8505 1.5765387 15.229199 -2.1044645 9.498334 0.0665068 1.9426341 -5.7279096 4.899682 -5.009172 9.222463
2664 4.8681684 11.122827 0.61974704 8.987626 0.9234357 -1.7640315 3.3217297 7.38458 -5.655203 8.852577
212 7.2890415 13.459856 -0.44241026 10.767654 -1.6674536 -0.81768435 -0.2926556 8.919222 -5.211207 6.532737
16427 2.6695747 1.6233971 7.401468 1.6449771 5.9355407 -2.2913482 10.557079 0.5448537 9.310607 5.147451
4499 3.206556 -0.010223815 -5.9538245 -12.193177 4.1855545 0.14399958 -3.2628913 0.5505682 1.9225832 -6.9084144
11719 2.3751006 2.490877 4.731936 -1.8722271 4.7899942 -1.1402245 11.935131 -1.5127363 3.2484293 6.355594
4296 -12.82656 -1.4529814 -6.6319795 5.3898335 4.3639336 4.1837673 0.9780554 6.0410943 -11.800861 -13.155949
16093 2.1560273 7.074248 -3.0419948 -6.6031733 1.3715785 3.7979906 -6.1072288 -1.7369533 2.5678296 -6.742037
11611 -3.930951 4.969419 4.384068 9.323545 -7.0140133 7.1731076 2.231772 -3.1337209 -3.793531 5.7670507
19992 0.9754301 8.996156 -2.1751654 -4.734858 4.1713004 3.6127174 -0.42741328 -2.7663157 1.5464902 -4.6946764
3973 5.105577 12.254979 -1.9871277 -8.363878 -3.392268 2.2602928 -1.1304357 -4.711253 1.802762 10.34153
17370 4.5120454 9.580988 -1.2425039 -11.63145 0.025459262 3.8594522 5.007094 -2.4566412 -1.7776175 -6.7591133
14031 7.892463 1.8950905 -2.4881814 -12.360233 1.7336252 -1.5300955 -0.35796115 1.7742864 3.0108244 -6.9034495
12677 -3.373724 -10.86795 -7.913503 -3.2773619 -3.2340994 1.8076876 0.9746597 1.5116138 4.8652024 -11.247716
6806 -1.1074103 6.7607446 -3.7464945 -5.072836 3.7993171 -0.044715606 -4.354379 0.59331685 1.92326 -6.0251107
4907 7.873204 6.3781767 8.083704 3.9044056 -9.69682 0.7230637 -1.9328331 -0.82731664 6.6688294 10.040883
20632 7.400455 0.15301497 -11.240205 -6.192576 5.2320714 -2.2650728 -2.0383787 5.552093 5.026725 -5.175938
8153 9.240991 3.7513883 3.2362378 0.9884733 5.250406 5.412018 8.236405 -1.6257976 -1.1113951 12.671504
22403 -6.9146123 -5.2347555 6.969268 12.263742 -10.447114 7.976752 -2.0036113 0.07898847 -3.2212486 5.863031
19870 4.864174 8.7280655 -3.2644205 -9.416524 1.6277057 0.92380804 -1.732933 -1.8473605 4.645808 -4.910867
19000 0.40180802 7.0465508 4.9756994 0.6484734 2.048942 4.8422146 10.12785 -5.457756 -0.08188239 7.9719815
19448 0.7163561 11.322151 2.6458268 -4.06013 -5.0271797 1.7250556 1.5099642 -5.4115963 1.5107727 9.57337
8351 3.410624 1.4107461 7.0474844 1.2776428 5.488225 -3.4664588 10.210827 1.6075339 7.036096 5.417089
1827 6.5652647 1.250611 -9.1570215 -8.102485 2.3433378 -4.915793 -1.0964943 5.1387687 7.3340306 -5.2802854
14790 -7.1513405 6.0817018 5.586741 3.1183949 0.45655116 -0.9003254 6.534777 -0.28235108 -0.32158923 -5.349113
1193 -7.154314 -6.9990377 7.135582 11.389952 -9.491948 8.5572 -3.1042473 -0.21804358 -3.7628357 6.328824
5622 -2.4089537 5.335276 -3.6427958 -5.859001 1.6369165 0.5823224 -6.4984365 0.14481439 1.7379017 -6.701709
20559 3.517708 -1.7319349 -8.879559 -7.946841 2.5333745 2.1834106 -5.2413216 -0.7297994 6.0198927 -5.0969343
9359 -4.6146398 12.104944 -3.2077289 3.5058682 -7.784111 -2.309249 -9.034351 1.7009722 -1.7301327 5.590826
17392 -3.4557364 -2.086318 -5.26126 -3.762422 1.674505 0.4530244 5.4682302 2.044557 3.4687414 -16.746883
20343 0.04299393 6.4519353 -4.2437983 -5.9857893 1.8731127 0.786989 -6.0495486 0.30868566 1.8828877 -6.065911
710 -0.71744883 8.41393 4.3720713 4.1980796 -2.976737 3.2710526 10.175245 -2.187741 -3.1158853 9.021574
22100 2.041526 2.0917943 6.3133903 1.2824523 4.761253 -1.9712555 9.078134 0.07474854 8.7983465 4.3307676
4003 6.925578 4.7360606 -1.1024334 3.7186093 -5.6446724 -1.3149536 -3.8575191 2.8948636 7.6478257 -2.625294
21231 -1.0635722 5.0813227 -4.5055614 -7.844788 0.041391842 3.1033983 -6.3859286 -2.1707423 1.4206743 -5.651089
9164 2.342948 2.2841678 6.939213 0.8255402 4.7702065 -1.1059653 9.957764 -0.41676703 6.4426956 4.4540057
15114 7.326254 3.5944214 -7.959571 -7.4854326 2.668492 -3.973499 -1.3116179 4.921134 5.4579706 -4.426991
3533 -7.6290565 11.848649 5.9129744 -0.8713797 -9.92127 9.4548025 2.3265266 -8.733757 1.8973267 -3.9277503
18856 1.6085467 8.637813 3.0157242 1.5927093 -1.9229138 4.708134 7.63714 -3.3120115 -2.365095 7.7690835
11585 3.9208736 3.5096955 4.907936 -0.22387405 5.6603622 1.0879526 5.5900855 -2.045688 8.796193 1.4127434
8216 2.0026443 0.8489138 -6.5995064 -8.184833 1.3331504 2.4262354 -13.637221 2.3677793 -1.440027 -5.0080585
7961 3.849968 11.911454 -1.9292086 -7.711908 1.7953377 5.5964203 3.2631075 -4.560889 0.7572347 -5.3205442
1783 -12.026218 11.808359 9.657764 6.3582554 -5.831236 -3.6806645 6.497093 1.1075263 1.9676104 -0.49067965
15963 -1.4978073 5.2352448 -5.1764517 -7.875225 1.4877869 1.8142792 -6.6115923 -1.212229 1.1965301 -4.108807
15763 -0.3441395 7.9850755 3.749268 3.4675455 -1.5296781 3.3842216 9.349952 -2.5181782 -2.0561886 8.103345
3838 9.091057 0.6798341 -0.6749618 4.69431 -3.9750326 -2.5740361 -7.2633266 9.446776 5.156907 -7.719875
17148 8.522545 -1.4788172 -4.541754 -6.583111 2.041767 5.06357 -4.4759235 -0.1721912 5.8225393 -10.640067
19135 5.0645046 -1.1352932 -7.2105374 -8.71589 8.888667 3.3358126 -0.8708498 -0.5232781 3.619478 -5.8023467
6926 1.690375 7.125713 3.9575584 3.843601 0.70054513 3.0432835 6.7402935 -2.4781249 -0.89261085 9.66464
8993 6.531182 11.640507 5.176985 -5.196895 3.4162016 -1.0064911 7.172493 -2.5652928 3.4465191 5.798005
1372 8.359042 3.9600732 -5.9536576 -10.432969 0.6347476 -0.5606856 1.8724828 0.9332475 2.1122768 -3.0402007
6189 1.7673732 11.2690115 -1.3774103 -10.213201 -2.4158332 1.500608 6.264817 -2.5408702 -0.27044138 -6.565603
2311 -1.3898256 1.8811616 -3.3795717 -4.3302794 2.9143567 -0.13769716 -5.386995 1.9964025 0.28252032 -7.5288353
21088 5.332751 10.613391 -1.5434678 -7.0361667 6.787044 3.915994 6.0221834 -2.556872 -1.1581144 -4.5335917
5513 -0.6664353 4.6278095 -3.3127744 -7.004687 -0.71763283 -3.094623 -6.6885214 2.0056376 3.3469877 -7.6430316
11538 -0.7909109 6.3504176 -2.5657246 -5.066221 4.960506 -0.15840684 -2.940179 0.8189852 1.5644138 -6.5926323
481 -12.218927 10.699711 2.7302852 1.9942169 -7.1906443 -0.75215816 -2.6446478 -0.80733746 -6.7616906 4.3033385
365 0.079649985 5.933755 2.6511474 13.011862 -3.1311371 6.463856 -5.7759337 2.902541 -5.483108 4.5853024
61 3.1724713 1.701763 10.258869 1.0498091 0.012435277 -0.17172135 4.5365295 4.5538416 2.4991674 -12.271467
7015 -0.09409579 7.955736 5.851314 3.4848378 -1.0673666 3.8865674 7.716926 -2.976312 -2.489332 8.27832
3300 -7.1013837 -5.157624 6.8291087 11.322091 -10.189057 7.478695 -2.158824 0.6592992 -4.4105973 4.5165524
21496 0.60586447 4.805303 -3.562922 -5.746567 2.3357174 -0.6200875 -4.8540335 1.3763311 1.9408342 -6.445805
22438 -0.07732758 4.47751 3.3245487 1.8897681 1.853293 2.682928 12.959341 -2.4575946 -1.8373265 7.848192
2942 -0.49408564 4.136818 -4.8136673 -5.5706153 3.506449 0.4597688 -4.2825828 0.2839232 2.6547017 -6.422682
17598 0.14779836 7.5986705 3.8633428 4.055885 -2.7063532 3.7142372 9.235882 -2.1839762 -2.6595082 8.424919
8348 9.728396 0.43313283 9.013731 0.23962688 9.6603155 0.3411338 3.0781345 1.7357622 6.1428246 6.5029883
9677 -3.8944821 1.1001959 -5.69366 -4.685897 0.63162446 -0.30685928 -2.2949438 -0.4517776 4.498588 -9.882722
13441 1.3064474 -1.0651796 -5.156836 -12.021078 -0.6814341 4.1878457 -0.7063157 -4.8371468 6.2503047 -8.127753
16618 5.034212 7.8439755 2.1070755 -1.0844891 -3.5927062 0.23227522 6.920366 -0.88068014 -2.4104714 1.0361468
19562 2.0437438 10.253232 -2.1185024 -4.173893 -0.6321142 4.950325 -3.5326674 -3.0146616 1.43946 -4.9760222
12936 -1.8751357 5.280549 -5.9674416 -4.500601 0.28545877 1.4301226 -5.882043 0.9224461 -1.4942666 -7.0162897
15362 -7.1681285 -6.1638427 7.0217032 10.394897 -10.2552185 6.2517858 -1.7151113 0.29379803 -2.2286816 4.639201
17502 -0.19529442 8.14688 -3.0350754 -7.575489 -8.85867 2.7404203 -0.84734905 -6.2600574 3.7378407 4.311824
4518 -0.15400279 1.3478742 -6.228541 -7.3676686 2.459955 2.7426078 -9.774694 -0.0038094497 0.45003265 -4.3961263
17247 -2.83981 10.292695 -7.732326 -0.08053972 -3.9885387 4.949392 5.886466 -4.104564 2.0840495 0.32897532
7093 -3.0363247 2.3659194 -2.4979517 0.23597762 -9.967382 -0.4663602 7.72637 5.7709084 -9.893936 1.2911259
15470 -9.313524 0.29862207 2.4444494 3.96808 -9.295067 8.341573 -3.8376439 -4.753341 -1.9767045 1.5267034
6213 -3.2858284 -8.812053 0.33419675 -2.02765 -2.041859 2.8509796 -5.356078 5.9942613 -5.8084846 -15.768439
21325 -3.9312308 10.120424 3.8322232 0.89336103 1.5349959 3.823662 7.0506554 -3.82564 -6.1180506 10.335425
13525 -7.871645 9.901036 2.8127718 2.371149 -6.389779 13.031461 1.4118696 -10.242415 4.1292152 -1.9585199
11644 0.4205135 6.5909014 -1.1966559 -4.816281 -0.34965932 -1.7598599 -6.122297 1.0607548 4.2202888 -6.2313986
11149 7.8554378 2.957757 8.202523 -3.2207115 9.437607 1.8141787 1.9588796 0.079329684 3.5747852 5.379217
4786 5.097734 1.9316775 -6.9621162 -10.842053 4.3815713 5.2564597 0.5296152 -2.646138 1.7385625 -4.593249
11710 9.086266 -2.4479573 9.4448 -1.7730616 7.505163 1.4176126 1.5405804 1.6665628 4.742932 6.1840568
8519 3.5596547 9.529814 0.38574815 -10.274544 0.16641903 3.4080932 5.4095454 -2.5170019 -2.0922027 -5.2573624
1921 1.2102262 4.4026723 -4.1112223 -6.157496 -0.4628567 4.2946954 -6.4849944 -1.6692569 1.9047986 -6.4069104
16368 -1.4221842 8.271813 0.58110815 12.49011 -1.2150698 5.1183214 -8.679215 2.8254917 -1.2304842 5.0442243
3160 3.8139331 5.0591536 6.71115 -0.83136654 5.6626263 -1.070256 5.6949873 -1.0672865 8.536311 2.5348835
14981 -1.6129609 -5.9649105 -11.643251 0.39553005 -3.4131656 5.410546 -9.757973 1.0848304 4.907563 -10.165619
16721 -1.6961279 13.829384 0.54672456 0.5867292 7.0753417 6.0510826 10.860998 -5.1422005 0.34778854 -0.251822
12783 1.4440341 2.3331327 1.5385135 1.0417286 4.002454 -1.1517193 9.945288 -0.6455549 6.494226 3.5710313
2078 1.3733807 0.23296851 -7.8464336 -11.389817 -1.0048863 2.6142704 -5.5236273 -2.3728828 3.341608 -4.2227583
19275 3.832163 8.150137 0.51788455 -10.989746 0.16475119 3.4229221 3.5302105 -2.2403603 -1.4316491 -6.4707255
21922 0.5495032 6.5828133 -1.9402868 13.472626 0.74257946 7.120002 -7.679565 3.8473544 -1.3684942 4.044604
20342 -0.6683138 9.009498 4.433164 2.7216244 -3.0695443 2.4429314 7.6845326 -2.8464544 -1.7528338 8.718149
9138 -0.24589163 11.922484 1.4026464 8.5359955 -0.84787524 -0.079704866 -4.2435203 2.7800295 -2.6125946 10.69544
17860 -6.399901 -4.9396462 4.2192936 9.385904 -9.422764 6.5821233 -1.8310784 -0.008229436 -3.423053 5.924294
21489 -3.1869752 -9.152541 -9.334109 -1.4528937 2.5786045 7.8761415 -4.194491 1.1530774 1.7328595 -16.373037
5307 4.3829207 8.174389 -1.5049754 -10.725129 1.2925565 4.4928756 5.3699117 -2.4420354 -2.203332 -5.974291
18645 -2.8035696 7.19176 -2.6884623 -6.287363 3.2026775 -1.351729 -4.3634787 0.17631117 2.259981 -4.9184546
15076 -1.5395093 3.1486332 -5.461298 -7.740105 1.8332745 2.3663175 -6.1046753 -1.8813664 1.9017682 -3.9807193
16466 1.2527385 8.255973 -3.6676068 -9.672399 1.5952119 3.8414292 4.654031 -3.0461955 -2.1172566 -6.1839232
14257 5.6730933 7.55023 -0.9071133 9.784704 1.597722 -0.36632407 -1.3719455 10.177003 -7.4342756 7.3474827
11550 -3.6488452 -4.921677 -7.421664 -5.9504766 1.5134996 0.35116154 2.450449 0.7249738 7.9376674 -13.215331
11277 4.3111 10.6765175 -0.10647781 -7.5319524 1.103363 5.0039306 1.6672089 -4.3945546 1.9383051 -5.308157
11775 -0.670708 8.522957 -1.219578 -6.3420124 3.0313973 1.4627275 -0.9078536 -1.3336658 -0.35058448 -5.331564
19063 -0.9413226 6.121458 -3.8649776 -4.5666595 2.3517845 -0.8820362 -4.4300237 1.4201559 1.7728581 -5.92076
12280 2.838632 6.629399 -1.9027025 -8.83784 -1.4006809 3.556981 1.6559888 -2.9847488 -0.38986802 -4.970516
12666 -0.7978585 -0.7439603 -13.661493 -11.00812 3.3908458 0.6519885 -1.4656217 0.39650714 2.8979511 -5.657191
14659 -2.4050574 7.210563 -1.2161424 -5.4358134 2.972107 -0.05147207 -4.359992 -0.5618961 2.410954 -5.3293185
2051 0.5687363 -3.7112815 7.018274 -6.4106183 7.5380626 1.7486324 13.395355 -1.947781 -1.3480757 6.3449483
4738 8.800384 -0.91243917 1.5600281 5.8683553 -2.696519 -0.20408368 -10.25248 9.571376 2.8097553 -5.2961373
19231 7.747682 0.7783013 -6.092752 -9.216363 1.0875487 -2.798051 -0.7460596 3.2926912 4.1764994 -2.9077106
20046 2.8504791 11.591321 4.502677 5.995601 -8.713254 -2.00058 -3.509571 1.8664582 1.2843486 5.4810367
7983 5.828282 -8.887594 2.3271122 11.49233 -5.478985 -4.715296 -8.291559 12.131079 3.5439754 4.245325
2114 -3.0430832 -12.247498 -13.916627 4.649661 -3.474252 0.16939035 0.8454859 8.781428 -0.114736736 -10.300453
8585 -3.7427301 -8.612937 -12.366204 0.66477185 8.552287 -5.494828 -3.430638 10.381476 2.8918731 17.455246
5187 -3.8702304 11.308457 5.425798 -0.8331426 -8.439579 7.4056897 3.0468588 -6.826675 0.116852656 -2.7970417
18777 -1.9135683 7.690562 -1.4689128 -4.20915 3.9652746 1.021453 -3.4131896 -0.7842358 1.9214588 -5.165477
21663 -1.4313006 13.992635 -1.8620994 -8.171042 -3.0689147 -2.4197316 8.849022 -0.20187826 0.27637228 -8.639067
7157 4.928063 13.822421 0.22272581 -4.697768 -6.0258474 2.9516904 -2.3079205 -4.3230863 0.5539188 9.590224
7325 -2.0600104 4.7477 -2.9769065 -4.881189 2.7012925 -0.15678373 -3.6991909 -0.075154625 2.373992 -5.0532904
21713 -6.7786546 5.462057 -6.6030483 3.2925353 -9.446398 6.4951344 0.95226085 -4.3166723 -0.90138704 1.3924927
5064 7.2624936 0.96441627 -5.892303 -8.58598 2.3811522 -3.6523793 -0.06681109 4.3534102 3.7567995 -4.025522
13582 -4.84398 10.1651745 7.7022824 3.692631 -7.5728345 -4.4127827 5.567428 0.85340387 1.7327105 0.09264977
7108 -1.7664039 10.385778 -8.192973 0.04338451 -4.304229 4.0778713 4.089282 -2.561666 2.1264224 -0.4947821
20922 -1.4127866 5.625515 -3.8277159 -5.5257287 1.2051609 0.7936315 -6.2203145 -0.17208734 1.6923542 -5.6373677
4399 -1.5715984 6.7173963 -4.4341354 -5.275696 4.1735644 -0.29611027 -3.0526865 0.35970023 1.5260966 -4.387544
13478 -7.238397 7.2728567 -2.744654 -0.89328814 7.00559 -1.6190697 8.591259 -0.7988205 0.90116554 8.789896
21987 -8.426337 4.4486814 1.9067942 -3.3863454 -9.63757 4.3591948 -2.576599 -5.5225167 1.1335695 -3.926562
13966 -6.2290998 -5.774117 5.813444 7.116241 -9.267633 4.6521363 -4.3335867 -2.740551 2.8511207 5.759715
9514 -6.7797604 -4.679717 -4.734288 6.7036386 -0.9480358 8.698294 -1.6039125 0.7756152 -3.5447664 -6.7927957
21803 -9.096757 -8.402869 6.364031 2.5614805 -13.353103 3.9747689 -3.1132298 -4.806708 12.787076 5.2980094
18577 2.4403157 9.727474 4.142358 2.3600192 -0.9842753 2.800264 8.176578 -2.0122077 -1.6338438 7.6498837
17254 -12.057164 -10.074632 1.7763361 -2.3702946 1.20681 3.6060069 -9.827517 -1.5290394 4.9306574 -7.6304483
16470 0.5325221 1.2460784 -2.0710297 -4.918486 3.5760422 -2.8818157 -6.6091585 4.690324 3.529202 -11.01041
5503 4.8305774 9.09183 7.372001 -3.151389 1.6762542 -3.2049367 7.7279334 -0.90603715 5.162516 4.4375153
2434 0.967283 6.9221215 -2.291157 -8.440227 -5.1291165 3.6668973 1.9763181 -6.453135 1.5160753 10.035143
12353 1.9097171 3.3281577 -3.8361256 -2.920206 4.918944 1.6902239 -3.320501 2.575086 -0.007985407 -9.204319
16866 -1.0170779 3.6480877 -5.9288588 -7.2095914 4.185272 0.38060465 -2.2973385 0.0007481579 1.0240678 -5.8245473
12965 4.645197 -1.4055738 -1.9287158 7.598828 -3.4002202 -1.4949301 -6.415122 9.0831375 2.1435888 -5.7362385
14988 -0.7415934 12.1945915 -9.475757 -1.4569921 -3.650695 3.7827687 -0.8843676 -2.0781903 1.9555337 -3.048412
14260 -2.9908636 10.55245 0.55608416 0.8336454 -10.974222 -3.2266972 2.1465957 6.243926 -9.660191 2.3189392
12116 1.5179198 1.1184651 6.109102 1.2150637 4.7620683 -2.6558049 7.1824493 1.0104825 8.075757 2.8676898
8327 4.0949664 9.081068 -1.8416978 1.7090443 -5.0324473 -0.7475478 4.8964014 -2.2779307 12.615361 8.926074
1586 -2.3832235 5.583686 -1.5460398 -5.7014146 1.9987336 -0.84966236 -6.1830087 0.8372217 1.3564265 -5.800485
2245 -0.4897618 7.185846 -1.3916171 -2.772469 0.850585 1.6319969 -3.115858 -0.9260037 2.436466 -6.050918
12334 -2.3818154 -19.752201 10.690187 0.021924106 1.6062088 -1.1930218 -3.3989408 6.7523293 -0.85327584 4.799916
1517 -5.7324204 -7.633198 -2.6341617 5.229905 0.1256102 1.2374603 0.48353362 6.9203053 -8.766894 -0.9812905
14746 5.165426 11.654127 -1.197197 -2.815368 4.1887875 5.9498744 1.757889 -4.535925 4.20274 -2.3857367
16978 4.050742 6.720945 -3.5951827 -3.1476974 1.3535786 3.2043357 -2.1814332 0.2729317 1.0273143 -7.4336677
11424 7.709948 2.0651813 0.95844305 3.5938575 -6.5885587 2.7385838 -2.489867 -0.20200261 7.4101706 5.294499
10264 -4.972539 -0.5027459 -3.7179496 -2.798484 -13.354297 -0.22799367 -6.281484 -0.23296584 0.95044196 -2.6919873
13253 -0.27859095 1.2134471 -1.2930567 -9.005456 -10.599748 -13.565446 5.096057 9.376821 2.6099577 8.352105
11244 -1.7909327 6.3715672 -0.7047156 -3.4222677 3.8740115 1.5806254 -3.246562 -0.5930067 1.7038269 -6.050998
3252 8.502636 5.288731 -1.4878125 -0.061831456 -9.415114 -0.019665953 -7.135121 3.30329 6.955656 -4.100095
21375 6.3233194 12.439429 3.8723614 -4.2992806 7.654422 1.7509844 0.14044775 -4.3881116 7.9401517 1.0048528
19990 1.0258135 6.1832023 -1.8586639 3.3162792 -3.7835016 -1.3743223 2.9387655 -2.1516304 15.689373 12.215595
11846 3.1929946 -4.9139776 -7.3114204 -1.5245608 -3.6771326 5.0950546 -8.057758 0.5563512 4.8905234 -5.760617
14213 4.619238 -3.472955 -1.3811336 -11.246742 -0.64756346 -2.5546792 -3.0140438 3.3776512 3.9590583 -8.4822235
5632 1.7976528 5.1081905 2.3419495 2.1809266 -0.20371224 3.1543844 7.0934744 -1.4814306 -2.2350228 6.799541
20983 -4.462328 9.692163 12.365362 -5.044811 0.48016262 0.8771422 7.463591 -5.943868 0.9714463 5.826143
17591 -6.757656 -8.935939 -4.310549 5.0126405 -1.0855945 1.5405506 1.7921394 6.1585712 -7.938647 -0.12200407
13866 2.8297143 -0.4280688 6.087819 0.06359495 5.2720594 -1.2087439 8.02766 0.097791 6.116701 4.359909
12987 1.7945127 2.3148324 1.0113829 14.432755 -7.7353306 0.24782874 1.6399637 5.4603443 8.892642 -2.4459584
7558 2.7811494 12.022817 -0.9183769 -3.5444899 2.5405414 4.544472 0.36322314 -4.4531193 3.7786262 -1.2134591
1047 4.863514 9.236391 -1.5482723 -10.260045 0.4368048 1.7761594 3.7246816 -1.9585358 -4.045383 -0.09435498
20566 -0.3104537 3.4657843 3.2551937 3.5239644 -0.89863026 2.878935 7.001854 -1.8337083 -1.8711404 7.046213
8188 -8.756177 4.7272735 0.36865565 1.9595147 -9.697385 -3.2101355 -7.712887 2.8775344 -3.924711 7.484888
13494 1.9135699 8.482289 -12.642999 1.8229719 -4.8933063 3.1928248 0.6114988 1.475535 -1.722201 0.9179809
3062 2.2672143 0.91402894 1.3203313 14.346524 -7.9628453 0.5953727 2.4546177 5.54264 9.60415 -3.1962698
3451 -3.4511724 9.7765665 -2.089249 -0.98893046 2.0868359 -2.0469725 8.488015 -1.1009854 -0.8654154 9.3463125
840 3.642902 11.284884 -2.250018 -8.360658 -0.052264187 4.0624123 3.2372017 -2.6481016 -3.5054047 -2.6544697
19658 -5.55351 -0.2891771 -5.5756135 8.490177 -1.8547804 9.362153 0.33173838 0.8538655 -2.1168604 -6.7476525
18338 2.4495623 -0.13746531 6.19993 -0.21473536 4.5480833 -1.3545712 8.052833 -0.10098216 5.992067 3.3786137
14451 -2.3366566 6.633313 2.5158746 2.3797092 -2.5373638 2.4420614 7.427308 -3.0246036 -2.0103493 9.757764
21750 -3.8289757 -8.100381 -5.8505597 0.13113078 -6.4162097 4.0733128 -2.792264 0.49539274 5.906301 -12.934787
13735 4.800373 1.5878835 8.453316 -0.5926784 -2.1106865 3.692059 4.981641 -2.3587523 -2.2194428 8.945029
9910 3.5002842 -2.2202342 -1.2044168 -9.649108 -1.525007 -3.175509 -4.699478 3.7457666 2.4967287 -8.104196
11352 -1.2747978 6.690397 -2.023719 -5.2943707 2.7881484 0.90859246 -5.1507316 -0.43137968 0.02685103 -3.2944825
18170 2.203873 14.678486 0.41623643 1.893306 -2.4817579 -1.5881989 -0.60094106 -0.3007755 -0.46768853 9.566598
6940 8.730974 -1.3536959 1.783038 5.1346865 -8.719482 1.8911278 -5.457501 2.0529518 11.856218 3.255136
2610 -9.201059 -7.0204787 6.876532 4.7528367 -13.312734 2.437999 -3.3046508 -2.626422 10.222603 4.237946
20700 -1.4779019 5.7219195 -1.9506956 -5.210956 3.4156609 -1.0230559 -3.565469 0.6497633 1.645935 -3.8533082
11193 -2.2656474 6.5154376 -0.22878136 2.9415784 1.8570464 1.2970345 9.381196 -1.8166186 -2.5194879 10.688475
9817 -0.9718785 10.095217 9.206397 -1.8315517 2.5308416 -2.2216365 1.783913 1.0291877 -5.2909193 4.0167665
21569 3.406041 3.0404155 -4.360402 -3.0793092 2.147097 3.6800318 -5.7220316 1.5072006 1.4021842 -9.530554
11364 -0.13964012 5.601677 -3.2726243 -4.0130167 3.1741166 -1.4897788 -4.071027 1.0668731 3.264524 -3.946658
16193 3.010458 0.47709918 1.4120971 12.968731 -7.554314 1.2023233 1.2365701 4.974646 9.176279 -3.4757216
18561 -9.16168 -7.4298086 6.901029 3.7513072 -12.948143 1.8758327 -3.143266 -2.828836 11.65389 4.0688405
16122 2.1320205 6.677798 -1.6618454 -5.7130966 0.9364834 2.6728656 -3.4453042 -1.3616043 1.0981268 -4.6989145
2284 -1.6185989 0.37595508 -3.4047382 -3.765255 3.158203 1.124928 -3.3988373 -0.22389475 3.1075268 -7.4675765
7765 3.6858594 7.664691 0.21100518 -10.187293 -1.0603667 3.5783248 3.7544472 -2.470225 -1.5167489 -5.092808
6357 10.216406 9.242573 3.4843607 -1.4886746 1.2278723 1.0671693 5.977594 0.41796878 -2.1893737 10.380404
478 -6.4026265 10.049804 -2.2548685 -1.0461262 4.9385247 -1.1290431 5.1327887 -1.5439882 1.636984 6.4619937
18729 8.608666 3.4485595 -2.6018639 3.0090616 10.923944 4.769562 10.626585 1.8102131 -2.583883 16.269964
12437 -5.209218 12.161514 0.52615523 4.5861454 6.121985 7.198865 10.725468 -4.4821825 0.170699 -2.6649961
17455 -0.63343894 6.496079 4.125809 4.370323 -2.0118806 3.235634 9.183649 -1.4997243 -2.4180427 7.142421
12288 4.7992916 -2.3154688 -9.51006 -3.284409 -1.5397128 6.131467 -6.6580515 -0.4195357 5.269392 -5.3345547
13932 6.2949677 12.616094 7.9003367 -7.2673573 0.6001518 -2.0622516 7.9158382 -1.853638 3.0717916 6.3293257
11850 -4.2095475 -6.494523 -3.0664082 5.2066846 0.8976257 0.71541816 1.1691257 7.5912385 -8.10213 -1.1925045
13576 3.2485194 -2.3678892 0.3377347 -10.822002 -2.0710163 -2.7681813 -1.8744684 2.3456182 3.7181792 -7.057779
3469 1.1066718 6.7659297 2.7728362 0.33740053 0.2888646 3.225741 6.4856405 -2.7019157 -2.063701 5.882376
2159 2.1139495 2.4887376 3.8228757 0.98277605 3.176455 -1.8236668 6.3592863 -0.22738808 8.310158 4.129955
21740 -1.4692456 2.2685294 -3.2709198 -3.3194 3.84959 2.388193 -5.145247 0.43701634 2.014542 -9.314892
13264 2.8986819 6.1020827 -0.8614345 -8.2302265 0.70232266 4.429222 3.1176279 -3.2416599 -0.964937 -3.456302
2874 -1.1200036 3.5209284 -3.580482 -3.8578246 0.4418313 0.97810256 -8.01513 1.3230795 0.34309253 -6.4121313
12674 6.136884 -2.3942516 1.6969893 7.2695675 -8.823526 -4.639327 -7.3578644 7.5101323 5.3749948 7.0509934
927 3.0017073 2.0523663 -6.077038 -9.828806 2.1729968 0.7562976 -4.800367 -0.27872285 2.012716 -3.5000186
1244 -9.009545 1.8025892 -2.926577 0.058007717 -9.379316 2.0533736 -8.378664 -0.4708554 -3.1945267 -1.6922022
127 0.5508639 -1.896563 -6.7004776 -4.577563 1.8100997 2.7644255 -3.530265 0.23073757 3.3922086 -10.367923
8120 2.3138666 11.664283 3.518614 5.399322 -0.80912113 0.68456215 5.2115703 0.018742716 -2.2229464 8.3181925
17121 5.206812 -6.190068 1.2590148 9.488257 -4.231227 -3.8318913 -6.1452928 11.261908 2.4871526 -0.23451802
9109 -6.8164744 -1.1141934 -3.124535 6.250581 -3.3063204 6.78553 -1.1641278 0.65563524 -3.0369596 -7.6530895
12573 -6.121193 -6.315688 -1.923109 -0.31931245 1.540833 6.3058834 9.963129 -1.817906 0.8533944 -11.311734
9367 1.9820316 12.331217 -2.0292616 -5.1152005 -6.193037 2.659431 3.395256 -0.599605 -3.660805 -8.5153885
4818 2.6198626 -0.13187958 6.6199603 1.2444 4.5002832 -1.0253968 5.9553404 -0.06164173 7.777369 3.826306
2710 -7.584548 -4.2821956 4.7044506 4.7398033 -6.584883 8.372735 -0.21334584 -3.6123157 -2.853588 3.4777431
8790 2.3226595 5.2995477 -3.0829053 -3.943723 -0.23945485 1.6232243 -5.227634 0.11807859 2.211884 -5.7811537
15649 7.120991 10.815923 2.175424 -1.2953867 -2.8644438 1.2145153 -8.474658 -1.012986 6.765473 -3.7462606
9829 6.4370112 9.07402 3.2980778 -0.25540727 -7.824596 0.9683203 0.587958 0.03480339 2.2863657 1.0060567
4357 5.516916 1.5911708 -4.7734065 -7.029486 1.151904 1.5510637 1.9835376 4.233797 -8.981998 5.1894403
22132 -0.8896526 -14.49561 4.675034 3.7326317 -2.1013038 0.28334486 -3.8574195 4.8453507 0.06557767 2.2071097
15553 0.39802703 5.161863 -0.33578548 13.108877 0.6264577 7.3049073 -7.200202 3.028065 -0.5479787 3.4400048
13385 11.218203 -5.120781 -10.447943 6.4613605 -5.846201 4.5611033 3.223033 5.8819165 3.1317983 14.137845
2897 -4.810249 -1.2031814 -4.8471704 7.9532905 -1.88084 9.67575 0.8032488 0.4741371 -1.6024618 -6.76638
4772 1.2420818 9.516721 0.31509015 -5.270937 4.7189493 3.2752383 0.5181066 -3.38124 1.5961562 -2.8571322
19447 -1.9791963 -2.7257564 -6.155713 -5.7261972 1.735816 3.2502933 2.0177884 -1.7217317 9.345945 -12.893463
3103 -3.8806732 -8.305522 -2.9110165 4.663131 1.078642 0.7995382 2.028061 8.338166 -9.596639 1.9302683
3935 3.9334052 -5.8254275 -11.415374 -9.026573 -1.6931479 0.71423256 -3.3924491 5.481535 -2.3152103 -9.84077
4760 -5.731837 -0.3495928 -3.420029 10.384173 -1.7035283 9.415401 1.275742 1.2856873 -2.32689 -6.203319
20597 7.550751 0.04589886 6.863443 0.056212332 4.915172 4.2622323 3.1858377 -0.34264377 1.146506 7.182438
11797 -2.1386986 -1.3181335 -14.062661 -10.25727 2.7419608 1.4414704 0.60678756 0.57053035 0.57929 -5.879603
21907 1.3809428 -0.50287527 6.441017 0.24417022 4.679306 -1.900327 7.5253086 0.41287726 6.9829025 2.8067102
15788 1.3288664 8.223629 10.209192 7.6589494 -1.4049923 0.8869598 2.4300818 2.6238205 -3.363143 2.6396368
18850 -1.6553949 8.804309 9.029332 -5.0330276 -0.24703869 0.43560117 6.694874 -4.223038 -2.8602881 8.372665
6763 -5.8117795 -10.63994 -6.1289883 -4.604096 -1.7554574 -6.5420704 3.1876395 8.047022 -3.1230478 -4.59352
9504 -0.6627583 9.416567 -3.4704034 -3.502324 -0.06533543 0.47015235 -2.2590985 -1.6249146 2.8062978 -2.7867653
8168 -5.054016 -1.0387584 4.530587 -0.23254775 -10.548508 -2.7360747 -13.852339 2.5640948 1.4889101 -1.2442282
22056 6.024072 11.908299 5.3980966 -6.439056 -2.9850981 0.124788776 -8.525053 5.4416423 -6.0495386 -1.8295997
15183 -0.81177217 9.259776 -9.700782 5.301958 -2.554322 1.6858352 -1.7464522 2.3442762 -3.5255985 1.0685656
8400 -0.40281618 4.799847 4.084798 4.456404 -0.5369436 3.4122858 7.382948 -1.5189177 -3.1741598 8.473269
5580 -6.7606354 8.35791 -2.9717278 -0.8517298 4.294508 -1.7518675 5.5934396 -0.39435813 0.64160806 6.845286
16328 -4.2085276 -11.111178 1.3937107 1.024669 -0.6468628 6.7746024 -2.922147 2.7097197 -4.6061006 -9.00102
1617 0.8702334 6.625523 -2.6363258 -9.626954 -1.5113341 3.3958883 4.40071 -2.582281 -1.9077313 -6.2206306
11118 0.046703618 6.722604 -9.145663 -3.5434039 -1.602166 2.3227396 3.0204904 -0.28665584 -1.9945934 -3.4498675
16399 4.532525 3.4963505 -3.4258397 5.800048 -1.0142237 -0.5609873 0.5215515 4.155016 8.032821 -4.842414
11756 0.84595984 3.9346333 -3.2580929 -6.1105185 1.947625 0.7894689 -5.2198896 0.104644105 1.5400816 -3.8710787
14660 -4.199802 6.66954 2.893969 -1.1742597 -1.6852345 8.220323 3.7435029 -8.313529 0.93385506 1.7968464
3956 -2.7793117 3.122285 -1.8044134 1.2866174 -10.690498 0.43811995 5.023315 4.633419 -9.303778 3.2185092
16816 3.1579983 -2.120237 -1.099286 -4.295559 2.4361231 1.0107177 7.763061 2.2790782 -5.8968472 3.9904208
2242 -2.716405 6.529019 3.1027076 4.0886016 0.1420648 3.1510427 8.069472 -2.389217 -3.2338514 7.1599603
20334 4.9476466 1.7967818 3.9745872 -4.3943715 0.89073527 1.3937778 8.532813 0.40170765 -5.3967137 10.274697
1330 4.449154 -3.8060668 -2.2189064 -10.0516205 -2.9739432 -1.2730451 -0.24932325 1.8456082 3.6609144 -6.6142464
5808 -0.8313821 7.0545382 2.2326705 -9.383951 -1.3240907 0.6410992 4.095505 -4.86161 0.713045 0.5372152
5280 4.2221193 -3.0362253 -0.031176647 -11.101458 -1.1090987 -2.1589205 -3.2295542 2.131787 4.3806124 -6.4529634
16400 -3.195326 1.5498817 6.4906564 4.8269362 -2.7516875 -0.22878112 2.2315826 4.891911 0.27934626 -11.3336
5777 -4.6393766 -4.108406 6.8913717 8.132919 -7.4162345 5.330373 -1.9611421 0.3274951 -2.5255587 3.1984923
17328 8.368487 -0.899402 7.9087467 -0.8226693 6.6051245 2.937229 0.61578715 0.6553013 3.4844663 6.4642606
18701 -5.963457 8.076866 -2.6562543 -0.9279216 4.986686 -1.9965954 5.623641 -0.49050862 1.6819605 6.5692925
8520 -15.670892 1.2321887 15.190642 6.889905 7.2808156 -1.9852043 -8.094374 3.2281706 2.9887857 4.931121
5122 1.0458864 1.5233667 7.8094764 5.355066 1.0361049 0.8452201 10.9807205 -1.8485047 4.1990523 8.183835
729 -5.777561 5.8364615 4.9605756 -0.93382215 -6.9105344 6.8605547 -3.2604027 -6.6866775 2.3910468 -2.7069676
15594 -2.4259117 8.159043 3.068169 12.059232 -4.098816 3.4672182 -6.6060114 0.3722571 3.2974925 4.748884
8540 -0.5272935 6.123895 -2.1958444 -7.8911805 -3.175531 1.2935737 6.6366935 -2.1207864 0.8195675 -7.950651
17707 6.3934455 -10.781395 -5.116411 8.383328 7.754291 5.4417696 -7.4350934 6.841167 5.13274 12.283786
1466 -4.5008545 7.59815 8.595212 -4.412567 -1.1046811 3.7731607 6.642817 -7.536141 1.0216078 4.899145
12075 0.87457395 6.2324824 -2.0266836 9.006517 -0.16770305 2.6701 -5.7381625 4.9374733 -4.6570807 4.5197554
2644 -7.7221355 8.104726 -1.9814297 -1.141059 3.2263901 0.8810121 2.4043941 -3.7958348 2.5808716 4.2195983
20770 0.75771326 0.11202078 -6.687477 -1.7992592 -0.44267312 5.760622 -7.2027326 1.6849804 -2.3439054 -11.381495
6562 0.9563203 -2.5891502 -8.58341 -4.90972 -2.7732341 6.660078 -7.097929 -2.244125 3.4060702 -4.487802
13796 -6.1389036 -3.4604025 2.401394 6.805299 8.789962 13.110842 8.758078 -0.47956395 -11.817525 7.5389676
8316 -0.736514 4.9838696 -2.591419 -5.608575 3.6781263 0.08715207 -2.4314694 0.20865098 1.1174024 -4.7530065
8335 -0.9158282 -0.6410394 7.685702 5.3846855 -1.7763523 1.0133907 6.832029 -1.8723004 3.3191144 5.318362
11209 3.780098 0.34999672 -0.05259829 11.677004 -6.9766917 -0.12948579 -2.6243882 5.3171854 8.828608 -2.5697558
12851 -1.0598546 6.6083436 2.808857 3.7201412 -1.7357724 3.367447 7.3773994 -1.7857063 -2.5871787 6.9602833
14192 2.7739415 5.733116 -3.0896506 -8.873658 -2.178457 2.0260794 5.5131307 -1.3065866 -0.47744927 -6.2048354
10828 4.2924843 -3.4559374 0.9966722 5.8218665 -7.0196753 -0.7822076 -6.0105915 3.1688175 6.6160774 11.396126
13252 3.741559 5.4743123 -2.6268036 -3.9723272 -1.7351313 3.925938 -5.8575535 -0.07093659 1.4863907 -7.9677873
12071 -3.6142068 -1.8123311 -9.083898 -3.714376 -10.102696 1.6389288 -5.3553367 0.68933123 -0.46169466 -8.002671
12521 4.603969 7.5969443 -1.0915824 -4.079134 3.9087152 -5.5080585 -3.8263414 2.6680198 3.7699573 -0.91497964
21133 2.0734751 -4.0341983 -7.413586 5.7379045 5.7729716 2.9549053 3.6129134 2.786627 6.0260468 -0.5207726
14271 3.7014701 11.3167925 -3.7799184 -8.319293 -1.3351505 3.6103175 -2.7638507 -6.4043126 5.402419 4.3609667
14561 1.6546116 3.5698419 -2.7587895 -2.131931 5.5729885 1.6485456 -3.0475967 2.0076847 1.2761669 -8.05952
13327 -0.88476837 8.515492 11.167782 3.7185853 2.0373652 1.7961707 4.379562 1.009555 -6.5606256 5.309712
6342 2.2898107 12.155946 7.818449 6.386346 0.8475713 -0.4596172 1.3956885 2.6745536 -3.7252507 5.365673
16602 2.8760242 7.1896977 -0.11956487 -7.91868 -0.91358805 3.9498158 3.2954636 -3.7936862 -0.3070205 -2.463931
14502 1.8874156 2.0907702 -1.953526 8.037802 -7.4654746 -1.6094259 -3.6167483 4.728255 6.22698 -2.5930784
3223 6.4150076 0.7499489 2.0729551 5.5360465 -2.9087887 0.97484726 -7.8365955 6.5662193 2.094577 -6.413792
11248 -3.9001417 -7.4492474 -2.6744804 5.5210285 1.5501829 0.65243757 3.5185993 5.57794 -4.7252593 -2.8477302
6232 -1.1589453 7.2898326 -0.6898218 -3.97006 1.3685067 -0.07547884 -5.4042296 0.2731926 1.0448436 -4.105877
15867 -2.6089115 2.1536067 0.5892922 1.6229099 -11.567402 -1.7824463 4.3838773 6.319791 -9.089623 2.393475
11536 -4.813887 -1.3682249 -9.847379 -1.4887449 -0.6612245 6.16189 -1.285487 -0.2094074 -7.5864935 -3.0563936
6895 0.54111737 7.315395 -1.2337184 10.004921 0.85052896 5.478879 -6.414307 2.1303284 -0.9986044 4.7046385
16198 -0.6347759 5.0229616 -2.4742424 -5.592649 1.0548861 -0.17662822 -4.7813373 0.41439468 0.6553572 -4.7862473
3608 -0.7059103 8.086312 10.819043 4.977812 2.335187 1.7895212 4.3601193 2.1176503 -5.93489 4.076041
16560 5.7404885 3.2850683 -7.7836514 -4.561249 -1.0183327 -1.8142542 -5.2614956 3.5695574 1.0152632 -2.7191412
10364 -5.719247 -7.453902 -4.6824455 -10.015103 -1.9437963 -0.8748301 -5.4448376 0.12013625 5.6018457 -10.833476
9273 -5.0259724 -4.16327 5.580076 7.0468783 -7.5915136 5.918544 -2.6827824 0.011549456 -2.8429987 3.0721066
11079 -3.145972 3.659597 -4.315119 -7.628475 0.70076275 -0.18914172 -2.6042252 2.0782564 -7.6008735 -0.64852995
7975 1.6297946 1.904302 -5.0803876 2.2737503 4.755567 -3.2129662 -14.490262 6.2954717 9.8202715 13.711031
19415 -2.0037694 6.3606596 4.870842 2.8189764 -2.0710442 2.3547087 6.818003 -2.4127219 -1.9068449 6.8211546
18580 0.99013555 9.434775 0.085321605 -7.2660885 -3.611481 1.7742186 0.4717798 -4.6808085 0.29353467 5.13094
293 -3.9633555 6.516935 3.8715274 -6.0333514 -9.747966 -1.4262724 11.147524 -3.614187 4.3197136 3.2619672
8517 -0.7954089 8.100194 10.474137 4.923894 2.4456408 1.8608749 4.3006325 2.109333 -6.11104 4.2920027
9762 -1.1074913 -2.0136251 7.6709538 -2.8815968 0.27667922 -6.468198 8.298535 9.066469 -5.399603 -2.0258853
16716 7.34652 -3.4560177 5.88498 -2.243287 5.735978 4.3946915 2.909745 -0.79071945 2.1344523 8.047226
15475 1.447575 2.8695583 5.942923 2.9952424 1.2293543 -0.47892147 7.2298837 -0.62624633 5.159163 4.2154336
1041 5.4124794 7.425706 -0.3796497 -6.1248255 2.577166 1.9920567 5.45401 -1.9496152 0.5920947 -3.1089146
4677 -1.5253298 -7.7424555 6.0784283 -4.4365535 12.263888 0.53212386 11.724912 1.7071378 -1.2730536 6.2647285
2802 0.8874404 6.1045346 -2.9230187 2.13299 -4.4780703 -0.7678499 2.4873986 -2.0849202 13.297224 8.438391
7442 3.829347 6.783521 5.931644 3.8769093 -9.222176 -0.1217647 -1.2206012 1.3523662 2.8260443 3.6909475
14082 2.7822897 6.761618 -2.4335825 -5.654298 -1.2076256 4.200628 -3.8258748 -3.1297698 0.8523178 -1.4853798
8745 3.6474557 10.009172 6.8647566 2.421829 -8.976827 0.15071318 -0.584042 -0.20029867 2.7187154 5.9729996
977 -0.01686531 3.5432103 -3.4983463 -5.3821325 2.6088512 0.08259378 -4.2619276 0.29883423 1.6183081 -3.6056316
13434 -2.2433703 2.2695365 -3.149372 -6.549315 0.022774886 0.415371 -7.213041 -0.796215 3.4568799 -4.707372
17956 0.28870323 5.0148673 -3.0638258 -4.7489815 2.4948032 0.13414626 -4.0399065 1.0241283 0.7744056 -4.771231
12833 -5.3967695 0.12056777 -3.2468548 8.8406315 -1.5867116 8.237256 1.5750477 0.7399929 -1.9923229 -5.889368
1483 -5.118054 -8.878449 -0.66467917 0.48112512 -0.20579632 13.738144 -3.757077 -4.4521465 -2.3569944 6.981153
16085 2.694864 0.50154835 -5.7533507 -5.3099337 1.1635461 2.350751 -14.440433 3.5495784 -1.0153123 -3.8023179
18454 4.8585787 -4.182541 -1.4041821 -7.845715 -1.5444003 -3.9158533 -3.2760758 4.960089 3.2481 -6.1847124
4283 -4.2432857 4.940779 -3.2747567 -6.945464 0.375637 -0.5349253 -2.0515234 1.9134424 -7.093867 -0.30363077
8160 1.141211 10.480738 -2.1529036 -1.8152343 5.738443 4.6405225 7.7377405 -3.617912 0.2746063 -1.2815884
22338 -5.6719165 0.15933338 4.040404 -5.4298463 -11.135528 -2.5014167 4.922408 -2.4087996 3.6062598 0.80507785
4689 -1.2253562 3.0972183 -3.745269 -5.827559 -0.06903443 1.6924901 -6.0012145 -0.27405417 0.4688779 -5.794388
7041 -9.818666 7.118562 6.568426 4.3762727 -3.771377 -3.119375 1.4097527 1.2845738 0.4932849 -1.2143562
12704 -0.27286133 4.6531706 2.484159 2.7592862 -2.1392243 3.6280065 7.8328032 -1.7818494 -2.683284 6.1994348
8740 2.6995811 3.7040496 -1.1562955 -8.736222 -0.88692576 -0.71908975 -3.471616 -1.0475786 4.6779585 -3.8066666
369 -0.0022645725 2.799932 4.092804 1.6513612 3.4316406 -2.4190924 7.8692927 0.17343614 5.2603583 3.9895306
3081 -4.509858 -0.032405738 -3.9761364 7.1262016 -1.5656438 7.0512495 1.4274913 0.89183676 -2.8362446 -5.367583
12344 -0.32316786 0.047631137 4.9356904 -5.7172046 0.91860425 -3.5172272 7.6579776 5.320976 -5.582434 -3.6761801
15263 1.6947235 1.7746613 0.6122804 13.617231 -6.6933727 -0.1449455 3.3149037 5.7542605 7.7588 -2.7165356
7860 2.5878403 2.0165029 4.093414 0.7746126 2.3830488 -2.3719184 7.988464 0.84367114 2.834582 4.975345
4142 -10.700212 -7.829671 5.924343 6.7864285 3.5333405 -0.26969 -7.4755335 8.479439 -10.665823 9.738543
19654 -2.83142 7.768221 -7.0185404 0.76273406 -5.395337 2.642096 2.7070532 -1.4351275 1.6722052 -0.35704908
730 7.2188616 -0.7798954 3.7494128 4.9889774 -5.138426 -2.0608697 -5.990864 6.0394835 3.5212774 0.8408501
10717 1.0155029 1.0954059 2.7089615 3.7977529 -2.3158348 0.95619214 5.437531 -1.2516145 0.26259598 8.72531
3084 -4.7071714 -2.6601086 3.6671822 6.0309486 -7.708193 5.6103883 -1.4610558 -0.7736461 -2.7546473 2.605789
12001 4.362077 5.756364 -1.5273128 7.185131 2.2322664 -1.7698812 -1.7441615 9.683265 -6.510819 6.787281
3319 -0.1585856 7.825692 -1.8051546 3.841883 -1.4650421 -3.4095483 -5.3769712 5.66682 -3.7194672 8.239527
1094 2.8317277 9.271138 4.5691104 3.3413353 -6.7877207 0.5551339 1.0306953 -0.86122364 2.0241108 4.241719
4063 -4.996085 -4.582268 6.166798 7.0695367 -7.229399 5.317082 -2.470671 0.54633236 -2.823978 2.5629508
7911 2.5649753 0.94556755 -4.224556 -7.1342993 0.74581236 4.9055367 5.3376937 -3.7081387 0.028059283 -3.8624501
19386 7.120074 3.3409433 5.430798 -2.9634888 7.5668693 1.6412929 1.2262564 -0.8416642 4.790492 4.111866
3047 -7.5271006 -13.605117 -1.7577167 7.8945084 0.19427644 0.95779276 -7.448348 5.373593 3.3597043 -7.5129848
12031 -6.456644 -8.77157 11.423364 -6.077937 -5.052258 10.09146 -2.4545648 -4.0667205 -1.2090183 -4.573999
22057 1.5679276 3.003996 -2.5464547 -2.7577631 4.391696 1.8948871 -2.9255257 1.3812164 0.9754367 -7.64843
9710 -16.830679 -3.9227436 -0.8259958 -0.70455515 -2.217415 -1.8968164 4.745603 1.9082553 -4.3533134 -2.3834066
10510 -8.494006 -9.149963 3.551413 3.0367882 -9.770029 2.1119359 -2.7984188 -1.6758196 6.987992 2.8919604
22230 -1.583976 7.739412 -6.240525 -1.7895494 -6.922455 1.9160105 4.2250466 -2.807483 3.536935 1.1334603
2514 -3.7416923 -16.58674 -2.229901 5.178096 1.2325077 1.0778649 -7.869195 6.0997057 2.8722858 -5.1454034
21438 5.1740417 0.98747784 2.509644 2.403313 -6.936946 1.5623566 -5.329086 1.0915061 4.57149 -0.60960734
19669 10.296144 -1.9549333 -9.235675 1.6089743 -5.670782 2.775027 2.3870673 3.8533378 3.6188161 14.461256
18266 5.7376137 1.8146117 -4.6337605 -5.010079 1.5002179 -3.9328916 -1.0991317 4.806368 3.6182983 -2.6839945
3731 -0.1734387 9.791926 0.76697725 1.168405 8.244387 7.1017966 9.684233 -3.9189532 0.34581456 -0.76891524
7091 1.4204607 -0.8404879 6.5825367 3.5620623 1.6530042 0.39100674 9.667428 -0.7774426 5.5275 5.8256435
4560 -1.6687313 5.3332214 -0.7765146 -3.465054 2.923793 0.4121807 -3.641607 -0.5629599 1.655541 -3.2122788
4809 3.0161235 -4.8773637 0.46867198 0.38031766 0.5174995 6.6971135 -1.8419589 3.306011 -3.445836 -11.225927
11043 2.3144488 6.585102 0.31502312 -8.27375 -0.83158654 4.141536 4.103387 -4.4809237 -0.5144881 -1.6714957
3491 5.038687 0.97507095 -4.3759127 -7.3516507 1.798205 1.4998269 -5.7215614 1.4943855 -0.08748852 -2.7704537
9493 -2.669013 5.1945057 -2.9498067 -2.6833422 2.370788 0.920988 -3.292903 -0.11507315 1.2074648 -5.095835
5469 6.796885 1.4977642 -3.7254786 -5.515995 2.725415 -2.9344654 0.079006925 3.8713732 3.4778554 -2.330936
682 -3.2835777 -2.761801 -5.233839 0.21246013 1.6771522 1.4566722 5.0819864 1.1852974 5.433873 -8.289142
4615 2.3995054 10.4534235 1.9350361 -7.750434 -7.0755105 2.4404743 1.1777653 -6.2208347 4.636999 4.6553183
11557 4.6684017 4.624212 -5.2511034 -5.2656164 4.1252637 -0.460788 2.0183415 5.5574036 -4.54627 -10.190851
18355 0.6258013 -2.4797945 7.0073338 3.007033 2.8560271 -2.242649 9.245054 0.999365 7.034789 4.2806377
4967 5.4549775 -1.6048499 2.8547301 6.7121882 -4.0500045 -3.4596114 -4.369972 8.661673 1.343946 -0.67939323
13267 6.6444297 0.50896835 5.17427 -0.25730446 4.649498 2.242231 2.7579198 0.4556907 0.47535208 7.1580877
18642 -0.8608715 -15.789622 5.7718644 -1.0172666 -0.005423548 1.3811902 -3.8539553 5.424046 -2.96081 6.517436
21863 -6.3912897 -0.3892933 -2.9845893 6.7806334 -1.9255344 7.3877416 1.811951 0.5061263 -4.3823633 -4.895432
4434 -1.8697324 3.1587467 4.498932 2.157032 -0.21262619 3.1605897 6.6318865 -2.7799923 -2.0722885 7.08109
2532 -3.1859543 -7.536426 -1.73731 3.9500968 0.9315789 0.4114164 2.6314716 6.17044 -6.4899144 1.4697142
6083 4.1940746 8.653658 0.092955865 -5.322845 4.739148 0.6623677 3.0542073 -3.6502206 1.6275954 6.9091997
14439 -0.41484603 6.4019337 3.215018 2.3576689 -0.8575551 3.296761 6.9284196 -1.7257823 -3.2536516 4.8527837
5373 -1.8429147 4.752524 -2.742654 -4.937022 3.5472152 -0.6909422 -4.875892 0.8088528 1.4624912 -3.9591002
14585 1.03767 2.0074534 5.6339784 0.37422347 2.752995 -1.6784257 6.5518184 -0.4630334 5.475675 3.6875548
10666 -2.5353801 5.173913 -2.7545886 -4.541504 2.9306247 0.29434717 -4.4786305 0.043991365 1.1869507 -4.644496
20337 0.307315 1.8287485 7.1244044 -0.42090666 3.400202 -1.6858542 7.0389485 -0.66349864 4.6477485 2.9458244
14335 -4.7885056 -3.1802545 4.926708 6.8360353 -6.267857 5.2893777 -1.6827036 -0.3967595 -2.1925073 3.5213854
5448 9.110706 -0.87231135 -0.43342796 -7.2287984 1.8004302 2.078747 9.677109 0.47455195 -2.4351172 -0.77483994
9257 -0.69540614 -4.5352745 8.677242 -3.1604235 0.86577433 -6.8518944 7.7816668 10.518415 -5.795609 -2.4974482
173 1.2460333 7.0671873 2.2437835 3.3499465 -2.2992945 2.5695395 6.2984786 -1.2737015 -1.4838392 5.6923447
8381 2.7124326 2.439686 0.5064584 -8.029273 0.4267702 -0.07825877 3.990809 1.4168627 -4.1456165 -6.8078437
2278 0.5984836 0.96503484 4.904967 0.49261075 3.8835196 -2.3055043 5.681422 0.83162624 6.2989225 1.8272418
7722 -3.6333387 6.659314 -5.1237497 0.8911001 -7.267893 3.1257243 1.391036 -2.6834245 2.8291783 -0.393724
8629 0.8085331 4.429139 1.8659286 4.0783186 -1.1263504 3.6893177 8.173158 -1.8956506 -1.6596057 6.8907704
6222 -3.1194003 6.386639 -0.3912408 -6.2588696 1.7273697 -0.7670951 -4.299935 0.36965883 -1.3155067 -4.4019575
6892 3.936744 5.0416303 -1.3403332 6.753925 1.6884128 -0.36247668 -1.8393643 7.749955 -5.484514 5.4250336
13408 -3.0076723 -7.400375 -1.5154703 3.9864686 0.8504578 -0.1069555 2.442125 7.65391 -7.9787917 3.2862442
8243 2.938378 5.363055 -1.2784988 -7.9598503 -0.6252249 4.0522633 4.140882 -1.8583984 -1.450745 -5.832041
14128 -3.9598045 -0.022503834 -4.6328993 5.509287 -5.443766 7.0231504 3.2278266 1.5191734 -6.839417 -5.481882
9562 1.8288534 1.3995593 5.278995 0.37566087 3.895531 -3.0955877 5.688121 1.2417192 6.957571 2.535117
21811 -4.139804 8.054621 10.116049 -5.143623 -0.96694374 2.1921673 6.873098 -5.583233 0.3309569 4.987502
176 -4.1007276 -0.06771102 -1.9207613 0.70908934 -10.838638 1.2158461 4.402295 4.7687254 -9.056183 0.40253606
2719 -1.2331206 -2.4077032 4.744309 -4.144563 8.5353565 0.5487336 10.713093 -0.7828187 -0.032282565 5.581773
18483 -6.7440715 -6.842211 0.6741085 -0.66959214 0.37618282 12.610096 -4.7843556 -3.8502855 -4.3141265 4.6425457
16128 6.0233917 -4.4290233 1.2671238 6.4713407 -2.8207421 1.7802056 -9.1496 7.271459 1.5137347 -3.8298337
709 -1.1595734 13.730008 -1.1553884 0.65387815 2.3327956 -1.8762039 7.8236113 0.6021185 -3.1588278 8.167592
19053 -7.3147707 -5.36519 5.7247806 3.0360703 -10.104338 1.1676795 -2.5449116 -2.3663974 10.187487 2.930599
12993 3.7082782 -4.1772647 -0.012316518 -7.8409405 0.046993054 -0.6308685 -2.2714026 2.091148 3.4170315 -7.541005
8957 -9.787367 -14.659723 -3.8268557 3.5811658 2.4126885 0.9641191 -10.016025 4.985665 1.1172732 -4.2121716
20625 3.7325613 2.5675 -1.7180265 9.821627 -6.64448 -0.67217 -3.4845202 5.4971128 7.357101 -2.8267164
18601 0.0064881346 6.249025 -3.8774328 10.298997 1.4210813 3.7248957 -6.200439 3.7065513 -0.5485861 4.18989
8301 2.316806 10.95777 -1.6169007 -1.7499539 7.2139745 5.54722 4.462164 -3.706542 1.8857923 -1.6469514
8299 5.1049557 4.254237 4.6418953 3.8522778 -1.3515366 8.269905 7.9388056 -3.244712 -1.4424177 5.9277797
9784 6.1496124 -1.2405628 -5.248701 -9.53128 1.4124725 3.4232898 -4.670055 -0.027890138 0.9813004 -2.8265762
15159 4.1539083 3.2834842 -3.3344383 -4.67857 -0.3811911 3.2572124 -3.1365423 -0.37414306 3.3121877 -8.941864
19748 -8.399599 -2.0638263 -2.8500986 -0.56022 -8.597486 -5.170056 -9.637657 5.573338 -2.3053164 -2.03762
2635 -0.8354186 -15.770828 5.8136353 -1.4414939 0.17039898 1.5330949 -4.072552 5.2025704 -3.3006444 6.907283
5086 -5.931224 -6.9044757 -4.3563585 -4.7924056 -3.2991478 0.49943987 4.0783925 0.14662133 5.057696 -10.579897
4402 4.509739 -2.6231081 1.858092 -5.314206 -0.76363343 -0.65476644 8.956458 3.941416 -5.8843274 11.000135
19388 5.1444874 -5.0932865 -0.5625962 -8.851355 -0.9011903 -1.8475518 -3.4131184 3.506327 3.8316977 -5.2361875
15090 3.5748851 4.801085 -3.301139 -2.5105739 1.184094 3.7541752 -4.894384 0.8114106 0.7482816 -7.390793
2461 6.748977 1.9244962 -4.7357855 -3.8826852 1.3440102 -2.6426892 -1.1163093 4.5439763 4.2183657 -2.9389012
21338 -3.7476377 8.983701 -3.368749 -1.376961 4.0736513 -3.4190981 9.239088 0.76628476 -1.5545975 10.260213
6398 -1.382034 -8.149523 -1.8332942 3.4506392 1.4794252 1.4446664 2.2518663 6.5426035 -6.961219 0.21048006
5896 2.2085037 4.3721232 -3.0571835 -2.5055492 0.6180068 4.149266 -5.6605124 0.2796095 0.35479066 -6.535049
2990 2.0550249 -4.6081634 -10.745122 0.299897 0.3968056 8.428941 -1.4404706 -0.5903274 2.6255846 -9.374862
5977 -0.07078825 9.600872 6.6956067 2.6854498 4.292384 4.347847 5.0410867 -0.38396636 -5.51653 -0.016024215
22398 -1.0595378 7.365488 -0.27516797 -3.171727 2.8593805 0.70378053 -4.033381 0.1361755 1.3384205 -4.9997635
9939 -1.4069737 3.6147656 -3.5591688 -5.7487445 1.5369167 1.2890795 -6.3280315 -0.4721375 0.024859441 -2.7382147
14778 7.301103 1.3461349 -5.9849944 -5.420226 1.0032004 -2.2659554 -1.2052418 3.415677 4.40058 -0.9681716
14147 1.0167218 -8.102071 -5.257042 8.936787 8.638563 3.146055 2.7516093 4.0120945 9.334759 5.0877333
6706 -3.0504014 -7.0584054 -1.1854084 4.2605543 0.6712171 0.21630213 2.6764965 6.7822037 -7.290718 2.6262546
20889 -3.0038657 -6.419838 -1.5689342 4.549312 0.7870753 0.3770189 2.4977586 6.350025 -7.1149273 2.6862936
14628 3.9199584 -2.3573318 0.9695191 7.774762 -3.8311014 -2.741616 -5.630432 9.767571 0.5782794 -2.9200926
7134 -2.5518706 6.139957 -6.256452 1.7177554 -1.4517554 3.172075 6.2958436 -1.7444553 1.2890949 -0.3411114
7800 -4.585756 -0.7553741 -9.55214 0.3394952 1.2401341 -1.8913245 -3.0925426 7.068815 -6.82105 -7.143621
304 3.920464 -1.4794563 8.292727 -2.0668542 -3.7094862 -2.9180858 -9.245233 2.2177699 4.988534 8.628301
4401 -2.9267962 -6.52797 -2.3468132 4.3477597 0.72569263 -0.046119384 2.0742233 6.946985 -6.9884486 2.713004
1985 -3.3335204 1.1475374 -2.742074 2.113578 -11.078597 1.213952 4.517897 4.8233495 -8.296614 0.7800598
14850 4.8442593 -0.410709 1.9272201 -6.271727 0.2991057 -0.3658395 6.17268 3.3675375 -6.2830853 10.721707
21274 -2.704502 -6.765412 -1.5655929 4.078172 0.7116476 0.42264408 2.2241235 6.464935 -7.0189104 2.0099723
16520 3.6480935 3.5472581 -3.7327096 -9.577739 0.32936043 3.1356235 3.0152714 -1.6509131 -1.1682328 -3.7906418
9996 -3.0621135 -6.79413 -2.0605237 4.148293 1.0278599 0.42942557 2.4066305 6.8112087 -7.529828 2.235677
13122 1.4104733 1.7471902 1.2760214 10.962181 -5.572899 0.011115965 2.067632 4.514858 5.863772 -1.9660095
21764 0.2764949 5.3602376 2.376736 2.8805254 -1.4414226 2.620743 7.325041 -0.87482077 -2.4924417 6.1456037
8896 -0.63914233 4.925695 -1.2429811 -2.9118645 3.1467125 1.5343089 -3.4669232 -0.6316043 2.9230273 -5.16303
21631 6.451393 -2.6491244 1.5212064 6.369759 -0.91315556 0.23252021 -8.181448 9.068236 1.2730826 -4.9057817
11372 -4.30985 8.26422 1.7304243 13.5256605 -2.1036305 2.7318833 -4.9998193 0.8075335 4.755417 5.3766046
20493 -3.4522476 4.8539824 -2.4882452 -8.967124 1.6212926 -0.8480678 -1.8730768 1.356216 -6.1969447 -0.28796083
9287 0.6526565 -9.565104 -10.0198345 -4.335045 -6.907945 -1.1520126 -5.3233914 5.539013 1.482741 -9.454539
4650 0.3124119 8.534465 0.013178508 0.330098 -2.7408342 6.2844224 4.104683 -3.1363392 -6.58535 6.7404027
18797 -1.1511259 -4.1309233 5.554894 -2.9310858 8.882015 1.2905232 11.221042 -0.39421934 -0.62112504 5.723105
19489 4.8735156 4.027897 -1.70458 7.6715083 2.7347116 -0.8075359 -1.4991474 9.8267975 -6.4242935 6.2109795
20937 6.6664553 8.039673 -0.2652617 -0.6635226 -3.633846 1.720492 -6.4201307 -0.5295054 6.5353785 -4.3001385
7833 4.5555835 -4.7456656 -6.5074334 -2.509402 -3.5735455 6.3158507 -5.7760167 0.33603933 2.6602104 -3.5622935
3809 2.4615881 5.470505 -0.9302519 -8.975704 0.2299095 2.2409673 4.4822273 -1.3670126 -1.2929822 -4.5961304
9813 -2.5722876 -6.8627334 -2.046845 3.447034 0.94071794 0.6239352 2.1054187 6.052806 -6.140515 0.81341994
568 -3.0365868 -6.877573 -1.8576297 4.672966 1.2589414 0.3736394 2.8304791 7.154114 -7.781552 3.028811
8734 -3.409573 -2.2578428 -5.3194866 -11.584137 0.10810913 3.2580876 -4.333136 -3.693188 3.5354118 -4.360138
3981 -3.1833167 -6.8682866 -1.6751245 4.0949626 0.75908077 0.16486838 2.2159512 6.581742 -7.381032 2.5383227
10391 -2.2944124 6.0576835 -1.803688 -3.3951054 1.8232987 0.82133234 -4.237154 -0.8086317 1.4922999 -2.6344924
1573 0.54617715 7.05737 1.2793525 1.2760398 -2.0706124 2.3098996 5.4144974 -2.1672087 -0.82283735 5.75416
15208 -7.296101 -3.702675 4.3152175 1.8676327 -9.924582 2.6230736 -2.7216039 -3.4374957 7.8246455 2.2694087
6361 -2.3974967 4.820984 -2.1139133 -3.200999 2.0959668 0.01874459 -5.0707464 0.8538643 0.7894269 -5.2444997
21277 2.4169674 5.461103 -1.2282495 -5.1577187 0.48408192 1.9462616 5.107226 -0.40910742 -2.5918112 -4.93382
11062 -1.6320412 4.2170143 -2.7019136 -10.321116 0.72663575 2.8272128 4.916795 -2.4810863 -2.711275 -6.3008547
2544 -0.9106555 -4.157886 -5.8966336 -1.3945222 -3.0588887 4.8322644 -5.152605 0.622186 -1.119209 -9.125608
16746 3.3671849 3.0611374 -0.81954795 -9.702373 -0.626159 -3.711937 -3.0587842 0.585607 5.979657 -3.7632391
3805 -0.5792376 4.566941 -1.7013139 -4.937976 2.603355 -0.587716 -5.4823422 1.1341621 1.2392612 -3.8250694
15403 2.5769374 -7.726961 -9.802083 -6.243892 9.706036 5.1563797 -4.4053073 2.0920184 1.4481121 -5.8561854
15073 2.43712 4.2412567 -3.9414601 0.1565022 -10.596438 -3.040026 -9.304127 3.294369 3.6308293 -1.0453035
21838 4.1421094 3.5451393 -3.1912346 -7.850176 1.5716467 -2.2743914 -3.9052672 1.1177554 4.1058373 -2.2056785
3679 2.444422 7.536983 -0.1254247 -6.227568 1.2475886 3.7259877 0.6783574 -2.6864789 0.6234503 -4.871187
12450 -0.35034707 6.4466176 3.0979512 3.863232 -2.834871 1.8428934 5.0219293 -1.3687061 -1.3044618 6.3264194
13085 -6.466414 -13.105733 -0.5963493 0.19549337 2.3238146 -0.13767038 -8.046132 3.940773 1.1415819 -4.5758677
8821 2.3922446 1.2426378 2.4789767 -2.7644322 0.1621777 -5.2812386 9.428497 5.826452 -2.6992188 0.6979477
13862 -1.346247 0.3582408 -3.0930893 -2.3215003 4.993091 -0.7352569 -3.6146185 3.7231572 0.3934659 -9.209357
3880 -1.1467355 1.7819458 -3.8730578 -6.675137 -4.4430285 6.1285553 2.99066 -4.075995 -2.6199186 -5.989757
11609 -4.8253126 11.495306 3.4109952 -2.83786 2.3613853 4.783008 4.365013 -3.5801709 -8.195792 6.6068254
833 -0.9035708 -14.859673 5.231597 -0.44526806 0.030121787 0.9340215 -3.6334562 5.2185965 -2.9303408 6.090189
19200 2.5931864 8.068946 -1.1319662 -4.1005487 0.7576671 4.965295 -0.42312425 -3.156349 1.9665884 -4.806405
4372 -4.5274 -0.7828505 -3.1712945 7.446369 -1.7936207 7.912476 0.66555804 0.5392056 -1.5509018 -5.6478415
16948 5.2346897 13.837805 2.946062 -1.4532318 -0.06382145 -3.3296485 4.982672 0.19570553 2.667697 5.2115993
22374 5.624214 0.862118 -5.382691 -8.094049 1.3371385 2.4466064 -0.57355887 0.8642771 -1.1418406 -3.3324635
3370 -0.9453965 5.6275635 -2.5414221 -4.690548 2.8429003 0.6731324 -2.664673 -0.53334457 1.4062274 -3.7642255
16741 5.4070725 0.31639114 -5.758713 -7.800647 1.7806429 0.37790012 -2.735423 1.6597018 1.447243 -2.789956
10043 -7.172379 -5.297315 5.5981655 2.332914 -9.798715 0.97137195 -2.566855 -2.216643 9.7132845 2.472812
4672 0.39833757 5.777238 -1.0635005 -4.009789 0.42928907 0.8424728 -5.1260767 0.6194245 1.194783 -6.474551
16330 -0.73379874 5.7290893 10.211897 -3.128884 0.9625467 1.6970617 6.5964165 -4.6785398 1.2545577 4.879083
6550 -5.8254604 -7.014117 -1.9343892 -0.3100146 -0.30097902 12.745493 -4.026071 -4.5597153 -2.4924994 5.758712
13619 1.1067256 -12.457391 9.592799 -5.5119343 -5.3404446 6.7647257 -4.2436056 -3.838717 9.905873 7.773669
14466 -7.265983 -1.3363568 0.79654175 -5.983267 -11.838701 -0.4905198 1.5080535 -3.2852018 1.1288893 9.626596
13175 1.923671 -1.5911769 5.153276 0.33682048 3.2111666 -2.1796722 6.1036954 0.8677666 6.377201 2.3160567
14718 6.975886 1.5858494 -4.697074 -4.588792 2.4636078 -3.4352777 -0.5216987 5.202868 2.763314 -2.0474925
10530 -2.1478872 5.7635922 -7.460972 0.55108464 -4.831262 1.0829128 1.5357091 0.5756794 -0.34951964 -0.83211654
12631 -5.8754616 -2.3983128 -3.654255 9.27328 0.44274428 7.9451785 -0.9797887 0.40571314 0.67879426 -6.1497664
7767 2.5514975 -1.4392407 6.5192704 2.860468 3.8437998 -1.7234267 6.14991 1.4287324 7.1653953 3.360886
7216 -2.2281141 11.290778 -3.485509 -2.7636096 4.7923555 1.7342213 1.6306745 -4.11994 2.8362474 0.9125722
9330 -6.1155505 -9.341618 3.996969 3.4416685 -4.8060875 2.9692204 14.357947 2.2336762 -4.552486 3.3228562
15122 -5.239884 6.4070945 2.1656628 0.2521145 -3.418571 8.359958 0.14799969 -7.1168747 3.6659799 -0.78037494
14186 2.707317 1.7322631 -6.756225 -8.273147 -0.0008873939 -1.4676832 0.34615785 -1.7967075 4.123223 4.474518
9156 1.5102153 5.964068 -2.925418 6.0507336 1.4159901 1.470355 -4.180542 2.8781054 0.2932721 0.9890861
1126 -3.8022063 -5.953586 -1.743872 1.8623356 0.25417963 -0.32678285 -0.69440687 5.5252137 -6.7487063 1.0031663
22041 -6.719281 6.3070183 -3.4348185 -0.50420094 4.972266 -1.919188 4.7401595 0.25462198 1.3446319 5.547493
6466 1.437699 -0.7077761 7.8780003 5.2851954 0.4629106 1.8090341 10.444347 -1.7291377 4.6767697 6.598996
5650 -0.6682997 7.376806 -0.62891716 -2.1385026 3.466273 2.022367 -2.687701 -1.24441 2.447556 -4.2582703
19732 0.73017675 4.789137 1.1898967 -9.161353 6.0591583 2.8502655 6.585631 -5.518588 -0.11095605 3.8632812
16290 1.4870199 5.3238544 5.3998165 2.8606498 -8.332273 2.3834112 -0.84721243 -2.0988636 3.203946 2.575846
7087 -10.923044 -9.574199 6.578185 3.1836126 3.9728117 -6.1993203 -3.6495528 4.668945 4.1731625 -1.8128093
13690 3.3404565 -1.5433015 -6.650916 -2.9961936 -2.0404546 6.3662357 -7.3416495 -0.7523773 2.2582297 -4.4711523
20992 4.321241 6.900966 -0.21887201 -5.5497756 -3.4392512 2.4780533 4.479631 -2.3189776 -0.057434265 -2.0819824
14219 -2.1894095 7.9895234 -1.5716838 6.5637155 -1.8543174 0.35601208 -6.0516076 2.2388396 -0.7880874 5.945153
14840 -4.4938865 2.85636 -6.106449 -1.6275232 -8.203709 -0.35063308 -9.403614 1.5648432 -0.74928796 -3.5151026
20387 2.6338248 7.3702397 9.384473 3.8860466 -6.4273133 -0.91728634 -2.0379221 1.2872466 1.518874 4.572598
20444 -5.748706 6.294246 -1.8639598 0.2854009 3.1225984 -2.32052 5.3505144 0.40072075 0.2925144 6.438568
12025 -4.3525267 -5.2791505 -1.841734 4.91498 1.5323118 1.0203089 2.19597 5.708535 -6.956896 0.3126022
2833 -3.357098 -1.7946049 -3.607393 0.6523204 1.6463227 1.8585979 4.7141223 0.3349251 6.458453 -7.8213058
16121 5.689822 -8.745242 -4.21746 6.667567 6.6754875 4.6880546 -6.627757 5.893366 3.5814104 10.302877
11166 -5.367491 7.1564026 -2.7658477 -0.59407455 3.3706496 -2.2634606 4.195238 -0.0813834 0.8373382 5.437402
9262 2.240607 -3.9625537 -6.678169 -2.7561736 -3.2500737 6.4709425 -3.673535 -0.9516698 2.0556674 -4.1378284
17065 5.684524 -2.5535095 1.5573347 7.321097 -2.728391 -1.0147809 -6.4602447 7.9379826 3.1628296 -2.679814
6848 -0.37510943 3.3441374 -3.4614809 -2.9029973 -2.7680569 3.3350635 -3.2042186 -3.0446508 1.880018 9.871089
20692 -2.0174398 5.249401 -3.0179195 -9.206289 2.3688731 -0.27680504 -2.6387756 1.2702535 -5.3569765 -2.8524485
14209 2.3262684 4.6908755 -2.2541444 -3.506071 2.7920861 1.6930571 -3.0113819 0.6267579 1.3983309 -4.8671203
3246 5.9074965 6.6542034 5.968281 -3.3617973 3.6250374 -0.061029878 4.559261 -1.4957665 4.470385 2.668914
3993 -5.7973113 -7.4226565 0.795492 0.3781333 1.063239 12.385758 -4.503445 -3.5598533 -3.1098952 5.8855586
2604 3.3030407 6.140383 -0.6776704 -6.3583045 0.19406413 4.377615 3.7269735 -2.7710273 -1.7087528 -2.0616176
7026 -0.4407841 2.4358613 -4.4701815 -5.5430565 2.7440135 0.16019724 -3.3442724 -0.14879793 2.3285446 -3.3060057
22248 -1.2016573 4.4828844 -2.2784646 -1.9461527 5.012925 -0.44011602 -4.0419493 1.8963436 2.5809383 -6.809541
14591 4.0953574 -2.3412437 1.000099 7.990283 -2.7961302 -2.181964 -5.837964 9.408426 1.8137221 -2.8478322
20617 5.575117 -7.0868154 10.43717 9.033754 9.221446 -2.1187453 6.7247443 7.760546 -0.021236649 9.826911
7178 3.4052765 -1.4514632 5.178604 5.2951922 13.536831 7.7380486 -6.701493 7.369767 -5.7512217 -1.7080015
4383 1.0668621 -2.2324104 9.953497 -7.2393365 11.660655 -3.9084613 -4.124472 8.504318 -4.7680416 4.8338647
14830 1.2183466 -9.942427 11.604827 -1.0896369 -4.4297748 4.6826487 13.171255 2.113668 0.6498719 -4.423942
14917 -2.5795352 -1.878913 6.4433417 5.6977243 -2.0071611 1.2421709 3.4013553 -1.0840161 1.4567198 4.0718236
14918 4.4842844 -2.355847 -8.14013 -1.8315619 5.1876354 2.3645542 -5.426551 3.3778389 2.654594 -6.624823
2360 2.0785198 -13.061238 4.4455748 -6.062928 -11.483232 2.7088954 3.893963 1.5902431 0.41622248 9.588347
19602 -6.767883 -7.914873 3.1901054 3.749741 -4.286718 2.3704746 12.89985 1.474986 -4.084929 3.5805256
4648 3.0273955 -3.9443672 0.20019256 7.886736 -6.6585293 -2.8741622 -4.1887164 5.3229613 4.910962 6.5021462
16777 -4.300057 -3.407787 4.240621 6.509498 -5.8975496 4.240411 -1.2619754 0.3314032 -2.457141 3.4808698
21214 -14.0053 -9.292299 -6.8914537 1.1753666 -4.2985654 -3.4028103 -6.9091578 5.1183496 -1.0113583 -4.720085
5953 0.85446256 1.5199147 0.26515216 11.918055 -5.3499856 0.24668692 2.5381076 4.7443833 6.5650144 -2.016399
17994 7.599302 -2.3426437 3.2216845 3.99003 -5.0931773 2.1529086 -3.8246427 1.6102651 9.073585 1.896402
17579 -8.639652 5.912958 1.5179857 3.1821086 -8.319104 -3.8692956 -5.697672 3.3832953 -3.2987983 4.263488
7703 -0.3988727 -0.4363945 4.1201487 4.1217756 -0.30412558 2.4665542 7.643671 -0.5999093 -3.5626864 8.071285
16203 7.941415 -4.7625194 3.2803996 5.971543 -1.3321686 1.3698537 -8.772919 8.03421 2.3093488 -3.4894514
18529 -0.17288625 -4.6907225 -6.6311345 -3.3227844 -3.741518 5.792335 -4.323674 -2.161896 5.3335767 -4.44648
17460 3.3817244 5.56025 -1.3025143 -8.139519 0.5536134 4.1196218 4.410081 -2.100713 -1.5003991 -4.589417
20466 -5.90474 -9.750851 -14.028021 7.483359 -4.7133656 1.1180869 -5.7053766 5.319369 6.4572344 -4.8498015
10497 1.0091745 -7.1971865 -5.097069 8.340471 8.093124 3.2017355 2.677718 3.6585732 8.769312 4.1909957
1209 -3.5107956 5.7961736 -0.7731657 -3.8317173 2.4297814 -0.1626514 -4.948773 -0.15183778 1.0357062 -3.6437454
6174 -7.9761896 -8.137459 -1.9124041 -3.5925107 9.208284 -5.7026205 0.43247896 7.734052 -0.42063522 -7.9768825
5589 -2.8307385 -6.354576 -1.3072444 4.1423607 0.5337074 0.53663224 2.4662886 6.161826 -7.1037817 2.1491935
1600 -7.702427 11.882179 3.623488 -0.5711311 1.5646573 4.948025 3.038966 -4.352009 -7.2198257 7.0500946
14703 -2.9799774 -6.32373 -1.3326206 3.990838 0.89483947 0.23254178 2.4871984 6.4033685 -6.9504304 2.1392934
2040 3.3504674 -5.4928517 3.6539354 4.432968 -5.451261 -2.0493748 -5.451948 3.7628298 5.5073533 10.072476
14539 6.947057 -0.7904376 7.999836 8.854923 -0.08731146 12.838577 6.3939376 -1.1736872 1.0629543 1.0765293
19513 -1.9291668 1.2887293 4.583425 -3.6473055 1.2214698 -6.925812 9.939096 7.2405753 -4.495558 -0.0450119
21856 -0.96604437 5.4194093 -1.2595496 -2.1073875 -0.8659992 0.5538389 -5.3701034 -0.0042046863 1.6960579 -3.4943757
9602 -3.0160272 -2.3147697 -3.74162 0.031552557 2.059508 2.0802412 4.7697263 0.52459234 5.2899365 -8.155545
9141 4.3547997 8.564212 4.8052564 -4.2765636 -3.9685845 0.350338 -6.7531757 4.589686 -5.0740623 -0.73495233
9515 -4.6313953 -4.217659 4.3268905 6.849091 -6.4229126 4.877028 -1.623148 0.76985264 -2.8872504 2.4388351
4864 -3.81091 -2.0483737 -6.6669774 -4.912348 -6.4820833 -0.7622778 -4.314592 3.4359848 -3.3747063 -8.30533
6086 -6.024894 3.9318535 -0.72384846 -6.899194 2.4062788 -1.6124058 -2.0244684 2.8947046 -7.455966 1.7499026
7295 -0.8694556 12.552606 -0.69190747 1.396613 -1.9555912 -4.4589853 6.1531434 3.802473 0.20093323 -0.9634423
20031 -3.245326 -0.55697745 -1.7095453 -0.05934397 -9.728409 0.7303026 3.8018796 4.288482 -7.7503552 0.8246675
13595 -0.58389634 7.353015 8.992893 4.5456805 1.6833481 1.6501232 3.8333447 1.8276331 -5.655566 3.7489777
13915 0.2641569 1.3237036 -2.6194844 -3.06571 5.0672965 -0.5431927 -4.616428 2.6500537 1.829191 -6.3931336
1366 1.851875 5.0239244 -2.699152 -6.5034313 -3.3282557 0.943552 1.2946076 -3.5262437 3.5971014 8.540166
10318 2.4061162 2.1747985 -3.952044 -2.8679352 2.880428 2.1155124 -4.642441 0.83621573 1.5961919 -6.126431
4917 -2.715192 -6.5278125 -1.9521986 3.5210738 0.8577728 0.35381627 2.3554347 5.56491 -5.725652 0.87492645
17252 -5.713681 6.4808717 6.5743365 5.134827 -5.3015695 -2.9392722 2.052038 1.4765989 2.6992447 0.18633302
21812 6.7424803 -2.0707965 5.362295 -0.4965181 4.8022714 4.4163566 2.1930838 -0.15440913 1.1237751 7.2519803
18714 -2.5205402 5.094027 3.4164352 3.7366042 -1.562257 3.5279667 5.902711 -2.4766262 -1.7744066 4.3513255
16885 3.254623 -0.30047888 -15.666547 -3.3490038 -2.0096445 4.472204 -4.2834015 4.6917734 -6.433821 -1.4462118
49 0.2873297 -2.777412 -1.65711 2.7869184 -6.0919337 3.544811 4.88247 3.718301 -4.30489 -9.152957
11005 0.27517104 5.521737 -0.15851958 -0.7801318 -0.63349915 3.3760684 6.268429 -1.8710283 -4.3653636 2.47283
12658 2.9979715 6.879135 2.0787003 -4.9620643 -1.2625909 0.07745515 2.5760505 -3.6282272 3.8034852 7.95097
22080 -0.3314159 5.2333384 3.2998967 3.6050198 -2.4944897 2.6907392 5.7761645 -1.8045243 -1.211037 7.11034
11324 3.6921673 -2.3231292 1.2076366 5.257146 -6.73417 -2.2970817 -6.2935166 7.4177556 2.150504 -3.1389027
2628 -1.0761645 6.4185 5.023811 -6.759317 -0.18110634 1.6025845 3.539734 -5.484539 -0.07102596 11.410209
3728 -0.18549986 4.872612 0.49798363 9.768252 0.6764716 4.61466 -4.7936387 2.0076835 0.00071775034 2.8529856
12871 2.0732648 9.453931 -1.9465598 -5.993443 -4.3650975 4.9253054 -0.7230821 -4.2031136 -2.169553 4.8766246
560 5.658994 0.7046451 -4.704921 -4.3863783 3.5526884 -4.3890367 -0.66106504 5.2103577 4.279669 -1.4286889
1020 3.0348406 -8.499495 -4.891121 8.645868 8.053247 3.647155 -1.0482277 4.2585273 7.7067924 7.388192
18935 2.1407633 6.9039826 -1.2324138 -8.671707 -1.6031864 -1.4711039 -2.0923746 -1.5622699 5.2000947 -2.6795273
3934 -2.566464 -0.7374334 -1.0980513 0.57483387 -10.460695 0.06840379 3.6496344 4.6459546 -7.0101547 2.0081227
11370 -2.1228611 -3.4376829 14.678179 -0.13212673 9.621445 -3.0406613 -4.2825327 8.966027 -1.7076267 -3.4264443
4062 -5.853499 3.4018564 -0.8765372 -6.782506 1.3003583 -2.0931752 -2.7354653 3.161901 -6.964002 2.2007043
19423 -4.8955216 -16.312696 4.984186 9.775281 -1.3959601 2.5731769 -3.3696744 3.5525858 4.809125 -1.3541937
688 -8.983031 5.31342 -1.2710893 -1.1576695 -2.22134 -2.3672502 -5.9008617 2.2463896 -6.21626 5.55337
19876 -0.33909154 8.49847 -0.8629394 4.805774 -0.66386175 -1.6594014 -4.566975 4.027175 -1.5969555 8.106857
10202 -2.0667737 4.6286626 -0.8291664 -4.7604074 3.4441175 0.47055405 -4.194799 1.1029475 -3.1016715 -4.6482563
20248 3.5821419 -5.2737765 2.4750397 5.161984 -6.184956 -0.89619124 -4.960397 3.4372942 5.730775 9.311571
10566 0.094941445 8.406222 -2.8915653 -5.7091246 -3.4599712 -0.72844666 -1.451025 -2.4649885 1.8696928 8.890626
4670 -4.2049136 10.615532 2.7288737 -0.40417176 0.14793739 4.4744 3.1565828 -4.002315 -4.9214706 6.455334
14546 1.3085403 6.6545844 -0.589149 -4.277254 1.5612862 3.6981006 4.3208833 -2.0662124 -2.2066143 -4.69248
17051 2.8314786 -2.7737775 -3.5884864 -9.668808 -2.6937535 -2.369727 -2.7173223 2.762868 1.6235437 -5.0955353
13597 -4.567113 -10.72958 -1.4919366 4.9463873 0.38071787 -2.8917933 3.1693118 7.394139 -1.2315402 -8.990884
8576 3.548828 3.18577 4.671252 -5.1441984 6.238992 -0.41770688 5.930943 -2.8311813 4.5662494 5.130914
402 5.796356 8.176255 5.1397953 -4.8669286 2.5307624 -1.5050555 6.125183 -0.30539998 0.60198635 3.8846936
11185 -0.57050455 -7.656613 1.4419922 2.0581024 0.8971941 4.869451 -2.8636694 3.8787534 -3.7748337 -7.3889318
20760 0.105313346 10.38529 -4.4329724 2.08681 -3.3068702 -0.6685484 0.33546454 0.35407022 1.5946989 2.518204
5382 6.382058 -1.0423642 -3.993651 -9.102041 -1.2192222 -0.0517562 -2.8662248 1.2672333 3.123942 -2.7916224
9658 3.6808033 -2.8203053 2.2187135 -4.264497 -0.1923037 -0.7689745 7.0775743 3.3002834 -5.015866 9.664131
12463 0.9039613 4.0519156 -1.1644595 9.094604 1.6391556 4.714082 -4.921682 2.9222589 -0.94235295 3.0164614
9561 1.1962074 7.33283 5.556493 4.628935 -8.004414 1.365902 -0.29769596 -0.8112938 1.7955186 4.1151066
4732 5.2082505 -0.21370871 4.312223 -0.2478824 3.647393 4.1348376 2.682106 -0.891525 0.8208153 6.7608466
8325 -7.5845017 -5.9613853 -3.68821 2.737573 3.3372548 4.526079 -2.951638 3.5251575 -7.0030255 -8.141256
1515 -2.4449317 -6.3225636 2.699909 0.49705875 0.100943245 4.486289 -3.630008 3.0625248 -4.0750785 -8.146575
6318 7.1646094 -0.65517634 2.2375736 1.930184 -5.0267296 2.6227381 -4.4410844 0.4273323 7.741856 3.931727
21519 -6.89729 2.006034 -1.5021238 -4.770638 -6.376563 -1.4486797 -8.173856 1.0866864 -4.723217 2.3421779
4542 -2.2016602 0.041549984 3.9897387 4.3050222 -3.752832 4.420318 -1.8903173 -1.203342 -1.5615104 1.6154133
2759 0.29016227 3.7386804 -5.0679235 -10.504745 0.3243703 3.276672 6.4905443 -1.3204272 -4.0500774 -5.386156
14680 -0.12947346 4.154992 2.0388787 1.0790609 -4.371917 2.6689382 5.9898067 -2.9063253 -0.8683479 8.416892
16277 4.9274197 -1.5059701 0.83325547 5.455146 -3.9779384 -2.014358 -5.32725 8.1293125 1.4689583 -2.9355693
5700 6.3406496 1.5596974 5.8570247 -1.5320624 5.446412 1.3364096 0.10212708 0.5932826 3.4347887 4.1190286
9957 -0.865404 3.7657802 2.4375203 3.6757245 -1.342808 2.9848297 5.943082 -1.4089175 -2.333692 6.8366413
7785 -8.708041 6.555297 6.3583903 4.1585655 -2.9782615 -3.8950725 2.3476937 2.338814 2.1085668 -1.6417671
8191 5.3666835 11.335919 5.456379 -5.2668753 -0.21855816 -1.3554417 3.9822626 -2.2793963 3.8536098 4.575717
9599 1.7698267 11.1217985 -2.7714813 -5.9891496 -3.7592657 2.3139386 -1.0968221 -4.9705215 4.528708 2.4120681
2420 0.61458826 2.2002606 -1.353787 -1.3708874 5.597596 1.1456481 -3.79748 2.4501715 1.4436786 -7.671474
4031 -2.5642982 -6.4834905 -1.4828321 4.538395 0.5884026 0.39181352 2.4634542 6.455551 -7.1177197 2.719593
339 3.973492 5.8116693 -0.49044597 -2.984661 0.11398518 5.565431 -2.5672665 -1.6896309 2.4205315 -8.420576
14495 -8.071022 -7.8698506 -8.452033 1.681596 3.0271864 -1.95855 1.5613884 4.149764 5.5658574 -9.134157
5037 9.0352545 8.842375 4.227467 -2.602706 -8.226448 8.279508 -10.028497 1.1839767 -4.6292396 3.3274322
13128 -6.191127 -6.35046 0.058295004 -10.547181 -0.64988875 -3.598388 -7.0383396 3.2311318 0.40533006 -10.807038
10395 -4.722221 0.34800798 -1.9242237 7.866748 -2.1559186 6.3578553 1.8093934 0.98524487 -2.551019 -4.363649
20308 -0.7554958 3.788359 0.2142972 1.9469469 3.8907082 -2.0224514 8.688204 0.13717078 -1.4814672 8.770836
8733 -5.801687 -6.847071 1.4688054 5.36511 7.4746957 -10.138072 -1.175972 12.727262 1.6464888 0.051479418
12640 7.3650346 -7.5355244 5.101438 6.327933 -4.678124 2.5496483 -2.8024242 3.8012598 8.392807 -1.6626629
2239 3.1421742 6.1275578 5.239094 4.790679 -7.211025 -1.4165772 -0.6148491 1.420593 3.8881173 4.2871237
4300 2.2958941 5.02136 -0.91084963 -2.6280007 -3.9252312 1.6776782 -2.7902148 -3.5651731 3.3623176 8.611168
11992 3.1259637 -4.967092 1.1302441 4.870603 -5.6501517 -0.97239953 -5.7272477 3.1916237 4.2346134 11.008225
16361 1.0590773 2.5949857 5.2349086 1.5725902 2.6558187 4.3442507 4.361552 -0.7302621 2.4003944 -9.608477
15368 -4.6808043 12.591074 2.4404552 -1.4106015 2.5812495 5.485337 1.8327326 -4.600029 -4.38257 3.398914
14 7.071859 5.786755 -4.514341 -2.0600193 4.1047482 0.62627083 2.8722746 4.9828067 -0.11893273 -9.06849
16017 -0.38627395 -2.4157546 0.95728946 -7.5079293 0.5944615 8.591846 -0.27215552 1.3706255 -11.897521 -5.828876
15928 3.2341201 -1.555729 6.5896873 1.7997074 5.698214 -2.7227726 3.930378 2.5297682 6.7873926 2.7157862
21225 -1.943478 -5.3312163 1.0313203 2.0314012 0.38429722 5.5791926 -1.7435836 3.5522993 -5.9552703 -7.7195625
12160 5.902269 -3.2299864 2.7184353 3.9273882 -4.7209496 0.6254939 -4.9328613 2.088366 7.3569264 5.906204
7917 6.867125 -2.7924857 2.8959255 4.0432563 -4.771779 2.638948 -3.152966 1.3642018 8.6464615 0.9403097
13074 -2.6923828 -6.1835804 -1.4799562 3.9928527 0.7195429 0.09564001 2.1697268 5.9901304 -6.2775087 2.1715279
19989 5.988004 2.095064 -4.651265 -4.243411 2.5251203 -3.010278 -1.5351552 3.5644796 5.4246416 -1.8317833
4191 4.6357636 6.517702 8.901789 -1.4892986 3.7453072 -1.3611926 3.649615 -0.2825046 4.7925115 1.424882
18872 -1.9793345 7.694829 3.2125075 1.5733716 5.988623 5.410582 9.502451 -4.5588217 0.2679568 1.7827765
16105 -2.7005384 -5.9789515 -1.4196082 4.066903 0.6838888 0.084822685 2.3605444 6.287482 -6.958574 2.6724038
14095 -4.143106 -3.061476 4.3702025 6.1825476 -5.0735126 3.9090989 -1.4668903 0.2262724 -2.1857889 3.0987217
4420 -5.223347 7.2578964 -2.187816 -2.0781605 3.3711834 1.3856891 0.91453445 -4.0095696 3.2870007 3.6319535
22144 -1.52259 -3.7621152 -4.3625245 6.6382494 -12.720862 2.980014 -8.266652 3.66237 0.83328813 -5.0466204
2837 -0.48728415 -8.029023 -7.130631 1.2457939 -5.330777 2.9019535 7.5101614 0.3271537 4.0453715 -1.9536358
4579 -0.31595996 4.705288 -1.4488662 -3.7906585 1.6882862 1.1777251 -2.422299 -0.34154415 0.6874256 -3.671254
10370 -4.4725614 -3.6955984 2.687057 6.358259 -5.994807 5.873045 -1.6493087 -0.62863636 -2.5820065 4.087148
4527 -2.7942128 -6.301083 -1.3076851 4.1506166 0.8783792 -0.011317458 2.5440369 6.315616 -6.8982625 3.16985
7653 0.09479126 3.8570518 -4.9649806 -3.1185799 0.35302606 3.2343366 -4.8615785 -0.0400545 0.23898548 -5.660122
11890 -0.71068984 -6.6633434 3.14538 0.12083767 -0.030193822 5.9790807 -3.5828338 2.8278525 -3.7976763 -7.6428413
10047 1.9873052 -4.7053022 -6.445746 -1.3289349 -3.1467671 5.780523 -6.1087837 0.10741983 3.5550926 -2.3997173
6264 -0.39352643 -0.3878082 -5.391804 -10.128957 0.11056308 4.061505 -5.366778 -2.7129426 0.5670403 -2.5831747
15289 -1.0234574 -0.93645316 -5.819814 -9.407676 0.8793329 3.5370607 -0.38531965 -4.0306787 2.8484995 -3.2117786
9366 1.4053668 6.899646 0.54734325 -7.6884184 -3.0136871 1.7830225 3.0023766 -4.364251 -0.44706467 7.764792
11911 3.092344 -6.4986696 1.6087093 5.48714 -5.728409 -1.4924675 -5.0631585 4.063305 5.895304 9.872339
6807 -4.701348 6.939929 -2.0579755 -0.64015836 4.94476 -1.4456441 5.0956607 -0.6774407 1.760422 4.8633385
2858 -4.4691386 0.9548564 -2.9463573 -5.799311 -6.408152 0.68763137 -1.1585737 -4.341239 4.4208355 5.7030425
4369 -1.006245 7.7151217 -6.1877637 -0.59772563 -4.280025 0.30130553 2.699957 0.62000144 -0.26026934 -1.0654376
16641 -2.5127623 0.89305526 -1.3044344 -0.22629136 -8.975822 0.01344484 2.9752543 4.1376176 -7.4574137 1.3061937
15523 0.5815047 -1.8777869 7.090123 -1.7826159 4.0630236 -3.829093 6.875961 1.4009346 6.4721346 1.5253817
14619 -2.3100586 -5.376333 -5.685729 3.421749 0.548425 9.086416 4.4936147 0.85860777 -4.505576 -9.447694
7873 1.7394298 4.426085 4.0859427 1.1851431 -1.1559676 5.5396447 5.2382445 -3.9422305 -1.5252322 7.9017
191 -4.465352 -6.4439483 0.14894173 -0.011305035 1.2267493 10.903611 -3.8523092 -2.8528314 -3.0537755 5.1040745
101 -0.7523129 -8.075106 -1.303521 2.073259 -3.089959 -2.0499172 -2.3127265 8.052875 -5.2535906 -7.1133223
6238 -1.1938405 0.5372971 4.4306536 -3.0517557 0.38550076 -5.6766806 9.240841 7.206176 -4.6462445 -1.5201252
21703 3.6216967 6.342828 1.7344615 -5.585344 0.09579595 3.6884966 3.6558917 -3.1365435 0.16840841 -2.4432058
9284 -1.2487421 2.772753 -2.0291207 -2.3067136 -0.08242572 2.4782233 -4.959055 -0.62922585 1.0902191 -4.6704884
13104 2.6612802 3.920048 -1.6259589 -7.417288 0.8512371 -2.59685 -3.2427628 0.100371055 6.6138554 -2.5977607
2595 -8.22384 -6.9325204 -6.7510295 -4.6989536 -3.6667163 -0.24123192 -7.98948 0.29740527 3.96571 -5.1535907
11315 5.1490846 3.2201855 -0.95727676 -1.1061759 1.450985 2.7313745 1.6779066 1.7428259 -0.4262897 -8.854824
14836 -4.712356 2.0058699 2.5019982 -0.8633473 2.0708344 -4.9337606 9.283617 3.6692104 -3.6913364 -0.053145148
367 -4.93082 0.28784713 -2.033452 7.844062 -1.6033665 6.000148 1.4646171 0.87288445 -1.5666641 -4.098051
10789 -2.7637024 5.0586886 -1.6256024 -2.9297214 2.1440015 -0.30939594 -3.7819364 0.4516961 1.0837407 -3.8290594
4729 -3.905546 6.283694 8.06862 -6.919474 0.052364983 1.5489267 3.8665698 -5.321419 -1.8185662 9.494215
9761 2.3621495 -4.172505 -6.492424 -0.07676968 -4.8252873 4.491043 -6.2480655 0.53275466 3.3087316 -2.364998
13262 -4.648335 6.659767 3.7198274 -3.1220522 -5.43243 -9.41634 -5.2340016 3.413428 6.8342757 4.2377095
6625 -2.2020912 6.7925453 -6.9190574 2.601607 -4.1384506 1.9391295 1.60095 -0.13760507 1.3029096 1.1566372
5891 3.7125869 -1.8136779 -5.711085 -9.615216 2.2040489 -0.49520686 0.39203662 1.0913482 2.1970298 -3.953983
20568 -2.8133545 -1.7680213 -0.8082417 0.15694655 -10.113129 -0.19288266 3.121296 4.6459203 -6.731246 2.1504648
3821 1.0581285 -5.945197 -8.140642 -2.937936 -7.76138 5.9534945 -2.5441453 0.029225934 1.9324006 -6.8639007
4022 2.1937504 5.7591243 0.98465925 -7.658562 0.15546504 3.165405 1.6323256 -2.3549733 -1.2211798 -3.5909283
11473 -2.5360184 -6.161061 -1.490461 3.8250415 0.6925149 0.23192695 2.5558498 6.0099854 -6.519171 1.9361796
14551 -11.627746 -6.5340424 -3.3330753 -6.300993 0.9747576 -3.4670415 -2.652687 3.9866424 -3.5952182 -8.288121
536 -1.2520323 8.5106535 -5.087174 1.8613545 -3.983348 -0.7814839 2.464946 1.729327 -0.2779645 -0.24125095
5778 -0.8095154 12.751119 -0.8510971 2.574039 -2.04113 -4.9374776 6.810714 5.5086756 -0.30915985 -2.1216967
13257 -11.356399 -4.219167 -3.497696 1.6833725 -2.296785 1.0454274 4.8227096 0.7108079 -0.57267505 -5.8335466
17323 -1.8268014 -0.70443934 0.17792146 -2.837662 -6.410017 2.0602467 6.996155 -4.6936913 0.23064154 5.1583385
10166 -2.7728577 -1.5733049 -2.8592684 0.54515177 1.0583464 0.93029714 4.6334553 0.49544516 7.102728 -7.574768
18534 -4.147302 -4.0385466 3.5904338 5.54564 -5.733017 4.2027125 -2.0917463 0.7020944 -2.8650208 2.5382998
14469 -2.1765373 0.18730435 -10.373716 -6.192687 2.2047725 1.2810488 -1.9293913 -0.41143036 2.907945 -6.571398
3964 -7.283811 0.9476527 -1.836734 -3.4527836 5.2533607 4.7260313 3.2072122 -7.0133414 11.334379 5.160693
18627 0.56223756 6.734706 7.1354184 2.94743 1.967134 1.8992635 6.4138603 0.9210349 -5.9933376 3.0118027
21334 -2.75323 -6.057362 -5.0120187 0.89183104 0.004986908 1.465771 2.4947553 1.6521198 6.6975765 -9.353826
16467 1.0056334 4.7813063 -1.1370525 -7.2737303 -0.42961374 -1.7822315 -2.0316231 -0.38899645 3.69102 -3.9455724
17441 5.2053943 7.4322486 -11.836383 5.530423 -4.1719112 3.3405204 6.3202453 5.17281 -0.8972034 -0.11420235
6738 6.925105 1.9999598 4.663482 -4.67458 4.63991 0.24909258 0.5291878 -0.14637601 4.0827103 0.6966939
14071 7.7996893 -1.2834709 -2.6319299 -6.891822 -0.5387579 -3.0027277 -0.96489537 4.246572 3.749562 -1.5439789
11401 1.2857176 2.7939467 -3.2518935 -2.1505997 4.593197 -1.871402 -3.5529647 3.729631 1.8786001 -6.3091693
3269 -8.226566 -3.38942 1.0691732 -3.7333977 -9.143504 0.024095083 -3.3067026 -0.52407223 -1.6959138 -5.144862
17354 -2.067774 0.048603777 -4.020565 -11.686377 -0.9434616 3.1634316 -0.44322458 -3.566168 -0.58194315 -3.553353
13352 -4.6804814 1.411911 -2.8926115 -0.028553791 -7.756189 -0.35304272 0.22142865 1.7629609 -5.0213594 1.5392283
8855 -4.719359 0.77722514 -2.5884354 6.70948 -0.9149579 5.3888617 1.7732388 1.5132095 -2.8709774 -4.225108
10072 4.533848 -3.6760423 2.012769 4.0485983 -4.4077334 0.43290615 -4.6120987 1.6833887 6.8653727 5.980201
3912 3.5537674 3.6084652 7.5958133 -4.2541995 6.6478496 -1.7390081 3.8370416 -0.4772424 4.6114864 1.9855765
1503 -6.4990177 6.0004554 -3.124091 -0.50538206 3.763445 -1.7665637 3.5237234 -0.071725145 1.6523268 4.826928
19645 -2.4838219 6.228026 -1.6453576 -2.697181 1.02064 0.14535291 -4.3358884 0.16316749 1.2386034 -4.3914146
8926 6.8595963 0.8951893 -2.2726038 -6.9708343 1.2319854 3.084596 -3.82815 -0.2760672 3.9996505 -5.37507
1458 0.39578068 6.7658587 3.303193 2.6201982 -4.3600264 1.8856831 7.678468 -1.2729638 -1.8111963 4.610206
7618 6.692933 -0.74157506 7.4048486 8.414227 -0.67964166 12.438752 6.9588413 -1.3416007 0.5808862 1.1057615
7383 -0.6346643 6.6102567 2.2286506 4.4749765 4.2486444 5.6110168 7.4790196 -3.4626923 0.15520968 3.820179
5361 4.3154407 -1.9174718 -1.2167355 -9.400806 -0.49524802 -3.5961952 -0.9850849 2.795506 3.8153207 -3.9901268
1567 -9.843432 0.13297139 10.32004 5.1267047 3.4189494 -0.90767723 -5.3131385 2.2676556 1.2269096 3.3550038
7298 3.2560802 6.894849 5.3463817 2.7029254 -6.5270476 0.5248451 -1.3628069 0.5723905 2.8207498 3.119988
4288 0.37109503 3.1079729 4.020114 5.314913 2.0059407 1.9500669 8.287199 -0.8611412 -0.8749501 6.7449
6373 -7.3920827 6.9765964 4.8489385 3.2625203 -2.233929 -3.7720895 3.6340368 2.1587121 1.9170047 -2.7539237
10013 -4.2168126 -3.2388244 -2.9728975 6.1819158 0.23334397 8.219056 0.8277431 -0.49104536 -0.5795499 -5.5010176
6747 -6.3513947 2.9869516 3.7599196 2.8839273 -3.4302676 10.450707 0.44217598 -7.389203 3.5705023 0.34133258
16846 3.9621687 4.5946546 -0.020478528 1.2161413 -7.817954 -3.9276495 7.821953 0.17520778 12.101505 6.6149254
21351 -1.3146712 -1.7730538 -9.688224 -8.665287 1.2878199 -0.03409299 0.90160775 0.63818544 1.4903487 -3.8998268
2235 -11.8219595 -2.6429813 -1.4490012 4.9213195 -2.3345878 3.088213 5.4451947 1.0357407 -5.466901 -4.0617714
18289 1.8436422 6.914955 -4.4242525 -0.9498352 -4.2714067 0.92135537 4.784695 -1.7115116 3.398896 2.0573633
19922 -4.5633106 0.36716998 -2.427341 7.389283 -1.6806072 6.227545 1.4418023 1.1590649 -2.1279418 -4.2513895
20824 6.7549834 8.110279 2.5097759 -6.497108 -4.680273 0.61161315 -5.1761904 1.2463797 -3.4820802 2.4136915
17821 1.8488295 -2.4722762 1.153066 -8.683244 -0.8164023 -2.7498837 -4.035805 2.0813131 4.3552356 -5.3248744
18202 -10.213237 -0.00092851266 10.803406 5.0598783 3.9334702 -0.8636477 -5.4586387 2.255705 1.0705638 3.328203
13776 3.2311614 -2.085075 0.7411082 6.5490255 -2.623004 -2.2778883 -5.0377793 7.9356346 0.8766259 -2.3459964
11687 -7.3198323 5.461098 5.0294867 3.8505642 -2.7408233 -2.8580153 2.5052583 1.7508861 2.4938576 -1.1913114
9578 3.063065 -11.59996 11.956201 -4.7417026 3.675884 -2.1764276 7.4669676 1.2143807 7.767114 2.9037647
17685 6.121491 -0.024954967 7.3214793 -0.17027627 6.7865925 -0.5973616 0.84064144 1.8508306 4.544293 4.409168
10208 7.3389997 -2.242791 -2.7328627 -7.659517 -3.4855087 -1.5286881 -3.7638063 2.9632583 3.808437 -2.4758904
13423 -2.6036932 -3.0058126 -2.6316574 1.033556 0.8207926 0.7551885 4.05114 1.536083 3.523808 -7.243016
15049 4.6819153 9.317301 6.480649 -4.24998 -1.5179713 -4.491464 3.2977307 1.2961369 0.30837825 3.7304966
16689 3.1359463 1.1259416 -3.5725884 -1.8773533 2.9851236 1.4074445 -3.4893975 1.5917797 1.4469237 -5.208108
4846 -2.4604056 -4.552496 -1.1305962 -2.6628997 -7.372625 5.7882805 4.8126497 -5.789688 6.500415 -3.2303114
12250 -2.1339345 1.3125602 6.4859505 -3.279622 0.13282332 -8.346864 5.296406 7.2527466 -2.1254807 -1.2136
2416 4.8967485 -2.1170988 -6.271217 -4.5048437 -5.079183 3.8052766 -2.4409516 0.07634354 2.190404 -4.5595465
20020 -3.2876697 3.355393 4.164915 -2.5164516 -1.7631049 -4.8542457 8.46395 2.5243483 -2.1667829 -1.2286257
20900 -4.591475 0.0982191 -2.247916 6.9762855 -1.8068436 5.9839354 1.5585176 0.9328545 -1.9871302 -3.9144177
11212 -3.4964457 -8.640069 1.3695616 6.882292 -5.8607774 0.93669134 -9.029725 2.791326 9.082373 -7.312564
6173 3.9200118 -1.4853992 -7.249657 -3.8737948 -3.95218 6.4818287 -0.8176582 -0.65316164 -0.7720102 -4.773981
22435 2.9785645 -1.2628803 0.60127693 6.7301316 -3.4725983 -1.9969269 -4.9752088 7.799836 1.5726987 -3.5836432
15884 -7.3433757 5.5760813 6.0221486 3.847845 -2.486642 -2.5839193 2.1968677 1.5472841 2.4863865 -1.1721445
21614 -4.35845 -4.0717154 4.2388473 5.977324 -6.0445094 4.5258126 -2.4376385 0.45093974 -2.5106764 2.8428028
7379 3.4561293 3.0143816 -2.4813814 -8.223504 0.14732866 -3.1852152 -2.2094886 0.6991634 5.952976 -2.0217583
20445 3.0030572 7.0731444 4.48659 0.8916768 -7.9131017 0.16798024 1.4884521 -0.4108688 2.143248 2.1483383
19691 6.051757 -3.282902 -6.0171247 -4.1301785 -3.5838594 3.035279 -4.829109 0.5512115 4.4113607 -2.3476577
3494 -2.010958 4.646013 0.53911215 8.515259 0.13792169 3.651363 -6.107501 1.8286966 -0.3762044 3.6746337
6058 -6.853017 4.8873863 3.742197 1.8755819 -3.9501758 7.333245 0.79305446 -6.104509 2.824068 -1.1362683
5570 -5.0495424 8.61121 4.1026664 0.38185212 -7.592118 -4.1417074 1.2003385 6.3033853 -9.898868 3.0674312
8879 -0.7780543 -1.7497175 -6.0746274 -11.061674 0.7876159 3.988889 -6.123238 -3.1102521 2.4798188 -2.477542
9339 1.7206469 -2.8321378 -6.6859407 -2.9263794 -4.331555 5.1894054 -1.6927037 0.12507781 -0.5342764 -6.396573
5284 11.065529 -5.49628 -3.168093 3.1110542 -10.495827 5.183909 4.9475713 5.2505646 -1.7805092 11.097417
16036 -3.4391196 -0.2898738 -1.6345125 5.987271 -0.81330997 5.8295407 0.53944236 1.596914 -3.8911128 -5.8117213
16188 6.8089375 -0.09995923 -2.8288233 -5.5389156 0.11764062 -4.1271725 -1.5821269 3.9238167 6.5184407 -2.0392704
11054 6.5021234 -2.2897484 5.410941 -1.758142 6.5071507 6.722708 -0.4991987 -2.41904 5.7597837 4.7568398
5335 1.5225755 -1.5241209 7.333224 -2.739043 -4.0334015 -3.7759824 -9.878351 3.9969578 2.9913 5.7200656
16406 2.659975 3.91477 -0.52792025 5.311675 -7.688602 -0.60176593 -1.1291103 -0.370151 10.59496 5.898772
3915 1.1530184 -5.840551 -4.4420013 6.8313217 6.8495855 2.9937046 1.6068605 2.9575922 7.1081395 4.015016
12440 -7.415885 5.7619195 -0.37182832 -0.29258034 -7.110167 -3.7003875 -1.5363802 1.937694 -3.943194 -0.6990103
21398 -1.2098176 7.1729703 -2.1608384 5.0976353 -0.98656535 0.09793355 -5.572928 2.8351364 -1.0097802 5.8291154
1049 2.2463367 4.6970267 5.64439 1.6319767 -4.624902 -1.2106099 -0.5940277 0.42992985 1.35726 5.3117166
15929 4.403614 -7.518888 -3.7284427 5.92674 5.70593 3.8578887 -5.268336 4.979638 3.3054678 8.370111
1582 1.8764092 4.3122525 -0.9107407 5.2664933 1.4068347 -0.79856294 -3.2339933 5.7757964 -4.073315 5.5868664
16728 -8.900235 -8.54624 3.2159173 -1.9483045 0.96119744 3.3479624 -4.982565 1.6860331 -0.39526683 -14.174499
7005 -4.9716954 10.473017 -0.44927645 1.8367858 -4.2059116 -1.9448214 4.093473 3.0046036 -2.9462216 -8.577753
6696 3.2043002 -3.8234904 -7.6421304 -3.698936 -6.5879087 4.710414 -2.7381437 1.262778 0.14892417 -4.48077
2134 4.424601 0.69183326 0.38985714 -7.208873 -0.6245382 -0.32983595 2.5765548 3.5817366 -6.816612 8.628593
10969 7.8172054 10.3448925 1.2361534 1.792948 -5.41362 5.675725 7.135331 -2.084986 1.8700606 -1.1456488
7173 -5.7303967 -8.410412 -1.7324114 0.017613498 -0.40478122 3.4611478 -5.722284 -1.8716244 9.448778 -4.5712857
7655 -1.6923459 -5.87146 4.2625217 -2.774345 8.783217 0.85626477 9.572699 1.0017209 -1.6017958 5.7727265
16072 6.1849747 -0.3566924 0.90485764 2.2956226 -4.7489233 2.3141012 -3.5582526 0.34864053 7.1758285 3.5121174
6961 -3.6083546 -5.029141 -6.7070127 -4.678004 3.8441913 -0.05721564 -9.338747 2.6428912 0.38454822 -5.903942
13821 3.792213 -1.3463712 -6.4198136 -5.6618247 5.5695376 5.417753 -1.5495577 -0.8622942 1.7964476 -4.2958994
1390 0.12993567 6.157453 -2.228688 -6.191886 -0.66908306 1.1809688 3.876204 -0.8877521 -0.3174049 -6.499223
2938 2.5055215 1.2084503 5.58634 1.8326418 2.0004227 0.921528 7.966557 -1.6254041 1.4747113 6.2620087
5619 2.563948 5.753273 1.5792099 -9.228677 5.901319 0.28586516 1.5508227 -3.759797 2.9696002 9.3374
13976 2.367047 4.858475 -0.7015666 4.5960064 1.3695946 -1.895599 -1.9587654 6.3569546 -3.6898198 5.593441
10833 -0.32492182 2.3711984 -2.9054658 -0.59920347 -0.3761056 4.674526 -1.1454304 -3.0317082 -0.53281313 12.925778
88 1.777993 6.2098546 -1.2715167 -6.6879826 2.2367537 3.733583 3.4654744 -2.100217 -2.0345874 -3.5973606
5538 -6.579082 1.5088419 -0.6269027 -7.337039 1.2292334 3.2417417 7.807755 -7.813151 8.169941 3.2908525
20128 -4.156086 -5.2066054 2.0677097 3.6231046 -5.9907055 3.139317 -0.6285176 -0.25631163 0.11591136 -2.053155
7340 -7.007245 2.922431 0.5655723 0.8894839 -5.429387 -0.94854856 -7.242499 1.2571552 -2.606394 2.4949834
4187 -4.3718076 0.25807136 -1.7198523 7.3963766 -1.4161263 6.341154 1.7595361 1.0049311 -2.3383415 -4.028079
10933 -0.525435 5.201413 8.836159 3.944998 1.6408532 1.8093318 3.3626666 2.0407288 -5.1660943 3.1465116
2824 -2.594293 4.996879 -0.8652333 -3.384122 3.0469847 -0.42698136 -4.6037126 0.5730083 1.3374277 -4.0042634
14624 1.8430636 8.876975 1.0064667 -2.3359947 1.7359833 3.5359616 -1.8349907 -2.885357 3.319903 -2.389031
3867 3.36333 -2.2014976 -2.076744 -7.87541 -1.1563693 -3.2989862 -4.258527 3.2480547 3.9233105 -6.379693
15969 2.3444445 -4.5596275 0.6408496 -7.119506 -2.1328497 -2.3715878 -1.8348581 2.6400175 4.386309 -5.9921618
9304 -4.7280035 -7.724107 -4.3871317 -3.4207914 -2.802298 -4.3268123 -6.7759185 7.067772 -5.5782695 -5.046427
8197 -2.403689 2.413911 -1.4366208 0.0767825 1.2388428 4.1355844 14.056443 -2.9126334 -0.18985085 -1.2277081
21473 6.464642 -1.2499344 -1.9771597 -8.587284 -0.84264845 -1.5664418 -4.360994 2.813505 3.356568 -4.3750997
9558 4.6263456 -7.781871 -3.5495617 6.079683 5.6915307 3.8068078 -5.052792 4.9007483 3.4794083 8.811929
3798 -2.2881768 -1.4837978 -4.525749 -10.922068 -0.11726892 2.9234352 -4.865041 -2.825976 1.7471644 -2.7052853
10887 -0.34601283 6.9373994 2.0828972 -7.9953423 0.5592327 0.41542703 -1.6049138 -0.20365822 -5.127371 -3.7839599
8630 1.2806871 -6.167777 -4.877084 7.2982774 6.855471 3.227118 2.2134078 3.1309214 7.03734 3.970598
7086 3.0217574 -4.33412 1.947326 4.6843843 -5.753297 -1.1955736 -4.5434384 3.3276253 4.753763 7.982819
15970 0.8848898 1.1279395 0.1749878 9.754748 -4.8206906 -0.06133939 1.1976846 3.8553345 5.8629804 -1.2851743
13487 5.034216 -1.4220653 -3.6932516 -10.376738 -2.101251 1.1524131 -1.8052573 0.051375613 1.4742726 -1.5528451
4112 5.435577 1.3580045 -3.914139 -4.4230094 2.2797112 -3.3111308 -0.6276484 3.6211793 4.5163107 -1.001665
18207 2.6471336 -4.450446 1.6000175 5.961844 -5.238473 -1.3254269 -3.588108 3.3295364 5.469321 7.6493907
4219 -11.71351 -2.9356256 -3.490974 3.5960813 -2.4665112 0.4356632 5.203531 2.2936347 -3.858719 -0.91936666
6331 -2.9511678 3.6436107 -1.4243449 -6.3817043 1.9430577 -0.814496 -1.0870388 1.902721 -5.5569015 0.21808818
4851 -2.3808553 4.764231 0.2181273 2.5492067 -7.0082445 -1.4576387 -6.8624554 1.9279791 -1.9381881 4.2502503
10261 1.545683 3.692361 -2.4642823 -1.3612307 5.0888653 1.2489502 -2.638745 2.5140545 0.4449049 -7.801118
12135 4.692621 0.7991574 -4.5367374 -4.2100706 1.3188493 -2.6228666 0.31281644 3.0126448 3.0916271 0.7656937
3966 3.8900683 0.14379601 1.8959981 -4.2439065 0.4720123 1.0247985 5.6763506 1.0964799 -4.5382376 7.630679
19027 -3.042673 5.539577 -0.40081367 -3.915406 1.7390529 0.4712379 -3.4925869 -0.63609827 0.9655825 -4.6345806
14485 -4.1826515 -2.2134094 4.672359 5.4349623 -5.3910336 4.5254345 -1.046363 -0.74788 -1.3810567 2.2067986
20086 1.5107033 3.6370537 -0.18840832 7.703725 1.1765099 3.6023085 -4.1419487 3.0523245 -2.284486 2.8465407
19753 -3.455521 5.441528 0.13880572 -3.914853 -7.293157 0.10529356 10.196269 -3.1085937 3.6646912 1.3572276
95 -5.372969 -7.811218 2.9042475 3.0109391 -4.051444 2.2355485 11.623693 2.044429 -3.8047476 2.4607954
22405 4.749473 3.0842586 -1.3307806 -6.35076 0.0039158803 1.4971426 5.0758414 0.8497941 -1.6554154 -4.7631693
14399 -0.6104773 -0.9666918 -10.3410225 0.20183879 -3.1018596 -0.80260974 -9.6730585 7.3656225 -3.7601492 -7.873501
10210 3.214536 -6.519899 -1.3254347 4.4030576 -3.734189 1.7226406 7.196538 5.863959 -0.37114796 -6.0710645
9394 0.5743616 0.41288954 3.2485316 0.66981584 3.4323635 -2.4769897 5.4330397 1.4224402 5.3838115 1.6149156
15908 -8.21717 -8.381327 -4.863246 0.87924546 -2.907148 6.8677163 -2.5131538 0.1636714 -7.8708777 -2.5873184
2684 6.351826 1.5129968 -5.186473 -2.2922266 3.9270568 -3.2412024 0.53783524 5.465491 3.423873 -2.3364937
11813 -2.029218 -1.7263662 11.102687 6.175737 8.1731415 7.7050495 2.77238 -0.6576621 7.7197027 -8.479858
6886 -4.5701356 -3.2475653 2.1116586 5.3656435 -6.3869824 4.4207277 -1.3964055 -0.048331007 -2.768321 3.1171777
7400 3.9126852 -1.5492069 1.3215878 -5.3164816 -0.63168186 -0.33524445 4.6172853 3.5125515 -5.864637 8.681841
3423 3.5796213 -1.611266 1.0385501 6.340382 -2.9517677 -2.0468514 -4.7212543 7.9063754 1.4716067 -3.287469
2211 6.084865 -6.5340695 4.2589407 -0.90181214 -12.216403 7.577949 -1.511683 3.614546 -4.8937883 1.9018267
14782 -10.1774235 -0.72976625 -0.8348501 6.3951 4.4107466 6.0139546 -2.492997 3.9651718 -9.29744 -6.5300584
15128 -10.1645975 -6.7564406 5.3367825 0.33153537 3.1740398 0.8283097 -5.22696 -0.7214271 7.8326283 -1.9604264
19885 1.9658148 -2.5060291 -1.3623402 -6.038956 -2.2714443 0.57901424 -1.5974329 0.9396461 3.8995721 -11.588642
4465 -0.94638246 -2.6502595 6.1465006 -2.3082876 0.7939846 -5.691594 5.688579 8.255187 -4.7963195 -2.838883
2110 -3.285888 4.556829 2.1061876 -4.069673 2.666298 -0.8812405 -0.5168892 2.8712075 -7.350638 1.0774258
10344 -3.099644 5.182301 -0.83921367 -7.4535794 2.6729817 -0.60871875 -2.240609 1.4933704 -5.1508 -2.163714
992 -5.818993 4.807425 -2.6793644 -0.7412028 3.6538413 -1.5586499 3.19893 0.13062863 1.4763038 4.741795
10511 -5.082477 7.952047 4.044305 -1.030915 -4.4253135 4.833081 1.295477 -6.297065 1.5525293 1.6131791
3380 -8.427326 -3.8682969 -0.96457654 7.456088 2.7372193 2.6964478 1.9299383 0.96790206 -2.1827743 10.648062
375 -0.22844167 7.210371 -0.9639683 -6.6512876 -4.1895885 -0.022009315 4.6667433 -0.61034197 -0.013163997 -5.774266
9641 -1.22568 -5.4330297 -5.4679303 1.5429773 1.8380353 1.0344428 -1.4499501 5.474982 -5.7644234 -1.0166577
16322 -4.8959017 -6.8744984 2.4818027 2.5559034 -4.160441 2.253193 11.6915245 1.6985742 -3.789627 2.2308996
19133 6.0396576 -1.138509 2.704917 3.4657645 -4.35943 2.087262 -3.4236403 1.1472019 7.683889 3.192531
22040 -1.7712806 -4.966816 0.93603796 0.49474946 -0.4419326 3.2639956 -4.590565 3.6238503 -3.5507436 -7.9332595
17791 3.388596 4.0836296 -2.639209 -3.0965621 0.15602407 3.6917589 -1.8874041 -1.0964222 2.8621294 -6.419682
9645 0.23878233 0.58709866 4.524017 0.62506187 2.5089996 -2.3533337 5.010927 0.76574093 5.7923293 1.9403735
109 7.0689163 2.7232893 4.7267933 6.236173 -2.6454563 9.593218 7.231366 -1.5253509 0.97593987 0.15098149
21759 0.6917776 1.5438912 0.7188111 9.340831 -4.7465906 0.12474538 1.5322908 3.8049262 4.6186953 -1.3347458
4804 0.115772486 7.540658 -1.8087142 -6.2379375 -3.794998 -0.54992366 4.639853 -1.807125 0.9721955 -3.1131043
14633 0.21175198 0.39456537 3.4484591 0.98698086 2.8398685 -2.387168 4.456538 1.1700282 5.4899597 1.4347359
2974 -2.519671 5.68264 -6.3809133 1.2389674 -4.9193034 2.023229 2.4005702 -0.69094265 1.0143523 0.864964
10586 -4.47217 0.41053045 -2.2280023 5.8271976 -1.280448 3.9144652 3.70388 0.5507249 0.3656042 -6.2333393
8718 6.4304986 1.0707192 -4.3451343 -5.9796963 0.8946654 -2.5669138 -0.8513216 3.7053049 2.6124573 -0.70566386
1095 -11.385474 -9.1019125 -8.636795 2.861085 2.3350823 -6.624418 -1.3318443 8.541531 0.5196967 -0.6470846
779 -3.5287848 -10.5010195 -1.8245331 -3.663772 0.9849325 6.3820596 1.8381209 0.63046086 -3.5168016 -11.217486
9992 -4.121994 -8.220144 -4.310861 1.2555231 -4.6611695 -2.240707 -6.955157 4.9696507 -0.41379514 -6.1680646
5821 0.7315714 -0.861155 4.9077554 0.9115169 2.9698505 -2.92222 4.9090333 1.5346923 6.81716 2.1356735
2832 -5.910179 5.730769 4.7253995 3.5015512 -2.595528 -3.0833766 3.1474595 2.0148149 1.8377092 -2.0854254
18280 -2.7794952 6.9468403 -2.7961018 6.7472744 -3.9492595 0.95717955 -6.648216 2.420602 -0.5452013 4.227955
15562 6.4548335 4.8023534 1.3543417 1.67249 -7.2800922 0.251221 -4.3238482 2.0356925 5.3971424 -0.6490178
17713 -8.806724 -0.3654081 -6.948789 7.130014 2.823307 -1.7749434 -7.076337 3.8684063 7.2404776 8.210076
12944 4.1104746 -6.241068 11.579299 0.45977807 -10.578666 3.4030943 5.069874 3.634173 -0.9220071 -0.71718836
4462 -6.1937165 -4.286757 7.03954 -4.97356 2.3504632 4.04267 -9.896323 -3.2295897 5.4340696 9.195674
19371 -9.1914215 -5.2457533 10.121649 -0.6555862 4.861188 -0.5061159 -3.8375278 -1.6982661 12.920125 0.78935397
20663 -11.836763 -2.8733757 -3.070379 2.777576 -2.9529583 -0.23052977 2.973521 1.6724621 -2.2165256 -1.5480921
526 -3.930479 -7.5417466 9.875451 -4.980686 -3.204828 5.82463 -3.0050483 -0.7969034 -1.0331444 -4.6139617
17308 0.44785452 -0.12526329 5.3464293 1.3488464 2.8141503 -2.6077175 5.479866 1.0918846 6.5910077 2.101459
3726 1.7996321 -0.32451206 -2.2390816 4.2780104 -8.946377 2.9141982 -5.909333 -0.80776334 5.3850856 -0.5772083
6399 1.1542455 -5.534343 10.187922 0.48877499 -1.5930762 -5.6839366 -8.703929 8.57416 2.698254 -1.1390616
3629 -5.335905 -1.6018722 -4.7890725 -1.7171192 -8.190806 -1.002592 -8.632498 3.365263 -1.9228954 -7.5499167
22237 0.2565349 -1.2148702 6.8833785 4.6592393 0.6193175 0.42717195 9.618168 -0.7079503 4.209132 6.6715455
16210 2.7929575 -4.7844787 1.7674065 4.6285424 -5.5852714 -0.8293372 -4.436723 2.9916925 4.863095 7.8619356
3829 -6.1787486 3.0684671 -0.734027 -2.5636287 7.041904 6.355222 4.723937 -7.4590144 7.30872 2.9733143
7635 2.270926 -2.8527915 12.738337 -2.9992785 0.77944636 5.0024953 -10.282295 4.2743354 -6.0342226 4.906943
2958 -5.614055 3.8911738 2.4187431 -5.080354 -7.33718 -4.932744 -4.076298 -0.71410334 5.129492 0.68038625
14053 -9.107719 -3.3678532 3.62211 12.871135 -3.2305455 -3.5741856 0.46875155 7.241144 -2.5368204 5.802587
10785 -3.4926705 4.020364 2.620372 -4.2783904 2.738166 -0.92968154 -0.7542764 3.0524352 -8.158827 1.2511827
1316 4.8267164 2.0163805 -4.46836 -3.9919527 2.6686733 -3.0204685 -1.0756431 3.3523197 5.4380627 -1.9137123
19228 -7.162051 1.1285522 6.504633 0.99836105 1.5102392 -2.2104483 -10.323652 2.6052 -1.2570156 3.431033
1243 0.06239436 3.3040042 2.5769553 3.5623052 -0.62341887 3.4058092 6.1388316 -1.6173195 -1.7046129 6.1443043
10235 -4.9575415 2.5613515 -0.3608576 -6.3498483 2.100715 -1.3383722 -1.4559587 2.9857278 -6.673539 1.2871251
11509 -7.5726757 -8.840198 0.93580467 3.8202474 1.4768376 1.2281886 -4.1336308 -0.44935012 14.528755 -0.5333716
660 5.8092804 5.472375 1.2215497 0.07677226 -5.421418 1.0727692 -3.9111643 0.6102945 2.489908 0.54804593
13383 -9.302494 -3.4781628 3.5127013 12.7911625 -3.344093 -3.477247 0.23055598 7.1428523 -2.4986048 5.688195
16175 -1.8030013 4.378557 -1.4493214 -3.0637085 2.6824234 -0.25060588 -4.791514 0.6649658 0.9505234 -2.9387112
11340 0.04249193 5.9274864 -5.1397715 4.3942857 0.13638967 2.2538846 -3.9880273 1.4347327 -0.75991863 2.1060925
2337 -3.8755283 0.84925675 -2.043462 6.809395 -1.6190873 5.9487615 1.6809955 0.54946893 -1.6089171 -3.9131854
22385 -4.156821 0.091911264 -1.6849862 6.890634 -1.001659 5.9396963 1.7914221 0.8538966 -1.5223538 -4.394189
4204 0.49054408 3.8520596 2.7963624 3.0751429 -0.8177001 3.4890935 5.0591464 -1.5285348 -1.4545953 5.497447
17710 -7.776847 -7.55237 1.0557256 -6.1921806 -0.55575275 -7.8777723 -0.94522476 3.7365775 2.9228306 5.0177655
1705 0.010950042 2.3254738 1.0389386 4.2074656 3.2845466 1.5795434 8.217651 -0.69984734 -0.9778252 9.229245
17545 -1.3830802 3.6776202 -2.3640244 -3.2181191 1.5527805 0.6053806 -3.2348158 -0.20496751 1.2754812 -3.3205395
8015 10.060127 1.3308043 1.0018333 -2.6670687 -5.945726 -2.8336794 -2.4965887 4.190456 3.3596094 -1.8494834
6359 4.445564 0.064119466 0.78064847 -6.0714545 0.26054484 -0.50455207 2.0713139 4.193247 -6.3305717 8.968731
81 -2.0234144 9.961561 1.143215 2.5663795 -2.547 -4.308143 8.692814 4.6520143 -0.645304 -2.0340893
