7258 30
13638 0.13335821 0.25987417 -0.10336705 -0.543436 -0.21900024 -0.20527221 -0.2577418 0.33022952 -0.09739382 -0.20459105 -0.1557687 -0.3121728 0.5207831 0.38024455 -0.22383033 -0.0793046 0.3589943 0.53019416 -0.3078713 0.23446067 0.3627917 -0.28827858 -0.38385668 -0.15191872 -0.04617986 -0.41443062 -0.28826874 -0.6337555 -0.22839636 -0.033257812
18163 0.1343438 0.3058632 -0.61873424 -0.45964116 -0.26359844 0.48163605 -0.29211432 0.5860666 0.48508918 0.08032392 -0.20586075 -0.103950955 -0.095679246 0.11319628 0.4458419 -0.26215863 -0.124359205 -0.39737844 0.012544502 0.14176936 0.1363347 -0.20624179 0.56712204 -0.16308169 0.15957412 -0.6358564 0.21255758 -0.6998194 0.4910783 -0.21489906
7027 0.41500148 0.18448193 -0.12044462 -0.51273006 -0.14377426 -0.5721259 -0.19353257 0.23530905 -0.21084952 -0.6462779 -0.23230502 -0.080000594 0.31280494 0.20107122 0.42960826 -0.6642622 -0.026161283 0.20097558 -0.4326275 -0.039104987 0.29048172 -0.43042684 -0.0780528 -0.16035087 -0.051506557 0.14280254 0.15069266 -0.14299302 0.4666826 -0.7893928
33671 0.45164433 -0.3019177 0.15038407 -0.31322625 -0.37413236 -0.24849701 -0.81361365 0.26714087 -0.6092987 0.4091839 -0.47604266 0.17333168 0.27026978 0.18014206 0.48637652 -0.28361398 0.29336038 -0.58109653 0.21129057 0.060022604 -0.4613776 -0.105283536 -0.5686235 -0.08760485 -0.2620949 0.19817251 0.073547095 -0.66112024 0.20900849 0.2860253
11051 0.47353315 0.47730702 0.16404164 -0.108319946 -0.22100401 -0.44986618 0.030272033 -0.10956238 0.09977756 -0.16398852 -0.2816277 -0.22662267 0.38163692 0.33891565 0.54278564 0.12058638 -0.48747966 -0.1674855 0.35762453 -0.35237083 0.69693834 -0.09128347 0.18925154 0.21757422 0.024353536 -0.158887 -0.15313157 -0.7811568 0.702848 0.5023268
14242 0.13150036 0.4267092 0.112811245 0.24851044 0.03803785 0.18043831 -0.30659 0.23409125 0.049075764 -0.55854166 -0.2340238 -0.3425121 0.4750385 0.7866641 0.13038453 -0.42722026 -0.8976978 -0.5046575 -0.3479255 0.18771978 -0.1155369 -0.15349689 -0.37480032 0.43205383 -0.2823255 -0.21207172 -0.20845498 -0.6638496 -0.21114458 -0.055093165
21142 -0.15212318 0.18402466 -0.13649033 -0.559461 0.6688945 -0.20902151 0.28418937 0.11046233 0.3621313 -0.7102645 -1.2202085 0.26433638 0.034193005 0.5902782 -0.051016018 -0.7999856 0.013592953 0.22719945 -0.04587927 0.10276364 -0.018776776 -0.30212367 -0.017668111 -0.2902494 -0.35569388 -0.36575386 -0.38386807 -0.15978432 0.34456816 0.094554685
36790 0.43282208 0.08520731 0.33321232 -0.06828427 0.3573452 0.1016329 -0.40418503 0.17240308 0.2721597 -0.47310752 -0.17566775 -0.8006277 -0.035243012 0.18151717 0.17186363 -0.43775472 -0.56086266 -0.17895709 0.12943241 0.11693163 0.032274455 -0.6886715 0.29429814 -0.13967866 -0.04774907 0.661071 -0.20149681 -0.98271054 0.5074433 -0.15470809
27450 -0.2981547 0.27904874 0.32469332 0.27561262 0.04811606 -0.2157265 -0.28691402 -0.043422945 -0.016687507 -0.046556532 -0.4798673 0.011129643 0.56530887 -0.37690502 0.64598113 -0.06537099 -0.19889775 0.15179086 0.26463443 -0.021653961 -0.65816146 0.1517009 -0.1895549 -0.2504403 -0.29291523 -0.37232545 0.49659798 -1.1972011 0.30970272 -0.57390803
34536 0.16146229 0.62816685 0.083134755 -0.24947906 0.47815993 -0.031125924 0.16435015 0.30444393 -0.25350997 0.37954265 -1.282466 -0.3353859 -0.3767836 0.2932655 0.31207025 -0.90499717 -0.33627847 0.46408775 0.63485855 0.010268776 0.15760362 -0.14759634 0.01962263 -0.018829288 -0.620191 -0.61263484 0.09503218 0.11719989 0.56416124 -0.17006104
20854 0.56910706 0.58279485 0.01988534 0.25730765 -0.32832327 0.30392444 0.08966636 -0.023917561 0.099705674 -0.3003247 -0.5444852 -1.0045508 1.0074272 0.31701556 0.037391823 0.0700865 -0.12283346 -0.047414143 -0.12513451 0.3847003 0.4200262 -0.3373604 0.37706465 0.007495793 -0.24380846 0.22881378 0.115204886 -0.4392602 0.5691142 -0.38266963
30235 1.1994134 -0.1583314 -0.21341571 0.1878836 0.2257759 -0.1935267 0.006963386 -0.12077239 0.06170916 -0.17647894 -0.13876778 0.023457175 0.21323927 0.064554386 0.3947902 -0.32352734 0.47384143 0.28905976 -0.8833625 0.08187402 0.16588219 -0.06543505 -0.045398418 0.31055427 -0.41452733 -0.7363208 -0.54687876 -0.9076148 0.61441886 -0.44463423
35523 0.12046672 0.07937201 0.026450317 0.40537044 0.3458051 -0.050867308 -0.35680887 0.37869552 0.24107824 -0.84132147 -0.8842036 -0.49946243 0.3116122 0.027534531 0.070243105 -0.39045373 -0.11351752 -0.0337846 0.35665834 0.25450763 0.24230415 -0.9898619 -0.38408297 0.37828812 0.055473287 0.024807887 -0.32980627 -0.38106444 0.341679 0.061145734
16119 0.31132004 0.37245172 -0.26833352 0.2594199 0.19752261 -0.19804737 -0.33024687 -0.18344377 0.3577535 -0.55387264 -0.30508894 -0.6182678 0.25299856 0.48504862 0.23159748 0.035072275 -0.44965187 -0.06693833 -0.101958565 0.010476817 0.07545926 -0.95115155 0.1639552 0.33736688 -0.47061428 0.15857843 0.05915862 -0.8342396 0.5002397 -0.13656978
35876 -0.11591449 -0.32058066 -0.29937717 -0.12013004 -0.15061699 -0.2520282 0.402851 0.23544882 -0.0898541 0.06660276 -1.3634923 0.10645503 -0.26537943 0.4444448 0.10774519 -1.046802 0.20956472 0.29966062 0.050200045 0.2126695 -0.5009428 -0.44491947 0.5997389 -0.265685 -0.30775973 -0.75633025 0.15069366 -0.3252021 0.17878386 -0.74388397
18638 0.31366754 0.31192642 0.27981833 -0.79893345 0.33328453 -0.26711407 0.3966541 0.13004485 0.2808191 -0.19337195 -1.5672611 0.04669889 -0.2755633 -0.36469635 -0.24452455 -0.32785106 0.1892682 0.06800612 0.56690913 0.12962323 0.46363348 -0.45474312 0.0040190523 -0.24122874 -0.17854534 -0.22240648 -0.33388507 -0.29911137 0.8493942 -0.33655426
16631 -0.45214123 0.114272855 0.045002166 -0.40075433 -0.5810438 -0.25150394 -0.16245346 0.26918495 0.25444114 0.4808162 -0.42191464 0.4557185 0.5688239 0.9969345 0.20755808 0.01707068 0.8338116 -0.42890173 0.3888659 0.0008365488 -0.4460437 -0.044799842 -0.4305437 -0.08983793 -1.2633207 -0.38152468 0.3249151 -0.9734315 0.69094133 0.1399694
21375 0.76057327 0.119707614 0.030067928 -0.45667446 -0.2971123 0.43059465 -0.32495123 -0.79134864 -0.37998524 -0.8955564 -0.13323382 -0.028240426 -0.12832345 0.6287633 0.49883014 -0.2023058 0.23754092 0.30366328 0.20350042 0.07074606 0.10711893 0.24809292 -0.24982366 -0.04393814 -0.010196091 -0.1975838 0.07629078 -1.0712334 -0.021974577 -0.43925515
29886 0.786261 0.31873003 0.23991966 -0.5722411 0.4741893 0.2873392 -0.1110213 0.5789333 -0.58803064 -0.64742935 -0.59329456 -0.27977216 -0.0028969843 0.39960885 0.179485 -0.35605988 0.37631837 0.10058665 0.6637252 0.23208332 0.25459737 -0.07077099 -0.3558029 -0.032842603 -0.17722084 -0.7262384 0.24399601 0.14351264 0.18734755 -0.025387678
13504 0.19525225 -0.011120015 0.62798107 -0.31223845 -0.023003548 0.3616454 -0.0038665473 0.12713183 0.1402403 -0.15146199 -0.45797285 0.05180954 0.43120182 0.19399309 0.6037941 -0.032638047 -0.177535 0.47157806 0.036624257 -0.41210943 -0.23885448 -0.38159153 0.17299987 0.17918403 -0.9291788 0.263341 0.09146636 -0.88201886 -0.27889246 0.22679608
37107 0.40842032 0.37403288 -0.17898233 -0.028333686 -0.4769837 -0.11947011 -0.30534548 0.6611598 -0.09072988 -0.4135683 -0.3017297 0.017749446 0.09598421 0.43074727 0.09211742 0.276785 -0.9885964 -0.04614867 -0.6325812 0.45095536 0.4484627 -0.18420014 -0.4642899 -0.50809646 -0.6066108 -0.18271962 -0.81599194 -0.6955377 0.59709275 -0.37453705
32753 0.30081147 0.048174247 -0.3955184 -0.077042274 -0.025539804 0.07644176 -0.19775036 0.5184569 0.013071792 0.22689933 -0.0963843 -0.4708422 -0.23294121 0.12559213 1.0384444 -0.56573546 0.16758104 0.8748125 -0.90185064 0.48642665 -0.18665169 -0.35612345 -0.269385 0.17062044 -0.36190152 -0.35876346 -0.19168006 -0.88640916 -0.19595583 -0.12499635
20363 -0.078976035 0.27911592 0.56669647 -0.61450684 0.9126139 -0.12925912 0.20985863 0.35594147 0.22303592 -0.2631726 -1.3162974 0.00023606118 -0.08317594 0.4192138 -0.011421308 -0.5485671 -0.08062702 0.2617039 -0.007913161 -0.26341018 -0.3156341 -0.59879947 0.2397614 -0.07297832 -0.24643923 -0.3991202 -0.31204402 -0.33075294 0.46012208 -0.14505772
33799 0.31774116 -0.031180797 -0.6144231 -0.009033726 0.025027148 -0.02176628 0.44389054 0.17728432 -0.23424503 -0.2700504 -0.41885853 -0.3344437 1.0068011 -0.23139219 0.2943016 -0.5059346 -0.24327363 0.35731992 0.37750158 0.37821007 0.25772685 -0.01131829 -0.19209704 0.70614886 -0.31068724 -0.022321286 0.44274703 -0.9629112 -0.13526769 -0.2451812
494 -0.37636766 0.43826413 0.820386 -0.5866004 0.20878428 -0.19715604 0.108994626 -0.14228928 -0.05625023 -0.35066044 -1.3184001 -0.02416713 0.115990914 -0.01364609 0.318701 -0.836348 -0.31751576 0.12732048 0.2142327 -0.07938689 0.31141496 -0.24981327 0.41162688 0.2973065 -0.24014 -0.42524326 -0.32216933 -0.038721602 0.89334655 -0.123737834
9008 -0.20313518 0.026469482 0.28726748 -0.0011986858 0.030397555 -0.42533195 -0.18167326 -0.015528236 -0.13367973 -0.99750835 -0.43857127 0.026071914 0.5414196 0.5938772 0.39912936 -0.2485071 -0.29575163 0.3010764 -0.0742643 0.33322278 0.7968245 -0.061486065 0.14972657 0.044969443 -0.25511256 0.020354178 0.15501226 -0.5932138 -0.05081791 -0.32902792
24830 0.07831316 0.42320657 0.08349091 -0.45348534 0.016579526 0.17236999 -0.16832261 0.22038323 -0.08132574 -0.05789747 -0.37368304 -0.37010694 0.46877053 0.71060866 0.11740911 -0.6209764 -0.7735158 -0.23810032 -0.05136105 -0.121326305 0.46088725 -0.81085044 0.28797767 0.8374575 -0.12814784 0.50759923 0.23049259 -0.53620887 0.483575 -0.20135501
26649 0.21501128 0.3615691 -0.17332391 -0.036482785 -0.036604214 0.22246087 0.06670301 0.560751 -0.32322294 -0.6354855 -0.15508655 -0.3029873 -0.08742468 0.53870136 1.049342 -0.11124008 0.5781406 0.054698847 0.19069336 0.71251345 0.23114529 0.36147013 -0.36885914 -0.86747843 -0.7166229 0.025511855 0.1602558 -0.4332463 -0.17318381 -0.21550684
26110 0.04798616 0.051326223 -0.59496367 -0.20139119 0.08684721 -0.29989174 -0.47337797 0.026143584 0.55195963 0.5458095 -0.73035496 0.022652382 0.35110894 -0.032559883 -0.34533772 -0.29032314 0.13633648 -0.7318744 0.7145323 0.40426382 -0.32146275 0.057525884 -0.4143398 -0.7512108 -0.73728466 0.10202343 0.34508282 -1.1531605 0.18178493 -0.24462089
21754 0.18008539 0.69372356 -0.38605666 -0.18964718 0.4796278 -0.48541877 0.01739256 -0.27376375 -0.017969072 -0.7638601 -0.34851888 0.39395997 -0.08864353 0.51902634 0.57674927 -0.3147952 0.2312319 -0.45287365 -0.7040607 0.1375689 0.12105173 -0.27974486 -0.10680719 -0.42036805 0.07949824 0.18091927 0.28061962 -1.209133 0.0321099 0.16177322
20236 0.05741479 0.015796471 0.025930988 -0.39703983 0.24148849 0.08290367 0.96634907 0.5720884 -0.054939363 -0.58636916 -0.5362603 -0.21973814 0.47805187 0.08558966 0.12308751 0.21364719 -0.08971401 -0.54860055 0.1539431 -0.07450085 -0.10108124 -0.17049973 -0.415151 0.49864197 -0.019202536 -0.73765504 -0.069515936 -1.1602952 -0.4972247 -0.539429
22442 0.6681365 -0.31144542 0.2819276 0.12641814 -0.056248695 -0.023674421 0.083823785 -0.277546 0.4107024 -0.14652666 -0.21866827 -1.0423197 0.2449978 0.39211336 0.26404357 -1.0161834 -0.098008364 -0.49953565 -0.40154985 0.2454013 0.22329915 -0.08135373 -0.3609945 0.62697184 -0.90265864 -0.051728345 0.1321524 -0.4272259 -0.19006024 0.27418154
9395 -0.20210052 -0.14057833 0.2820601 -0.592889 0.29290822 -0.1279277 1.3994424 0.57626194 -0.018278485 -0.22723518 -0.77639365 -0.12494008 -0.22021532 0.1370048 0.18006195 -0.85885155 0.119375676 -0.16198547 0.42306373 0.08607068 -0.10392316 -0.8951432 0.0071399002 -0.118166275 -0.42006487 -0.8167777 0.34242725 -0.6564033 -0.242549 -0.467766
11242 0.08655205 -0.24666591 0.4067035 -0.30532312 -0.1435668 0.20488466 -0.056108773 0.069744945 -0.14714621 -0.6141189 0.15557243 -0.38818076 0.36432675 0.35857105 0.7067598 -0.31794238 0.35778162 -0.43177366 0.4037202 0.65607715 -0.73935914 0.44482225 -0.055640977 0.2514971 -0.21140464 -0.10858936 0.14241879 -0.9390717 0.89602864 -0.23898317
29082 0.15233652 0.11936626 -0.16903134 -0.49337673 0.10856438 -0.474643 1.2501054 0.6199619 -0.20495532 -0.23523544 -0.36107236 -0.44767925 0.3483455 0.25690466 0.030584425 -0.247992 0.09691861 -0.39793122 0.17728665 0.038760785 -0.015508023 -0.000730096 -0.38219452 0.55276805 -0.05890137 -0.92087406 0.14113408 -0.83350927 -0.24474138 -0.3243242
15192 0.34021187 0.42059293 -0.24216963 0.036896292 0.6703778 0.22263098 -0.44639638 -0.31280255 -0.054166317 -0.5675367 -0.07242823 -0.4758152 0.8368833 0.20142807 0.03455853 -0.19991393 0.16184177 -0.28699642 0.2144698 0.36326376 0.19733466 -0.09364901 -0.3541415 -0.1540144 -0.52408904 0.2676121 -0.033943623 -0.7190576 0.27603757 -0.18285905
12505 0.17267694 0.2178216 -0.11738585 0.10168417 0.43663725 0.22026537 0.46946135 -0.25472346 0.04031371 -0.20348544 -1.4551384 0.4540836 -0.13215742 0.061031576 0.5280356 -0.75301844 -0.0073243896 -0.110507905 0.8379137 1.1388828 -0.6372181 -0.72867197 0.27978915 -0.27613443 -0.21299711 -1.0639542 -0.19918653 -0.35966775 0.36133578 0.22603
9553 0.12694268 0.0012429811 0.042826667 -0.008527661 -0.33328244 0.47109556 0.12430687 0.20708881 -1.0141141 -0.46116805 0.20084248 -0.016846914 0.072501965 0.066318214 0.062924445 -0.4405163 -0.993425 0.35356286 0.11169916 0.66882557 0.0029656414 -0.37539414 0.17220657 -0.6953968 -0.6384441 -0.3520642 -0.0755536 -0.998079 0.36995563 -0.1741816
13857 0.57420814 0.26806363 -0.018347405 0.28087962 0.8018729 0.018402878 0.08545643 0.010506294 0.21056841 -0.30349252 -0.6154799 -0.16655192 0.5771395 0.7152386 -0.13154909 -0.2574577 -0.031528633 0.18697093 0.19206338 0.41578117 0.19644493 -0.3372394 -0.5012256 0.2541546 -0.08972681 0.15943089 0.26080218 -0.73638535 0.3743053 -0.28829402
6301 0.12425095 -0.3102014 0.0005530911 -0.5739001 0.31263763 0.010064437 1.1197995 0.416792 -0.66341 -0.19820769 -0.7713024 -0.13587026 0.1730827 0.3377394 -0.13225766 -0.36648077 -0.007999993 0.13951334 0.31726757 -0.168824 -0.20005427 -0.60944873 -0.3007286 0.432097 -0.28435752 -0.7101237 0.2232638 -0.75255823 -0.1217655 -0.36803618
21376 -0.16100276 0.22563621 0.121236175 -0.4036264 -0.21636128 0.03640519 0.54577917 -0.4276756 -0.1691492 -0.38398865 -0.58817065 -0.44838643 -0.017797593 0.28809738 0.21789381 -0.79702544 -0.052407354 -0.0961089 0.70936793 -0.22978525 -0.2802959 -0.68187493 0.2733503 0.37026882 -0.4561112 -0.7001662 -0.056471255 -0.05508489 0.7195098 -0.06976957
4174 -0.097642556 -0.24545187 0.4680312 -0.6265616 0.25855893 -0.3834014 1.051318 0.6506957 -0.07518723 0.07175467 -1.0745708 -0.25713587 -0.5061655 -0.10451021 0.024651378 -0.73490334 -0.064087056 -0.24634485 0.4512836 0.008581646 -0.19037291 -0.44910446 -0.04390445 0.2149086 -0.22699212 -0.6967945 -0.36070526 -0.6053636 0.358262 -0.005285244
27106 0.885208 -0.4071303 0.19323635 0.013909453 0.04527924 0.6387036 -0.014423246 0.26159903 -0.38191327 0.16569394 0.16064899 0.24126136 1.1243932 -0.111307494 0.6543102 -0.33278188 0.065552965 -0.0066126604 -0.51961535 -0.39148533 0.60992163 -0.47764206 0.5637861 -0.2778066 0.07452734 -0.58514094 -0.6545181 -1.3686752 0.58758056 -0.19556542
32060 0.102983795 -0.31595787 0.103548676 -0.26264742 -0.24760349 -0.29979303 -0.18102512 0.43644306 -0.5463809 -0.56902903 -0.65405804 -0.14558665 0.9777983 -0.16688056 -0.07619316 -0.421641 -0.009654079 -0.07564638 -0.76840883 -0.047318883 0.6085792 -0.430755 0.18265477 0.3227431 -0.20526773 0.03143844 -0.029901113 -0.41894132 -0.030004257 -0.6098149
22452 -0.13837504 0.3660094 0.17283216 -0.7444506 0.6662293 0.1448343 0.21559839 0.73431414 -0.14498477 -0.33623815 -0.94284916 -0.07012741 0.13442768 0.46336484 -0.07946751 -0.7491878 0.002871162 0.17014027 0.33079863 -0.35049918 0.19139317 -0.44918874 0.011723906 -0.0033656217 0.0149517385 -0.15692705 -0.40804493 -0.16667603 0.5352117 -0.54534614
24207 0.25453734 -0.012792611 -0.30915082 -0.13619131 0.59312177 -0.184526 0.6903783 -0.20795614 0.21598704 -0.40614632 0.17901623 -0.37576908 0.80911255 0.049657963 -0.06844288 -0.24221526 -0.28758705 -0.51142323 0.18441206 0.37048173 -0.015392012 -0.41776246 -0.047626454 0.2521778 -0.48437703 -0.23467901 -0.13936336 -1.0544441 0.1407913 -0.2677891
33069 0.7327188 -0.2177867 -0.18168144 -0.03272757 -0.12603594 -0.30360964 -0.0038194908 0.6787673 0.07887421 -0.123944774 -0.044973653 -0.17996567 0.49374485 0.11630464 0.3337437 -0.21676524 -1.1438205 0.20408313 -0.16135274 0.5272619 0.40685982 -0.62599283 -0.43704048 -0.44567513 -0.59866506 -0.054106664 -0.45791075 -0.5504732 -0.07126448 -0.4066531
20193 -0.28957242 0.32536253 0.12645131 -0.064787 -0.071233094 -1.0164721 -0.41704512 0.030264532 0.113188244 0.028325548 0.06498161 -0.40386415 0.56731546 -0.22325717 0.51044357 -0.60864985 0.6655086 -0.23133498 0.3830827 0.16472192 -0.52495635 0.20011751 -0.14072338 -0.34368253 -1.3413357 -0.3810794 -0.33000705 -0.7666737 0.4048258 0.57733786
4793 0.38295916 -0.22186217 0.21043439 0.9456226 -0.19950323 -0.024340864 -0.34864345 -0.308783 0.16696168 0.116473556 -0.08299691 0.23794979 0.4351848 0.4521024 0.97239953 -0.71557677 0.46710238 -0.07317348 -0.22817178 0.0029056654 0.3548951 -0.41181442 -0.05144278 -0.062403794 0.20454405 -0.16601369 -0.8417302 -1.2856307 0.018490337 -0.44350272
6165 0.35742512 -0.17076473 -0.0295068 -0.44535616 0.19602944 -0.08065413 -0.3295817 -0.39113203 0.91595435 -0.40730885 -0.55096143 -0.24500786 0.44046354 0.35426265 0.471005 -0.3199125 -0.111249246 0.35011217 0.064822115 0.33864564 0.08606525 -0.8713827 -0.3313389 0.08164769 -0.46359584 0.29373556 0.4133891 -0.60552955 -0.09884298 0.14301832
11271 0.30731314 0.7593633 0.3220009 -0.05823135 0.3886152 -0.045928195 0.15489525 0.38233435 -0.43065953 -0.39217523 -0.30084953 -0.6288766 0.67371994 -0.099873245 0.23282252 -0.1373637 0.29657358 0.10733652 0.015891004 -0.3472962 0.17154725 0.40100205 -0.08368799 -0.19928241 -0.30525324 0.14602 0.1534143 -0.97830945 -0.2993045 -1.0003458
32718 -0.243046 0.7019429 0.42324942 -0.4182992 0.36944577 0.18800385 0.20923834 0.1661971 0.27525598 -0.24468552 -1.3757881 0.13765475 -0.2852615 0.29581085 0.58519804 -0.20998532 -0.19588682 0.29228115 0.3278343 0.18534207 0.7278143 -0.64561987 0.59303176 0.31593263 -0.89458716 -0.28727 -0.2757581 -0.009261759 0.68005776 -0.33592793
33952 0.04837933 -0.02720355 -0.30083248 0.34221065 0.16818738 -0.50033057 -0.5323738 0.263522 -0.30604464 -0.6298127 -0.33646598 -0.7244829 0.60198534 0.78598285 0.41440192 -0.23372011 -0.113321565 -0.2383453 -0.12852189 0.010205722 -0.2699495 -0.48085216 0.26579565 -0.035037003 -0.28132007 0.38925457 -0.026913669 -0.5559509 0.008831689 -0.5435971
28944 -0.20743792 0.2639112 -0.5078009 -0.10146461 -0.49639294 -0.7801784 -0.54408944 -0.22731124 -0.32334533 -0.105272986 -0.61842316 -0.5475675 0.2922524 0.08939114 0.56040114 0.24577445 0.40422532 -0.18860199 0.6224602 0.90476394 -0.05679197 0.12437001 -0.7167679 -0.71348727 -0.7444062 -0.8395706 0.32010928 -0.46351138 -0.118449695 0.08642842
7513 0.08212627 -0.05372461 -0.294279 -0.31715018 0.23256655 -0.018546829 -0.43328604 0.0355368 -0.34166208 -0.7256626 0.2366004 -0.5961136 0.98162216 0.18822938 0.78661555 -0.5931871 -0.4430413 0.039003786 0.095038004 -0.06413758 0.71285444 -0.12376824 -0.53331065 0.20635958 -0.54404545 -0.088731565 -0.6153339 -0.15391278 0.30087796 -0.38197744
9532 0.55205786 0.07520177 -0.1749876 0.25524879 -0.031335186 -0.49573678 0.09289508 0.34289154 -0.01723014 -0.48377737 -0.24737658 -0.46436054 0.6676449 0.42987522 0.3135856 -0.05878289 -0.9017096 -0.3653514 -0.21045837 0.139652 0.2501126 -0.5497692 -0.10702103 -0.33601502 -0.5794555 0.12771772 -0.09420176 -0.38811854 0.29316613 -0.031388305
17787 0.36939946 0.05096984 0.015761228 -0.08564864 0.052140314 -0.3553747 0.12419011 1.196852 -0.07329155 0.1417307 -0.8066418 -0.3337168 -0.5524962 -0.11058882 0.9391908 0.3949012 0.533024 -0.24286364 -0.34222475 0.4088134 0.39563018 0.042580806 0.03819974 0.25752687 -0.6763082 0.14497507 0.22371244 -0.7403286 0.37080184 0.12213152
7339 0.31209958 0.43158162 -0.0029914938 -0.070795424 -0.33992144 0.23841026 0.76031816 0.21270184 0.10307646 -0.36951867 -0.35064188 -0.8154885 0.7170895 -0.019734038 0.5943777 -0.24938983 -0.22901551 -0.22124214 -0.043417327 -0.24004143 0.11040882 -0.028400268 -0.32571456 -0.42186916 -0.13479458 0.53012717 -0.4671464 -0.88874996 -0.2043182 0.13858844
37690 0.41994974 -0.303215 -0.07534138 -0.18106082 0.35461605 -0.36179304 -0.49399328 0.75462794 -0.6279855 -0.781326 -0.15952912 -0.12381308 0.51282424 0.33940098 0.25693712 -0.43362385 0.13996162 0.033253923 -0.118751585 0.27445284 0.675772 -0.049767014 0.48672688 0.3798037 -0.17843397 0.03867666 0.36231348 -0.6973034 0.09845857 0.05238992
35822 0.47543412 -0.20501631 -0.19604059 -0.0067401202 -0.001324496 0.21881263 0.28658074 -0.22922324 0.9869744 0.2281071 -0.55972975 -0.008843515 0.52084625 0.29043233 0.45891088 -0.27079615 -0.3821435 -0.18086675 0.29300806 0.0812758 0.41537502 -0.92947197 -0.60264695 0.014122551 -0.38283587 0.40253353 0.38221112 -0.9169919 0.04462444 -0.28931922
24473 -0.6800807 -0.32054958 -0.057234827 -0.20143999 -0.4107903 0.5130264 -0.27660957 0.20432068 -0.2761731 0.44193938 -0.43830922 0.3155976 0.05270401 0.5332627 0.16319636 -0.7427043 0.725623 -0.20457534 1.3805751 0.2773229 0.17100261 -0.054731198 0.12478965 -0.02354908 -1.6490153 -0.0871423 -0.24742681 -1.050826 0.45394543 -0.4100984
3990 -0.24955247 -0.43734884 -0.085784286 -0.58440804 -0.09104549 0.069438055 0.5794506 -0.27034357 -0.18976805 0.014865948 -1.6424028 -0.08296073 -0.49141443 0.8454416 0.09954103 -0.8030175 -0.13374566 -0.24217165 -0.085727476 0.1377013 -0.3983756 -0.20298164 0.40405893 -0.3305124 0.022801166 -0.8468845 -0.07494548 -0.5195238 -0.03924056 -0.87008363
8753 -0.041065674 0.09478544 0.06447092 -0.64559585 0.66228765 -0.02497994 0.047202095 0.27328682 -0.44003978 -0.8684206 -0.71602637 0.02792504 -0.03979873 0.31092593 0.06468861 -0.8454135 0.4059005 0.11345283 0.21877415 0.07643145 0.4362004 -0.96502995 0.44063446 -0.18829928 -0.22417541 0.018685233 -0.5617932 -0.10546165 0.3494067 -0.3940019
5210 -0.51964784 0.15515748 -0.028647292 -0.51850736 -0.039964527 0.7873993 0.55071855 0.2810211 -1.0444824 0.2812124 -1.2137799 0.14506257 0.33950308 -0.059375707 0.04611277 -0.5236464 0.05909376 0.0996444 0.09742631 0.5211406 0.018159252 -0.3899457 0.1768641 -0.34979078 -0.4808771 -0.53218293 0.08413279 -0.47198772 0.47050261 0.63376856
15940 -0.36010206 -0.62744325 0.15979554 -0.15900789 0.38784194 -0.28570038 -0.40830317 0.15435246 -0.17521343 -1.0049518 -0.614865 -0.16762377 0.30598116 0.06124349 0.23910168 -0.63051516 -0.28029552 0.54787326 -0.0677855 0.16668515 0.3881911 -0.28234786 -0.1731775 -0.035239346 -0.1430679 -0.06493787 -0.31760982 -0.7111089 -0.084640756 0.18339986
13708 0.28969118 0.17178434 -0.11770759 -0.37119767 0.46782148 0.33608213 -0.901771 0.42996824 -0.0033577706 -0.92274266 -0.30878314 -0.083613016 0.63049775 0.08912931 0.4041699 -0.38339812 -0.02030801 -0.0992 -0.25938737 -0.0027290913 0.1427006 -0.11204415 -0.36230502 0.54944366 -0.43816388 0.2967961 0.26099464 -0.7808512 0.099597186 -0.10419148
37557 0.8310203 0.05363288 0.37848526 -0.20743151 -0.48073226 -0.17894226 -0.38587475 0.71923906 -0.110272214 -0.38841704 -0.037025455 -0.029936003 0.5211057 0.115149595 0.3275163 0.004979351 -1.0988597 -0.007935489 -0.26257116 0.3458624 0.25249156 -0.6516031 -0.32943872 -0.39389613 -0.43283272 -0.17064682 -0.52785933 -0.5897014 -0.12219554 -0.53418684
4757 -0.020287748 -0.32695824 -0.09887072 0.05649248 0.2377085 -0.42801744 0.09049842 0.059394043 0.28998607 -0.5026272 -0.2928777 -0.61309284 0.68097997 0.3390119 0.21272288 -0.3868163 -0.15381117 -0.1751954 -0.08619549 -0.15661849 0.14897177 -0.55751705 0.16703233 0.046914317 -0.3682015 0.5513779 -0.030442076 -0.88977104 0.7838011 0.31486607
22606 0.15444207 -0.0036145004 -0.7678292 -0.6817266 -0.20887227 -0.37239176 -0.12659873 0.1637869 0.4197181 -0.37557858 -0.80744976 -0.6118681 0.48096636 0.039617807 0.18250528 -0.6379277 -0.2910109 0.46002883 -0.61808854 0.23555161 -0.11648472 0.29848358 0.141294 0.32014975 -0.65429735 0.42390436 0.20343265 -0.6044124 0.17031883 -0.023203947
17420 0.4771516 -0.38440615 -0.24172194 -0.22402671 0.5818497 -0.23913835 -0.63604146 -0.28647605 0.49728408 -0.07109764 -0.4503798 -0.4998704 0.058166135 0.15769085 0.78201395 -0.48076212 -1.0070529 0.20158571 -0.37322065 -0.14912456 0.24188833 -0.040259447 0.06245165 -0.46048987 -0.30822226 0.09669617 0.0056133573 -1.0186551 0.28079867 0.66138124
13838 0.3976762 0.035373997 0.23019911 0.23195513 0.11696692 -0.18706492 -0.013027651 0.079678066 0.60319024 -0.3806612 -0.13089976 -0.7703873 0.90747714 0.6683317 0.22640793 -0.12611356 -0.5245557 0.19146898 0.38308123 0.05688041 -0.21679676 -0.610039 0.08895682 0.29822958 -0.6861283 -0.08909343 -0.14254728 -0.65202093 0.21245347 0.34336618
23818 -0.2739157 0.39597887 -0.3416258 -0.78258604 0.3933444 0.75913113 0.10348634 0.16771829 -1.0188513 0.29120356 -0.6278729 -0.25702837 -0.4695035 0.62150466 0.3943753 -0.51874685 0.0332985 -0.06736264 0.9154615 0.2983476 -0.06279341 -0.1967112 -0.31271222 0.14228903 -0.27356404 -0.23667876 -0.31865948 -0.46987888 0.43802512 -0.15876126
30969 0.71777165 0.18279032 -0.0641285 -0.07975518 -0.3168153 -0.35955378 -0.24731272 0.8840482 -0.002011504 -0.26741925 -0.052409425 -0.11516675 0.37808803 0.34882718 0.37305072 0.07672089 -1.0326217 0.20839271 -0.1566192 0.39930937 0.3151901 -0.53523433 -0.61323744 -0.52104396 -0.60649407 -0.05134819 -0.843048 -0.57790893 0.060666524 -0.33898544
22130 -0.3059207 0.46324572 -0.12014527 -0.6394642 -0.3937636 0.40256298 -0.7719774 -0.51239246 0.2432685 0.723783 -0.7836649 -0.27213636 0.5544401 0.29736158 0.04033537 -0.47123542 0.049412858 0.21150142 0.45362392 0.40383673 -0.2649011 0.15472017 -0.9351515 -0.38860005 -0.61293656 -0.5058887 -0.04152509 -0.46972585 0.71773535 0.5037734
24347 0.36998573 0.3051396 -0.06060251 0.10907861 -0.09660658 0.29939625 0.00068354077 0.5554128 -0.15894379 -0.64486986 -1.0697603 0.11596265 -0.37937403 0.06878641 -0.7375864 -0.9206937 0.39275005 0.27104464 0.5643541 0.5716258 0.03269139 -0.35215127 0.045819085 -0.4228891 -0.16504785 0.031437423 0.12955591 -0.8149045 -0.053895563 0.073139176
33206 0.51178813 -2.2365333e-05 -0.063959904 -0.06348101 0.38725403 -0.38012415 0.18634008 -0.3247273 0.12567002 -0.27045804 0.016780121 -0.580602 1.0237068 0.6522629 0.63164294 -0.44452026 -0.5733017 0.10846888 -0.17993708 -0.16274382 -0.13949046 -0.28661537 0.032981653 -0.68849194 -0.16663396 0.12917009 -0.4226966 -0.62832326 -0.13966615 -0.3085759
4539 0.8208542 0.11796514 -0.08173993 -0.19172417 -0.47062764 -0.48986137 -0.24543044 0.7862863 -0.09562656 -0.18872526 -0.005544388 -0.24747746 0.50976765 0.17277592 0.22232112 -0.042778585 -1.1552266 0.049542323 -0.2410885 0.27520502 0.36079806 -0.56197345 -0.51524645 -0.56107426 -0.63664496 -0.22419626 -0.66356045 -0.4917237 -0.013286919 -0.6063096
29715 0.22617684 -0.41160256 -0.16430095 -0.4256142 0.45826045 0.535552 0.047401838 0.0072497544 0.81088847 0.35632113 -0.307966 -0.3308304 0.7294417 -0.0017963115 0.8203497 -0.27608243 -0.015221376 -0.12754169 0.17658302 0.09281221 0.03946005 -0.45743433 -0.9759384 -0.41892722 -0.08908305 0.21101905 0.2145754 -1.2172396 -0.14045328 -0.09205699
28419 0.7190037 -0.039541163 0.37212747 0.23716223 -0.8570545 -0.14574803 -0.24427968 0.73044205 -0.507565 0.02327454 -0.36076874 -0.14376512 0.16438982 0.33678186 0.2909642 -0.31574127 -0.7821139 0.6872756 -0.7288254 -0.119603895 0.32295436 0.00326879 -0.20085531 -0.1297396 -0.80174416 -0.39353088 -0.830465 -0.73878276 0.254071 0.3271802
18825 -0.216598 0.010716384 -0.20645785 -0.6460151 -0.5288318 0.30659625 0.31907913 0.3111452 -0.8945438 -0.48134315 -0.6355569 -0.4475627 -0.029253403 0.180825 0.4956413 -0.06111429 0.08165017 0.5736848 0.086653724 0.4826182 0.027858498 -0.60545146 0.0753529 -0.2586704 -0.2954939 0.45781812 0.39542225 -0.85942346 -0.2511038 0.17361592
27173 0.5722675 -0.32312536 0.28718096 -0.10102943 0.11167439 -0.19366667 0.39155477 -0.13171831 -0.34108716 -0.31100962 -0.27079034 -0.41513973 0.7478584 0.9659737 0.5536494 -0.38635358 0.090813346 -0.119515695 -0.069579504 0.54437625 -0.36189067 -0.7199573 -0.29256916 -0.44865274 0.06360084 -0.62320805 -0.023270255 0.22148302 0.26359507 -0.36224568
29552 -0.018695664 -0.27301985 0.21402586 -0.20333275 0.3262599 -0.6941694 -0.14103581 0.23669468 -0.4784399 0.19490732 -0.808025 -0.5476686 0.4987309 -0.13045594 0.11804629 0.16342315 0.34272295 -0.23815726 -0.10297741 1.1870348 0.56703836 0.51842207 -0.15914199 -0.11818123 0.69148177 -0.15910517 -0.46833664 -1.684609 0.15092742 -0.41152853
11588 0.017815465 0.39686105 0.10533683 0.030123148 -0.1577487 0.15301608 -0.16029486 0.46094927 -0.26868796 -0.7558919 -0.018228013 -0.39759162 0.44559053 0.21202911 0.55646396 0.1415108 -1.0134176 0.1448482 -0.52732986 0.053371567 0.38381934 -0.1904829 -0.47504914 -0.760404 -0.5588425 -0.24083194 -0.56159866 -0.74229485 0.93232596 -0.2759934
15115 -0.23767237 -0.27018777 -0.27500722 -0.026889514 -0.24452747 -0.063876614 0.57371765 0.21749412 -0.39244387 0.29383308 -1.1547542 -0.009506705 -0.14703993 0.020854944 0.2643441 -0.8515212 -0.13804314 -0.12243357 0.386456 -0.06561254 0.047079787 -1.090692 -0.049812037 -0.62336856 -1.2413808 -0.9854156 0.5688634 -0.0059102885 0.514008 0.42419037
1526 0.8928841 -0.26900834 0.99040926 0.6803696 -0.45308256 -0.08523503 -0.29698288 0.6933444 -0.17299639 0.21696967 -0.20588042 -0.18400532 0.053936392 0.39276716 0.32698405 -1.1409955 -0.21755616 -0.22678363 -0.512909 -0.15000708 0.8815711 -0.271699 -0.11559367 -0.0003337133 -0.027199214 -0.32017016 0.41402134 -1.2551541 0.55571246 0.59789455
19153 0.56072193 -0.006602217 0.05965023 0.25977755 -0.5689362 -0.099482134 -0.2776914 0.31551164 -0.102904655 -0.45207912 -0.32245395 -0.03827025 0.4194664 0.30330628 0.036156856 -0.36954033 -0.5584547 -0.060292155 -0.01565825 0.19822457 -0.015589856 -0.32794118 -0.24179451 -0.48354584 -0.52688825 0.5448756 -0.74954623 -0.60457647 -0.061180983 -0.51949996
36788 0.06590942 -0.06897116 0.5819215 -0.18823938 0.6883839 0.069000244 0.36449105 -0.107018664 0.1547392 -0.18109013 -1.5346619 0.11140187 0.3589725 0.90748495 0.35836142 -0.87944365 -0.045065925 -0.24862708 0.08203042 -0.10682377 0.31725392 -0.2764698 -0.08658516 -0.49568018 -0.15430863 -0.06552604 -0.033653606 0.23235475 0.50473094 -0.3888762
25166 -0.50809836 0.15195827 0.2694684 -0.2801243 0.31759176 0.15831803 0.8603819 0.21413659 -0.038666148 -0.40026855 -0.08264083 -0.18747607 -0.38135394 0.75546056 0.80894864 0.30393124 0.17550547 -0.111329526 -0.6849697 0.12395433 0.46199375 -0.030345097 -0.044167507 0.2904883 -0.88835174 -0.4359518 -0.6485677 -1.0319269 0.4032136 -0.20372787
19645 0.78488827 0.23012495 0.07995869 -0.5383133 0.35109854 0.9695493 0.15095548 -0.091120556 -0.49586672 -0.022614742 -1.4259481 -0.09636126 -0.3091331 -0.015976982 -0.132234 -0.56281435 0.016130108 0.16079064 -0.18982199 0.60276616 -0.37849343 -0.45642358 -0.05436499 -0.24756339 -0.1816397 -0.11791225 0.40283552 -0.5867356 0.7165843 0.4938825
2397 0.31463015 0.43792734 0.6026613 -0.2578863 0.2553315 -0.12560222 -0.6899396 0.0929929 -0.16710754 -0.6306769 -0.3640089 -0.18996158 1.2460612 0.07859441 0.26343182 -0.1658315 -0.26854977 0.05793193 -0.69499487 -0.021262476 -0.015645895 0.3094106 -0.0014950982 -0.5613821 -0.37059808 0.18091394 -0.026473038 -0.71730065 0.019731395 -0.33589366
18035 -0.115385234 0.11613151 -0.8092804 -0.17412804 -0.64144516 -0.35799828 -0.66162753 0.13368501 -0.38480332 -0.19762681 -0.25779405 -0.18134221 0.34980264 0.1316853 0.19604267 -0.17123547 0.8049048 -0.35294035 0.2037273 -0.17858998 -0.22832103 -0.06471044 -0.15646109 0.083561406 -1.616603 -0.34959602 0.87286395 -0.88577837 0.24671471 -0.044658445
28852 0.5195515 0.3270402 -0.0970531 -0.17756398 -0.49359566 -0.28653723 -0.4851027 0.65548253 -0.040901717 -0.44755262 -0.0656113 -0.14449587 0.23867321 0.40712288 0.30090812 0.097197 -0.98999286 -0.17222278 -0.28256357 -0.1173509 0.3557028 -0.62083143 -0.51766306 -0.7248154 -0.6689454 -0.09825579 -0.85206825 -0.54301167 0.1638093 -0.21181904
33471 0.122535884 0.36155313 -0.5703687 0.088865064 0.23933917 -0.16353963 -0.07532928 -0.4083708 0.2031355 0.1804839 -0.048889894 -1.0008203 0.50886387 0.49105448 0.23916268 -0.4432166 -0.46129817 -0.1516513 -0.06349539 -0.19973768 0.023261689 -0.7363454 0.3705594 0.3732869 -0.3596688 0.07047884 -0.22461787 -0.8261413 0.5176235 0.14832273
19675 0.13527225 -0.042516526 0.2929359 -0.067471206 -0.87967 -0.11982675 -0.15340495 0.07424131 -0.93916714 -0.5101398 0.038454033 0.16371156 0.3477073 -0.13231799 0.52351713 0.40877375 -0.16532843 0.09735774 -0.10705714 0.75662756 -0.033585943 -0.9539059 -0.3987521 -0.39605153 -0.5880771 -0.265908 0.029880408 -1.063942 -0.27267855 -0.08208059
2442 -0.17603011 0.38479692 0.046395417 -0.7783443 -0.2915267 -0.18784745 -0.07764962 -0.028246902 -0.2670298 0.421324 -0.93057704 0.010178718 0.037533462 -0.48865852 0.1269829 -0.6213289 -0.014304899 0.10915079 0.38902417 0.0036078535 -0.3713004 0.46026266 -1.119351 -0.15187792 -1.2167867 0.0063773864 0.08828363 -0.54596484 0.6766134 -0.35936522
6790 -0.47312325 -0.22452062 -0.3532467 -0.15394439 -0.2736325 -0.08410331 0.7201452 -0.24836251 -0.25295758 -0.15202329 -1.3595036 -0.29228705 -0.30596673 0.85805184 0.09344909 -1.0113084 -0.32841152 0.051738843 0.07215224 0.24803428 -0.44650576 0.04617661 0.29274657 -0.42548352 -0.035553694 -1.2051353 -0.1591416 -0.50766164 0.39419863 -0.8508542
14352 -0.3152952 0.067739025 0.17990012 -0.82584536 0.10253075 -0.1857959 -0.60435694 0.103605926 0.16955657 0.86557657 -0.112540536 0.44853175 -0.22691654 0.5528129 0.70294875 -0.6561301 0.5037943 -0.4506659 1.3089606 0.6279391 0.008285154 -0.040919032 0.20858364 -0.20001964 -1.2088561 -0.08557466 -0.0026414117 -1.0807717 0.30409563 -0.40219313
26963 -0.5171911 0.28419355 0.24082957 -0.38638622 -1.166509 0.12942034 -0.7117864 0.09603515 0.12611008 -0.11368661 0.011793846 -0.4100284 1.0335758 0.47619334 0.5159622 -0.6999972 0.26971933 0.041013576 0.41832355 0.45339036 -0.17403497 -0.030807221 -0.35919783 -0.6332748 0.18326777 -0.67205787 -0.14244801 -0.6332939 0.6056881 0.5479337
14831 0.29575938 0.27542484 0.53447086 -0.67372245 0.21083643 0.21962747 -0.10963168 0.13204218 -1.019487 0.034313373 -1.4357831 -0.6298925 -0.5294733 0.094233975 0.019075325 -0.40682685 0.26731724 0.17414114 0.016670525 -0.18971102 0.25179547 0.14216089 -0.35497448 0.31644195 -0.63667387 -0.2920561 0.08642208 -0.15601759 0.042327747 0.30256236
26734 0.35730934 -0.4645891 -0.06210112 -0.30999154 -0.33457115 -0.91285944 -0.61358243 0.14223047 0.3899396 -0.49051502 -0.69291145 -0.04450791 0.22785465 0.085643746 1.3632301 -0.073746465 -0.48222652 -0.24637897 0.10431082 0.27033728 0.7020306 -0.10839035 0.62129974 0.23056257 -0.5792921 -0.09607676 0.34000108 -0.5097198 -0.44411084 0.3645085
27933 -1.0282003 0.3088252 0.11786375 -0.89515996 -0.37335145 -0.7559369 -0.44790116 0.3563583 -0.36970747 0.5561609 -0.64013296 0.19290252 -0.26096022 -0.12839478 0.25922576 -0.7003367 0.28493816 -0.6277123 0.279537 0.7275918 -0.21221979 -0.14883363 -0.34962597 0.08658566 -1.0237687 0.23989475 -0.22484915 -0.79785854 0.26967332 -0.32548612
10154 -0.14906332 0.29663655 -0.09996904 -1.0221366 0.69523084 -0.03480246 0.47161657 0.20302644 -0.561896 -0.41638547 -0.42957968 -0.033711072 0.52253276 0.32532123 0.35114244 -0.68343306 -0.34049815 0.43939298 0.3521048 0.24268699 0.11404046 -0.17707524 -0.05130626 -0.18378937 0.08145476 -0.32194385 -0.6400806 -0.08587171 0.74841076 -0.41291475
30956 0.014624033 -0.31632513 0.25320387 0.1577564 0.16283986 -0.32162696 -0.22544356 -0.10057049 0.44800836 -0.14960955 -0.63601315 -0.74314874 0.46349087 0.66416043 0.6942847 0.06239888 -0.56933904 -0.24910352 0.0295059 0.42100757 -0.18787274 -0.5276482 0.64453226 0.24065758 -0.19603951 0.5536928 -0.24890019 -0.85596144 0.31254262 -0.059518218
24499 -0.49391544 -0.2587592 0.33793128 -0.60341454 0.29920307 -0.08386922 -0.0394924 -0.1539925 -0.6686801 -0.6427316 -0.92987245 -0.0987073 0.4555704 0.37212166 0.23278756 -0.57873935 -0.07072923 0.27137947 0.027025793 0.62601143 0.3533232 -0.6951099 -0.054625873 0.421421 -0.022051629 -0.33037493 -0.06887393 -0.0028015748 0.1419016 -0.5882493
17649 0.16908325 -0.40514383 0.3758514 -0.05371613 -0.41548592 -0.24531485 0.40763023 -0.44814178 -0.3009752 -0.53708774 -1.1637956 -0.44195604 -0.37383518 0.23769276 -0.017751493 -0.16182835 0.39642137 -0.2641207 0.059614282 -0.7213934 0.18851222 0.5427263 0.020356933 -0.452669 0.09706868 -0.30389044 0.29900965 -1.248108 0.41328824 -0.5491902
18151 0.14556745 0.71057993 0.4613425 -0.39725882 0.23905171 0.73552316 0.5739681 0.30790165 -0.66326237 -0.053963345 -0.7366095 -0.14093222 -0.17247944 -0.13948072 -0.1659934 -0.90878415 -0.21688658 0.30027762 0.4626808 0.7677571 -0.036036406 -0.35425475 0.13338949 -0.7143645 -0.57300436 -0.015374154 0.025416395 -0.6286012 0.16991101 0.43771133
910 0.08376799 -0.3582123 -0.7682574 -0.22788943 0.048281875 -0.22458349 -0.7118333 0.33021206 -0.7260385 -0.63903713 -1.2147532 -0.31841326 -0.35920453 -0.34642828 0.17439824 0.2949754 -0.17125806 -0.23397449 0.1888146 0.39403704 -1.026472 0.24371089 0.095621444 -0.46307176 -0.4131178 -1.0531273 -0.920511 -1.0479887 -0.26337254 -0.109775245
29283 0.030436909 -0.6977887 -0.13240582 -0.77759254 0.26962218 0.10406034 1.0186625 0.3918623 0.49541584 -0.058261525 -0.5277204 -0.06985472 0.28261203 -0.1123328 0.5293525 -0.4427575 -0.299223 -0.3383656 0.18581073 -0.3223303 0.008646819 -0.7847284 -1.0441393 0.22287005 -0.1203799 -0.353235 0.3223684 -1.2452987 -0.14667875 -0.12165945
10402 -0.3098259 0.3091871 -0.32146424 -0.53027815 0.11165907 0.5866601 -0.19696221 -0.04652551 -0.48681414 -0.7046014 -0.6329307 -0.46392906 0.71797556 -0.37764853 0.13529004 0.033773866 -0.0047956957 -0.25566036 0.34813392 -0.13751194 -0.21077606 0.13870549 -0.372111 0.21597902 -0.7507726 -0.12600134 0.015388899 -0.5381846 0.4086727 -0.21729001
29439 0.8187278 -0.16486752 0.91126597 0.850992 -0.31325954 -0.08207997 -0.3288894 0.73762786 -0.11397054 0.15260299 -0.2771487 -0.3162375 -0.0035624874 0.30050063 0.33455533 -1.0064707 -0.13627057 -0.1961189 -0.6332512 -0.13376519 0.78122544 -0.29762146 -0.16586788 -0.050766822 -0.11381457 -0.46572867 0.5180713 -1.1780522 0.6365983 0.50376624
1030 -0.34308773 0.036628712 -0.26588377 -0.2734158 0.26489514 -0.02757316 0.8983858 -0.42488053 -0.34394115 0.49974948 -1.1791601 -0.4727113 -0.48641208 0.6859773 -0.41972578 -0.42504653 -0.09921402 -0.064908475 0.04084636 0.20959887 -0.23603623 -0.53611493 0.49780732 -0.015731122 -0.18072358 -0.7136495 0.19816029 -1.0792671 0.5859282 -0.38197136
9049 0.7479189 -0.23724057 -0.009003763 0.27645102 -0.10346391 -0.1765411 -0.29246575 0.7269199 -0.2278387 -0.41180485 -0.47027385 0.23019755 0.8082743 0.6032612 0.29935205 -0.009980517 -0.4596788 0.2910223 -0.23917007 0.31613764 -0.079271525 0.08951414 -0.3262037 -0.58057153 -0.10191551 0.051070612 -0.43952802 -0.65441453 0.31583324 -0.27404
5362 0.72387034 -0.0041647716 -0.20480101 -0.7356452 0.81815964 0.12977988 -0.006864602 -0.16965286 -0.045961104 -0.78013283 -0.26984197 0.021509752 0.71477556 0.7220147 -0.034072593 -0.58778095 -0.25812548 -0.5985204 -0.5427338 -0.36857554 0.3304562 0.3320764 -0.12676331 -0.30567622 -0.7057035 -0.13469787 0.42403027 -0.511568 0.0596112 0.05199238
36148 0.2571413 -0.30210415 -0.2679339 0.09232589 0.5380748 -0.51437104 -0.11610579 0.46203843 -0.25702715 -0.006340531 -0.5618333 -0.9626709 0.83442914 -0.2181458 0.21017683 0.2908483 0.049795587 -0.35242108 0.06873528 0.31282976 -0.00766203 -0.62665564 0.58874905 0.4566642 -0.8066872 0.20220903 0.059949014 -0.683356 0.028978316 0.07789112
7598 -0.2893905 0.44104156 -0.17815796 -0.34197173 0.9813799 0.15640312 0.18285961 0.10544218 -0.6578505 -0.05452207 -1.0825925 -0.20604904 -0.57289255 0.3466894 0.48922333 -0.72516215 0.30584782 -0.2173066 0.2606359 -0.09575551 -0.016200429 -0.77069235 -0.47521833 0.20779938 -0.24879993 -0.7761038 0.092368215 -0.24110882 0.20107879 -0.37373137
2556 0.40234146 0.3040218 -0.03754585 0.17100109 0.2097521 -0.31578034 0.006373987 0.09290192 0.18090662 -0.84414524 -0.5197697 -0.73277843 0.7210232 0.81173813 -0.055170245 0.26494864 -0.1322744 -0.78475785 0.04341149 0.15017128 -0.17525008 -0.5838665 0.49440187 -0.13131939 -0.15035012 0.087180495 -0.11005955 -0.59723353 0.38000524 0.117990926
29827 0.10201015 0.15343125 -0.8520934 0.1463513 0.027390677 -0.33565086 0.13625433 -0.29160365 0.1833079 0.22834595 -0.5591193 -0.43989408 0.5914519 0.41288513 1.1974746 0.028822966 -0.39930892 -0.025759427 0.10280322 -0.69703597 1.1492666 -0.47957256 -0.26676068 0.008233739 -0.42855617 0.066698804 -0.07682994 -0.5254279 0.39127266 -0.33570465
1464 -0.07124273 0.0816703 0.20131718 -0.40939263 -0.60515076 0.674079 0.07122873 -0.067019746 0.2549063 -0.24713965 -0.938053 0.04066838 -0.19115184 0.0733431 -0.22225118 -0.8331753 -0.354431 0.59144646 0.3191521 -0.07727792 0.5274759 0.468044 -0.3745099 -0.4868288 -0.517599 0.32048565 -0.16989031 -1.1825798 -0.37702972 -0.1563804
27728 -0.029806744 -0.08511401 0.075678445 -0.3986925 0.59373486 0.36894992 0.2742822 -0.13643642 -0.25463298 -0.48347822 -1.4415714 0.09229892 0.23834097 0.5760093 0.07332713 -0.8265993 0.101546414 -0.05861813 -0.022759618 0.053003434 -0.048211318 -0.51816255 -0.31440464 -0.23230344 -0.262677 -0.53167355 0.07247136 0.1056888 0.06524828 -0.4502907
24350 0.6322174 0.2699166 -0.40356937 0.62025756 0.1523896 -0.25331378 -0.39335757 -0.014930175 0.046296325 0.3265907 -0.47915334 -1.3823621 -0.06969782 0.3126469 -0.07274187 0.046374522 -0.061982602 -0.112226486 0.15177713 -0.57832456 0.64886594 -0.6121566 -0.34777606 -0.22293453 -0.36372072 -0.6185865 0.28948602 -0.71491665 0.9677474 -0.49594334
13413 -0.562725 -0.07275377 -0.2317119 -0.32166165 -1.1111983 0.19306992 -0.47115242 0.5309763 0.048801042 -0.12923253 -0.47803286 -0.46653166 0.046932165 -0.4739321 0.3083308 -0.6587382 -0.11103749 -0.78734195 0.40244645 0.84854496 -0.4515173 -0.28165266 -1.0701334 -0.41738284 -0.9150394 -0.36404184 0.24016073 -0.4135958 0.8751325 -0.41533738
20024 0.17161955 0.64936197 -0.43431157 -0.2834918 0.33151764 0.08876307 -0.58764416 -0.13137355 -0.087200865 -0.9443057 -0.05941102 -0.34562874 0.5946159 -0.63698316 0.42473358 -0.996199 -0.038238097 -0.42343503 -0.104334615 0.4517804 0.10123963 -0.6541533 0.17129648 -0.4871286 -0.11062333 -0.49381313 0.36854962 -0.7578959 -0.71686214 0.29905447
119 0.6603878 0.31449687 -0.19976565 -0.16117243 -0.12479771 0.21574713 0.3903444 0.09546633 0.3688766 0.052262172 -0.18760541 -0.44215083 0.05749117 0.112426125 0.5819672 -0.52454984 0.022653323 -0.7063067 -0.6369421 -0.06207665 0.33521795 -0.659292 0.49195066 -0.18877892 -0.71261656 0.8573246 -1.0955487 -0.98344094 -0.32810873 -0.3643234
26007 -0.021572232 -0.26413763 -0.10593482 -0.5300974 0.31936076 0.1327184 -0.24655183 -0.19831756 0.2317651 -1.294167 -0.17029534 0.05508434 0.5290426 0.15951717 0.53519243 -0.36929289 0.24128687 -0.2797039 0.005857584 -0.16584274 0.27373487 0.14043517 0.49644056 -0.3211091 -1.1212343 -0.1773544 -0.2572651 -0.79245055 -0.44882184 0.41283214
21447 -0.32234332 -0.69662935 0.31828672 -0.45813498 0.36719638 -0.43782884 0.8213803 0.46992996 -0.37137136 -0.6455506 -0.9881702 -0.23971681 -0.13974687 0.048305955 0.03041424 -1.0557362 -0.24758711 -0.1860258 0.7105566 -0.21912861 0.0033250798 -0.77764404 -0.066522636 0.20394649 -0.07256388 -0.47143376 -0.17116894 -0.64175844 -0.030049298 -0.36615807
14683 0.12029027 0.12730372 -0.43735987 -0.73407847 0.18649174 -0.36629882 0.46017748 0.44962606 -0.7541534 -0.67998874 -0.79449743 -0.013120397 -0.054285232 0.015866991 0.23374145 -0.46848452 0.35715148 0.8238842 0.031869568 0.6262243 -0.45190862 -0.68124795 0.08541499 -0.09252436 -0.60440266 -0.4485746 0.16237292 -0.3045432 0.46571377 0.5259092
23491 0.35903415 0.55670047 -0.087253176 -0.92940056 -0.48284885 -0.6012219 -0.048329595 -0.06028006 0.27847764 -0.20976394 0.52870226 -1.0993011 -0.030584674 0.1908861 0.9739529 -0.08342641 -0.4572116 0.106879555 0.37277877 0.14766759 0.31060037 -0.66652024 0.5033316 0.3156101 -0.17362742 0.0071928687 -0.37676948 -0.87366986 1.074178 -0.06145408
24574 -0.22261183 -0.07150185 0.23815623 0.35567337 0.08680229 -0.45857817 0.6807313 -0.279663 -0.2721704 0.6100153 -0.555276 -0.7293245 -0.23595081 0.44686586 -0.1593812 -0.48746 -0.10896764 -0.76267153 -0.42221123 0.6744461 0.25402173 -0.12875234 -0.09003678 -0.25998697 0.7034 -0.8700954 0.40556574 -1.7130693 0.3816243 -0.5029343
27497 0.18118225 -0.27848396 -0.068793215 0.10818207 0.71305364 -0.30491495 1.0720972 0.42693448 -0.6040743 -0.043172717 -0.91882753 0.15671627 -0.11049817 0.20070466 0.077559724 -1.2020851 0.009633246 -0.34835917 0.5034983 -0.20315963 0.21644415 -0.117281966 -0.6370838 0.40517977 -0.43066964 -0.4328865 -0.035974167 -0.63774085 0.03256647 -0.36931452
13028 0.8648308 -0.16516599 -0.43606684 -0.66632175 0.011005614 -0.41302156 0.24249846 0.19227915 -0.032965377 -0.99694896 -0.6214619 -0.49867457 0.009530277 0.055644944 0.22113042 -0.20618564 0.17780793 0.3785401 -0.320717 0.6230313 0.2490674 0.09771547 -0.53744614 0.20429029 0.31617516 -0.7943712 0.37596604 -0.7574942 -0.1482635 0.0684358
37651 -0.21468453 0.2964261 -0.07089363 -0.5958602 0.29245812 0.36487755 0.11943565 0.053523198 -0.45059955 0.39596453 -0.6884897 -0.59418005 -0.36414278 0.55153483 0.6240983 -0.9811484 0.25255993 -0.08266182 0.52725124 0.026104067 0.3661897 0.030342096 -0.9067791 -0.38720998 -0.14238104 -0.3865038 0.29829863 -0.16088499 0.16962479 0.24478942
27024 -0.6946104 0.36894217 0.22724442 -0.14136355 -0.13042909 0.15643835 0.6164272 -0.07510759 -0.60099113 0.04538247 -1.2763458 -0.12196489 -0.7685463 0.56483847 0.00020040387 -1.0279928 -0.20349431 -0.41111663 -0.088404864 -0.07643176 -0.3211618 -0.6792563 -0.07613011 -0.25207847 0.11079779 -0.7318101 0.2246983 -0.7544763 0.2614888 -0.6814126
17429 0.04293432 -0.008840871 -0.32523575 0.087395415 0.23896962 -0.16748463 0.25713387 0.19390447 -0.73961574 -0.71022826 -0.11525219 -0.41290948 0.46475938 -0.13307872 0.17862886 -0.5781239 0.046122763 0.046858188 -0.03712655 -0.18212914 0.07470947 -0.40284774 -0.07292537 0.8538402 -0.58468825 -0.29014713 0.06636502 -0.86295766 -0.09276747 -0.83830637
5567 0.7879129 0.30542824 1.0861617 0.10550254 -0.24234548 -0.1410501 -0.037601635 0.27187216 0.1667538 0.30939803 0.020204512 -0.58003265 -0.18585198 0.5702705 0.4479646 -1.0238066 0.12119478 -0.5145612 -0.24437268 -0.35413143 0.92318255 -0.51526976 -0.087842494 -0.13446118 -0.013512514 0.2938876 0.7265079 -0.97381574 0.463366 -0.05156599
31104 1.1447297 0.17257363 -0.28952515 -0.3153689 0.3714208 0.057945367 0.6220368 0.64552164 -0.42895487 -0.6896468 -0.3382334 0.11222499 0.89150095 -0.12802196 0.7226212 -0.8642235 -0.005755423 0.122672774 0.4424905 0.44102636 0.25940412 0.53317624 0.10327305 -0.57424533 0.005959123 0.15087368 0.10764598 -0.47065267 0.40373206 0.3671294
36055 -0.03109928 -0.39316508 -0.1891982 -0.1048625 -0.029466342 -0.21097845 0.059007563 0.030046104 -0.2640086 -0.38193342 -0.30183583 -1.0554806 0.436591 -0.15052246 0.028758608 -0.5873008 -0.020035703 0.3269714 -0.64156735 0.1053408 0.17666055 -0.039652873 -0.2700398 0.11693581 -0.41185516 0.050741304 -0.008892437 -1.1504278 -0.27696738 0.3707504
11648 0.32258463 0.18930054 0.33284682 -0.41466057 0.11034743 -0.45870617 -0.27190325 0.019501768 -0.3100556 -0.534174 -0.22826737 -0.4376025 0.2658507 0.36277992 0.30261853 -0.4110739 -0.2733191 0.57178533 0.091937646 -0.28782237 0.0112389065 -0.045023955 0.336343 0.7985162 -0.39958036 -0.029714998 0.44927406 -0.87641644 -0.033741813 -0.27079672
30720 0.07626176 -0.5919301 -0.15761554 -0.4150729 -0.16956748 -0.12267443 0.74543154 0.2356105 -0.6637151 0.10218853 -1.3373766 -0.29720336 -0.3287936 0.75127363 0.14621894 -0.3272745 -0.22164312 -0.3304114 0.5010322 0.014508358 -0.5772629 0.1557895 -0.341937 0.041812804 0.22959475 -0.688418 -0.22958933 -0.5818653 0.3126173 -0.47865242
26647 -0.10648149 -0.070607 0.26030028 -0.5446456 0.32018209 -0.29740214 -0.033687647 0.4059515 -0.0436062 -0.08854047 -1.9121523 -0.29378304 0.20446296 0.035386544 0.0975029 -0.44081572 -0.079561494 0.0042685037 0.19746512 -0.19234525 0.16869022 -0.7229684 0.06926907 -0.2625016 -0.27038944 0.15380213 0.032936446 0.21128589 1.0059994 -0.38074076
21334 0.13517584 0.46895853 0.6653139 0.20151302 -0.21866404 -0.2030872 -0.51654357 -0.19449456 0.48826897 -0.15083715 -0.39782834 -0.84252876 0.5969482 0.40279365 0.45034215 -0.42536104 -0.25627798 -0.21285957 -0.10529649 -0.42054796 0.16875707 -0.74262357 0.15588313 0.24537605 -0.49647412 0.5002754 0.11321963 -0.6968897 0.06566934 0.15901251
1841 0.047109544 0.116351195 0.1159103 0.2744676 -0.31002095 0.24450982 0.053030845 0.5962814 -0.24368909 -0.14518006 -0.8026692 -0.08448339 -0.6338215 0.04678677 1.0769813 0.27539757 0.2707431 -0.5753223 -0.35398647 0.52180046 0.48637348 0.24224876 -0.3778297 0.55955476 -0.93064374 -0.072179034 -0.02894012 -0.63854104 0.63450366 -0.30906057
21766 -0.28949314 0.29888746 0.33210966 -0.35707 -0.8534659 0.16011237 -0.2756947 -0.26572153 0.032539736 -0.37475365 -0.8325947 -0.44073907 0.4592258 -0.078409046 1.3841612 -0.06413277 -0.049362857 -0.1029787 -0.2590292 -0.11467062 0.3117523 0.46566588 0.16223837 0.78390515 -0.4623719 -0.80295813 0.32679555 -0.42188433 -0.14907849 -0.24899653
25575 0.24638882 -0.37139145 -0.2914185 -0.32879442 -0.32081985 0.3261875 -0.1606006 0.49216795 0.2940644 -0.9329032 -0.22347844 -0.74201393 0.37535816 0.62748164 0.73804075 -0.9859992 -0.082497954 0.26501602 0.03412108 0.37587675 0.38008046 0.6836321 0.22524081 -0.15800981 -0.24514368 0.6610409 -0.06723952 -0.59297824 0.70810735 -0.44559002
22899 0.25005728 -0.15103148 0.029684542 -0.28655252 0.11575349 0.17602243 0.80719435 0.23443983 -0.14304155 -0.44499707 -0.22966723 -0.25445464 0.13262306 0.3185947 0.15072894 -0.506475 -0.38083035 0.2656002 0.21069114 0.13465272 -0.14824422 0.08820972 -0.46260172 0.56082433 -0.049195714 -0.94084775 0.11209005 -1.0578902 -0.31169933 -0.34950128
26190 0.7873324 -0.59744364 -0.0021785533 -0.11895058 -0.2606278 0.3745444 0.43744925 0.912164 -0.14166129 -0.56945986 -0.33812037 -1.1144468 0.1377838 0.696075 0.7976355 -0.40085885 0.37674206 -0.46797964 -0.079466835 0.29994655 0.4003324 -0.47330344 -0.54521966 -0.12307892 0.4124302 0.24622959 0.036113318 -0.6788173 -0.28765705 0.48335192
38 0.644092 0.7509228 0.024915112 -0.27227506 0.5531928 0.1509022 0.39340183 1.0046141 -0.3133607 -0.25701058 -0.7974158 -0.29573312 0.022850676 0.31695387 -0.31849048 -0.44382015 0.16279119 0.45959735 0.62685573 -0.439878 -0.15082954 0.022200627 -0.38938406 0.0019747438 0.09620034 -0.73061025 -0.049552042 -0.80082667 -0.4964893 -0.23659323
20047 0.120897196 -0.07436376 0.2092007 -0.1245463 -1.1026366 -0.0075939842 -0.53335494 -0.4475187 0.8217682 -0.30678847 -0.49558577 0.09310165 -0.14048254 0.3261558 0.23869406 -0.23600565 0.30139416 -0.48897597 0.8578609 0.68406403 -0.15822642 0.035569143 -0.18808615 0.019893687 -0.89560443 0.018958196 0.106639214 -0.9501633 -0.13142844 -0.52191526
10487 0.56367755 0.2248422 -0.13286488 -0.25552106 0.27885076 0.09612171 -0.451138 -0.41475558 -0.29813892 -0.83177537 -0.4173106 -0.4846586 0.5029226 0.79610765 0.11831368 0.092088126 0.048751917 -0.3287245 -0.033279747 0.51319283 0.034991328 -0.43909916 -0.2288915 0.6270269 0.19463392 -0.024436226 -0.49796 -0.5384204 0.4020022 -0.3537914
17876 -0.42084873 0.30720717 -0.5855958 0.41907236 -0.7364454 0.103054166 0.8623236 -0.09586578 -0.20879528 -0.084526435 -1.1398768 0.126974 -0.60832345 0.5486497 0.3275573 -0.3909241 0.048329286 -0.4293605 -0.38190192 0.047675174 -0.11674748 -0.011820089 -0.15023695 -0.027590824 0.22997838 -0.33301887 0.1417927 -1.6577184 0.5881434 -0.12507692
23458 0.8452307 -0.20465784 0.10712809 -0.3595181 -0.2721562 -0.077025756 -0.54415774 0.34852988 -0.18172763 -0.9587354 -0.6099562 -0.5643992 0.03801877 -0.11041958 0.9781 0.20135985 0.084460415 -0.026999092 -0.023448301 -0.050311044 -0.281058 0.058929138 0.025018973 0.28912324 -0.22661953 -0.6594714 0.034657758 -0.29290292 -0.15979393 0.015846694
2420 0.49541056 0.3360029 0.42877156 0.18410353 0.4360838 0.040154096 0.068644166 0.17264603 -0.1919658 0.4923212 -0.9105154 -0.7343372 -0.7826203 -0.12219051 0.6346957 -1.0659078 0.21101266 0.0665929 0.97957593 -4.1374795e-05 -0.13577552 -0.5726601 -0.002288557 -0.029575072 -0.76140386 -0.81197214 0.00017646192 -0.038435772 0.6162138 -0.25059086
32710 -0.005882291 0.12854385 -0.33532757 -0.16038385 0.21415563 0.091384515 0.17815243 -0.0042891917 -0.12303802 -0.49300104 -0.60680455 0.19272453 0.51358473 0.111617275 0.24563555 0.04752906 -0.13264218 0.56177706 -0.43047762 0.38290542 0.1758835 -0.21915339 -0.14790942 0.30025038 -0.33820575 -0.19996046 -0.16109659 -0.74485075 0.3438324 -0.5350103
33837 -0.022790946 0.31536958 0.021587515 0.36553594 0.055331174 0.0016592926 -0.58592564 0.29038435 0.42020342 -0.16518492 -0.640249 0.42092532 0.31352395 -0.04457352 0.6180407 -0.16620155 -0.012230396 -0.008850074 -0.2434824 0.74178505 0.30912438 0.28945968 -0.58006257 0.80115044 -0.5076788 -0.18465306 -0.5726056 -0.8697961 0.25134122 0.06383644
33291 -0.092058994 0.23875223 0.73106545 -0.57554436 0.40463513 0.106812686 -0.72979486 -0.13456856 -0.59702474 0.51911867 -0.2930852 0.0021921487 -0.24353172 0.05034672 0.5620492 -0.1743962 1.1963766 -0.9670416 1.0478399 0.13586405 0.06650162 -0.5223641 0.0792791 0.022820331 -1.470385 -0.39489046 0.02686419 -0.7849671 0.3619772 -0.80928165
32582 -0.2188538 0.027093407 -0.18083936 -0.483205 -0.4022907 -0.55681735 -0.22411014 0.028266268 -0.23197685 0.19400604 -0.7087056 0.66725963 0.46189308 -0.021484666 0.5820092 -0.5060831 0.6487597 -0.10066795 0.83035004 0.47431472 -0.7401197 0.34024107 0.08385514 0.022458704 -1.4335978 -0.0067252466 -0.13962005 -0.7365977 0.5845632 -0.20255633
6575 0.3955961 0.38186896 0.21553943 -0.28987727 0.4188034 0.014116194 0.4406909 -0.5968082 0.015562047 -0.05096674 -0.955369 -0.14442842 0.2238871 0.24307634 0.44232255 -0.94691193 0.03432691 -0.40046772 0.5398577 0.35933134 -0.59556884 -0.58216125 -0.1681511 -0.75687397 0.22585127 -0.50720143 0.3981198 -0.16636533 -0.29540598 -0.8804765
26877 0.14071114 0.4475457 0.4707099 -0.20133355 0.02126255 -0.97031456 -0.026337452 -0.0447394 -0.7746163 -0.30095938 -0.03402297 -0.84538203 0.19980738 0.0037046764 0.38790944 -0.1622299 -0.26391914 0.5451556 -0.42328736 0.06538332 -0.21398991 -0.21575116 -0.06287254 -0.03269177 0.009821957 -0.65153855 0.51762927 -1.180531 -0.10767325 0.14929903
1856 0.45608297 -0.23228024 -0.13551572 -0.37092918 0.38739753 0.0057281833 -0.019965457 -0.32714456 -0.036881346 -1.1302836 -0.38100195 -0.08442306 0.42703354 0.32390743 -0.05872203 -0.4684688 -0.05979012 0.5638269 0.3487574 -0.04067453 0.027619243 -0.067971386 0.16079885 0.11544575 -0.8077891 -0.42439267 -0.34077182 -0.3882763 0.21453947 -0.031279743
15110 0.08914468 -0.3543722 -0.3407184 0.012996795 0.14108826 0.32321495 -0.6405846 0.42123577 -0.47291514 -0.46262705 -0.6561802 -0.8445656 0.28104964 0.77716523 -0.111918956 -0.29383415 0.14595275 -0.21456066 0.031117165 0.037404172 0.98551595 -0.57609814 -0.17911077 0.09404795 0.39243823 0.5978402 -0.08639292 -1.0460833 -0.18903577 -0.0030647474
19384 0.9977908 -0.77074635 0.7145528 0.26647314 -0.13556787 0.46425807 -0.09062358 0.36275536 -0.27598563 0.23134887 -0.5790466 -0.41997635 0.5454169 -0.12146177 0.25826004 0.34661618 0.6570679 0.33202288 -0.4707852 0.3845167 0.5303317 -0.3760412 0.34618858 0.20407796 -0.11137749 -0.35562158 -0.21039096 -1.2259401 0.52457917 -0.4052
31630 0.41005212 0.48356968 -0.3547001 0.0030832994 -0.10933771 -0.06811535 0.049142964 0.33292896 0.040082928 -0.055017 -0.4761499 -0.95771635 1.2037356 0.5627424 0.035160396 -0.34089047 -0.5941193 -0.2105551 -0.043444704 0.02383387 -0.17806125 -0.24921535 0.32624644 0.58401203 -0.35173106 0.1664149 0.11265193 -0.49874192 0.026861668 0.10786701
16716 -0.27879474 0.021013094 0.30311668 -0.31910253 0.6206162 -0.4896165 0.039700456 -0.19857731 -0.11212726 -0.6386894 -1.082046 0.10661031 0.07155336 0.34507835 0.25331783 -0.24976076 -0.090941586 0.28523716 0.26495928 0.0013318007 0.3560708 -0.8650836 0.04409411 -0.5070146 -0.35860577 -0.8741301 -0.2085774 0.024119593 0.96549565 -0.23147371
16689 -0.19366495 0.12471377 0.29033622 -0.07445775 0.5466381 -0.14733557 -0.22371502 0.3600598 0.10113231 -0.35908103 -1.1233653 0.032076813 -0.4295566 0.19605465 0.29436448 -0.7655786 -0.40332654 0.3278693 0.66501445 0.11590529 -0.058363475 -0.7150922 -0.17012133 0.34231246 0.08587134 -0.5659306 -0.31989172 -0.38734102 0.68881005 -0.011527466
33216 0.9981089 -0.18600887 -0.3917841 -0.10878857 0.20686638 0.26365846 0.050086994 0.24954894 -0.4596795 0.41206652 0.03082599 0.18928564 0.24361354 0.0817796 0.4052078 -0.25096577 0.16619574 0.5445949 -0.5281983 0.5625694 0.04433773 -0.5801378 0.28571725 -0.08419125 -0.6634503 -0.3115847 -0.7959451 -0.7909117 0.04366679 -0.39861795
25677 0.8720283 0.17441183 -0.16852057 0.009623716 -0.73525417 -0.06960129 -0.14656642 0.643589 -0.55444056 -0.2899107 0.11136681 -0.20839821 0.01035047 0.017439794 -0.06811122 0.031536113 -0.39381328 0.5620126 -0.5442619 0.4288472 0.36163938 -0.06964639 -0.18361294 -0.07751679 -0.6487039 -0.7461309 -0.90012074 -1.1042348 0.5095897 0.24564573
7721 0.8244047 0.27239445 -0.18488334 0.04563559 -0.54888344 0.5846711 -0.31277353 -0.406614 -0.14491148 0.24270494 -0.22837955 -0.26946753 0.2449013 -0.082204625 -0.10477055 -0.8836092 0.3430569 0.58580256 -0.61001086 -0.22479318 0.44161698 -0.27768207 -0.22701907 0.24764168 -0.46917808 -0.20474084 -1.404493 -1.1227509 0.3931939 0.03408649
34944 0.30554837 0.48090982 -0.70664114 -0.28418368 0.0047972775 -0.30285963 -0.5072138 -0.25832897 -0.30848473 -0.11575957 -0.80513424 -0.14577527 0.20949456 -0.45732304 0.36565188 -0.32728216 -0.6120871 0.20032425 -0.26300257 -1.1006043 0.5490424 -0.30269426 -0.3944338 0.6180627 -0.60386616 -0.049428694 -0.52037233 -1.1038427 -0.6331966 -0.8063684
34026 0.7336764 -0.25727427 0.51629025 0.19951132 -0.141267 0.5019829 -0.22112241 0.3017663 0.20305766 0.22125237 0.16465975 0.12973014 0.8408943 -0.17402402 0.92925966 -0.44167414 0.4253284 0.3730118 -0.28259262 -0.6570738 0.56561387 -0.38479993 0.39522806 -0.33009925 -0.089211635 -0.45773748 -0.58529514 -1.4717009 0.47681263 -0.51160616
6541 0.10381602 0.17670481 -0.4454359 0.040841974 -0.47161978 -0.2700432 -0.45909524 0.7144465 -0.3809229 -0.675984 -0.25703776 0.1704877 0.523497 0.18037087 0.09342054 -1.1775067 -0.18333738 0.49893063 0.4205302 -0.0772513 0.49829534 0.13512065 0.47357246 0.11587937 0.18063796 -0.13574603 0.21849172 -1.086021 -0.19717447 0.5288329
9143 0.56327397 -0.20335165 0.1306124 -0.015141615 -0.31977615 -0.24713139 -0.35059196 0.39710784 -0.3596694 -0.46584395 -0.12773032 -0.19459166 0.4577684 0.7856356 0.037514962 -0.117422394 -0.6562632 -0.22675829 0.097742245 0.44426015 0.09008821 -0.9825768 0.19436024 0.78085655 -0.41692516 0.2025833 0.00079671526 -0.5970644 0.25832292 -0.13710089
15901 0.52738583 -0.26567596 -0.02603337 -0.099720865 -0.72164625 -0.32863808 0.08486531 0.7305043 -0.5355303 -0.4809077 -0.291032 -0.13578871 0.7018848 0.05452628 0.20923238 -0.113099046 -0.8033738 0.12982658 -0.35610586 0.34645793 -0.09324471 -0.791248 -0.4511567 0.0029613764 -0.43802565 -0.13261037 -0.39472082 -0.4359028 -0.10304094 -0.60466236
30782 -0.1783002 0.3262946 0.08107712 -0.60940343 0.39456102 0.12090978 0.6656741 0.07450927 -0.12970717 -0.39475033 -1.0491693 -0.2574027 0.061132707 0.4187951 -0.1937595 -0.8671725 0.0721556 0.16423129 0.2906777 0.19556159 0.39745352 -0.72064257 0.02755351 -0.4253736 -0.32007763 -0.4336881 -0.29334074 0.074446455 0.11994805 -0.5733368
30706 -0.007006646 0.04090034 -0.40268394 -0.29596275 -0.18959656 0.25104153 -0.82738245 0.5680563 -0.099451594 -0.72692394 -0.4305758 -0.38184744 0.7292092 0.5248512 -0.11233983 -0.30114976 0.108084686 -0.070748225 -0.49796796 -0.35136488 0.62839305 0.32632026 0.098272495 -0.16711317 -0.21829246 0.21090002 0.0553697 -0.84566516 -0.010518399 -0.4734928
32924 0.8106838 0.38982558 0.69757223 0.4975902 0.059102703 -0.48837745 0.44742936 0.44171935 -0.47551772 -0.23551352 -0.37915963 -0.4170447 0.5251526 0.2773437 0.17479049 0.0867359 0.30688697 0.14715412 -0.25271702 0.3182941 0.6624342 -0.76391256 -0.15022124 -0.42477754 -0.48371053 0.05664833 -0.108938634 -0.29403165 0.30605102 -0.7229195
6569 -0.17692053 -0.40985432 0.21722929 -0.14601856 0.6110148 -0.67594445 0.036852993 0.44092345 -0.4951808 -0.04581678 -0.8938191 -0.60349435 0.67918324 -0.020548884 -0.0152292345 0.12336205 0.029587079 0.1633704 -0.31815526 1.0701767 0.7144103 0.38985443 0.0076325987 -0.20497875 0.5909691 -0.08075916 -0.2671216 -1.6191181 0.26716417 -0.15677649
28671 0.43875703 0.40931913 -0.05603924 -0.59750694 0.22575074 0.1288255 -0.290673 0.11342169 -0.31420824 -1.1621606 -0.29475442 -0.30724534 0.7257631 -0.084456526 0.1813976 0.0059541976 0.18642256 0.21175197 0.173841 0.019561088 0.09017196 -0.4006953 0.049840204 0.16891123 -0.1276902 -0.13423865 -0.13260289 -0.6249467 -0.071353115 0.098332465
16371 0.3027169 0.07872377 0.05338475 0.15471612 0.30695686 0.0855909 -0.23611917 0.42900762 0.07721469 -0.43750578 -0.39730647 -0.9705328 0.78632796 0.5228611 0.54402274 -0.00393816 -0.22960837 0.015290849 0.4045875 0.25724337 -0.20902014 -0.63777983 0.32750753 -0.07173965 -0.39336702 0.1906745 -0.22585696 -0.3152653 -0.08535393 0.2918194
16778 0.6204382 -0.19418728 -0.80687547 0.18598734 0.2470467 -0.47503018 0.51020575 -0.07658833 0.2771047 -0.526182 -0.20783363 -0.2922183 -0.01570217 0.46167374 0.037990503 -1.1246777 -0.31156552 -0.48986283 0.42513776 -0.11290263 0.40279567 -0.0294432 -0.5949874 0.2708759 -0.64232624 -0.08575775 -0.26800692 -0.77152854 -0.29367658 0.34925187
31197 -0.03873941 0.68432117 0.39176124 0.03571259 -0.1288524 0.23167017 0.8237475 -0.1792063 -0.118956566 0.08847341 -0.4883411 -0.72411835 -0.20463207 0.051511567 0.62885755 0.40156695 0.46698588 0.101354815 -0.34299025 0.4274179 0.68178594 -0.7355126 0.0095655015 -0.25149217 -0.8240165 -0.00025934997 -0.5267755 -0.506765 0.42067543 -0.4382473
15770 0.04079985 0.0563367 -0.18957777 -0.50647587 -0.10576173 0.57705784 0.24080883 -0.32104987 0.124342084 -0.767846 -0.57967687 -0.09660609 0.621613 0.17507654 0.3605819 -0.48112157 0.16675985 0.10930221 -0.4063105 0.5660535 0.5074269 -0.2482232 -0.52149934 0.3360296 -0.09579861 0.54911166 -0.73781943 -0.6846813 0.29873252 0.04809913
14334 0.70059013 -0.109640695 0.1281017 0.4894703 -0.037305314 0.5381236 0.02783204 -0.1416766 -0.2065853 -0.012933093 -0.6329985 -0.8272786 -0.07049646 0.1843191 -0.028658068 0.046004664 0.12654963 -0.02127881 -0.23935077 -0.36251244 -0.022191666 -0.09720514 0.132375 -0.6481938 -0.8542661 -0.6435464 0.7736977 -0.73024786 1.0848268 0.2739356
19037 0.3985336 0.323327 -0.5811066 0.033132657 -0.38602963 -0.19125004 0.047325883 0.48020864 0.31119853 0.023749799 -0.5151622 -0.3400402 0.31011534 0.76848954 0.31138143 0.021384843 -1.1369282 0.10324552 -0.16627422 0.050092377 0.48692375 -0.4111297 -0.050625585 -0.124491096 -0.43447146 0.13658857 -0.18060534 -0.48485073 0.19279884 -0.20656788
23958 -0.5733608 -0.13285762 -0.109778896 -0.06128058 0.74657464 0.27508944 -0.24803986 0.4120039 -0.44204482 -0.95002735 -0.9135579 0.059803978 0.32501394 0.0601818 0.14006251 -1.0343211 -0.039465412 0.17387708 0.6004184 -0.38432807 0.5058709 -0.4595918 -0.03097944 -0.24856976 -0.07024069 -0.47850385 -0.38568777 -0.3179677 0.32703897 -0.34009373
2159 0.3366448 0.059886422 0.24747413 -0.8825602 -0.04202228 0.17429413 0.17152523 0.3746382 0.055885408 -0.58004636 -0.4985201 0.3726129 -0.37924612 0.4805976 -0.1008768 -0.65461904 -0.006179406 -0.6757203 0.2566021 -0.32194436 -0.48574197 -0.6544836 -0.002417304 -0.5562119 -1.1824031 -0.25718668 0.1167496 -0.2602591 0.0078555085 0.61744255
22459 -0.27951488 0.3468407 0.37896368 -0.46725592 0.6941627 -0.26279423 0.36835384 0.14979403 -0.38305023 -0.38277727 -0.9521948 0.09284203 0.20688507 0.58161306 0.23968308 -0.7517671 0.011993055 0.18878752 0.0713949 0.18475766 0.60667884 -0.6857201 0.1252176 -0.024149641 -0.3600334 -0.36358172 -0.29392362 0.18011306 0.3489643 -0.7526733
30990 0.8229074 0.37316042 -0.07328559 -0.046574634 -0.26397082 -0.17990083 -0.017450817 0.92458665 0.06302505 -0.15975483 -0.27447274 -0.37364632 0.47222716 0.06903431 0.035782184 0.12757762 -0.8783177 0.17124645 -0.008143791 0.08495751 0.13586618 -0.45063776 -0.38716322 -0.31539226 -0.6621231 0.1707074 -0.34182605 -0.7041513 -0.085880846 -0.20807606
22491 0.7829134 0.18092227 -0.13402937 -0.5553189 -0.03306194 -0.16201176 -0.77068764 0.9291318 -0.42119792 -0.52992594 -0.5090761 -0.8083564 -0.17122804 0.1019175 0.07853282 -0.07505477 0.19455166 0.66541064 0.33333617 -0.3986576 -0.08593444 0.02373968 -0.28546178 -0.2091918 0.24326766 -0.5889675 -0.1298098 -0.8825953 -0.43407768 0.04776536
1032 -0.17885481 0.83910316 -0.2465927 -0.60346067 -0.2920783 0.15536903 0.7071908 0.30300635 0.03904992 -0.19635609 0.13116848 -0.4384357 0.3840925 0.593189 0.6813941 -0.3249151 0.5887674 -0.71774787 0.12253913 -0.033222076 -0.09703779 -0.17140584 -0.4894495 -0.33548012 -0.26027182 0.52731645 0.23161763 -0.8034728 0.8311811 -0.24159986
31935 -0.031050567 -0.06395322 0.26668847 -0.5078961 0.94365686 0.042594437 0.26541936 0.74224347 -0.24314485 -0.2959682 -0.6202368 -0.51557 -0.21617958 0.589041 0.38487685 -1.0285566 0.5065946 -0.009910266 0.2354122 -0.09281952 0.3762612 -0.07787678 -0.1049637 -0.13652952 -0.28563893 -0.6279132 -0.51170826 0.14122172 1.1995445 -0.3466931
25179 -0.1745372 0.12835717 0.07823656 -0.14984702 -0.17198369 -0.057731062 -0.2391641 0.56717396 -0.75268745 -0.628172 -0.03807125 -0.7334238 0.47408596 -0.7884252 0.69914114 -0.26048818 -0.14460303 0.37343514 -0.39032283 0.062140904 -0.35195893 -0.3754119 -0.01011568 -0.27133864 -0.4168496 0.03144337 0.095019676 -1.2397782 -0.08086152 0.023893792
24839 0.19461933 -0.05996484 -0.3633841 -0.24437024 -0.15130904 0.3669305 0.2175989 -0.044048436 -0.03880452 -0.0825471 -0.66137993 -0.16110948 -0.28091732 0.4405729 1.0368485 0.26459616 -0.38256818 0.030095467 -0.21501951 0.24115315 1.1042134 -0.4071246 0.19517368 0.21988374 -0.739679 0.41869444 0.29322338 -0.66434103 0.42677304 -0.23806742
13995 -0.03125034 -0.19459026 0.859886 -1.0189033 0.20238873 0.13505955 0.39696082 -0.05234311 -0.2023691 -0.014305048 -1.5228102 -0.4722513 0.5189836 -0.26760507 0.09984341 -0.57086104 0.52703786 0.62376493 -0.26023257 0.2729554 -0.15113275 0.07473458 -0.0044901357 0.34771895 -0.25527328 -0.24033192 0.15825903 -0.4057167 -0.07246137 -0.37823117
7090 -0.46285626 0.08202767 -0.08600617 -0.4666476 0.047040295 -0.03266371 -0.3377268 -0.094056174 0.21068227 -0.9564706 -0.6228481 0.26131925 0.7419563 -0.029360654 -0.006298939 -0.70272946 -0.04642235 -0.11493166 -0.7828547 -0.08812014 0.5887382 -0.26478657 -0.21355645 0.13311231 -0.24933054 -0.2057778 0.4263539 -0.9506199 -0.40560833 -0.017669177
14578 0.32714432 -0.18434478 0.14518078 0.067156404 -0.08023452 -0.5937007 -0.3531231 -0.26112267 0.7426755 -0.8080605 -0.6980018 -0.8037747 -0.030891676 0.43751025 -0.32061625 -0.0019495703 -0.34823802 -0.14440776 -0.0153757315 -0.39656952 -0.18133949 -0.28306383 0.1382124 -0.16116196 -0.3973999 0.18459238 -0.48630726 -0.97589135 0.43025038 -0.1548256
8172 0.48352197 0.5226312 -0.29339573 0.06743038 0.5132338 -0.3412088 -0.07071485 0.046934307 -0.1834774 -0.03944209 -0.20708138 -1.1654135 0.2622043 0.5207589 -0.39613134 -0.171924 -0.4272662 -0.62433624 -0.010245747 0.06699672 -0.07764976 -0.6209332 -0.5028666 0.61198044 -0.43108022 0.2134303 -0.0059146346 -0.90187836 0.28615943 -0.2968755
23430 0.7221389 -0.23954396 0.6312177 0.576041 -0.2849507 -0.2516246 -0.2832423 -0.037881147 -0.24884859 0.23736209 0.123016894 0.2697221 0.06973422 0.17770429 0.54918414 -0.7217435 0.36474118 0.21209913 0.16089143 0.59694964 0.5229869 -0.4158193 -0.19683762 0.30359834 0.40205303 -0.44633526 -0.3566594 -1.3743875 0.69809127 0.116516896
14593 0.24411465 0.012292174 0.015102521 -0.71844214 0.60319936 0.105056256 -0.10804713 -0.27192548 -0.18242998 -0.9974903 -0.6548437 0.52503824 0.23103265 0.7024152 -0.078960024 -0.18089099 -0.3501119 0.11861363 -0.3125278 -0.09609492 0.39740005 -0.08108907 -0.27126992 -0.7092753 -0.5365596 -0.2075429 -0.051264327 -0.3516818 0.46491608 -0.4260151
29303 0.8519548 -0.017210154 -0.14438215 0.043173563 0.15441555 -0.30529174 -0.4976179 0.76630837 -0.39801407 -0.73359466 -0.15011941 -0.51019037 0.27731118 0.76524913 0.03879429 -0.05017905 -0.47312176 0.05324768 0.2178389 0.15350313 -0.011513174 -0.5479244 -0.49296507 0.07182189 0.20902209 0.12986718 -0.39192328 -0.7978436 0.11171555 -0.1777099
19962 0.28230983 0.34010223 0.20644233 -0.119408585 -0.26608002 0.21751374 0.03823265 0.237605 0.5662587 -0.71824425 -0.22630294 -0.742679 0.20788527 0.13233034 -0.32834974 -0.33471724 -0.31664753 -0.5113918 0.14397791 -0.102466 0.029331237 -0.41925332 -0.56904 0.59139705 -0.17260881 0.18844594 -0.061026208 -1.1804383 0.022452291 -0.85349023
25125 0.12731312 0.11783776 -0.50615066 -0.25424454 -0.22610068 0.7408814 0.33721262 -0.08493098 0.07970353 -0.36819947 -0.65568715 -0.65476274 -0.18518566 0.14288267 1.1137321 0.18065928 0.7293497 0.24152133 -0.41117057 -0.123581775 0.25975287 -0.115848586 -0.047572255 0.41322497 -0.3314883 -0.60879046 -1.1765455 -0.66114336 0.37251395 -0.23307408
34095 0.1299978 0.029033246 0.5627203 0.4737873 -0.04501696 -0.021643512 -0.32784766 1.2684718 -0.18376754 -0.103438675 -0.60317296 -0.06997031 -0.3640356 -0.22253503 0.8551908 -0.07185346 0.16646641 -0.67839545 -0.030267188 -0.14199391 0.4203107 0.16799748 -0.47248787 0.119228385 -0.59385943 -0.32318118 0.3844481 -0.66070914 0.6460394 -0.34525338
23228 -0.35727066 0.53545696 -0.5261291 -0.16378516 -0.68385756 -1.0032718 -0.13856684 -0.72141415 -0.3199929 0.06859578 -0.3509357 -0.22929333 0.19651462 -0.26157182 0.5871869 -0.24998192 0.33023077 -0.76646 0.52143484 -0.097520694 -0.83449614 -0.8487671 -0.18962124 -0.36578354 -0.39235342 -0.53645265 -0.08275818 -1.1280532 0.8804965 0.43426102
36959 0.12523225 1.0255169 0.54002315 -0.64052516 -0.30047724 -0.7979183 -0.04725421 -0.08890794 -0.13459334 0.099371016 0.12204379 0.33581686 -0.021263566 -0.03423123 0.76548505 -0.5368986 0.65830517 -1.0535828 0.60725904 1.0148823 -0.5119407 0.121001385 -0.21711141 0.17884248 -0.95903987 -0.31878704 0.081882395 -0.92229563 0.44387737 -0.5472543
11124 -0.14308864 -0.009743759 0.10007686 -0.26973176 0.28817052 -0.28868997 -0.11834667 0.030732956 0.16110368 -0.5927711 -1.1403654 -0.06670739 -0.003100327 -0.03196314 -0.032612193 -0.6842864 -0.5208488 0.53176403 0.26769987 -0.14120075 0.10893457 -0.35049617 0.15250051 -0.005865685 -0.25171286 0.07762044 -0.0616101 -0.46526814 0.58855796 -0.40135822
32451 -0.002114535 0.45868582 0.5687835 -0.6760403 -0.14614376 -0.5269853 -0.06404991 -0.26902503 -0.3155878 -0.5051367 -0.18886411 -0.40316027 0.17888935 0.21762016 0.75710756 -0.03754341 -0.19273761 0.47595817 -0.7092863 -0.103274144 -0.08277079 0.37191224 0.22819921 0.08971496 -0.08809857 -0.6708956 0.6900875 -1.2174376 0.027709823 -0.14751737
21090 0.29843822 0.23151863 0.034248926 -0.43736356 -0.7440748 -0.58781284 -0.47716293 -0.032644756 -0.20747626 -0.7039932 0.08399663 -0.57035106 0.29948288 -0.5933032 0.35533917 -0.23654489 0.40553156 0.6303022 0.31691766 0.12686801 0.32338345 -0.1776241 0.15418571 0.37747988 -0.23058127 -0.37648284 0.18610376 -1.0715616 0.13718237 0.03346524
10332 0.087190464 0.2678984 -0.12669697 0.14952807 0.23071112 0.06488827 -1.1087207 -0.03235261 0.51121294 -0.60050637 -0.31099984 -0.56553024 0.44237375 0.34925017 0.22185124 0.035532083 -0.35022494 -0.29506686 0.2227242 0.3532736 0.35015938 0.11301788 0.06253327 0.22355534 -0.52732724 -0.07091838 -0.120908886 -0.65445465 0.116296895 -0.7841722
3160 0.29308197 0.4538768 -0.011814061 -0.25008303 0.6232531 0.032541726 0.05284778 0.379769 0.30602536 -1.0400207 -0.16620769 -0.2980663 0.35861468 0.23150183 -0.21142142 -0.19195881 0.6474364 -0.19694072 -0.16097015 0.07162471 -0.02611807 -0.40438208 -0.34880656 0.22630401 -0.33490843 -0.024465125 0.36276284 -0.99432576 0.08076419 -0.6347292
24376 0.45063508 -0.15136626 -0.51141214 -0.61155665 0.3857094 0.029373895 0.114761256 0.09629851 -0.11054582 -0.6680148 -0.4850727 -0.3210838 0.75909334 0.28386265 -0.46744525 -0.18076342 -0.18436721 -0.050948706 0.015573687 0.15420535 0.3384357 0.78029317 -0.023711268 0.35090485 -0.73276865 -0.074893385 0.03300109 -1.0101945 0.09516112 0.46097538
27596 0.3852265 0.033412617 -0.9411465 -0.36148655 -0.65739274 0.44710073 -0.24551232 -0.44739437 0.031045457 0.01399443 -0.51586366 -0.82992023 0.41750377 0.21096736 0.77207065 -0.41886342 0.30268407 0.49768364 -0.3667889 -0.1945364 0.22248685 0.18113029 -0.73134845 0.20095311 -0.4371533 -0.6181523 -1.2751694 -0.55073947 0.049391665 0.049817994
36837 0.13310824 0.2353765 0.55106497 -0.064314954 -0.66489094 0.5025175 0.25302383 0.19512664 -0.5508858 -0.6944515 0.08303632 0.38152322 -0.17779812 0.07842366 0.1991753 -0.7517243 0.3683129 -0.011760634 0.19518095 0.45780206 0.45391268 -0.70607805 -0.3574954 0.3598781 -0.18290617 -0.33048892 0.08085669 -0.930685 0.06820585 0.20989196
9006 0.07201452 0.2190538 -0.21663015 -0.16351385 -0.17104274 -0.20085353 -0.48566416 -0.023659537 0.3297722 -0.892685 -0.14014663 0.32008982 0.47218156 0.38095063 -0.07974761 -0.6738745 0.10698874 0.13779114 0.23767418 0.17035916 0.6232513 -0.17844282 0.10088516 0.57948005 -0.60734737 -0.028181119 0.09310511 -1.0547993 -0.42323774 0.34615713
35061 -0.27269784 -0.05979112 0.55895525 -1.0279799 -0.2031259 -0.16423935 -0.28347853 0.3813545 0.38677615 0.41583532 -0.12996614 -0.5633513 -0.12643223 0.7192132 0.1263139 -0.119485274 0.85224277 -0.38221142 0.49299031 0.5008151 -0.80117166 0.34699872 -0.5020402 -0.088241845 -1.3248807 -0.15337256 -0.28794813 -0.9496335 0.8327237 -0.32697898
13177 -0.49921146 0.06360596 0.14200397 -0.16398503 0.773566 -0.017140085 0.04062133 0.09265883 -0.30709603 -0.6058529 -0.82226884 -0.1991941 0.6833041 0.39014408 -0.15018833 -0.7951992 0.1682008 -0.022906102 0.43207446 0.12735549 0.46898192 -0.7562357 0.17135161 -0.28258333 -0.2507428 0.042390134 -0.52332455 -0.09003367 0.36610425 -0.31646726
18507 0.34439692 0.4204214 0.4831441 -0.2626599 0.070043154 -0.2558615 -0.2617938 0.30549142 -0.13844068 -0.58735645 -0.092295915 -0.7450114 0.34972113 0.021582965 0.67670184 -0.85522664 0.019746615 0.82679605 0.010623928 -0.36347827 -0.39158335 0.21917155 0.18792693 0.14413926 0.30175915 -0.28621593 0.21078679 -1.1551739 -0.32419196 -0.30297244
9042 0.36673474 0.09314843 0.44994125 -0.24627101 -1.0432698 0.0463903 -0.11690749 0.5511681 -0.9773725 -0.63350594 -0.26835135 -0.13204503 0.60755485 -0.29047114 0.80002034 -0.07812981 -0.5296076 0.11227404 -0.16333562 0.7712683 0.24712084 -0.43795916 -0.36533922 -0.3374875 -0.3293627 -0.19166985 0.11853028 -0.32263228 -0.08253633 -0.13711028
25451 0.1498708 0.6778645 -0.02308226 0.050417434 0.19140765 -0.08354279 -0.05009228 -0.19870555 0.045349475 -0.4355869 0.45415205 -0.29907373 0.18219544 0.46692148 -0.13512784 -0.021625485 0.513895 0.09789222 0.16722147 0.5419877 0.87149155 -0.4414031 0.4591389 -0.20279723 -1.0166001 -0.21652845 -0.40255052 -1.2320006 -0.46603048 -0.7083685
12731 -0.3896124 -0.41292644 -0.33383682 -0.6672892 0.82479125 -0.00038584828 -0.13885327 0.48657668 -0.09395786 -0.87993777 -0.7573631 -0.29026505 0.47161895 0.07347409 0.11607141 -0.53214407 0.2739723 0.145729 0.23898834 0.02512295 0.39048728 -0.46976155 -0.01469349 0.047320507 -0.038712747 -0.12849334 -0.15474002 -0.40165782 -0.017330894 -0.3006184
10689 -0.016847348 -0.52447504 -0.9357086 -0.2987474 0.11720122 0.121459045 -0.5931646 -0.0819031 -0.5476033 -0.58662015 -0.15163061 -0.7500883 -0.16801094 0.35617086 0.8423105 0.026419882 0.5165839 -0.46676102 0.080631725 0.08091935 -0.16854341 0.4536773 0.09320935 -0.6492038 -1.39532 -0.5260295 -0.04155818 -0.85132957 -0.32064834 0.13357484
27874 -0.10924537 -0.106441095 0.1751369 -0.26361236 0.28184447 -0.21805975 -0.15981919 0.16921456 -0.58070356 0.08515769 -0.58212876 -0.81798327 -0.82099915 0.21040481 0.18160853 -1.2630959 0.42570105 0.16081908 0.62407273 0.19158155 -0.075165264 -0.49658763 -0.26671833 0.20095266 -0.2853165 -0.8634076 0.26628256 -0.3065495 0.28022847 0.2943966
3122 -0.024856657 0.08767403 -0.024126643 -0.09130262 0.8387573 0.1337162 -0.34402987 0.28986573 -0.66022426 0.483619 -0.8585681 -0.6615474 -0.52160794 0.27989134 0.46439156 -1.191661 0.31047064 -0.26287773 0.7704043 0.021563977 0.38245565 -0.48202965 -0.5135031 0.116608895 -0.48709893 -0.6266217 -0.029882668 0.038746722 0.37271824 -0.06348021
27655 -0.38986534 -0.253598 0.87644094 0.14972408 -0.13231249 0.11475547 -0.44692674 0.47022343 -0.25251523 -0.33027434 -0.50608367 0.25870544 0.09321655 0.30417842 0.44860813 0.08220231 0.45157385 -0.8054962 0.2160214 0.45007282 0.2484645 0.08891531 -0.47526136 0.39880633 -0.89648134 -0.32333508 0.351616 -0.6140863 0.77013916 -0.40491188
6491 0.5150356 0.059982758 1.187952 0.3497141 -0.6583915 0.15217578 -0.18800698 0.62208307 -0.16427843 0.10371578 -0.23649444 -0.48184913 0.23979218 0.3022904 0.084292814 -1.2580312 0.034057587 -0.6990842 -0.6368661 -0.1604148 1.2488528 -0.752961 -0.14811048 0.3774635 -0.057253037 -0.22841725 0.7344665 -1.0911779 0.32711285 0.12868519
11227 1.0108522 -0.0872423 0.4217351 -0.7502244 -0.066583335 -0.5244774 -0.49641025 -0.22877252 0.18932569 -0.9677591 -0.41418424 -0.59902906 0.30172327 -0.029763758 0.33629578 -0.07021054 -0.42764455 -0.31457382 -0.20619981 0.27066314 0.2387654 -0.82284397 -0.12176495 -0.2544842 0.068940334 -0.08017604 -0.269587 -0.30179724 -0.07632055 0.3622585
27669 0.564267 0.4290067 0.2851307 -0.54580986 -0.015066935 0.26546043 -0.010519954 -0.46699634 1.0760977 -0.16927923 -0.3833238 -0.27691063 0.5606193 0.38475966 0.26395726 -0.392655 -0.25232154 -0.7309588 -0.17357397 0.059433058 -0.1299938 -1.0441967 -0.82580996 0.6984578 -0.0901414 -0.11454727 0.21927081 -0.71351445 0.11250945 -0.5678118
28417 -0.5172843 -0.36165357 0.38526893 -0.50968134 -0.033987988 -0.084267356 0.36011145 0.72075844 -0.022579702 -0.45820743 -0.12478945 -0.4478304 -0.2975479 -0.037321772 1.435882 -0.3674623 0.15682733 -0.57702637 -0.18904771 -0.33231887 0.18986651 0.5552898 -0.5728916 0.45721567 -0.7965016 -0.5392306 -0.07282168 -0.7702132 0.14175159 -0.39328542
31785 0.43759474 -0.22113895 -0.045510136 -0.38323483 0.4195163 0.5214005 -0.49300295 0.019111022 0.14841187 -0.8401703 -0.6021329 -0.82227176 0.545094 0.17259407 -0.13237496 -0.26177186 -0.32399595 -0.4409724 -0.5777083 0.3969381 0.11424815 -0.12847383 -0.16727594 0.41439804 -0.54513437 0.07920539 0.28597242 -0.72532463 -0.19792967 -0.013161577
16723 0.60993373 -0.06629725 0.19940531 0.06285995 -0.2790932 0.06958489 -0.5447928 0.6793512 0.43633765 -0.19920917 -0.17232722 -0.51349086 0.53687173 0.24411441 0.3228658 0.044287637 -1.140771 -0.03773654 -0.0068441015 0.013384409 -0.2450539 -0.34575853 -0.672441 -0.6649131 -0.6232335 -0.07904424 -0.43741852 -0.6384884 0.5582651 0.07839005
25706 1.0661396 0.18390545 -0.48429984 -0.4971502 0.24460492 0.1188736 -0.33493492 0.3822965 -0.28029424 -0.26511234 -0.13833275 -0.29179806 0.7327294 0.27920482 -0.24895495 -0.1915239 -0.68005353 0.17026524 -0.021733854 0.29554495 0.22109 0.43586084 -0.11833553 -0.03403058 -0.9437724 -0.17186108 -0.0462991 -0.44446105 0.3571812 0.24286029
17596 0.16001026 0.20580235 -0.07859195 0.11694115 0.3697319 0.37413895 -0.94298023 -0.11636122 0.04294528 -0.68603325 -0.90349334 -0.6415219 0.37529948 0.272207 0.10029618 -0.3893226 -0.3259242 -0.39239144 -0.12779948 0.3053729 0.3723583 -0.9885706 0.2312927 -0.16021714 0.061846077 0.012190031 0.58048505 -0.53952795 -0.70656496 -0.6139493
27843 -0.12817475 0.43523133 0.5014262 -0.2546835 0.27800846 0.6147443 -0.34861746 -0.20715368 -0.9279768 -0.162978 -0.2720038 0.1508627 -0.13917135 0.07382036 0.3624069 -0.57769126 0.095044695 0.48208007 0.48221254 -0.26281214 -0.20277278 -0.50615406 -0.32509485 0.48713022 -0.7076307 -0.05762934 0.15164337 -0.9748849 0.10916803 -0.12722729
30373 0.6758857 -0.29794607 0.068559274 -0.41140288 0.10770406 -0.02718746 -0.3025014 0.2672058 -0.43559572 -0.10682723 -0.5858786 -0.021419387 -0.5375733 0.72357255 0.08924702 0.23425107 -0.79315645 -0.7282061 0.122604646 0.42423072 0.09883244 0.07676241 -0.66373765 0.49189514 -0.17471029 -0.4066849 0.2744116 -0.60741466 1.0573969 -0.52888393
36709 0.0737213 0.5324645 0.04953866 0.24540219 -0.075576656 0.08552256 -0.2974141 0.6056723 -0.32903665 -0.081001826 -0.46140417 -0.16075575 -0.48259145 0.2545711 0.89860934 0.59204787 -0.21523082 -0.06045064 -0.50012195 0.93878055 0.5579644 0.061919108 -0.42322186 -0.10631779 -0.9868661 0.00134074 -0.6226362 -0.73029333 0.5805197 -0.123715945
32987 -0.2640308 -0.4252789 0.5087891 -0.0498086 0.8393275 0.30944684 0.026351467 0.17317304 -0.40180495 0.35441974 -1.323892 -0.30973542 -0.19519375 0.3536301 0.29902247 -0.53039634 0.04231018 -0.27079275 1.344941 0.045092933 0.33772433 -0.0757645 -0.5365468 0.28246394 -0.8053738 -0.39925107 0.29171315 -0.73537236 -0.31577516 0.28405425
18564 0.70298856 0.14140417 0.029738087 0.33077362 -0.5919577 0.23103723 -0.24722032 0.82587206 -0.32666022 -0.338033 0.20934764 -0.13393198 0.25239176 -0.17410374 0.06639532 -0.72849035 -0.4304999 0.06910615 -0.24589315 -0.41045073 0.88405293 -0.10600647 0.21383901 -0.20405653 -0.046764072 -0.76928085 -0.75135237 -1.4039509 0.46778825 0.6899736
13903 -0.07418911 -0.66535497 0.39359576 -0.42231354 0.30784693 -0.17324255 0.98726475 0.29699385 -0.115807004 -0.17651874 -0.75511456 -0.35643074 -0.03289924 -0.022042507 0.17480375 -0.64228106 -0.41916934 -0.050283868 0.83021307 -0.637079 0.18349056 -0.30750826 -0.16772796 0.4973656 -0.39852273 -0.6943853 0.20127693 -0.93426836 -0.20462859 -0.37495357
25854 -0.8237561 0.37169325 0.20903228 -0.79349214 -0.26673067 0.24829546 -0.42822433 0.40693292 -0.17750946 0.1603319 -0.7216599 0.15178196 1.1144286 0.22521822 0.23999712 -0.271272 0.46866322 -0.24517237 0.27342653 0.28753957 -0.45934218 0.137681 -0.5203913 -0.5491191 -0.18027493 -0.5430338 -0.22258246 -0.73432976 0.69309694 0.8785845
4698 0.35228074 0.54787236 0.61887395 -0.790932 0.30734843 0.13371617 0.28018224 0.1856037 -0.09635082 -0.73207337 -1.1824398 -0.062614866 -0.1841909 0.07729514 0.122993335 -0.63757527 -0.19692363 -0.4083554 0.42513147 0.15448281 0.5069356 -0.37857717 0.32027656 0.05030917 -0.7200181 -0.4321051 -0.0065275845 0.36159316 0.6270385 -0.21425708
5199 0.27428496 -0.19542588 0.34158245 0.2152826 -0.81508297 0.5269073 -0.59841543 1.454101 -0.26507133 -0.7273545 -0.22716737 -0.16796148 0.3455623 0.31195596 0.88721526 -0.21936812 -0.7271579 0.0102189 -0.41136834 -0.52777904 0.56204367 0.014736195 -0.18527654 0.14944765 -0.69151175 -0.3907822 -0.34562847 -0.76276505 0.07960751 0.0336174
5694 -0.3012331 0.48767683 0.37360802 -1.1526501 -0.12679751 -0.11270814 0.14376844 0.34966567 0.26884082 -0.86562127 -0.08780862 -0.14490877 0.34620434 0.36010143 0.37268987 0.4939731 0.33477783 -0.7499978 -0.07037382 -0.033605635 -0.80123055 -0.08182543 -0.3927967 0.29080522 -0.81060976 0.09514581 0.1983913 -1.2111645 0.40575045 -0.28899592
20607 -0.54933596 -0.06656104 0.14719261 -1.0918744 -0.47795674 -0.44479787 -0.01920466 0.035834715 -0.28658953 0.36357853 -0.85072005 0.13021544 0.39635417 0.13834886 -0.7032451 -1.0564547 -0.43671092 -0.43115193 0.32462022 0.72343415 -0.6708843 -0.23140459 -0.7481168 -0.68333095 -0.99072313 -0.07767911 0.45831904 -0.5823843 0.5658392 -0.28725696
17580 0.59140986 0.19568023 -0.09468148 0.68127006 0.016943501 0.08022072 -0.45850813 -0.030594435 0.28963894 0.27617127 -0.5961219 -1.1772517 0.07462716 -0.0604771 0.00036589956 0.52006364 0.27000108 -0.13859849 -0.08541205 -0.16619661 0.5385784 -0.6834516 -0.20525025 -0.073953904 -0.7642068 -0.2551587 0.062806346 -0.8690688 0.6595023 -0.91657627
27031 0.63890046 0.19822912 0.14268309 -0.4188574 0.18930502 0.09939695 0.6108248 0.20942588 -0.5435941 -0.36555275 -0.8114978 -0.25792265 -0.22367835 0.09711411 -0.018527173 -1.1089699 0.2601553 0.5732901 0.08409242 0.56126326 -0.44800037 -0.36158243 0.10588591 -0.19892907 -0.21043813 -0.45450848 0.4784035 -0.38850284 0.23874313 0.38844663
34002 0.17946869 -0.2254585 -0.40364963 -0.5479322 0.095644236 0.24168682 -0.19075441 0.20207019 0.38089332 -0.3731401 -0.47530988 -0.31524524 0.8966474 0.15665859 0.6271166 -0.285347 -0.28915745 0.3606175 0.26378024 0.21044552 0.20838873 -0.93435496 -0.9843651 0.027498294 0.007352195 0.103961706 0.4240599 -0.5834076 -0.14995201 0.061844707
17242 -0.46946424 0.21288055 0.35959128 -0.18562427 0.6963271 0.3945513 -0.2587263 0.20901138 -0.79686797 0.1843441 -0.5709891 -0.8579246 -0.7832005 0.11379281 0.31233206 -1.125883 -0.06552102 -0.3507834 0.6457927 -0.11367105 0.16938464 -0.5781042 -0.43104488 -0.47546747 -0.30317062 -0.6501655 -0.18100624 -0.34126073 0.38974208 -0.05969794
33833 0.17987992 0.45735115 -0.13017619 -0.11355656 0.09356049 0.17182495 0.48845235 -0.25962916 -0.23862234 -0.04084879 -1.2957313 0.39945424 0.08292217 -0.5176816 -0.123273276 -0.5528138 -0.116746984 -0.1473352 0.52197295 0.24161084 0.012719635 -0.36313194 -0.0015874188 -0.60074306 -0.3863608 -0.5881839 0.28617394 -0.45055148 0.66398275 0.27539718
35171 0.4615604 0.2554974 -0.38278762 -0.5063178 -0.6843686 0.4382272 -0.12180884 0.11813846 -0.7704179 -0.20389079 -0.7870993 -0.13784552 0.5264943 -0.17649342 0.6001194 0.48293898 0.5983248 0.21418233 -0.1397226 0.062413163 0.47355187 -0.8065877 0.1931453 -0.26763284 -0.28178975 0.37273222 0.16434272 -0.78086084 -0.43971834 0.07693558
18622 -0.16255684 -0.4869804 0.2223845 -0.7613724 -0.024544552 -0.41252652 1.0538253 0.35517877 -0.12326383 -0.13349624 -0.8520362 -0.27773532 0.29235855 -0.021274623 -0.20065892 -0.9691103 -0.24414289 -0.24536338 0.31261703 0.027884245 -0.49539587 -0.23806268 -0.22008947 0.082240276 -0.2202474 -0.62619907 0.24485725 -0.6263191 -0.19893424 -0.7843731
27983 -0.28974915 0.3131003 -0.34186408 -0.22840072 0.57864624 0.42070788 -0.32120636 -0.056513403 -0.19575487 -0.3423019 -1.5956864 -0.12650487 -0.24169269 0.39807776 -0.28223667 -0.40892938 0.11384579 -0.18029836 -0.13910082 0.07441 0.080380335 -1.1026695 0.029722892 0.08366405 -0.3994326 -0.83343524 -0.09533446 -0.07180619 -0.096359804 -0.7908213
9705 0.40664852 0.2530362 -0.21746576 -0.7486823 -0.16308363 -0.050032184 -0.09002738 0.7629477 -0.042141415 -0.8824269 -0.4484087 -0.26393628 0.40467754 0.35214564 0.14743629 -0.6913597 -0.020439995 0.36223415 -0.25406677 0.007901734 0.16934808 0.98921263 0.04525029 -0.07345354 -0.13227983 0.359847 -0.31963074 -0.72688836 0.2538428 0.05891937
21018 -0.6163837 1.093315 -0.23048708 -0.32634705 0.43003434 -0.24112037 0.47217155 -0.016829273 -0.38994932 -0.54771334 -0.32085216 0.01668309 0.8901572 -0.14349999 0.6383929 -0.21700668 0.6049276 0.21208109 0.40359953 0.08067516 -0.15302518 -0.81870914 -0.09906283 -0.26776013 -0.6059993 -0.12298418 -0.3626763 -0.7351657 0.28221384 0.673404
32069 0.84749377 -0.33230025 1.2125617 0.29222265 -0.43898514 -0.06397755 -0.20708902 0.3328075 0.11071723 0.1728706 -0.17163047 -0.6248043 -0.23048876 0.5562597 0.27519718 -1.1467144 -0.28949845 -0.9541099 -0.3542792 0.0933916 1.0567188 -0.07757138 -0.15676501 0.18378478 -0.062340967 -0.2063894 0.5785992 -1.1553274 0.57182175 0.3132625
3306 -0.1424766 -0.21529554 -0.6274004 0.041544136 0.3050483 -0.119523555 -0.8633938 0.3169584 -0.5389233 -0.76793486 -0.13358746 -0.79570717 0.43773487 0.29099286 -0.17239505 -0.7047772 -0.19556439 0.040587205 0.20799387 0.17998722 0.5617039 0.06866804 -0.12553765 -0.25893825 0.07053932 0.10245265 -0.122939885 -0.7406826 0.6155946 -0.41563013
23108 0.44185904 -0.6455303 -0.289989 -0.12822773 -0.18221462 0.006756137 0.63851935 -0.17872387 -0.7026423 0.33255935 -1.5768303 -0.17374438 -0.5298435 0.98512286 -0.044107564 -0.9251909 0.018230611 -0.1204439 -0.0146951275 0.29069087 -0.2964306 -0.28351223 0.33923262 0.1388973 0.116392374 -0.8973793 -0.0381418 -0.5131805 0.3908245 -0.62209094
22757 0.10788239 -0.22059157 0.39205816 -0.06144899 0.23241895 -0.51375145 -0.37482935 0.36276802 -0.7259878 0.30357087 -0.8088798 -0.38601327 0.16434239 0.25246447 0.22106113 0.065677084 0.5184297 0.04031303 -0.14664619 0.9048902 0.59764534 0.31067884 -0.27183226 -0.033585936 0.56270087 0.46623862 -0.18766153 -1.5100491 0.10668218 -0.12961282
14712 0.23066123 0.1739599 0.9144166 -0.5267779 0.5451232 0.10445898 0.3119151 0.18699887 -0.08551422 -0.5596661 -0.78180146 -0.027021771 -0.31865114 0.21305545 0.59802634 -0.9332551 -0.096438274 -0.26808563 -0.14141074 0.24083392 0.8840851 -0.06253576 -0.109091714 -0.048857253 -0.10748659 -0.35641176 0.09630423 0.03813366 0.9402783 0.049098775
25469 0.14912362 0.30941635 0.09430964 -0.23460497 0.7961406 0.0818407 0.088758 0.11250274 -0.051121112 -1.1203067 -0.8318064 0.26666057 -0.51784337 0.42145303 -0.019842688 -0.3171354 -0.09626403 -0.17970765 -0.07056173 0.26170003 0.5356 -0.44605628 -0.50992435 -0.18650535 -0.31814516 -0.3320721 -0.05157099 -0.4192483 0.90385777 -0.2776211
36326 -0.044763938 -0.47430983 0.24410422 -0.119080566 0.40070537 1.1145606 0.23924561 0.0034798193 -0.74316376 0.06541628 -1.4713738 -0.2601257 -0.17616479 0.30539614 -0.6289383 -0.64051765 0.51024854 0.370975 -0.038869046 0.979793 -0.0045732805 -0.6325291 -0.15484247 0.22348349 -0.7324488 -0.56482 0.29193002 -0.862288 -0.17239025 -0.139704
30596 0.105919376 0.54550683 -0.0029581971 0.49944714 -0.6052366 -0.1307874 -0.40314245 0.47901657 0.04249464 -0.15083447 -0.56318873 -0.4350324 -0.23002706 -0.02249607 0.8472708 0.23173258 0.23002844 -1.1070385 -0.2303693 0.8008258 -0.1079313 -0.034049656 -0.6794318 -0.30928513 -0.60075676 -0.42849958 -0.016122771 -0.38138363 0.32577878 -0.11922408
33679 -0.0059844106 0.14204709 -0.48419797 -0.27186757 0.5333641 0.24440631 -0.60609806 0.055251066 -0.37378305 -0.055350505 0.23791605 -0.46649158 1.0368987 -0.637742 -0.12942213 -0.52504003 -0.428248 -0.6438347 -0.5594718 0.73982245 0.25032762 -0.001713429 0.33699393 -0.07332245 -0.6996329 -0.866181 0.52574235 -0.99723786 0.409809 -0.45390522
28522 0.07529247 0.48973387 0.096549526 0.28290597 0.5865344 0.22651088 0.633148 0.106971055 -0.39248544 -0.28344232 0.46823958 0.35786146 0.52524793 0.10116247 0.4102269 -0.5154327 -0.48579377 -0.4499235 0.14246766 -0.29630154 0.5158512 0.26549414 -0.12837109 -0.25239152 -1.0266094 -0.31436878 -0.09809019 -1.2345355 0.22032982 -0.5514957
8759 0.015135655 0.16293097 -0.39557758 -0.003171341 0.50451046 0.05132591 -0.2895857 -0.05085774 -1.3705556 -0.361217 -1.1316488 0.06360527 -0.10275959 0.35650316 -0.29491892 -0.22933456 0.098657906 0.41450796 -0.35128394 0.6019461 -0.7838853 -0.33608305 0.31745547 -0.17430022 -0.49026492 -0.83283126 -0.00040069016 -0.8327893 0.24621819 0.51503414
11536 -0.37772265 0.03359561 0.35841128 -1.1992881 -0.15842117 -0.8742854 -0.44817504 -0.042589314 -0.15665977 0.71479124 -0.041290686 0.55349034 -0.6729268 0.43374503 0.5285769 -0.8632367 0.1664103 -0.8364285 0.90041286 0.55271906 -0.005199944 -0.04121041 -0.1732824 0.33556032 -0.9885831 -0.37264335 -0.15285756 -1.2372861 0.2660882 -0.037530243
11305 0.25903046 0.14544247 -0.031881362 0.22996773 0.71378285 0.06965781 -0.61485445 -0.21225877 0.543882 -0.48875585 -0.44220963 -0.62168306 0.4783171 0.3289823 -0.24644636 -0.53446835 -0.27308896 -0.017544774 0.4934655 0.2188192 -0.06734949 -0.64678967 -0.6199575 0.12578836 -0.5208189 -0.15882374 0.0997065 -0.59346837 0.33377504 0.27644604
3059 0.47027436 0.01214426 0.051611044 -0.24130677 0.2475577 -0.089041375 -0.4667675 -0.034195893 -0.13151738 -0.74068224 -0.33513525 -0.7167272 0.707817 0.43471754 0.30351385 -0.17950726 -0.07388917 0.2827982 -0.15336172 0.11835363 0.23717666 -0.6254267 -0.104482755 0.13087963 -0.28198022 0.22718792 -0.012331458 -0.3307012 -0.0027670146 -0.24325813
22417 -0.48515773 -0.47387815 -0.2507431 -0.092117175 -0.17549884 -0.40132704 0.6179018 -0.26658842 -0.40558106 -0.2607506 -0.8139899 -0.47226107 -0.81304353 0.52878445 0.120332 -0.8049955 -0.35194382 -0.43747577 -0.14333574 -0.0128024975 -0.10176705 -0.17705046 -0.30672494 -0.35876745 0.08004196 -0.71496177 0.37799433 -0.9283538 0.5616385 -0.6216325
19504 0.5703629 0.1716773 -0.015908647 -0.21547534 0.15043502 0.31767523 0.50144696 -0.2711874 -0.6624564 -0.32741478 -1.2341642 0.08176725 0.24650943 0.46052468 0.28308314 -0.4588593 -0.10670988 0.15709174 0.2518543 -0.064276665 0.06413343 -0.653101 0.18254113 0.1175776 -0.27957252 0.17293559 -0.19476107 -0.031566165 0.69559824 0.21961012
2672 -0.033620052 0.35089606 0.06330016 -0.22515506 0.9126212 -0.2560333 0.37200823 0.49602816 -0.07539339 -0.23291303 -0.57701313 -0.26047683 0.113433875 0.51414895 -0.44897908 -0.8307766 -0.27303538 0.0691897 -0.0007894423 0.4047396 -0.032500885 -0.85277057 -0.32643187 0.2751194 -0.0010771817 -0.10643798 -0.35942718 -0.48845595 0.408257 -0.20105758
24181 0.51563495 -0.25945523 0.26832798 0.05875676 0.44595134 0.18650372 -0.57218105 -0.57856244 -0.19717483 -1.0550328 -0.23174699 -0.028155576 0.58924 0.92596775 0.0015328509 -0.075681746 -0.054581832 0.35076663 -0.35709846 0.3102088 0.06334221 -0.44473854 -0.21455015 -0.24896869 -0.9163441 -0.12376704 0.12350358 -0.82925045 -0.22549114 0.036001693
2742 0.00094482204 0.12470287 0.2288936 -0.6193909 0.23504063 0.15197907 -0.7699821 0.8885385 0.23462227 -0.24755928 0.18369268 -0.11146702 0.52962565 0.60584575 0.8820711 -0.3089225 0.1638071 1.0059081 -0.41746762 0.19699608 0.25403854 -0.61429965 -0.53005934 0.2849846 -0.25122085 -0.58427924 0.4478677 -0.8869074 -0.2239016 -0.33506653
5314 -0.109047465 0.8922413 0.16415042 -0.72344834 -0.8743524 -0.20498039 0.41881564 -0.5370368 -0.015453765 -0.1753052 -0.4040426 -0.41670457 -0.39208752 0.5335169 0.47648054 -0.109566756 0.41809794 -1.2823876 -0.19724013 -0.27813542 -0.67461514 -0.17169717 0.017522931 -0.33726338 -0.014069188 0.21290872 -0.16980064 -1.3905821 0.40090793 -0.17283699
26749 0.6091385 -0.035884127 0.19383575 -1.2405722 -0.009104724 -0.377355 -0.46695212 -0.21508667 -0.14445074 -0.7387236 -0.5258001 -0.22720182 0.11903767 0.5039208 0.10124548 0.66964346 -0.5637998 -0.0023433815 0.36405262 -0.08136112 -0.4371983 -0.48776853 -0.41760108 0.35595205 -0.6299871 -0.09144034 -0.08551299 -0.5783394 0.3582863 0.09403021
24666 0.2101978 0.52828753 -1.1154199 0.24877328 -0.1992619 -0.53845865 0.07562901 0.19351004 -0.032536995 0.15966855 -0.07295836 -0.8385537 0.5118008 0.30008948 0.076914065 -1.5860339 -0.002873169 -0.15698761 0.07524246 0.16808836 0.7562175 -0.1333448 -0.08379745 0.6754033 -0.34072375 -0.07042678 -0.60948306 -0.46729803 0.09154494 0.36705622
36365 0.6842093 -0.14755224 0.032882497 0.9048618 -0.12077761 -0.30117473 -0.004667389 0.067836225 -0.22326821 0.43507192 -0.14362955 0.39229685 0.60682464 0.1593693 0.7016424 -0.8059406 0.6683745 0.16231717 0.00023975316 0.7164963 0.63454777 -0.11341761 -0.46579015 0.22446579 0.13445026 0.007489402 -0.7703547 -1.5195268 0.43696472 0.069432534
15528 0.69986576 0.47131893 -0.30845946 -0.3441428 -0.6615824 -0.17318556 -0.09746519 0.120062165 -0.37891153 -0.96419567 -0.35395664 -0.51894957 0.019922907 0.42634913 0.85099405 0.21942008 -0.3421658 -1.1479892 0.058083776 -0.4550868 -0.031264953 -0.61428547 0.066821225 -0.19831929 0.33897498 -0.22384134 -0.24753647 -0.506116 0.42149928 0.4119247
9084 -0.01723008 0.23500693 0.060820576 -0.4335914 0.58413243 -0.10205521 0.05325657 0.13958673 -0.18608046 0.07721464 -1.1684606 -0.3239914 -0.12903903 0.6173758 -0.13295089 -0.3161514 -0.6336898 -0.04532142 0.5670478 -0.10801584 0.07772379 -0.5888732 0.3541945 0.22877713 -0.421445 -0.20158218 0.05324827 -0.1912111 0.35513464 0.11522815
7363 0.11768399 1.541864 0.25550985 -0.28911126 -0.69237214 -0.6158998 -0.09183285 0.294925 0.2218744 -0.068220355 -0.4401773 -0.3872517 -0.4440468 -0.03967929 0.8545244 -0.32658288 0.7541205 -0.4700985 -0.28710994 0.8146563 -0.7797303 -0.17316805 -0.48781112 0.24601306 -0.5125624 0.018062335 -0.11527231 -0.92316353 -0.018601984 -0.056328814
18489 -0.55417365 0.24942349 0.4434185 -0.108984835 -0.444006 0.12222963 -0.49626204 -0.27531222 -0.005621519 -1.4405826 -0.051217046 0.059269752 -0.12478221 0.37014756 0.5965362 -0.17340122 0.19686034 0.19622138 0.62584275 0.36121577 -0.42203248 -0.43460655 -0.81917167 -0.86508065 -0.4195501 -0.9080071 0.1793976 -0.89818347 0.23991983 -0.33564067
6094 0.23344782 -0.5857809 -0.17784004 -0.45593047 0.6020731 0.422759 -0.21892996 0.0051036803 0.28095853 -0.13210115 0.42339602 -0.66472566 0.2814058 0.066731356 0.8610138 -0.19698574 -0.24893922 0.20281875 -0.18747744 0.5225382 -0.2029607 -0.524884 0.14716347 -0.98257965 -0.68007994 -0.46508127 -0.13316558 -1.1161454 -0.5852925 -0.1323282
36799 -0.3498666 0.39628842 -0.038795818 -0.5068906 0.051594954 -0.08115098 -0.20602144 -0.17945775 0.027489256 -0.94180125 -0.4324103 0.1582561 0.55514395 -0.04456161 0.43583593 -0.3520781 0.16517292 0.3314074 -0.27035937 0.36473072 0.7933893 -0.4929151 0.5944398 0.049726717 -0.6457014 -0.025843207 0.0010147654 -1.1425723 -1.1135236 0.30340555
35335 0.33201584 0.12078151 0.20583138 -0.37023866 0.47494927 0.25032693 -0.31503972 -0.14028823 -0.36432734 0.5237167 -0.9507425 -0.7143103 -0.25762242 -0.113989696 -0.113620766 -0.3009554 -0.4408059 0.13553488 1.0653443 -0.4880025 0.3295442 0.054588575 0.59344065 0.13429877 -0.952636 -0.9461272 0.18236572 -0.55126774 0.7612273 0.040242106
23072 0.27184772 0.010503428 -0.17134064 0.19004226 -1.486732 0.5736672 -0.6950259 0.32690424 -0.33019057 -0.77065396 -0.661287 -0.24748701 0.36816892 0.2663911 0.8747015 0.013329804 -0.100239106 -0.15161252 0.11208713 -0.40777668 0.12540293 -0.8524365 0.029054742 0.42092147 -0.6396502 -0.45955342 0.31269473 -0.13418952 0.5459727 -0.019505061
28859 0.17657217 0.15852782 0.5281973 -0.107552566 0.41091403 0.15439215 0.7321133 0.499401 -0.10607396 0.30083087 -1.1061764 -0.59173566 -0.40605968 0.05162818 -0.12104742 -1.0519569 0.54960245 0.17091708 1.238602 -0.21667063 0.23615782 0.2349075 -0.31983054 -0.14487405 -0.59847736 -0.25037444 -0.07618221 -0.6207132 0.5881931 -0.28042376
23523 -0.72984886 0.24496269 0.112316705 0.025386265 -0.018769057 -0.40642813 -0.01893991 0.40734965 0.015756164 0.5727548 -0.63510036 -0.37219816 0.2296602 -0.20982403 0.38745025 -0.6935504 1.0805602 -0.2877971 0.67173254 -0.07432783 -0.48688766 0.23290473 -0.4373934 0.011473103 -1.0130066 -0.01991821 -0.3637901 -0.8897145 0.7700369 -0.56488395
9201 0.7779677 -0.27257088 -0.45571336 -0.9163714 0.20228979 0.67487824 0.4260566 0.4411273 0.6554604 -0.032278135 -0.41664788 -0.35899013 0.42175046 -0.045256656 0.79746145 -0.62149614 0.23547052 -0.27947286 0.15599789 0.24820364 -0.0071435007 -0.78046966 -0.682386 -0.511455 0.20522267 0.34942985 0.6048804 -0.9632863 0.17813489 0.4378212
15156 0.21161792 0.4529519 0.26006955 0.30597797 0.3350676 -0.23985587 -0.1825802 0.17975093 0.4233019 -0.3944555 -0.5850714 -0.94324046 1.183875 0.926757 0.84052956 0.13853529 -0.59705114 -0.43321878 -0.28240433 0.569044 -0.007466138 -0.15986104 0.69716644 -0.10009216 -0.11646627 0.025903787 -0.0873729 -0.5154119 -0.07375926 -0.13829887
19362 -0.70174766 0.011062685 0.07703182 -0.6588889 -0.26835212 0.17138234 -0.27577993 0.24375169 -0.05918502 0.5547745 -0.72833836 -0.4383758 0.96669734 0.3699867 0.34365106 -0.0519249 0.7145493 0.2943638 0.22204895 0.23500894 -0.13533725 -0.07144691 -0.56680477 -0.6396521 -0.052598886 -0.5988524 -0.1734058 -0.8222862 1.0441912 1.0906146
5953 0.85775274 0.44176525 -0.29076502 -0.6547587 0.10210984 -0.794213 -0.22398204 -0.13116059 -0.1867353 -0.51314795 -0.18453513 -0.50450426 -0.39850187 -0.034819193 0.95214945 -0.33116314 0.025961647 0.5587367 -0.06892273 -0.47808945 -0.17752068 0.09951213 0.22397958 0.487816 0.0036118806 -0.2944956 0.42937404 -1.4483978 -0.29232785 -0.16977541
