7258 50
13638 0.14312011 -0.21992794 0.063762575 0.41447228 -0.45326713 -0.021692606 -0.28374764 0.056186605 -0.010777125 0.037352443 -0.17857017 -0.5299905 0.10948869 -0.46142712 -0.31770325 -0.010355183 -0.23669682 0.073314816 -0.11916041 -0.23624726 -0.02661661 0.1750328 -0.24815233 -0.2585262 0.26388273 0.0315379 0.21218912 -0.021968449 0.057000674 -0.02890358 -0.18327703 -0.0013639444 -0.056870755 -0.5565066 0.058426972 -0.27658883 -0.058684334 0.13655257 0.26321316 -0.23862751 0.41110367 -0.018057773 -0.1049407 0.3731361 0.5845903 0.39726484 0.17907809 -0.2020659 0.36726654 0.00585729
18163 0.061235104 0.012502985 0.1815469 0.37533584 -0.273641 0.050204195 0.2291437 -0.44031584 0.31576467 0.28915223 -0.48301846 -0.065307625 0.101838246 -0.2698434 -0.7340099 -0.100433804 0.026821986 0.021785207 0.008351063 -0.62910265 -0.067818545 0.14518827 0.3401877 0.11097339 0.20144142 -0.045920495 0.63548243 0.36317015 -0.17621595 -0.16200799 -0.42491007 -0.2807929 -0.06420055 0.044170897 0.08314178 -0.28786093 0.3354005 -0.3462978 -0.13949482 0.26601943 -0.01281581 0.006167529 -0.0029613557 0.031065738 0.27981907 -0.34017217 0.36514688 -0.17307095 -0.601207 -0.11795363
7027 -0.046191256 -0.36808106 0.23218594 0.3755316 -0.37857586 -0.6895995 -0.07663455 -0.20126213 0.1639332 -0.15387839 -0.43268514 0.15202022 -0.08080991 0.01918882 -0.36310846 -0.6311907 -0.20504308 0.08854969 -0.15950297 0.27189744 -0.2565153 -0.056845684 0.14653684 -0.20677337 0.67455596 0.25171477 -0.085666 0.13045733 0.09113535 0.10545859 0.12794426 -0.1347353 -0.11197602 -0.38966814 0.19197433 -0.06889408 -0.15571803 -0.19092958 0.25022998 -0.16582409 0.51526415 0.24066597 -0.5143142 0.03433321 -0.013379365 -0.11474203 0.2187336 -0.29703793 -0.05328416 -0.36740142
33671 -0.22893745 0.854964 0.28300944 0.6941999 -0.4124643 -0.24650262 -0.27502775 0.17082737 -0.04409721 0.036686935 -0.009152871 -0.012449773 0.052647598 -0.4399424 -0.06963641 -0.25690123 0.25149068 0.27618983 0.078246124 -0.40122363 -0.112801805 0.09181531 -0.5238906 0.053604268 0.3989636 -0.1393616 -0.32634798 -0.16920002 0.13601479 -0.18449523 -0.12269617 -0.45188183 -0.46441412 0.1242263 0.15004493 -0.1868969 -0.05042463 0.071527 -0.13895571 0.41720805 0.006057 -0.35290125 -0.2714588 -0.46292323 0.25112456 0.23635165 0.33410257 -0.033994015 0.19004156 -0.38318494
11051 -0.0045762793 0.19743241 0.7280401 0.31060544 -0.38017336 0.024437884 0.24784556 -0.33280438 0.10180677 -0.11042748 -0.30320102 0.42299473 0.5086145 -0.32080236 -0.08556564 0.21491192 0.03518767 0.16248322 0.15440583 -0.11248044 0.4686494 0.18347576 -0.18359712 -0.25576705 -0.26215476 0.15581892 0.4181954 0.5479136 -0.034477793 0.10966868 -0.09955027 -0.35766965 0.37222502 0.06573621 -0.25900647 -0.19601066 -0.36965957 0.05209091 0.23104507 -0.13269426 0.48206064 -0.016790941 -0.62985474 -0.3836881 0.25122422 0.30294552 -0.0542111 -0.3587607 -0.20486876 -0.4051231
14242 -0.37245685 0.026732462 -0.20051397 0.2721389 -0.36762384 -0.27212936 0.22150153 -0.2153822 -0.045128264 -0.025272485 0.032063976 0.6221016 -0.15410331 -0.008919094 -0.12360536 -0.07218528 -0.27505806 0.22803952 -0.08976967 -0.007512676 0.3156566 0.32907638 0.47446728 -0.33960667 0.18303198 0.12763113 0.28601518 -0.4879346 0.39612105 -0.03991043 -0.31756154 -0.39640936 0.06332532 -0.110965796 0.024557218 -0.3797418 -0.37686226 -0.14507647 -0.05827219 -0.55561644 0.30663782 -0.43171766 -0.24299417 -0.2504288 0.5257712 -0.12775028 0.6532329 -0.13878162 0.0849954 -0.30802247
21142 0.35672238 -0.3302541 -0.015160203 0.54846114 -0.2653542 -0.40095273 -0.15835902 0.01874142 -0.2315259 -0.089179404 -0.3123469 0.6292277 0.14871062 -0.05919703 -0.1754394 0.2133309 0.024984008 0.26796672 0.48285806 0.1296389 -0.5991958 0.1996177 -0.2530426 -0.23332025 0.23358817 -0.098612905 0.13140413 0.30700865 0.0669837 -0.38121706 0.004789941 0.07910312 0.35132453 -0.82240856 0.79656935 -0.33108476 0.35899702 -0.097366095 0.47476748 -0.20050265 0.07420443 -0.21703148 -0.050906613 -0.45457 0.23723233 -0.38577282 -0.17744535 -0.5727642 -0.07825814 -0.3128568
36790 0.06839239 -0.82811904 0.29756182 0.45775512 -0.36460343 -0.15328023 0.047345895 -0.46468532 -0.4574982 0.24586469 -0.44350883 0.6901468 -0.22840832 -0.30782962 -0.23865122 -0.24537185 -0.18789382 -0.07045525 0.045043085 -0.10725232 0.16434546 0.17496134 -0.4474753 -0.084884696 0.0636579 0.22108664 0.65652287 -0.2787298 0.2517347 -0.010676636 -0.20572631 -0.6495001 0.14205773 0.40870133 0.08334589 -0.06871421 -0.4347503 0.16390248 0.19565491 0.024563702 -0.050285663 0.21135782 0.037921723 -0.34578073 0.22403044 -0.2800089 0.05919846 -0.21223857 0.23546903 -0.30717674
27450 -0.0064296746 0.15170737 0.22078349 0.445973 -0.3649891 -0.023675768 -0.35908863 -0.41665748 -0.044511776 0.022910114 0.27423298 0.52249867 0.075598024 -0.5485685 -0.30618042 -0.09492497 0.08988164 0.19321832 0.1662662 0.18016525 0.42031643 0.4084535 -0.17835319 0.04248009 0.09548558 0.016672103 -0.048492935 0.14499643 -0.1463015 0.5106223 -0.13896522 -0.25111628 -0.12507546 -0.23228294 0.65568155 -0.0352731 -0.6216357 0.5603759 -0.28813222 0.51686996 -0.057333194 -0.20199768 0.16460748 0.5892174 0.62482816 -0.3469659 0.13649067 0.029532231 -0.55184406 -0.5259759
34536 0.28926578 -0.56031257 0.06384619 0.85445154 -0.11217486 -0.52468574 -0.3502823 -0.35816997 -0.13329683 0.3721948 0.0008312064 0.22931951 0.89769316 0.07238684 -0.035614733 0.51737934 0.6970218 0.26281703 0.07191256 -0.1425231 -0.57064706 0.26545134 -0.3924216 0.24586849 -0.05304827 -0.050867826 0.11855573 0.31649616 0.06587728 0.317126 0.65097326 -0.2737884 0.40147215 0.07036332 0.29490528 -0.37335634 0.4714067 -0.46303397 0.022129228 -0.0703265 0.073316 -0.2877278 -0.13022444 -0.15377012 0.3733138 -0.13730447 -0.17113018 -0.44015694 -0.33898962 -0.66056305
20854 -0.10705646 -0.26449284 -0.47147098 0.47642976 -0.40141058 -0.065637544 0.31494763 0.25284436 -0.06507843 -0.25298637 -0.33909458 0.5250406 0.34031177 -0.017786905 -0.3186275 -0.095862724 0.03371339 -0.1083945 -0.059649885 -0.16681929 0.29808202 -0.021670654 -0.0685077 -0.045828197 0.24524386 0.21759401 0.77226853 0.6791043 0.670625 0.38894466 0.19154 -0.5006629 -0.11110202 -0.083424896 -0.14181088 -0.17630327 -0.5377158 0.07244087 0.51841426 -0.10084666 -0.023071283 0.38429463 0.151093 0.076032266 0.3564559 0.043548167 0.6633532 -0.4931871 0.010090207 -0.6043144
30235 0.37814525 -0.21054548 0.07259559 0.9218981 -0.54891235 -0.5138204 -0.24474563 0.12187982 0.29274994 0.2623848 0.09812457 0.43595558 0.24114808 -0.78186715 0.14441057 -0.31908554 -0.43327537 -0.20485066 0.29589006 -0.22334976 -0.88675404 -0.23163445 0.72326654 -0.41862836 -0.32978112 -0.15159333 0.15513892 0.29945508 -0.11273888 -0.009000265 -0.30135435 -0.34939817 -0.09385543 0.024646947 -0.14813384 -0.32938457 -0.3180857 0.5008026 -0.22880639 -0.16263789 0.33901796 0.23155083 0.12362622 0.20497023 0.18094563 0.30815446 0.24751529 -0.2789865 0.025423918 -0.27911818
35523 0.51724815 -0.54994637 0.2786519 0.711691 0.08113832 0.019267917 0.30722082 0.064947724 0.102886744 0.1692412 -0.4692485 0.44727793 -0.10920869 -0.19396986 0.12003517 -0.27400154 0.053468037 0.41325587 0.34479326 0.32830596 0.24231564 0.2927869 -0.19958223 -0.03830668 0.16368587 0.23018107 0.5172407 0.054796606 0.83587617 0.20174421 -0.16428398 -0.4723155 -0.13786528 0.05599119 0.4848545 -0.63647354 0.027531331 -0.23660219 0.20579737 -0.38223112 0.14324923 -0.22339423 -0.021630697 0.1227352 0.52428144 -0.022451896 0.14292899 -0.04746678 0.16126047 -0.3233612
16119 0.014455374 -0.20927347 -0.16414864 0.6928624 0.031375367 -0.45783618 0.51097095 0.002592507 0.022801619 -0.086972326 -0.43050075 0.18647401 0.32353708 -0.07497053 -0.21030208 -0.2784624 -0.013606001 -0.49346045 0.3620614 0.043790568 0.30786666 -0.13320702 -0.28809592 -0.16374804 -0.13938649 0.16277026 0.55941623 -0.1447442 0.48994488 0.31833673 -0.3842863 -0.88809514 0.23757802 -0.22356604 0.11150114 -0.42874354 -0.4940362 0.06424816 -0.03246692 -0.009419621 0.19341075 0.08251549 -0.17982501 -0.14703184 0.32495016 -0.5240521 0.21622154 -0.24218206 0.06708309 -0.40385672
35876 -0.0052331933 -0.369348 -0.3319303 0.68185073 -0.29856712 0.24635069 -0.5850535 -0.4343957 0.1582257 -0.048634194 -0.49336845 0.01603703 0.64470744 -0.05396196 -0.47866964 0.12442289 0.15524119 0.6945352 -0.1316553 -0.06762468 -1.0399235 -0.006203543 -0.2494368 0.05523796 -0.469978 -0.62352854 -0.037611812 0.06796776 0.13409382 0.054122373 -0.084797285 -0.47761527 0.5316362 -0.33380648 0.83676314 -0.2891624 0.117447734 -0.022610636 -0.054943975 -0.14997032 0.036819607 -0.087896265 -0.17583609 -0.032411665 0.21911487 -0.18905912 -0.14721493 -0.09816179 -0.59174997 -0.4014786
18638 0.5992857 -0.21577114 0.18943702 0.62206674 0.24067187 -0.27207962 -0.12090581 -0.0034460577 -0.3912609 0.03310978 -0.35256925 0.7542145 0.5440667 -0.024360877 -0.8051252 -0.33397833 0.33099294 0.45192942 0.3063541 -0.14808401 -0.7657076 0.55171514 -0.4158331 -0.060056716 -0.24344365 0.17678289 0.1806748 0.031656176 0.3075172 -0.18612698 0.17074567 0.020715779 -0.090764575 -0.2129429 0.0025164608 -0.21365471 0.4201157 -0.20422983 0.17221172 -0.2576695 0.43056887 -0.36029887 -0.2746512 0.034009818 0.52012414 0.111459665 -0.570018 -0.014354245 -0.55582654 -0.56686276
16631 -0.54771215 0.89094996 0.43969315 0.39649642 -0.5765327 -0.039961588 -0.41961762 -0.1357747 0.5615716 0.0934011 -0.34454694 0.30222192 0.258145 -0.6376432 -0.66907424 0.3033146 0.39819944 -0.16221943 0.35023716 -0.2106147 -0.23470289 -0.20186312 -0.96231306 0.26377827 0.31283024 -0.41647413 0.06043484 -0.0006324234 0.3843166 -0.039575547 -0.18565047 0.15129666 0.30792326 -0.1818868 0.4559211 -0.36809227 -0.06060285 0.25639153 -0.14275376 -0.020343618 0.30046347 -0.06439443 0.31321305 0.25011253 0.2652249 -0.14437704 0.28271905 0.7484552 0.17297417 -0.7575306
21375 -0.4124366 -0.35372925 0.39674094 0.451828 -0.551981 -0.48707062 0.02950985 0.036751036 0.16172436 0.3322007 -0.26612145 0.4919477 0.3468884 -0.14087497 -0.19034874 -0.55327696 0.6572498 -0.6133591 -0.45313123 -0.4468833 -0.07252202 0.27173716 -0.06861312 -0.63426924 0.33108217 -0.022313422 0.053499226 0.21110658 -0.35596856 -0.13862418 -0.38884804 -0.06281634 -0.13628004 -0.21429847 0.5148122 0.00088287226 -0.3748855 0.6431641 -0.31496522 -0.020830767 0.3848325 -0.42497796 0.20825225 -0.05640428 0.23241748 0.09365238 0.23212798 -0.3509829 0.050484832 0.39534646
29886 0.29059973 -0.4365952 0.3816369 0.30237532 -0.40120256 -0.7007749 -0.42124614 0.21427949 0.075155996 0.23778708 -0.19605805 0.0003649924 0.5446662 0.44209978 0.11540853 -0.1017303 0.019479325 0.26643384 0.14001063 -0.25040868 -0.38280118 0.1789469 -0.4164872 0.21768035 0.1932739 0.0141862035 0.25058144 0.3974769 -0.042234857 0.09314069 0.07267548 -0.6368779 -0.32709968 -0.6990316 0.21808898 -0.4247289 -0.102623634 -0.26288596 0.6341329 0.10507066 0.25168365 -0.63309294 0.46494955 -0.13243812 0.21978928 0.34806585 0.06366461 0.23101287 -0.24846438 -0.10570299
37107 0.008221818 -0.0566686 0.35087392 0.4383495 -0.7387836 -0.20327614 0.5147943 0.04350257 0.09996809 0.20127194 -0.46268922 0.16409948 0.13278787 -0.016562205 -0.26667452 0.14161725 -0.5538565 0.30565548 -0.22205389 -0.05459305 -0.5588691 -0.23006545 -0.13335033 -0.73178834 -0.054637056 0.32639727 0.31546238 -0.5099974 -0.044066112 -0.062324222 -0.3986616 -0.029833764 0.12377636 -0.16103444 -0.40390953 -0.17815761 -0.38413298 -0.21472953 0.15265849 0.14338866 0.21042171 -0.2586918 -0.19532216 0.3406202 0.6042786 -0.26053628 0.8638912 -0.6415278 -0.082277864 -0.7400733
13504 -0.018337198 -0.049125433 0.51359844 0.18372943 -0.54450244 0.041137047 -0.30964112 0.19854294 -0.07755559 -0.31680915 -0.30960068 0.44151214 -0.24850893 -0.21110363 -0.07953528 0.27946803 0.60572934 -0.56746936 0.1704475 0.018603712 -0.038389366 0.19935022 0.27561477 0.054439694 0.06627821 -0.30551165 0.26751074 -0.5501982 0.23937552 -0.28601393 0.08248141 -0.6984597 0.0020434172 -0.5521807 0.018694071 -0.5452999 -0.36239666 0.09853368 0.021440234 -0.06065854 0.099215776 0.17043565 -0.26320362 0.101367876 0.6091124 0.19568546 -0.2762855 0.12865596 -0.20746504 -0.5197853
32753 0.26381686 -0.2079401 -0.061648857 0.6169761 -1.0510556 -0.43825918 -0.051120486 -0.22101691 0.26752 -0.009980902 -0.73823506 -0.2960916 -0.045338254 -0.6591426 -0.029123085 0.07482466 -0.3863908 -0.40317354 -0.1396158 -0.20166217 -0.2098792 -0.29731125 0.24333301 -0.22792438 -0.32206747 -0.12625633 -0.34533584 -0.006438165 0.23151472 0.29663235 0.31692272 -0.50824624 -0.3993562 0.14158612 0.075954735 -0.38011298 0.26401433 0.16430156 -0.51897264 -0.28358433 0.13737354 -0.16587512 0.21116327 0.12178203 0.533438 0.27941447 0.32044852 -0.4787403 -0.27372852 0.05774033
20363 0.53444076 -0.3072681 0.18163066 0.92621887 -0.24253385 -0.4820986 -0.054288644 -0.30722314 -0.5844431 0.21532069 -0.29359227 0.47644177 0.3201918 -0.26875263 -0.3146681 0.14579096 0.13593207 0.32495776 0.02839525 0.3431426 -0.507311 0.59358156 -0.2375976 0.36936137 0.21142869 -0.3947723 0.25544164 0.19346403 0.1505583 -0.34164298 -0.030462394 0.02160187 0.2391601 -0.6276833 0.45145229 -0.18907914 -0.039189138 -0.33874714 0.08203733 -0.5462091 -0.13429539 -0.037954845 0.14369936 -0.3944903 0.35661083 -0.2982502 -0.3843336 -0.4048797 -0.2901084 -0.2276241
494 0.51479965 -0.11395453 0.3369252 0.04935322 -0.58946735 -0.26223207 -0.19914018 -0.5230195 -0.4512292 0.24155122 -0.31562996 0.41190302 0.1314385 0.17242676 -0.44966042 -0.2311419 0.45372075 0.19420916 0.41982177 0.1477403 -0.6915193 0.7561321 -0.05935616 0.059864398 0.28770286 0.042832635 -0.23776112 0.45549825 0.14383069 0.20577882 0.25039905 -0.099708095 0.50798184 0.06574382 0.42069262 -0.19274303 -0.039152928 -0.43255022 0.19258155 -0.7453775 0.05365515 -0.32101545 -0.31092763 0.1345835 0.53364307 -0.12368936 -0.4458539 -0.53962463 -0.4613372 -0.6467769
33799 0.40651688 -0.057066165 -0.15201071 -0.034406498 -0.22601634 -0.42729497 -0.0058678007 -0.15993829 0.12219882 -0.40629816 -0.28312725 0.4216011 -0.19642599 -0.05286731 -0.025258267 0.14690101 0.3080855 0.28073084 -0.13773204 -0.39088738 0.050463833 0.08891578 0.10433369 -0.1223337 0.30248928 0.38367894 -0.07311825 0.93905425 0.5013789 0.11417859 -0.23505852 -0.4947823 -0.23082288 -0.5474703 0.10504904 -0.3586472 -0.3115933 0.15550123 -0.98813236 -0.038799558 0.31357676 -0.08346573 -0.15217862 0.07992789 0.7333608 0.2503296 0.16555756 -0.3015517 0.4442508 -0.44659874
9008 -0.11827714 -0.5718249 0.2906182 0.48173615 -0.8552959 0.1069041 0.38853008 -0.17021829 -0.0016339221 0.07940109 0.13802922 0.15358952 0.17010772 -0.19939575 -0.29826406 -0.1849133 0.24255423 -0.19496869 -0.4609517 -0.15819658 -0.028342472 -0.4286723 -0.23078035 -0.51305383 0.36240548 0.14747356 -0.055635087 0.25780958 0.48961014 0.5745879 0.053102996 0.084422134 0.28291002 -0.5897641 0.06537278 -0.29506266 -0.33965304 -0.1448944 -0.2929787 -0.5600312 0.048329636 -0.35215706 -0.31148338 -0.13740045 0.2098817 -0.33271322 -0.21223624 -0.014760318 -0.04456699 -0.42484614
24830 0.20524378 -0.48823014 -0.16096324 0.2258329 -0.6894335 -0.57972836 0.32844156 0.13494839 -0.522624 0.001435839 -0.0020017386 0.0598369 -0.13073415 0.2753459 -0.56106645 -0.33006915 0.22791989 0.5201189 0.22637238 -0.23883028 0.07652924 0.70940644 0.13045943 -0.033846553 0.31648523 0.31241262 0.4737786 0.0938004 0.102041416 0.17027105 -0.24652313 -0.8868943 0.78031117 0.087994486 0.0313883 -0.23581122 -0.38008216 -0.035892505 -0.14871377 0.11116263 0.2750291 0.16363429 -0.6340281 -0.3764132 0.21332176 0.13654362 0.19154318 0.04418497 0.140532 -0.44951767
26110 0.08081852 0.9780024 0.22742179 0.082373716 0.15149803 -0.3317953 -0.44563368 -0.9023636 0.011597432 -0.07535702 -0.28095168 0.17060082 0.12995468 -0.2499133 -0.22348385 -0.11700782 0.17947151 0.08468144 0.22327442 -0.6641927 -0.021448148 -0.22247055 -0.5407738 -0.339287 0.4358189 -0.44598916 0.33638585 -0.3602198 0.65606236 0.66804457 -0.17924991 -0.33220536 0.25494167 0.02358703 0.68770844 -0.035954867 0.34134772 0.63388157 -0.31172657 0.18697725 0.15333089 -0.40949744 0.14445841 -0.050957777 0.311877 -0.3580674 0.35725126 -0.15125394 -0.09656913 -0.514579
26649 -0.15452385 0.08494807 0.40213543 0.26646277 -0.7561835 -0.8229511 -0.061524395 0.12856965 0.17215326 0.52069044 0.045153044 -0.41578186 -0.3835469 0.3633217 -0.4055091 -0.007812065 0.24342933 -0.26124507 0.10535357 -0.2666307 -0.21343772 -0.283755 -0.016257394 -0.4294329 0.0954438 -0.027246635 0.35248432 0.32767734 0.02317096 -0.08865871 0.5532196 -0.16686009 -0.12314796 -0.3404011 0.4889097 -0.20609699 0.049515698 0.67800784 0.5443093 0.45470673 -0.0031092013 -0.3480882 -0.028290706 0.058048215 1.0309775 -0.18958607 0.09216687 0.18137214 -0.07046863 -0.17126453
21754 -0.18459709 -0.1765898 0.37502772 0.21350463 -0.6523365 -0.54773754 0.07652527 -0.35437953 -0.25093618 -0.36216697 -0.09120152 -0.3181923 0.29885358 -0.08397732 -0.49937123 -0.74096084 -0.39396134 -0.2451194 0.20587508 0.20721518 -0.11724554 -0.22657728 0.19925784 -0.51933324 0.39739278 -0.0945968 0.5353144 0.43699467 0.2217832 -0.25605738 -0.14853601 -0.049737997 -0.13943677 -0.07019264 0.34275123 -0.38334462 0.0022149503 0.17816685 -0.5947892 0.16976929 0.51257807 -0.6350621 -0.06877202 -0.51917446 0.37376893 -0.46971503 -0.36493015 -0.089529835 0.3189561 -0.3437426
20236 0.6016873 -0.08685651 -0.27405038 0.239973 -0.5175792 -0.087220065 -0.28461847 -0.61364347 0.24783416 -0.030082868 0.07675914 0.36255813 0.32069266 -0.10572337 -0.19781718 0.3202073 0.29806998 0.5193854 -0.60649914 0.07751949 0.23636584 0.07495138 0.09028264 -0.25692838 -0.2076291 0.068804786 0.63657635 0.09836817 0.059565037 -0.35582098 -0.48290876 -0.6728701 -0.5269679 -0.52408624 0.26985076 0.006606247 -0.121742435 0.18148093 -0.12177533 -0.5381381 0.84979916 -0.52799654 0.1797881 0.13909535 -0.12973747 -0.06529148 -0.027466623 0.14619282 0.1379318 -0.6273245
22442 -0.15023635 -0.31772387 -0.46850228 0.486873 -0.35690722 -0.3186167 -0.017695412 -0.1791449 0.53662854 -0.009968592 -0.30155516 0.8769311 -0.26397768 -0.30562744 0.23563284 -0.15535398 -0.26423135 -0.2814063 0.16541998 -0.66438115 -0.10351899 0.17490065 0.14192826 0.4014903 0.14927122 -0.07794414 0.29212707 0.12601258 0.65876174 -0.104372144 0.15240344 -0.66174656 0.3429502 -0.4846862 -0.060021456 -0.052346744 -0.3133419 0.5914232 0.011745113 -0.092287116 -0.28690967 -0.81016433 -0.53919613 0.15433384 0.07776622 -0.062194113 0.32217473 -0.05398771 0.34539118 -0.09756399
9395 0.2921254 -0.46159482 -0.5102645 0.6137453 -0.36207405 -0.20444472 -0.38243052 -0.3697996 0.5339219 0.3168641 -0.40531746 0.071320765 0.45777166 0.37420744 -0.4523354 0.5415408 0.21331508 0.7094687 -0.19638285 0.016068613 -0.12606558 0.6485945 -0.104495116 0.10180581 0.20746337 -0.22973616 0.047490194 0.18052661 0.1366963 -0.5095294 -0.09295796 -0.5774941 -0.12516484 -0.58193135 0.6182158 0.2618415 0.3203383 0.49791503 -0.08004258 -0.38068178 0.19274788 -0.21880302 -0.12625207 0.008183997 0.31088138 -0.57736564 -0.76779634 0.03414767 -0.3070058 -0.50098264
11242 -0.32874545 0.4086384 0.4388478 0.3521651 -0.5589409 -0.42244604 -0.60933954 -0.44146687 0.08164705 0.053143606 0.3947063 0.32705885 0.03389722 -0.27031144 -0.42165047 0.32977626 0.092831515 -0.28173378 -0.26291034 -0.23350547 -0.13588049 -0.011254743 -0.046080433 -0.08687881 -0.18781719 -0.0077528735 0.38044292 0.55942035 0.069265895 -0.11468141 0.19538452 -0.6298397 -0.12781134 0.19915035 0.98672503 -0.19324033 -0.7601691 -0.40777296 0.09650378 -0.2619764 -0.1813496 -0.133116 -0.19613253 0.04576997 -0.063477285 -0.06753758 0.7128245 0.28899583 0.25077522 -0.33609855
29082 0.420385 -0.04569919 -0.43987447 0.3770083 -0.2956834 -0.499345 -0.20102137 -0.5423078 0.6696348 0.18795922 0.101290755 0.08804967 0.23785059 0.12476852 -0.24825728 -0.14766262 0.115891196 0.6546093 -0.480518 -0.16987555 0.25202748 0.16490656 0.033191998 -0.09131274 -0.2918319 -0.17870378 0.20940757 0.48340353 0.1630247 -0.7154445 -0.22209017 -0.30832818 -0.36460373 -0.7066695 0.29105642 -0.040889043 0.067016765 0.09942448 -0.19530284 -0.68434346 0.49930176 -0.4066886 -0.007272309 0.2016974 0.34191358 0.2125778 -0.0514802 0.08178402 0.30003324 -0.70908064
9553 -0.4861421 -0.5166858 0.5704841 0.27350104 -0.3564978 -0.3846283 -0.30600095 0.43627402 0.080626845 0.13714552 -0.2825735 0.06983294 -0.4193129 0.5023213 -0.31465986 0.64205366 -0.19174902 0.3795166 -0.27077216 -0.07864436 -0.1012062 -0.1421394 -0.40496284 -0.53889656 -0.08598289 -0.23466247 0.32901606 -0.22916342 0.043856647 0.16465169 -0.5616391 -0.5571261 -0.3205971 -0.06558038 0.14617528 -0.3266251 -0.4204432 -0.07771365 -0.5265119 0.16641413 -0.021490294 0.0094462065 0.017992297 0.32885456 0.515865 -0.06515159 -0.04406688 -0.7406049 -0.5386472 -0.6077474
15192 0.025743725 -0.31172803 0.27543077 0.45199394 -0.16341029 -0.21626301 -0.26040035 -0.18247545 -0.13989869 -0.11236894 0.42849028 0.40913302 0.13637073 -0.07333484 -0.04140213 -0.042659715 -0.071911044 -0.30876735 0.04293743 -0.5699957 0.016535597 0.3001337 -0.0148519315 -0.5890377 0.2996365 0.36135224 0.63637364 0.08706539 0.591107 0.41126585 -0.10170812 0.0034028385 -0.23672542 0.4142651 0.5127632 -0.03628559 -0.12152616 0.15742634 0.1292355 -0.19118842 0.506303 -0.02735963 -0.1725715 -0.15780057 0.7078041 -0.3010515 0.30112466 0.10971184 0.4401801 -0.34728497
12505 0.1876031 -0.2808112 -0.2505312 0.54957384 0.20610377 0.13920103 -0.28265283 -0.3095963 0.36228427 0.5381434 0.25597024 0.26950592 -0.20184392 0.05849715 -0.34666422 -0.12430581 -0.021546356 0.5847909 0.38191316 0.10431891 -0.49422184 0.476218 -0.5011133 0.031705953 0.22967288 -0.5715845 0.10671893 0.460725 -0.38665214 0.061756197 0.25759053 -0.5089138 0.3769865 -0.16287076 0.9629554 -0.81290025 0.46282926 0.2244109 -0.31071103 -0.20749682 0.55134857 -0.3611201 0.33377016 -0.5049053 0.34022072 -0.2843324 -0.19566797 -0.37900245 -0.7833637 -0.7433127
13857 0.44841605 -0.30630058 -0.062823236 0.8670283 -0.3635035 -0.12684892 0.3552322 -0.14600752 -0.18615398 -0.19211628 -0.017308358 0.56917864 0.4429912 0.26403156 0.10525165 -0.1152335 -0.31596342 -0.055821232 0.09552369 -0.1805538 -0.0110844495 0.40229347 -0.32699874 -0.55407554 0.42497185 -0.058576632 0.27022937 0.20428142 0.48278537 0.3298658 -0.25659534 -0.50489104 0.12810555 -0.48195574 0.23189288 -0.42918348 -0.21579741 0.12173585 -0.12110114 0.040815115 0.12024661 0.12213911 0.33168 -0.38739124 0.35699952 -0.15457107 -0.012926496 0.1561871 0.50683606 -0.19098035
6301 0.4250087 -0.18835437 -0.4916939 0.47130623 -0.5030465 -0.45602125 -0.30791977 -0.18416837 0.36554095 -0.3483822 -0.46602857 0.310177 0.4288822 0.26960534 -0.11581234 0.24814564 0.21515097 0.5175962 -0.78896254 -0.0600412 -0.2685665 0.47266075 -0.22784597 0.35211554 0.150367 -0.0444857 0.07523292 0.10630099 0.07428362 -0.5253534 -0.28161708 -0.4314342 -0.2149604 -0.5199907 0.5037997 -0.13240777 0.14753257 0.018817047 -0.23992498 -0.4374202 0.4349175 -0.27520654 0.16935626 0.012800219 0.20201924 0.35983256 -0.5401813 0.027584206 -0.057223737 -0.6692495
27106 -0.15655987 0.02762986 0.1677649 0.6480499 -0.72023576 -0.00030107456 -0.25779265 -0.0048015607 0.7684106 -0.15301667 0.16773644 0.076801814 -0.100640066 -0.51101243 0.06871 -0.052115764 0.16180833 -0.13530645 0.27109224 -0.45934454 -0.6473691 0.072801515 0.27755314 -0.5438142 0.31491318 0.53410465 0.47112244 0.16018952 -0.60949033 0.2693086 -0.33880293 -0.86202097 -0.41805077 0.2761124 -0.3429303 -0.7115382 -0.63439834 0.16407998 0.19649675 -0.3729737 0.21367672 0.4027571 -0.33732313 0.33568683 0.39240158 -0.1776838 -0.28389004 -0.5562745 -0.31785756 -0.35202944
21376 -0.09023378 -0.30200347 -0.068529546 0.32851312 0.07961092 -0.48975548 -0.036968026 -0.07596312 0.04259745 -0.016789692 -0.539095 0.028998248 0.2800439 0.25667033 -0.46040282 0.29522058 0.43100438 0.24126865 0.6131758 0.09316432 -0.04748535 0.60337794 -0.18378522 0.50929594 -0.37767467 -0.25254983 -0.0066811293 0.5527541 0.12020594 -0.14137678 -0.25585824 -0.58644146 0.41758996 -0.012072858 0.7616815 0.11324068 -0.14373642 0.057500888 0.08305285 -0.6005574 0.26800275 -0.4740788 -0.26287866 -0.031001823 0.2571917 0.3855106 0.039678894 -0.11262297 -0.5844045 -0.5965841
4174 0.4106364 0.27744183 -0.19629669 0.65901035 -0.011301184 -0.23954433 -0.41284922 -0.33214626 0.3635781 0.17758608 -0.49514934 0.29786056 0.61369497 0.2656087 -0.22544652 0.13292709 0.34852085 0.68828744 -0.021645537 0.05464693 -0.28372422 0.79210466 0.05462008 0.105350755 0.04545708 0.072792955 -0.0643431 0.000855871 0.3662025 -0.9527481 0.09570664 -0.23069066 0.08202044 -0.39635718 0.5660003 0.12389991 0.06802669 0.031093566 -0.082658075 -0.44876376 -0.06548914 -0.5033384 -0.06124492 -0.04534049 0.54940766 -0.18372723 -0.4468954 -0.40839544 -0.37600234 -0.53585565
22452 0.6107122 -0.663635 0.10372472 0.608877 -0.32576552 -0.53835195 0.060518496 -0.3583508 -0.17953889 0.23340389 -0.31186435 0.44940746 0.34474304 0.12349992 -0.494846 0.040106554 0.5162033 0.56179327 -0.0034462307 -0.030038306 -0.68212134 0.5147941 -0.28359196 0.16803132 0.35219768 -0.17331941 0.2848075 0.1647927 0.10471037 -0.10025556 -0.08478354 -0.014112001 0.059416454 -0.33579654 0.3176572 -0.08483206 0.08989248 -0.5492649 0.3907467 -0.34747037 0.018451817 0.059609856 0.030521933 -0.38059714 -0.024212161 0.17247361 -0.07467898 -0.1269537 0.23440382 -0.38166445
24207 0.15653676 -0.040871233 -0.10528525 0.24007893 -0.25968125 -0.19174045 0.016218944 -0.04463209 0.40961772 -0.4685667 0.10414282 0.35473648 0.046513863 0.15343663 -0.31936318 0.057008862 -0.095079094 0.03094301 0.17380017 -0.56409174 0.050785795 0.12955034 0.11168379 -0.1929143 -0.2511863 0.0645777 0.9692887 0.019586978 0.11842418 0.007230106 -0.52696836 -0.39749753 -0.2643905 -0.19306631 0.6853474 -0.00060721487 -0.28026745 0.41265434 -0.36805108 -0.3440821 0.21659255 -0.031929307 -0.24552292 0.22871745 0.34171155 -0.26485687 -0.14220834 -0.3211868 0.61013603 -0.6917507
32060 -0.037378505 -0.16215342 0.039116353 0.20329157 -0.8626732 -0.21744217 0.14481452 -0.1148012 -0.022361746 -0.16342758 -0.046697795 0.06679664 -0.08657246 -0.5161153 -0.19212031 -0.3469421 0.11374925 0.33062923 -0.724538 0.32651982 -0.5787091 0.07903743 -0.1679698 0.1978103 0.4442662 0.38438874 0.50798774 0.3483486 0.8241038 0.30186614 -0.6350153 -0.028654547 -0.2575621 -0.47901827 -0.010692538 -0.3232901 -0.09543523 0.38909605 0.015097121 -0.43787795 -0.12519906 0.4238521 -0.6148441 0.09333051 0.3115631 0.066583805 0.09221308 -0.06761898 -0.25207466 -0.1614904
33069 0.08811334 -0.22536431 0.46618745 0.26707515 -0.32564873 -0.13116361 0.6598832 -0.35449672 0.04175881 0.020087197 -0.23779137 0.09294672 -0.28884113 -0.16291751 0.065622136 0.4488405 -0.7458533 0.30644336 -0.34089917 -0.033706497 -0.50241905 -0.2755779 -0.12610154 -0.085258864 0.45444348 0.4173427 0.46309337 -0.2983178 0.24032447 0.15957308 -0.051907513 -0.62393945 -0.26275688 -0.28082025 -0.16477156 -0.07843623 -0.0972536 0.14935412 -0.11612412 -0.12656276 0.28309596 -0.032198712 -0.04451737 0.17718108 0.6565333 0.05688247 0.35421968 -0.59154826 0.24600662 -0.8997751
20193 -0.13459271 0.5682663 0.15809768 0.47194168 0.021999769 -0.2500709 -0.8501328 0.46354446 0.5397335 -0.2598769 -0.46971196 0.19375074 -0.14843862 -1.0435233 -0.37922278 0.082841225 0.028697988 -0.2340689 0.18938573 -0.41723865 0.12711848 0.24488236 -0.4835323 -0.17619596 -0.0225424 -0.312073 0.54264003 0.1368179 -0.23378523 0.44090256 0.19947347 0.16157755 -0.14764604 -0.18534268 0.3512508 0.19193025 -0.13313742 0.25308025 -0.16308096 -0.3358206 -0.41756174 -0.38767678 -0.27858654 -0.34609866 0.65458864 0.121928915 0.39897922 0.47776067 -0.1386614 -1.0586785
4793 0.0075577497 0.3739905 0.4635746 0.97482145 -0.59225243 0.04931889 -0.022654615 -0.06769498 0.15534118 -0.11088043 -0.092684746 0.05065711 0.060058516 -0.43127614 -0.29421923 0.08460266 -0.05507561 0.29989895 0.3746974 0.23780204 -0.09946695 -0.13910864 0.76523983 -0.5712243 0.6673237 -0.2173987 0.017162917 0.040205937 -0.017673343 0.5120986 -0.42864028 -0.81482875 -0.20787564 0.44984514 0.07228031 -0.56550163 -0.6805184 0.5652696 0.04608464 -0.6696529 -0.17065386 -0.16771129 0.062627584 -0.019046595 -0.0931863 0.26201168 -0.0033937325 -0.6294808 -0.016444191 0.05418516
11271 0.5458621 -0.45392042 0.049653966 0.164549 -0.81501114 -0.40758318 -0.10501181 -0.48575768 0.313253 -0.10589847 0.3908954 0.5833018 0.017295165 -0.06542353 -0.4446693 -0.12690224 0.44457895 0.17274079 -0.317237 0.2635144 0.23322017 0.13063301 0.012133622 -0.16246967 0.27444416 -0.32455114 -0.037037022 0.33773905 -0.08360996 0.3465873 -0.143957 -0.22387663 -0.95012856 -0.13509202 -0.22797242 0.17636897 -0.061513413 0.1611595 0.31599826 -0.10330372 0.11241428 0.09526257 -0.037924834 -0.15045646 1.1325974 -0.004362016 0.45908 -0.032593597 0.5473674 -0.23027787
6165 0.37084883 -0.38405165 0.20066331 0.30802006 -0.2959441 -0.21112025 0.063545465 0.28192028 -0.66420126 -0.38477877 -0.25070232 0.5025145 -0.009134013 -0.58496714 -0.32731628 -0.20388705 -0.11200905 -0.4840449 0.22229968 -0.41268206 0.09820201 -0.09513808 0.090379775 -0.067037895 0.41898724 -0.13131805 -0.008982062 0.08331791 0.29493183 0.05453183 0.25738794 -0.91327393 0.44096455 -0.0055948244 0.42845446 -0.068395525 0.23919836 0.07106953 -0.22515965 -0.23502941 0.56673723 -0.16361856 -0.3435191 0.18432705 0.6507516 -0.13581713 0.09823511 -0.07848268 0.3010337 -0.16637641
17787 1.0734389 0.18122351 0.55093694 0.554389 -0.8064391 -0.25603175 -0.379803 0.08977014 0.1070629 0.23775046 -0.36091682 -0.14482886 0.050953735 0.11560587 -0.18416749 -0.40130997 0.21691814 -0.014300633 -0.17906173 -0.60198474 0.024165394 -0.5077306 -0.088797644 0.30205566 -0.055667307 -0.04521273 -0.05774321 0.28439382 0.4002693 -0.6464317 0.54012346 -0.15900065 0.020891044 -0.023260996 -0.32996804 -0.15909413 -0.097767085 0.61441195 -0.20597634 0.081898704 0.061959572 -0.07289979 -0.081674576 0.14484689 0.173453 -0.5154626 0.36919466 -0.17314953 -0.2196999 -0.770809
28944 -0.25177062 0.31330433 -0.0914024 0.30559403 -0.16024958 -0.5470138 -0.21134852 0.026967414 0.5293452 0.8010051 -0.107711256 0.07824536 0.17272401 -0.43909198 -0.62698954 0.006099961 -0.27922437 0.25069028 -0.08774163 -0.50930876 0.45905754 0.0933747 -0.58646315 -0.58456016 0.17696556 -0.5264312 -0.0652572 0.09482733 0.24773939 0.809521 0.26046076 0.16885725 -0.18284355 -0.28286362 0.3800122 -0.10668133 0.037370067 0.35516393 0.25838578 0.54691476 0.19376849 -0.8781908 -0.16949722 -0.22013862 0.38885367 0.2363037 0.35280424 0.55692035 -0.1963716 -0.5228571
7513 -0.08913072 -0.9827164 0.1615821 0.5986435 -0.70473033 -0.1891779 0.12334539 -0.1937792 0.3162318 0.05463027 -0.07560851 0.27785042 -0.22505565 0.05201029 -0.030323226 -0.030365933 -0.100098655 -0.067196146 0.26088732 -0.25969452 -0.16771325 -0.19998077 0.23390757 0.23236339 0.16428654 0.20318979 0.416178 -0.056218095 0.031326406 0.78687215 -0.36025572 -0.003160675 0.012671171 -0.08428152 0.19231552 -0.037672564 -0.30228382 0.048959266 0.24448645 0.085967235 0.7435594 -0.42838147 -0.65040064 0.24133292 0.11810173 0.51569986 0.39133954 0.23789613 0.090532295 -0.7838531
33952 -0.229236 -0.47624782 -0.05706695 0.4920055 -0.55502695 -0.48705876 -0.0025580472 0.21574318 -0.23483157 -0.09743456 -0.35270196 -0.18773845 -0.055746995 -0.09465557 -0.20965773 -0.49252978 0.012798511 0.22709835 -0.12131962 -0.0025216506 0.37321568 -0.40681535 0.33837828 -0.018488735 0.27176738 0.18343395 0.2523435 -0.15022643 0.56467205 0.686861 -0.4589668 -0.4761579 -0.11474845 -0.036512505 0.44044095 0.111292355 -0.4805799 0.079992615 0.24981613 -0.08434414 -0.08190066 -0.031358022 -0.16696829 -0.642437 0.5407818 -0.34400865 0.10935607 0.067344695 0.26518917 -0.75119674
32718 0.7129145 -0.42767876 0.43743327 0.71400744 -0.5950637 -0.056265168 0.06551199 0.33591682 -0.09045329 0.44929022 -0.3603288 0.57919276 0.32720673 0.36822838 -0.9519876 0.058598764 0.6506029 -0.055056524 0.40966383 0.12337264 -0.40260792 0.56558836 0.093738005 0.083736494 -0.1648425 0.0032789144 0.009234988 -0.06452314 0.18877965 0.09451633 0.4449355 -0.099759236 0.73353314 -0.49597138 0.27962086 -0.23793611 -0.1535611 -0.26647052 0.051782142 -0.24667811 0.23114023 -0.3226204 -0.0139600495 -0.37166905 0.21725018 -0.34044087 -0.35482642 -0.30025506 -0.57308376 -0.5288601
9532 -0.037756596 -0.33815706 0.26238272 0.33096457 -0.35847571 -0.34677064 0.81564385 0.07900782 0.03876158 -0.10799087 0.013901608 0.30431312 -0.01706442 -0.18496753 0.026069464 -0.20907336 -0.24909475 0.21626325 -0.1780548 -0.46235535 -0.15539461 -0.31295094 0.08861498 -0.40119395 0.074014254 0.018560365 0.46830297 -0.013017449 0.5864621 0.031390294 -0.28400913 -0.5012274 0.07679754 -0.10546968 -0.024765402 0.25085086 -0.3268538 -0.12430924 0.27431175 0.01716887 -0.021968106 -0.19275549 -0.45257044 -0.17956753 0.7309961 -0.0007940391 0.06998786 -0.13541068 0.14339477 -1.0640897
7339 -0.14309093 -0.09345033 -0.32550016 0.6034929 -0.016204981 0.08079057 0.30137134 -0.5604573 -0.048443727 -0.30507383 -0.31600937 0.04231025 -0.30098656 -0.20031223 -0.2309001 0.07210102 0.46688294 -0.08065379 -0.5729895 0.08064928 0.023073101 0.20225883 0.06442211 -0.18093215 0.27963513 -0.24764867 0.9636607 0.008103896 -0.16822611 -0.00999712 0.6435431 -0.26534337 -0.46956494 -0.24988638 -0.020962395 -0.5569362 -0.6409789 0.49257252 0.0801205 -0.14249438 0.43505055 -0.39428845 -0.30056018 0.0070099593 0.19953008 -0.033641838 0.19840206 -0.45918724 0.2874218 -0.6963416
37690 0.031506464 -0.6269236 0.61956567 0.33792806 -0.6551413 -0.18639617 -0.48589277 0.16564153 0.16439967 -0.014622518 -0.27380133 0.18315387 -0.031015048 0.17898424 0.09689304 -0.7111109 -0.05431105 0.32049567 0.2640805 -0.52203685 0.14019507 -0.23010808 -0.040155392 0.118578374 0.22924249 0.4009308 0.20392863 0.1454976 0.5452526 0.13261227 -0.38750863 -0.41184783 -0.34890923 -0.6680126 -0.081579365 -0.64052 -0.2741344 0.45138842 -0.15686688 0.013938688 -0.05398983 0.18455817 -0.696799 -0.23918985 0.19121887 -0.28434527 0.18441626 0.25683063 -0.026702095 -0.08376832
35822 0.42381573 -0.03866308 0.2929471 0.4420166 -0.036041014 0.061009835 0.43509704 -0.21064961 -0.1468869 -0.2599118 -0.85418266 0.5900425 0.35568523 -0.27482587 -0.3308886 0.46452987 -0.13908531 -0.1607294 0.16180882 -0.21055135 0.06941767 0.18096237 0.16571139 -0.23485783 0.7892999 -0.032669663 0.10885221 0.088739656 0.36029616 0.11891521 -0.08052904 -1.2248985 0.15979749 0.02068489 0.19179332 0.064140916 0.016990565 0.55079764 -0.13819483 0.27496567 0.35835782 -0.15234293 -0.16890772 0.47352576 0.10689781 -0.31312552 -0.12010888 0.18879302 0.50363266 -0.4659711
8753 0.027769875 -0.9817181 0.4368307 0.3096535 -0.28546405 -0.21332704 -0.1200163 -0.0894006 -0.2537659 0.18252386 -0.53768927 0.15122065 0.6211332 0.014675778 -0.14663978 -0.114376865 0.40856922 0.50164515 0.47532392 -0.012656573 -0.6230944 0.41901046 -0.26292956 0.53634536 0.26170006 0.3979159 0.2552375 0.22397481 0.32456374 -0.10645867 -0.14922798 0.31627905 -0.066026896 -0.3567465 0.29106343 -0.6629485 0.20286557 0.321493 0.25617072 -0.4935129 0.23557141 0.015449539 -0.39817882 -0.3162791 0.21510847 -0.54061526 0.04617768 -0.24416202 0.03345258 -0.3432503
24473 -0.17379712 0.35337728 0.71192485 0.54473835 -0.007949697 -0.37544233 -0.64563215 -0.2690462 0.31097388 0.57562846 -0.10358819 -0.0043983436 0.23832954 0.3044001 -1.0690162 0.3757801 0.4534409 0.31040174 0.48349205 0.27074966 -0.5651064 -0.20991306 -0.39103228 0.40085578 0.92312515 -0.82728046 0.23051329 0.22008072 -0.1475125 0.338951 0.08091933 -0.18714662 0.32117245 0.004241743 0.15492238 -0.19928399 0.18621732 0.4459504 -0.9454458 -0.080623336 0.03135118 -0.26407725 0.15361936 -0.10732049 0.48127654 0.4031756 0.4272906 0.67792726 0.21291424 -0.9249651
5210 0.2289442 -0.012717463 -0.2438141 -0.07273455 -0.42298082 -0.4121097 -0.40576047 0.20365998 -0.09385338 0.12940024 -0.26428193 0.5569858 0.33643535 0.21879607 -0.5905211 0.68936783 0.080951326 0.7116271 -0.14446217 -0.3912546 -0.34959382 0.13528016 -0.2972739 0.46447703 0.49534672 -0.47684738 -0.06646529 0.2887416 -0.0963512 -0.14398924 0.15156016 0.27360177 -0.28046665 0.21688485 0.456527 -1.1156514 0.11132461 0.08492174 -0.19318585 -0.28378052 0.0918099 -0.27968737 -0.1975125 -0.07565443 0.7836471 0.015426967 -0.07317644 -0.21785228 -0.8134297 -0.35226953
3990 -0.08945295 -0.59577715 -0.6811981 0.6749473 -0.1490326 0.31583378 -0.5435544 -0.782377 -0.31997368 0.28961283 -0.3364699 0.10464287 0.578034 0.09283219 -0.6789636 -0.053425122 0.20055401 0.31518614 -0.38227376 0.07023078 -1.0454998 0.22186227 0.043812674 -0.045737337 -0.15711921 -0.4113823 -0.28261936 0.17395233 0.041531175 -0.65044063 -0.39752463 -0.23594834 0.2146509 -0.39402217 0.6048008 -0.22628604 -0.00429341 0.40721095 0.018202676 -0.0599442 -0.11666461 -0.3404513 -0.073731974 -0.31807008 0.48366752 -0.27066103 -0.033236194 -0.16508162 -0.43357557 -0.6681832
13708 0.4214264 -0.2762423 0.057868745 0.6506825 -0.8011739 -0.31791437 -0.3011619 0.038023535 -0.16635902 -0.5645068 0.10207194 0.3180558 -0.40336457 -0.054033194 0.015957525 -0.22975464 -0.010254719 -0.31239948 0.27753437 0.10848124 0.2626322 -0.23245488 -0.32011855 -0.0075053084 0.3800616 0.39277893 0.31444418 0.05470735 0.52972376 0.1313351 -0.29508218 -0.59930176 -0.17406477 -0.27150285 0.50407016 -0.3201043 -0.15030308 -0.13966046 -0.19622156 -0.043023277 0.8969671 -0.15745041 -0.22348206 -0.11966217 0.22245117 -0.21745244 0.7014624 0.018216653 -0.1608696 -0.007745177
37557 -0.2123155 -0.27021867 0.62651175 0.17849465 -0.5445162 -0.06774192 0.48353773 0.053693283 -0.11368188 0.08577479 -0.060891725 0.3154032 -0.25885895 -0.22004081 -0.23498876 0.08240387 -0.53390974 0.26811826 -0.14618166 0.040217478 -0.4113925 -0.33383822 -0.25508842 -0.12705432 0.24988094 0.063289605 0.3415491 -0.5989935 0.16443798 -0.20694561 -0.25462905 -0.63682306 -0.32046568 -0.3617084 -0.36683556 -0.1464728 -0.29613036 0.11508214 0.34273332 -0.2518974 0.47565916 0.13591065 -0.062099177 0.28719202 0.50726926 0.111232266 0.61417264 -0.66887194 -0.20287794 -0.7791382
15940 0.45367643 -0.815495 0.38500774 0.20019267 -0.4368848 0.10983546 -0.07600902 0.07632285 -0.1164713 -0.13588084 -0.29035762 0.371507 -0.23574978 -0.30565107 0.10187574 0.112527564 -0.073627815 -0.21578152 -0.033063117 0.42177454 -0.15740868 -0.14087822 -0.29385 0.14363833 0.41955557 -0.22493236 -0.0032741332 0.255006 0.28924665 0.14467865 -0.40544766 -0.14851743 -0.23015589 -0.4605118 0.40612006 -0.73011076 0.038537655 -0.059510235 -0.14229715 -0.41791007 -0.17628013 -0.6184469 -0.4498708 -0.35026044 -0.09789001 0.39485264 0.40829304 -0.5300486 0.2279834 -0.59567356
13838 -0.17467062 -0.15369423 -0.021803908 0.38913018 -0.14999574 -0.22434933 0.32637894 0.31850702 -0.02940616 -0.22783571 -0.42503604 0.38410687 0.053414434 -0.33484337 -0.0294756 -0.06595346 0.05521431 -0.48145804 0.21551038 -0.51423544 0.15189703 0.10385514 -0.047886588 0.15221478 -0.06518462 0.09626673 0.44773176 0.07539709 0.19514397 0.29503343 0.054405067 -1.0243005 0.22233674 -0.13688998 0.061345313 -0.2475055 -0.5018367 -0.4587399 -0.0525618 -0.53663844 0.03299714 -0.20497519 -0.068804786 0.008716717 0.64042157 0.0012226342 0.06314489 0.09702411 0.6645792 -0.878357
22606 -0.24367556 0.13662457 -0.07387699 -0.10444838 -0.507151 -0.18393567 -0.3681707 -0.27268097 -0.30504498 0.4257549 -0.96696544 0.7141959 -0.09825622 -0.55621994 0.11772259 -0.3623554 -0.058911793 0.08689692 -0.04270106 0.16212502 -0.4819818 0.19092248 0.5083368 -0.27759862 0.10071877 0.20580462 0.32380924 0.32505316 0.5497727 0.39973104 0.2883432 -0.16436765 0.4164817 -0.702858 0.37363866 0.0027175997 -0.16719851 0.06916916 -0.5065449 0.27160075 0.24912316 0.09827564 -0.38390324 -0.23062077 0.79663336 -0.019955384 0.30999112 -0.028398218 0.38328245 -0.06629708
17420 0.32126898 -0.063763864 0.32071593 0.4853587 -0.19787987 -0.048943426 -0.12247541 -0.20025043 -0.27314073 -0.06501139 -0.12005344 0.25214115 -0.3999223 -0.6651447 0.2345505 0.24991176 -0.61893576 -0.76971346 0.14517766 0.09587684 -0.1279801 -0.13652192 0.13113199 0.01845863 0.3497083 0.22908483 0.59025824 0.19008939 -0.06383488 -0.1470136 0.026255587 -0.917846 0.3382402 0.04385271 0.07231032 -0.24323826 -0.0689838 -0.20808892 -0.06569128 0.23758838 -0.022521125 -0.32020876 -0.70312315 -0.6666815 0.49047258 -0.12948295 0.0990657 -0.80697155 0.22385025 -0.70151836
4757 -0.44813028 -0.24462652 0.052303635 0.6938319 -0.33779618 0.09034112 0.023958419 0.08929121 0.15606596 -0.15856823 -0.48747566 0.6049586 -0.1884173 0.036894977 -0.2235361 -0.548151 0.14621724 -0.24733591 0.500264 0.083980925 0.1277738 -0.1867333 -0.015992189 -0.33817697 -0.17927597 0.054511834 0.7115255 0.114576094 0.48738912 0.17647679 -0.30162466 -0.659255 0.089284904 0.21194692 0.28661123 -0.018819394 -0.25086817 -0.30321264 0.076168105 -0.062489904 0.16742483 0.015575726 -0.5087326 -0.09499604 0.5800915 0.2557152 -0.42615944 0.044973046 0.33657613 -0.5914514
23818 0.0749595 -0.53956527 0.38578036 0.5404558 -0.34564307 -0.6675806 -0.2623588 -0.56762856 0.05913539 0.4191184 -0.32563072 0.31797546 0.31976682 0.61101127 -0.45517084 0.6064703 0.53276354 0.120835185 -0.01528261 -0.4387434 -0.32790914 0.32663774 -0.19878913 0.64010626 0.14115082 0.1718012 0.054535348 -0.039993577 -0.10462586 -0.29666445 0.08852935 0.17172427 -0.23820587 0.17345862 0.6536118 -0.4087741 0.26016644 0.19852962 -0.32703075 0.30218634 0.080232926 -0.6421072 0.30759862 -0.48640183 0.19160385 0.6563716 0.3158951 -0.18591549 -0.11959016 -0.5004564
22130 -0.11019321 0.76182896 -0.23573083 0.48160017 -0.25513273 -0.76111573 -0.9022543 -0.29176506 -0.4077037 0.575519 -0.7558268 0.33511665 0.024036894 -0.0063239126 -0.40555966 0.7312637 0.04387935 -0.08940503 0.7121718 -0.655197 0.46386877 0.2282196 -0.34191844 -0.0019837313 0.32087398 -0.4201784 -0.3431675 -0.17166832 0.02333606 0.6052755 -0.24511184 0.15478276 0.06419434 0.019826714 0.3008689 -0.7282605 0.23568605 -0.02465046 0.13873014 -0.09571008 0.27336502 -0.42049143 -0.117923126 0.20207897 0.24976882 0.07807346 0.43381196 -0.030668717 0.017698726 -0.2326402
30969 -0.06510213 -0.2063103 0.51339895 0.14294635 -0.48084438 -0.35141587 0.5996579 -0.29310578 0.039240893 0.19147305 -0.39828768 -0.11865484 -0.15853855 -0.1812064 -0.06127776 0.36148098 -0.5574237 0.39514363 -0.045917057 -0.2131924 -0.42461225 -0.48432133 -0.1274556 -0.198252 0.32420495 0.22979495 0.36788407 -0.71204823 0.16963993 0.112301156 -0.24194033 -0.43698454 0.10163463 -0.06940813 -0.2848768 -0.24904513 -0.47664246 0.21081825 0.25326848 -0.08888658 0.65034634 0.047159243 -0.07656999 0.22473644 0.74945027 0.08464223 0.5084841 -0.51945317 0.051083963 -0.7952295
24347 0.161568 -0.5762896 0.24291809 0.29671562 0.16236638 -0.3963951 -0.6352285 -0.2599034 -0.033115197 -0.394431 -0.40785447 -0.009892229 -0.034565445 0.2650516 -0.43456754 0.15822528 0.24781305 0.7294018 0.012808279 0.19758381 -0.36649162 -0.22088793 -1.0122895 -0.5197966 0.13257255 -0.3581155 0.57163674 0.10060808 0.4746482 -0.16796136 0.21980695 -0.5551689 0.118635274 -0.10115061 0.4311158 -0.6882474 0.14070855 0.16467701 -0.103583105 -0.23603387 0.3111042 -0.39772657 -0.09974561 0.039925806 0.32764325 -0.17698814 0.20324163 -0.060877208 -0.55003995 0.47214133
4539 -0.13681355 -0.28617913 0.47762442 0.10258833 -0.446231 -0.13469645 0.5293529 -0.12845165 0.18203531 0.09471185 -0.18039446 -0.02880763 -0.34118134 -0.37827605 -0.27300972 0.13723582 -0.5964597 0.44623297 -0.29059732 0.08580278 -0.58665 -0.11280031 -0.12159118 -0.07362313 0.33096087 0.27754846 0.23398344 -0.58670986 0.18244533 0.045074962 -0.25967035 -0.38427696 -0.18526414 -0.10433283 -0.4427792 -0.026063573 -0.240639 0.050497465 0.13093954 -0.17714036 0.6351278 -0.047281075 -0.061496142 0.23836339 0.91510653 0.15259513 0.59234446 -0.53474194 0.2476806 -0.97576094
29552 0.8437666 0.1700547 -0.02768615 0.084690094 -0.705473 0.035973486 -0.8717768 -0.39835262 0.27148405 0.45823306 0.025164466 0.4470758 0.4333449 -0.42793024 -0.6767402 -0.5106993 -0.19663808 0.5473287 -0.3523483 -0.52570915 0.14935623 -0.4569561 -0.32482415 -0.72541064 0.011570261 0.44436866 0.20423432 -0.0594811 0.1756076 0.21261968 -0.33759066 -0.11828598 -0.60621864 -0.03183905 0.3373243 -0.8951603 -0.50220484 0.6644775 0.20587033 0.20146157 -0.4485702 -0.21690385 -0.38858858 -0.099672385 -0.0033705537 0.19024462 -0.0090187695 -0.46351263 0.36797675 -0.29746562
28419 -0.6073406 -0.20791198 0.067505665 0.38745847 -1.1151645 -0.39527926 0.1688955 0.061203513 -0.0076496135 0.38882428 -0.5870018 -0.19693777 0.02337632 -0.40210515 0.4134502 0.28012294 -0.4244328 0.34418997 -0.2405129 0.020125495 -0.4994338 -0.29932123 -0.35348412 -0.23459455 0.3408521 -0.061931264 0.15992133 -0.25950393 0.17269173 -0.10809176 0.027993057 -0.34654868 0.2763836 0.21375911 -0.9653428 -0.78860337 -0.6721887 -0.084890254 -0.41061825 -0.14335686 0.38136944 -0.23853761 -0.1813235 0.22599576 0.58118033 -0.097764775 0.08620811 -0.14616707 -0.14054225 -0.60388947
29715 0.7317248 0.5527225 -0.126771 0.49683458 -0.48154554 -0.061698765 0.008974883 -0.33615816 -0.42322928 -0.22913532 -0.4112323 0.60306716 -0.2701009 -0.19813386 -0.38434228 0.35849777 -0.13489085 -0.3580231 -0.29605615 -0.4797017 0.32210997 0.10377573 0.1851165 -0.24953069 0.9401685 -0.3532214 0.506458 -0.15673701 0.011115542 0.23150712 0.09538027 -0.758905 -0.123355694 0.16284546 0.442906 -0.06620953 0.22340897 0.41980475 -0.079250135 0.13528892 0.37220657 -0.22564425 0.08268559 0.16929898 0.17122099 0.290724 -0.20676543 -0.21396221 0.24152477 -0.5007695
33206 -0.25923586 -0.1157225 0.19030535 0.28294754 -0.08484234 -0.28995395 0.19528274 -0.24231018 -0.11223645 -0.3879371 -0.08392944 -0.13683392 0.12285505 0.0854908 -0.13511582 0.011485161 -0.40991133 -0.04657458 -0.10559798 -0.3453795 -0.043911234 -0.14983208 0.5610307 0.29565114 0.44733852 -0.3632018 0.5000694 0.1374388 -0.11826927 0.42155764 -0.26397252 -0.686404 -0.102973126 -0.011263899 0.64142185 -0.096184194 -0.69001544 0.27198276 0.46365088 -0.46498477 0.187757 -0.15048845 -0.72557026 -0.037812464 0.6030061 -0.09962742 0.11886318 -1.098812 0.4272166 -0.44276196
27173 -0.31343457 -0.41571012 -0.08837139 0.964139 -0.16745618 -0.17142734 0.08485613 -0.22101456 -0.012949682 -0.17913345 0.14540446 0.1641522 0.37206623 0.16039452 -0.21670467 -0.12197074 -0.69842815 0.29489046 -0.009584516 -0.8045909 -0.23357697 -0.20548812 -0.15094511 -0.17461601 -0.023466898 0.032995246 -0.55610263 0.32225472 0.19884439 0.040724836 -0.15818213 -0.47023574 -0.31785285 0.062265817 0.7060994 0.1394758 -0.26736227 -0.058543466 0.6143993 -0.79015386 0.27097178 -0.19665416 -0.24863532 0.3191898 0.8735454 0.027963806 -0.20557663 0.36527818 -0.2718219 -0.43507296
36788 0.20103987 -0.46335244 0.2478507 0.8736864 -0.25313064 -0.16546614 0.45587808 -0.57340485 -0.6362995 0.30540016 -0.2949225 0.57123077 0.6592316 0.15744355 -0.42170966 0.16055854 -0.22232462 0.036010973 0.29758537 0.08560995 -0.7921305 0.14380361 -0.143723 0.083048165 0.57790726 -0.44401848 -0.39514545 0.5224478 0.5277951 0.18775368 -0.120574236 -0.2738418 0.12289056 -0.429366 0.2682176 -0.28188902 0.113425694 -0.17776284 0.42000353 -0.31429428 -0.24898271 -0.44416532 -0.2254513 -0.47426006 0.41738135 -0.12358208 -0.72538835 0.2419971 -0.18533818 -0.4006214
1526 -0.43770692 0.24147433 0.58669215 0.7245953 -0.93429136 -0.41455555 -0.24202521 -0.31206045 0.5662649 0.17660926 -0.12171332 0.46123946 -0.15376653 -0.4142871 0.29175496 -0.4752628 -0.45509955 0.5869457 -0.07344036 0.11662017 0.21742727 0.19396187 -0.15604924 -0.3281587 0.4879876 -0.1496966 0.16088027 0.42475086 0.150827 0.01197381 0.10832816 -0.9986366 0.33908984 0.52032375 -0.79718953 -0.9441998 0.08782494 0.19475456 -0.16099116 -0.13227032 -0.3686136 -0.48600638 -0.37138164 -0.01745795 0.32471058 -0.0026099803 -0.13788317 -0.22250454 -0.055103775 -0.16804723
11588 -0.052572902 -0.2645136 0.72894067 0.59235597 -0.81937575 -0.16086687 0.20776339 0.03158016 0.17574918 0.3774194 -0.33205596 0.7037117 -0.22059631 -0.13568601 -0.18741085 0.23372638 -0.52964574 0.2036226 -0.37166798 -0.28531143 -0.2033832 -0.15555055 0.11015479 -0.316543 -0.25319934 -0.015323106 0.19455744 -0.0049377917 0.0071432404 0.27150282 -0.23615341 0.20272541 0.07499674 0.18248259 -0.11155696 -0.028271494 -0.8180349 -0.57652646 0.1333524 0.085092016 0.4612474 -0.42157695 -0.33605278 0.49033648 0.54982674 -0.5576075 0.39328524 -0.6026533 0.13796185 -0.8895255
15115 0.110992044 -0.2881217 -0.2918922 0.25890216 0.08489346 -0.5395238 -0.22715016 0.6111123 0.429192 0.35036096 -0.48513407 0.3895426 0.7914936 -0.22690764 -0.31889823 0.8441606 0.26807654 0.42572075 0.19824551 -0.3275347 -0.5688325 -0.13563 -0.493194 0.19214423 0.12985022 -0.801338 -0.20717275 0.44103268 0.20237458 0.089133315 -0.104732975 -0.57246256 0.1204014 0.1941111 0.74024826 -0.14990397 0.051368922 -0.13106588 -0.12370296 0.25488454 0.05835661 -0.17140271 -0.18790196 -0.14287572 0.09946379 -0.34332535 -0.5239082 -0.3631411 -0.6393719 -1.1121451
18825 -0.2187912 -0.6265552 0.31494275 0.41047633 -0.38406688 -0.31051093 -0.29201144 0.39419645 0.10665836 0.22617848 -0.52193636 0.32646936 -0.08794204 -0.05289045 -0.68387306 0.16122356 0.14170791 0.1922136 -0.7277844 -0.36162576 -0.02050331 -0.095104545 0.14644678 0.25220305 0.17737497 -0.16034251 -0.055472307 -0.06929285 0.37754968 -0.51880985 0.4244681 -0.017819354 -0.29695868 -0.41306746 0.6037396 -0.6910097 -0.4171981 0.3503102 -0.45287716 0.41992226 0.06619787 -0.20373994 -0.7373888 0.035014406 0.63227844 0.14496335 -0.18316734 0.277769 -0.11592072 -0.018244201
19153 -0.298234 -0.12732 0.74456173 0.14886093 -0.36326742 -0.25571868 0.23861966 0.027200291 -0.2951944 -0.23481695 -0.4362895 0.15716667 0.022319427 -0.25464848 -0.08940495 0.12262976 0.11667454 0.5885655 -0.4011459 -0.14535166 -0.3692692 -0.38943493 -0.013129788 -0.17412704 0.4335587 -0.23451398 0.27884865 -0.30577332 0.30417567 0.3905954 -0.3656499 -0.3161186 -0.13065584 0.113998555 -0.019843653 -0.030319788 -0.6018918 0.15649343 0.09010472 -0.26609972 0.031672884 -0.27471638 -0.26094875 0.26276585 0.31469408 -0.23820518 0.6294069 -0.80805427 0.36209425 -0.37675628
33471 0.16369787 -0.16703203 -0.36752063 0.95459193 0.1170198 -0.36563477 0.23197712 -0.29720062 0.041546203 -0.110252954 0.054064564 0.318514 -0.3638694 -0.3030276 -0.48339128 0.10784435 0.08792366 -0.12594698 0.4287306 -0.3006219 0.35295698 0.36011654 0.2388345 -0.20199431 -0.31833303 -0.0033334326 0.33982038 0.23757619 0.209904 0.34213543 -0.53331673 -0.7497754 0.43747517 -0.05292529 -0.11961871 0.2349999 -0.3517192 0.12232583 0.01953335 0.044205263 -0.007806917 0.27473733 -0.45772183 -0.48890474 0.8655028 0.11589699 0.199295 -0.34749687 0.3909397 -0.33198684
25166 0.34883693 0.13739525 -0.09513248 0.9609186 -1.2639108 0.21168292 -0.15547301 0.088007614 0.25377604 0.4064925 -0.6984832 0.20669354 0.3947452 0.444654 -0.18050046 -0.10997549 -0.066768855 -0.24088347 0.085406855 0.38588947 0.108783886 -0.11805822 0.2102312 -0.03865798 -0.5160631 -0.17082757 0.50491613 -0.017182114 -0.40873632 -0.23551412 -0.0609418 0.31346273 -0.21903533 -0.33059427 0.060956534 -0.18068577 -0.25519988 0.46973914 -0.4241075 -0.45899397 0.10580823 -0.4303362 -0.2971811 0.1624012 0.211335 -0.6893301 0.082809374 -0.18236345 0.21446311 -0.7565163
18035 0.12270705 0.48669237 0.28833333 0.084480196 -0.027208991 -0.7138252 -0.7902662 0.25360426 0.6821523 0.20457189 -0.36321402 0.388411 -0.19594486 -0.63625604 -0.46133 0.36008117 0.051994506 -0.112924375 0.17818275 -0.09632757 0.11527738 -0.43660316 -0.25768572 -0.08687307 0.6598272 -0.32048747 -0.041870404 0.14170848 0.69518256 0.019103175 -0.33452046 -0.24858256 0.18306221 -0.38626045 0.36927086 -0.049127657 -0.22630562 0.5336025 -0.2579028 0.46660176 0.5297044 0.24344298 -0.026970726 -0.66377735 0.42750728 -0.10883472 0.7937152 0.9185606 -0.30545327 -0.43986154
2397 -0.094907336 -0.05431715 0.38022137 -0.23871472 -1.0474261 -0.10349085 -0.34035194 -0.015954612 -0.35558093 0.086378686 0.14163749 0.88704437 -0.28155518 -0.28221172 -0.40646917 -0.3844313 -0.23698476 -0.09413286 -0.011929128 -0.020815613 0.15392604 -0.34026176 0.14742285 0.27424774 0.38118458 -0.58361614 0.24525796 0.077367246 0.4304452 0.5644049 -0.42693567 0.06275823 -0.22059643 -0.54209507 -0.11342973 -0.31357136 -0.61216205 -0.08121834 0.20289768 -0.050029244 0.6486032 -0.19423272 -0.009709063 0.059933197 0.48234802 0.038556445 0.2738648 -0.60436064 0.31115797 -0.29854003
19645 0.3783833 -0.07428363 -0.013999275 0.48368657 0.13681947 -0.80594295 -0.56961864 -0.31751695 -0.18597136 0.14877886 -0.15391627 0.4866501 -0.020312171 0.3343869 -0.329868 0.23669182 -0.46199235 -0.038058456 -0.23921406 0.0152473105 -0.7747327 0.6629404 -0.6077001 0.15611583 0.23000805 -0.6540711 0.51029557 0.17533435 0.2589505 -0.5812185 0.1870702 -0.4941194 -0.07380582 0.47833332 0.52256453 -0.8011735 0.15810505 0.029607812 0.11198371 0.24460135 0.40469265 0.07919036 -0.46489164 -0.38556215 0.46498483 0.25316504 0.16850445 -0.30395538 -0.68963635 0.13770534
2442 0.30641246 0.60221815 0.17080313 0.62092334 0.14762488 -0.5774075 -0.58531666 -0.45098975 0.39333466 -0.18010756 -0.21685347 0.3450528 0.49774653 0.074321 -0.08337015 0.42366612 0.87396836 -0.3201602 0.30438173 -0.0023694895 -0.42212847 0.46389586 -0.63932514 -0.17774054 0.0013693642 -0.47047782 -0.16752815 -0.29275605 -0.008168393 0.49448115 -0.100491054 -0.1337069 -0.3710725 -0.3955024 0.29808974 -0.33633813 0.18496686 0.12754528 -0.065463506 0.5015408 -0.07960949 -0.39130905 -0.4949753 0.38499194 0.43385068 0.061972693 0.69313896 0.10662176 -0.30115163 -0.61065143
19675 -0.31880936 -0.32861984 0.7914615 0.26476672 -0.661693 -0.06665258 0.16830032 0.8455288 0.07251954 0.36079398 -0.1251685 0.0026304382 0.027526971 -0.6020001 -0.48129869 0.5111399 -0.50553584 0.11165599 -0.74458265 0.0008832407 -0.100586966 0.18240745 -0.3959681 -0.3627371 0.070565365 -0.10873748 -0.18202329 -0.21402176 0.42807204 -0.030446144 -0.2482275 -0.4620843 -0.5609038 -0.3720771 0.35631183 -0.22081831 -0.5929282 0.6858226 -0.06484895 0.29480773 0.23353407 0.0104204025 -0.00049285963 -0.06306485 0.11599553 0.19124754 0.2572593 0.010586599 -0.36809006 -0.6125583
28852 -0.063956134 -0.17001526 0.2360847 0.0792003 -0.6744846 -0.3125037 0.6113742 0.108128354 0.206551 -0.016818402 -0.5018099 -0.037115082 -0.25873515 -0.3772655 -0.39723742 0.255233 -0.2556178 0.31897363 -0.17056055 -0.21316575 -0.39443672 -0.37055755 -0.107763834 -0.37968883 0.121189825 0.07412957 0.3254136 -0.7710036 -0.04368833 0.21150905 -0.48772225 -0.28423575 -0.041664768 0.11505407 -0.43899184 -0.18195072 -0.26027545 -0.14211316 0.518578 0.0048872023 0.604082 -0.34862792 -0.45469424 0.09052245 0.70274425 -0.24541156 0.5262915 -0.5213476 -0.09363602 -0.6686692
14352 -0.06558548 0.7206337 0.6914061 0.67529243 -0.44660777 -0.39229828 -0.57796925 -0.4096493 -0.00077232067 0.74476194 -0.3041783 0.028217917 0.5265325 -0.17037898 -0.90591455 0.03886164 0.36883497 0.015526117 0.61023265 -0.45685497 -0.16031076 0.08403305 -0.6271882 0.13484065 0.5804233 -0.27209744 0.69463354 -0.5155238 0.06887278 0.34961107 0.26631168 -0.34397128 0.1315305 -0.075617336 0.35189423 0.28714785 0.307701 0.2849349 -1.0167742 -0.29018673 -0.51707923 -0.2786902 0.07287712 -0.2843668 0.10741793 0.27447057 0.21993384 0.5688707 0.0009638027 -0.5828263
6790 -0.37478387 -0.40349793 -0.49261522 0.5792649 -0.26423392 -0.13912627 -0.47494197 -0.70094585 -0.2395762 0.13578011 -0.14110573 0.11184894 0.49725673 0.20720975 -0.6310641 0.22881185 0.1595118 0.49746957 -0.1612003 -0.03442397 -0.98405915 0.09318219 0.1846624 -0.24039273 -0.46111143 -0.57616854 -0.109198675 0.31833032 0.07192932 -0.37936333 -0.45897 -0.30193594 0.79265064 -0.4395335 0.8528571 -0.3120423 -0.21378942 0.26214516 0.17092207 0.019327357 -0.3171761 -0.64096063 -0.11725407 0.021893447 0.24730496 0.08400762 0.0029621318 -0.23803572 -0.4172354 -0.7499181
26963 -0.420839 0.51213 0.4105497 0.6747485 -0.23975845 -0.36714455 -0.38912368 -0.35530677 -0.2968374 0.34441423 -0.16895616 -0.053467028 -0.38262606 -0.59742105 -0.6630951 0.8213306 -0.19199754 0.3511254 0.08010265 -0.97756696 0.38322625 0.29606384 -0.18784207 -0.6389476 0.63256353 0.085602686 -0.49940595 0.5542629 -0.14989962 -0.017261751 -0.08135965 0.10982629 0.10638533 -0.06863565 0.19581442 -0.29147276 -0.29089573 0.0029783132 0.2683107 -0.32138175 0.050305266 0.1805042 -0.55817807 -0.01835537 0.67002726 0.05232486 0.40969363 0.24318185 -0.05939501 -0.20623326
26734 0.2033651 -0.16191573 0.18131837 0.11633893 -0.6460374 0.030113569 0.2280492 0.06144695 0.07659074 0.38973305 -0.056535758 0.30342212 -0.05632634 -0.85029906 -0.08510651 -0.29003635 0.04101743 -0.31812814 0.5055301 -0.4333469 0.48968863 -0.62729704 -0.08514821 0.081152454 0.5916957 0.52171445 -0.08240785 0.31871212 0.29371405 -0.17075275 0.40952528 -0.80033344 -0.010024571 -0.5978015 -0.11810557 0.35703754 -0.17188366 0.31638637 -0.3619391 -0.10288759 0.26406497 -0.47081062 -0.90930426 -0.43812972 0.34155342 -0.30830678 0.048951637 -0.4684793 -0.61516976 -0.5111756
30956 0.04264614 0.04472448 0.10043972 0.5530483 -0.48669901 0.24391082 0.29107264 -0.13654377 -0.043466248 -0.017389 -0.10033755 0.2663747 -0.21373966 -0.2549058 -0.46723205 -0.41170126 0.3357976 -0.30309004 0.048462823 -0.4585175 0.12324531 0.11371575 0.04504532 0.034363553 -0.36380994 0.27327234 0.2179339 -0.16241415 0.6486064 -0.15964116 -0.05309545 -0.84205174 0.37381208 -0.058193546 0.533498 -0.08730686 -0.6850656 -0.027515113 0.2764917 -0.17687373 -0.34883922 0.19233741 -0.2910075 -0.6475392 0.54952484 -0.32672828 0.0023715368 -0.45382378 0.3502047 -0.54313403
14831 0.7445025 -0.40689135 0.056531787 0.43978724 -0.26822516 -0.54706866 -0.5383323 -0.012152883 -0.0015499874 0.0015938067 -0.20001718 0.31881824 0.4345854 0.3519107 0.043982796 0.023351077 0.40106007 -0.051090147 -0.398972 0.048777755 -0.47606707 0.1593572 -0.7036362 0.48650783 0.73986566 -0.35088968 -0.079959475 -0.029627709 0.118003495 -0.36124125 0.4621815 -0.191446 0.41317192 0.067015916 0.18491808 -0.28048575 -0.111417525 -0.1851182 0.21419927 -0.26300472 0.01823029 -0.7383829 0.050413396 0.028946234 0.7245916 0.7462276 0.41934228 -0.4456151 -0.5145517 -0.15932822
17649 0.025755497 -0.09182392 -0.09225687 0.35945228 -0.32906327 -0.13920972 -0.67629224 -0.18410122 -0.0063717016 0.07717168 -0.25862786 0.70799744 0.55571914 -0.21704505 -0.6007423 -0.17625234 0.5654666 0.022591785 -0.63903916 0.5866374 -0.13129935 -0.119268164 -0.176298 -0.47996962 0.42416668 -0.09775478 -0.2819496 0.9742522 -0.3077607 -0.6475206 -0.5625545 -0.48177 0.23359127 0.4269765 0.034053307 0.3449001 -0.20531096 0.1254651 0.23349646 -0.092146724 -0.42748788 -0.4951354 -0.12850524 0.09134997 0.7927968 0.1963996 -0.082185045 -0.14557365 0.10643929 -0.28618518
27933 0.12063937 0.43187702 0.6201447 0.43083858 -0.0386747 -0.20957644 -0.72339725 -0.5183049 0.48558652 0.12317207 -0.57064885 0.12017432 0.7322708 -0.3697745 -0.72309774 0.50148505 0.010183696 0.17155635 0.50892174 -0.115638904 -0.45439482 0.17273393 -0.35886872 -0.127262 0.31513742 -0.057074532 -0.1256613 -0.6855924 0.15047385 0.008799847 0.44617322 -0.019821363 -0.3858941 -0.4827918 0.5958484 0.026842885 -0.20805638 0.03043164 -0.4898341 0.34260246 -0.6860565 -0.4724553 -0.12532619 -0.55665356 -0.19691394 -0.17407486 0.7670769 0.14240097 0.062360626 -0.9624012
10154 0.14674151 -0.6284474 0.4071498 0.20434736 -0.40606955 -0.3373867 -0.13108362 -0.5937894 -0.19276257 0.18036433 -0.24960212 0.04618312 0.14293267 0.67605597 -0.10195423 0.27912268 0.12238915 0.12248065 0.15922943 -0.26725325 -0.56217307 0.57565075 -0.12574165 -0.20562169 0.15757737 0.45190847 0.11421571 -0.029246982 -0.105374314 0.123475134 -0.12225159 0.26273224 -0.21869105 -0.56505626 0.5836544 -0.4478194 -0.03570993 -0.20590626 0.3947913 -0.29582557 0.29072613 0.21722952 -0.19999948 -0.19207497 0.4396539 0.30670625 -0.28553796 -0.26995793 -0.21072249 -0.9353439
24499 0.1719985 -0.5895379 0.07380354 0.2664371 -0.42088878 0.11006449 0.1719514 -0.099391356 0.020196492 0.1626938 -0.06370094 0.031293605 0.34184453 0.11726924 -0.25678214 -0.10966008 0.10110223 0.19501391 -0.4936238 0.36197597 -0.51951706 0.5517409 -0.5047137 0.4286933 0.8112471 0.5199273 -0.18355046 0.42894042 0.32791644 0.1365925 -0.077675164 -0.17618103 0.08684736 -0.4537714 0.9566034 -0.46653944 0.14314105 0.23586409 -0.10835539 -0.59756434 -0.21652883 -0.038438365 -0.20419261 0.038224228 0.18981633 0.105671436 0.3166259 -0.34436637 -0.093794286 -0.5467955
18151 0.12738653 -0.3278888 0.42710108 0.22505526 0.107963316 -0.39054954 -0.5478345 0.10954179 -0.22434829 -0.10497046 -0.3193049 0.3847172 0.33244655 0.5856841 -0.5095567 0.7777017 0.07900926 0.39696544 -0.27299482 -0.051319093 -0.22445963 0.48359266 -0.5407373 -0.066632874 0.10669764 -0.36555937 0.42364085 0.08808036 -0.16550148 0.09923327 0.39225486 -0.29109985 -0.65515953 0.04198805 0.33887464 -0.7870317 0.31419405 0.25835967 -0.38772145 -0.2130289 -0.02916444 -0.2889893 -0.234798 -0.46445516 0.695239 -0.2216427 -0.08691253 -0.7760438 -0.4116653 -0.09893518
910 0.0202258 0.35827196 -0.11782792 0.18556508 -0.48171657 0.032652646 -0.71956897 -0.28114825 0.037517156 1.0789425 -0.13999787 -0.64042425 -0.07528695 -0.61254805 0.13029431 0.1377147 0.011315101 0.5358415 -0.34208992 0.3168221 -0.5559215 -0.09558675 -0.46228492 -0.34900045 -0.07264159 -0.042151056 0.5351843 0.003939678 0.4683056 0.09639058 -0.49226087 -0.080748886 -0.090592615 0.043845497 0.8390322 0.009645624 -0.79170704 0.11170343 0.18648863 0.46504006 0.38941395 -0.75920725 0.5917007 -0.7401701 0.8049766 0.0074227825 0.2865026 -0.61785096 -0.6534304 -0.18967666
10402 0.51659906 -0.24097063 -0.13730499 0.48255283 -0.10312208 -0.2480429 -0.3177476 -0.505679 0.14159723 -0.4451473 0.16918133 0.37808236 -0.22765711 0.15790123 -0.46195513 0.5881347 0.36335117 -0.16205749 0.11993622 0.018190209 -0.088135734 0.072432645 -0.38341817 -0.014679687 0.38188362 0.08451281 0.19014224 0.21063675 0.3272517 0.35269302 -0.35595915 0.001599157 -0.27394146 0.061118767 0.38286003 0.097456925 -0.64014536 -0.11252467 0.08107551 0.22010297 0.75234646 -0.39161494 -0.30151257 0.0048687113 0.49215263 0.3630715 0.6656905 0.32054937 -0.54932487 -0.29528898
29439 -0.39316806 0.10268021 0.42853832 0.65028965 -0.9933227 -0.4654706 -0.21491021 -0.2330575 0.5439922 0.13007762 -0.14066736 0.52946854 -0.12643106 -0.32643947 0.23676264 -0.49566737 -0.500444 0.51423645 -0.008866831 -0.018317066 0.2670989 0.28931704 -0.09776696 -0.30308312 0.48380077 -0.105886206 0.28930214 0.45519534 0.22066258 -0.15791309 0.102510706 -0.94119674 0.29463357 0.69123584 -0.82736945 -0.87757427 -0.124646865 0.22888967 0.037641745 -0.11691904 -0.38163662 -0.4508305 -0.40971473 0.2489747 0.30127177 -0.12294128 -0.039257046 -0.22481927 -0.16579786 -0.16890807
5362 -0.35813496 0.009973924 0.0668954 0.47919875 -0.5636956 -0.20640251 -0.38847843 0.21359523 -0.067242116 -0.31727862 -0.104468934 0.48364148 0.49352235 0.30649695 0.39337346 -0.20441858 -0.22916421 -0.41054833 -0.2520369 -0.47914457 -0.35609543 -0.060642842 0.07122906 -0.3442863 0.6592303 -0.1971854 1.0571728 0.1957227 0.23793302 -0.29477257 -0.48983476 -0.2056733 0.17011966 -0.5230658 0.5131344 0.3898149 -0.01763296 -0.18984532 0.085490376 -0.1995297 0.49282455 -0.20112436 -0.57061476 -0.3023808 0.28872752 -0.5087625 0.05567137 -0.44204995 0.12858337 -0.18134357
29283 0.6219264 0.23277958 -0.41916257 0.5669526 -0.60674906 -0.38498318 -0.030377047 -0.42547688 0.013111255 0.27427703 -0.46387133 0.30466193 0.23829623 -0.11823048 0.098847985 0.5061049 0.13404694 0.16367988 -0.3824403 -0.3175962 0.15166661 0.14924152 0.05553827 -0.17624657 0.33547238 -0.73648316 0.54389435 0.11317339 0.37185028 -0.477191 -0.31505716 -0.9695948 -0.29793242 -0.25823045 0.887754 0.25096086 0.36804578 0.27117896 -0.36415333 -0.15841003 0.7166437 -0.18226705 -0.29190412 0.5705447 -0.14949805 0.021785576 -0.6961982 -0.19983634 0.43078732 -0.5792761
36148 0.52883476 -0.09395483 -0.1421619 0.2368924 -0.26936677 -0.028283488 -0.27601045 -0.28230336 0.8706098 -0.24423285 -0.24310037 0.18680598 -0.3639964 -0.061367482 -0.18158641 -0.21305701 0.05135665 -0.08483712 -0.25629908 -0.6819718 -0.023103382 0.015341342 -0.11970723 0.16100773 -0.1622018 0.48785412 0.09079335 -0.25646588 1.1563163 0.09992392 -0.005022003 -0.44970918 0.14972547 -0.0071881874 0.26492402 0.19127694 -0.6988827 0.057775356 -0.04111658 0.09484948 0.20235758 0.20563503 -0.2655518 -0.39607537 0.7689442 0.07268509 -0.2605104 -0.08497651 0.15747708 -0.7499848
9049 0.09556472 0.042853206 0.27258015 0.6318544 -0.63355505 -0.13427144 0.06193177 0.09108477 -0.562493 -0.24139921 -0.39746162 0.36057633 -0.029741127 0.14915575 0.07993857 -0.23799422 -0.5839584 0.4630772 -0.16140541 -0.51700103 -0.042423815 -0.6712311 0.011678249 -0.49122325 0.58764464 -0.3674461 0.06740696 -0.10160896 0.21190517 0.01672597 -0.50629747 -0.15820915 -0.42749128 -0.3396874 -0.27969918 -0.20814462 -0.6593481 -0.07944418 0.15271947 -0.06987415 0.3020627 -0.03417102 0.08185499 -0.16791736 0.09025263 0.20271194 0.4108889 -0.4537425 -0.31177133 -0.7554153
1030 0.21468933 -0.41377762 -0.57143074 0.5400401 -0.011032349 -0.5933728 -0.4492767 -0.499813 0.085503645 -0.1937301 -0.45515445 0.24608947 0.64678216 0.18942843 -1.0505953 0.0069998065 0.19512181 0.1936654 -0.2577092 -0.028641114 -0.24259883 0.11603753 -0.027050152 0.11028331 -0.45014906 -0.608547 0.08366327 0.17082462 0.058383767 -0.56409824 -0.43838033 -0.26631808 0.66099316 -0.069440596 0.5870824 -0.5296904 0.31492308 0.40361506 -0.16221581 0.011672016 -0.5922566 -0.08114662 -0.027969575 -0.03738575 0.46635753 0.30447504 -0.407243 -0.3661724 -0.27341768 -0.8394318
7598 0.593832 -0.8981559 -0.025730519 0.69197035 -0.51822436 -0.56996465 -0.66435575 -0.24880682 0.34506533 0.5986214 -0.0019319607 0.43254548 0.69295895 0.41577807 -0.2463973 0.0793144 0.12990478 0.2641215 0.75168306 -0.06763883 -0.30770102 -0.11326914 -0.079732895 0.5199641 -0.07777223 -0.40612176 -0.2405702 -0.23500851 0.33561134 -0.41591862 -0.23814209 -0.0100634815 -0.040370353 -0.045438565 0.7050488 -0.5106829 0.41094783 -0.4145156 -0.17452112 -0.06617311 0.24623784 -0.6395532 0.18552956 -0.026128368 0.4347627 -0.15649763 -0.09887764 -0.30128035 0.11274409 -0.40655893
2556 -0.2525466 -0.36652565 -0.16794671 0.3288477 0.11774442 -0.3289863 0.56000346 0.043953963 -0.5631545 0.049278207 -0.24196531 0.38616475 0.16587155 -0.28587076 -0.48335764 -0.5564795 0.07357807 -0.2568292 -0.08232661 -0.3228794 0.20167637 0.079224594 -0.1437289 -0.15236354 0.021059686 0.30365637 0.7178202 0.35347548 0.14720282 0.31207314 -0.48761746 -0.3957479 -0.25683957 -0.12042226 -0.289525 -0.16120048 -0.33381516 0.20915465 0.15814976 -0.6827117 0.12731211 -0.16038786 0.04672719 -0.66085505 0.6931177 -0.4204788 -0.0181927 0.20607816 0.17507511 -0.88909733
1464 -0.14937909 -0.38301116 0.33688962 0.25771576 0.054524407 0.08537296 -0.18305165 -0.3481434 -0.24504499 -0.32601556 -0.5654974 0.49203566 0.09555832 0.06167153 -0.25832522 0.48418167 0.87090516 -0.34335372 -0.18420078 0.2524748 -0.48135558 0.11789325 -0.35635346 -0.5143684 0.5288425 -0.73343575 0.68782884 0.064447455 -0.115832835 -0.22300068 -0.03522963 -0.16039872 -0.10550724 -0.5981723 -0.17010893 -0.6263525 0.06788246 0.22092962 -0.19677153 -0.039318193 -0.19968373 -0.46253443 -0.44890535 0.53739846 0.38977364 0.26011673 0.6091845 -0.6183855 -0.037339207 -0.1276234
27728 0.36761692 -0.69086015 -0.52437294 0.74535453 -0.3309454 -0.18549731 0.099205814 -0.34618524 -0.02433913 -0.0864042 -0.016679628 0.30059007 0.5890106 0.28877625 -0.2697322 0.32902363 -0.04427984 0.06287916 0.17487153 0.12228215 -0.6176582 -0.10742792 -0.4872831 -0.016225513 0.3641773 -0.14063407 -0.2667058 -0.051274803 0.070207566 0.14287364 -0.47402713 -0.35458446 -0.047523323 -0.4416148 0.5609623 -0.48312613 0.39572337 0.017350694 0.45531434 -0.46968892 0.042967547 -0.50040716 -0.19973661 -0.29325718 0.53941774 -0.2872006 -0.16523996 0.19136225 -0.5195791 -0.1299364
21447 0.28285676 -0.45918116 -0.03088512 0.16511439 -0.4722826 -0.17080276 -0.40909162 -0.24166706 0.60850495 0.39387295 -0.79183906 0.6758132 0.36754802 0.04703721 0.0014522845 -0.065922596 0.6027253 0.81046146 -0.4910902 0.2637919 -0.15501563 0.4776004 0.054940727 0.016329804 0.050782178 0.0233552 -0.14603902 -0.021606287 0.20821983 -0.2566062 -0.42641434 -0.4778602 -0.027166931 -0.2560622 0.94142723 0.078997806 0.62090427 0.050664704 0.13044138 -0.5894232 0.051547404 -0.4103823 -0.2566697 -0.11158438 0.52655965 -0.2104949 -0.7065825 -0.20858558 -0.021955177 -0.5544267
13413 0.05368969 0.23759057 0.019590318 0.33273798 0.2077903 -0.61812145 0.05926042 -0.22026166 0.4420959 0.43735242 -0.025473114 -0.04056049 -0.20419033 -0.36852705 -0.6215814 0.5397176 0.36111447 -0.32771534 0.24292746 -0.1748945 -0.60276806 0.3928958 -0.62730443 -0.4516339 0.44307634 -0.1196456 -0.66011256 0.38852507 0.07021705 0.1558103 -0.29030007 -0.50777775 -0.31917572 -0.31797186 0.30378386 -0.35016346 0.17788303 -0.20189145 -0.20562504 0.43002883 -0.35190707 -0.6088984 0.09337081 0.22568199 0.0086605465 -0.56540674 1.1941973 -0.02521677 0.1013481 -1.1922154
24350 0.32011995 -0.33282664 0.12747653 0.5388893 0.1486658 -0.9017571 -0.559719 0.052376438 0.62159336 -0.3110843 -0.54419404 0.4540777 0.74703914 -0.2800657 -0.1893903 0.15096864 -0.14545156 -0.13627724 -0.23659036 -0.013154223 0.53277045 0.06570786 0.46397755 -0.0415858 0.049831696 0.5092743 0.25833812 0.47488353 0.35788834 0.23953004 -0.33689204 -0.40957415 0.5938667 0.54714346 -0.39610276 -0.48978272 0.12735173 0.14546338 0.48053738 0.324856 0.15627937 -0.16198654 0.17145026 -0.00053671753 0.14773561 -0.16181348 0.29683107 -0.5549042 0.18880494 -1.0355152
26007 0.09865222 -0.48362678 0.1137489 0.029406447 -0.8153272 -0.13823271 -0.12342971 0.3294779 0.23266275 -0.54868156 -0.29002637 0.058821842 -0.34425142 -0.12368942 -0.02547295 0.21267083 0.03299718 -0.78376585 0.2011085 -0.20799518 -0.33116353 0.06785472 -0.26489466 -0.028641708 0.73836493 -0.22822434 0.54151165 0.32839164 -0.09326147 -0.17701082 -0.3420113 -0.12206367 -0.21435362 -0.47172096 0.05165571 0.17661808 -0.06095872 0.36967656 0.041926533 -0.4492951 -0.09798185 -0.7251761 -0.60081196 -0.81619287 0.35974288 -0.29462418 0.27740297 0.26459017 -0.33298972 -0.49132818
29827 0.48224828 0.08435204 0.13355489 0.7338845 0.03337493 0.038463503 0.25829825 -0.06885402 0.6826962 0.0409554 -0.6159181 0.12417796 0.2972015 -0.12884228 -0.028016517 0.2896798 0.27755797 -0.07794691 0.26214728 0.03361775 0.19596669 -0.02922482 0.5990464 -0.17828077 0.40445563 0.5662748 -0.1965873 0.49835917 0.08951408 0.48986372 -0.17557816 -0.5665937 0.57615066 -0.19292651 -0.10141942 -0.20846339 -0.29336098 0.42115074 0.29564273 0.5409088 1.0049288 -0.22672382 -0.7748356 0.022799898 0.29695612 -0.18868712 0.1531238 -0.44216686 0.38358703 -0.6754264
14683 0.16217966 -0.1972477 -0.050475065 0.20034654 -0.5152026 -0.7385227 -0.35787207 0.41170713 0.33582124 -0.26756215 -0.82298195 -0.29897156 0.21411105 0.017007215 0.22284992 -0.063101605 0.039387994 0.24245375 -0.112754405 -0.0994105 -0.36068416 0.62739736 -0.7409242 0.282344 -0.2703481 -0.2661076 0.1365068 0.40460482 0.116122834 0.13064677 0.20764619 0.050080635 -0.3662917 -0.57648987 1.0866512 -0.5078363 0.29465857 0.11435368 -0.0020719958 -0.048121296 0.39057437 -0.12055872 0.0023543474 -0.3183068 0.6602603 -0.109123684 -0.063754186 -0.6245059 -0.50094414 -0.32949963
20024 -0.37911144 -0.68632984 0.24791674 -0.19527376 -0.16638714 0.18520424 -0.39366454 0.10322077 0.18870461 0.013029908 -0.18222663 -0.1415008 -0.06169881 -0.46979055 -0.5537919 0.08605284 -0.325995 -0.23934352 0.2508464 -0.37986484 -0.31647807 0.49206957 0.63286674 -0.42400095 0.33388275 0.054281052 0.17910103 0.49838546 1.0669689 0.09015576 -0.09024057 -0.38856357 -0.63731307 -0.2655273 0.38516793 -0.08784931 -0.35391504 -0.39945975 -0.10107781 0.25886264 0.3722874 -0.8336319 0.05959344 -0.4577091 0.61668414 -0.42237312 0.047897354 -0.30245137 0.20595817 -0.19549596
27497 0.2490415 -0.17178343 -0.18850493 0.638885 -0.35071638 -0.30686712 -0.31920025 -0.18949996 0.28128755 0.016022814 -0.050326515 0.4338041 0.6449181 0.38921568 0.23905937 0.13104047 0.16678673 1.1619624 0.040736455 0.022875456 -0.6354042 0.30701613 0.18090144 -0.075413726 0.121417545 -0.26165724 -0.08548944 0.4680565 0.44569948 -0.30567285 -0.2908829 -0.4036366 -0.2383308 0.017947698 0.5014194 0.16930768 0.67882675 -0.059289172 -0.54023224 -0.502216 0.17645289 -0.48085904 -0.29083994 -0.10961236 0.8189524 -0.074056834 -0.22126973 0.01957226 0.38953695 -0.4481048
23491 0.4420579 -0.084279865 0.16453904 0.6874008 -0.16799605 -0.5045647 0.5432245 -0.63148296 0.12058631 0.6707013 -0.52448714 -0.005823065 -0.17333955 -0.1599522 -0.5972355 -0.22352454 -0.0754286 -0.28289732 0.28378534 0.005414646 0.45104665 0.31039342 -0.44754556 -0.41282374 -0.0049196705 -0.26195645 0.42948598 0.4231726 -0.31531304 0.021377156 -0.16380818 -0.57505846 0.27027407 0.05000726 -0.25838277 0.301176 -0.41337538 -0.025020536 -0.32514066 -0.49089837 0.34224576 0.8290697 -0.6270208 -0.45078033 0.06988644 0.30941904 0.74827266 -0.33558685 0.07157879 -0.7373445
24574 0.112696625 -0.20722419 -0.31422994 0.46290234 -0.33815378 -0.030688848 -0.65515053 -0.6326063 0.28364766 -0.25594538 0.18098897 -0.0029496544 0.6623457 0.13864177 -1.0696852 -0.29678506 -0.32564026 0.24165525 -0.21529515 -0.22055516 0.28492507 0.07582957 -0.034961533 -0.43004802 -0.47837454 -0.21369478 -0.009736923 0.2733076 0.17775755 -0.45413935 -0.8891211 -0.7893939 -0.06528306 -0.0014286197 -0.059257865 -0.8971873 0.20846875 0.79699874 0.055617146 0.13212779 -0.70062673 -0.526639 -0.41334984 0.21787359 -0.066588484 0.28248727 -0.33619443 -0.38608268 0.17286931 -0.7275058
31104 -0.248002 -0.14953022 0.3266433 -0.13528301 -0.7553291 -0.074393615 -0.35269865 -0.29814893 0.00030109426 0.11566479 -0.31496137 0.47475302 -0.26116213 0.3370076 0.5011736 -0.22489175 -0.0067717973 0.2972993 0.30628586 -0.53289545 -0.27778196 0.086587034 -0.033717886 -0.61201286 0.07759521 -0.13213067 0.6981596 0.5225272 0.1178294 0.34153876 0.5719521 -0.3282132 -0.87743044 -0.45483217 0.22077782 -0.7698171 0.2472192 0.23921798 0.3837414 0.0015991222 0.8614139 0.17039509 0.13423285 -0.43278718 0.15494719 0.16299294 -0.09064229 -0.27902165 -0.07285921 -0.6148532
119 0.11124731 -0.115518846 0.3170688 0.93829006 -0.22915722 0.1594858 0.047275797 -0.4754857 0.22379345 -0.03561236 -0.83341944 0.077160686 0.07706516 -0.2562916 -0.6047451 0.39195246 -0.22653075 0.16455376 0.34760866 -0.0128682805 -0.3433329 -0.20946236 0.42208928 -0.10914571 0.35185605 -0.51026267 0.6434705 -0.14716622 0.2837833 0.08442749 0.14076634 -0.8001495 -0.29194468 -0.4711026 -0.4239779 0.3533994 -1.2107577 0.6378091 0.059321027 -0.11173943 0.2235321 -0.1438464 -0.083241284 -0.16891979 -0.15024662 -0.73915803 0.13915426 -0.50504047 0.52291924 0.15950029
30720 -0.11684492 0.34221497 -0.47326797 1.0155262 -0.08135568 -0.09780758 -0.32122362 -0.79556674 -0.050353993 0.29422134 -0.28835168 0.16461302 0.70704055 0.25030315 -0.09761006 0.120751664 0.4432863 0.72641903 -0.732602 0.13196197 -0.32754192 0.1909957 -0.06373775 0.061794683 -0.27868482 -0.079058535 -0.01620536 0.10967851 -0.16369626 -0.6538273 -0.28566208 -0.32091582 0.23214504 -0.18222548 0.6191114 -0.46476007 0.03839946 0.3477169 0.41555086 0.05276056 -0.16397953 -0.58357626 0.04625561 -0.29843327 0.42685562 0.44304505 -0.12367543 0.0763484 -0.109045245 -0.73570967
36055 0.10043465 -0.6020066 -0.3192498 0.39259553 -0.2728332 -0.057256047 -0.3755816 -0.04849359 -0.01114956 0.13879633 -0.42874983 0.34407353 -0.5803957 -0.72895163 -0.07101337 0.12921527 -0.31975782 -0.15288068 -0.7556266 -0.059594132 -0.027720563 0.041705042 -0.16547906 0.016397359 -0.024061147 -0.17515296 0.32867795 0.41777965 0.56714296 0.24590154 0.043666195 -0.10769444 0.0027678234 -0.542389 0.08004379 -0.7059649 -0.30933797 0.8058295 -0.3966215 0.017777912 -0.04227692 -0.464897 -0.22914882 -0.22712302 0.2568825 0.19261852 0.21394613 -0.14243695 0.3680935 -0.08937281
17429 0.38502866 -0.55248034 0.0045842375 0.88609606 -0.6531477 -0.6341748 0.039217323 -0.48408887 0.61208504 -0.5042801 0.02793814 0.28541726 -0.37270674 -0.01882186 -0.13673048 0.010896182 0.39035502 0.34832802 -0.26513946 -0.0763752 0.16221623 0.12167449 0.018926654 0.42679766 0.057430346 0.324634 0.058622155 0.17978676 0.45491362 0.2025933 -0.543078 -0.19069421 -0.35839516 -0.65262777 0.20152092 0.11253526 -0.30654976 0.72285634 -0.28519392 -0.2631212 0.27825344 -0.3175906 -0.19515795 0.21416453 0.16317281 0.18131253 0.00076067826 -0.07891278 -0.19677101 -0.008311165
5567 -0.3518239 -0.111940674 0.78794134 0.73429084 -1.148407 -0.31207743 0.07718586 -0.59335184 0.280996 -0.40278578 -0.2901561 0.41290137 -0.015628744 -0.31152126 -0.25922057 -0.37028283 -0.0519484 0.19516742 -0.108025394 -0.1766904 0.16427541 0.54699516 -0.08673605 0.15300293 0.13670897 -0.12918794 0.34063435 0.16424361 0.15749174 0.1561896 0.24333225 -0.9373019 0.45065174 0.34430718 -0.674144 -0.5823554 0.19935167 0.7642775 0.6192442 0.389279 -0.2846796 -0.41635263 -0.08511747 0.068979874 0.054838188 -0.08008271 -0.32808074 -0.011694538 0.17651927 -0.07622425
37651 0.037125036 -0.045554604 0.2854843 0.50786227 -0.5409102 -0.04868747 -0.45865825 -0.2456799 0.122448616 -0.055818632 -0.45062628 -0.19747618 0.23448652 0.26472044 -0.16623862 0.4026102 0.25646156 0.18629213 0.23102225 -0.20220663 -0.2280681 0.6136625 -0.16695851 0.49575725 0.31899598 -0.35247204 -0.050843164 0.31132463 0.08021245 0.016715528 0.21459165 -0.29152113 0.21600781 0.12582055 0.38792932 -0.27628103 0.7116052 0.024772264 0.6009456 0.680289 -0.03193479 -1.0442114 0.026162189 0.13981497 0.5985869 0.4824685 0.019737847 -0.2004011 0.11108935 -0.415652
13028 0.40279233 -0.5038172 -0.06601151 0.06522547 -0.13974729 -0.5307856 -0.37194216 -0.6316915 0.44270575 0.32915828 -0.3835624 -0.064431615 0.16259356 -0.0062828725 0.17464462 -0.6683926 -0.61060274 -0.09479794 -0.18720071 -0.030439917 -0.24732877 -0.08221234 -0.30272862 -0.51716936 0.23966247 0.29527622 0.43216288 0.4732078 -0.16923863 -0.24167147 0.03310823 -0.5818554 0.050884772 -0.8400796 0.42501745 -0.39343095 -0.4615324 0.14543438 -0.41014075 0.1052691 0.5832007 -0.6102769 -0.060791016 0.1906777 0.45680663 0.3505376 0.04361806 0.12848386 -0.11073399 -0.00761822
11648 0.05592946 -0.5627503 0.33493665 0.11562857 -0.8101537 -0.32439417 0.081437364 -0.5086898 0.0775588 0.15858288 0.056817453 0.26736638 0.39405486 -0.3332525 0.17510195 -0.3121757 0.3987258 -0.4187654 -0.5273322 0.06720812 0.09364976 0.4677362 -0.15268597 0.21467806 0.2699421 -0.2604601 0.19638245 0.02169646 0.026583869 0.36822474 -0.11463285 -0.38193256 0.12704255 -0.711754 0.055203456 -0.11709331 -0.3743343 -0.07203458 -0.581284 -0.22034295 -0.11579578 0.22847967 -0.52909076 -0.2962373 0.48377347 0.031730767 0.33737123 -0.023532538 0.15888803 -0.30558598
27024 0.12728035 -0.78535366 -0.4848922 0.20735998 -0.7007898 -0.44855282 -0.5308646 -0.7283112 -0.13745622 0.07435712 -0.41277042 0.13106225 0.5346812 0.33033082 -0.7711366 -0.09737004 0.4831221 0.42843845 -0.020560201 0.28723133 -0.48199117 0.31871146 -0.20141137 -0.07789903 -0.16130476 -0.51211053 -0.49194542 0.0045286813 0.08862087 -0.5017485 -0.73885787 -0.4976824 0.19529894 0.21750617 0.48872277 -0.39687726 0.35762936 -0.030857874 -0.20222121 0.15978853 -0.12218306 -0.55268764 0.26519072 0.1768825 0.27309832 -0.32380712 -0.27501178 -0.38851354 -0.4471992 -0.76650006
1841 0.7200652 0.6608425 0.4593908 0.80749774 -0.9163755 -0.26974833 0.033680305 0.0966216 0.18819311 0.42799607 -0.14052874 -0.021950513 0.047934826 0.43234226 -0.100900404 0.013852 0.21252544 -0.13319613 0.044868503 0.2808699 -0.2101407 0.04211657 0.18159011 -0.2821316 -0.2640935 -0.010089048 -0.10281006 0.34146985 0.48011938 -0.3330657 0.28261736 -0.29880932 0.037565015 -0.030058738 -0.22340502 -0.12622519 0.03231248 0.5801938 -0.08255202 0.025493577 -0.20364396 -0.5182286 -0.23261613 0.074833244 0.2674013 -0.40387696 1.0826598 0.2700219 -0.279241 -0.70761883
26647 0.64856803 -0.21780193 0.16892856 0.39946273 0.16460161 -0.72392195 0.024921652 -0.27594918 -0.58677995 0.33806232 -0.5018299 0.6376225 0.058080707 -0.17398451 -0.5696664 -0.33794498 0.35978037 0.34238654 -0.01371536 -0.10531087 -0.744743 -0.033582173 -0.23512398 0.41359872 0.2979842 -0.11207281 -0.35188335 0.2955704 0.8991519 0.04599745 0.10025136 -0.12343955 0.3905525 -0.15340503 0.23091266 -0.49171427 0.37259924 -0.16203845 0.3882443 -0.5816953 -0.07345758 0.023476446 -0.24219574 -0.1384625 0.31082606 0.012230961 -0.16644894 -0.21624015 -0.538543 -0.6078532
21334 -0.37869295 -0.021794444 0.1333647 0.46572864 -0.6016455 -0.23200886 0.2340452 0.088375404 -0.23336416 -0.3952878 -0.2382613 0.4007815 0.001495825 -0.6098296 -0.30180475 -0.36009848 0.42154258 -0.37392724 0.2388397 0.029866865 0.40153882 0.7111087 0.03631969 -0.2246863 -0.06203489 -0.12872425 0.64270365 -0.4304218 0.7023267 0.50308406 0.10608018 -0.800839 0.39183995 0.008217783 -0.0018649215 -0.12631759 -0.47294334 0.14293696 0.5958404 0.1252092 -0.04781164 -0.24444325 -0.370969 -0.22289625 0.34444463 0.05460984 -0.07925646 -0.42574373 0.23302555 -0.33989537
25575 -0.6219355 -0.15327385 0.34813413 0.49320722 -0.75986975 -0.11877742 -0.44706333 -0.28276467 -0.084352754 0.5078867 -0.80749816 0.5543524 -0.5285425 0.030940935 -0.032968573 -0.2258837 0.26850638 -0.05914215 0.048423897 0.27600244 0.001724367 -0.46501377 0.4994703 -0.40677863 -0.31166154 0.43229306 1.1631727 0.40722713 0.1768923 0.4743812 0.349253 -0.32211262 0.059331197 -0.51960975 0.7029985 -0.508889 0.08816402 0.08609159 0.43989202 0.108296484 0.15425491 0.060427073 -0.081696145 0.028343726 0.12519592 0.09310451 0.3773997 -0.14123638 0.26676145 -0.34887406
20047 -0.13768838 0.07091061 0.07510322 -0.09661998 -0.50535303 -0.072403565 -0.102773085 0.115386814 0.18313228 0.50921035 -0.30999073 0.26898554 0.20062333 -0.29894805 -0.80198514 0.14237784 0.61254686 0.03724919 0.50530773 -0.38137814 0.13841589 -0.14432533 -0.7127073 -0.5281421 0.76858044 -0.5100958 0.0675073 -0.18613194 -0.10752018 0.28152797 -0.13726231 -0.6907266 0.3096984 0.53937703 0.70506155 0.41935018 -0.09521143 0.35081908 -0.3929311 -0.34685272 0.036884468 -0.34217665 -0.17504682 0.21071738 0.11349739 -0.67152685 1.0745924 0.28741232 0.25797105 -0.20735054
38 0.39001864 -0.54719585 -0.017859468 0.5004063 -0.3320734 -0.7183395 -0.24777429 -0.6538736 0.021660993 -0.024497425 -0.20009148 0.024079807 0.77678967 -0.07706172 0.06980506 0.24712218 0.6343502 0.55375427 -0.53209776 -0.2461621 0.13437888 -0.016514825 -0.27974957 -0.16338156 0.109656036 -0.44378057 0.3376933 0.2531397 0.37031078 -0.094789274 -0.038788706 -0.3677075 -0.5562574 -0.63025904 -0.01726884 -0.10987142 0.1413414 -0.37795597 0.23400672 -0.43757737 0.45372158 -0.25546572 0.8539486 -0.23369427 0.5999841 0.1285491 -0.15905212 -0.123898186 -0.002240773 0.029952798
10487 -0.091067635 -0.031670544 -0.04924804 0.5225201 -0.14737259 -0.14456621 0.30797392 -0.058112044 -0.074998796 0.12503031 -0.27813345 0.2696016 0.68343514 0.0059032007 0.005767953 -0.68265635 -0.11365948 -0.28301886 -0.21896192 -0.21431017 -0.1436336 0.28978232 -0.17242824 0.07366169 0.38220975 0.8589421 0.37527767 -0.044570487 0.15915515 0.10684835 -0.4965027 -0.02037445 -0.05119386 -0.06135315 0.5133754 -0.7662243 -0.5341492 0.20765616 -0.24943033 -0.41831723 0.38667592 -0.22258562 0.095295936 -0.10120692 0.2607237 -0.35578835 0.6721219 -0.39640588 0.52162045 -0.3959856
32710 0.37087777 -0.06377455 -0.04566709 0.58193374 -0.50352705 -0.42725268 0.26311213 -0.026657764 -0.12121921 -0.3183073 -0.15152286 0.25330317 -0.05400015 0.07992512 -0.420887 0.101040475 0.108314246 -0.049488213 -0.049437437 0.26786077 -0.6359066 -0.16088215 -0.122093186 -0.5803112 -0.41208014 0.49638745 0.16562513 0.31522602 -0.0047163437 0.43366018 -0.525837 -0.19151017 -0.14091134 -0.5374787 0.32842818 -0.27982563 -0.29127663 0.094443366 -0.2515069 -0.07839395 0.2079524 -0.01690326 -0.0954354 0.18654618 0.7374703 0.30523834 0.025176754 -0.08651053 -0.3423185 -0.15115257
26190 -0.09092499 -0.1063421 0.19642301 0.7700745 0.0587871 -0.2602584 -0.053317443 -0.37115902 0.15738769 0.7019951 -0.5122861 0.0008113686 -0.79526854 0.17752546 -0.18910927 -0.7519074 0.093257844 0.15433633 -0.6608093 -0.57456225 0.05774508 -0.31719568 0.21550088 0.039353494 0.35074565 0.04185354 0.4282124 0.41488978 0.21961357 -0.36571938 0.3741535 -0.8073394 -0.28310424 0.07398289 0.031681813 -0.8445708 -0.30039907 0.4092084 0.11847656 -0.39086887 0.42387828 -0.66793215 -0.3609668 0.24255584 0.5799795 -0.052506544 -0.19035071 0.5293551 0.48937142 -0.14411776
2420 0.4586145 -0.47976565 0.6291082 1.1334671 0.22196195 -0.20569597 -0.81262195 0.0526268 0.22148438 0.09635169 -0.012704175 0.07351148 0.66235346 0.12016003 -0.12339506 0.0065301447 0.31654572 0.29602033 0.31242934 -0.10562894 -0.23739487 0.46962833 0.13006972 0.6067585 0.042872496 -0.38762158 -0.35206434 0.43732962 -0.028428862 0.0051912144 0.5231139 -0.62582564 0.37324238 0.3922841 0.16344796 0.063307256 0.55266464 -0.15709811 -0.10738434 -0.1609508 0.18926562 -0.36015216 0.49251732 -0.12547061 0.5923463 -0.025214469 0.17964816 -0.52209437 -0.33222687 -1.0722165
23458 0.27049318 -0.060619097 0.09709804 0.08835332 -0.5243703 -0.57762533 -0.35804766 -0.17682819 0.00564953 0.4226702 -0.24982177 -0.37524652 0.1479906 -0.1702922 0.29973102 -0.35926893 0.026046982 -0.3238405 0.1698507 0.057191905 0.11161468 -0.5386269 -0.051854108 -0.26672995 0.15897278 0.0721325 0.19938606 0.16355067 0.3254616 -0.16346054 -0.06213116 -0.84234613 -0.35829732 -0.122697525 0.36141467 0.2320499 -0.7503655 -0.06620002 0.3222491 -0.20017171 0.6009312 -0.4878807 -0.16895545 -0.07972883 0.39784697 0.4832254 0.5857265 -0.22749463 -0.90188026 -0.09633689
21766 -0.17332059 -0.15890329 -0.040141173 -0.04193298 -0.8816356 -0.13690983 -0.5160636 0.010602205 0.30109292 0.72995585 -0.16147828 -0.14488767 0.23433015 -0.53229517 -0.41758278 0.36249158 0.27779824 -0.40484783 0.6047282 0.5746183 0.54269314 -0.15676147 0.19879416 0.26875395 -0.09101513 0.2396468 0.1715519 0.21507274 0.45374557 -0.31263936 -0.15014231 -0.72811985 -0.4457302 -0.105693206 0.44908956 -0.08137463 -0.13884933 0.2383964 0.26858848 -0.10502949 0.39892545 -0.28689632 -1.035193 0.6565076 0.40230012 0.19109848 0.34912857 -0.057703797 -0.69187224 -0.22363226
26877 -0.3526667 -0.38991565 0.35965142 0.2560626 -0.6308039 -0.08192296 -0.26390487 -0.31173664 0.2627539 0.44768906 -0.04125019 0.24925618 0.6398417 -0.87456656 -0.07371345 -0.22335875 -0.59312457 0.047397412 -1.0588629 0.18909848 0.51934004 0.3212709 -0.28716633 0.007915045 -0.34361494 -0.7333032 0.14703995 0.21140668 0.11070734 0.6361401 0.12454733 -0.13004453 -0.45764562 -0.31583527 0.18023616 -0.41453034 -0.06513231 0.23979719 -0.4112948 -0.17672288 0.37039155 -0.100442074 -0.13740446 -0.37043175 0.2123841 0.063206226 0.10710717 -0.3355874 -0.029747035 -0.3445509
15110 0.24315107 -0.6034757 0.3007466 0.6630471 -0.07901475 0.2149799 -0.6200351 -0.11163658 -0.07378514 0.28781417 -0.14738543 0.35358167 -0.40877384 -0.04113668 -0.63991815 -0.39977285 0.31629816 0.10140021 -0.90823126 -0.3386238 0.031665597 -0.16853121 0.06611987 -0.22909282 0.2691033 0.51513624 0.09499579 0.19592153 0.5152072 0.4439319 -0.2545547 -0.56353116 0.39888695 0.29199046 -0.018599354 -0.88961595 -0.23999994 -0.07136201 0.028264578 -0.42701596 0.7256397 -0.29653984 -0.295638 -0.4590026 0.1814197 -0.07836604 0.19896998 0.05447878 0.6681973 0.1408593
1856 -0.13996503 -0.7012219 0.5297044 -0.015348016 -0.34700647 -0.39318672 -0.07321015 0.39657307 0.092498764 -0.015007441 -0.24027528 0.21661088 0.3469861 0.022769745 0.5091979 0.05331551 0.3324962 -0.354443 0.28109157 -0.33101445 -0.72730017 0.6113895 0.0659343 -0.24273865 0.023900637 0.0013461102 0.32440087 0.2877111 0.24218008 -0.025278721 -0.6038969 -0.20074046 0.16149153 -0.38355586 0.42297044 -0.24179797 -0.037208386 0.41572973 0.15673046 -0.4600152 0.015538707 -0.11193615 -0.43324426 -0.33854017 0.4809385 0.0824331 0.0948975 0.11914649 0.10744469 -0.41615787
33291 0.030066323 0.46600762 1.1994718 0.4764353 -0.4201527 -0.6917568 -0.8318046 -0.034199696 0.15395805 0.6271096 0.64202654 -0.12172975 0.28608987 -0.047534745 -0.76135004 0.12690495 0.6568401 -0.021348653 0.5801807 -0.057727586 -0.3851906 0.10756107 -0.060384333 0.7337545 0.25182226 -0.31914344 0.4695955 -0.593567 0.558873 0.099839605 -0.010906035 -0.114565596 -0.014124242 0.12940742 0.4186741 0.24830464 0.46696413 0.7999786 -0.11106075 -0.47552568 -0.06841187 -0.5438797 0.32024232 -0.35401824 0.30298173 0.25473195 0.5278073 0.34254584 -0.16246085 -1.0310698
33216 0.06288036 0.31103745 0.15842652 0.88835305 -0.5933013 -0.5092553 0.022441925 0.28504607 0.39727128 -0.37247345 -0.27804393 -0.14720899 0.019105084 -0.2568325 -0.19014968 0.5519667 -0.49934936 -0.0028928148 -0.06816725 -0.14775409 -0.79486275 -0.086908296 0.21949607 -0.04758505 0.33479494 0.38382798 0.25845876 0.20192131 0.0019848084 -0.0010766061 -0.042867806 -0.31404877 -0.3910189 -0.088624544 -0.12127485 -0.18755117 -0.5976078 0.5178846 -0.5355407 -0.3126361 0.26458645 0.2369448 0.69830817 -0.39946133 0.5174316 0.22463116 -0.038411338 -0.60220927 -0.19968343 0.053762194
6575 -0.0988249 -0.5653457 -0.11449083 0.7046505 -0.007683814 0.51679206 -0.41206098 -0.27620497 -0.16279483 -0.444393 0.19385695 0.22074106 0.37833682 0.07760344 -0.621328 -0.26968008 -0.004772543 0.57478386 0.3221829 -0.13663122 -0.44376087 0.72805953 0.11716543 0.25972202 -0.21039824 -0.4014926 -0.56468517 0.3255557 -0.06705492 0.15667033 -0.036592465 -0.760414 -0.2489971 -0.45578143 0.5211597 0.10891557 0.588235 0.46173596 0.43345553 0.25364453 0.6426307 -0.32013223 0.18994896 -0.1785263 0.8095363 -0.46231857 -0.047134645 -0.17322093 -0.063786075 -0.60444593
22899 0.038414717 -0.3402403 -0.09703974 0.1558598 -0.3970349 -0.4739432 -0.2809283 -0.6154751 0.3108425 0.022538379 -0.06154661 0.5228823 -0.013382446 0.26287094 0.09938138 0.097095005 0.36023083 0.17033069 -0.26129028 -0.4179512 -0.04060319 -0.07891075 0.037393674 -0.27024508 -0.3729109 -0.18354633 -0.0419914 0.07142206 0.22945067 -0.41585112 -0.4564966 -0.7722269 -0.19084874 -0.8585632 0.35808948 -0.14228891 -0.14666094 0.16994298 -0.50481194 -0.44095692 0.39830968 -0.5462308 0.29234543 0.5619543 0.3620002 0.39561424 -0.012221539 -0.30643085 0.12581988 -0.23088787
32582 -0.3310465 0.9032971 0.21409373 0.13251807 -0.29926637 -0.37484863 -0.75531524 0.02996016 0.05875125 0.21984008 -0.46815324 0.29959762 0.27411288 -0.32411692 -0.633227 -0.24601886 0.40457702 0.372206 0.67968166 0.10558161 -0.6436061 0.06659434 -0.47016662 -0.13530801 -0.068521075 -0.6497876 0.3500929 -0.010741358 -0.13345945 0.48186523 0.27109054 -0.297943 -0.30428123 -0.16455333 0.42637056 -0.22431634 0.034935817 -0.0007267811 -0.48475277 0.06782634 -0.10253291 -0.070535064 -0.14804374 -0.18709612 0.44159588 0.2582421 0.64533067 0.80842793 -0.10479219 -0.942369
31630 -0.26790327 -0.23634003 -0.53069836 0.11510162 -0.23920925 -0.2908809 0.36315984 -0.17524041 0.01465823 -0.0021614502 -0.20318554 0.46641055 -0.06489021 -0.297557 -0.28293446 -0.20288804 0.16731942 0.009768499 -0.15282556 -0.7058729 0.1782132 0.48723197 0.46283415 -0.00046386104 0.2115026 0.07088161 0.6336023 0.16265117 0.46832165 0.29066288 0.13263309 -0.45480263 0.3443275 -0.5133873 -0.04330937 -0.19815336 -0.5420892 -0.09261401 -0.09467317 -0.00039411394 0.036129616 0.4099341 -0.30694684 -0.4970076 0.80772483 0.54859513 0.312006 -0.08931512 0.42124072 -0.7159761
17876 0.052527536 -0.07426566 -0.45587072 0.62935054 -0.55788374 0.20902422 -0.056890342 -0.71236885 0.44938636 -0.44873083 -0.79624474 -0.015034551 0.15312688 0.18667275 -0.8443909 -0.35978273 0.37566155 0.15725243 0.12326825 0.50645924 -0.17697 -0.19698468 0.057908297 -0.8138821 2.914979e-05 -0.3729619 -0.2720824 0.6197179 0.089367576 -0.9055302 -0.5581287 -0.35370693 0.16373321 0.4402154 0.3797988 -0.43165046 0.08954711 0.30207428 -0.66892123 0.26793283 -0.013864031 -0.45312944 0.14765592 -0.015565667 0.4745943 0.07817475 0.21903616 -0.08632987 -0.5164212 -0.72020143
19384 0.7450309 0.16976239 -0.10289334 0.4393205 -0.16742165 -0.36771494 -0.6154885 0.45470378 0.6170338 0.10176425 0.048411954 0.047142625 0.33096042 -0.15069778 -0.033759467 -0.18758377 -0.053015765 -0.16551486 -0.3880042 -0.10009826 -0.5769829 -0.2374053 -0.07916914 -0.44612268 0.46987325 0.24115346 0.49434853 0.09437411 0.1353026 -0.2205272 -0.036885623 -0.9469453 -0.092533775 0.66220576 -0.4034171 -1.0549159 -0.663697 0.33933288 -0.058614876 -0.53840196 -0.09615166 0.59796256 -0.22842202 0.3518853 0.43003017 0.20206182 0.22787835 -0.31613427 -0.20760094 -0.29939687
16689 0.46388006 -0.5131111 0.35454232 0.9037002 0.04119686 -0.25522876 -0.06824847 -0.17722379 0.055736415 0.42147344 -0.11095767 0.31368455 -0.023459712 0.037798245 -0.15496947 -0.24487288 0.6223761 0.17917228 0.21242014 -0.05387486 -0.23945782 0.66722393 -0.16646415 -0.3319155 0.17913246 -0.061759755 -0.0025450068 -0.14885192 0.22386293 0.031998307 -0.19750902 -0.30790547 0.34366077 -0.050709408 0.60756487 -0.50428134 0.14448166 -0.91123563 -0.20587002 -0.28499714 -0.066133715 -0.46337795 -0.10021181 -0.12625454 0.23429582 -0.24969468 -0.5507723 -0.43259516 -0.33020842 -0.50159204
33837 0.55741227 0.6019175 0.34593 0.7757537 -0.5055705 0.29967505 -0.027475312 0.3317987 0.19195002 0.024246443 -0.15564369 0.659259 -0.45506668 -0.23711243 -0.19257647 -0.25300828 0.23452245 0.12501496 0.53952 0.2310726 0.0589576 0.0120838685 0.09275414 -0.59968114 -0.46394074 0.36474413 0.062250808 -0.2071084 0.35043404 0.27251285 0.09981454 -0.30393815 0.08939888 -0.28968257 0.5982901 -0.44078577 0.09585617 0.15730986 -0.10975257 -0.3947189 0.104669966 -0.316685 0.07138088 0.24734345 0.3943147 0.39298812 0.8345472 -0.43320724 -0.2777026 -0.18440823
6541 -0.21331169 -1.0264472 0.25634506 0.32403877 -0.52065164 -0.21224456 -0.037211776 -0.2249446 0.36325932 -0.22950822 -0.0094882045 -0.13331985 -0.19510767 -0.73123294 0.019302959 0.2845289 0.4189759 0.53090906 0.13133329 -0.7136704 0.098463364 -0.33785284 -0.29963046 -0.50889486 0.28495625 -0.28233758 0.16606157 0.6115738 0.29456437 -0.07036712 0.1383191 -0.5887068 -0.38222715 -0.53060704 -0.018084947 -0.7852306 0.0064908103 -0.35424712 -0.24870485 -0.029488256 0.06576173 0.07640482 -0.76078 -0.39515564 0.00424761 0.0465596 0.49084848 0.046717282 -0.12976705 -0.005148911
7721 -0.2998697 -0.5931655 -0.35252884 1.0077374 -0.87357444 -0.47149026 -0.050568875 -0.12513834 0.097173735 0.088055246 -0.7103867 0.09812057 0.16897967 -0.77279836 0.048564803 0.40400514 -0.015702788 0.10623842 0.5360719 -0.16177908 -0.76179624 0.10761966 0.05339698 -0.12199888 0.4923533 0.03753409 0.39848864 0.013606929 -0.123078585 0.26173422 -0.21328232 -0.21859223 -0.2397956 0.50534946 -0.6092588 -0.41090524 -0.64208776 0.3652565 -0.3844027 -0.27692255 0.4095964 -0.13409065 0.07288129 0.36700124 0.09207305 0.6080069 0.085080974 -0.38798437 0.317436 0.39920282
25677 -0.19775873 -0.39021787 0.14690925 0.22470404 -1.0014662 -0.44163835 0.10523145 0.495286 0.029892433 0.5004271 -0.48179471 -0.11058531 0.09862267 -0.55937696 0.09619442 0.4173018 -0.72651255 0.51620305 -0.06749868 -0.36866066 -0.6037156 0.12847668 -0.105625875 -0.82155925 -0.22023723 0.011667593 0.21429114 0.048334844 -0.078786336 -0.21319798 -0.14982782 -0.30652496 0.040664714 -0.024631064 -0.5666257 -0.42692927 -0.586969 0.13185577 -0.39654943 0.18447362 0.4336603 -0.020631727 0.117968276 -0.07078522 0.33875203 0.18663219 0.51591647 -0.44654554 -0.09036729 -0.48002836
16716 0.27561042 -0.2814727 0.53137815 0.8277016 0.08647283 -0.24895704 -0.048270617 -0.10194405 -0.2428571 0.55836403 0.12001214 0.36722594 0.2590339 0.34997532 -0.48068962 -0.22549434 -0.15730758 0.5084377 0.6812785 0.17136486 -0.42653248 0.27261567 -0.5245827 0.57580185 -0.14837843 -0.26116237 -0.062413514 0.58504623 0.28311366 -0.04990284 -0.28124556 0.25986 0.44451097 -0.5189396 0.5397683 -0.42493847 -0.17460577 -0.056466825 0.17128284 -0.47431844 0.3359225 -0.34268036 -0.8185822 0.06026226 0.18086262 -0.16410317 -0.059501596 -0.6825632 -0.08029841 -0.6606223
9143 -0.31191623 -0.27243137 0.55089974 0.6750998 -0.33830562 -0.28406596 0.28218114 0.23237444 -0.14105389 0.06862013 -0.5917597 -0.045857817 0.23296963 -0.0032561729 -0.040242128 -0.29758424 -0.114337295 0.3721585 -0.08527509 0.019419407 0.084786564 0.40326163 -0.05262017 0.31977755 0.11315283 0.7424028 0.497822 -0.10357024 0.5372531 0.13749689 -0.49965042 -1.0570896 0.052536663 -0.6211544 -0.08407999 0.027600164 -0.7091257 -0.0073343166 -0.11601664 -0.15577918 -0.2586535 -0.010877259 -0.337708 -0.14816447 0.20424724 0.06692179 0.5285408 0.30025405 0.2651363 -0.47063097
31197 0.8130215 -0.23148696 0.29214853 0.33343354 -0.87299335 -0.21592614 0.20365143 0.3253855 0.44090557 0.39619002 -0.6498118 0.25300685 0.63443375 0.26493442 -0.8834697 0.3569324 -0.070310675 -0.06178456 0.2455 0.22301404 -0.14236583 0.12979366 0.020560235 0.2972477 -0.49219254 -0.4706964 0.24923734 0.274478 0.2740912 -0.21508685 0.44941136 -0.059845872 -0.18036519 0.21108854 0.112172134 -0.15853177 -0.6646682 0.7774376 0.4567244 -0.16827933 0.21208486 0.0791331 0.09884535 0.2186878 0.2931954 -0.29160103 0.18076713 -0.42847115 0.3391474 -0.25596988
30706 0.13773406 -0.46524942 -0.06363425 0.6457113 -0.7586007 -0.017192274 -0.42752305 0.00842953 -0.23306054 0.17174377 -0.113066986 0.30207592 -0.28563142 -0.49646026 -0.17495741 -0.42038524 0.19447468 0.3164125 -0.47245905 -0.38314378 0.07680921 -0.43304548 0.24060296 -0.4661939 0.5161124 -0.04853153 0.45988366 0.3860386 0.17015474 0.7095761 -0.51755977 -0.24810797 0.28554395 -0.5557512 -0.14432563 0.027011877 -0.07193787 -0.2480692 -0.0040241377 0.0032273955 0.4551233 -0.13119009 -0.30967626 0.06479234 0.18882798 -0.51916564 0.45152843 -0.030763362 0.13315526 0.14685605
6569 1.0845493 -0.19912325 -0.31201276 -0.0005004877 -0.7356858 0.16095333 -0.45591396 -0.11707251 0.07719851 0.2074259 -0.033417467 0.508197 0.25976974 -0.09684419 -0.62662965 -0.6298209 -0.29360276 0.28186673 -0.31622013 -0.35117498 0.17615667 -0.39661103 -0.5840993 -0.58609116 0.22011098 0.15543452 0.3752918 0.24494411 0.15958877 0.103349715 -0.58349377 -0.14944215 -0.3993926 -0.4068372 0.011185821 -1.0388737 -0.51854104 0.28793833 0.06854168 0.071821064 -0.46273857 -0.39346576 -0.5679269 -0.23762497 0.29150242 0.510736 0.0021383201 -0.5002049 0.40633556 -0.52039933
34026 0.17637856 0.09433543 0.29174337 0.86246866 -1.0129153 0.13517654 -0.05853722 -0.12299478 0.80709654 -0.1736589 0.025087448 0.3287651 -0.13247229 -0.7009559 0.023729837 -0.012326805 0.21844062 -0.1637873 0.23497573 -0.1813969 -0.42238685 0.67440826 0.25277144 -0.66591436 0.62854606 -0.18183851 -0.02256061 0.01995815 -0.57347375 0.2821537 -0.3606057 -0.8999634 -0.3814397 0.28152007 -0.55918515 -0.26922 -0.64866877 0.18878779 0.41346824 -0.34551495 0.12833051 0.4822699 -0.045894846 0.21939585 0.3600543 -0.121311575 -0.2072157 -0.526763 -0.30496964 -0.1166538
32924 0.30762437 -0.43266195 0.32692602 0.4778987 -0.79375464 -0.029559657 0.8187835 0.18746166 0.6672566 -0.108205184 0.022047924 0.5588428 0.5058927 -0.014772779 -0.38897175 -0.30691418 -0.23327956 0.41506737 -0.29924786 0.19364412 -0.44368243 -0.051550716 -0.6278449 -0.083872534 0.016957885 -0.30033797 0.13111433 0.23294084 0.16123939 0.38048202 0.2423277 -0.6871191 -0.29724172 -0.16956873 -0.10207087 -0.1876088 -0.3081827 0.55948734 0.91244584 -0.04652893 0.14113967 0.23994772 0.108746774 0.115057565 0.46109408 0.11320241 0.028693736 -0.04227263 0.07465067 -0.2859762
