7258 20
13638 -0.027024971 -0.7010399 -0.25763813 -0.4790978 0.092330985 0.27577913 0.5497055 -0.15873098 -0.4534211 -0.054517675 0.66641235 -0.18332031 -0.5742715 -0.38035393 -0.11247314 0.1603883 -0.011526802 -0.26850474 -0.51333505 0.03280836
18163 0.03458674 0.5895809 0.043103255 0.35087016 -0.3260579 0.8293693 0.16577001 -0.06746553 0.109670386 0.3511116 0.9337085 -0.47918904 -0.72141707 0.105579406 0.38532767 0.15031426 -0.17913593 -0.29713076 -0.23051856 -0.56108254
7027 -0.06369093 -0.19835919 -0.2916977 -0.48251063 -0.48038065 0.8844981 -0.41282034 -0.21950434 -0.5814272 0.24166523 0.60853237 0.12934956 -0.4968232 -0.22988167 0.022309726 -0.14192891 -0.19280554 -0.17734036 -0.0036067006 0.43091735
33671 0.14802703 -0.16111735 -0.2977865 -0.2135027 0.3805079 0.27135804 0.1439104 -0.9809534 -0.3582804 -0.61207306 0.4767434 0.2994811 -0.4817518 0.7658656 -0.3561721 -0.13443886 -0.21291353 -0.6409453 0.3375135 -0.347643
11051 -0.40496263 0.07465882 -0.35108978 -0.33716395 0.036503427 0.6111014 0.101250336 -0.17143402 0.064913 -0.63307554 0.23129883 -0.9190209 -0.83768696 0.17069976 0.36063546 0.07725086 -0.57969105 0.04741286 0.37779152 0.2647486
14242 0.25595218 0.1645786 -1.0707036 -0.3955617 0.0062903548 0.28252888 0.34692895 -0.20710999 -0.23080629 -0.09007045 0.14089026 0.22485231 -0.3172156 -0.23965406 0.64208674 0.14060977 -1.0306908 -0.15645042 -0.29545754 -0.32752582
21142 -0.031231599 -0.10239216 0.120189324 0.16185093 -0.15203641 0.5018546 -0.029993122 1.031485 -1.0290352 -0.006488775 0.35732117 0.07820264 -0.78830004 -0.14994316 0.054099232 -0.29823473 -0.45727125 -0.7099768 -0.1315406 0.52008337
36790 0.110008724 0.3388886 -0.9674864 -0.55069304 -0.4186044 0.22571987 -0.29056486 0.193299 0.21794616 -0.44147637 0.5005967 0.04739498 -0.7712598 0.18463726 0.38494426 -0.025833895 -0.8590439 -0.18445463 0.36984333 0.3309715
27450 -0.26451272 0.54912007 -0.8915539 -0.0593345 -0.2596832 -0.32098645 -0.307286 -0.4855301 -0.34377682 0.48264417 0.5796649 0.060337562 -0.36423945 0.18297708 -0.11326505 -0.4081261 -0.14889374 -0.99288005 0.36103016 -0.5418135
34536 -0.85052395 0.44612134 0.51709306 0.41575035 -0.23786429 0.38227347 0.0338355 0.5175433 -0.4610311 -0.8812423 0.5439469 0.35758242 -0.5584446 -0.044038992 0.26583725 -0.61243874 -0.9313777 -0.89442873 -0.41952336 0.015349564
20854 -0.6155194 -0.03715799 -0.77307665 -0.7728892 -0.54367745 0.09043239 -0.077139355 0.17166194 0.28524873 -0.06798842 0.9056779 -0.2910561 -0.5144016 -0.46164167 0.7221945 -0.24070816 -0.4269386 0.14354217 0.3568587 -0.3176747
30235 -0.39111733 -0.15542468 -0.06242005 -1.0426308 -0.18766126 0.17452084 0.17968056 -0.16468887 -0.0717929 0.72420657 1.2080315 -0.20771353 -0.37968698 0.6372396 -0.37752807 -0.4561105 -0.8244813 0.07509727 -0.7097727 0.14637291
35523 -0.43921328 -0.28990585 -0.48016995 -0.4721474 -0.1853725 0.11035653 -0.23077597 0.36127356 0.026013976 -0.20109151 0.4515165 0.014149139 -0.56916404 -0.49560833 0.6874455 0.082132116 -0.70828384 -0.9622556 0.006219826 0.26771766
16119 0.14339852 0.21636143 -0.6339212 -0.725941 -0.4749815 0.042100012 -0.3000707 0.050951887 -0.1894967 -0.21846202 0.62787515 -0.31700373 -0.48570287 0.10564983 0.86945295 -0.037066348 -0.9874892 -0.1628309 0.17943479 0.08065425
35876 -0.2604498 0.44381183 0.005427958 0.0589689 -0.5920038 0.35035864 -0.26098308 0.7909671 -0.83296096 0.25333455 0.17878707 0.55018216 -1.0442282 0.10356447 -0.20116161 -1.03381 -0.14082468 -0.5878114 -0.68784803 -0.43824714
18638 -1.128425 -0.2822475 0.2503 0.09806309 -0.31426576 0.44491097 -0.28573018 0.7899336 -0.38896438 -0.2575506 0.36253792 -0.018316498 -1.0393566 -0.08662162 0.61364466 -0.531275 0.039032314 -1.032314 -0.021116255 0.11827541
16631 0.1638942 -0.14796928 0.2241989 -0.43398649 0.4362193 0.5986457 0.08303865 -0.5328976 -1.2076007 0.043379802 0.36694267 -0.24009334 -0.5130963 0.75309074 0.16002557 -1.0312542 0.5031111 -0.90035653 0.68822235 -0.842078
21375 0.050411195 0.4838009 -0.45062286 -0.28861043 0.6847217 0.647835 0.15339467 -0.3990365 -0.5512824 0.45402643 0.7139271 0.26166585 -0.50847954 -0.18751359 -0.7875458 0.13201603 -0.79121846 0.1333552 0.23441781 0.0013900059
29886 -0.7419839 0.02627922 0.4366363 -0.0035213712 -0.03377614 0.51777095 0.22537279 -0.11237865 -0.52349716 -0.6169349 0.8242204 0.6091952 -0.5929875 -0.81564367 -0.036731992 0.28752893 -0.36589774 -0.6769781 0.00048374312 0.11692852
13504 -0.21384928 0.062194224 -0.5491421 -0.23433852 0.21085912 -0.17365107 0.7249529 -0.26280913 -0.66639435 -0.15496472 0.28112817 -0.20655656 -0.03933872 0.1644889 0.36053824 -0.48009852 -0.6217504 -0.4009737 0.30785486 0.53655386
37107 -0.10617212 0.15866914 -0.94877994 -0.970953 -0.63011074 1.3239806 0.4048694 -0.29265139 -0.12900153 -0.31463212 0.29843402 -0.2790184 0.024480041 0.044999454 -0.017991552 -0.19879484 -0.44691363 -0.37682062 -0.8300233 -0.10046114
20363 -0.49959144 0.25552106 0.21733993 0.0039775907 -0.2626435 0.3202831 -0.25228092 0.98450786 -0.932635 -0.032361288 0.42196244 0.16572696 -0.848764 -0.1353929 0.29177657 -0.44509494 -0.79758656 -0.5837073 -0.031940587 0.6630602
32753 -0.17333154 -0.02710167 -0.121574946 -0.5479441 -0.21096107 -0.055859488 0.74294513 -0.41147727 -0.56056285 0.20230569 1.4201014 0.26735938 -0.09161295 0.578977 0.009120737 -0.26336017 -0.26918125 -0.039785393 -0.635435 0.28243712
494 -1.2091023 0.2875646 -0.17477305 0.2945936 -0.021581456 0.6145455 -0.40637147 0.8948298 -0.86304396 -0.15758248 0.0005781172 -0.23298067 -0.66853935 -0.23915316 0.32059833 -0.39887974 -0.6533143 -0.8619963 0.2717777 0.19074069
33799 -0.47243068 -0.27758875 -0.38390326 -0.37418193 -0.18432392 -0.2699705 0.52339596 -0.55176556 -0.08085113 0.6057057 0.5650122 0.4124164 -0.92499673 -0.5019266 0.46599737 -0.49241138 -0.3017369 -0.2368673 0.5175053 0.26496914
9008 -0.1849873 -0.5557996 -0.91570455 -0.17815761 -0.2789922 0.60675216 -0.10540925 0.014999815 -0.67078084 0.19092447 0.292257 -0.028928403 -0.2189871 -0.28080043 0.053294864 -0.010630914 -0.69054174 -0.046762154 0.36097908 0.2714724
24830 -0.15900446 0.50058246 -0.67504877 -0.29311702 0.09907148 0.6787656 -0.31683576 -0.019380776 0.15489857 0.035550207 0.25568014 0.21497239 -0.88163716 -0.40152997 1.0078508 -0.3095717 -0.8969701 -0.16140948 0.38981602 0.18575893
26110 0.4749002 -0.13588575 -0.119993284 -0.44497076 -0.0550314 0.34002048 -0.22221424 -0.3847449 0.07035941 -0.2379627 0.4445472 0.5442239 -0.9781673 0.14618891 0.3420203 -0.6881609 0.21680842 -1.0079802 0.48631325 -1.4410473
26649 -0.54196644 0.044570204 -0.0451612 -0.49225065 -0.30359986 0.6990231 0.700905 -0.15841235 -0.9093491 -0.19849154 0.9130271 0.20220724 0.2630889 -0.4944375 -0.58416593 0.3393891 -0.049642928 -0.1555552 0.51219374 -0.67839277
21754 0.68157405 0.020664565 -0.22889936 -0.31661788 -0.44748083 0.57490236 -0.26809543 -0.053868107 -0.8347348 0.42411175 0.78963464 0.34439167 -0.66745967 0.2438869 -0.18959667 0.34719843 -0.5579829 0.10139963 0.38812205 -0.009627173
20236 -0.45965415 0.40197203 -0.10668814 -0.42413965 -0.37246034 -0.18296933 0.93746746 -0.56735957 -0.69819 0.5965802 -0.37403136 0.21376671 -1.3158026 -0.38418117 0.30125022 0.29652512 -0.59802306 -0.3854087 -0.18471293 -0.1815854
9395 -0.41365424 0.26676533 0.42393696 0.45064616 -0.83100134 0.047597554 0.8431695 0.33553666 -1.0553448 0.43210495 -0.27633473 0.6557543 -1.2617548 -0.017317317 0.18902993 -0.523317 -0.65531796 -0.5961591 -0.036756612 -0.119427375
11242 -0.28357497 0.5833402 -0.6658657 0.11353106 0.17163703 -0.104473114 0.3231663 -0.6191376 -0.61428285 0.12171933 0.22015324 -0.13076651 -0.6144664 0.0036684081 0.11211503 0.3195236 -0.35022095 -0.4139291 0.85528755 -0.57668656
22442 0.101114266 -0.35763526 -0.28102997 -0.76933753 0.15907401 -0.0027511779 0.852808 0.37755734 -0.14576371 -0.11396621 0.48201323 0.71721387 -0.421261 0.3063856 0.8204411 0.0937525 -1.02196 0.2508904 0.41596588 -0.44900987
9553 -0.14529857 0.37982902 -1.3674784 0.30652016 -0.6010452 0.58562756 0.79830503 -0.19467023 0.051888213 -0.16681212 0.22881022 0.3861539 -0.16745082 -0.09814145 -0.48040584 -0.57848334 -0.38795343 -0.48314223 -0.32973063 -0.04776889
29082 -0.67451787 0.11962355 0.2502784 -0.27691862 -0.45533317 -0.0881458 0.86108625 -0.41196582 -0.71560067 0.4664624 -0.24327034 0.31475687 -1.5045661 -0.35764483 0.2428227 0.089363806 -0.3401726 -0.06109031 -0.38377115 -0.2712396
15192 0.26866338 -0.2311646 -0.500058 -0.508016 -0.08080489 -0.10234806 0.0053985235 -0.24869126 -0.10506162 -0.00016983207 0.84537876 -0.03892447 -0.31236643 -0.6252603 0.1766122 0.020302918 -0.80034447 -0.5615681 0.54322755 -0.29044738
13857 -0.14163406 -0.32882494 -0.27861238 -0.59197736 -0.08202642 -0.18016405 -0.30235475 -0.1076988 -0.070883274 0.11773499 0.52996135 0.57492006 -0.7963804 -0.14109771 0.5634214 -0.24096456 -0.9496301 -0.47706765 0.11346906 0.32906613
12505 -0.05584196 0.4615183 -0.05328262 1.1832 -0.031005336 -0.12361733 -0.08286675 0.9121467 -0.56130767 0.22780603 0.92706645 0.2203192 -1.300495 0.34245342 -0.4370061 -0.83184785 -0.5186203 -1.1064223 0.03343336 0.04809789
6301 -0.55119 0.22239581 0.21930005 -0.0047598104 -0.48009038 -0.05574661 0.6772028 -0.113741145 -0.6857707 0.27886122 -0.2980168 0.7763565 -1.3102235 -0.33701658 -0.01771447 -0.39985913 -0.572352 -0.70674163 -0.28868002 0.17608853
27106 -0.58961356 -0.1674154 -0.82561576 -0.2343876 -0.14230923 0.6298461 0.8897108 -0.3658826 0.5400248 0.9675298 0.82565224 -0.9713162 -0.6129928 0.44853625 -0.6190107 -0.31509438 -1.1557206 -0.13108751 -0.17068474 0.22329319
4174 -1.023001 0.2639104 0.4590264 0.36475927 -0.6168604 0.09756284 0.5966384 0.40924802 -0.71076447 0.020578511 -0.3250938 0.24935041 -1.2691221 0.23615417 0.22143967 -0.31220153 -0.5278568 -0.66989684 -0.008635776 -0.09992129
21376 -0.3927423 0.78981537 0.083724186 0.14436996 -0.08300772 -0.017029904 0.22036275 0.6952427 -0.5922259 -0.29852226 -0.052726585 -0.14505553 -0.80509996 -0.40291163 0.25632656 -0.4061554 -0.60257226 -0.68577963 0.10243161 -0.2980621
22452 -0.6104908 0.029798586 0.46813533 -0.17025596 -0.18846586 0.6603477 -0.22147919 0.5432942 -0.6894758 -0.08953884 0.15844806 0.09937477 -0.827961 -0.7112741 0.22708341 -0.3098166 -0.7666472 -0.78434 -0.16888334 0.32632026
32060 -0.540747 -0.6257508 -0.8793013 -0.6601281 -0.19102784 0.6269968 0.008803882 -0.019834466 -0.38988173 0.91444236 0.45665115 0.30626917 -0.36509266 -0.35397115 0.18975654 -0.2221096 -0.1529096 -0.24831639 0.07889592 0.19283932
24207 0.24588962 -0.25442958 -0.33808097 -0.20741618 -0.75477266 -0.267383 0.45074293 -0.33838224 -0.1176868 0.4806962 0.031442028 -0.09548623 -0.9369685 -0.32995844 0.378173 -0.21151838 -0.8839221 -0.28152177 0.28563526 -0.34362367
33069 0.085550256 -0.346644 -0.6798343 -1.0108439 -0.9062219 0.78091526 0.6613721 -0.3979361 0.15390442 -0.19621554 0.19859494 0.08180237 -0.3468311 -0.1714214 0.36693433 -0.5679133 -0.39882413 -0.39851096 -0.4236189 0.18563218
20193 0.24032024 -0.5858189 -0.28928757 0.13720004 -0.22451349 -0.52241987 0.45578125 -0.3443248 -0.7785612 -0.4261373 1.0013944 -0.712991 -0.2977077 0.19188417 -0.08766876 -0.91688234 -0.12940091 -0.47557315 0.9248989 -1.019737
4793 -0.28040284 -0.25849867 -0.9104152 -0.51224375 0.3536161 0.14680046 -0.21410704 -0.23615828 0.02307069 0.6331094 0.5348125 -0.68903565 -0.56446725 0.91547596 -0.32314858 -0.6136413 -1.1594748 0.15238182 -0.2278205 -0.18567869
32718 -1.0710026 0.5093961 -0.016012467 0.30065504 -0.5322949 0.65923756 -0.16763963 0.82166517 -0.93997294 -0.22261834 0.47459805 -0.5094599 -0.102233395 0.03454212 0.5974248 -0.70583874 -0.80874604 -0.66001785 0.0054697166 0.37135053
6165 0.45263728 -0.33622834 -0.112649016 -0.452198 -0.050423227 0.016509965 0.18862517 0.10889981 -0.1960635 0.0529949 0.8342287 0.07529193 -0.5526138 0.11207434 0.91959614 -0.0834446 -0.5516467 -0.7325524 0.5333575 0.40764904
11271 -0.76032495 0.1034059 -0.41815287 -0.91103613 0.06487492 -0.25882417 -0.062214293 -0.38246903 -1.0702884 0.23651905 0.47249717 0.0062927576 -0.5659925 -0.6720804 -0.21980487 -0.036027107 -0.39222756 0.2161362 0.10652307 -0.16693966
28944 0.37693983 -0.06501794 -0.34628507 -0.4923547 -0.26540124 0.15882584 0.5227366 -0.24503261 -0.6496025 -0.59121823 0.9510574 0.16207759 -0.32731992 -0.45305303 -0.59933287 -0.110456176 0.5207852 -0.88678735 0.4459635 -1.3345345
9532 0.14622894 -0.12091205 -0.73371357 -0.91350937 -0.848088 0.5051843 0.29155412 0.0063537387 0.02694704 -0.34289432 0.0952607 -0.10759953 -0.42818305 -0.2408695 0.48033524 -0.23615544 -0.6495649 -0.13951974 0.23450918 -0.06495747
33952 0.19077048 0.06262715 -0.824855 -0.8049736 -0.69252026 0.0415792 -0.33359727 -0.027562246 -0.45490107 -0.13995866 0.52681714 0.22202851 -0.3136699 -0.2716485 0.14500678 -0.13238892 -0.825457 0.062128145 0.39253822 -0.32894966
17787 -1.1250116 0.1172572 0.11433846 -0.2880464 -0.8864666 0.44176984 0.31476825 -0.5309665 -0.63462657 -0.2714838 0.8765614 0.18144377 -0.0130663505 0.933981 0.2362894 0.1621803 -0.10475445 -0.1459992 0.379236 -0.11217238
7513 -0.10365484 -0.32410377 -0.27528673 -0.9117744 -0.0690701 0.8100977 0.28214356 -0.33323947 -0.1726375 0.1589916 0.44995156 -0.26038605 0.10250029 -0.8802192 0.16397902 -0.12243918 -0.9484562 -0.5834008 0.25803596 -0.057581935
37690 -0.43340155 -0.6045744 -0.6202397 0.004558101 -0.44285214 0.7049065 -0.113659084 -0.5079832 -0.30469093 0.31566834 0.7452761 0.4429417 -0.45504698 -0.26630712 -0.0036592158 0.0034665556 -0.5812909 0.05684324 0.575101 0.33443728
35822 0.39663082 -0.1275827 0.045074847 -0.7784421 -0.21454634 0.33596143 0.32119521 -0.1755975 0.27208656 0.38477966 0.14018673 0.019677145 -0.8999744 0.5221586 1.0320472 -0.49220178 -0.57625294 -0.8332507 0.54661363 0.122409165
7339 -0.07060895 0.31907275 -0.5732357 -1.0224081 -0.105776615 -0.16222094 0.7115951 0.07441552 -0.026344303 -0.0015979777 0.17556594 -0.32915887 -0.7973359 -0.42094496 -0.08532122 -0.22434509 -0.52201545 0.10927224 0.6098346 -0.0897877
8753 -0.21429545 -0.37472326 -0.035899214 0.24695617 -0.43027008 0.8863859 -0.4724734 0.6326881 -0.80293053 -0.012061113 0.43458405 0.25474375 -0.53271323 -0.7536473 -0.042679682 -0.4232595 -0.9354167 -0.63727677 -0.087522455 0.33143744
5210 -0.85865 0.24252339 0.026219243 0.45991918 -0.08951878 0.44274348 0.9159265 0.51393354 -0.32347506 -0.01941339 0.48289108 0.5432698 -0.48707312 -0.029212032 -0.46078703 -0.7610467 0.27903178 -1.303866 0.11788115 -0.03682579
24473 -0.39743906 0.26653713 0.2772405 -0.104845956 0.65661234 0.6881676 0.34047 -0.015932538 -0.8355856 0.022064332 0.14192697 0.2808752 -0.027661271 0.27766764 -0.16825469 -1.5479974 -0.623274 -0.9387884 0.82433075 -1.4965287
3990 -0.369925 0.6982665 0.021161431 -0.24104944 -0.37470868 0.49513677 -0.090541616 1.1118766 -0.87875956 0.4091241 -0.06609294 0.78425753 -1.3780541 0.13872284 -0.5092152 -0.48119166 -0.41158295 -0.49339625 -0.59204054 -0.6760912
13708 0.12446381 0.027337888 -0.66630524 -0.40627423 0.09771429 0.2746945 0.11569154 -0.49422246 -0.6619062 0.20666288 0.83501273 0.4338121 -0.16142848 -0.14752838 0.6080357 0.2553015 -0.7117906 -0.48395866 0.4110789 0.3882137
15940 -0.023030886 -0.6981773 -0.73692405 -0.13669752 -0.19850291 0.21903577 0.23159784 0.36928204 -0.55062395 -0.03661411 0.27900848 0.27131668 -0.34971005 -0.09928621 -0.16733038 0.10247843 -0.69457495 -0.6908919 0.27868196 0.6559726
37557 -0.016288925 -0.18077543 -1.1343371 -0.8525291 -0.6106448 0.9939172 0.537137 -0.66867363 -0.19813319 -0.37349576 0.11962966 -0.11509535 -0.26542813 -0.16034655 0.17448296 -0.4998011 -0.39924735 -0.2588879 -0.60089225 0.23024912
4757 0.13281246 -0.14150393 -0.67421335 -0.7049706 -0.36199826 0.18361104 -0.11454708 0.22069037 -0.042507917 -0.07575793 0.20987245 -0.24418782 -0.62981445 0.14713673 0.39722905 -0.0060735974 -0.74100655 -0.32287082 0.83129597 0.054009326
17420 0.69488394 0.03941539 -0.5214125 -0.4169521 -0.3335054 0.27866295 0.6515244 0.34380412 -0.0032655904 -0.42702183 0.8634758 -0.3167548 -0.4448818 0.81539667 0.30174422 0.2863971 -0.9193912 -0.38092485 0.46866298 0.6773403
22130 -0.010224187 -0.14510417 -0.15695369 0.052170333 1.1401391 0.09839942 0.5011785 0.1900769 -0.07615168 -0.6975824 0.870976 -0.2694738 -0.4423891 -0.068816446 0.2397652 -0.62728256 0.18993318 -1.3407528 -0.028370226 -0.8080105
13838 0.26761147 -0.17131971 -0.6731531 -0.42472616 -0.39520895 -0.20252317 0.40134722 0.00955266 0.049455605 -0.49497208 0.41054323 -0.27599794 -0.5649105 -0.25206488 0.78588 -0.26784417 -0.96290034 -0.26000094 0.5735044 0.0731459
22606 0.07305288 -0.028511737 -0.26148093 -0.73360276 0.11045405 0.5673797 0.32710162 0.14029106 -0.4800428 0.28058228 0.93956465 0.5480547 -0.4356461 -0.2620376 0.67460275 -0.5555751 0.11017132 0.2197711 0.5701165 0.22431053
30969 -0.008666741 -0.10657365 -0.75312394 -1.1856515 -0.70525765 1.0231954 0.5308303 -0.6646024 0.024217801 -0.6056164 0.2581783 -0.0967343 -0.28265595 -0.17513587 0.25880253 -0.43398383 -0.43585595 -0.3731134 -0.6836344 0.08584058
23818 -0.7575656 0.6195396 0.517907 0.35733652 0.2857404 0.48634765 0.30858332 0.014147535 -0.49264187 -0.23005268 0.31722805 0.45300245 -0.4661546 -0.1787666 -0.67408633 -0.0025710077 -0.91337514 -1.320072 0.13278635 -0.42020243
24347 -0.40028122 0.059091944 -0.59154284 0.15430063 0.40591118 0.31939957 -0.21242462 0.4980163 -0.36513603 -0.4475021 0.71677977 1.034354 -0.9779019 -0.6014456 -0.17466153 -0.35819742 0.16705553 -0.44367465 -0.15375757 -0.10006984
4539 0.14391738 -0.27833638 -0.85675126 -1.2903965 -0.73438025 1.0860016 0.57294995 -0.52228373 -0.09136699 -0.36462483 0.119610615 -0.090292506 -0.36884543 -0.198029 0.26240358 -0.4721628 -0.34180486 -0.39884302 -0.78873485 0.07271291
29715 0.30820867 -0.26538897 0.1527784 -0.62227595 0.10689859 -0.013655436 0.7783792 -0.55340254 0.40080133 0.49281153 0.44228983 -0.065883525 -0.93582344 0.32881698 0.45998332 -0.12988456 -0.5626802 -1.1472764 0.6847623 -0.088638
28419 -0.2936616 0.018571794 -1.145115 -0.9518982 0.024277765 0.9694258 0.78291565 -0.20537509 0.13917902 -0.720899 0.7405744 0.13109511 -0.12782162 0.46455628 -0.1936902 -0.60711557 -0.31335068 0.05163547 -0.65523154 0.41568872
29552 -1.1856567 -0.8797601 -1.140588 -0.50152916 -0.5919567 -0.31805107 0.1646553 -0.4301459 -0.23908687 0.17655425 0.49213344 -0.13214472 -1.2098211 0.42908877 -0.911888 0.5931201 -0.1222658 -0.5317107 0.18502794 -0.5962573
33206 0.67896694 -0.11520923 -0.5140836 -0.7889244 -0.6802124 0.1070968 0.3410527 0.09500127 -0.0667673 0.110519625 0.30571833 -0.3413818 -0.71733147 -0.32782885 -0.1918751 -0.4336933 -1.0840255 0.14664102 0.24964681 0.006959573
27173 0.053913448 -0.20988287 0.087305665 -0.55253166 -0.9297561 0.09908258 0.035612997 0.29010755 -0.036296926 -0.023106497 0.3033384 0.07432918 -0.7624782 -0.60627866 -0.62702656 -0.11308838 -0.6741649 -0.5878758 -0.028106183 -0.46383986
18825 -0.43350992 0.04197148 -0.43861943 -0.334128 -0.48022234 0.3175743 0.80105835 -0.047361366 -0.6002847 0.016827991 0.4906721 0.6490524 -0.31324014 -0.23772141 -0.5128041 -0.2137913 0.15990146 -0.4879751 0.6513524 0.4879987
15115 0.0016841018 0.6766983 0.43513742 0.22338587 -0.84033847 0.4060196 0.7149471 0.5744295 -0.4984279 -0.67216414 0.2385516 0.370137 -0.5662756 0.39910603 -0.013397285 -1.1308591 -0.08131277 -1.3651298 0.106236316 -0.079634435
18035 0.6664502 0.35730082 -0.14045942 -0.49831614 -0.048316445 0.24816109 0.3002669 -0.61879176 -1.1357454 -0.11510477 1.1663945 0.03757692 0.24863808 0.17829122 0.28692266 -0.96127754 0.087496355 -0.66988003 0.8463798 -0.70022357
19153 0.20653678 -0.068458065 -0.9135205 -0.830712 -0.21871056 0.61054677 0.171925 -0.39721155 -0.07949721 -0.281482 0.078986906 0.15391523 -0.26358697 -0.17847162 0.0048540113 -0.68695074 -0.5059699 -0.10143316 -0.16339149 -0.10089503
19645 -0.5425123 0.5890903 -0.19113587 0.23500012 0.49529183 0.21796817 0.4017676 0.8531836 -0.09727126 -0.28806743 1.1707746 0.951922 -0.7138314 0.19280928 0.007651494 -0.28836113 -0.050755754 -0.9621164 0.047419425 0.39818454
33471 0.32770982 0.23998578 -0.49922377 -0.6544741 -0.0058253673 -0.38306922 0.18714504 0.3698423 0.08771878 -0.17663169 0.5706689 -0.57745016 -0.95575434 0.013285437 0.7907252 -0.20508184 -0.84834105 -0.015224829 0.22454342 -0.10351658
36788 -0.4422998 -0.27381113 0.48971307 -0.45698148 -0.17832017 0.8103142 -0.4373638 1.1616714 -0.66139686 -0.023194589 0.12306028 0.32750276 -0.64288855 0.05709626 0.2937163 -0.51213837 -0.76694065 -0.66521144 0.17935716 0.073598705
1526 -0.9245967 -0.32064533 -0.9962461 -0.32502455 0.5411092 0.98108983 0.24354687 -0.1629388 0.52112013 -0.3793837 0.8928242 0.5397344 -0.99580324 1.2785246 0.3968442 0.29547903 -0.6020892 0.16579664 -0.058550905 0.06625095
11588 -0.16843784 0.44786224 -1.172671 -1.0398575 -0.75479454 1.1175889 0.38443503 -0.009381102 -0.22205953 -0.1889978 0.26914084 -0.5187941 0.28033197 0.020714894 -0.19874941 -0.0923728 -0.6571081 -0.6212793 -0.17440751 0.14263353
19675 0.06565172 0.0076515726 -1.2385179 -0.39810994 -0.56280154 0.39545873 0.7920754 -0.87416345 -0.5939351 -0.14016573 0.3819135 0.16527803 -0.11796261 0.12365068 -0.5364389 -0.4370679 0.15387008 -0.49043745 0.09247377 0.20843075
2442 -0.51962876 0.116515115 -0.30435595 -0.05787775 0.41227818 -0.353694 0.25468588 -0.36400282 -0.8555128 -0.6606181 0.24262866 0.26521334 -0.27297541 0.27197865 0.33476463 -0.90952474 0.09103016 -1.4688542 -0.22252832 -0.5330906
2397 -0.031385753 -0.44543946 -1.3081448 -0.70965666 -0.10497399 0.26433513 -0.09628055 -0.17592686 -0.5295833 0.23507541 0.65346825 -0.050741263 -0.12346487 -0.47682372 -0.101404466 -0.14770378 -0.41242656 -0.14028369 0.43351904 -0.049337544
28852 0.31095037 0.09379068 -0.9801878 -1.1696075 -0.41321182 1.2020664 0.4670415 -0.29122782 -0.10355131 -0.5603326 0.1652692 -0.32700783 -0.12574738 -0.13901795 0.09542383 -0.3013998 -0.4666057 -0.40027767 -0.6136444 -0.11463042
25166 -0.7228696 0.6618353 -0.010587249 -0.50494385 -0.83736706 0.6796369 0.71931744 -0.014794601 -1.1323696 0.70543003 0.04350311 -0.17685932 0.08903375 0.41107517 -0.010047267 -0.14770567 -0.7951505 0.23189273 0.13863194 -0.24673167
6790 -0.3523377 0.73788416 -0.25828075 -0.2603471 -0.49617428 0.5699785 0.084839016 1.1949657 -0.7528067 0.19468056 -0.16009398 0.5618949 -1.1630603 0.060064886 -0.38922212 -0.4174524 -0.35199162 -0.58838487 -0.8413654 -0.8654818
26963 -0.04789122 -0.19784847 -0.87424964 0.0019655188 0.72555304 0.44064942 0.5613185 -0.30560708 -0.27747494 -0.41289055 0.6588558 -1.3378758 -0.6499247 -0.29153582 -0.29143736 -0.03640526 0.45217046 -1.2510498 0.15846024 -0.65134984
26734 0.18791133 -0.44117844 -0.71523136 0.33630463 -0.6882556 0.81294304 0.5818188 -0.29163754 -0.7418133 -0.2128275 0.7156316 -0.48635483 -0.21388331 0.59897745 0.5707316 0.24323143 -0.52493316 0.07549614 1.1517719 0.3029319
30956 -0.014727021 0.12060705 -0.989784 -0.3955916 -0.7352705 -0.17174733 -0.12900943 0.19797346 -0.25593483 -0.28013295 0.22184163 -0.3513791 -0.69173735 0.4278939 0.5948827 -0.06382093 -0.82158476 -0.115145676 0.6899008 0.10956584
10154 -0.64251083 -0.024571622 -0.12706722 0.31420138 -0.3294812 0.6974124 0.12651412 0.26617134 -0.5008633 -0.0566513 0.14199093 -0.19676088 -0.5851998 -0.90865576 -0.44065455 -0.18181293 -0.7123496 -0.7969725 -0.13573086 0.38583767
17649 -0.646592 0.5976268 -0.28846255 -0.7519109 0.1031514 0.21204343 0.13153681 0.85665756 -0.62242407 0.17962602 -0.09050353 0.20832564 -1.0830779 0.7187283 -0.70563674 0.47708535 -0.22783837 -0.30515492 0.5534528 -0.29448408
14831 -1.0903815 0.14247566 0.15446717 -0.4263036 0.2021689 0.1447489 0.36430964 0.4214759 -0.75241745 -0.78929013 0.44241363 1.0799595 -0.23052858 -0.08208942 -0.29233378 -0.12911747 -0.5655526 -0.7206095 0.083381824 0.12736061
14352 -0.51040196 -0.20491013 0.32174453 0.59483474 0.34884778 0.69810647 0.020960975 -0.6561452 -0.7216925 0.053684108 0.35700163 0.055369556 -0.4414527 0.19361566 0.075077124 -0.9720137 -0.6989887 -0.68741846 0.78247035 -1.7959652
27933 -0.16854773 -0.37202048 -0.19878961 0.21363866 -0.54597574 0.10060855 -0.21338764 -0.50058836 -1.3644307 -0.5682442 0.20771067 -0.060676202 -0.14259414 0.5978117 -0.12935008 -0.6481926 -0.22085688 -0.972873 0.019865632 -1.3492554
24499 -0.69083244 -0.49004185 -0.31436262 -0.073881365 -0.51253575 0.5128921 -0.25571004 0.36700073 -0.6115085 0.548942 0.22330514 0.7565514 -0.4292198 -0.3716701 -0.002863378 -0.21263179 -0.537816 -0.94797474 0.028300574 0.18932138
18151 -0.6315403 0.086096965 -0.34540626 0.79464173 -0.07963656 0.07521014 0.8735234 0.5357501 -0.49778712 -0.55683035 0.70496464 0.7914935 -0.3828854 -0.2986095 -0.13389768 -0.82483876 -0.2450746 -0.59623325 0.09236517 0.15423591
910 -0.25578353 1.3074338 -0.32635516 -0.9250301 -0.33789283 0.21892655 0.5979803 -0.2523253 -0.084957995 -0.3938804 0.8305625 0.3958485 -0.84783125 -0.24945419 -1.4840782 -0.39555204 0.20725787 -0.58528304 -0.013861763 -0.7244372
29283 0.06721223 0.118576385 0.358379 -0.30135274 -0.17198187 0.0408459 1.2609943 -0.45187902 -0.29597414 0.79063064 -0.3394339 0.29111782 -1.4217361 0.31466126 0.4990275 -0.13454269 -0.5849822 -1.1560042 0.3904125 0.2778372
10402 -0.21747008 0.40815204 -0.39000303 -0.5657884 0.25886378 -0.116999365 0.39198467 -0.15414804 -0.5613007 0.10316508 0.39904198 0.1552392 -0.0560972 -0.6308288 0.22387181 -0.17319392 -0.29634556 -1.0176903 0.5853134 -0.3149241
9049 -0.07412099 -0.3892415 -0.8430435 -0.49684748 -0.73474383 0.46007743 0.11017715 -0.5043784 -0.09739767 -0.3695416 0.46273023 -0.09802678 -0.2246457 -0.01908739 -0.4302845 -0.16727461 -0.6966143 -0.2426468 -0.3118481 0.16600499
36148 -0.3177929 -0.3818579 -0.40207785 -0.6627189 -1.0335101 -0.6385492 0.37007672 -0.26389277 -0.20934933 -0.18248646 0.549238 -0.052458048 -0.68037605 0.024753343 0.61472166 -0.32409987 -0.33562505 -0.19596666 0.75396097 0.007820118
29439 -1.0956873 -0.123479374 -0.85911167 -0.417542 0.45370626 0.975384 0.19574606 -0.17191419 0.6033673 -0.30347058 0.95190233 0.5161699 -0.8049917 1.2607871 0.33920422 0.20157395 -0.6288696 0.08730721 -0.07326281 0.03262554
5362 0.7478819 -0.3862672 -0.1106462 -0.060040012 -0.11498191 0.9130351 0.5959203 0.0759212 -0.5061541 0.23009638 0.40035492 0.60099703 -0.44757915 -0.2463032 0.17646246 0.08550074 -1.1431696 0.007982639 0.686995 0.15912288
1030 -0.5546623 0.64833784 -0.045409806 -0.102111004 -0.43065336 -0.19034563 0.18137236 1.104292 -0.18739963 0.027250472 0.122134835 0.4549379 -1.3616202 0.45232594 -0.15429662 -0.21532385 -0.31498447 -0.7975472 -0.4726233 -0.7564
7598 -0.39648336 0.35537285 0.5796771 0.08574511 -0.35779038 0.03772168 0.13622749 0.4473012 -1.1085536 -0.08487193 0.40915325 0.39715272 -0.37819603 0.111315645 -0.19288369 -0.0017205232 -1.1850679 -1.4153029 -0.567147 -0.043010578
27728 -0.15105513 -0.16435654 0.081813455 -0.007895699 -0.18642232 0.30853447 -0.1002526 0.8976545 -0.92286783 0.18741694 0.20592397 0.59654874 -0.7383833 -0.24515921 -0.008910534 -0.24273077 -0.62802094 -1.0096467 -0.42550713 0.08504631
2556 0.17637444 0.08443293 -0.6206249 -0.5392377 -0.84342307 0.12818086 -0.16445233 0.32397112 -0.07533268 -0.45480818 0.41795838 -0.10395672 -0.82961833 -0.5068419 0.4653444 0.12684071 -0.96757984 0.112968 0.46986312 -0.33691555
13413 0.171316 0.58770967 -0.67139536 -0.09177433 -0.35644624 0.1706841 0.6497848 -0.24295887 -0.79532593 -0.586765 0.38489282 0.035811402 -0.19622296 0.46861273 0.54337144 -0.12710951 0.5153231 -1.7477573 -0.04261977 -1.138088
21447 -0.51985246 0.0668619 -0.12454601 0.1796173 -0.59573513 0.21840948 0.4041708 0.44332358 -0.93085814 0.13938572 -0.74855787 0.6767267 -1.4536661 -0.30229694 -0.015539175 -0.13835488 -0.83699626 -0.94150114 0.13590276 0.24909559
20024 1.0573897 0.19404319 -0.88197833 -0.086589195 -0.45282903 -0.045571394 0.6934863 0.26018173 -0.5725286 0.4468365 1.2416686 0.018305685 -0.6614709 -0.62999755 -0.007039176 0.08135159 -0.11008062 -0.5156442 0.16782987 0.045489863
24350 -0.4199336 0.21550201 0.28569224 -1.1687505 -0.43037248 0.049399115 -0.09703782 0.2743671 0.44504765 -0.6330224 1.0852613 -0.36864293 -0.7093416 0.51188266 0.48583117 0.49463806 -0.89436996 -0.5574372 -0.29338217 -0.5083703
1464 -0.05087797 0.06658976 -0.85542554 -0.20379063 1.1618454 0.603062 0.8316033 0.6354124 -0.46822092 0.016605435 -0.12762749 0.3854001 -0.4905718 -0.20584467 -0.30358726 -0.4898721 -0.26700494 -0.5185499 0.106382534 0.10436241
14683 -0.26468745 0.022804504 0.16061996 0.20138201 -0.64558834 0.12528162 0.38437167 0.2636172 -0.8181853 -0.2188215 0.9495199 0.5439819 -0.62193274 -0.42356294 -0.42448783 -0.76703966 0.0919793 -0.9027811 0.03263153 0.7408379
119 0.43081295 0.26552072 0.015080679 -1.0683017 -0.5078004 0.3487069 0.6039632 -0.0401134 -0.53490156 0.1654301 0.32009593 -0.38729364 -0.78590834 0.65831643 0.56243354 -1.0361351 -0.8032858 0.84910303 0.094228424 0.15530449
29827 -0.057317622 0.010750893 0.42849317 -1.1754069 -0.22607513 0.83912235 0.4246875 -0.027217878 0.08628833 0.21560682 0.3171892 -0.9194166 -0.45740774 0.18099295 0.5435598 -0.10127721 -1.0325797 -0.43320805 0.63519365 0.21360514
26007 0.6382235 -0.19657923 -0.38908428 0.047324724 -0.014482585 0.33090997 0.9135693 0.2136133 -1.1163145 0.16486181 0.3928425 -0.14225923 0.05516018 -0.2800009 -0.14974597 -0.14332116 -0.9746663 -0.16539004 0.9301914 0.043137576
23491 -0.14989346 0.9005661 -0.39872172 -0.5580367 -0.10239896 0.7521761 -0.083014406 -0.19852301 -0.35108873 -0.30208564 0.568736 -1.0606754 -1.2140212 -0.06291812 0.87645465 -0.39314884 -0.07631512 0.45463112 0.4484191 0.24605145
31104 -0.44670674 -0.019104168 -0.04732904 0.17916195 -0.17259099 0.64527184 0.420873 -0.3840358 0.067839526 -0.10665439 0.9877149 0.19886303 -0.8962686 -1.0084045 -0.34676757 -0.5708078 -0.2150234 0.11537158 0.80240524 0.37800142
24574 -0.58866656 -0.021366995 -0.70324856 -0.267081 -0.61022615 -0.2502648 0.2279127 0.461948 -0.11280284 0.24965759 0.07280456 0.34546784 -1.663263 1.1136763 -0.18945837 0.7389882 -0.3862073 -0.32741863 -0.5954274 -1.1119413
13028 -0.24768467 -0.14461894 0.04693049 -0.48471558 -0.25793964 0.47549793 0.8463862 -0.2171156 -0.4604807 0.43352723 0.91952765 0.6600534 -1.1037717 -0.43199477 -0.21766779 0.6800274 -0.107124984 0.04305617 -0.14888293 0.34045354
27497 -0.7339015 -0.13175978 0.60820884 -0.11407639 -0.115728095 0.15538937 0.36080134 0.004246511 -0.597693 0.39444268 -0.30565667 1.0136211 -1.1181854 0.1384201 0.11515926 -0.56001115 -0.95042384 -0.6744102 -0.19246322 -0.05924676
5567 -0.79039055 -0.31127563 -0.3162774 -0.8605731 0.59177345 0.9092718 -0.33106962 0.050392836 0.1879535 -0.30473864 0.67719686 0.4955448 -1.0002255 0.93154967 0.5778428 0.2696246 -0.5979719 0.37513903 0.2806179 -0.17319633
30720 -0.6162793 0.6567264 0.24294038 -0.34186292 -0.12901369 0.30981484 0.25862217 0.28868514 -0.4063556 -0.26813692 -0.44725487 0.5318383 -1.5236789 0.28367522 -0.7377895 -0.1546524 -0.35734197 -0.740634 -0.43695235 -0.5018647
17429 -0.53753716 0.044953514 -0.34928176 -0.6479249 -0.08710086 -0.048955802 0.16908126 -0.56240994 -0.5653296 0.8882811 0.27085888 0.5178397 -0.4653055 -0.66051173 0.15139084 -0.29996884 -1.0245162 -0.17647591 -0.03314287 -0.087561116
36055 -0.072817534 -0.5112118 -0.6887487 -0.84074 0.00041946044 -0.32867742 0.8338406 0.20672294 -0.2355589 0.07601604 0.82214755 0.61478376 -0.6000489 -0.03508123 -0.08570119 0.039936855 -0.31251636 0.054806877 0.42087594 0.18328458
11648 -0.30193096 0.14007694 -0.64386886 -0.15142821 0.12527962 0.02436242 0.015564972 -0.4251681 -0.9055162 0.02944119 0.5849041 0.23591979 -0.5006742 -0.29998457 0.33263305 -0.021168504 -0.889059 0.2849041 0.26307982 0.49046373
1841 -1.2436469 0.6062458 -0.31533232 -0.5621242 -0.29293737 0.6331686 0.2953878 -0.42300856 -0.87854314 0.084469475 0.6333252 0.066110194 0.39511937 0.8830572 0.51755434 0.17921454 -0.1447662 -0.28541476 0.04126039 -0.56305367
37651 -0.5029911 -0.10915886 0.8439877 -0.19801763 0.32745972 0.25018144 0.3721937 0.33989045 -0.3919438 -0.4487364 0.5365055 0.45474422 -0.57180744 0.20958632 -0.3401045 0.22542375 -0.46645707 -1.2265283 -1.566641e-05 -0.4693002
26647 -0.8726497 0.015905261 0.19857657 -0.3366573 -0.45221314 0.7618658 -0.5559893 0.93527013 -0.60277814 -0.40691093 0.35439098 0.31789255 -0.6908184 -0.1812813 0.4995241 -0.5587268 -0.14874905 -1.0393184 0.28517863 0.19810891
27024 -0.3474579 0.9082457 -0.23664941 0.11740305 -0.40223488 0.20745012 0.038610566 0.7737968 -0.97668093 0.12541305 -0.17125775 0.8353988 -1.1261412 0.47734383 -0.095107235 0.09649438 -0.5216246 -1.0814883 -0.54956025 -0.4624256
21334 0.0044990843 -0.0021490194 -0.99609727 -0.8955213 0.28995484 -0.020812353 -0.29708415 0.29665223 -0.3499099 -0.48789215 0.5506865 -0.41989648 -0.3714811 0.16324319 0.83038706 -0.1802073 -0.9099223 -0.019664414 0.69379646 -0.03721355
25575 -0.51823777 0.10763546 -0.623677 -0.46983945 -0.065220684 1.1560149 0.17121151 0.24883349 -0.18583809 0.16901265 0.97434306 0.19717322 -0.1813771 -0.638842 0.25221556 0.051558126 -0.31657943 0.3680829 0.96801114 -0.14620699
22899 -0.35791424 0.20479636 -0.27523634 -0.09156879 0.0036278793 -0.036082547 0.9240009 -0.41419503 -0.5536023 0.46144977 -0.102470234 0.6216554 -1.1221763 -0.34160653 0.07835245 0.05283366 -0.62559056 -0.19525984 -0.5354096 -0.01458773
32710 -0.50998765 -0.08501264 -0.46739128 -0.46324036 -0.29222915 0.22047843 0.19770448 0.09629776 -0.38386708 0.7563856 0.53539956 0.0017434299 -0.323401 -0.24473667 0.2169167 -0.34932438 -0.24296355 -0.41185153 -0.2911016 0.2738765
2420 -0.93848974 0.5949267 0.6895789 0.38711226 -0.45311153 -0.37764567 -0.07976894 0.4810427 -0.56590945 -0.8317062 0.75840646 0.17986244 -0.6283107 0.7336128 0.15668651 -0.53559643 -1.3176658 -1.0174952 -0.07508989 -0.40642658
21766 -0.54150057 0.5168116 -0.9214701 0.08156648 0.18873845 0.17481889 1.0187747 -0.06285985 -1.1659094 0.43913835 0.62900925 -0.790016 0.018604979 0.34533894 0.50651276 0.5288568 -0.10787553 -0.45292827 0.3722335 -0.19266713
20047 0.60879064 0.13514438 -0.812039 0.09938402 0.50363255 0.44588482 0.06674896 -0.25879154 -0.9123138 0.072639085 0.24080195 0.015290112 -0.35436308 0.14884815 0.55589134 -0.60097677 -0.045485612 -0.3900161 0.5308527 -1.2767798
23458 -0.28367287 0.62188005 -0.26787466 -0.51767457 -0.10746564 0.29799604 0.75706846 -0.46133372 -0.55368227 -0.35000098 0.84849364 0.034060318 -0.21877974 -0.19540896 -0.102917895 0.5097721 -0.35310146 -0.13791801 0.27899382 0.16120143
38 -0.61077005 0.40707743 0.48625657 -0.19248813 -0.06135615 -0.1546734 0.31150538 -0.4033021 -0.65226054 -0.5026668 0.521791 0.3690871 -1.3909433 -0.9952125 -0.14248623 -0.073279195 -0.5756289 -0.37912014 -0.5375478 0.34522185
33291 -0.68909067 0.071618386 0.36529553 -0.026814314 0.57130396 0.27010086 -0.27004746 -0.41191113 -1.441213 -0.44226986 0.50342274 0.17613213 0.10292031 0.47750005 0.1880665 -0.8917597 -1.1591338 -0.64915276 0.5440403 -1.7338556
1856 0.26799423 -0.15367785 -0.26875982 -0.17003152 0.19263673 0.25905 0.36957872 0.32732868 -0.54299074 0.031420868 0.45950508 0.15323593 -0.3316849 -0.69778097 -0.25008437 -0.43979597 -0.82827014 -0.35179913 0.17007877 0.3727995
32582 -0.35429323 0.21717452 -0.17210914 0.17199834 0.16269769 0.08648204 0.017097868 -0.69367546 -0.9964809 -0.255847 0.54651964 0.028873537 -0.42890987 0.24726942 -0.1874422 -1.5914887 0.25016508 -0.6748489 0.6363188 -0.946284
26190 -0.72640604 -0.08044097 -0.002048669 -0.89452475 -0.25823253 0.5486316 0.92323554 -0.21302308 0.48597842 -0.05618595 0.6881241 0.4503487 -0.90950257 -0.37784752 -0.004707432 0.90064543 -0.58961177 -0.15093286 0.70237124 -0.2728186
25677 -0.37211657 0.11754793 -0.9054109 -0.72221226 -0.1898418 0.8137179 0.95930445 -0.48435006 0.13961692 -0.40976116 0.8614942 -0.072974026 -0.34267896 0.11713181 -0.47594565 -0.60773265 -0.1511709 0.191734 -0.9149151 0.19408922
33216 -0.14206098 -0.26147795 -0.049661476 -0.33327004 -0.4115844 0.15552925 0.67846435 -0.3732372 -0.080349386 0.3625552 0.97628987 -0.10126743 -0.21382265 0.47868022 -0.4077728 -1.0225972 -0.71503866 0.13010603 -0.5687498 0.22092779
6575 0.16847591 -0.0082466295 0.3453952 0.00593562 -0.3925716 -0.56487995 -0.5604454 0.53523284 -0.62340444 0.4126634 0.7041709 0.558028 -1.4310167 0.106649846 -0.062564 -0.40401366 -0.57919705 -0.7230842 -0.20635965 -0.37104952
10487 -0.03990911 0.033607308 -0.46577424 -0.62385243 -0.37469774 0.27880952 -0.4369361 -0.588097 -0.051106848 0.16764666 0.71175915 0.17024922 -0.4456832 -0.35861367 0.1398818 0.24675195 -1.2914662 -0.364112 0.011541269 -0.11432284
31630 -0.05535027 -0.006062878 -0.71274555 -0.46982667 -0.3474171 -0.13030945 0.4515854 -0.057276033 0.110155046 -0.32134947 0.6663981 -0.10850144 -0.78419715 -0.7061247 1.1058517 -0.253182 -0.7582405 0.19253851 0.28821206 -0.15581971
33837 -0.6958101 -0.29095873 -0.82622576 -0.05991083 0.18009332 0.06538595 0.13552131 -0.3335805 -0.5864979 0.19919567 0.62861073 -0.46202102 0.13494655 0.47017398 0.72636026 -0.11965421 -0.3401509 -0.5815395 -0.39019448 -0.09410993
26877 0.008933662 0.117840245 -0.91277206 -0.1919571 -0.41454154 -0.44764972 0.31350648 -0.39539695 -0.64837533 -0.28659913 0.97321355 0.47975892 -1.0129926 0.0699977 -0.48460835 -0.094729386 -0.11291791 0.30058137 0.02472537 0.38462895
16716 -0.4182242 -0.014648974 -0.15348503 0.07773673 -0.522157 0.84856 -0.38966683 1.1687707 -0.80001324 -0.18271613 0.18338184 -0.27399677 -0.4416625 -0.10218208 -0.11960661 -0.4720301 -0.47809094 -1.0852892 0.074789785 0.26060292
19384 -1.537558 -0.32292944 -0.7239177 -0.6934748 -0.2581244 -0.18495658 0.8107343 -0.08622118 0.51847464 0.3858046 1.04526 -0.29145932 -0.3085417 0.6205496 -0.22286744 -0.1945662 -0.6761595 -0.1493792 -0.08177665 -0.056412254
17876 -0.25089014 1.0420635 -0.3391797 -0.31353357 -0.32825345 0.39576003 -0.045973904 0.2943634 -0.7122004 0.68785334 0.19791798 0.35404697 -1.3627006 1.333777 -0.26974487 0.14646876 0.1563586 -0.44624576 -0.22005512 -0.3606717
16689 -0.50531435 0.3499092 -0.2453981 0.47316983 -0.17828587 0.31168914 -0.37919655 0.40064767 -0.45028993 -0.2065044 0.18306275 -0.046971478 -0.6236237 0.023434538 0.20144695 -0.2175669 -1.0734288 -1.2463182 -0.21194439 0.46338037
15110 -0.14715634 -0.6623321 -0.5757204 -0.53899676 0.044237312 0.3501188 -0.010645225 -0.040543005 0.3225208 -0.04514018 0.8084201 0.073544845 -1.004876 -0.26435167 -0.17406434 0.99859 -1.0332012 -0.6410201 0.42556566 0.23051251
9143 -0.060683005 -0.04313313 -0.9134659 -0.55427 -0.52575403 0.59657073 -0.06299903 -0.66146696 -0.16779377 -0.22413713 0.13694933 0.43456483 -0.5334922 -0.15113217 0.8140759 -0.28123218 -0.91070104 -0.062215064 0.10577998 0.25958997
30706 0.21221833 -0.22264254 -0.7212829 -0.63003474 0.2675976 0.86353314 -0.0620322 -0.04642585 -0.37699452 0.40925726 0.8850334 -0.13367955 -0.44334134 -0.48592135 0.07009903 0.3574148 -0.44338304 0.02891831 0.21501775 -0.05886952
6541 0.17360854 -0.5222928 -0.7442935 0.49302334 0.21778245 0.65437376 0.1900193 -0.44994745 -0.09405845 -0.27148232 0.9434424 -0.05620057 -1.2000285 -0.4299477 -0.1730497 -0.13085878 -0.2526985 0.17177552 0.106312186 0.56436956
7721 0.024945965 -0.0035398207 -0.3830894 -0.98594236 0.951066 0.3507371 0.50686014 0.087227285 0.34888503 0.30725023 1.1697122 -0.20178722 -0.47659484 0.23167074 -0.31704322 -1.106425 -0.77310246 -0.071194835 -0.63645303 0.30536574
15901 -0.14432919 -0.21109593 -1.0341265 -1.0037556 -0.62629 0.67254883 0.5034298 -0.58971334 -0.094396 0.10345616 0.079439566 0.35993442 -0.46252483 -0.22900933 0.18272552 -0.60076576 -0.029084057 -0.5019303 -0.4352309 0.2574179
31197 -1.0951316 0.17750123 0.085444696 -0.89449424 -0.78194326 -0.07493128 0.6126009 0.50308836 -0.8215288 -0.086564116 0.46475026 -0.54152197 0.040871423 0.28822175 0.19938368 -0.50040925 -0.18616122 -0.08778698 -0.008334532 -0.029379694
30782 -0.46212268 -0.2594442 0.27767524 0.0060038236 -0.53153855 0.43225187 0.22864775 1.097918 -0.60418004 -0.023162069 0.21908179 0.38514352 -0.84450763 -0.54480195 0.16443889 -0.45525795 -0.3790129 -0.79821545 -0.21934262 -0.042225074
34026 -0.5366909 0.024497243 -0.7158713 -0.28760445 0.40302566 0.4032384 0.73914796 -0.41819036 0.17998405 0.81056887 0.7881568 -1.1219733 -0.7263534 0.68367255 -0.28788766 -0.5262854 -1.1085825 0.059320297 -0.3030785 0.44506568
14334 -0.44194323 0.7623677 -0.27331892 -0.49721774 -0.23180921 0.42106944 0.40426135 0.51932317 0.6753968 -0.4368525 0.96062577 0.43151703 -0.1836342 0.7934973 -0.22785166 -0.10385477 -0.51184636 -0.3793253 0.5194144 -0.39574772
32924 -0.9673294 -0.6244025 -0.3617436 -1.3328215 -0.5535575 0.43206093 -0.20039296 0.12597997 -0.2741679 -0.16161436 0.37800258 -0.0053429813 -0.35122123 -0.045819685 -0.10751674 -0.54728794 -0.2899504 0.13830112 -0.02870007 0.110196374
19037 0.12161691 0.21701711 -0.48270208 -0.8994186 -0.52116376 0.9560747 0.50726956 0.14339298 0.15521143 -0.3161792 0.17910956 -0.34508628 -0.3370539 0.0007871631 0.7585044 -0.39152047 -0.49505058 -0.2564292 -0.11371876 0.16769387
6569 -0.9119033 -1.1541942 -1.1660955 -0.45310172 -0.6829947 -0.3482319 0.09138451 -0.1234699 -0.31709957 0.2393219 0.35549626 -0.005947032 -1.3165628 0.29657093 -0.605116 0.7270432 -0.415997 -0.5681032 0.18527563 -0.08304841
16371 -0.007631981 -0.059668727 -0.48544797 -0.46653306 -0.7889156 -0.025201103 0.3272172 0.037002455 0.0010849969 -0.55810666 0.65027404 0.012894524 -0.38249066 -0.48878586 0.53341764 -0.23467474 -0.8605894 -0.13944979 0.7113896 0.061705388
34944 -0.105920196 0.5497446 -0.26750788 -1.4246899 1.0043076 0.22383997 0.2391401 -0.3011819 -0.6797232 0.65799385 0.42794445 -0.40227652 -0.6903831 -0.24149701 0.22912987 -0.4069836 -0.75298387 -0.5878683 -0.36021036 0.77109206
25125 -0.7992281 0.78146416 0.5136002 -1.1029463 0.13308959 0.48079577 0.7718634 0.1884288 -0.6096955 0.8283178 0.99346054 -0.5126857 0.025528828 -0.0027552987 -0.09587571 -0.47858182 -0.6042796 -0.043373562 -0.15356493 -0.05557695
28671 -0.063661516 -0.0314353 -0.37061036 -0.37125435 -0.20134199 0.24561304 0.37175333 -0.35197392 -0.56932956 0.17217773 0.7122141 -0.05984543 -0.43526074 -0.6836391 0.073536895 0.14338268 -0.5597501 -0.3440749 0.20845549 0.5390539
14593 0.33583042 -0.26007372 -0.3139541 -0.12435782 0.09030002 1.1299546 0.031440333 0.5208408 -0.7165405 0.16088302 0.3952543 0.49347278 -0.10270743 -0.33060896 -0.15971047 0.11395707 -0.7354961 -0.8113279 -0.16904804 0.3015946
14578 0.4213052 0.13902564 -0.66723865 -1.0995979 -0.1759406 -0.032059714 -0.06813178 0.78041935 -0.4234282 -0.38316506 0.18217576 -0.37273383 -0.5930835 0.38906163 0.32063696 0.01041945 -0.6841373 -0.3746452 0.3325568 0.15608911
1032 0.017975379 0.47756842 0.48700178 -0.9570873 -0.10456159 0.33182633 -0.17409973 -0.39679518 -1.000044 0.1130443 0.33183202 -0.39070418 -0.8966303 -0.07934352 0.22101921 0.3502279 0.005632769 -0.48472834 0.6757414 -0.52648073
15770 -0.5654456 -0.33145455 -0.4643377 -0.6320817 0.108843155 0.39645976 0.31111485 0.12820393 -0.024018634 0.7807171 0.59099966 -0.05303514 -0.28008783 -0.5028099 0.3484378 -0.19462019 -0.50184256 -0.40534773 0.3714156 0.18588154
16778 0.42100143 -0.33076426 0.31661817 -0.74587816 0.18163136 0.18277109 0.6340092 0.14525379 -0.09953995 -0.12444969 0.02958585 0.4661338 -0.95399886 -0.42840692 0.15085068 -0.35428247 -1.2057105 0.126704 0.19750938 -0.3603434
7090 0.45576957 -0.52866095 -0.83584946 -0.16803503 0.044061534 0.4608575 0.3220165 0.23805937 -0.86015767 0.9945927 0.642237 0.09215713 -0.5080171 -0.08495143 0.25701785 0.20244668 -0.28392273 -0.48987812 0.28481573 0.4036867
23958 -0.286854 -0.2172372 -0.05767322 -0.07564479 -0.26383308 0.5652856 -0.089694284 0.6371065 -0.61667156 0.202883 0.11300996 0.04794624 -0.3875757 -0.7129161 -0.17525944 0.01871772 -1.076455 -1.3860785 0.16531023 0.2836604
13995 -1.2121649 -0.35387853 -0.53634536 0.21345353 0.32532266 -0.43244267 0.5061518 0.5808813 -1.2170025 0.025848854 0.13007276 0.48663813 -0.8082438 -0.017347634 0.17349708 -0.17704792 -0.2749485 -0.60796285 -0.3334143 0.33271074
22459 -0.7720622 -0.23538648 0.21322922 0.0049202256 -0.61461693 0.7313706 -0.20844887 0.7155891 -0.90932304 0.14138618 0.13801652 0.17324454 -0.4057279 -0.43989873 0.042887535 -0.62161493 -0.819715 -0.63611054 -0.1548043 0.23254466
30990 0.017720526 -0.0032990084 -0.74015844 -1.1116225 -0.48669982 0.47060725 0.59006125 -0.4572622 0.025524294 -0.5111217 0.2566539 -0.23932354 -0.46976814 -0.16003712 0.4591415 -0.5488999 -0.23042263 -0.2837406 -0.4332439 0.28927103
22491 -0.29031885 0.25845954 -0.13375354 -0.80844784 0.0752701 0.14360029 0.3036363 -0.6049982 -0.58980757 -0.5964018 1.0706924 0.085387185 -1.0417082 -0.51567423 -0.52603716 0.5014165 -0.111490175 -0.31676093 -0.50198287 0.620053
8172 0.01114486 0.11548867 -0.40213242 -1.0063455 -0.3490948 -0.44276828 -0.11884782 -0.37478855 -0.1267906 -0.30436122 0.38701522 0.14016452 -0.7760249 -0.06811777 0.7341243 0.29377052 -1.3507901 -0.34043095 -0.090975545 -0.4314538
19962 -0.0014835441 0.51128846 -0.7261995 -1.1221844 0.21602638 0.024533179 0.15156588 -0.25702983 -0.41158482 0.34233317 -0.0070074685 0.09586252 -0.9301288 -0.35266677 0.9406913 0.23807785 -0.5990618 -0.48172972 0.02285885 -0.08992417
24839 -0.6639175 0.38401437 -0.074535444 -0.5511263 -0.55813426 1.091326 0.39359117 0.06285694 -0.20696752 0.37769437 0.5106054 -0.19751942 0.02200241 0.6211949 0.540321 -0.15302831 -0.47992 -0.07087976 0.80701995 0.2257727
23430 -0.88586855 -0.48865592 -0.7032084 0.018285856 0.50218785 0.28762725 -0.103075504 -0.6271405 0.317701 0.2987843 0.6948604 -0.20681664 -0.9913591 0.98063064 -0.2927597 -0.32582232 -0.8717478 0.12940462 -0.19874898 0.035907537
25179 -0.31248665 0.42169344 -1.1809765 -0.7980309 -0.28206068 -0.21572705 0.6757169 -0.51876974 -0.416428 0.396673 0.80284494 0.46472105 -0.31163132 -0.17507945 -0.3180001 -0.3674 0.0019460614 -0.28304273 0.49318013 0.29585898
2159 0.61260504 0.3021851 0.11298332 0.45575744 -0.16018339 0.7361062 0.45033893 0.10250952 -1.1455945 -0.8439115 -0.009632812 0.51967543 -0.54003096 0.31494674 0.38138932 -0.53932184 -0.42518502 -0.46962205 0.28362682 0.23731348
31935 -0.9287356 -0.16304882 0.6571896 0.40678647 -0.35603234 0.92488474 -0.036862794 0.71320945 -0.6396063 -0.0030859727 0.52318245 0.18045186 -0.403393 -0.15025651 -0.090872906 0.10806601 -1.3657461 -0.69610316 -0.092342034 -0.009554404
24376 0.067556106 -0.4118619 -0.36205658 -0.4481138 0.35614306 0.23006923 0.9352879 -0.11158326 -0.42490315 0.0440546 0.2848214 0.6230194 -0.61122173 -0.45438775 0.08596835 -0.10802268 -0.693302 0.15053546 0.7735332 0.10812414
27596 -0.020187095 0.15914631 0.4025898 -1.3876815 0.77899593 0.5587123 1.1645244 -0.007047073 0.04366297 0.29667825 1.2994536 -0.17462923 -0.11701414 -0.13506585 -0.26104864 -0.64640415 -0.40635237 -0.27201623 -0.28389406 -0.3636599
29303 0.03016354 0.03488778 -0.6202462 -0.90144295 -0.5056749 0.5409803 -0.13059437 -0.7510061 0.10326036 -0.4919455 0.46043152 0.33255216 -0.77414036 -0.41083977 0.08607595 0.21552202 -0.8874827 -0.3601896 -0.28386554 0.27495182
36837 -0.83067155 0.057743773 -0.4986337 0.32413983 0.5525449 0.9864185 0.5893949 -0.5434138 -0.3242333 0.45325398 0.3491492 0.56950337 -0.32252535 0.009890561 0.005822873 -0.30204797 -0.12299955 -0.31055203 0.07404708 0.26099536
23228 0.70179665 0.7012952 -0.2807609 -0.17283289 -0.32179466 -0.43649608 -0.18124902 -0.19876187 -0.7708205 -0.70128125 0.665996 -0.82167494 -1.2364247 0.502191 -0.5321043 -0.46903715 0.12658304 -0.8860624 0.5906527 -0.72531545
11124 -0.35766354 0.107938394 -0.51792234 -0.21296398 -0.07951028 0.4696174 -0.432149 0.62341577 -0.5775852 0.052950397 0.07058158 0.18340512 -0.48074204 -0.20843562 0.27920374 -0.5860956 -0.61299944 -0.7831972 0.0916278 0.48537517
9006 0.6911998 -0.57264936 -0.6408378 0.068033785 0.44958773 0.36296865 0.1717078 -0.34966785 -0.65539175 0.277717 0.6304722 -0.10394034 -0.45618576 -0.5007215 0.3751817 -0.38163072 -0.8541705 -0.13137786 0.52652764 0.19587651
34095 -1.3325671 0.52585644 -0.32443056 -0.46567518 -0.09690284 0.66154504 0.094662994 -0.7024643 -0.47316757 -0.065276116 0.5190771 0.27283284 0.0013375293 0.84967583 0.6006543 0.28867382 -0.21678273 -0.51099235 -0.0071959947 -0.30033067
25451 -0.28393662 -0.6515564 -0.5019171 -0.4094949 -0.29990274 -0.013498908 0.3902688 -0.1539103 -1.0391895 0.08970116 0.43547672 -0.7485472 -0.08299722 -0.48629948 -0.15116332 -0.31376353 -1.0348095 0.529158 -0.25341263 -0.66194415
3160 -0.03264235 -0.122064576 -0.087744996 -0.5543502 -0.06943893 -0.030140612 0.05666061 -0.3005757 -0.98963135 0.53594035 0.5348838 0.15170886 -0.55142426 -0.5383588 0.59301853 0.2728389 -0.5483309 -0.35056582 0.18657307 -0.023086851
32451 -0.105798796 0.33710483 -0.95183116 -0.0061152824 -0.22912586 0.07124457 0.3900895 -0.25179148 -1.2254996 0.35937592 0.8011096 0.11844172 -0.74460816 0.34009534 -0.2093442 0.4695544 -0.16338152 0.3809637 0.15742192 0.41522563
31785 0.16661768 -0.23976192 -0.8843749 -0.5379111 -0.07366211 0.066222176 0.81841403 0.28864384 -0.17924447 0.22945718 0.7161658 0.7965577 -0.3936203 -0.3339422 0.70443755 0.57441753 -0.86215276 -0.37096485 0.3758952 -0.053921994
10332 0.07019864 -0.17364348 -0.8385542 -0.28932497 -0.22232707 0.192847 -0.040977035 -0.17580219 -0.35602444 -0.03137832 0.7039706 -0.42928556 -0.0073730648 -0.2833477 0.74832255 0.37554014 -0.8558617 -0.40220287 0.062178902 -0.63811517
21090 -0.103973605 0.21851876 -0.7927523 -0.53828293 0.439588 0.2511087 0.2169603 -0.68219876 -0.6599012 0.08718371 0.96323615 -0.37525475 -0.7141978 -0.3574493 -0.00021900241 -0.3363556 0.28330767 0.10433364 0.27968568 0.42176202
36959 -0.4579244 0.15783289 -0.24141783 0.542891 0.024259554 -0.069011346 -0.385262 -1.0118085 -1.6173277 -0.34664902 0.71941966 -0.13880783 -0.8579187 0.2688848 0.41201138 -0.28197023 -0.101560965 -0.21598561 0.520912 -1.5167717
12731 -0.19756083 -0.47836652 -0.053790104 -0.20294245 -0.3511074 0.32916445 0.04412712 0.41675657 -0.713295 0.4492408 0.388654 0.15191169 -0.60324746 -0.67517644 -0.0709287 0.22283386 -0.6594765 -0.86420923 0.38531876 0.49116528
13177 -0.26575992 -0.34273773 -0.155393 -0.07461048 -0.32887104 0.46208152 -0.38038737 0.8034714 -0.44495296 0.15294376 0.18434778 0.10137825 -0.45874053 -0.84767145 -0.080781944 -0.52080464 -0.9170393 -1.1129844 0.42674577 0.028776893
9042 -0.65534526 -0.063502654 -1.2853732 -0.2703736 -0.56903833 0.768456 0.7667801 -0.8178226 -0.19118915 -0.33065242 0.50806504 0.29529563 -0.18634607 -0.43016064 -0.0566789 -0.3820827 0.5423363 -0.55311245 0.054627907 -0.025264777
27655 -0.8313129 -0.017185742 -0.49835536 -0.265053 0.20676924 0.6847009 0.023049954 -0.4987713 -0.9515064 0.21459237 0.03213815 0.50844496 0.15822153 0.66117483 0.62094057 -0.18986267 -0.03809695 -0.832542 0.5859757 -0.74498236
18507 -0.29825696 0.43176085 -0.8326542 -0.06396978 0.12902564 -0.26843944 0.31359133 -0.36803952 -0.949913 -0.030902835 0.92949575 -0.11688225 -0.8861564 -0.39335006 -0.07214188 0.3145647 -0.61370474 0.20940742 -0.088800035 0.6960582
35061 -0.5251823 -0.24599664 0.25963435 -0.40182224 0.17579666 -0.002080456 0.5596641 -0.41138828 -1.3819419 -0.5073756 0.27837145 0.13914464 -0.5512975 0.7012125 0.6314891 -0.44658607 0.36207673 -0.6494541 0.5161638 -1.5459194
3122 -0.6849079 -0.07722221 0.72653353 0.14582193 -0.011660597 0.12878136 0.16088605 0.28374562 -0.43733165 -0.77007055 0.5343861 0.5830899 -0.34120873 0.25664964 -0.12299632 -0.056832135 -1.4621234 -1.3687568 -0.3189337 -0.53071696
11227 0.43257827 -0.0766218 -0.55163604 -1.0406799 -0.069740355 0.6723344 0.31624046 0.3757739 -0.16282366 -0.680145 0.5508607 -0.037690774 -0.74564624 -0.29375955 0.12395945 0.23051068 -0.21254651 -0.09424381 0.47882444 0.42471102
17596 0.32291886 -0.29280624 -0.9057153 -0.522634 -0.36384967 -0.019035699 -0.2690073 0.60691154 -0.24803677 0.17946833 1.1564815 0.34334087 -0.6697866 -0.27482638 0.74993634 0.49408567 -0.51825285 -0.6266069 -0.23459698 0.0023021565
27669 0.5898293 0.034687385 -0.15933986 -0.7635162 0.31705958 0.10269032 0.034461617 -0.2889081 -0.26081422 0.68057644 0.3611148 0.024006143 -1.043074 0.21716046 1.3829328 0.22693713 -0.8795927 -0.8193524 -0.15269868 -0.354501
28417 -0.8780482 0.6109781 0.09969709 -0.63266975 0.024640478 0.40440845 1.1335996 -0.53956777 -1.3610636 0.2836309 -0.27506104 -0.3015929 -0.13859484 0.3562722 0.3235456 0.3975301 -0.36766317 -0.41958216 0.28901568 -0.26048732
16723 0.3314706 0.11899838 -1.041925 -0.8968723 -0.45777017 0.5915945 0.630409 -0.32677874 0.3083312 -0.7217968 0.27204624 -0.333227 -0.22086215 0.21432693 0.3098679 -0.221334 -0.5363513 -0.68961513 -0.1779833 -0.014233411
27843 -0.49700955 0.28794137 -0.29009935 0.044765294 0.33943596 -0.028123295 0.15451024 -0.5876632 -0.6056518 0.06660779 0.5036885 0.70909286 0.176874 -0.14119062 -0.2035285 -0.5782164 -1.1704346 -0.8430499 0.24209009 0.090045035
27874 -0.5231581 0.0992405 0.4718138 0.31471208 -0.1952217 -0.18726528 0.32957393 0.3456694 -0.7519265 -0.7272198 0.3978035 0.60213584 -0.62965953 0.24489407 -0.35240415 0.011228319 -0.9372791 -0.97395575 -0.3065189 -0.35073793
6491 -1.1679544 -0.48009402 -0.9414042 -0.42053872 0.84112036 1.3251032 0.13909209 -0.095408104 0.40608835 0.049197674 0.7472504 0.7981952 -1.0384854 0.8152734 0.96828294 0.25676733 -0.46502927 0.12432202 -0.07251387 -0.29930532
10689 0.6363496 0.5919357 0.033700086 -0.54511404 -0.2530739 0.30538756 1.3415672 -0.0957619 -0.73787934 -0.34764662 0.821283 0.14977334 0.13914728 0.143473 -0.8234998 -0.014012576 -0.6056361 -0.22287796 0.9185429 -0.9115828
30373 -0.45353806 0.3725213 -0.12786724 -0.4620644 -0.09454392 0.77721447 0.029753039 -0.6399298 -0.26878384 -0.564169 -0.09057813 0.39284477 -0.49929854 0.56130767 0.51951605 0.8311371 -0.8764807 -0.8364888 -0.36538658 -0.41582352
25706 0.086459264 -0.2571548 -0.3384471 -0.25772086 -0.06075614 0.8400223 0.6797589 -0.49997896 0.25793368 -0.5901863 0.84281284 0.36390018 -0.08433675 -0.57818395 0.23347434 -0.3868272 -0.7870025 -0.07676867 -0.047259483 -0.01932631
13903 -0.947993 0.33967602 0.25107226 -0.2915167 0.07086531 -0.077338606 0.9083382 0.17106612 -0.6302112 0.3258062 -0.7556341 0.39751685 -1.2761117 0.034867153 0.39676756 -0.31430575 -0.84049296 -0.5994027 0.16287293 0.046525773
18564 -0.26185668 0.17802753 -1.0514517 -0.31180325 0.23597258 1.0549812 0.7256478 -0.22131968 0.9314516 -0.25412968 0.8812829 -0.28937218 -1.0751172 0.22909704 -0.4876251 -0.13532594 -0.5695873 0.04277111 -0.5841689 0.45283106
5694 0.08688333 0.4810111 -0.20804514 -0.8954617 0.014993139 0.17808259 0.06708872 -0.7114629 -1.8489159 0.17474811 0.02773274 0.029679546 -0.52875227 0.091188826 0.80566674 0.2292777 0.089996524 -0.56631744 0.67379266 -0.5642067
36709 -1.0098982 0.3435659 -0.62744206 -0.7291033 -0.7069355 0.8362479 0.41716832 -0.23618643 -0.60963494 -0.4586144 0.67198426 -0.24015006 0.5287993 0.49904853 -0.049909696 -0.11706536 -0.2352849 -0.08641934 -0.3714628 -0.3158877
32987 -0.9693079 -0.06149649 0.5898764 -0.3578226 0.59848577 -0.15205917 0.63576895 0.30014512 -0.51928633 -0.39038166 -0.10673929 0.8731277 -0.5598405 0.3755278 0.07161878 -0.37935898 -1.2327662 -1.2510083 0.5517082 -0.3949411
5199 -0.44000402 0.6487018 -1.3451928 -0.5537339 0.24220084 1.220732 1.0182484 -0.6969068 -0.2549618 -0.35612676 0.67483485 -0.11767833 0.05203271 0.33832195 0.4463884 0.14949365 -0.5843504 -0.24043275 -0.31819355 0.6543442
17580 -0.66704094 0.13251829 -0.08077431 -1.3545645 -0.52419895 -0.21846093 0.12991442 0.1076179 0.29335418 -0.15713374 0.9356124 -0.45144865 -0.21935402 0.4522363 0.7372154 -0.032424826 -0.6255749 -0.5124658 -0.16335344 -0.67742705
23108 -0.52107245 0.6085685 0.065975785 -0.22269312 -0.37786546 0.45329437 -0.06877073 0.83397955 -0.4640135 0.10077006 0.017539276 0.89615566 -1.6595664 0.41959184 -0.7549521 -0.38518828 -0.44837525 -0.565644 -0.94456875 -0.5268826
25854 -0.34317538 -0.3892476 -0.12676907 0.111639604 0.72108907 0.42174092 0.4667402 -0.045044586 -0.52486736 -0.23444766 0.7056367 -0.6617133 -0.5938561 0.12476525 -0.30691805 -0.25050363 0.6317309 -1.5833441 0.4808889 -0.43128416
9705 -0.3791334 -0.04858706 -0.5492759 -0.3625188 0.40950438 0.8781034 0.25985235 -0.06961738 -0.4774842 -0.09634913 0.8068686 0.1538903 -0.5941881 -0.7954507 -0.12929766 -0.098587506 -0.11971857 0.45909715 0.31475547 0.27086747
20607 0.35848513 -0.4245974 -0.9455048 0.72714794 0.022096047 0.30305207 0.09326073 -0.029064184 -0.93791956 -0.8681504 -0.13922161 0.7141649 -0.85439676 0.2593453 0.30940622 -0.67270267 0.13311741 -1.4874758 -0.22816981 -0.84223783
33833 -0.3887074 0.43689895 -0.2537044 0.470644 0.10406861 0.34361395 0.10073251 0.89458025 0.022451926 -0.26416004 0.54415196 0.4148185 -0.88720644 -0.16103539 0.061759423 -0.79461896 0.082081944 -1.1472743 0.17502809 -0.11612489
35171 -0.34182027 0.016792193 -0.2459411 -0.7415347 -0.31842607 0.45853972 0.8648009 -0.51874304 -0.48661608 0.23014876 1.0192252 -0.3660374 -0.2290676 0.06262546 -0.40704346 -0.20661883 0.3155044 -0.35613263 0.67586315 0.6277877
17242 -0.5985878 0.23191795 0.18562475 0.2773214 -0.14584842 0.28173068 0.3004566 0.63152874 -0.4324399 -0.81825006 0.25616762 0.48552915 -0.20537266 0.18250468 -0.43318826 0.17554642 -1.3887305 -1.4229128 -0.2385387 -0.6237992
3059 -0.08431227 -0.36527294 -0.56274694 -0.7528086 -0.15453796 0.20771825 -0.060035005 0.06573245 -0.31868625 -0.067499235 0.7071172 0.14620143 -0.38829848 -0.5214547 0.14742835 0.07492325 -0.7211841 -0.23463918 0.24996018 0.31896928
14712 -1.1575551 -0.07431897 0.08457305 0.2991013 0.09760448 1.176066 0.10352855 0.6588794 -0.6411021 0.007293976 0.31727576 0.3118866 -0.48454586 0.2518193 0.4738753 0.20833805 -0.42732707 -0.5309528 0.20861703 0.41678318
19504 -0.6438771 0.30740866 0.059214026 -0.07035237 -0.16017899 0.54754317 0.015303092 0.64814097 0.119386375 -0.16643484 0.52112854 0.19647929 -0.52765197 -0.40353942 -0.03863301 -0.6916137 -0.5378483 -0.77296066 0.34314045 0.4781997
27031 -0.42210189 0.22315118 -0.024703417 0.44280934 -0.05205607 -0.007144301 0.5310528 0.6350974 -0.41931874 -0.31338185 0.8820988 0.9979463 -1.0158393 -0.16002642 -0.22675015 -0.45154014 -0.24459921 -0.26537278 -0.017360296 0.4281991
25469 -0.37363562 0.20778324 -0.08744418 -0.32816407 -0.1271356 1.0157475 -0.23041025 0.60949826 -0.825271 0.06387503 0.3196771 0.4395505 -0.2595554 -0.007799768 0.25377363 0.3388938 -0.53889686 -0.99244714 -0.20094721 0.37662736
36326 -0.9458384 -0.3099841 -0.17216055 -0.10088532 0.09922625 -0.13401322 0.7329331 0.8464771 -0.35986385 0.32687563 0.71777374 1.650397 -0.5498182 -0.13934861 -0.3813744 -0.72144765 -0.38604787 -0.933642 -0.24877027 -0.38360545
18622 -0.30144238 0.118023 -0.27838978 0.32820857 -0.4384486 -0.08456703 0.601084 0.15935281 -1.0690612 0.34819856 -0.5412251 0.65361655 -1.4524006 -0.2221832 0.23746856 -0.46952313 -0.32240024 -0.5299568 -0.35111645 -0.2469847
33679 0.26779217 -0.11835429 -1.213484 0.38298112 -0.55955756 0.31619552 0.7678835 -0.35978037 0.3034573 1.0247006 1.2345793 0.41086227 -0.32140344 -0.33466816 0.4590936 -0.37601817 -0.40237015 -0.3998705 0.36937138 -0.95348275
34002 0.28103676 -0.36847278 -0.051462844 -0.74092585 -0.11684502 0.23806643 0.56230175 -0.46855232 0.108709104 0.15210927 0.6953877 0.2082991 -0.6959598 -0.2566135 0.69511545 -0.047494117 -0.25903997 -1.2054794 0.3784272 0.4775118
27983 -0.18562402 0.14279296 0.1206296 -0.2525797 -0.5074595 0.2723813 -0.14936645 1.2086972 -0.8699649 0.20276386 0.6939013 0.39254016 -0.2920517 -0.37803596 0.2232077 -0.27463207 -0.6218008 -1.2151663 -0.8680089 -0.34350643
8759 0.026616903 0.23733747 -0.36172944 0.087141596 -0.33381572 0.14808932 0.099687174 0.53842497 -0.17164297 -0.27718955 1.2864213 0.922821 -0.43072456 -0.0058349236 -1.2234915 -0.67878413 -0.24037105 -0.92669785 -0.2205036 0.14320244
28522 -0.15755734 -0.0795204 -0.5156603 -0.39795208 -0.42758492 0.6489358 0.318685 -0.56185216 -0.26874095 0.796427 -0.18781991 0.08852805 0.0023792267 0.012311602 -0.4235846 -0.46233293 -1.3417026 -0.2050551 0.32175803 -0.64659
26749 0.22898819 0.118361935 -0.061958786 -0.92366374 -0.07932619 0.45007107 0.20062737 -0.5487189 -1.1072036 -0.9947736 -0.11289988 0.15668164 -0.48037425 -0.14920278 0.30186674 0.18643421 -0.5866611 -0.84289813 0.31788975 0.5772
32069 -0.93057626 -0.29355696 -0.7115922 -0.57775575 0.5261009 1.1430407 0.24616982 0.104226634 0.43180382 -0.44167092 0.50337565 0.6602817 -1.1150924 1.2039719 0.71108884 0.61918217 -0.6282665 0.1452296 0.19236515 -0.39637652
4698 -0.83673316 0.4170476 0.23830013 0.49506834 -0.31513932 0.91586584 0.049933836 0.8251095 -0.9212937 -0.48152408 0.45881477 0.33358186 -0.56861883 -0.44590822 0.73517704 -0.20188889 -0.43094477 -0.65676636 0.41738707 0.18740177
3306 -0.06560004 -0.26725024 -0.7694107 -0.5161292 -0.3475134 0.5456489 -0.30125985 0.00092757744 0.038766928 -0.077260666 0.8463248 0.16395524 -0.5137072 -0.66752857 -0.2510212 0.6917411 -0.7201372 -0.60541886 0.32404116 -0.060799524
21018 -0.024635965 -0.071397245 -0.0036385641 0.17677432 -0.7233739 -0.23934473 0.38369086 -0.051095657 -0.97846156 0.14982776 0.8046815 -0.912779 -0.28212938 -0.62922454 -0.52540207 -0.60247046 -0.22327384 -1.0906613 0.75225365 0.1931319
22757 -1.0211241 -1.0436311 -0.7922776 -0.4225931 -0.35663012 -0.2667212 -0.003988306 -0.44450915 -0.4440595 -0.20935301 0.5690906 0.11756091 -0.85328394 0.6284848 -0.91022044 0.5818803 -0.43845698 -0.50013393 0.3307405 -0.16960187
11305 0.4619047 -0.12957479 -0.55116534 -0.55337685 0.17127766 -0.25072795 -0.008980159 0.3051311 -0.028946571 -0.37577066 0.6180019 0.2725287 -0.52590066 -0.42485824 0.65212053 -0.119138926 -0.79893523 -1.1215173 0.19072273 0.014651695
30596 -0.37149772 0.6443174 -0.58550316 -0.69629574 -0.2952685 0.3725474 0.2757503 -0.38880673 -0.46705723 -0.35853988 0.82448804 -0.04252332 0.1953726 0.36397576 0.23126978 0.29697815 0.12729508 -0.52755576 -0.03979862 -1.3058356
22417 -0.1269837 0.5523453 -0.23302162 -0.2030925 -0.54669094 0.19405843 0.29142958 0.8137329 -0.7143601 0.21839605 -0.25492615 0.6100371 -1.0674456 0.6788215 -0.32450774 0.40999034 -0.480018 -0.70013905 -0.2798479 -0.5782513
18489 0.6999173 0.8035146 -1.0112393 -0.16787755 0.0022141864 0.49023753 0.30019015 -0.1807305 -1.469132 0.19977827 0.41040808 -0.029018573 -0.15777959 -0.30023542 -0.7051195 0.06785998 0.04846939 -1.2057153 0.23314002 -0.25621295
2672 -0.054361615 -0.20984344 -0.11924634 -0.022626987 -0.34679073 -0.025809716 0.0010963841 0.3529757 -0.4215823 -0.1527827 0.2127226 0.30500728 -0.85743874 -0.33648983 0.3797726 -0.18639866 -1.0449977 -0.5861058 -0.30391032 0.5069461
9084 -0.4676882 0.3814604 0.068856716 -0.12236678 -0.18397698 0.4071401 -0.05059547 0.76931864 -0.26679245 -0.52747214 0.048608087 0.30698 -0.59337217 -0.10566058 0.45847887 -0.52338195 -0.72837627 -0.6381479 0.26497757 0.09563856
5314 0.3492102 1.1070127 -0.32151163 -0.6871721 0.42311892 0.32035407 -0.2994775 -0.09654165 -1.3777186 -0.0691465 0.27702397 -0.18373175 -1.3689681 0.7677835 0.079282396 0.38794324 -0.05553285 0.21402808 0.4561895 -0.9086887
24181 0.45841512 -0.51231194 -0.8854472 -0.55712116 -0.05564647 -0.009389722 0.21130738 0.17657745 -0.522126 -0.08820626 0.77434486 0.27868453 0.024964295 -0.29481572 -0.3895043 0.08035379 -1.3457 -0.44363815 0.23069547 0.23623909
36799 0.42293423 -0.751758 -0.89808285 0.010113986 -0.1335169 0.062269486 0.8270377 0.18332781 -1.3306313 0.3499212 0.63669723 -0.3405836 -0.14426106 -0.41451827 -0.014480714 -0.14610396 -0.5677813 -0.24266773 0.51286805 0.5072172
24666 0.13656582 -0.892785 0.25548297 -0.33179036 0.24249434 0.24704032 0.23309836 -0.014804115 0.05458111 -0.4932557 0.91141 -0.27182963 -0.90226954 -0.6505648 0.7046766 -0.4686012 -1.0123694 0.38774085 -0.29666477 -0.45106125
7363 -0.33703953 0.36341006 -0.46744072 -0.44176403 0.09495862 -0.2899258 -0.30759478 -0.6268805 -1.6480247 -0.46382773 1.3364024 0.020377064 -0.5415123 0.44919223 0.3263535 0.17097585 0.3108371 0.030510223 -0.022358317 -1.0097785
11536 -0.51555485 -0.54820704 0.36941192 0.53051937 -0.006461587 0.5270172 -0.099256955 -1.1233802 -1.1341343 -0.55039257 0.06346032 -0.1690228 -0.95141417 0.35294518 0.07807335 -0.40669563 -0.69849443 -0.51206374 0.1297212 -1.9352005
1672 -1.0260847 0.52702266 -0.17557438 0.027918184 0.61441374 0.5099197 -0.48627675 0.6470734 -0.73531073 -0.58195835 0.5596665 -0.19158757 -0.58945954 -0.45831624 0.70485395 -0.75456727 -0.11899671 -1.0935264 -0.23129022 0.27915767
36365 -0.75931126 -0.8603569 -0.63313514 -0.34648395 0.30819985 -0.021863155 0.0052425964 -0.79546976 0.23001745 0.43848482 0.64035654 -0.29481447 -0.9810299 1.0348992 -0.41772714 -0.73266166 -0.85691625 -0.052910358 -0.2521834 -0.011895001
15939 0.20157935 0.2873299 -0.32665947 -0.7925348 0.65828705 -0.0051953862 0.657796 -0.41728947 -0.13562585 0.50271004 1.4131733 0.46220922 -0.054396335 0.30549285 -0.6820872 -0.6803011 -0.9796863 -0.21870391 -0.33684006 -0.012953402
23072 -0.5432762 1.0372518 -0.8559259 -0.37457407 0.098992355 0.73112077 0.39067826 -0.5215354 -0.11851307 -0.3753178 1.1306629 -0.48431587 0.26545584 -0.13347654 0.64135885 -0.54954445 -0.033644456 -0.5355305 0.36382923 0.16989057
35114 -0.033556104 -0.6522783 -0.86759365 -0.40218386 -0.039788246 0.22616497 -0.12603277 0.081714235 -0.4523064 0.27134448 1.1299918 0.1320353 -0.11543361 -0.5704687 0.4002039 0.31819046 -0.34403116 -0.5651803 0.22044834 -0.22707474
36731 0.036806434 0.44115517 -0.95473725 -0.6874235 -0.5181995 0.97812116 0.79103154 -0.6531626 0.0321831 -0.42266035 0.39189863 0.14597805 -0.17023602 -0.0906532 -0.53483653 -0.6845245 -0.12489322 -0.30837214 -0.46146658 -0.0047604055
35335 -1.2499661 0.84905905 0.1364714 0.19409925 -0.013001361 0.31388277 0.23677528 0.4876394 0.5062589 -0.79550266 0.39741835 0.15914011 -0.48563105 -0.0044383453 -0.030308824 -0.5831917 -1.1564482 -0.7725027 0.27659386 -0.8157822
19362 -0.374494 -0.5349359 0.027106011 -0.30906245 0.65034175 0.2224902 0.610777 0.24425566 -0.20514633 -0.5270566 0.8323012 -0.9137819 -0.75361365 0.28108355 -0.52260876 -0.17128927 0.6022864 -1.5684366 0.47164708 -0.29911825
7740 -0.4989245 -0.0212819 0.23670208 0.06259926 -0.58080655 1.1301026 -0.16296984 0.6925235 -0.91307 0.3895229 0.044444624 -0.20957285 -0.6057614 -0.33283925 0.41196766 -0.754532 -0.5764984 -0.2630836 0.041979685 0.31729025
2054 -0.14211884 0.84755576 -0.90227354 -1.2996792 0.290929 0.19096427 0.63287157 -0.03782361 -0.5117198 -0.35454735 0.22028382 0.10402903 0.11472911 -0.6839107 -0.265182 -0.40133068 -0.63420707 -0.5834767 -0.5263997 -0.28214067
17954 -0.07833696 -0.81828547 -0.045978013 -1.0175126 -0.241211 0.18964739 0.3396221 -0.15044586 -0.23119518 0.39714533 0.61705303 -0.35233516 -0.3285293 0.029417515 -0.091655105 -0.6751578 -1.0873572 0.23973498 -0.33311266 0.06236974
28859 -1.3038601 0.28466564 0.8147125 0.088830516 0.06742308 -0.39392826 0.2882036 0.48163635 -0.60920084 -0.4361382 0.35106912 0.44543484 -0.95204246 0.0657047 0.19063091 -0.5681839 -0.68818057 -0.82830286 0.46045542 -0.4336315
30297 -0.73910934 0.3343352 -0.45601323 -1.1017175 0.55711454 0.11384457 0.27790138 -0.16577803 -0.3171167 -0.2585123 1.3995016 0.32569635 -0.80054647 -0.3369133 -0.062430628 0.7480092 -0.31273535 -0.022255823 -0.205371 0.48455566
15156 -0.14864439 0.07256824 -1.0521655 -0.30045974 -1.0742888 -0.032402284 0.16809759 0.11448726 -0.28798348 -0.20752224 0.65514815 -0.23441829 -0.44066834 -0.468773 0.72302866 -0.1163725 -1.1542671 0.48178506 0.71196985 -0.4853127
23523 -0.67583764 0.20785439 0.24285905 -0.24143548 -0.14993806 -0.75768226 0.19303323 -0.24496493 -0.9658839 0.04597147 0.44546795 -0.41155192 -0.43519154 0.59391314 0.14661355 -1.0253292 -0.11107938 -1.110548 0.635697 -1.1785855
25880 -0.08858864 0.5371062 -0.70364165 -0.021098802 -0.080865845 -0.45213127 0.13325317 -0.84764177 -0.72355974 0.047829762 0.8582963 0.11174948 -0.8202575 -0.121286415 0.046815693 0.12706041 -0.7344954 0.0025689306 -0.28419244 0.31780759
6094 0.66396344 -0.040877156 -0.45869553 -0.18489692 -0.8946905 -0.14335303 1.7125418 0.1010701 -0.21677047 0.2886979 0.8732012 -0.09375465 -0.16410424 0.14744456 -0.20109046 -0.114489764 -0.4657704 -0.3545027 0.18337789 -0.26043904
5497 -0.120035246 -0.40910164 -0.4727354 -0.40641308 -0.34279272 0.64604634 -0.25192797 -0.62671447 -0.19135682 0.624487 1.02289 0.6521329 -0.5714565 -0.23113357 -0.10004825 -0.011545572 -0.78717893 0.035208166 0.34633866 0.32343614
2742 -0.028015314 -0.6458672 -0.29842097 -0.11742722 -0.19010544 0.3772276 0.72495574 -0.92828393 -1.0102862 0.3937735 1.2987574 -0.114175186 -0.23813824 0.100438565 0.6633908 0.47986755 -0.5249887 -0.6589312 -0.7618503 0.57521737
16680 -0.8548329 0.24777026 -0.088766254 0.8820501 -0.101132944 -0.038003735 -0.26344445 -0.20615786 -0.6746301 -0.53036726 0.36556643 0.7245412 -0.6453426 0.43769363 0.20951666 -0.64055884 -0.96032196 -1.0103232 -0.596845 -0.26532945
18038 -0.24981599 -0.5066937 -0.25332865 -0.03361237 0.020944988 -0.21798676 1.0573708 0.2899532 -0.72288114 -0.3572634 1.0989771 0.001960892 0.060654424 0.03176451 -0.1816721 0.14705795 -0.74516916 0.07625507 0.6237626 0.12034139
2118 -0.6293291 0.41472402 0.26870653 -0.109895825 -0.49045196 0.06063541 0.46833873 0.3499259 -0.9839516 0.28261834 0.2330759 0.74767965 -0.5733017 -0.543171 0.141693 -0.007225923 -0.4450288 -1.0895568 -0.25422493 -0.031766262
24758 -1.0556903 0.283572 -0.6067526 -0.04137094 -0.4033799 1.1447725 0.24229632 0.7960038 -0.59456414 0.23621605 0.45254454 0.14604196 0.3696994 0.6832443 0.5034953 0.029763289 -0.2551177 -0.6507623 0.19083472 -0.015671765
15814 -0.8036956 0.3643053 0.56434244 -0.3986936 -0.44299096 0.0063829753 0.44629937 0.33180884 -0.9921177 -0.909897 0.5704821 0.50582844 -0.88272464 -1.0558989 0.030829785 0.12844245 -0.41709834 -0.42468867 -0.0014671825 0.09824153
8327 -0.32081965 0.115056224 -0.5070401 0.16666938 0.34867823 0.2428362 -0.340988 -0.49212602 -0.09408084 -0.2034219 0.8703813 0.5566943 -0.48568627 -0.2625089 0.49002007 0.103255436 -0.8217355 -0.8499603 0.57856315 0.3588771
15528 0.26897302 1.185464 -0.49075744 -0.77132714 -0.13505878 1.1052604 -0.08186293 -0.29120713 -0.08255944 -0.4200673 0.42379838 -0.17027742 -0.81739926 -0.14842042 0.048910353 0.18025407 -0.30149698 0.09021259 0.58608365 -0.26202843
17237 0.21596849 -0.5094325 0.49068204 -0.58127993 0.19364949 0.24501482 0.9723524 -0.32666013 0.0775778 0.3937055 0.4281717 0.06703177 -1.1068826 0.21238238 0.33388686 0.03673676 -0.14044937 -1.6353085 0.5738604 0.2042116
5953 0.013543298 0.69222635 -0.24989627 -0.23824973 -0.02611725 -0.05596069 0.24706517 -0.84916043 -1.0922873 0.11947378 1.2057383 -0.1865529 -0.93157643 0.19078292 -0.38785264 0.4914641 -0.8166959 0.32049993 0.108819745 0.68963933
25270 -0.5623087 0.058363173 -0.61730963 -0.049228705 0.17418204 -0.17252845 -0.6782635 -0.2825165 -1.4871304 -0.24059159 1.3416017 0.27965 -0.6819715 0.05617622 -0.3191877 -0.44826344 0.74716014 -0.28748074 0.4960225 -0.6632635
9201 0.30315435 0.19911228 0.5191163 -0.4543544 -0.01509014 0.35755533 0.7121935 -0.19148885 0.3537477 0.2668734 0.81408465 0.29674193 -1.4075557 -0.045506377 0.58619004 0.15417652 0.0060318382 -1.085585 0.7680442 0.22439066
3874 -0.34112567 0.17091371 -0.8650529 0.16813126 0.29949763 -0.30873576 0.1649509 -0.27848637 -0.9835685 0.028780637 0.6806668 0.12700056 -0.6378819 -0.41580445 0.7533253 0.2318912 -1.0045319 0.075789556 0.04537371 0.46262994
9039 -0.374778 -0.4423904 -0.58453554 -0.30423766 -0.5537115 0.2190892 0.31058037 -0.24985917 -0.14646767 0.26825148 0.90573114 0.313001 -1.3317215 -0.223007 -0.26985845 -0.3910351 0.6333621 -0.15592793 0.5062273 0.7368243
22729 0.006462176 0.39735004 -0.74364525 -0.2747605 -0.21030387 -0.34448138 0.577429 -0.73381364 -0.017768469 0.13887727 1.2478672 0.5994301 -0.8010938 -0.09491306 -0.15585615 -0.39955744 0.30571878 -0.34694684 0.1465295 -0.0684843
2352 -0.119127855 -0.5906998 0.023603076 -0.5423394 4.1026797e-05 0.46856874 -0.19386935 0.9056909 -0.8242199 0.09602185 0.36013818 0.060349308 -0.19615705 -0.6334482 -0.019912146 -0.069199465 -0.6187819 -1.0152068 0.14156362 -0.07537248
159 0.23127417 -0.40497366 -0.6962706 -0.28138986 -0.7594481 -0.25517535 0.75628173 -0.59778345 -1.0512232 -0.5489227 0.6107254 -0.36301315 -0.43050653 0.19260703 -0.14902286 -0.12019847 0.732821 -1.0369984 -0.14946093 -0.86738664
30214 -0.20024075 0.52409095 -0.7135218 -0.9010152 0.29735875 0.06618203 0.48487607 0.40594164 -0.21603866 0.008087346 1.156778 0.13388646 -0.19617732 0.056205828 -0.2020814 0.67581177 -0.26269653 -0.13326773 0.43022296 -0.6856882
11083 0.1803266 0.67822456 -1.0015335 -0.46865273 -0.36306658 0.8360363 0.8134548 -0.2370892 -0.56872267 -0.8519836 -0.12207543 -0.40420568 -0.1336443 0.56448746 0.11100882 -0.20553002 -0.57657796 -0.39002895 -0.24952245 0.45451015
19330 0.059385814 0.25231332 -0.75844884 -0.4155559 -0.41403285 0.34095156 0.450982 -0.6972707 -0.45173252 -0.16726099 0.3496454 -0.027453208 -0.5456168 -0.37898552 -0.26567018 0.47748268 -0.9167341 0.21773171 0.03997449 -0.18270415
26026 -0.73441726 0.32381812 -0.13512251 -0.83202046 -0.11494023 0.5544927 1.1171486 -0.273131 -1.1215315 -0.50389856 0.70790285 0.1049372 0.1821642 0.8187243 0.40189987 0.08661141 -0.37468424 0.5720362 -0.24666078 0.03896157
16959 -0.5676337 -0.18439026 -0.16065481 0.016617788 0.03574908 0.73342764 -0.138999 0.7602783 -0.84434706 0.032805856 0.0825689 0.36674228 -0.5079984 -0.3534826 0.31846604 -0.2057376 -0.6922749 -0.70982975 -0.017154623 0.4727164
4013 0.1950883 0.08018967 0.32956123 -1.171866 0.3599791 0.31062216 0.6656582 -0.381989 -0.5581066 0.48956233 1.7081347 0.07362233 -0.12972505 0.66020113 -0.049027596 -0.4562404 -0.41144273 0.037198003 -0.45786336 0.03914423
893 -0.17374644 0.099345714 -0.29555622 -0.92745084 -0.2578677 -0.19130822 -0.19266483 0.056450333 0.30411437 -0.29743132 0.93122786 -0.6957299 -0.63951415 0.17615171 0.55563873 0.525385 -1.3142897 -0.42056462 -0.06338883 -0.43769458
35616 -0.4742931 -0.6732219 -0.32232004 0.18088767 -0.15292718 0.6753546 0.08136918 1.0964221 -0.035044942 -0.6178183 0.28522116 0.61766434 -0.63847107 -0.1219473 0.3733224 -0.7946515 -0.7915477 -0.43414855 0.6588737 0.4941256
6486 -0.09229719 -0.22704992 -0.60555625 -0.50090295 -0.3100316 0.03130795 -0.1903377 0.78519744 -0.25151917 -0.14087635 0.5661848 -0.14207122 -0.4508468 -0.08973035 0.96396655 -0.33650324 -0.6175687 -0.3439652 0.27257484 0.2141767
2375 -0.14151171 0.8873859 -1.0145702 -0.15315148 0.1436313 0.81717265 1.0323972 -0.92303365 -0.42807308 -0.48138034 0.44467574 -0.36639985 -0.16970885 0.04659758 -0.059348557 -0.4831306 0.008285422 -0.4795543 -0.2799609 0.31695786
33350 0.4990362 0.05238386 -1.1318294 -0.40752894 -0.03746421 0.10498926 0.9316492 -0.8738279 0.064348005 0.9740781 1.3541926 0.6836115 -0.40668207 0.33841264 -0.6213999 0.07962854 -0.25182903 -0.75580055 0.5168157 -0.42299795
28714 -0.6222342 -0.4813669 -0.59898996 -0.95853156 -0.21158159 0.09144087 -0.4644194 -0.47805145 0.02629984 -0.09066052 0.34654006 -0.65370786 -0.7895501 -0.023630645 0.22388761 -0.16416986 -0.8344286 -0.40729678 0.22016673 0.39555854
5344 0.29553863 0.4142929 -0.51172733 -0.8358354 0.37218675 -0.22580796 0.36259282 0.010343043 -0.11889765 -0.02720759 0.3160526 -0.122161046 -0.44841 -0.407521 0.13036177 -0.3937974 -1.2301543 0.03853444 0.41869783 -0.5392736
29452 -0.3169791 0.45167825 0.12709919 -0.44812435 -0.13231196 0.49726716 -0.41237795 0.9524614 -0.72272706 -0.58483297 0.49298686 -0.46597114 -0.6145904 -0.03892366 0.12273959 -0.13995226 -0.60472476 -0.75464034 0.0008766452 0.6478686
6084 -0.28431067 0.7099692 0.114217974 0.49215657 0.65635383 0.05836768 0.054592606 0.94769263 -0.64766127 -0.47939667 0.56835836 0.599608 -1.3189191 0.09629027 -0.14491878 -0.77643347 -0.6819195 -0.6591575 -0.5685949 0.16935499
33793 -0.41447565 0.7750632 -0.84521556 0.23635085 -0.024726914 -0.436594 -0.032333534 -0.35365927 -0.9080076 -0.070773676 1.0314822 0.44186854 -0.761196 0.108280696 -0.24482045 -0.12586288 -0.6355888 -0.019341135 -0.11309386 0.6881965
34016 0.3219041 1.0007111 -1.1782503 0.45039853 0.38636255 -0.0830953 0.7805421 0.034858957 -0.24677633 -0.17914495 0.9741203 -0.35482693 -0.812824 -0.04637202 0.10547256 0.09459484 0.32907858 -0.7245247 0.12945361 -0.22418797
29100 0.24024259 -0.1182875 -0.7557607 -0.7106697 -0.09197635 0.42906922 0.46470848 0.26985863 -0.5849459 -0.10513352 0.3890038 -0.24894112 0.1413074 -0.20289119 0.8397327 -0.038669314 -0.94815075 -0.18659215 0.24243121 0.044986177
37234 -0.0113483975 -0.5518475 -0.74548995 -0.22826403 0.29478878 0.19582014 0.06698843 -0.34013778 -0.6445466 0.6326019 1.043464 -0.67018485 -0.48629427 -0.1113936 -0.6796424 -0.9365902 -1.1975796 0.5067191 -0.7200754 -0.3588011
18993 -1.1736287 -0.22419861 -1.0329593 -0.27474496 -0.030809812 0.4202583 1.267534 0.30537158 -0.9543392 -0.6668064 0.5265984 -0.54979646 0.26076308 -0.0096326275 -0.15737563 0.47323754 -0.5356737 0.4462092 0.34379992 -0.5989449
28367 0.22918472 -0.50596 -0.36299565 -0.9902807 -0.14870824 0.7803557 0.21053335 0.1716752 -0.4557451 0.07900563 0.9559377 -0.013589559 -0.09199824 -0.8480347 0.1158924 -0.16124932 0.3330131 -0.40544963 0.7146854 -1.1616929
27128 -0.19815782 0.080451466 -1.4659413 -0.8833479 -0.74979746 0.9349733 0.7667101 -0.58593005 0.17656079 -0.48289174 0.27918276 -0.07405153 -0.3050403 -0.09213203 0.11850977 -0.49271852 -0.07059146 -0.50600976 -0.39320013 0.2685055
3378 -0.47662166 0.020598996 -0.171517 0.3753658 -0.22080097 -0.07372171 0.013900596 1.0654569 -0.5563948 0.45738497 0.78972656 -0.27861938 -0.32193246 0.20446038 0.67636293 -0.7249388 -0.6588786 -1.5890896 -0.3854592 0.16536942
19063 0.48565358 -0.8446524 -0.10653189 -0.17457245 0.7799699 0.85653263 -0.19966891 -0.5121798 -0.24889983 0.2835564 0.35693687 -0.42386872 -0.5455043 -0.47424054 0.2859861 -1.4056972 -0.69503766 -0.91258574 0.2597557 0.10516971
25849 -0.11261587 0.28474092 -0.8179907 -0.251674 -0.29174614 -0.6501627 0.9057531 -0.47170416 -0.6858577 0.5900475 0.8777721 0.24999565 -1.1884888 0.2122699 -0.19436948 0.28354755 -0.3534081 -0.026335448 -0.04948421 0.67108333
13284 0.31853643 0.62550217 -0.40589112 0.12477482 0.8072553 -0.21626636 0.9485091 -0.10885656 -0.23984924 -0.2553267 1.51152 0.34688064 -0.28799605 0.14125504 0.10038146 -0.2095341 -0.38788623 -0.32398978 -0.5503263 -0.2580697
19324 -0.32584152 0.58720493 -0.18790007 -0.08703136 -0.49370614 0.18664546 -0.02218029 0.9905774 -0.50576913 0.084286146 -0.021420687 0.70953465 -1.2553587 0.2708526 -0.059365824 -0.021504544 -0.4729217 -0.31513622 -0.20753744 -0.5252946
20517 -0.977798 -0.9570758 -1.1861869 -0.49336335 -0.75279766 -0.16584043 -0.10787146 -0.4078223 -0.2948064 0.15535378 0.55682737 -0.098574154 -1.3033478 0.42654732 -0.7968121 0.62334406 -0.34084296 -0.29122865 0.43248692 -0.054949395
34970 -0.12364184 -0.1463609 -1.4225456 0.20356978 0.053890035 0.1986306 0.42557135 -0.032626815 -0.41154522 0.5183049 0.49926618 0.31586096 -0.16226174 -0.38401476 -0.013864365 0.1754099 -0.92700356 0.055958755 0.21669875 -0.46311152
30481 0.6896781 0.86748326 -0.8474626 0.3114713 0.24503636 0.8670418 0.47777647 -0.8131608 -0.5518474 -0.62581867 0.008923609 0.27940714 -0.9421066 0.45179453 -0.062874876 -0.5001214 -0.39877126 0.2905427 0.5266588 -0.8127509
36920 -0.061851904 0.05205794 -0.7559559 -0.12046191 -0.29663292 0.5943615 0.6944234 -0.7351029 0.70809376 0.76607174 0.76962507 -0.8306267 -0.7916367 0.35878 -0.5390456 -0.29036698 -1.2573789 -0.21576361 -0.07778399 0.04890763
6025 0.03393837 0.14675806 -0.850253 -0.34908804 0.64928275 0.36238703 0.34643587 -0.6808704 -0.39052865 0.6910782 0.39492184 0.5247944 -0.6054007 -0.09818969 0.015888011 -0.4019024 -0.2676246 -0.39757314 0.07011599 0.35948998
1358 0.28783676 0.061817106 -0.06724691 -0.35826838 -0.20781356 -0.6969382 0.029134694 -0.12861954 -1.3779399 -1.0411576 1.1377803 -0.5417149 -0.54762554 -0.05350688 -0.14102255 0.057756234 -0.12134142 -0.68164754 0.43775275 -1.4647132
5800 0.613308 -0.31832427 -0.4747701 -0.50032675 0.014555588 0.66901064 0.73108894 0.005033695 -0.5398638 0.10952746 0.7724386 0.51791275 0.18015133 0.10087235 0.5427274 -0.02086689 -0.6746307 -0.0053147734 0.36483544 -0.24458732
25883 -0.7403035 -0.1394091 0.5112801 0.07554101 0.1729727 0.35049734 0.2782132 0.969633 -0.51052177 -0.7478076 0.32313663 -0.028027128 -0.75645703 0.0929393 -0.3773021 -0.18523337 -0.4893891 -1.2729765 0.16541955 0.18841769
32733 -0.14222361 0.6484712 -0.6320789 -0.50161284 0.08492234 -0.3751649 -0.34617123 -0.71337235 -1.400701 0.8506339 0.1738673 -0.38754213 -0.49222723 0.47721863 -0.05890325 -0.078271665 -0.97617453 -0.43285054 0.41370118 -0.43545887
11401 -0.82567954 0.2266277 -0.123219326 0.8238316 -0.5442051 0.007668721 1.1781006 0.49883845 -0.9281618 0.3789963 -0.4502642 0.38143113 -1.5009793 -0.32210702 0.23918322 -0.42298383 -0.83001536 -0.10354619 0.42781007 -0.13828972
36208 -0.93907017 0.1554451 0.5687642 0.26173487 -0.54674184 -0.02757897 0.7083951 0.42571187 -1.1073589 -0.02566074 -0.38674533 0.37520418 -1.4532274 -0.52570546 0.6666815 -0.4843013 -0.35196555 -0.5193211 0.2800877 -0.56896925
26770 -1.2639477 -0.93777514 -1.3141227 -0.33689073 -0.7144406 -0.19307837 -0.10130611 -0.2766356 -0.17812192 -0.038965646 0.6252514 -0.21308123 -1.3144788 0.28686243 -0.7867949 0.374833 -0.0041800677 -0.46866414 0.41975293 0.08896145
11803 -0.22311431 0.54483527 -0.3738279 0.07999749 0.16155909 0.14525576 -0.11233498 0.29926366 -0.5842525 -0.92377067 0.20527267 0.8278495 -0.69944453 -0.48534036 0.6025758 -0.33782682 -0.5624145 -0.57138675 0.20886363 -0.013065511
33546 0.06786637 -0.01061909 -0.98986155 -1.079321 -0.095412344 0.083212726 0.37300974 0.73190945 -0.7589386 -0.23053499 1.5155818 0.0891955 -0.5746065 -0.13898876 0.8522353 0.511201 0.4529644 -0.003908229 -0.3982274 -0.04701734
8814 -0.33659014 -0.3125673 -0.58587885 -0.07826163 1.0427955 0.5212357 0.6745797 -0.3153864 -0.2863058 -0.41370448 0.80625254 -1.1010503 -0.56498927 0.44184253 -0.1604746 -0.24892429 0.57906276 -1.4770502 0.5269788 -0.6417278
31813 -0.011425107 0.01273504 -0.12056539 0.18612757 -0.46201313 0.27430713 -0.029826941 0.42628795 -0.6865857 -0.126917 0.022813378 0.35307327 -0.75463194 0.40926942 0.9309775 -0.37417775 -0.9597196 -0.69254065 0.49035656 0.7486973
509 0.045483034 -0.5794543 -0.5937671 -0.6561259 0.17488645 0.056068826 -0.002387992 -0.2921102 -0.37534136 0.5379706 0.69138503 -0.45403236 -0.4698557 -0.77505237 0.5555726 -0.847858 -0.6188753 0.06742371 -0.1480756 -0.20014536
17331 -0.66846126 0.105401255 0.5402358 0.48725826 0.10436526 0.18045713 0.30830377 0.13815627 -0.52981055 -0.57989854 0.097574584 0.37990147 -0.5614278 0.42099184 -0.32287195 -0.27435732 -1.2801448 -1.2709082 -0.522541 -0.6219047
12539 -0.13399309 -0.32574278 -0.12411368 0.82112306 -0.27447417 0.25899392 0.39532894 -0.8658721 -0.8541112 -0.34555456 0.6193318 -0.40144688 -0.91216344 0.17799453 -0.10167131 -0.49947095 0.22258429 -0.4013976 0.76496375 -1.4538548
10740 -1.2279433 -0.82015705 -1.119949 -0.7625945 -0.46663433 -0.31547827 0.04093994 -0.5780984 0.119677044 0.0955975 0.5918457 -0.45388415 -1.1125907 0.3239487 -0.6672032 -0.22968791 -0.3090701 -0.009984946 0.31995875 0.16690527
15806 0.31522173 0.113547795 -0.22781104 -0.9944865 -0.029437076 0.551423 -0.5103438 -0.07586533 -0.19939674 0.071151376 -0.14820503 -0.41199455 -0.9569325 0.028260885 -0.034104414 -0.3208965 -0.8241331 -0.1883839 0.47044435 -0.032279994
30570 0.7141021 -0.34940848 -0.012167354 0.6643568 0.43697193 1.2913897 0.24848345 0.6088601 -0.9710029 -1.108721 0.20603639 0.5514562 -0.6636205 0.26993215 0.1527512 -0.44225362 -0.14482765 -1.2115586 -0.047604285 -0.06774131
7847 0.598558 0.68978816 -0.9342441 0.07437385 0.07615536 0.2642231 0.7345018 -0.20645894 -0.28848186 0.03101932 1.144226 0.2725863 -1.003916 -0.6493313 -0.37701985 0.28880563 0.34272668 -0.7758603 -0.008629586 -0.009178713
29961 -0.5356408 0.33445165 0.30868524 -0.072025076 -0.59412515 -0.08821408 0.35061416 0.047030933 -0.8673966 -0.23828241 -0.48190144 0.69750774 -1.6512258 -0.2075627 0.10971352 -0.3629109 -0.48338917 -0.9332205 -0.4096532 0.022889096
30339 -0.051559836 0.19290067 0.2568255 -0.26523975 -0.31865686 0.09730472 0.24261968 0.9290418 -0.3369097 0.32716393 0.59475803 0.7722762 -1.0880822 0.17084615 -0.5232883 -0.38576743 -0.4652596 -0.304674 -0.5319185 -0.091543816
17722 -0.19269109 0.21421205 0.08025055 0.55599254 -0.548395 0.9115827 0.4693987 0.47541618 -0.6958674 -0.87192017 0.31582144 0.32458872 -0.86538863 -0.28665018 -0.17845832 -1.0359124 0.62090516 -1.4761984 0.3110228 0.02484348
3053 -0.52495986 0.13671003 0.13038124 0.14079624 0.80214405 0.37823653 0.8296343 0.13079026 -0.09213741 -0.09269993 0.17022473 0.60538065 -0.078758836 0.27943355 0.31189346 -0.2916937 -0.92915666 -0.99107087 0.6292122 -1.2325665
8365 -0.10563073 -0.39838117 -0.28324807 -0.4204112 -0.059870858 -0.11290996 0.09432658 -0.32834277 -0.8076006 -1.3053179 0.89641374 -0.10299688 -0.7015557 -0.30851555 -0.34685805 -0.22620188 0.44828704 -0.3885386 0.4640047 -1.0868648
13163 -0.6179827 0.56164193 -1.0097915 -0.7683597 -0.7562976 0.8089024 0.30317488 -0.046063222 -0.39665693 -0.29901204 0.36932722 -0.11576609 0.25171858 0.19156168 0.5764876 -0.3430374 -0.37575415 0.070951276 -0.08247158 -0.06504328
557 0.3472263 0.024885098 -0.5553756 -0.04954713 0.45284328 0.32268065 0.5237283 -0.1756085 -0.40483144 0.026520729 1.2401832 0.64779055 -0.81192523 -0.2762105 0.092784636 0.13266946 0.10744768 0.18795742 0.04283379 -0.07514471
2927 0.5881548 -0.39508328 -0.8915651 -0.21432683 -0.55311716 0.33155417 0.091772504 0.923467 -0.6256926 0.3046472 0.6029275 0.010944406 -0.30968523 -0.2766932 -0.2427553 0.3060397 -1.2950304 0.07015545 0.13025327 -0.35737252
29331 0.053560138 0.27483454 -0.9942552 -0.19260518 0.10716508 -0.505442 1.0068263 -0.020216031 -0.5720986 -0.05077955 0.9383403 0.039049856 -0.023293575 -0.82181257 -0.07410463 -0.61878324 -0.24060114 -0.68943906 0.01733243 0.14508694
8142 0.0683276 0.4478122 -0.11105534 0.48282862 0.009374979 0.35634977 -0.26474637 -0.009197542 -0.66143537 -0.47220862 0.41717955 0.27366978 -0.93561274 0.31405625 -0.075364165 -0.50362426 0.35476536 -0.93552876 0.5534328 -0.5873831
26012 -1.0077261 -0.342047 -0.67042774 0.021771166 0.5330197 1.327574 -0.0071111065 0.25719824 0.29510424 -0.009020439 0.7382535 0.38240805 -0.6281895 1.3024939 0.60220265 0.05944923 -0.63769454 0.06406839 0.056566756 -0.17283778
31387 -0.32519788 0.8378196 0.15531527 -0.5198554 -0.28417543 0.42986423 0.04076656 0.5409477 -0.7281633 0.27137986 0.7085488 -0.20834771 0.14535792 -0.5798951 0.22938585 -0.10681181 -1.005499 -0.7999392 -0.50264424 -0.23331323
30863 -1.263195 0.880676 0.58963835 -0.60303026 -0.19263875 -0.27029964 0.3306301 0.06990904 0.3216556 -0.65249145 1.0490772 -0.3811181 -0.3888773 0.5979856 0.10492333 -0.041859567 -1.2607515 -0.6440354 -0.1851453 -0.27779785
23060 0.06476152 0.069744624 0.49447802 0.14684437 0.60595393 -0.088438004 0.60714024 0.0536281 -0.21747155 -0.4150029 0.8809923 0.04755884 -0.60531145 -0.005582863 -0.42780623 -0.83926195 -0.8799541 -0.5078845 -0.6791487 0.24287345
22690 0.77692115 -0.6993739 0.23063716 -0.61007774 -0.23091948 0.38554063 0.7148798 -0.4052368 0.17040816 0.91998816 0.3617266 0.009360434 -1.0045096 -0.031176684 0.20883456 -0.21159898 -0.94627976 -1.0139139 0.9651413 -0.024141157
16599 -0.24550895 -0.024076505 0.21255313 0.323972 0.14418976 0.96045035 -0.089464165 0.67027855 -1.0331872 0.62342876 0.37405047 0.3428906 -0.43397593 -0.13840695 -0.2962948 0.028659385 -0.86627126 -1.2073771 -0.32238927 0.24764523
12859 -0.31746385 -0.32219145 0.15935254 -0.3405113 -0.059829824 1.049275 -0.6848761 0.91335124 -0.81067973 -0.3576026 0.13494445 0.12566304 -0.48601332 -0.3867735 -0.18005157 0.026782058 -0.9503176 -1.2238326 -0.08213514 -0.045131855
14286 0.030201582 -0.4136998 -0.37392983 -0.64227986 -0.26543108 0.39598638 0.06293813 0.31296697 0.35888273 0.31313848 0.78978515 -0.36441723 -0.9859534 0.01378187 -0.13531849 0.8212175 -1.3524722 0.117974244 0.57807887 -0.23270294
19290 -0.5066256 0.36088625 -0.16958265 -0.33697692 0.30480093 0.09121617 -0.2542481 -0.13082188 -0.77729625 -0.048328713 0.0917735 -0.45668593 -0.11383759 0.6899277 0.099572934 -0.1775529 -1.3194606 -0.708299 0.00044047428 0.3922477
1443 0.26574668 0.22481269 -0.34713608 0.445749 -0.699272 0.6115371 -0.3006603 -1.0034424 -0.97725743 -0.8887697 1.2769097 0.067102686 -0.47042927 0.62466216 0.020965843 -0.4172212 0.18407176 -0.037253536 0.025987431 -0.567344
29763 -0.7503004 0.12528433 -0.46280798 0.06328743 0.5513736 0.4483762 -0.0746808 -0.41800696 -0.2208719 0.24469015 0.7518391 -0.31886062 -0.5993883 -0.7632847 0.5178084 -0.6170505 -0.4723303 -0.25253478 0.2850971 0.6302974
18165 -0.14611655 -0.24906997 -0.52640176 0.013785748 -0.5955013 -0.10708661 0.4053288 -0.17955925 -0.44200552 -0.1754424 1.0824081 -0.07032056 -0.0039200243 0.8671093 0.57845753 0.10986367 -0.969259 -0.34426796 0.7996854 0.6461723
6554 -0.31753257 -0.53388345 -1.4751067 -0.75098664 -0.8471148 0.8832416 0.5404007 -0.5526933 -0.07186091 -0.5130688 0.23051272 0.10002054 -0.2703493 -0.25525957 0.35890177 -0.41897267 -0.11445812 -0.44613293 -0.33002385 0.28446975
14417 -0.46240607 0.099905744 0.041195165 0.10813234 -0.51546913 0.34336045 -0.24500304 0.9236894 -0.6090175 -0.32407168 0.58581114 -0.86217195 -0.50660276 -0.51923543 0.11333414 -0.46372336 -0.7611515 -1.1194757 0.1946666 0.57559407
22872 0.48487538 0.2746724 -0.6010349 -0.24257638 0.27966893 0.61981565 0.5224512 -0.42997852 -1.3108195 0.23432128 0.54311395 -0.6578024 -0.031237733 -0.6790509 -0.32350206 -0.5251699 -0.0076828864 -0.25296515 0.4536237 -1.4136949
20094 -0.21866539 -0.3418281 -0.19359408 -0.7955644 -0.64357793 0.21542579 -0.3085882 0.08579449 -0.103670776 0.18513185 0.19475736 -0.8550399 -0.75280744 0.67431253 0.06711873 -0.4321795 -0.6720956 -0.5208258 0.3992119 0.5692543
21914 -0.3797252 0.016027227 0.09986416 -0.029971266 0.115090184 0.44722357 -0.40939084 0.9151207 -0.3652501 -0.22274931 0.6277131 0.24594057 -0.873312 -0.40723568 0.30679888 -0.74567515 -0.6840131 -0.82298523 0.2479871 0.70917726
33380 -0.093877085 -0.49336308 -0.7273939 0.03224005 0.77508634 0.2581227 0.583483 -0.24729481 -0.21871617 -0.43805695 0.785071 -1.340294 -0.69359255 0.14019531 -0.46730867 -0.33417392 0.34581882 -1.287156 0.48973942 -0.659262
24905 -0.50369465 -0.33312508 0.4340603 0.112831555 -0.38187584 0.87089854 -0.6968266 0.3131386 -1.052936 -0.055018704 0.23127978 0.13846207 -0.43379048 -0.055199403 0.24421607 -0.5639594 -0.510655 -0.87010765 -0.112257004 -0.038405042
15140 -0.6285135 -0.2139452 0.56412256 -0.17928776 -0.38679758 0.36255038 0.17015356 1.1462129 -1.0293143 -0.27515793 0.30688742 0.54466194 -0.5307686 -0.23573609 -0.057598703 -0.09040906 -0.7012338 -0.92226607 0.24435207 0.011343899
14708 -0.33165994 0.8575057 -0.44759464 -0.5417838 0.06582451 -0.19514912 1.0860674 -0.059579924 0.21286958 0.3160152 0.6515604 -0.34712055 0.024154777 0.1472324 0.28916612 -0.022151954 -0.8713144 -0.82601154 -0.09429548 -0.5640831
2475 -0.29049054 0.078084536 -0.38109046 0.13565728 0.14743485 -0.11821446 0.66827714 -0.44099092 -0.29660937 -0.4656104 0.8551436 -0.4448388 -1.2542118 -0.23001684 -0.14039756 0.39616397 -0.7499539 0.019749148 -0.23435378 0.9320355
33813 -0.019980498 0.44628286 0.071319535 -0.23428217 -0.20766251 0.9498463 -0.27322215 0.98973286 -1.3274893 -0.202716 0.36071214 0.29174298 -0.447112 -0.30299518 0.4994088 0.04501467 -0.3777904 -1.5733347 -0.6119214 0.2029669
22389 -0.65319514 0.36540282 -0.0935417 -0.55628276 -0.17081866 0.39681044 1.314725 -0.9233182 -0.3196843 0.8594852 -0.34788644 0.36473697 -1.6915737 -0.4076114 0.5435003 -0.012630329 -0.41048434 -0.19287518 -0.61831117 -0.24677233
32206 -0.5381441 0.11211423 -0.6231931 -0.6808918 0.18793957 0.2191832 0.9700815 0.6132725 -0.5003837 0.22079484 0.07224708 0.7431394 -0.5240275 0.5496645 1.087203 0.4550027 -0.17771626 -0.48283094 1.3495853 -0.48098397
4819 -0.5711618 0.5937407 -0.5911871 -0.0211956 -0.49223456 0.29201776 -0.2083261 0.7588333 -0.866646 0.43747842 -0.40940034 0.8048505 -1.3161342 -0.18969627 -0.25606635 -0.44841617 -0.2796332 -0.71056813 -0.26612547 -0.38893697
21694 0.12601413 0.4970657 -0.63363826 0.027120072 0.7946922 -0.16937415 0.78302085 -0.046275347 -0.24925473 -0.58710474 1.2272259 0.66037357 -0.82346255 -0.05482803 0.22555481 0.030375596 -0.14690219 -0.08855999 -0.37462416 0.09181953
23051 0.42596358 0.58036417 -0.78137136 0.1998442 0.1600808 -0.7295521 0.7402207 -0.47723088 -0.4901778 -0.31010386 0.90906787 0.23400146 -1.4069195 -0.21963832 0.28404483 -0.120532416 -0.13542849 -0.1684761 -0.59695303 0.07614763
13751 -0.010436329 0.19304444 -0.5748229 -0.6101855 0.33676186 -0.034040276 -0.2677774 -0.12549001 -0.8527582 -0.15320098 0.7553152 0.042767923 -0.5639669 0.04555509 -0.2133653 -0.6295538 0.62725264 -0.39344928 0.519254 -0.7346097
5490 0.08245249 -0.049898386 -0.21110609 -0.8151802 -0.110515945 0.57217294 -0.3878729 -0.6623815 -0.2841693 -0.013278307 0.7929152 0.8144942 -0.106980145 -0.26467216 0.31358382 -0.61253405 -0.6618964 -0.03677434 0.1661214 -0.52592695
12986 -0.5666049 0.05486047 -0.024040602 0.3640827 -0.37836215 -0.109398454 0.6865354 0.059418898 -0.9196013 -0.019501783 0.79720247 0.7881662 -0.18699262 -0.14912045 -0.73352647 -0.45295525 -0.32722613 -1.4804729 0.4356695 0.36477938
27578 -0.1977182 0.49351656 -0.27344283 -1.0116433 0.28405964 1.1597036 0.2403196 0.15119788 0.2762286 0.78553396 1.4192045 -0.14300178 0.05833024 0.51403964 -0.69406825 -0.2847938 -0.8675433 -0.33943024 0.3649729 0.1158278
22159 -0.18276806 -0.5368571 -1.0510446 -0.13354045 0.66245604 0.00030869083 0.29601812 -0.23745534 -0.11258069 0.29855475 0.72293955 -0.19543572 -0.45013374 -0.29857475 0.9440445 -0.82837915 -0.99956435 -0.06324859 0.00032647484 0.47972655
17442 -0.5098314 -0.32690912 -0.94239753 -0.23354398 0.39940575 0.35023442 0.0126423845 -0.41633973 0.18100245 0.51756257 0.7104647 -0.32948637 -0.73188883 0.95142484 -0.84514225 -0.692071 -1.2242304 -0.07566069 -0.2551586 0.48817664
12410 0.2979025 -0.43764117 0.30076772 -0.7113272 0.007983861 0.30803376 0.9328402 -0.5668408 0.18506305 0.37989968 0.43908015 0.03259613 -1.2831126 0.2383144 0.7963469 0.14961253 -0.27969077 -1.2239398 0.6400922 0.4004114
18116 -0.6140117 1.1188902 -0.034935333 0.1570484 0.083429314 0.012577012 -0.26200488 0.27047026 -0.87040347 0.05934718 0.8787603 0.016456418 -0.39058658 -0.4329472 0.008598797 -1.951915 -0.5365528 -0.62001204 0.40980607 0.1453512
8783 0.5223473 0.3540089 -0.03637897 -0.017414887 -0.36812213 0.3502546 0.09223332 -0.014676346 -0.8406883 -0.94008213 0.15089196 0.37250605 -0.48283476 0.78774667 0.21866348 -1.2458582 0.17420281 -1.5149351 0.15727985 -0.9185756
32736 0.02127869 -0.25520936 -0.7201046 -0.33327454 -0.09350771 1.119115 -0.1809173 0.2508038 -0.7051795 0.21736047 0.17282292 0.67768574 -0.64778215 -0.056720864 0.47704378 0.2034063 -0.6810706 0.64540595 -0.008451055 -0.22910184
22564 -0.07051524 0.15308204 -1.1369109 -0.26348916 -0.6334516 0.5318319 0.5672547 -0.14463952 -0.17370062 -0.06329947 0.6308251 -0.014948067 0.04689718 -0.10405269 -0.06467032 -0.5775001 -0.36886254 -0.044907708 -0.30211866 0.15846883
8093 -0.2397061 0.70532674 -0.74111193 -0.2634216 0.040710066 -0.052693967 -0.08922589 0.2308112 -1.6491268 0.8958353 0.40065226 -0.23564297 -0.71764684 0.22216876 0.0061299433 0.3756973 -0.23804264 0.037743356 -0.01076866 -1.162845
16475 0.43994996 0.10691874 -0.28077 -0.5464865 0.045294303 -0.5669538 0.31741992 0.99053967 -0.48797885 0.15816645 0.6963837 -0.77890474 -0.5377433 0.004448276 0.630443 -0.6003724 -0.70283437 0.010686497 0.23711088 -0.65340495
17600 -0.23169672 0.030926215 -0.12176051 -0.37910977 -0.406038 -0.07478795 0.8396921 0.28567034 -0.5670841 0.29227912 -0.35275453 0.5630253 -1.3135768 0.04073192 -0.30791366 0.22138366 -0.71218234 -0.14754827 -0.9377878 -0.69952923
29392 0.17007264 0.24005258 -1.051219 -0.6228471 0.9903213 0.562277 0.07698057 -0.60925573 -0.4923297 0.7732481 0.55917925 -0.5811347 -0.9999649 -0.29024792 0.44217876 0.05425684 -0.5691092 -0.2971859 0.35548633 0.5738699
5513 -0.2976141 0.13398981 -0.86288667 -0.033491477 0.66598827 0.46522993 0.6205421 -0.13917059 0.07250717 -0.63381225 0.91139895 -0.986763 -0.38737214 0.017316628 0.10394433 0.091467895 0.20545316 -0.7075166 0.64807504 -0.13054264
19064 -0.23450005 -0.2429113 -0.7318913 -1.4968702 -0.6850994 1.024585 0.013047781 -0.49574828 -0.4091347 -0.50349337 0.17989175 -0.1631136 -0.14199604 -0.2734805 0.3253185 -0.059949145 -0.48813093 -0.37883225 -0.15728025 0.23653984
10415 0.62953955 -0.24463372 -0.83632547 -0.8208332 -0.42980194 0.06745474 0.040647052 0.6573603 -0.3007161 0.3134906 1.022664 -0.014084651 -0.5815378 -0.10804887 0.36413157 0.415206 -0.31145358 -0.40314516 0.2357573 -0.17870554
36648 0.13874385 -0.67584443 0.03801548 -0.4055721 0.21462901 0.63306725 -0.032438975 -0.21461783 0.6066987 0.50529885 0.41001835 0.39775985 -1.4792806 0.5265947 0.84578013 -0.020600403 -0.42794877 -0.9031287 0.5926106 -0.1419041
19925 -0.6039327 -0.19727056 0.27111354 0.40424293 -0.5918138 0.035633445 0.24843137 0.024851626 -0.89729923 0.21265768 -0.566689 0.342002 -1.5178891 -0.13054469 0.57125825 -0.44978946 -0.6714632 -0.5354945 -0.008230512 -0.110762134
28572 -0.3933707 -0.42190856 -0.2809758 -0.16650036 -0.13609439 -0.55847645 0.068010755 -0.09490973 -1.021825 -0.6455474 0.53109604 0.5613302 -0.24191143 0.4445459 -0.6528531 0.038706627 -0.41099134 -0.9896097 0.20499118 -0.121080674
34238 0.32681245 -0.21953793 -1.1883767 0.05273157 1.1121869 0.6645397 0.18199277 -0.39556313 -0.662896 -0.58849937 0.42182857 -1.0895505 -0.6718453 0.60122925 -0.47253826 -0.37368178 0.22438861 -1.4671943 0.046092656 -0.704799
19967 0.06365023 -0.08222008 -1.0390228 -1.3647642 -0.6670747 0.48827612 0.41680136 0.3082206 -0.525376 -0.45865977 0.48472306 -0.114549235 -0.0031613426 0.38762867 -0.035186972 -0.33097714 -0.2899515 -0.39945784 -0.46696597 0.5603127
7399 -0.3263574 -0.08694325 0.1251739 0.32435665 -0.1896549 0.8548091 -0.18361987 1.1366999 -0.8854848 -0.4892676 0.33752722 0.24514858 -0.53707224 -0.4731796 0.24526866 -0.6330212 -0.40930074 -1.1437622 0.06310103 0.07414441
32986 -0.44448528 0.010526036 0.6074533 -0.046208534 0.10429865 0.13699588 0.57800514 0.22133783 -0.66706204 0.060269915 -0.19794509 0.68558 -0.768459 -0.5439677 0.06363801 -0.4914928 -0.9191158 -0.7917504 -0.14338373 -0.4753811
35358 0.06240959 -0.030628214 -0.8312071 -0.9155631 -0.06899056 0.3544161 -0.33163682 0.3170104 -0.3509117 -0.2175596 0.78663045 -0.4147712 -0.18895231 -0.42951557 0.48641175 -0.28978458 -0.5181269 -0.14910397 0.19255483 0.11605152
35156 -0.44526902 0.44957685 -0.26460904 0.27232897 -0.5812658 0.34527093 0.93728256 1.0508072 -0.4148078 -0.4075625 0.034182243 0.499196 -0.6856473 0.121828385 -0.4474156 -0.6608919 -0.053497758 -1.2431893 -0.44642493 -0.09943259
26441 -0.35897216 0.509482 -0.1412826 -0.3270703 -0.029683122 0.5184274 0.50430876 1.2985259 -0.67068076 0.24143383 -0.18741055 0.48914653 -1.1597703 -0.012379002 -0.3840091 -0.1944052 -0.018655416 -1.0514301 -0.4437048 -0.14853616
2176 -0.15211809 -0.12428598 -0.46759245 -1.4674346 0.36540392 0.35501444 -0.20135544 -0.3696214 -0.32272708 -0.23692183 0.25133163 -0.14131227 -0.41318175 0.20259354 1.0313693 -0.060517155 -0.79946876 -0.19852641 0.23918977 -0.1385763
21435 -1.1083014 0.10555429 0.19372788 -0.008240202 -0.3575414 0.6080756 -0.27484837 0.83183545 -1.0316825 -0.45438316 0.48764664 -0.085274294 -0.43873617 0.1495616 0.45921287 -0.21673566 -0.5758975 -0.56250435 0.25977445 0.68022233
4945 -0.40656465 0.096043006 0.026805386 0.52815825 -0.4019141 0.33394796 -0.1105588 0.17541829 -1.1146894 0.09205467 0.29006216 -0.07815266 -0.8048831 -0.52231514 0.3111969 0.5404256 -1.0134959 -0.99010056 -0.55286866 0.25185877
24133 0.58941984 0.08931152 -0.23066439 -0.98229444 -0.2303961 0.21184616 0.98352927 0.21485174 -0.5708354 -0.44343582 0.40883836 0.22014621 -1.0379696 0.27289838 0.33112895 -0.21119887 -0.79782057 0.84802717 0.6414203 0.50590056
14700 -0.8587141 -0.31134233 -0.31148437 0.08157539 -0.13031134 0.16764311 0.46181363 -0.9065857 -1.0724561 -0.82499474 0.32630906 0.36423448 -0.6707091 -0.9343436 -0.22876169 0.12924154 -0.47869396 0.08625362 1.0925871 -0.40318438
