7258 40
13638 -0.06063215 0.18920979 0.040397394 -0.10700999 -0.50573605 -0.09084696 0.03605361 -0.14823817 -0.029064547 0.40399843 0.37708348 -0.6566269 0.2656835 -0.10330472 0.39812046 0.48399094 0.016347365 -0.21632802 0.41448963 0.0850659 -0.5265002 -0.020563744 0.21580057 -0.15896705 0.40170106 0.2690729 0.26980147 0.59377533 0.022841167 -0.095118046 0.1073539 0.016420554 0.31217068 -0.024091898 -0.2528035 0.092872955 -0.07303567 -0.06264437 0.542987 -0.059936985
18163 -0.10700009 0.43143356 0.29253083 -0.31427613 -0.0377331 0.37257153 0.15076257 0.025678148 0.32883525 0.37510175 0.30808014 0.022947555 -0.15396985 -0.09640846 -0.32227364 -0.07478065 0.024372136 -0.14173056 0.41515088 0.1733788 -0.89614356 -0.2611593 -0.6760972 0.032824665 0.15874986 0.20687589 -0.1322 -0.42049882 0.5839881 0.23520859 0.3800313 -0.08636378 0.3628471 0.103072196 0.34252286 -0.15880728 -0.34971207 0.20292284 0.586167 0.0933138
7027 -0.24883366 0.47051877 0.6450434 -0.28927913 -0.36662853 -0.2359952 0.1505294 -0.1320629 0.106332965 -0.20821519 0.48258734 -0.08319707 0.36798698 -0.416985 0.0050466624 0.74964535 0.59010345 -0.24167451 0.33709618 -0.19860503 -0.15621188 -0.08044311 -0.28441617 0.15131187 -0.09649203 0.054387826 0.36278218 0.12783705 0.1845953 0.3657403 0.16175812 0.03983932 0.2864184 -0.0007653148 -0.23284775 -0.31403723 0.46207803 -0.13449474 0.035213314 0.21681546
33671 -0.11225132 0.06787141 0.15831096 0.16851549 -0.29686537 0.0032011732 -0.48858255 -0.81031984 -0.068065844 -0.07519054 -0.042921707 -0.07369376 0.17486665 -0.5552669 0.13813445 0.14402428 0.052966435 -0.31071487 1.05671 -0.0047416957 0.15435913 0.23204221 -0.34998003 -0.51351774 -0.13681866 0.42703217 -0.123101495 -0.16465996 0.4688824 -0.034091998 -0.292689 -0.37328616 -0.24511568 -0.08527048 0.24375595 0.0690078 0.048035014 -0.33759892 0.26844713 0.19060989
11051 -0.14350937 0.17188896 0.17333412 -0.3812836 0.30337518 0.20313969 -0.13855869 -0.3693607 0.5329277 -0.2244481 -0.12558055 -0.71441334 -0.36158448 -0.46700144 0.3801814 -0.2583783 0.15676956 0.04466741 0.34081173 -0.35893142 -0.18700838 -0.011357905 -0.11732557 0.52899414 0.092202544 0.76454777 0.39448527 0.21183938 0.47218534 0.13968241 0.41052702 0.28505322 -0.07784977 0.32742536 0.0906381 -0.10453241 -0.103056036 0.2753396 0.33907342 0.38499084
14242 0.61291337 0.82018703 0.7019583 0.13271339 0.015874214 0.0173359 0.30546284 -0.46982127 0.20632258 0.33203894 -0.10418225 0.119118564 -0.166104 -0.34873748 0.24579038 0.12241601 0.25982556 -0.44570482 0.45839444 -0.3497345 0.14950193 0.24044377 0.22431709 -0.0066558574 0.57496476 0.17921008 0.08063461 0.18041241 -0.18116486 0.47630855 -0.09615626 0.2542774 0.01931725 -0.18430455 0.20581578 -0.44282958 -0.090447634 0.17430833 0.5615174 0.049411483
21142 -0.46849975 -0.37065357 0.4623372 -0.0496575 0.06934553 0.07388892 -0.09291605 -0.116024606 0.08425173 -0.23844926 0.56898445 0.0016785145 -0.09565271 -0.20538045 -0.07786148 0.82500833 -0.124123 0.14998643 0.3626734 -0.37342912 -0.5111688 -0.007168461 0.5857578 -0.192948 -0.0737106 -0.3466807 0.4032376 0.34919465 0.21782418 0.026285453 0.24772854 -0.10538662 0.22253828 0.4440831 0.7249521 -0.655428 0.27658218 0.28017417 0.61593044 0.34606725
36790 -0.025437005 0.14190671 0.5598415 -0.20739235 -0.0010855471 -0.23899579 0.042458687 -0.49401936 0.0913356 0.0002624301 -0.11420421 0.22730787 -0.6098046 0.05036585 0.49013224 -0.019665629 0.1217051 -0.6303614 0.23311837 -0.5359167 -0.22186728 -0.2678266 -0.24730015 0.15261906 0.035988387 0.02694303 0.011121997 0.561879 0.8605542 0.49097815 -0.12681694 0.33815777 0.29034072 0.17431188 0.37957832 -0.50789386 -0.42403024 -0.13607736 0.29156378 0.42243382
27450 -0.3529855 0.5993026 0.11431817 -0.74355376 -0.0290969 0.30827397 -0.39403328 -0.45617232 0.12513651 -0.47909874 -0.2714286 0.2236597 0.25675622 0.17778954 -0.13204244 -0.02245913 0.29879677 -0.50263816 0.6795372 0.23566899 -0.21420287 -0.24313995 0.017943982 0.54915965 0.59593874 0.16609286 -0.06886443 -0.11920887 0.0031729627 -0.18746865 -0.08265602 -0.010408779 -0.5546697 -0.10150507 0.3150626 -0.48584744 0.1257387 -0.4713084 0.6501587 0.38785648
34536 -0.37873825 -0.5028256 0.20853783 0.14117396 0.2384001 0.21001056 0.19317372 -0.14651851 0.09835362 -0.49943095 0.12964457 -0.27267537 0.17836834 -0.52594864 -0.31335208 0.037676644 0.52559847 0.071282335 0.20097722 -0.26756382 -0.74346423 -0.30415192 0.1707983 0.17520373 0.69251645 0.22253926 0.47518718 0.13713707 0.45575103 -0.45457083 -0.47457248 -0.31450513 0.5635776 0.35149738 1.1771507 -0.4948529 0.23630872 0.29164058 0.14880653 0.035170425
20854 0.061085418 0.009896208 0.52847886 -1.0339285 0.18762347 -0.19756448 0.19551706 -0.5800807 0.059614778 -0.018473217 -0.5415909 0.16958371 -0.22508976 -0.30752337 0.2895335 -0.0036077474 0.2349751 -0.030846274 0.4393931 -0.6227585 -0.58389777 -0.14844798 0.0011720981 0.096307196 0.11227775 0.43397272 0.5181078 0.12499988 0.4254446 0.38657674 -0.12294388 0.14919528 0.74856323 -0.24666099 -0.45900258 -0.1308193 0.16789393 -0.072162576 0.64690566 -0.29221487
30235 0.046564084 0.20009497 -0.14586392 -0.013527666 -0.07311267 -0.20156991 -0.12660606 -0.025194962 0.68104947 0.24203457 0.45800605 -0.27025574 0.22466303 -0.68703234 0.5312527 0.27898875 0.19986351 0.49749336 0.20665579 -0.687474 -0.66896725 -0.11849894 -0.09393485 -0.11090764 0.5091085 -0.2951524 0.19300224 -0.17956541 0.4033165 0.5813527 -0.10442804 -0.41253275 -0.30642614 0.002754027 -0.45564386 -0.4673082 -0.00066885294 -0.7263641 0.95279396 0.42294002
35523 -0.37591887 0.06814428 0.71718365 -0.13411586 0.2311409 -0.39917877 0.115747236 -0.07518918 -0.23867491 0.17127733 -0.09284623 -0.23888709 0.008944374 -0.20402047 0.44256106 0.274953 0.027004035 -0.28479078 0.36137193 -0.4040275 -0.16120559 0.15303272 0.33581784 0.3511591 0.03443442 -0.062804304 0.32691735 0.3815256 0.56946546 0.06712945 0.16053535 0.20403521 0.27402487 -0.577277 0.6922876 -0.7170251 -0.3772866 0.021500397 0.7247659 -0.29871783
16119 -0.23181625 0.26777512 0.6578695 -0.13503705 0.57224745 -0.3777346 -0.034537364 -0.8098708 0.1618286 0.32324597 -0.022245739 0.16757742 -0.041338824 -0.2660666 0.19115199 -0.23084757 0.1196249 -0.06217012 0.16852227 -0.5638929 -0.19485822 -0.33229008 0.037604894 -0.034783565 0.39854258 0.0014809503 0.485399 0.123502575 0.9898202 0.04712997 0.06919452 0.6010473 0.1909421 -0.2723263 -0.11280593 -0.48049155 0.09199487 0.058730412 0.6289867 0.21050122
35876 -1.0413067 0.07482274 0.50097156 0.11625556 0.18815473 0.058451932 -0.15058708 0.0951307 -0.037444886 -0.38503066 0.39658514 -0.15291905 -0.18471582 -0.6464271 -0.9877091 0.3801361 0.010778288 -0.10782168 0.015837343 -0.18624285 -0.60275304 -0.09580513 0.48475897 -0.19463854 0.76579577 0.024615947 -0.041527532 -0.25644436 0.012103307 -0.22029331 -0.0015547189 -0.38000992 0.5469653 0.25798792 0.59634 0.086923435 0.32748336 -0.2861995 0.7500044 0.40333295
18638 -0.5696195 -0.30967 0.38588428 -0.048617765 0.016332846 0.04990089 0.15747012 -0.17404425 0.2689303 -0.76103115 0.023520267 -0.18292274 0.19458972 0.16116503 -0.62986755 0.6081103 -0.116296194 -0.062589414 -0.050946757 -0.53701955 -0.63744485 0.044870604 -0.10687535 -0.02298912 -0.13683341 0.8221935 0.7273143 0.25162742 0.18265767 0.16751513 -0.0683772 -0.27043194 0.37260592 -0.07990734 1.1407734 -0.39037338 0.4574433 0.19821016 0.7628923 0.25397772
16631 -0.3578713 -0.30056906 0.44295055 0.26292953 -0.404972 -0.08640717 -1.0048834 -0.8859056 0.5467563 -0.25541773 0.16882035 -0.6658296 0.090608835 -0.29367694 -0.14046234 -0.68378663 -0.30381325 -0.797822 0.75700164 0.3936576 -0.5483462 0.15183075 -0.19118565 -0.29655075 0.25343132 -0.30350465 0.10406427 -0.29550612 -0.20995027 -0.6701058 0.0150008425 -0.07442997 -0.14294533 0.17890497 0.39290532 -0.23156616 -0.39074457 -0.022842485 0.821271 0.104998544
21375 0.3233466 0.4182847 -0.3598172 -0.24495932 -0.23144802 0.18697724 -0.17910038 -0.12808184 -0.14433637 -0.018143298 -0.31644797 0.1354101 0.21694723 -0.668725 0.3214884 -0.106345296 0.66197896 -0.3032746 0.36473906 0.22209476 -0.8222215 0.01836934 -0.08337503 -0.7155904 0.10622167 0.1072333 0.09617065 0.5406651 0.40932608 0.58661824 0.2961674 0.2941185 -0.2073779 0.23239611 -0.021443492 -0.41527206 0.36984658 -0.3111229 0.27547553 0.82113636
29886 -0.12641977 -0.032145567 0.21323921 -0.30560395 0.17750888 0.16945863 -0.062456902 0.05073964 -0.028284779 -0.159749 -0.076213725 -0.1832346 0.7095214 -0.26423433 0.14016378 0.6634333 0.57096654 0.4304755 0.26346454 0.39190134 -0.7251351 0.5487257 0.030945543 -0.32888952 0.017581342 0.025921384 0.26124284 0.65389216 0.7079787 -0.4329173 -0.18238541 -0.23900105 0.5729403 -0.08485609 0.7565229 -0.2779806 0.12000967 -0.04991153 0.32881406 -0.00978285
37107 0.5026749 -0.12280631 0.6763054 -0.020094102 -0.05792619 0.3872691 0.44090295 -0.41483456 0.7847269 0.1630189 0.55050963 -0.10891867 -0.19765055 -0.43035662 0.30011278 0.30719686 0.6422449 -0.41654587 0.23411568 -0.357504 -0.3744805 -0.13244125 -0.25486186 0.060437802 0.32330155 0.4676814 -0.573949 0.48679557 -0.1122593 -0.16124462 0.076691836 0.12829703 0.07747184 -0.5760376 -0.40938655 -0.5687171 -0.059786763 0.03829047 0.81042737 0.3830246
13504 0.010722712 0.5448001 0.22012174 -0.25131783 0.24847908 -0.6733914 -0.4326929 -0.23769587 -0.14818485 -0.20986763 0.44581038 -0.15371114 -0.16927634 -0.2667396 -0.026727645 0.008596026 -0.40453327 -0.053334557 0.55317634 -0.3400265 -0.8764569 0.32906303 -0.110181 0.033462927 0.36626756 0.28271753 0.24637525 0.5035309 -0.14744906 -0.23051901 -0.8004583 0.414676 -0.30638772 0.17808348 0.13608682 -0.40832394 -0.23575985 -0.06306554 0.0077175717 0.28024969
32753 -0.07446524 0.6709727 0.14344151 0.2891789 -0.13755454 0.050607357 0.4686525 0.12551454 0.062960036 0.36067954 0.14159518 -0.52023923 -0.035850745 -0.18228859 -0.035803683 -0.17196436 0.4759368 0.05435564 0.54464525 -0.49769598 -0.6526363 -0.21468648 -0.1230619 0.04138195 0.5497783 -0.33807987 0.20347239 0.32851082 0.12874183 0.06845981 -0.30104947 -0.7366612 0.08521459 -0.08530848 -0.22711432 -0.100994535 -0.541357 -0.97924757 0.35548353 0.813544
20363 -0.5067391 -0.38726196 0.47744414 0.06889501 -0.050035853 0.17337592 0.23240457 -0.4086876 -0.1886842 -0.4055591 0.466012 0.18552232 0.21829578 0.03542378 -0.12274112 0.6705765 0.102286614 -0.0059618037 0.23566525 -0.35669902 -0.5007142 -0.074638285 0.29213747 0.09105159 0.6620487 -0.14384206 0.5323139 0.43858284 0.2041421 0.3913727 0.26835877 -0.056539867 0.09686003 0.42354828 1.0889503 -0.42161682 -0.11296171 0.17219912 0.46786323 0.32105356
494 -0.32936653 -0.29385737 0.30110753 -0.2645321 -0.052148435 -0.1420417 0.21703376 0.19156429 0.17598899 -0.61087114 0.24148175 -0.021461142 0.53083843 -0.54568994 -0.33449405 0.4110731 0.4932547 -0.41148293 0.5790732 -0.6861784 -0.51570857 -0.24032556 0.3135688 0.4893152 0.27468652 0.20569289 0.679862 0.1075429 0.030163584 0.115603 0.30533507 0.012207985 0.016817262 0.17920701 1.022498 -0.26854149 0.15364999 0.91895187 0.44732633 0.23143253
33799 0.042618446 0.46065202 0.8896101 -0.016121903 -0.24001476 -0.105896994 -0.48374167 0.19729196 -0.19622009 0.1807146 -0.3971374 -0.21220887 0.07849226 0.02820978 0.05797685 -0.25749722 0.5333342 0.15681382 0.8850116 -0.4199411 -0.46820763 0.38856864 0.22412169 0.4178713 0.04939692 0.19979456 0.17832221 0.04909022 0.06029587 0.24634236 0.0634472 -0.008944117 0.4435992 0.53796 -0.12895864 -0.4338631 0.34584275 -0.72568583 0.65367556 0.05722533
9008 -0.10384256 0.050133545 -0.004569731 0.03406389 -0.16711494 -0.4108419 0.41950935 -0.24318731 -0.45266762 -0.084962845 0.014118826 -0.16832064 -0.22475806 -0.8496234 0.024240807 -0.030064896 0.7261417 -0.61750656 0.076009944 -0.20125712 -0.49170008 0.22790629 0.18561536 0.2708044 0.038388684 -0.035204753 0.3766556 -0.018493641 0.0018840219 -0.1087519 0.091011904 0.25614405 0.30200583 -0.026831402 -0.3369719 -0.3731122 0.110679 0.21183917 0.95441115 0.6115725
24830 0.14423351 0.56444734 1.0028709 -0.04663187 0.535814 -0.34053263 -0.2135614 -0.31635982 0.09059138 -0.39168906 -0.04700578 0.072805665 0.2658434 -0.52982557 0.37076953 -0.10241789 0.2885326 -0.54497176 -0.049735337 -0.3079244 -0.49090692 0.22029632 -0.162188 0.29958948 0.32479846 0.2938034 0.31457514 0.3073074 0.3916574 0.64762414 0.2929275 0.2856991 0.6367448 0.48476225 0.27637947 -0.1300782 -0.28406158 -0.11751849 0.17168649 -0.12688357
26649 0.35270047 0.21728761 0.19635908 -0.5432735 0.05445312 0.014128539 0.21175939 -0.14542039 0.35976303 -0.26766688 -0.3677325 -0.03563254 0.046720926 -0.72422785 -0.065619424 0.56280875 0.019398553 -0.32749432 0.51254624 0.56818926 -0.46064278 0.12956901 -0.42130694 -0.6114932 0.2840022 0.13409032 0.44679257 0.46643487 -0.060190056 -0.82252944 0.409761 -0.5592125 0.16980688 0.3927642 -0.271575 -0.5938203 -0.35357758 -0.4074694 0.17283916 0.20224166
26110 -0.17152001 0.37784368 0.7761523 -0.36455625 -0.07559753 0.029681798 -0.54096293 -0.4234236 0.43271965 0.12057863 0.13331583 -0.03752828 0.15457593 0.24113849 -0.065248206 -0.5880498 0.2606614 -0.88776964 0.36466378 0.16167256 0.08288217 -0.48446137 0.16777842 -0.76285005 0.015640851 0.24139914 0.0075592445 -0.3662642 0.5540588 -0.8634455 -0.2802167 -0.67639893 -0.13413766 0.09624221 0.4800898 -0.4195459 0.2019738 -0.2383141 0.75001466 -0.22401142
21754 0.066281445 0.5717875 0.069948114 0.05963563 -0.60524535 -0.33581692 0.20463632 -0.1933152 0.6467947 0.21972851 0.18715157 -0.068596855 -0.23420611 -0.3291689 -0.19424386 0.29515052 0.059169885 -0.7342929 -0.08013858 0.066933766 0.122290835 0.37584665 -0.32208976 -0.2076167 0.16792415 -0.2675812 0.56572396 0.08625955 0.6332393 -0.12458822 0.54083216 0.17007066 -0.017083608 0.57356304 0.1534325 -0.791912 0.32770476 -0.29441214 0.5752272 0.6950307
20236 -0.41069156 0.2565806 0.77783716 0.14508237 -0.14339343 0.33976397 0.14631942 0.28873023 0.23677617 0.34974158 -0.15993838 -0.16017818 -0.317735 0.20808116 -0.07861534 0.23262566 0.44189286 -0.022603683 0.24048233 0.3361449 -0.5911073 0.7639398 0.29894572 -0.21297647 0.4108237 0.56501436 0.65564996 -0.00784751 0.04916008 0.11298945 -0.109288424 0.8110227 -0.46900427 0.0971455 0.40967378 -0.2191809 0.16100019 -0.5157675 0.93335557 -0.25994754
22442 0.7407559 0.37730458 0.41142085 -0.17497833 -0.004155552 -0.82357424 -0.30657414 -0.28902078 0.028300226 -0.123106755 0.050498247 0.204273 -0.73292005 -0.4621885 -0.0049157934 -0.3133236 0.547209 0.4057035 1.0216761 0.12188576 0.06755111 -0.07398448 0.26816097 -0.01740977 0.58939946 -0.4157906 0.34984255 0.46423253 0.5263065 0.41560623 0.015192094 -0.2128421 0.21985857 -0.17484342 0.115804516 -0.23555163 -0.0142019 0.08599145 0.6884658 -0.1353678
11242 0.24096385 0.3660203 -0.03859195 0.037876707 -0.2602125 -0.25779226 -0.59985226 -0.16112386 0.499996 -0.1992215 -0.73054546 0.51694643 -0.23096389 -0.39158297 0.36065847 -0.0027950655 0.031922713 -0.59144515 0.6924409 0.08044925 -0.97063076 0.8733509 0.02614469 0.14418182 0.44113803 0.23224771 0.14228755 -0.38329148 0.20145623 -0.31365165 0.17009954 -0.06223167 -0.029912598 0.014675039 0.22876592 0.025901645 0.19658889 0.06447381 0.4667248 0.19292223
9395 -0.6222349 -0.09537101 0.7470897 0.33043054 0.13875753 0.008022994 -0.13032861 0.36938918 -0.13712439 -0.44077778 0.021990225 -0.028980074 -0.2813314 0.04701336 -1.010895 0.5534169 0.56763136 0.12350378 0.53316087 0.46449742 -0.6265812 0.19709337 0.7847934 -0.5183111 0.8509468 0.1497664 0.45747194 0.036507897 0.26943856 0.33475548 0.00011487558 -0.008885911 0.09160858 0.49273106 0.46457538 -0.5194013 -0.005274257 -0.19149996 0.41502243 -0.12300039
29082 -0.22044688 -0.05889207 0.61056834 -0.09257225 -0.42123124 0.1276429 -0.11648243 0.3704011 0.21593666 0.525423 -0.3561174 -0.33818814 -0.08978874 -0.012485831 -0.49904826 0.39102697 0.7160931 0.14368343 0.5072907 0.028918855 -0.37492785 0.85676974 0.32623848 -0.24536112 0.7929963 0.23801504 0.6553087 -0.22045991 -0.05782061 0.27713794 0.058972158 0.3357267 -0.13973993 0.23605685 0.29508808 -0.13424537 0.19171529 -0.16509928 0.7399994 -0.42666095
9553 -0.30851382 0.15231468 0.27466404 0.09272174 0.16412823 0.48582396 0.09297065 0.30729136 0.2859391 -0.4842089 -0.063359834 0.2063324 -0.05977977 0.07768062 0.114372596 0.21681857 0.25662073 -0.6246882 0.44972295 -0.21503726 -0.39662525 0.349892 -0.03410218 -0.13976598 0.7424756 0.3377377 -0.6134401 0.62575406 0.31477025 -0.23028229 -0.7531744 0.2451407 0.5482357 -0.0139866015 -0.6248755 -0.67822886 0.14825521 0.016301654 0.5279566 0.45365593
15192 0.31901467 0.38874093 0.18993485 -0.11014264 -0.25660393 -0.14905536 -0.06492258 -0.47652763 0.16768962 0.1960272 -0.59367466 0.084363654 -0.0040349984 -0.2455833 0.6518832 -0.0390839 0.0697095 -0.5078496 -0.0150481155 -0.1496344 -0.22545312 -0.046260178 0.2006988 -0.052637942 0.063156284 0.31242943 0.64779407 0.008010038 0.21952783 -0.15179622 -0.16942857 -0.16095471 0.37410548 0.18993942 0.0031207844 -1.1453527 0.3172239 -0.12092234 0.5825386 0.053776048
12505 -0.8244556 0.059545714 -0.12770075 -0.29990292 0.613165 0.6226828 -0.43390533 0.40725142 0.26001874 0.05834667 0.456126 0.3305056 -0.14413181 -0.6684135 -0.6127933 0.40733054 0.13152689 -0.63065314 0.20402676 -0.3522344 -0.2381123 0.055005748 0.3266225 -0.2507775 0.5591996 -0.058457613 0.31808555 0.14374483 0.28779384 0.05870917 -0.120260715 -0.74690527 0.110850625 0.27786326 1.240992 -0.9797748 -0.11137569 -0.16130298 0.5915039 -0.09680459
13857 -0.02473802 0.0737752 0.47303587 0.16706721 0.1825349 0.004846779 -0.17583446 -0.73406637 -0.14362353 0.010372049 -0.35442546 -0.18237928 -0.12356034 -0.24322988 0.5325333 0.1728283 0.34785944 -0.12318515 -0.290594 -0.36124977 -0.4411471 0.07092346 0.26678255 0.19502431 -0.06832197 -0.1685629 0.3430608 0.4509337 0.53861284 0.31867877 0.065761715 0.04771772 0.16068469 0.11631319 0.4182825 -0.4878645 0.27634823 -0.54137427 1.0101091 -0.12194039
6301 -0.38548648 0.031244706 0.81880224 0.2368558 -0.1033865 -0.023442117 -0.37549722 0.5096797 -0.22401829 -0.13739015 -0.114583224 -0.40972322 0.10195762 0.12475827 -0.51755846 0.5210581 0.36131287 0.4039509 0.41636726 0.14231929 -0.5388442 0.4170675 0.28700647 -0.47917563 0.7857445 0.24280265 0.43024027 0.05080386 0.09200347 0.15408799 -0.34491274 0.5302241 0.11657772 0.3860468 0.6578732 -0.109754845 0.2959157 -0.2607361 0.6861091 0.1783023
21376 -0.64004886 0.21133792 0.34593138 -0.20362985 0.7856379 0.006468738 -0.14759818 0.12764704 0.2952514 -0.64294815 -0.36130625 -0.28429264 0.053008515 -0.28219023 -0.0277739 0.23844486 0.061440792 0.029041367 0.6844474 -0.24053024 -0.4721493 0.24137564 0.37678644 -0.33663327 0.57618195 0.02813 0.49145764 -0.13843265 0.005640356 0.34121102 0.31795588 0.10316056 0.5574373 0.23773089 0.82702523 -0.17989895 0.39100963 0.3345188 0.044425547 0.14470625
4174 -0.43655223 -0.36920765 0.5414177 0.2847704 0.051902868 0.024371214 0.2969324 0.11979352 -0.058503103 -0.44943684 -0.11066044 -0.11240491 -0.0055857813 -0.05716457 -0.7633088 0.60566306 0.24863005 0.25466076 0.74169147 -0.11997326 -0.51064223 0.28522107 0.37463963 -0.32200217 0.82830924 0.6031176 0.14258863 0.06716503 -0.006997344 0.4953386 0.06415452 -0.26170722 -0.159297 0.5191472 0.9117306 -0.37113988 0.21422793 0.10495957 0.582002 -0.26619512
27106 0.019108424 0.8119431 0.10121618 -0.72640675 -0.48396224 0.32535952 -0.3863633 0.13533403 0.28707042 -0.25978473 0.6037383 -0.15825911 0.07780866 -0.9028703 0.039159797 -0.13450234 -0.091443345 0.17866836 -0.01887081 -0.7619972 -0.6495667 0.21539141 0.094501 -0.1048282 0.28330475 0.72438854 -0.14591254 -0.275957 0.8131931 0.34192494 -0.60152215 0.011257777 -0.3280589 0.21539882 -0.8294371 -0.6998631 -0.5049854 -0.18035783 0.8078411 0.20572735
24207 -0.040276684 0.45908487 0.4816163 -0.095697336 0.041570302 -0.35801184 -0.4826215 -0.048104532 0.33930308 0.19375175 -0.34718773 0.083925314 -0.42535144 0.25340208 0.15349188 0.18844287 0.2518692 0.021882892 0.2171444 -0.25933677 -0.28518218 0.12978975 0.20427914 -0.37195554 0.44523442 0.035649415 0.32251024 -0.09732914 0.2640013 -0.041641273 -0.18247771 0.5547803 0.016531963 0.6101598 -0.27240792 -0.86291105 0.24532902 0.035735507 1.0758084 -0.25788948
22452 -0.38572872 -0.35049316 0.89404684 0.14773421 -0.29851696 0.10246835 0.15108368 -0.10352569 -0.22778197 -0.3774847 0.17394996 -0.18212447 0.27344757 -0.21160051 0.28253892 0.63357174 0.3164943 -0.014140641 -0.19331355 -0.1718341 -0.8640695 4.3145365e-06 0.07473504 0.020247921 0.15019289 0.12056123 0.29569697 0.29114848 0.07738377 0.2767062 0.057858553 -0.008830044 0.42994347 0.52780837 1.0865524 -0.48551995 -0.09343984 0.10090201 0.32796818 0.16619623
32060 -0.39568493 -0.07090616 0.71888524 -0.3377068 -0.57355136 -0.11013876 0.0174846 -0.198885 -0.57517874 -0.3062633 0.4006516 0.0093080755 0.23190933 -0.3368555 0.24406345 0.1313491 0.45454037 -0.11408951 0.28130996 0.23686059 -0.09243048 0.14078765 -0.08033465 0.39251238 0.02187831 0.2355183 0.34009275 0.17105907 -0.2135276 0.5129783 0.00773372 0.38726002 0.5226441 0.18305145 -0.46311677 -0.25294152 -0.5553367 -0.4619268 1.1295236 0.32611844
20193 -0.6550378 0.12992802 -0.06184171 -0.59534895 -0.37288186 -0.25331917 -0.27335575 -1.3147416 -0.0072848145 -0.35220265 -0.17667481 -0.3501084 -0.027596325 0.4969716 0.0048326505 -0.56176347 -0.042539585 -0.022573572 1.0388203 -0.065775044 -0.36079937 0.51872593 -0.112005346 -0.46531585 0.51625305 0.035519283 0.15016751 0.15714681 -0.12788326 -0.16687751 0.17833917 -0.79636544 -0.1931793 0.3067935 -0.05825237 -0.58664507 0.22801359 0.20528705 0.5247922 0.20804301
33069 0.12597518 0.21391056 0.994165 0.22130708 -0.04409942 0.027854519 -0.048571203 -0.24818186 0.26368147 0.06557489 0.56199646 -0.34075952 -0.7274596 0.08931843 0.2272733 0.29946706 0.7964626 -0.14284658 0.03139243 -0.47246614 -0.21208884 0.023402086 -0.21887654 -0.019705322 0.15957206 0.35619888 -0.09916015 0.5654093 0.16180843 -0.20133765 -0.3696462 -0.0023266457 0.34129784 -0.5053855 -0.51188123 -0.42344275 -0.1779914 -0.20050329 0.72903305 0.10614543
4793 -0.14364071 1.1392043 0.12804474 -0.10659078 -0.43151754 -0.12835711 0.30776125 -0.34116185 0.5133069 -0.7703464 -0.019446969 -0.36451095 -0.14581765 -0.733497 0.31066087 0.2746779 -0.3317134 0.03517123 0.2651773 -0.3572641 -0.34623957 -0.34692144 0.5991723 -0.19839302 0.045689076 0.3660278 -0.21911098 -0.09954274 0.62042964 0.49635458 0.07216324 -0.13954549 -0.54171675 -0.23865926 -0.25279993 0.031111522 -0.31407568 -0.60228175 0.73793715 0.34625927
6165 0.46742055 0.56585526 0.22316954 0.07037531 0.3415419 -0.6676638 -0.1238535 -0.481036 -0.2866069 -0.0645186 0.04832963 -0.51705074 -0.24931422 0.11107776 -0.118943386 0.15593088 -0.036511574 -0.6531345 0.51993316 -0.53509283 -0.48252243 -0.36454514 0.05936611 -0.03478322 -0.0458589 0.17499922 1.0012546 0.215422 0.35014442 0.18986829 -0.0064024846 -0.12721781 0.33649597 -0.051630735 0.24472325 -0.3287979 0.3415614 -0.12830816 0.36951372 0.2888236
32718 -0.532455 -0.3733221 0.15240856 -0.0725281 0.670137 -0.47866553 0.2361692 -0.09943018 0.5393925 -0.7366909 0.1797099 0.044918686 0.21918368 -0.4539739 -0.42435282 0.34804708 0.35776576 -0.02083603 0.06238342 -0.61178535 -1.3779639 -0.14570644 0.09451995 0.09640416 0.01618062 0.17998847 0.4978316 0.30671513 -0.015169201 -0.17923757 0.033597834 0.106019296 0.13040917 0.05751152 0.81432897 -0.6719715 -0.41630688 0.559556 0.42299038 0.402109
11271 0.16116372 -0.06650858 0.68305737 -1.1384026 -0.70538056 0.08638635 0.074171096 -0.34068635 0.23215556 0.33531994 -0.27222326 0.10624491 0.12251512 -0.14729257 0.2287327 0.15385555 0.6271117 -0.010690973 0.2040155 -0.034796678 -0.49811772 0.33796856 0.40580088 -0.122346625 -0.014526444 0.0338306 0.49200585 0.04514104 -0.2991158 0.091876656 -0.435729 0.2511059 0.13525058 0.092139006 0.18197195 -0.44094753 -0.27144927 -0.8574469 0.15431342 0.38631132
28944 -0.45347548 0.30239725 0.09648347 -0.31564078 -0.30194253 0.27846414 -0.3293487 -0.6698126 0.1474528 0.26150236 -0.63457376 -0.54048836 0.22660309 -0.30012906 -0.19318937 -0.38063565 0.5251255 -0.32589513 0.78010744 0.9013652 0.011158716 0.023226203 -0.05006694 -0.41903603 0.36993462 0.40156394 -0.028074907 0.35256952 -0.2426934 -0.5427896 0.4149503 -0.8313934 0.22788194 -0.6436867 0.21693027 -0.46415007 0.3884425 -0.02341687 0.53270006 0.33009213
9532 0.3326932 0.04993192 0.9601969 -0.34598228 0.4110514 -0.359623 -0.017975017 -0.2811073 -0.014936571 -0.028405454 0.119831145 -0.23872007 -0.5919663 -0.23155855 0.47613174 0.09658007 0.6829846 -0.386373 0.021571644 -0.33724758 0.03687905 0.2945764 -0.30736306 0.0047776224 0.4326745 0.45601067 0.053548962 -0.006524103 0.11773436 0.058797747 0.110168986 -0.012911984 0.17020999 -0.01643902 -0.3268972 -0.7243299 -0.10257006 0.028106658 0.6353967 0.35765356
33952 -0.49323776 0.64099616 1.0550274 -0.24890535 -0.14499432 -0.64820594 0.4269779 -0.563963 -0.12620889 -0.16467798 -0.31891823 0.18384066 0.036513485 -0.21199551 0.58071554 -0.010546652 0.23707853 -0.3870363 -0.09232372 -0.061527375 0.03746772 0.22812523 -0.28194806 -0.10993162 0.591302 -0.037663933 0.16266346 0.12780514 0.26783642 0.005868455 -0.042826574 0.045673106 0.3227549 -0.004799601 -0.054719515 -0.23164716 0.0510396 -0.2711962 0.44794503 0.4853307
7513 -0.054479163 0.63800156 0.6121074 -0.2742658 -0.16313188 0.101016134 -0.074039206 0.08434338 0.084765725 -0.3684232 0.23706914 -0.21631461 0.08442831 -0.7164287 0.81126314 -0.2510611 0.6134437 0.08482385 0.40644553 -0.2747063 -0.35483113 0.17220242 -0.0861654 0.022199545 0.17735568 -0.58295447 0.5439071 0.07471096 0.11923979 -0.43635112 -0.1308556 0.46882665 0.33977956 -0.5584073 -0.29381073 -0.52764344 0.12583308 0.32736203 0.6100863 0.14913434
17787 0.031390443 -0.4278674 0.36839548 -0.1738286 -0.04523436 -0.7894098 0.72458297 -0.070497826 0.61396813 0.08074321 -0.18172199 -0.36683646 0.27187288 -0.19467823 -0.81064755 0.15633264 0.29067057 0.09560205 0.9747965 -0.21957669 -0.3178755 0.11405639 -0.7818875 0.06468551 0.015876226 0.2847959 0.36660007 -0.043829318 0.46282816 -0.39523238 -0.18203467 -0.277517 -0.31978375 0.18307045 0.028463835 -0.38319138 -0.45661563 -0.5276548 0.5343209 0.1459886
7339 -0.15790187 0.50676847 0.42875743 -0.64205205 -0.49895355 0.17566505 0.16340166 -0.37740836 -0.110409185 0.13549946 -0.059807792 0.03073281 -0.95654464 -0.54772073 -0.004164474 -0.19414899 0.16425411 0.12725984 0.6378609 -0.5401384 -0.2586372 -0.036454435 -0.18681498 -0.1044506 0.4257603 0.44806823 0.3761852 0.6137405 0.09282738 -0.12518781 0.23668146 0.45495966 -0.28031403 -0.08423378 -0.06418913 -0.64025146 0.349837 -0.5823567 0.16369545 -0.4182335
37690 -0.31272948 0.7312173 0.5348039 -0.19400677 -0.37111658 -0.5925933 -0.031907525 -0.31148514 -0.13700278 0.1093933 -0.20579708 -0.073213995 0.5374538 -0.5996151 -0.351327 0.05258387 0.36030155 0.17357132 0.30136314 -0.08154568 -0.06557136 0.5443602 -0.26649845 0.36196822 -0.4306579 -0.08720325 0.04281021 0.62876266 0.5588424 -0.07439819 -0.24767853 0.14041266 0.45400143 0.19840108 -0.06725264 -0.28003153 -0.2610379 0.02858883 0.87509495 0.18838626
35822 0.36938646 0.32413164 0.8784281 0.24200904 0.17557538 -0.45575553 -0.47401354 -0.3848255 0.03763638 -0.38890326 0.14426446 -0.58963406 -0.65593463 0.23378679 -0.20185265 -0.2973845 0.3281977 -0.45230606 0.21580544 -0.012614759 -0.7998639 -0.49483112 0.2629069 0.15254098 -0.12486381 0.26857242 0.3755341 0.24545139 0.6848622 0.052708335 0.16678329 0.0809399 -0.18666443 -0.16800323 0.038398523 -0.38959202 0.25507873 -0.5047736 0.60197145 -0.18541597
8753 -0.67641336 0.19433604 0.73946726 0.30339736 -0.24033119 -0.30988735 0.2756112 -0.07189165 -0.11609503 -0.18770029 0.1006844 -0.28105196 0.4159321 -0.501124 -0.2809177 0.45782122 0.34774068 0.30865267 -0.02598008 -0.17730696 -0.3365512 -0.39443067 0.26227582 -0.0961625 -0.30719864 0.020514742 0.061259955 0.7815705 0.14954466 0.33537823 0.12175862 -0.1602815 0.57907283 0.44910815 0.767883 -0.8457158 -0.017233854 0.23332097 0.42295656 0.5202459
24473 -0.3627308 0.43834677 0.2968425 0.055337932 -0.117161535 0.2428845 -0.24026135 -0.60515994 0.62239456 -0.9026034 -0.004933479 -0.5968599 0.64478475 -0.80612344 -0.38882968 -1.0218078 -0.0025106904 -0.723309 0.5602404 0.32574385 -0.4337614 0.14298216 -0.10061207 -0.9477235 0.031780932 -0.105799526 0.15642555 0.1483613 -0.66603816 0.087964445 -0.48886332 -0.44245648 0.1681625 0.7172446 0.87824625 -0.32260558 -0.34918654 -0.2508763 0.59748334 -0.3118756
5210 -0.4368789 -0.59197366 0.04846971 -0.09819773 -0.53509927 0.60217214 -0.31744608 0.67278934 0.02429889 -0.29294914 -0.23710099 -0.049841236 0.16869763 -0.35646415 -0.6030509 -0.21936162 0.1204259 -0.25498322 0.8283702 -0.5978396 -0.30563378 -0.25905988 0.12216174 -0.7542813 0.40633485 0.43830898 0.14306395 0.29767162 -0.20944865 0.12731916 -0.011643313 -0.015162504 0.92420435 0.08674797 0.7171686 -0.5870635 -0.34607437 -0.19010778 0.5112009 0.09094649
3990 -0.73512226 -0.26378343 0.76754725 -0.08442724 -0.06893521 0.30522907 0.28827754 0.14328504 0.05629154 -0.10798494 0.1777241 0.61376184 -0.19987562 -0.9714126 -0.85046726 0.356889 0.014679942 -0.0745473 0.19704095 -0.08291047 -0.73041373 -0.1791476 0.6070621 -0.5823236 0.87731856 -0.116108805 0.020957334 0.0044704536 -0.00071738637 0.3488606 0.12518892 -0.36535743 0.15880299 0.23293523 0.69063497 0.077611424 0.7853494 -0.09852051 0.8513848 0.41860968
13708 -0.0606314 0.79731196 0.5798503 0.16577552 0.13441353 -0.16323277 0.4683047 -0.38543934 0.08660647 0.02400583 0.11266831 0.09815017 0.34908676 0.06220104 0.4055253 -0.045797106 0.10367104 -0.4094331 0.72275877 -0.091430634 -0.19873248 0.5710406 0.07758956 0.15804805 -0.48247215 -0.050343335 0.8243504 0.2570905 0.49618533 0.114298604 -0.3751687 0.35011476 0.33865735 -0.13023438 0.054574728 -0.47750148 0.17417368 -0.4992464 0.54594857 0.36183807
15940 -0.42709023 0.2617691 0.47547832 -0.0785143 -0.09269135 -0.39456075 0.15388367 0.098697 -0.28879872 0.031030336 0.20496438 -0.38373876 -0.29142803 -0.313792 0.263082 0.25381482 0.123846434 -0.005106353 0.6580396 -0.11420268 -0.18780808 -0.014054112 0.39567065 0.3203916 -0.5046869 -0.30032417 -0.12517394 0.611056 -0.06939119 -0.012988516 -0.46161592 0.07435295 0.15495194 -0.07937319 0.2944983 -0.41226372 0.07685599 0.14291847 0.856154 0.97025764
37557 0.04241408 0.32657877 0.6343681 -0.15727884 0.19012852 0.19967222 0.0697933 -0.35461882 0.3918595 0.08158826 0.67984825 -0.2635293 -0.54252225 -0.21771759 0.41825217 0.64025164 0.5933097 -0.34132436 0.36346334 -0.38237104 -0.30248734 0.10863959 -0.38643724 -0.22080156 0.15120485 0.53181046 -0.09714572 0.33707297 -0.12037472 -0.11095693 -0.6031796 0.5011254 0.2886351 -0.5114717 -0.5501651 -0.2519847 -0.25444102 -0.18734859 0.51902896 0.33836547
17420 0.3450984 0.36937636 0.5461314 0.31407428 0.17728923 -0.53153783 -0.106121965 -0.172782 0.2985459 0.22948995 0.6185491 0.120792344 -0.73392427 -0.027933288 0.32503763 0.020181153 -0.16024466 -0.16218586 0.5456002 -0.26747185 -0.19475724 -0.032368753 -0.05774351 0.5203439 0.14348647 0.39643386 0.5160257 0.3666845 0.9552402 -0.14437892 -0.20915861 -0.56365633 -0.17949122 0.15030468 -0.11786267 -0.463338 0.1138534 0.37757525 0.36722377 0.9451624
4757 -0.36269265 0.2727511 0.7951635 -0.34093744 0.23497774 -0.6061105 -0.29049528 -0.020375025 0.014322089 -0.19763207 -0.0076070675 -0.04439475 -0.26475856 -0.4062745 0.389058 -0.4903508 -0.13804984 -0.5583318 0.15257232 -0.8196554 -0.042482793 0.2827425 -0.12723233 -0.07829383 0.20600131 -0.04414356 0.39709526 0.15134986 0.4567173 0.2809151 0.15930267 0.19686508 -0.0913328 0.050377604 -0.11578567 -0.3701194 0.104083985 0.27212542 0.68259007 0.18289085
13838 0.21927851 0.47547668 0.51917094 -0.17335075 0.30214506 -0.76954293 -0.36784035 -0.7738362 -0.30561692 0.029376019 -0.19823119 -0.28367656 -0.38460025 0.094785765 0.10092953 -0.27286974 0.030569427 -0.08601377 0.2536349 -0.8792067 -0.46875167 0.4704496 -0.021283733 -0.083608985 0.7085682 0.21263887 0.27063867 0.32833076 0.4394153 -0.055658124 0.14653951 -0.01429217 0.20388895 -0.2446517 -0.027230887 -0.2894101 0.17280917 0.44812328 0.6124355 0.15405242
22606 0.16799004 0.47036332 0.8882044 0.020312987 -0.2788719 -0.20643422 -0.2276924 -0.51334023 -0.08776084 0.38571694 0.52772796 0.51083684 0.20896518 -0.6238227 -0.1588365 -0.3091346 0.034541577 -0.039587647 0.5994477 -0.51482993 -0.2034136 -0.13991621 -0.06733247 0.40619472 0.28792548 -0.03707718 0.6280593 0.6745631 -0.4003273 -0.053081535 0.38171208 -0.5043437 0.24237753 0.48587313 -0.0118829375 -0.08387742 -0.0031461022 -0.23872055 0.46019098 0.13920927
22130 -0.06330462 0.07312065 0.12186886 -0.026383499 -0.10828517 0.6001631 -0.3120246 -0.40702957 0.20495345 0.060931176 -0.3976953 -0.4741558 0.36350232 0.17791148 -0.11357234 -0.49916488 -0.15132128 -0.55300546 1.4237152 -0.36222714 -0.60336363 -0.5884624 0.6188158 -0.7578797 -0.072304994 -0.09471921 0.21441406 0.014914962 0.30588755 -0.5080792 -0.45961115 -0.54772675 0.34203157 -0.73740447 0.5449738 -0.08687337 0.12601177 0.36365557 0.30641612 0.311394
30969 0.35097274 0.3303674 0.9545061 0.109366 0.01996686 0.16880673 0.07461934 -0.3829916 0.48485926 0.09688996 0.61837226 -0.5277463 -0.30739376 -0.2382483 0.44445422 0.5255646 0.7316767 -0.32810426 0.18131734 -0.5499496 -0.06778837 -0.13191603 -0.15574522 -0.14617766 0.42033416 0.3896502 -0.13398929 0.40314987 0.23236422 -0.5237195 -0.33045003 0.25059637 0.28989476 -0.4693523 -0.56263226 -0.51983 -0.3312865 -0.19894688 0.4740745 0.16153544
23818 -0.31946555 0.20616406 0.44530138 0.4109121 -0.25085932 0.43031657 -0.06830004 0.5074513 0.40774333 -0.41749498 -0.6214343 -0.053876784 0.024965225 -0.688303 0.20843825 0.18603316 0.52899253 0.2020863 0.76594913 -0.17232072 -0.60002077 -0.24675632 -0.3796079 -0.6017608 0.21752238 -0.10834098 -0.25500795 0.17438707 0.16167226 -0.40727538 -0.38958144 0.111644045 0.3149432 0.25394034 1.3877642 -0.47171873 0.07708235 0.014737387 0.04298021 0.16321588
24347 -0.3892314 0.059287116 0.29782203 -0.17838433 0.040898286 0.03580669 0.35005817 0.38058496 0.22526883 -0.3552879 0.34607643 -0.15582468 0.2882198 0.0878546 -0.4303121 -0.007015931 -0.15460965 -0.84400374 0.18204226 0.0486869 -0.2658945 0.51480466 0.72149223 -0.2220812 0.10207849 0.3425012 -0.02583553 0.8244109 0.75088096 -0.3305425 -0.06948819 -0.097500436 0.82308716 -0.057413127 0.696483 -0.4325749 0.1913244 -0.64375275 0.28025728 0.25227422
4539 0.20143618 0.09052013 0.9722914 -0.044716988 -0.097769015 0.11989814 0.040588245 -0.32714942 0.5153609 0.22181027 0.7304146 -0.43744782 -0.49925116 -0.18514931 0.3930996 0.4938759 0.7713827 -0.27359498 0.13198073 -0.5240701 -0.1448693 0.13330944 -0.279801 -0.21252307 0.33264807 0.62596226 -0.16461088 0.44556105 -0.13915773 -0.08221881 -0.37856713 0.20278735 0.29632437 -0.6128479 -0.54353434 -0.37030348 -0.16085471 -0.16991153 0.47397625 0.23427452
33206 0.025376849 1.1316124 0.69951475 -0.37416723 -0.15810305 -0.22978133 0.011933471 -0.16359425 -0.016845502 -0.31919086 0.052398887 0.108084515 -0.81729835 -0.17401332 0.57608557 0.51051885 0.50410056 0.13032417 -0.06948228 -0.31680578 -0.03331342 -0.47660023 0.27311403 -0.11519405 0.58440995 0.4172227 0.24172865 0.3356994 0.41449395 -0.24338914 0.21387945 -0.1819522 0.02035787 0.21497467 -0.23521832 -0.33695015 0.3566405 0.065491766 0.51305944 0.5511962
29715 0.30072802 0.6989904 0.7091535 -0.20118731 -0.18348941 0.09180251 -0.34313303 0.0016709451 -0.15044391 -0.30576715 -0.17931268 -0.51084405 -0.6777532 0.44941095 0.16658746 0.05677095 -0.16433497 -0.4450039 0.7340775 -0.060492788 -0.59746975 -0.49426535 -0.14527933 -0.32051763 -0.41269645 0.34861618 0.6192185 0.30645704 0.4129181 0.05291055 -0.34213936 -0.23834082 -0.5966786 -0.0037010065 0.17066807 -0.36827573 0.022783054 -0.5660162 0.5628917 -0.05393559
28419 0.45181274 0.14937142 0.52073264 0.30689475 -0.33536816 0.3140848 0.33012292 -0.6796792 0.18683532 -0.2778381 0.6317697 -0.78146446 0.09444427 -0.6723921 -0.3944298 -0.03927521 0.2935643 0.01729651 0.2828086 -0.4831674 0.061064307 0.36809978 0.00481827 0.26424193 0.85967124 0.3991642 -0.22927028 0.7485492 0.49078667 -0.25875208 -0.31623983 0.093034655 0.06381537 -0.56408715 -0.6193371 -0.27271384 -0.35102654 -0.24558824 0.55053806 0.70943385
29552 -0.6954484 0.036144774 0.06288136 -0.6417838 -0.9935486 -0.4819714 -0.21322842 0.23833932 0.5669273 0.6603054 -0.7341395 0.0009354745 -0.005073285 -0.4395531 -0.10391757 0.32036152 0.2268368 -0.3799811 0.4226174 0.1288133 -0.20769125 -0.16941458 0.2507273 0.041958705 -0.16469648 0.8593117 -0.25232273 0.6024877 0.5019615 -0.05068181 -0.36415496 -0.06062589 -0.5255451 0.117307864 0.03670875 0.11854848 -0.25659072 -0.25677773 1.3854104 0.11188566
11588 0.51650584 -0.26808417 0.45507148 -0.13324736 -0.39422274 0.32263714 0.3219941 -0.1824677 0.5938735 -0.346559 0.14904247 0.0528729 -0.32758754 -0.27315235 0.49058813 0.2573917 0.63029087 -0.4280887 0.3406131 -0.53782237 -0.39205348 0.2799278 -0.32630995 0.4235713 0.5751447 0.30600506 0.053875152 0.076664366 0.07501798 0.008128108 -0.04051557 0.19231287 0.007990759 -0.6517064 -0.5299724 -1.0987445 -0.05424832 0.39697632 0.636682 0.6213108
27173 -0.02859535 0.1676795 0.4487516 -0.15653162 -0.024638796 -0.03340353 -0.31038332 0.32057416 -0.28372583 -0.16412817 -0.5942655 -0.3777297 -0.07281981 -0.35696495 0.30172804 0.7713686 0.65965545 -0.5543669 -0.15848656 -0.2761151 -0.3336686 0.13045642 0.17388618 -0.4804677 0.5785928 0.13374452 0.41567385 -0.41694412 0.19211794 0.18825988 0.17719199 -0.74241453 0.33880994 -0.4437769 -0.00351516 -0.1671395 0.47672138 0.16643286 0.5689337 0.42342773
19645 0.2386882 -0.19565366 0.25337076 0.19843815 0.061865546 0.27307397 -0.6297955 0.5618201 0.75222164 -0.41439575 0.3427936 0.2890166 0.2718515 -0.1633753 -0.12338664 0.58928126 -0.4149457 -0.37382528 0.6721504 -0.19990675 -0.00756848 -0.20428222 -0.006346844 -0.0563123 0.54851353 0.55950016 0.35628358 0.6156027 0.63194 0.059346445 -0.19213867 -0.6490525 0.8298797 0.23883556 1.0654081 -0.26753768 0.053718273 -0.5173321 0.20356728 0.27357692
1526 0.58814305 0.3299439 0.2511043 -0.40476218 -0.38430503 0.1115013 -0.14871061 -0.3403757 0.43295938 -0.616684 0.014239411 -0.8745643 -0.24179362 -0.92767507 -0.38401425 0.06599767 0.030352607 -0.24068457 0.51818264 -0.06453285 0.202872 0.66534686 -0.14552833 0.5790194 0.23170303 0.12814139 -0.0038314592 0.6040109 1.0794272 0.9912049 -0.39188138 -0.27070928 -0.06745892 -0.19779555 0.0042160074 -0.062858686 -0.74993825 -0.09569343 0.646325 0.3060505
15115 -0.7040842 -0.9079776 0.13330433 0.32777888 0.6689934 0.22979264 -0.5863202 -0.06501606 0.036736462 -0.59543025 0.15913725 -0.4120961 -0.012716085 -0.48047867 -0.61239207 -0.22592348 0.2849701 -0.069781326 0.6609943 0.10212215 -0.35799557 -0.38081637 0.22056518 -0.4895265 0.90081364 0.19257252 0.36671522 -0.35747886 0.26464236 0.039798293 -0.038296837 -0.2068803 0.9436703 -0.045264058 0.38841024 -0.9791257 0.18466458 0.19607674 0.48660466 0.13932605
18825 0.03234279 0.24740966 0.1820727 0.07038834 -0.7785827 -0.5309967 -0.2599058 0.30888933 -0.3609791 -0.3138472 -0.29569653 0.022971647 0.029591255 -0.6191925 -0.5154684 0.21604131 -0.07295537 -0.17494826 0.9002731 0.08611358 -0.37041664 -0.040923353 -0.467635 -0.13337493 0.7154647 0.4746814 0.008167343 0.57431155 -0.19731323 -0.12626429 0.06887252 0.30811873 0.7543788 0.023520257 -0.020412978 -0.55874354 -0.07089486 -0.35832223 0.18009524 0.30995572
19153 0.115255 0.09164352 0.5286807 -0.10078862 -0.39342165 -0.038742952 0.43393457 -0.47983757 0.12396438 -0.5165284 0.34639448 -0.07048561 -0.5267892 -0.1290218 0.5807842 -0.018870585 0.6357896 -0.4995459 0.27052546 -0.29750767 -0.13516107 -0.1038622 -0.056776088 -0.07073282 0.17771825 0.70783746 -0.46058366 0.21704242 0.22909433 -0.195492 -0.11579865 0.23824474 0.25427285 -0.29991892 -0.19677797 -0.17826179 0.26308677 -0.54387736 0.5273759 0.4280334
36788 0.015286941 -0.5617105 0.5297898 0.11166088 -0.3897968 0.118885145 0.124708116 -0.3624214 -0.13994116 -1.0494212 0.10494547 -0.07957558 -0.21559827 -0.41616052 -0.11972375 0.4577094 0.3821775 -0.21646392 -0.12199236 -0.30472228 -0.4433231 -0.2321101 0.70912737 -0.037656765 0.080967866 -0.2835588 0.68896735 0.124092825 0.30142498 0.08504219 0.4888943 -0.4291793 0.37663606 0.018621752 0.96618646 -0.4482137 0.19911525 0.31998795 0.8662936 0.41301528
2397 -0.016637255 0.55639356 0.19136879 -0.7970749 -0.81069183 -0.023743248 0.16071439 -0.4543702 0.360099 0.043214962 0.20240623 0.14211345 -0.30056766 -0.15942511 0.53390944 0.26973844 0.23337755 -0.24466462 0.33540365 -0.47929958 -0.024657875 0.08503949 -0.2204241 0.14420079 -0.18727612 0.05350272 0.7892712 0.10994727 -0.2604837 -0.25987163 -0.7758398 0.3637114 0.20184034 -0.4635333 0.029085008 -0.13046168 0.085533634 -0.02536732 0.8436421 0.8091858
25166 -0.36423105 -0.110740535 0.33572212 0.31649598 0.06299887 0.119928114 0.65898836 -0.026789555 0.6759237 0.073433205 -0.3115408 0.05282104 -0.056949977 -0.48904055 -0.6028318 -0.14501807 0.38296115 0.15671283 0.32239208 -0.30955157 -0.80546415 0.30257663 -0.06991358 -0.43434972 0.32434273 -0.5225652 0.4877464 0.5419645 -0.13208766 0.10642526 0.2576287 0.36308706 -0.756964 0.05945964 -0.40628725 -0.7065408 -0.48400378 0.11019161 0.8413836 0.32196346
33471 -0.21785098 0.3366992 1.0238764 -0.09175746 0.37750193 -0.4487417 -0.11799443 -0.42415133 0.25020975 0.2068799 -0.17151165 0.07201345 -0.29655448 0.16080718 0.8566852 -0.23395288 0.0807829 0.054602705 0.56853175 -0.65054595 -0.14639793 -0.30065453 0.34320986 -0.033075083 0.6882089 0.35316867 0.35082194 -0.2312005 0.5555823 0.60446215 0.2919617 -0.25022063 0.35379323 0.4522503 -0.14764133 -0.20581463 -0.068924814 0.19246529 0.21216407 0.14036676
18035 -0.50534606 0.45543855 0.89320385 0.033568446 -0.18508172 -0.33534795 -0.3659851 -0.9599589 0.6184557 -0.023854611 -0.02714003 -0.3738902 0.67537653 -0.059919104 -0.2027578 -0.6875501 -0.43806455 -0.0994548 1.0960828 0.9459936 0.052774567 0.33898196 -0.0824279 -0.43460688 0.17015177 0.15851746 0.30322474 -0.107056394 0.038486503 -0.3112845 -0.20312187 -0.16642459 0.5583449 0.07941607 -0.10715218 -0.7444735 -0.15167256 -0.31644678 0.09923105 0.17393953
28852 0.34160408 0.22719678 0.8130989 -0.05106192 0.044301674 0.3200577 0.28705338 -0.44601452 0.5599603 0.002029707 0.83505654 -0.34815243 -0.31892765 -0.28191218 0.42527914 0.11406944 0.507764 -0.5291346 0.09990334 -0.48045188 -0.06866152 0.07815438 -0.26100886 -0.42494178 0.4906405 0.50796556 -0.08634355 0.2647271 0.13800508 -0.2690087 -0.029224565 0.36359316 0.199489 -0.79686713 -0.3837748 -0.53916013 -0.19697103 0.099580504 0.41150123 0.37356812
19675 -0.5702575 0.31313324 -0.0026637812 0.27256352 0.017055318 -0.1850517 -0.5661147 -0.30651104 0.1667283 -0.16502912 -0.2446435 -0.24436429 -0.13387792 -0.20524272 0.22301926 0.59692097 0.2733917 -0.2950233 0.56935495 0.42650452 -0.44653037 0.27926782 -0.43191436 -0.1844456 0.4736142 0.59976476 -0.49982655 0.5524827 -0.22339639 -0.01254314 -0.23713729 0.34077632 0.31857052 -0.56960696 -0.6032839 -0.5408712 -0.37713835 -0.37245843 0.47735217 0.6958326
2442 -0.43437704 -0.52525395 0.14927518 -0.117451064 0.037014026 0.23477013 -0.37125102 -0.70441836 0.44232363 -0.4125609 0.29899776 0.22434264 0.49742168 -0.24768996 -0.13383897 -0.3003208 0.30359286 -0.121892 1.3721313 0.09159929 -0.7706645 -0.51336193 0.31429717 -0.2190252 -0.11258741 0.2541033 0.02195799 0.11826789 -0.15187776 -0.7149537 -0.45224032 -0.16774996 -0.1955813 0.007153705 0.5642782 -0.2642672 0.76073694 -0.2675599 0.4276733 -0.21542437
6790 -0.42368972 -0.10397598 0.813593 -0.16569622 0.20273143 0.35311526 0.079502895 0.21304579 0.41722712 -0.26368833 -0.06928551 0.087507136 -0.38560873 -0.9591986 -0.6719678 0.5048819 -0.2823455 -0.17246519 0.31231672 -0.10144137 -0.4575605 -0.10021391 0.76492995 -0.28587663 1.211944 -0.11952743 -0.03503596 -0.1113771 -0.29716355 -0.15406422 0.19224007 -0.40251797 0.4014153 0.15987597 0.6900693 0.09367345 0.7074641 0.040060945 0.973904 0.3171163
27933 -1.2121171 0.23089834 0.20339136 0.5351898 -0.47776258 -0.49457324 -0.025708443 -0.85953814 0.6796467 -0.22169828 0.026065469 0.21619584 0.011783267 -0.097868204 -0.13725074 -0.1809986 0.6735387 -0.4443831 1.1621604 0.17042533 -0.4441897 -0.20377858 -0.2527235 -0.4589727 0.0024651824 0.16058487 -0.7587215 -0.00024276003 -0.34781733 -0.39140207 -0.2715071 -0.41674155 -0.20143998 0.36737466 0.6458628 -0.5192833 0.30804756 0.14075734 0.30006024 -0.19072746
30956 -0.15121968 0.10323406 0.69388515 -0.25937667 0.3735572 -1.0031159 -0.29132354 -0.53679216 -0.052323077 0.2476947 -0.34543872 0.46890888 -0.6142457 -0.46362734 0.17686401 0.09368748 0.0390624 -0.36384866 0.2594079 -0.6684054 -0.33316094 -0.1196491 -0.07954314 0.1483556 0.42791328 0.36083987 0.14491917 -0.17073162 0.34960487 0.19875887 0.042803384 0.05091292 0.0075754183 0.2009654 -0.004926722 -0.17327844 -0.36028934 0.30769 0.5574581 0.61092836
26963 0.007974053 0.26904562 0.118152335 -0.24956162 -0.4546321 0.73631227 -0.1738941 -0.36432594 -0.05982224 -0.0047914768 -0.42734843 -0.7468763 -0.092475355 -0.15032434 0.35574976 0.14300056 0.018347414 -1.031041 1.274586 -0.09627559 -0.5010156 0.0090197995 0.58489287 -0.23924702 -0.09366243 0.61869955 -0.15539652 -0.42432985 -0.009020519 0.17633551 0.4156949 -0.72208196 0.3817383 0.023433967 -0.21921311 -0.24674378 -0.24627028 0.5000904 0.1722726 0.35301614
17649 -0.23394877 -0.9758032 0.3780163 -0.8539725 -0.23667096 -0.1836331 0.25149545 0.3338405 0.193818 -0.12775487 -0.03826421 -0.025725536 -0.055742938 -0.6342544 0.011768524 -0.1858088 -0.093986906 -0.5044123 0.52558124 0.31606352 -0.48983592 0.28650585 0.25215986 -0.22694455 0.4821506 0.43132052 0.37429658 -0.113606304 0.311842 0.8364413 0.024383806 -0.0020569412 -0.4236522 0.25431073 0.39489874 0.045234546 0.6742119 -0.45789978 0.28886282 0.86192626
14831 0.049043603 -0.57855016 0.022479424 -0.5265485 -0.038670145 -0.35272628 0.5174885 0.34739965 -0.058044147 -0.6518694 0.24473117 -0.12856345 0.355964 -0.30844903 0.1357188 0.22108804 0.5433387 0.21083885 0.88896704 -0.1589346 -0.23839746 -0.23772272 -0.1298984 -0.43667194 0.4777287 0.3727765 0.2655901 0.6416731 0.15914159 -0.042676806 -0.3756705 -0.20290649 0.29135138 0.017766109 1.1364417 0.01963854 0.36541957 -0.51016665 0.38032 0.28854856
24499 -0.50633025 -0.043624803 0.4774868 0.17799842 -0.08971772 -0.16026287 -0.015563883 0.30272228 -0.60719466 -0.39860767 -0.090218395 0.0178119 0.3407704 -0.610259 0.032339923 0.54772115 0.89763623 -0.43769476 0.4097053 0.045153085 -0.4976825 -0.6524731 0.10115134 0.19692412 0.045134492 0.0069880937 0.05103485 0.53556514 -0.3195342 0.29801932 0.0962461 0.05795958 0.53649366 0.29634088 0.45340842 -0.24325103 0.049443446 -0.009773621 0.88793576 0.08637136
14352 -0.5689977 0.5230591 0.116333574 0.15313503 -0.37798804 0.13815947 -0.21769816 -0.98214585 0.37800986 -0.8159137 -0.3599971 -0.09971677 0.3368178 -0.13599251 -0.46643874 -0.74284106 0.64931303 -0.82396835 0.5050134 0.08078773 -0.80563736 0.030285792 -0.34110424 -1.1122426 0.09195089 -0.13422014 0.050452013 -0.066815786 0.2249444 -0.4211917 -0.32255983 -0.47496822 -0.16468413 0.45855385 0.7614439 0.00500842 -0.5175032 0.079046 0.5297592 -0.21387441
26734 -0.25639018 0.84074086 0.008585016 -0.22708279 0.37693304 -0.85048413 0.15971556 -0.28198868 0.07983491 -0.066111796 0.43387038 -0.1495554 -0.44460407 -0.4243466 -0.62332875 -0.34734625 0.8801484 -0.2336146 1.0778993 -0.07986725 0.26457554 -0.0045829555 -0.065060824 0.16798663 -0.33326754 0.7334775 0.62011045 0.00037192978 0.5592458 -0.12207693 0.27521378 -0.074529484 0.12436177 -0.06087954 -0.19640975 -0.24031025 -0.31720996 0.3163385 0.47073758 0.79022783
10154 -0.41229862 0.15447535 0.57344764 0.14755018 -0.3232586 0.29619575 -0.08100399 0.3879761 -0.040290825 -0.2502092 -0.10439203 -0.01769513 0.20953368 -0.45900485 0.3259976 0.96801597 0.49705836 0.014600001 0.13006435 -0.5772615 -0.70973533 0.042687744 0.23670277 -0.15008907 -0.0075310688 0.19144419 0.22095266 0.2973061 -0.031639688 -0.31443006 -0.25188547 -0.035725385 0.27998015 0.38235962 0.34248835 -0.63944787 0.30470535 0.67425615 0.20119424 0.18641466
18151 -0.57195663 -0.39472052 -0.14715935 0.11582705 -0.074908726 0.72534853 -0.13203658 0.08397528 0.23134127 -0.32698643 -0.23112947 -0.034695897 -0.27862963 0.099531054 -0.4206657 0.16637783 0.24633193 -0.4272613 0.4836938 -0.18886775 -0.49663487 -0.18719001 0.044430133 -0.23581864 0.320621 0.3486434 0.08197284 1.1314082 0.17309184 -0.05861421 -0.5661237 -0.08186716 0.835721 0.71834135 0.66435003 -0.9070043 -0.05597223 -0.38074476 0.05988441 0.26284578
910 -0.8599751 0.18203571 0.14399792 -0.016433416 -0.014215032 0.627768 -0.055351544 -0.20796132 0.36733556 0.4366426 0.32821015 0.6941163 0.095146224 -0.46820068 0.33039635 -0.02539665 -0.11536707 0.23628801 0.18732423 0.39464954 0.07182217 0.6259599 0.044828657 -0.45678166 0.9671191 0.803393 -0.13232082 0.39873353 0.18733646 -0.9484266 0.1341675 -0.49127698 -0.117644876 -0.48372415 0.69281644 -0.060610645 -0.28016487 -0.34431437 1.2043673 0.85756093
10402 -0.08794974 0.17325972 0.70524156 -0.33780015 -0.16422522 0.28655648 -0.003312228 0.110595055 0.46018526 -0.4149667 -0.08597152 0.17208661 0.5157297 -0.07554566 0.64429116 -0.39750555 -0.057080846 0.051288508 0.8982302 0.046327766 -0.12947212 0.26996133 0.33716115 0.06889425 -0.036546208 0.31779298 0.49340823 -0.18190977 -0.2072074 -0.503814 -0.03597886 0.16309337 0.5291576 -0.19090907 0.47330058 -0.66201234 0.36036143 -0.42443302 0.43890154 0.24340323
29439 0.6735677 0.25427258 0.21923146 -0.5082265 -0.27534735 0.08518154 -0.090478115 -0.28332224 0.5871725 -0.59376246 -0.054230947 -0.8245146 -0.05984211 -0.8926578 -0.33294678 -0.0070109996 0.11373585 -0.15000367 0.5757897 -0.020074595 0.17525035 0.6129083 -0.2506887 0.678361 0.38228804 0.14505954 -0.031378243 0.44555786 0.99966526 0.9503007 -0.2747361 -0.32814854 -0.14860706 -0.27581897 0.066246405 -0.17895329 -0.74585974 -0.19271061 0.66489846 0.25283933
29283 0.014635777 0.17994297 0.6226598 0.5506278 0.26961344 0.35008392 -0.24566497 0.22423512 -0.39994866 -0.06398467 0.035408486 -0.58955437 -0.839033 0.23269393 -0.23961243 0.23132269 0.3174369 -0.13992916 0.7590401 0.30205184 -0.625887 -0.12594475 0.39593297 -0.2692493 0.35774556 0.40169668 1.1407633 -0.058797188 0.39827624 0.15497255 -0.045289215 0.24364245 -0.5846851 0.5011137 0.20899811 -0.47120327 0.1446093 -0.7193298 0.91754633 -0.24417908
5362 0.44909596 0.32643458 0.18715927 -0.062893525 0.025858881 0.06895855 0.014448646 -0.42985952 -0.20531002 -0.11918146 0.43243182 0.2911344 -0.35530546 -0.41787192 0.41158375 0.2346879 0.38805676 0.07763452 0.19853103 0.37286645 -0.17508145 0.21970434 -0.4198295 -0.23857811 -0.06690121 0.19322285 0.8390834 0.21739839 0.20039816 0.3533192 -0.35705566 0.052129764 0.04721049 0.79165274 -0.11618704 -0.92171574 0.6873102 0.35786948 1.021598 0.15716282
36148 -0.33184254 0.22885594 1.0027796 -0.2203541 -0.12037969 -1.3092074 -0.33118522 0.120172806 0.1571956 0.3603969 -0.3167574 -0.06239793 -0.029001346 0.0005134977 0.34586045 -0.373882 0.3130193 0.07877776 0.27627957 -0.2533062 -0.011261924 0.114923224 -0.16277346 0.2658156 0.52897024 0.5706504 0.1963932 -0.29338154 0.034774385 -0.2987263 -0.4953521 -0.23592956 0.20600589 0.12596619 -0.062429734 -0.73480326 -0.33419544 0.06557512 0.65052766 0.24949424
9049 0.022781825 0.23553798 0.62074655 -0.12285231 -0.32020003 0.23468745 0.7370952 -0.45210764 -0.040435057 -0.030456275 -0.066037074 -0.48545647 -0.18531899 -0.15803176 0.16476107 0.60839754 0.30008495 -0.2030947 0.3076597 -0.4967029 -0.2457934 0.35623127 -0.1372847 -0.072432145 -0.22561637 0.42703223 -0.21578985 0.068487965 0.48351675 -0.18252102 -0.539193 -0.011395363 0.06621238 -0.41722575 -0.43991366 -0.09352313 0.5501912 -0.1607412 0.87037945 0.73311955
7598 -0.6298519 -0.10234838 0.38575605 0.4692489 -0.107741654 -0.014119102 0.2663446 0.4758164 0.23368755 -0.024775378 -0.0756502 -0.20837642 0.11018056 -0.517442 -0.3786317 0.4883878 0.5228635 0.15255448 0.4293143 -0.05473969 -0.52445126 -0.051900756 0.17941521 -0.41192716 0.4627706 -0.5023693 0.44586033 -0.24515504 0.22446157 0.1728226 -0.6471669 0.08020962 0.18427178 -0.42392546 1.406284 -0.7849364 -0.10666934 -0.0527851 0.28074983 0.23251557
1030 -0.6309398 -0.47583005 0.73322135 -0.30078083 -0.026337948 -0.08021085 -0.0444802 0.46069944 0.6085928 -0.047743 -0.3803269 -0.05759832 -0.24073163 -0.26813364 -0.67705375 0.30184928 -0.43297973 -0.09111179 0.27739134 -0.33153945 -0.60776967 -0.47493792 0.20571142 -0.6081162 1.2898059 -0.23327535 0.01828984 0.018321605 0.25370792 0.34957564 -0.20243831 -0.011883175 0.1840779 0.4035582 0.88006085 -0.064895116 0.5583042 0.11301217 0.68621236 0.26148316
2556 -0.27968317 0.16256104 0.7391669 -0.4934977 0.27663827 -0.19405071 0.46571094 -0.8432937 -0.19942999 0.22905271 -0.41177216 0.07832967 -0.019397078 -0.012827499 0.396281 -0.10689578 0.114721976 -0.30445087 -0.14093715 -0.655979 0.12514508 0.09847028 -0.31321394 -0.5502965 0.57319796 0.2817548 0.4947016 0.14787117 0.53661686 0.35834017 0.5105317 0.24723956 0.21716432 0.35861182 0.14578454 -0.38959047 -0.034327153 0.12521072 0.8877832 0.25494945
27728 -0.4946944 -0.25560462 0.4493405 0.18011291 -0.00017015348 0.18107885 0.212716 0.35385537 -0.12541112 -0.42334592 0.34970507 0.30398512 -0.021766746 -0.34375662 0.06334582 0.5706555 0.34656996 -0.17671333 0.13121438 -0.2055484 -0.37509865 -0.15263124 0.743109 -0.6430049 -0.0072897524 -0.052676424 0.68068653 -0.09972319 0.2822998 0.033759158 0.011472451 -0.09550709 0.629218 -0.017390452 0.7876607 -0.27444038 0.34756127 -0.24409302 0.8464476 0.36656615
29827 5.2091185e-05 0.387294 1.2004206 0.0003273174 0.10983155 -0.4220479 -0.33415607 -0.0123191895 0.5116897 -0.35961968 0.21951984 -0.4034176 0.059547357 -0.698234 0.28000906 -0.3322451 0.43767208 0.45276627 0.34271133 0.15730092 -0.51422185 -0.58597374 0.419679 0.48143038 0.027606897 0.6351023 0.5963634 0.06831174 0.8417778 -0.12422174 0.50658244 -0.057544414 -0.20684032 -0.14026606 -0.53446794 -0.6382012 0.161044 0.2468661 0.13037916 -0.13348147
13413 -0.26467457 -0.34221256 0.6833249 -0.18567176 0.70779574 0.18860415 -0.538535 -0.5129893 0.5910727 0.43077004 0.22088759 0.019741807 0.027266018 -0.34787366 0.17736761 -0.21504822 0.53083485 -0.54780257 1.4746203 0.53847134 -0.7052335 -0.3100821 -0.14947061 -0.24696879 -0.21320902 0.115771614 -0.6036712 -0.20649727 -0.69755536 0.008650306 -0.33604747 -0.845134 0.27689362 -0.11016775 0.30422455 -0.6428486 0.23311926 -0.2159292 0.28067315 0.09222955
21447 -0.48284936 -0.21842001 1.1434795 -0.13947088 0.2866818 -0.1756568 -0.06360414 0.64018893 -0.66001743 -0.29302505 0.0686898 -0.37232533 -0.2674326 -0.27205306 -0.5460114 0.7316857 0.55523115 -0.28067273 0.4219109 0.15897171 -0.4386203 0.33118737 0.5994635 -0.31118205 0.35685658 0.33644682 0.2563194 -0.055724394 0.026230423 0.41706195 -0.34601355 0.23118436 -0.20217401 0.46057457 0.8183594 -0.44045177 -0.08316071 0.1427 0.6439208 0.18081151
26007 0.25211284 0.5878257 0.2544767 -0.4003834 -0.029862205 -0.4888819 0.29576334 -0.42788905 0.0020324818 -0.11465085 0.3203292 -0.055142216 -0.43154642 -0.084541455 -0.14415781 -0.36212382 -0.061172772 0.18082637 0.6022465 0.30185658 -0.55138046 0.86257696 0.29683277 -0.5134795 -0.45666614 -0.12870213 0.30125013 0.3687177 -0.07889339 -0.022235371 0.053931493 0.061612885 0.27523977 0.29475915 -0.015062733 -1.0818285 0.069458015 0.23732889 0.5680981 1.0588224
1464 -0.010381531 -0.011098423 0.075132005 -0.36499986 -0.33661127 0.21393505 0.13901107 -0.004314911 -0.007405097 -0.22100604 0.6343131 -0.13808402 -0.47240132 -0.36515397 -0.3363569 -0.78732675 0.095178545 -0.3331206 0.64030606 -0.04258205 -0.9386096 -0.1153167 0.2400548 -0.04881327 -0.3010684 0.39690286 -0.22483428 1.2312742 -0.117585056 0.13487637 -0.31842753 0.23650971 0.08127122 -0.04166841 0.5686696 -0.33332035 0.65831035 -0.4815018 0.30536565 0.3239834
119 -0.22780496 0.5372249 0.39884952 0.26654246 -0.57997406 -0.2487895 0.65702593 -1.0105772 0.7332879 -0.4726201 0.43994063 0.40863648 -1.1175647 0.037504803 -0.011339862 0.11724011 0.47459763 0.56101876 0.35699925 -0.2418591 -0.5596329 -0.2545495 0.37705135 -0.08317732 0.21657586 0.18426178 0.22259511 0.32029393 0.95826447 -0.051598962 0.32279676 0.22191152 -0.0034960224 0.0074149556 -0.28485402 -0.37358063 -0.15153207 -0.42889377 0.31353313 -0.15165156
24350 0.07062221 -0.059216775 0.85477346 -0.45412517 -0.05970217 -0.3113959 0.29401648 -0.193278 1.006933 -0.12981246 -0.48330986 -0.83782464 0.13263604 -0.115459256 0.38781357 -0.15420051 -0.15521517 0.40012434 0.16658075 0.2800073 -0.3778267 -0.55406135 -0.23736128 0.5072218 0.8085285 0.32389948 0.34401855 0.22938462 1.0338091 0.4471988 -0.5066184 -0.15785004 0.22971566 -0.22464149 0.09726358 -0.66437674 0.48075032 0.19018792 0.1967388 0.0863617
27497 0.11833729 -0.30832565 0.7702871 0.5599238 -0.15961869 0.12746088 0.0158257 0.20626959 -0.20791993 -0.2280324 -0.08920417 -0.48354727 -0.018945953 -0.33942923 -0.535142 0.16055006 0.8767042 -0.028286917 0.26882675 -0.22154671 -0.2276723 0.6590562 0.74628747 -0.18937626 0.36965308 -0.06958284 0.33206144 -0.49080983 0.16823645 0.43068558 -0.31461862 -0.39854565 0.1409296 0.39377773 0.8327299 -0.56565404 0.1815166 -0.45491144 0.7503219 -0.08081047
14683 -1.1252289 -0.23280293 0.0026904356 0.100530244 0.42439795 0.05395859 -0.5313631 0.32697642 -0.025553437 0.2596739 0.14545065 -0.21288893 0.42247692 -0.16150431 -0.10282138 0.6204727 0.29696855 0.101108834 0.7939243 -0.274642 -0.09066366 0.03067449 -0.20469119 -0.31245166 0.45747223 -0.14140631 0.5578725 0.7135569 0.12549402 -0.3065133 0.24807045 -0.14933357 0.72425294 0.5699444 0.36523783 -0.36529624 0.055230323 -0.32111427 0.50582236 0.558024
20024 -0.3131359 0.9873208 0.16538507 0.12938026 -0.38841015 -0.36045307 -0.14942871 -0.3353615 0.058830746 0.8194398 0.22450384 0.21080123 -0.71999097 -0.25216988 0.071313664 0.27859506 -0.15811124 0.00033409367 0.26525497 0.27155092 -0.62044686 0.568592 0.015073803 0.1938526 0.10509683 0.14545256 0.25179204 -0.03603732 0.11380806 0.15257518 -0.022148214 -0.45141464 0.90093267 -0.5284307 0.24255472 -1.105919 0.4805765 -0.17607605 0.4235642 0.4333627
31104 -0.3974584 0.39953467 0.22735107 -0.58185893 -0.07921607 0.6788492 -0.44141498 0.20868431 0.083218075 0.23939 -0.20598371 -0.20347685 -0.32499114 -0.7229458 -0.05090134 0.33888984 0.264491 0.015300069 0.055999514 -0.8178077 -0.55354124 0.8607439 -0.17954925 -0.12727404 -0.5533668 -0.12173173 0.60216576 0.77257293 0.53617287 -0.47015527 -0.35260004 -0.43146405 0.5182466 0.3090946 -0.08339732 -0.42034918 0.2769698 -0.29331776 0.3723829 -0.068510205
17429 -0.22860679 0.39005244 0.7413724 -0.35381657 -0.3616006 -0.32660842 0.005602224 0.27161944 0.027571341 -0.28023988 0.008885605 -0.03965489 0.49065754 0.067920804 0.40197858 0.09186658 0.87000966 0.4420877 0.8742338 0.05854906 -0.13215978 0.37470335 0.35148984 -0.059455045 0.3074636 -0.23213588 0.16329573 -0.28242213 0.24133311 0.15081362 0.11456623 0.7582903 0.15823442 0.13618404 0.07919481 -0.24230056 -0.18014899 -0.51384246 0.9206027 0.15877727
13028 0.5053725 0.5315225 0.23962423 -0.28270286 -0.22914985 0.15513273 -0.12281608 0.5550575 0.34998912 0.9025079 0.16564205 -0.20950787 0.388032 -0.22852306 -0.22525224 0.5617368 0.6376053 0.08766007 0.5404034 0.11559755 -0.20540519 0.520224 0.10650666 0.041867487 0.18814792 0.26476145 0.6252828 0.6527494 0.5370238 -0.10513614 0.46650743 -0.15087375 0.13939889 0.0753325 0.27599466 -0.25024316 0.34609675 -0.48927197 0.7522121 0.33821523
23491 -0.6669718 0.35744938 0.66066796 0.24245241 0.023337912 0.35715064 -0.47316375 -0.6838321 0.57872194 0.2890228 -0.24956048 0.020726914 -0.24208535 -0.044130776 0.37176758 -0.37503478 0.88417673 -0.16236134 0.3890039 -0.82419693 -0.7218971 0.40388757 -0.19781063 0.20191833 0.23102953 0.27255005 0.6556098 -0.016214764 0.7115919 0.7321923 0.71875525 -0.0069524907 0.25979134 -0.17486674 -0.384076 -0.102247976 -0.45081162 0.5061436 -0.2693089 0.33318734
30720 -0.23395294 -0.4617878 0.7429727 -0.058291648 -0.24592498 0.377478 -0.19201738 0.008685641 -0.12930965 -0.1646489 -0.31101134 -0.035046317 -0.34616485 -0.90258735 -0.7355205 0.32332763 -0.0085039055 0.32231846 0.4055102 0.08113219 -0.48096472 0.24347202 0.2538885 -0.55704325 0.8001365 0.47650623 -0.16369486 -0.09003917 0.24821737 -0.10253329 0.026806038 0.064899355 -0.32684255 0.052968256 1.0713621 0.16904588 0.7084464 -0.078153655 0.72042704 0.098826125
37651 -0.18959944 -0.1858792 0.26978067 -0.11729439 -0.0015137893 0.19120748 -0.20364387 0.23710579 0.03474951 -0.4669463 -0.03680908 -0.7637474 -0.4385325 -0.77860016 0.17106244 0.33509886 0.023622314 0.21733762 0.94388336 0.500296 -0.5756091 -0.30329615 -0.24783607 -0.21395661 0.09176074 -0.37569204 0.38403913 0.3238589 0.16805546 -0.3556465 -0.20227611 -0.560473 0.21516545 -0.26212358 1.0934465 0.03032302 0.1573509 -0.06259559 0.31392282 -0.23805594
27024 -0.6010871 -0.5779029 0.8306516 -0.01662845 -0.19004993 0.40161428 0.27955738 0.4199114 0.3180705 -0.098954596 -0.008763763 -0.005839768 -0.2085186 -0.47525907 -0.81309325 0.53463084 0.2372534 -0.8337755 0.47102344 0.13164984 -0.63375276 -0.19057256 0.33835626 -0.21266958 1.0663246 -0.54876 -0.14106804 -0.2703968 0.20989984 0.24330315 -0.4562793 0.18244028 -0.009130796 -0.15011154 0.98448926 -0.24739896 0.40619186 -0.073344305 0.36507416 0.45106506
24574 -0.57468075 -0.07673232 0.53503424 -0.48753005 -0.33295095 -0.08010782 -0.10261821 0.13008378 0.9161519 0.46850967 -0.7730913 -0.43510982 -0.537238 -0.4884665 -0.7387416 0.54894 -0.35541663 -0.39955363 0.47329152 0.41554546 -0.15494393 -0.35463917 0.35562325 -0.0037619595 0.8258152 -0.23199333 -0.29200438 0.125084 0.76295877 0.64803773 -0.40348908 0.07236435 -0.30313927 0.3446535 0.030616658 0.31430283 0.44131356 -0.12122783 1.1211195 0.053802483
36055 -0.19985041 0.1327042 0.34398755 -0.10973277 -0.4460583 -0.22660539 0.046458263 -0.25890952 -0.32697776 0.3253887 -0.1021661 -0.19162007 -0.48392537 -0.3211305 0.29780787 -0.19740985 -0.10352932 0.36451313 0.93902093 0.2317611 -0.0345242 -0.075492725 0.024219384 0.4772346 0.6224033 -0.15024948 0.31282392 0.93097687 0.010009146 0.22779863 -0.03585994 -0.0678213 0.2407461 0.23387395 -0.23603965 -0.35414317 0.034815636 -0.61347467 0.8106606 0.45140684
11648 0.23169023 0.26024777 0.13960508 -0.28751406 -0.18810864 -0.260687 -0.33545738 -0.6620427 -0.40142244 0.17996764 0.011054145 0.12246213 0.16666539 -0.5891377 0.05389268 0.0574409 0.8664962 -0.025970845 0.5041847 -0.14308822 -0.59430265 0.10255994 0.13376565 0.4344737 0.3346338 -0.11120923 0.46679217 0.19244821 -0.021313366 -0.00029395847 -0.22781049 0.6384039 0.24422204 0.45406452 0.23882791 0.061189745 -0.44283104 0.02540907 0.36979866 0.6053335
5567 0.2500272 0.09133899 0.371678 -0.7130069 -0.100396164 -0.29668325 -0.44670138 -0.40440053 0.36816454 -0.79201657 0.05415052 -0.74145097 -0.8377776 -1.0773387 0.008526934 0.2963448 0.162498 -0.03700665 0.44193015 0.22362849 -0.39088997 -0.09977 -0.3801919 0.37431628 0.09055687 -0.52285534 0.33394402 0.47120333 1.1666538 0.63724095 -0.20369154 0.23991357 -0.06675189 0.013672302 0.29635903 0.23323843 -0.64810973 -0.18991864 0.17642227 0.12624522
26647 -0.559208 -0.5348831 1.2161741 -0.3155018 -0.067868695 -0.4193133 0.031797934 0.121521585 0.022662843 -0.73897904 0.31873262 0.030433388 0.5013687 -0.06358147 -0.13492876 0.38693032 0.18780807 -0.2654038 0.1390867 -0.59800583 -0.19574969 -0.634365 -0.06475237 -0.0072581363 0.18148941 0.4663431 0.60943794 0.19335078 0.15410377 0.1288287 0.11570003 -0.6608262 0.3556809 -0.038656633 1.0558245 -0.14217862 0.05756187 0.19085458 0.46104583 0.33492425
21334 -0.008055846 0.4641687 0.38294056 -0.6683108 0.5104068 -0.8178045 -0.25468102 -1.0085653 0.10184377 -0.26493022 0.045189377 -0.014336975 -0.51343346 -0.74897546 0.6302132 -0.06741599 -0.15886974 -0.42702693 0.45021337 -0.54018736 -0.22830865 -0.2223981 -0.0034949605 0.19769573 0.4415069 0.08373519 0.5752799 0.2897815 0.39260978 0.36770758 0.031888016 0.24967945 -0.057767913 -0.10906972 0.21574411 -0.10608746 -0.18172723 0.035689227 0.106860556 0.095983714
1841 0.10202118 -0.34387594 0.6019756 0.19926494 0.47770265 -0.30316004 0.60467035 -0.24936154 0.95296335 -0.16753826 -0.4227988 0.07820653 0.28994247 -0.72088647 -0.3834011 -0.011580028 0.35204673 0.048477605 1.0458902 -0.008835224 -0.6157274 0.44083756 -0.34821486 0.16022775 -0.06625633 0.17972432 0.19454978 -0.059266068 -0.12728162 -0.06453981 0.16353774 -0.4546377 -0.39036623 -0.36165124 -0.06641943 -0.21218781 -0.6034516 -0.66307443 0.49725884 0.055630345
25575 -0.25128493 0.5589309 0.8312503 -0.52483726 -0.05012734 0.17471111 0.11810165 0.083505586 0.10271392 -0.06512597 -0.09913018 0.5617858 -0.1915012 -1.1397634 0.41796368 -0.09327246 -0.26983917 -0.48586667 0.6563669 -0.39968845 -0.7312314 0.27267662 -0.15348037 0.14412796 -0.05712079 -0.60381746 0.45186567 0.86157215 0.1603916 -0.35533217 0.26837537 -0.27767932 0.14117014 0.064457394 -0.46362832 0.022757156 -0.16078833 0.17369322 0.48946226 -0.051016
26190 0.6085933 0.36573872 0.6260839 -0.13721752 -0.7464378 -0.06622875 0.26623204 0.386372 -0.4553193 0.041287985 -0.41076297 -0.007364384 -0.4376858 -0.68476075 -0.21658702 0.26489645 0.25670853 -0.21757483 0.59119284 -0.036234017 0.055752665 0.4504045 -0.5763217 -0.34552136 0.5669714 0.5335825 0.83714795 0.60275143 1.0767397 0.055939395 0.37030628 -0.14509767 -0.00030493553 -0.34108576 0.06822939 -0.2698563 -0.50546247 -0.2906532 0.49415487 -0.6256895
2420 -0.48407194 -0.34310997 -0.10706873 -0.25093356 0.65904 -0.06563838 0.43303376 -0.35613596 0.35279843 -0.46307883 -0.20113787 -0.5838141 0.27624962 -0.65562254 -0.38088158 0.3824673 0.24898842 0.051603936 0.59650165 -0.09543366 -0.58230627 -0.27368727 -0.0382399 0.008360952 0.60398054 -0.0026082187 0.47973883 -0.2651843 0.34883884 0.2931496 -0.86244315 -0.9034342 0.21328506 0.35098523 1.1763271 -0.73895913 0.16147229 -0.12741415 0.12442702 -0.3301351
23458 -0.07186026 0.87624955 0.15836649 -0.41379282 0.5884067 -0.031750064 0.39789978 0.020160317 0.25805846 0.2639624 -0.003974779 0.011228589 0.4843359 -0.3119113 0.19490868 0.2732174 0.3229423 0.005180839 0.60978955 0.08735892 -0.1639654 0.56631815 0.10503292 -0.26665708 0.14420968 0.6991738 0.6913633 0.025265742 0.5357775 -0.5004902 -0.04611904 -0.08814486 0.11280623 -0.49242616 0.17170064 0.10876058 0.09240877 -0.4272156 0.25680488 0.8197889
10487 0.05188501 0.3618313 0.46107763 0.21886162 -0.33596918 -0.0736531 0.06268707 -0.6691235 -0.25645134 0.5953995 -0.53394336 0.36821607 0.5151099 -0.69626325 0.3094701 0.27002347 0.41776675 -0.047236193 0.05663687 -0.41515103 -0.3019667 -0.41578382 -0.2897036 -0.35722888 0.12332939 0.25771272 0.13174064 0.36978427 0.42036393 0.23856112 0.12217169 0.3847038 -0.026155679 0.000736493 0.10327172 -0.62589777 0.21638757 0.1306357 0.91540945 0.008693982
21766 -0.69815433 0.8128779 -0.23864388 -0.22372909 0.38447902 -0.3036472 0.1867993 0.23681737 0.62871456 -0.26145667 0.13042371 0.071411006 -0.07264328 -0.5547507 -0.004401188 -0.11695587 -0.08736805 -0.36462808 1.2698643 0.51887214 -0.60071576 0.02967053 0.16653219 0.32599273 0.72793 0.4954974 1.0524563 -0.14163363 0.02404559 -0.27710092 -0.06284761 0.37648556 0.08882622 -0.6471564 -0.12484638 0.31166002 -0.18064496 -0.12272183 0.13814923 0.42940518
38 0.007681466 -0.05999401 0.4864926 -0.18453084 -0.5226714 0.59198904 0.4268214 -0.14070337 -0.31784135 0.33330005 -0.051636193 -0.561511 0.36843514 0.23100582 -0.13296781 0.29389474 0.64114743 0.20623294 -0.19071281 0.19869648 -0.791641 0.48760274 0.5151021 -0.18570541 0.67863995 0.50644934 0.29114702 0.21257867 0.64335793 -0.347351 -0.3187312 0.14414068 0.25707468 0.3859176 0.96061623 -0.39736345 0.03781792 -0.47961727 0.2512134 0.27635434
33291 -0.37196007 0.3468876 0.20375201 -0.1666386 -0.21282181 -0.41833487 -0.15337372 -0.9526839 1.207271 -0.9802129 -0.53818357 -0.23744759 0.51947296 -0.42204365 -0.19506408 0.10953457 0.09708577 -0.27629572 0.4760412 0.5656598 -0.40211684 0.2488142 -0.22431807 -1.1510918 0.09977142 -0.071958534 0.38094842 -0.48141983 -0.15939143 -0.38226902 -0.9524364 -0.27596557 0.07634595 0.07274842 0.8992486 -0.16143624 -0.6296975 0.25895384 0.47931105 -0.093459114
20047 -0.049952902 0.3277554 -0.06800216 -0.082274236 0.43327335 -0.37522867 0.003123422 -0.78627527 0.440681 -0.06782105 -0.15329245 -0.112049185 -0.08023523 -0.012788303 -0.24927332 -0.94646424 0.65253067 -1.3516378 0.44935122 0.20749518 -0.8827752 -0.0413166 0.23978935 -0.897695 -0.12619154 0.34358478 -0.1466442 -0.3084123 -0.0097465115 -0.04953841 0.22483656 -0.07087237 0.20020205 -0.050813 0.27227798 -0.36351168 0.15144841 -0.5851676 0.31276244 0.4594705
1856 0.29049778 0.19006835 0.23725745 -0.07390777 0.22080676 -0.40343547 -0.38196626 -0.33006948 -0.23733348 0.08790538 0.15012357 -0.007386471 0.3134526 -0.6348577 0.21379915 0.22802047 0.013151564 0.49987528 0.17810157 -0.20690364 -0.6837616 0.25200984 0.49543297 -0.19558209 0.20927224 0.014220507 -0.06321149 0.4172213 -0.018713688 0.021709867 0.08558134 0.11163955 0.34200692 0.5121116 0.21400434 -0.7972124 0.43347043 0.31815827 0.70076656 0.65836614
32710 -0.12816775 0.049109355 0.6044328 0.010257965 0.1395453 0.15340774 0.18506767 0.22059205 0.11875052 -0.22231136 0.060778372 0.05137371 0.42571148 -0.08087899 0.34011295 0.23552658 0.03331967 -0.15342228 0.17665099 -0.46121794 -0.71548516 0.11050921 0.039707344 0.103862815 0.19589703 0.30495387 0.27218288 0.14316495 -0.1693071 -0.113951944 0.32545912 0.033478085 0.15043618 0.16159631 -0.27598345 -0.23069872 0.15489614 -0.56145835 1.0111039 0.54369766
22899 0.15304492 0.50475866 0.5225517 0.16739994 0.12735699 0.39794984 -0.13252074 0.49422836 -0.000437152 0.39518017 -0.21739313 -0.27368173 0.024153965 -0.09756326 -0.13462873 0.30301338 0.7535188 0.06917047 0.55478406 -0.029914334 -0.71410125 0.52889585 0.45235732 0.044399608 0.73221314 -0.06646531 0.18938854 0.26584458 0.030840445 0.20701352 -0.47967917 0.31123757 -0.28400296 0.38023704 0.16465239 -0.14647676 0.49660674 -0.3103684 0.6301735 0.20289952
6575 -0.5429843 0.16238062 0.50752527 -0.5389951 0.32985416 0.42466494 -0.44304416 -0.53954226 -0.05646522 -0.008382573 -0.17665659 0.19533373 -0.43426242 -0.49649572 -0.62681395 0.9260146 0.29450434 -0.1567522 -0.09003571 0.282217 -0.5189501 -0.21197255 0.35371286 -0.038483873 0.19075312 -0.4517785 0.6009056 -0.123462975 0.30861655 0.27111384 -0.42263928 -0.7317805 0.14996748 -0.13234295 0.5873248 -0.43026507 0.6266474 -0.34003893 0.38514125 -0.04829601
15110 -0.095415466 0.21401519 0.84420085 0.42974544 -0.8134905 -0.34882236 0.4908104 0.28554597 -0.2782903 0.3299773 -0.456399 -0.20039348 0.11119106 -0.89169186 0.44792408 -0.4013187 -0.007460972 -0.7712486 -0.1377654 0.034512334 -0.21992797 -0.06917962 -0.06931999 0.3341498 0.22442713 0.6134649 0.6314553 0.63190377 0.78800285 0.43580022 -0.21856633 0.020951262 0.32583463 -0.012789105 0.08334423 -0.27829796 -0.13791732 -0.064464994 0.47096092 0.014164404
17876 -0.61966765 -0.2887597 0.86266243 -0.011253603 -0.15891217 0.2551932 0.4436914 0.5419109 0.6746419 0.12308486 -0.008369218 -0.18073031 -0.13377246 -0.8311343 -0.7551493 -0.22077893 -0.4443952 -0.9711662 0.6769149 -0.22923116 -0.6124023 0.2664786 -0.2012905 -0.15891416 0.7218873 -0.22741881 -0.31705755 -0.3356741 0.4830058 0.46096677 0.41097316 -0.12232819 -0.3242724 0.25496012 0.20784612 -0.16351108 0.6319463 -0.7523785 0.36280406 0.33609265
31630 0.18397021 0.73056215 0.9552017 -0.678094 -0.13456558 -0.42810312 -0.23722018 -0.45710048 -0.050542586 0.4148154 -0.29836267 -0.06128203 -0.029601146 -0.22058842 0.27910432 -0.25034097 0.114019684 0.11324374 0.40707213 -0.7382418 -0.1549004 -0.15474895 -0.23603015 0.15073663 0.72345906 0.40957305 0.3577188 0.19796365 -0.21150254 0.2588839 -0.007666062 0.13939455 0.54496753 0.5544305 0.13399468 -0.22770298 -0.06692826 0.13293861 0.4603737 -0.22132552
33837 -0.5802853 0.38970765 -0.0014374485 0.06385837 0.46857807 -0.23454106 0.3246106 0.09958562 0.62507576 -0.043933313 0.0994736 0.1645116 0.42908347 -0.13247737 0.60426253 -0.032053117 -0.1773497 -0.52614135 0.89015824 -0.78180116 -0.60478157 0.24977235 -0.075709835 0.052518133 -0.16304545 0.28881812 0.095628776 0.42658436 -0.061674222 0.118027315 0.106204525 -0.17865765 -0.5793992 -0.5332597 0.043118298 -0.13799438 -0.2646008 -0.27417207 0.92167985 -0.1589751
32582 -0.83916044 0.06650708 0.16161773 -0.14580113 -0.21885085 0.2696924 -0.73398775 -1.1397449 0.40452147 -0.3514412 -0.043064702 0.013947509 0.5866505 -0.34364054 -0.77759045 -0.7310044 -0.06713826 -0.6019375 0.69367284 -0.32321537 -0.5838007 0.5935653 -0.38859737 -0.62261987 0.22967523 0.16544133 0.08845433 0.05898376 -0.4751317 -0.40295812 0.0052572745 -0.4765075 0.11523961 0.14277987 0.3792064 -0.1965978 0.23123172 -0.26310503 0.45372084 -0.11485394
16689 -0.4520964 -0.17243871 0.234169 0.41122824 0.39135164 -0.11501973 0.023545457 0.0971077 -0.4185513 -0.29796427 0.3278147 -0.04260106 0.23475716 -0.33320498 -0.009063356 0.44365352 0.30160138 -0.34805518 0.29084256 -0.41165873 -0.64977974 -0.080208905 0.11660418 0.41443038 0.4343704 0.18148975 -0.026238212 -0.1125814 0.54079044 0.20386523 -0.24972521 -0.16885695 -0.15449317 0.02122574 1.2047422 -0.74619484 0.021393146 0.50373036 0.64986223 0.23109195
19384 0.22016302 -0.10206643 -0.022238428 -0.41658288 -0.2977665 -0.49433234 -0.07560898 0.098807864 0.628644 -0.14936978 -0.05054416 0.04367926 0.51600486 -0.3794459 -0.1527304 0.15012401 -0.23022605 -0.002369268 0.11657412 -0.57919204 -0.3258831 0.042466346 -0.039755877 -0.28336164 0.5202894 1.2210243 0.3855844 0.099613786 0.89495736 0.583957 -0.7604118 -0.1900428 0.03685081 0.0089430455 -0.55155116 -0.11120968 -0.6143119 -0.9157166 0.8868662 -0.10092657
7721 0.33515245 0.4154149 -0.16116059 0.29127133 -1.0402154 0.13331701 0.015878579 -0.5213044 0.32173917 -0.40883988 0.67116225 -0.35473958 0.295047 -0.32954 0.2991631 -0.5319188 0.048564885 0.40933117 0.40815324 -0.86212313 -0.8195083 -0.24714188 0.5132334 -0.16870993 0.61383456 0.019018954 -0.32025206 0.40566316 0.83986014 0.29098475 -0.024653694 0.056691874 0.24330398 -0.42909077 -0.16084535 -0.35092372 -0.13450202 -0.52187866 0.5975654 0.30626908
26877 -0.49992847 0.1947869 -0.38648346 -0.18742643 -0.55465686 0.25820515 -0.36507663 -0.69419897 -0.15382585 0.3889807 -0.33680886 -0.43240008 -0.5535009 -0.2759058 -0.18141203 0.2183009 0.76745677 0.016454406 0.3539091 0.08998611 -0.11203525 0.11238355 -0.233709 0.5667485 0.8289062 0.017630031 0.52022827 0.40691268 -0.017188668 0.11255744 -0.23409627 0.3871514 0.25943097 -0.052440297 0.16935277 -0.040060826 -0.09000564 -0.45003614 0.6119886 0.983603
33216 -0.24373858 0.37743738 0.076404005 0.42147157 -0.43649355 0.02444311 0.01214663 -0.19228418 0.54410976 -0.4031774 0.33206058 -0.1979061 -0.12361007 0.0073089395 0.29957452 0.43579257 0.14705323 0.7752901 0.19338031 -0.6290079 -0.7293294 0.15867175 -0.22710949 -0.5824088 0.102617696 0.29266226 -0.103652395 0.12775688 0.49248222 0.24901184 -0.31260774 -0.24999578 0.36827013 0.23983663 -0.50363386 -0.32105532 -0.16192213 -0.8783752 0.5641645 0.5120392
25677 0.17104788 0.042525794 0.05323413 0.22791138 0.0005393885 0.58476806 -0.07654505 -0.45015678 0.60858315 0.46030292 0.36663127 -0.54302794 0.07533795 -0.6421029 0.070913814 0.13437657 0.46110284 0.34237757 0.44275397 -0.55819076 -0.4407884 0.31090668 -0.087709345 0.049289707 0.7858898 0.36289573 -0.5515047 0.66927814 0.23233718 0.021735622 -0.08369555 -0.043231294 0.48935857 -0.27454475 -0.7926933 -0.43293983 -0.2348233 -0.35841227 0.6217628 0.5664017
16716 -0.7498107 0.21282254 0.5102438 0.14691967 0.24218702 0.16018817 -0.18557522 0.14521071 0.2837716 -0.4982133 0.115225896 -0.32644013 0.43779513 -0.3462374 -0.34824005 0.65029496 0.3458034 0.13816611 0.25627416 -0.43643847 0.10199451 -0.22864753 0.5197552 0.30324113 0.07232934 0.05929834 0.33828363 0.2656037 -0.16062477 0.41014495 0.1606657 -0.54355985 0.29695186 -0.23768713 0.81033003 -0.6461366 -0.031486962 0.73452294 0.689626 0.8844263
6541 -0.19244945 0.46575907 -0.049280006 -0.38611105 -0.57080513 -0.38245717 0.07386779 0.13677049 -0.19271724 0.39461705 0.54069686 -0.5803776 -0.12320435 -0.55674356 -0.13377395 -0.36457095 0.4356196 -0.41263318 0.627209 -0.33376408 -0.49691668 0.87457454 0.21044673 0.4504091 0.07343467 0.2738942 -0.40074956 0.02283491 0.74011004 -0.25354522 -0.023722148 0.16685598 1.0991005 0.3362939 0.013171307 -0.23830584 -0.004808687 -0.12667611 0.32681233 0.41534555
30706 0.07398892 0.36573443 0.5369063 -0.5074012 -0.54010856 0.2506419 0.7351877 -0.53899705 -0.47782412 0.20356946 0.49161565 0.17685562 0.28467196 -0.56889975 0.25999993 -0.4858749 0.27707016 -0.56372994 0.1789737 0.2771094 -0.5629428 0.13002251 0.0539123 0.30642852 0.04138208 0.07080159 0.5922172 0.1307897 0.41090173 0.06400172 -0.21969327 -0.026471155 0.21089655 0.03830403 -0.40470445 -0.22480242 0.18408543 0.08509907 0.68253016 0.062479634
9143 -0.12024271 0.5101245 0.98606485 0.20224337 0.093560636 -0.71286917 -0.12424698 -0.8225609 -0.045467477 -0.18964353 -0.106135644 0.14415933 0.20564853 -0.23291738 0.13376674 0.25924104 0.43317127 0.05387614 0.40130785 -0.2588129 -0.37961733 0.37086514 -0.27951434 0.1345402 0.36052766 0.27276647 -0.34008408 0.5507428 0.44724682 0.1327269 0.1274832 0.64690435 0.42362714 -0.2489249 -0.028264575 0.33068419 -0.2547568 0.05735072 0.71766984 -0.016506264
34026 0.17397647 0.8067145 -0.02092097 -0.6956938 -0.52412885 0.20055231 -0.32622153 -0.32137215 0.41281262 -0.34356225 0.555548 -0.2930712 0.061009336 -0.4881299 0.04424895 0.13331184 -0.0594758 0.097196974 0.06469408 -0.7138524 -1.1484028 0.2849895 0.55050147 -0.004667326 0.1479645 0.6181242 0.16066234 -0.22052404 0.7286126 0.7342581 -0.4316391 -0.21668135 -0.57805973 -0.17336808 -0.65182656 -0.50127804 -0.59540147 -0.2336371 0.28963763 0.21606016
15901 -0.24092753 0.0050650365 0.94598615 0.16349272 -0.06694952 0.17349228 -0.18971385 -0.4662653 -0.20343095 -0.18794526 0.40969816 -0.10241902 -0.34343567 -0.051801983 0.37047458 0.7028987 0.69218427 -0.22653814 0.35439196 -0.21275263 -0.167848 0.22987138 -0.5077941 0.021075143 0.5388952 0.42263356 -0.22439623 0.47545683 -0.15469798 0.14363582 -0.06646279 0.23528893 0.343855 -0.37520468 -0.6215824 -0.22110742 -0.31916934 -0.4895796 0.72693276 0.10639487
32924 -0.24451561 -0.5012296 0.2844815 -0.95360255 0.12168859 -0.4791385 -0.40384385 -0.37070927 0.1558516 -0.20768051 -0.10344544 -0.47480676 -0.3726007 -0.5273704 -0.050637823 0.7089509 0.8750303 -0.0050265165 -0.32304853 -0.2726816 -0.5885294 -0.0514793 0.1545103 -0.17715155 -0.18579423 0.08700404 0.08140595 0.29590657 0.3191308 0.04438909 -0.049327984 0.16958961 0.31505388 -0.60031176 -0.36364853 -0.47285983 -0.57711875 -0.5897442 0.6171591 0.30024245
19037 0.39897072 0.29727507 1.2549014 -0.17768477 0.33447337 -0.14417584 0.14048263 -0.26576293 0.53969103 -0.09883153 0.5137163 -0.18218431 -0.14499459 -0.0752333 0.08351005 0.067459665 0.33255252 -0.20391276 0.3125967 -0.5595747 -0.17240575 -0.37145793 0.011442737 0.06220803 0.44206583 0.81321776 -0.10268771 0.2658525 0.07141199 0.20370567 0.4050766 -0.066405125 0.3540135 0.012832333 -0.3804094 -0.3863442 -0.09378551 0.105794504 0.23180975 -0.08830316
34944 0.1111945 0.27633736 0.6130063 0.12623681 -0.2923335 -0.20194893 -0.23618673 0.113394715 0.007918123 0.09194507 1.1541505 0.22898337 0.39566082 -0.45249343 0.7388196 -0.51616335 1.091822 0.13089918 0.48589495 0.32033432 -0.68038666 -0.38485688 0.8576386 0.3483434 0.49165696 0.6593827 0.43905398 -0.28904757 0.6102572 -0.118978664 0.06238946 0.622522 -0.116797455 -0.37639216 0.0980237 -0.25202772 -0.32976466 -0.5244341 0.36463258 0.4959852
15770 -0.09387669 0.22059543 0.19378392 0.2826868 -0.5328327 0.1066994 0.45232314 0.15863842 -0.19443193 -0.51550585 -0.14454828 0.039662898 0.030234555 -0.41409087 0.3347528 -0.112085916 0.028350653 -0.44982108 0.45519072 -0.78611493 -0.5012499 -0.16486798 -0.23015748 -0.041581035 -0.0036239198 0.57164055 0.95425826 0.49176723 -0.06870178 0.25815377 0.5147747 0.24729465 0.11232359 -0.03306811 -0.28249934 -0.43436298 0.27387768 -0.48726577 0.7811376 0.10610881
31197 -0.2475107 -0.70195985 0.070073 -0.09855846 -0.032572962 -0.30659756 0.26112273 -0.44311216 1.0566885 -0.36796954 -0.65956444 -0.1550137 -0.5174367 -0.10112227 -0.2712472 0.43246034 0.19904312 0.47044367 0.3554772 -0.3142579 -1.0447105 -0.49512342 0.20133367 -0.1997182 0.40768692 0.14898475 0.5365718 0.31073564 0.04384938 -0.22445616 0.42284912 0.24606802 0.17954746 -0.38477743 -0.033083282 -0.5275121 -0.6625929 -0.4369344 0.33530325 0.2831191
30782 -0.41092834 -0.19828723 0.8020157 -0.12740737 -0.23868994 0.123488784 -0.06608514 0.23236404 0.17301378 -0.46480605 0.0960019 -0.23190144 -0.1362628 -0.17891239 -0.40611446 0.8985934 0.42043906 -0.020947412 -0.029753305 -0.15641132 -0.6393614 -0.15689917 0.49592635 -0.3479603 0.27330413 -0.19347385 0.4325062 0.48059514 -0.33539763 0.39622736 0.14324729 -0.21785544 0.6923912 0.04381314 0.9587928 -0.49962857 0.21096963 0.22252323 0.39456323 0.0902818
28671 0.007926213 0.52338 0.41716802 -0.21073212 -0.49463564 -0.18642083 -0.116896324 -0.34768873 -0.09218472 0.7415391 -0.08415021 -0.008707984 0.3447809 -0.21123247 0.07974995 0.4759699 0.19192997 0.39750415 0.58061576 -0.10002066 -0.5328003 0.46520585 0.267436 0.15301417 -0.31823975 0.27165905 0.4546042 0.48753273 0.13952106 -0.10522838 -0.0049961205 0.46532503 0.3745771 -0.30265355 0.19149223 -0.85005236 0.17233583 0.1086053 0.35133094 0.40439248
14334 0.807641 -0.8424846 0.042139743 -0.7545196 0.09375183 -0.07762607 -0.3011094 0.08450714 0.52942115 -0.5689315 -0.21639769 0.0038498044 0.39596868 0.022274133 0.003917264 -0.2655992 -0.07430103 -0.12969153 0.7172179 0.061022095 -0.25859767 -0.14136304 -0.4820968 -0.10342833 1.0195516 0.0728794 0.19626087 -0.053510405 0.8536694 0.4818036 -0.43627465 -0.3692841 0.2610686 -0.10406837 -0.085169375 -0.67245036 0.06656984 0.08180298 0.50022835 0.73009115
16371 0.099595465 0.4811139 0.7330297 -0.41147247 0.080991775 -0.42432624 0.021205768 -0.3873685 -0.47406417 -0.07422512 -0.49058878 -0.04705609 -0.32048962 0.055217113 0.3041203 -0.27400237 0.37394285 -0.12836519 0.05112796 -0.438817 -0.20214684 -0.023513334 -0.29580522 0.002914174 0.65985173 0.19914253 0.47966185 0.32859218 0.38385168 -0.38657963 0.07351389 -0.0011878482 0.29704773 -0.029221548 0.10745103 -0.63739526 -0.6281255 0.35273743 0.5370868 0.48440892
6569 -0.4007676 -0.121835485 0.48667312 -0.81246316 -0.81982416 -0.48053414 -0.1989478 0.20100096 0.2556465 0.8442205 -0.6939539 -0.30157954 -0.13847134 -0.3812449 -0.05176405 0.32346648 0.15787926 -0.34545937 0.4447731 -0.27379572 -0.12905487 -0.1542894 0.34526655 0.3157667 -0.34157923 0.43595165 -0.22665405 0.75576043 0.24441713 0.0779789 -0.3817029 0.080414966 -0.2865796 0.36793783 0.08109177 -0.10697584 -0.08207736 -0.15858538 1.4613932 0.4595247
30990 0.42395616 -0.09873293 0.7751469 0.07336449 -0.0038811767 -0.18096158 0.07404907 -0.55196154 -0.07073861 0.3548763 0.41563246 -0.34724125 -0.61623913 -0.06721422 0.28887853 0.15721038 0.5313832 -0.22645435 0.27097443 -0.64812243 -0.35025814 0.100215204 -0.26365596 -0.0013684895 0.33273265 1.0058312 -0.054544877 0.28694597 -0.083743095 0.057813935 -0.3079593 -0.13376026 0.24759993 -0.19999073 -0.25629407 -0.67469466 -0.06645466 -0.34009108 0.21246277 0.13588357
1032 -0.078205116 -0.0035519495 0.7343691 -0.24182278 -0.4499605 0.06071836 -0.5123335 -0.21515058 0.99779224 0.07429969 -0.2527814 -0.3081136 -0.77034724 -0.5724107 0.42923003 0.10197521 0.12680873 -0.45364702 0.71925956 -0.088580795 -0.564379 -0.078325644 -0.40626517 -0.32000905 0.059672263 -0.27593747 0.53635544 -0.46339154 -0.1113142 -0.44217086 0.5507903 0.25962973 0.056465767 0.35430485 0.34050432 -0.39315972 -0.025667822 -0.45029384 -0.11670559 -0.25790948
22459 -0.6490504 -0.33426324 0.47916833 0.1572485 -0.110255495 -0.17208411 -0.06888277 0.1314602 0.016838057 -0.83361036 0.2503416 -0.11273763 -0.027649058 -0.4824813 -0.16149499 0.6867967 1.0402685 0.040063094 -0.07153585 -0.1863997 -0.67980295 -0.1433904 0.4187001 0.026842639 0.051104303 -0.27175456 0.2956718 0.23263313 -0.020382846 0.101039276 0.1701772 -0.01555091 0.4059092 0.06836695 0.6384845 -0.5369731 -0.113258496 0.27182394 0.5977142 0.33555633
23430 -0.085917175 0.8109007 -0.2996464 -0.066421255 -0.29775006 -0.08620401 -0.19071248 -0.039308053 0.78888184 -0.61431754 -0.43920124 -0.6881027 0.12636055 -0.67421395 0.0281658 0.4694654 0.028456334 -0.037560984 0.6521624 -0.5394196 -0.08298859 0.23289566 0.5159698 0.054821767 -0.0309011 0.5270293 -0.37026358 0.18469262 0.9869037 0.6062925 -0.09915832 -0.14167179 -0.10255834 0.07215421 -0.117302746 0.21710104 -0.25455052 -0.4998326 0.65557706 -0.035045296
31935 -0.45731157 -0.19510317 0.61850584 0.54097974 -0.3507984 -0.13044117 0.6045739 0.23908375 0.03266315 -0.62126076 0.038209643 0.07068252 0.42940003 -0.78060794 -0.184186 0.5730987 0.2420355 0.42430502 0.23514047 -0.05712468 -0.79362684 0.47329178 -0.06703355 -0.10857885 0.17643826 -0.088738725 0.32767168 0.39559394 0.61817044 0.30972657 -0.1381112 -0.714955 0.2237262 0.044048544 0.7406705 -0.6825184 0.17782508 0.8524103 0.25524387 0.03580241
29303 -0.04059108 0.43511382 0.9456611 -0.050747752 -0.12312376 0.22744618 0.27714422 -0.5983289 -0.30726513 0.4730784 -0.11663508 -0.33982003 0.09175345 -0.29554027 0.42467856 0.5005281 0.5763742 -0.1503123 0.18125075 -0.23452722 0.043173753 -0.06866902 -0.55617076 -0.0835932 0.17157774 0.26535624 -0.1446404 0.8093572 0.7389333 -0.07098307 -0.25536752 0.43561652 -0.0018840705 -0.077797316 -0.01300943 -0.49193096 -0.115902185 -0.049764648 0.5327979 0.041843005
16778 0.31460306 0.35479718 0.7530052 -0.336748 0.17769639 -0.5953899 0.16696471 0.07470259 -0.211641 0.40308195 0.4627019 -0.6109176 -0.5481944 -0.47170174 0.07864415 -0.7412285 0.6174726 0.35864484 0.5352163 -0.3242115 -0.16413191 0.59985554 0.34812528 -0.5817168 0.1288722 -0.41035154 -0.15648292 0.27474463 0.45868355 0.11066022 0.053438213 -0.23064356 0.057920784 0.26792333 0.48282045 -0.4210248 0.59234595 -0.24941057 0.7751469 -0.26919904
23958 -0.4609584 -0.033473622 0.82843953 -0.39291388 -0.2137077 -0.08609446 -0.038282663 0.40226355 -0.4698867 -0.33259422 0.21589142 -0.09386962 0.41697332 -0.6425088 0.16143645 0.35637853 0.0789428 0.0658816 0.22801603 0.2525701 -0.547466 -0.18497896 0.5803312 0.031901486 -0.14496249 -0.22028355 0.102419965 0.2786237 0.2334701 -0.06223841 -0.290225 0.30755594 0.24708343 -0.0010549583 0.75088215 -1.0099674 -0.24467099 0.5195664 0.6911192 0.2133344
25179 -0.26168737 0.57299083 0.14537714 -0.10428279 -0.8796487 0.33632824 0.0026223385 -0.19658814 -0.18934514 -0.056819092 -0.19866167 0.09680119 -0.20806125 0.1695888 0.1996167 0.13481386 0.3784553 -0.14975905 0.94371974 -0.13762292 0.034117814 0.28554958 -0.09706027 0.6325813 0.73894984 0.34251672 0.2858221 -0.023346653 0.17450528 -0.3245903 -0.21396175 0.1493453 0.40950897 -0.31086847 -0.12762052 -0.6696964 -0.52475476 -0.73860985 0.38368183 0.82751775
8172 0.3108465 0.23959263 1.0260926 -0.18066578 -0.034975074 -0.4997393 -0.21043889 -0.40044662 0.4884496 0.5059222 -0.53643477 0.04997285 0.065488845 -0.17499118 0.5295562 -0.17323047 0.49433076 0.009583488 0.24738666 -0.09488325 0.1713025 -0.39385927 -0.06336174 -0.1391031 0.71263933 0.035170257 0.17081912 0.29202566 0.5765074 0.4993177 -0.4682795 0.448641 0.0737092 0.2643986 0.35167786 -0.9411081 0.056861583 -0.04285032 0.4359699 -0.3532685
25125 0.004169118 -0.025369745 0.5235151 0.31897867 -0.5541303 0.33839777 0.29845703 -0.38322508 0.07906327 0.08056285 -0.2187096 0.09256307 0.3531604 -0.47493237 -0.15356359 -0.06998476 0.16070692 0.8441238 0.30834666 -0.22334003 -1.4223429 0.09301603 0.21926403 -0.20287181 0.2801647 -0.18433516 0.3701398 0.13422379 0.47690398 0.09923324 0.67931485 -0.1560687 -0.4011881 -0.59964305 -0.1864536 -0.45150027 -0.66028523 -0.28459907 0.63535243 0.56336313
22491 -0.069560826 0.19067895 0.41882214 -0.54388607 -0.28746203 0.2380632 0.22243479 -0.28201967 -0.5088129 0.9662781 0.20371355 -0.37398463 0.63786775 -0.13294277 0.20069404 0.32353473 0.69647133 0.21433608 0.50903416 0.44032583 -0.3197238 0.11343171 0.18063474 -0.0056347004 0.48973358 0.7799507 -0.13654035 0.77383906 0.5528329 -0.033348538 -0.12378248 -0.24301773 -0.041155614 0.098337755 0.39962038 -0.55962193 -0.15839675 -0.36995408 -0.07708833 0.6602286
24839 0.04808213 0.04966814 0.9398526 0.27384564 0.5526626 -0.61396927 -0.10856907 0.047844134 0.8445938 -0.14345185 -0.01034421 0.17389162 0.13751043 -0.9274674 -0.4350389 -0.2533108 0.008771097 0.23575023 0.2837698 -0.053259518 -0.8999319 -0.415812 -0.45404813 0.28383794 -0.24051149 0.29633465 0.35202128 0.69622004 0.29541653 -0.04764079 0.29073223 0.118436106 0.058091484 -0.10003264 -0.19387579 -0.24299058 -0.5010767 -0.12173824 0.43788487 0.4255664
7090 -0.28243026 0.482672 0.091290765 0.094020136 -0.019583357 -0.39710408 0.46433976 -0.33988246 -0.3135688 0.16501145 0.57912344 -0.19556454 -0.2828992 -0.5734721 0.2115931 0.061531674 -0.1844726 -0.5661028 0.6310849 0.67037076 -0.48739138 0.11770413 0.27539936 0.5007323 -0.045242302 -0.009677941 0.65677416 0.063448645 -0.19640689 0.3381792 -0.11351878 0.18414031 0.30384964 0.27693447 -0.26227772 -0.61341757 0.32570055 -0.374675 0.9634126 0.18343237
2159 -0.10194119 -0.52784085 0.093618594 0.055405047 0.39191252 0.15552483 -0.102322415 -0.7359328 0.22616324 -0.42014006 0.6804985 -0.13244659 -0.17537314 0.19823103 -0.2784446 0.092421696 0.28951478 -0.06690467 0.80824715 0.22865522 0.007992316 0.20043185 0.10434492 -1.1325575 -0.055029042 0.29340667 0.3231282 0.2329855 0.37181595 -0.21635309 0.104044266 0.6730901 0.5663724 0.4485423 0.746725 -0.6255323 -0.03732593 0.01734924 0.2730061 0.55542994
14593 0.283932 -0.077916205 0.49556854 -0.04274784 -0.05929931 0.32932335 -0.0015137875 -0.11297463 0.32998678 -0.42334998 0.47968343 0.19252105 0.37008473 -0.32290015 0.14163177 0.8376794 0.13598353 -0.285588 -0.054131556 0.23328643 -0.23075357 -0.06670255 0.20983985 -0.36773357 -0.40213346 -0.11540118 0.53553766 0.36342514 0.15867202 -0.16869259 -0.11217981 0.3073105 0.15723644 0.12782541 0.14624834 -0.7492311 0.5947273 0.33967435 0.9634981 0.9548261
14578 0.026956525 -0.4993149 0.722524 -0.3275798 0.11029469 -0.8962783 -0.08946345 -0.83396137 0.17922781 0.49280766 0.39888933 0.24218382 -0.14526592 -0.32569 0.36927423 0.044576596 -0.506471 -0.24323584 0.18867376 -0.34234247 -0.09951336 0.15646374 0.3046857 -0.1686205 0.57359153 0.37483796 0.33825576 0.37476924 0.6944343 0.35696116 0.39555386 0.25449762 -0.12916036 -0.0925631 0.15624145 -0.3706777 0.4006875 0.25880542 0.38779414 0.4696033
23228 -1.1862973 0.32584947 0.43861166 -0.33607876 0.13014531 0.2097902 -0.83485246 -0.77808994 0.57815087 0.15341069 -0.48743108 -0.7949985 -0.077909574 -0.15859215 -0.13670367 -0.27354392 -0.23745033 -0.22522636 0.90958506 0.07464717 0.11620883 0.11048704 0.042348087 -0.47784382 0.26196417 0.19457635 -0.04097399 -0.550882 0.28761795 0.14734915 0.13948804 -0.52368665 -0.32428738 0.25866038 0.2909703 -0.8384983 0.5406539 0.019113643 -0.079740345 0.8398649
13995 -0.039922573 -0.10555561 0.13164183 -0.2061712 -0.23210518 -0.43130893 -0.08495914 0.26742476 -0.10710147 -0.18231112 0.21751648 0.64109385 0.2464811 -0.41172048 -0.39047775 0.75025403 0.19869909 -0.20566623 0.75525415 -0.3394708 -0.69595826 -0.18299761 1.1606896 -0.20995757 0.29373637 0.65175426 0.7989608 0.19929986 -0.17590514 -0.1004868 -0.7097232 0.028053511 0.32219344 0.2863425 0.6254519 0.22920303 -0.04745297 -0.37832236 0.44750682 -0.031725444
32451 -0.172534 0.51773345 -0.44168696 -0.4106288 -0.55389524 0.21305992 -0.12537906 -0.22870141 0.23681286 0.422037 0.054683793 0.05612055 -0.050576936 -0.2795505 -0.57376355 -0.049320213 0.6354164 -0.5537586 0.5977359 -0.05772518 -0.38644716 0.23872465 -0.061824776 0.3523927 0.6345274 0.07186692 1.0550396 0.19219023 -0.13658062 0.2904533 -0.2237119 0.5671684 -0.11390242 0.070829585 -0.2289363 0.08406411 0.042012468 0.001233932 0.2966767 1.0758249
27596 0.42080122 0.42301023 0.4763715 0.16236721 -1.0029838 0.5729401 0.05998586 -0.29553962 0.14943793 0.06613905 0.16819078 -0.26059222 0.3234841 -0.35624686 0.20352243 -0.62314296 0.20045866 0.73700315 0.78771406 -0.40371713 -0.7907092 -0.335516 0.22536157 -0.5740465 0.35718393 -0.22174807 0.34041792 0.40777466 0.35141236 -0.23040454 0.5364758 -0.33918807 -0.005894115 -0.8556689 -0.11451891 -0.07394044 -0.14576946 -0.12596788 0.66202205 0.58869034
34095 0.368253 -0.2590905 0.74656826 -0.32956854 0.2790311 0.004771315 0.40531585 -0.361888 0.6019155 -0.21196999 -0.19751565 -0.34610215 0.27843735 -0.5781108 -0.38544115 0.12287435 0.47513238 -0.21495472 0.7038746 0.21748155 -0.19671968 0.57914585 -0.5151805 0.52793497 -0.14831766 0.40632585 0.1751288 -0.43897542 0.13183792 0.26289397 -0.22951569 -0.39200056 -0.4721092 -0.27761915 0.4202578 -0.54086936 -0.9179311 -0.5499312 0.33161798 0.17858234
19962 0.11185701 0.2280721 0.7378185 -0.3430269 0.1844066 -0.43531966 -0.3128263 -0.47466582 0.3201549 0.22411358 0.10850724 0.22410259 -0.34441125 -0.24741742 0.5655343 0.17695776 0.16256948 -0.3850962 0.49804875 0.33682683 -0.5159018 0.05811492 0.24139507 0.0028385133 0.54751927 0.11572067 0.0749309 0.48787805 0.3080973 0.58925587 0.29261306 0.9777581 -0.1382785 -0.067450754 0.21433625 -0.7832904 0.07673768 -0.59068733 0.3386834 -0.6639075
9006 0.35629436 0.7389686 -0.14129885 0.18964903 0.016674388 -0.70362717 0.17065749 -0.65990764 -0.03963722 0.3599917 0.30490288 -0.53622305 0.070990495 -0.62626594 -0.14465699 -0.48702687 0.30116332 -0.43948486 0.28332162 -0.20137317 -0.5826724 0.6509419 0.36924523 -0.038442973 -0.25706348 0.088679194 0.15393943 0.19444494 -0.07719565 0.22101066 0.12030116 0.1264354 0.70740736 0.21340294 0.1704052 -0.64407504 0.2133672 -0.18202472 0.5614198 0.2361232
3160 0.058669247 0.13871111 0.4740941 -0.2582029 -0.36806944 -0.378787 0.1319928 -0.25007027 0.57883376 0.26682988 0.012086478 0.042136766 0.22255303 0.39537454 0.38543952 0.68484694 0.055287424 -0.23980491 0.36621574 0.21428667 -0.37805298 0.38946977 0.3520875 -0.2008026 -0.16650303 -0.097133584 0.6922023 0.16207083 0.18078741 0.3737983 0.036563475 0.7018568 0.18365228 0.12052665 0.49568024 -0.6903876 -0.10285093 -0.5862252 0.6062878 0.07861021
24376 0.46811742 -0.034452792 0.39740685 -0.0023840384 -0.13429879 0.08471508 0.0048951874 -0.46076596 0.23467077 0.42135593 0.0059391144 0.061284225 0.037214153 -0.43793938 0.2726665 -0.45460016 -0.10647008 0.43086493 0.5507663 0.0831202 -0.15453333 0.6466044 0.4695439 0.1424827 -0.10722374 0.47949356 0.53480333 0.5508215 -0.058468852 -0.12611891 0.12338832 0.026664434 0.43951416 0.71668535 0.059021305 -0.29657152 0.38967252 -0.31448394 1.3201065 0.15211953
21090 -0.2438153 0.8630689 -0.07957845 -0.1666154 -0.4618391 0.012542688 -0.29730284 -0.61155987 0.44475666 0.5480312 -0.18358523 -0.36509344 0.56150496 -0.3832735 -0.14260785 -0.07568867 0.68142277 0.033748645 0.56458074 -0.2155589 -0.2870519 0.4566995 0.68859804 0.21842426 -5.480629e-05 0.5153829 0.21564001 0.06124792 0.11708588 0.16418573 0.2616114 0.06664038 0.7142535 -0.41494203 -0.17449054 -0.35306612 -0.11837211 -0.44715238 -0.14608036 0.7651996
36959 -0.770096 0.23300561 0.063382074 -0.56556916 -0.27603185 -0.2059075 -0.48690918 -1.029906 1.411669 -0.37479395 -0.5606088 -0.06920873 -0.004559646 0.17368072 -0.39006698 0.119924314 0.6541803 -0.7025632 0.8878368 -0.06375627 -0.53143847 0.867711 -0.28818795 -0.8110976 -0.0011771426 -0.30788434 0.10635494 -0.03851423 0.193563 -0.2729311 -0.03569751 -0.22530678 -0.13905737 -0.10070032 0.20665967 -0.0646697 0.096053235 -0.040562022 0.07583002 -0.32591388
36837 0.27928698 0.5519322 -0.30947188 0.27057365 -0.21471202 0.29821032 0.047795534 -0.087087266 0.22711171 -0.66053444 -0.38144806 -0.2806552 0.4090321 -0.38377646 -0.53213036 0.60213166 0.022054495 -0.42316046 0.94969445 0.35305977 -0.25283298 0.37706006 0.5522029 -0.27342403 0.25185427 0.4493322 -0.022141866 0.6919404 0.46653056 0.47854075 0.33717293 0.45338118 0.34309304 -0.2248271 -0.057797544 -0.67536074 -0.4130495 -0.29020363 0.29558015 -0.29155487
10332 -0.09968385 0.53972375 0.15069842 -0.32177386 0.22508024 -0.4483149 0.7604762 -0.517765 0.33614913 -0.0647733 -0.07185342 0.26277494 0.23344125 0.11991793 0.64561385 -0.5561161 0.22048898 -0.6499109 0.15720761 0.16550684 -0.6473464 -0.070005596 -0.22199611 0.17721663 0.3692854 0.2773433 0.29868528 0.26568985 0.33712345 -0.0031176773 -0.10093759 0.21087012 0.14501886 -0.380211 0.08849037 -0.3775286 0.12993878 0.026488973 0.8231478 0.09603876
27655 0.44648448 -0.072150216 0.39108598 0.29951122 0.028918391 -0.3133344 -0.25851804 -0.8180784 0.37947416 -0.59795856 -0.44066694 0.31677914 0.714057 -0.42630222 -0.5458791 0.004223294 0.35445958 -0.70891386 0.83066744 0.48112652 -0.3939691 0.3179971 0.05844264 0.26472753 -0.059379943 0.37652218 -0.066606164 0.021101415 -0.17201544 0.17636806 0.22386456 -0.24849488 -0.29618344 -0.122409075 0.23801826 -0.60401666 -0.66054374 -0.11959019 0.68178254 -0.3343926
25451 0.21359083 0.28635362 -0.07971815 -0.23903912 -0.29038697 -0.72318536 0.5639223 -0.66771597 0.8439808 -0.04761135 -0.47276536 -0.5465182 -0.3577623 0.14677411 0.41408843 0.060135815 0.32045636 0.1617397 0.13553005 0.25207943 -0.71828973 -0.032308348 0.5476573 -0.78252435 0.10887955 0.22996011 0.1805702 0.042731155 -0.15150273 0.054358914 0.06885613 0.49985048 0.7362431 0.38356152 -0.19538254 -0.54554754 -0.49522838 -0.302569 0.8856 0.43026358
11124 -0.6333949 0.05475428 0.622273 -0.02307687 0.120944336 0.015397408 0.053526293 -0.33205855 -0.2809408 -0.44275278 0.41585168 0.04199978 0.32947522 -0.39564842 -0.23798758 0.010723911 0.23287246 0.03203468 0.24674201 -0.4175878 -0.26932713 -0.3878998 0.18691556 0.7233762 -0.012571358 0.12097293 0.04279626 0.5095556 0.116614215 0.16277495 0.08739922 0.091244325 0.14273505 0.2819677 0.6870966 -0.5478693 0.40113842 0.13173172 0.75465673 0.4045541
13177 -0.7054789 0.36423045 0.8250232 -0.005306764 -0.40813282 -0.2333775 0.0957911 0.28339154 -0.23926996 -0.4474003 0.052184403 0.04389987 0.34154844 -0.3648033 0.20915124 0.12305688 0.35572168 -0.3723082 -0.1409958 -0.15624374 -0.14618655 -0.53324187 0.58857775 0.11923103 0.043487646 -0.101575375 0.300133 0.7419844 0.11568978 -0.053950887 0.16855265 -0.1832785 0.26282087 0.23285416 0.8270384 -0.90126765 0.034682594 0.41679502 0.6288635 -0.02490885
12731 -0.34386557 -0.029278489 0.87644994 -0.22908849 -0.3017655 -0.4589824 -0.11514139 0.3349517 -0.6037519 -0.052916635 0.32669196 -0.14202425 -0.040601566 -0.21527909 0.42805302 0.48570842 0.21524237 -0.18549672 0.21648972 0.43439615 -0.5052456 0.030766945 0.185276 0.10883005 -0.21652319 -0.109170645 0.47382462 0.34385085 -0.09960366 -0.13875969 0.056042194 0.07643747 0.35241863 0.43704554 0.5900858 -0.66180193 -0.42213577 0.11564845 0.68374217 0.29908407
9042 -0.66523767 0.050782792 0.14918931 -0.36961088 0.41382095 0.24040921 -0.1764308 -0.14531732 -0.0009670498 -0.164405 0.06660402 0.07714659 -0.47748545 -0.46065137 0.17829011 0.84108365 0.35091424 -0.57438153 1.1017306 0.20316486 -0.19450004 0.34044024 -0.72505057 -0.2521855 0.28331047 0.38491538 0.021562299 0.60280216 -0.15664308 -0.280419 -0.09639347 0.4070511 0.6150146 -0.22831872 -0.8122419 -0.1506884 -0.30563343 -0.5311809 0.48096165 0.33018565
18507 0.05369308 0.9024635 0.010765053 -0.7894434 -0.4213597 -0.1391649 0.0741949 -0.3221347 -0.09490225 0.317252 0.05339447 0.14468788 -0.10828078 -0.28856805 0.21547566 0.6993489 0.6540479 -0.21164729 0.7850284 -0.19997334 -0.54574394 0.33058828 0.836086 0.51377916 0.5655763 0.1231343 0.22204243 0.05755582 0.3870342 -0.23627628 -0.22342007 0.27057597 0.32505828 0.41421425 0.28635374 0.12285141 -0.40949747 -0.3753714 -0.15872788 0.5612341
